{"mlp": {"layers": [{"weights": [[0.02289424277842045, -0.042662568390369415, 0.2033296674489975, -0.01832096464931965, -0.03058062121272087, -0.016487179324030876, -0.07300090044736862, 0.06350914388895035, -0.05489529296755791, 0.05376151204109192, -0.02265256829559803, 0.01487649418413639, 0.012501600198447704, 0.14049386978149414, -0.03553272411227226, 0.010278097353875637, -0.03954041376709938, -0.023961443454027176, -0.053665515035390854, -0.0562465600669384, 0.0017262784531340003, 0.024421751499176025, 0.00762986158952117, 0.018059084191918373, 0.08099514245986938, 0.0008642785251140594, 0.028594665229320526, -0.037572231143713, 0.07239674031734467, -0.019279230386018753, 0.022874386981129646, -0.04252070561051369, -0.009205516427755356, -0.10423234105110168, -0.07436444610357285, 0.05749204754829407, 0.0014527143212035298, 0.02775994874536991, -0.03541983664035797, -0.031181668862700462, -0.0076894196681678295, 0.03131001815199852, -0.032341837882995605, -0.009291889145970345, -0.01068234071135521, 0.04456664249300957, -0.004092178773134947, -0.032687537372112274, 0.06968481838703156, 0.033352628350257874, -0.10014863312244415, 0.013070264831185341, 0.011433135718107224, 0.04097285866737366, -0.014645528048276901, 0.0019048313843086362, 0.04658367112278938, -0.036073993891477585, -0.008275925181806087, -0.042938608676195145, 0.04018464684486389, -0.04577362909913063, -0.000647998065687716, 0.060795966535806656, 0.020775513723492622, -0.04809622839093208, -0.009141236543655396, -0.01854017749428749, 0.09499053657054901, -0.0017254638951271772, -0.013128003105521202, 0.006450386717915535, -0.003301833523437381, -0.029962440952658653, 0.059246014803647995, 0.007774454075843096, 0.002758085262030363, -0.11458627879619598, -0.1326218843460083, -0.005958431400358677, 0.027579771354794502, 0.03698623552918434, -0.12003225833177567, 0.017095379531383514, -0.030125707387924194, -0.11552218347787857, 0.029530199244618416, -0.02692248485982418, -0.03291311860084534, -0.07017932832241058, 0.03611170873045921, 0.014024941250681877, 0.06572539359331131, 0.11501981317996979, -0.13009731471538544, 0.08969493210315704, -0.0006323035922832787, -0.004697996657341719, -0.0957353413105011, 0.04648534581065178, -0.02588503062725067, -0.0022062454372644424, 0.040567267686128616, -0.004634787794202566, -0.00027674244483932853, -0.009474210441112518, -0.0510684996843338, -0.04909823462367058, 0.20299822092056274, 0.043392114341259, -0.026161476969718933, -0.0018868920160457492, -0.006105550564825535, -0.0125186862424016, 0.0208129845559597, -0.05951828137040138, -0.031045230105519295, -0.04792070761322975, 0.014547763392329216, 0.045340023934841156, 0.010705274529755116, 0.00957818329334259, -0.05065951123833656, -0.009168652817606926, 0.0020315037108957767, -0.010457433760166168, -0.11998993158340454, 0.005274021998047829, -0.040203239768743515, 0.021814020350575447, -0.17418549954891205, 0.12162553519010544, 0.0033492709044367075, 0.024631423875689507, -0.0137593112885952, -0.23355494439601898, -0.025247951969504356, -0.01094464585185051, 0.02304677851498127, -0.02812257781624794, -0.024464908987283707, 0.05699745565652847, -0.0011358557967469096, -0.02001383900642395, -0.011389694176614285, 0.023227239027619362, 0.029249180108308792, -0.02798386849462986, -0.0036350407171994448, -0.031695835292339325, 0.05724317580461502, -0.033321358263492584, 0.1552133560180664, -0.019791550934314728, -0.12039412558078766, 0.034886498004198074, 0.02960745245218277, 0.011960365809500217, -0.014265689998865128, -0.010050764307379723, 0.01944892667233944, 0.11064324527978897, 0.07005810737609863, 0.16541367769241333, -0.018055273219943047, -0.006496259942650795, -0.027813969179987907, -0.01843460462987423, -0.0053382255136966705, 0.034839093685150146, -0.016778938472270966, 0.05810677260160446, -0.0002810342994052917, 0.055882323533296585, 0.0011919719399884343, 0.023161089047789574, -0.1140085756778717, -0.03404805809259415, -0.05171234533190727, -0.05560075119137764, 0.024045033380389214, 0.10588667541742325, 0.006668829824775457, 0.02080453559756279, -0.0018253178568556905, -0.0426451750099659, 0.023239893838763237, 0.006741173565387726, 0.03367776423692703, -0.0027486758772283792, -0.009475755505263805, 0.0762484148144722, 0.025141984224319458, -0.02190687507390976, -0.06871000677347183, 0.028953934088349342, -0.0382770299911499, 0.050806108862161636, 0.03916739299893379, -0.009331829845905304, -0.0353703536093235, -0.04117967560887337, -0.05817295238375664, 0.10488317161798477, -0.019855022430419922, -0.006711399182677269, 0.008106236346065998, 0.04081103578209877, 0.011126864701509476, 0.0029251326341181993, 0.06099225580692291, 0.04273960366845131, 0.03052818588912487, 0.042944543063640594, 0.06252333521842957, 0.05196957662701607, 0.0051423655822873116, 0.017278186976909637, -0.03138565272092819, -0.0521375797688961, 0.026205211877822876, 0.08449879288673401, 0.031852319836616516, 0.06838437169790268, -0.006142125464975834, -0.001885647070594132, 0.11793791502714157, 0.054218459874391556, -0.14148162305355072, 0.02831718884408474, -0.024223612621426582, 0.022207939997315407, -0.03408912196755409, 0.021277330815792084, 0.02031242474913597, 0.04985170438885689, 0.19658416509628296, 0.01430467888712883, -0.034150198101997375, 0.012714842334389687, -0.058506812900304794, 0.017773501574993134, -0.0018945670453831553, 0.05362574756145477, -0.057622279971838, 0.007387420162558556, -0.04874997213482857, 0.019980285316705704, -0.02940419688820839, 0.016285791993141174, -0.0029560099355876446, -0.01206468790769577, 0.0008633428369648755, 0.0034261031541973352, 0.048661310225725174, 0.032101213932037354], [-0.019374370574951172, 0.003944584168493748, 0.15060772001743317, 0.079314686357975, -0.020165899768471718, -0.009088532999157906, 0.05189711973071098, -0.15333329141139984, 0.017721015959978104, 0.0133130494505167, 0.06677994877099991, 0.06209282577037811, -0.06780347228050232, 0.10010074079036713, -0.01966736651957035, -0.020898869261145592, 0.08791065216064453, 0.025599366053938866, 0.020733684301376343, -0.05624603480100632, 0.0014519788092002273, -0.011767088435590267, -0.03413376957178116, -0.04054686427116394, 0.019739478826522827, -0.09480312466621399, -0.05226767808198929, 0.02628154493868351, 0.009634052403271198, -0.03361476585268974, -0.020852072164416313, -0.020214512944221497, -0.02673480287194252, 0.039024870842695236, -0.03318348899483681, -0.06448964774608612, -0.053577180951833725, 0.020797904580831528, 0.02231789007782936, -0.07461044192314148, -0.01925196684896946, 0.07014832645654678, -0.025587571784853935, 0.00048166565829887986, 0.06183794140815735, -0.016582440584897995, 0.06091152876615524, -0.006214690860360861, -0.07649043947458267, -0.024135379120707512, -0.044541239738464355, 0.08608350902795792, -0.07131437212228775, 0.15014490485191345, -0.0017568061593919992, -0.04731888696551323, -0.02448362484574318, -0.002275452483445406, 0.03544558957219124, 0.005281541962176561, 0.03004545345902443, 0.033016420900821686, -0.020999401807785034, 0.006849614903330803, 0.034818198531866074, 0.0220031701028347, -0.0031037607695907354, -0.013895977288484573, 0.1229432225227356, -0.025626584887504578, 0.06692665070295334, -0.006654724013060331, -0.0073011876083910465, -0.04404575377702713, 0.05235191434621811, 0.05596186965703964, -0.01012452319264412, 0.047024283558130264, -0.0296936072409153, 0.011995668523013592, 0.030003035441040993, 0.009880580008029938, -0.015200354158878326, -0.015468589030206203, -0.11805600672960281, -0.0725664421916008, -0.07352893799543381, -0.014495139941573143, 0.04432656243443489, 0.03881465643644333, -0.006147320847958326, -0.11246423423290253, 0.023505086079239845, 0.09668266773223877, 0.07028668373823166, -0.08035534620285034, 0.030167337507009506, -0.0036178368609398603, 0.013897771015763283, 0.021197181195020676, -0.05193876847624779, -0.003626822028309107, 0.04289724677801132, 0.010829868726432323, -0.02344757318496704, -0.06761958450078964, -0.04127834364771843, -0.010139995254576206, -0.09886842221021652, -0.012014428153634071, -0.035121314227581024, -0.0251763928681612, -0.0038201864808797836, -0.039109185338020325, -5.1865070417989045e-05, -0.06443452090024948, 0.0824887678027153, 0.011157265864312649, 0.01730918698012829, 0.00377219938673079, -0.027808262035250664, -0.01931435614824295, -0.050246745347976685, -0.022319085896015167, -0.008587127551436424, 0.005751080811023712, 0.10252445191144943, 0.051353275775909424, 0.0027805548161268234, -0.015314125455915928, 0.16312621533870697, 0.10896416753530502, 0.018772795796394348, -0.03446338698267937, -0.00874044094234705, 0.049202680587768555, 0.007707052398473024, 0.03375647962093353, -0.05056369677186012, -0.04482721537351608, 0.061143163591623306, -0.11347609013319016, 0.006591427605599165, -0.008322878740727901, 0.009325830265879631, 0.015535634942352772, 0.07904350012540817, -0.050968680530786514, 0.0030745237600058317, 0.01380828209221363, -0.18250851333141327, -0.08321601152420044, -0.061524856835603714, 0.07028531283140182, 0.08289428055286407, -0.012824836187064648, 0.17757141590118408, 0.03947542980313301, 0.00515937153249979, 0.01292000524699688, 0.03836365044116974, -0.09801742434501648, -0.03160637617111206, 0.0012701773084700108, 0.009406029246747494, 0.0670362189412117, 0.0035012292210012674, 0.013930395245552063, 0.01742163859307766, 0.02772904746234417, 0.018987657502293587, 0.031875599175691605, 0.0036262560170143843, 0.009462845511734486, -0.06260614097118378, -0.001521930331364274, -0.015926601365208626, 0.016576901078224182, 0.01960708200931549, 0.10579029470682144, 0.03850631043314934, -0.04800260066986084, 0.004927074071019888, -0.03500332310795784, 0.010938314720988274, 0.029705341905355453, 0.03833719715476036, 0.009918986819684505, -0.025742538273334503, -0.033200085163116455, 0.04115205630660057, 0.038649044930934906, 0.037608347833156586, -0.010086366906762123, -0.01528463326394558, 0.06133417785167694, -0.19705845415592194, -0.05389833822846413, 0.04688331112265587, 0.0035885076504200697, -0.021379822865128517, 0.1358713060617447, 0.0037064289208501577, -0.07411433011293411, -0.00797802023589611, -0.10428677499294281, -0.04235974699258804, 0.00635248189792037, -0.0433158315718174, 0.021485796198248863, 0.11518482118844986, -0.005600873846560717, -0.06516232341527939, -0.04454938322305679, 0.04001445695757866, -0.014470754191279411, 0.07154671847820282, -0.0014762167120352387, -0.08421944081783295, 0.010422893799841404, -0.018051737919449806, -0.09582596272230148, 0.05716623365879059, 0.0011714347638189793, 0.013464302755892277, 0.042943887412548065, 0.019616946578025818, -0.05688614770770073, -0.10519415885210037, 0.022875219583511353, 0.008039633743464947, 0.09210070967674255, 0.023936038836836815, -0.0011141187278553843, 0.07180748879909515, -0.06226553022861481, 0.2150275558233261, -0.004885005299001932, 0.05639931932091713, -0.012049810029566288, -0.007466587703675032, 0.0405401885509491, -0.09198242425918579, -0.1184738501906395, 0.04815380647778511, -0.009750583209097385, 0.025463638827204704, 0.03951564431190491, 0.08813627064228058, -0.057383473962545395, 0.13906224071979523, -0.04660467803478241, -0.0073534101247787476, -0.003589359577745199, 0.13891401886940002, -0.001902511459775269], [0.004778173752129078, 0.03563990443944931, -0.11050862818956375, 0.0035716749262064695, -0.01689901575446129, 0.008779222145676613, 0.05712045356631279, 0.09295261651277542, -0.05712268874049187, 0.0007910360582172871, 0.03914562612771988, 0.0032565705478191376, -0.014106163755059242, -0.013963891193270683, 0.013731264509260654, 0.018032904714345932, -0.006666841916739941, -0.02209797315299511, -0.06952688097953796, -0.00753047876060009, -0.016956549137830734, -6.091353134252131e-05, -0.02961399406194687, -0.0157474335283041, -0.012301288545131683, 0.014020302332937717, -0.0627526268362999, -0.03468656912446022, -0.09033972024917603, -0.01934906840324402, -0.007415573578327894, -0.018342506140470505, 0.03517000004649162, 0.04286841303110123, -0.02863098867237568, 0.0033711851574480534, -0.03109082020819187, 0.0353606641292572, -0.06536077708005905, -0.05846567451953888, 0.009276637807488441, 0.003364726435393095, -0.003802068531513214, -0.01902264542877674, -0.028074784204363823, 0.005949752870947123, -0.040476664900779724, -0.010276817716658115, 0.1327596753835678, -0.008862685412168503, 0.07176829874515533, 0.041504427790641785, 0.014890516176819801, 0.1324360966682434, -0.010341841727495193, -0.009773015975952148, -0.011835800483822823, -0.0038712662644684315, -0.008067951537668705, -0.02119823358952999, -0.012154970318078995, -0.024094851687550545, 0.00979262962937355, -0.06552302837371826, -0.022456996142864227, 0.015889454632997513, -0.018170975148677826, 0.022622274234890938, 0.0038818821776658297, 0.008352227509021759, -0.013940861448645592, 0.027201054617762566, 0.012411504052579403, 0.06280399113893509, 0.08609416335821152, -0.08652642369270325, -0.043468818068504333, 0.1007893905043602, -0.06522975116968155, -0.016148731112480164, 0.042669083923101425, -0.034635648131370544, -0.09914228320121765, 0.012340331450104713, 0.010234753601253033, -0.031615905463695526, -0.01407655980437994, 0.006660443730652332, 0.03293468803167343, -0.018388859927654266, -0.008007106371223927, -0.007381950039416552, 0.017116354778409004, -0.040643349289894104, 0.033160869032144547, 0.11353915184736252, -0.0030303343664854765, -0.03885053098201752, 0.01942518912255764, 0.13933956623077393, 0.06170264258980751, 0.01792699657380581, 0.025339698418974876, 0.026170510798692703, 0.010228809900581837, -0.01489311084151268, 0.0046103778295218945, -0.001975975465029478, 0.15061704814434052, -0.02313910610973835, 0.012476716190576553, 0.015502702444791794, 0.014738325960934162, 0.0336616113781929, 0.02369469404220581, -0.049729350954294205, -0.0654352605342865, 0.041268154978752136, -0.031040722504258156, -0.01053707953542471, -0.009297150187194347, 0.06557507067918777, 0.00635098060593009, 0.010770466178655624, 0.028354434296488762, 0.003713771002367139, 0.02531171217560768, 0.008459043689072132, -0.01765481010079384, -0.005825578700751066, -0.2104930430650711, 0.06143342703580856, -0.006172278895974159, 0.02861763909459114, -0.015609897673130035, -0.06582818925380707, 0.04049438610672951, 0.006206647492945194, 0.05346674472093582, -0.02708558365702629, -0.019465509802103043, 0.13226497173309326, 0.04760165512561798, 0.022685449570417404, 0.0015908852219581604, -0.04678511247038841, -0.03551818057894707, -0.06625854969024658, 0.0006172906723804772, 0.017970457673072815, 0.09517836570739746, -0.05604355037212372, 0.001903620781376958, 0.14533181488513947, 0.008462688885629177, -0.06592584401369095, -0.03346415236592293, 0.047163497656583786, 0.007080996874719858, -0.0015390940243378282, -0.029971886426210403, 0.14553293585777283, 0.061457086354494095, -0.13091857731342316, 0.037916652858257294, 0.024615488946437836, 0.04522988945245743, 0.004957280121743679, 0.018383555114269257, -0.013255300000309944, 0.011291595175862312, 0.020318299531936646, 0.007334391586482525, 0.026534313336014748, 0.03045385330915451, -0.0145710539072752, 0.09993714094161987, 0.021530255675315857, 0.06257136166095734, -0.008004222065210342, -0.01378951221704483, 0.04570315405726433, 0.033811070024967194, 0.01195533573627472, 0.06433521211147308, 0.026122868061065674, -0.04627670347690582, -0.04732650890946388, -0.0187002532184124, 0.013690602965652943, 0.015065198764204979, 0.041286010295152664, -0.01876520738005638, 0.04122365266084671, 0.050522930920124054, 0.0208952184766531, 0.04982854053378105, -0.05262694135308266, 0.10978662222623825, 0.013230884447693825, 0.00568357901647687, -0.1366226226091385, 0.030614573508501053, 0.011789299547672272, -0.009246245957911015, 0.09529136121273041, -0.07224757969379425, 0.009663619101047516, -0.025639265775680542, 0.020623400807380676, 0.0029605438467115164, 0.0012055175611749291, -0.1807321012020111, -0.1020379364490509, -0.008944733999669552, 0.06502894312143326, 0.0204351544380188, -0.007055129390209913, -0.012413903139531612, -0.037683792412281036, 0.0023119887337088585, 0.10059556365013123, -0.10743620991706848, 0.021293656900525093, 0.01631615310907364, 0.010928269475698471, 0.054356012493371964, -0.004743477795273066, 0.06619290262460709, -0.0209092628210783, 0.02487395517528057, 0.0602417066693306, 0.020084742456674576, 0.005288108251988888, 0.0497492216527462, -0.02230045013129711, -0.2002144306898117, -0.0012391733471304178, -0.03489695489406586, -0.013382690027356148, -0.03297777101397514, 0.04387655109167099, -0.029613861814141273, -0.0240428876131773, 0.10698097199201584, -0.003640904789790511, 0.003751947544515133, 0.020539503544569016, -0.08225436508655548, 0.07414031028747559, 0.08074577152729034, -0.015224707312881947, -0.014457388781011105, 0.014578565955162048, -0.05999572202563286, 0.01174259651452303], [-0.01555606909096241, -0.004308450035750866, 0.1422698199748993, 0.010016463696956635, 0.016507014632225037, 0.0854869931936264, -0.06296729296445847, 0.07194174081087112, -0.10518842190504074, -0.021124426275491714, 0.00475809071213007, -0.07244933396577835, -0.07629434764385223, -0.08448681235313416, 0.07342506945133209, 0.04603186994791031, -0.04639003425836563, 0.01889013685286045, -0.07308373600244522, 0.031491488218307495, -0.0006494055851362646, 0.003418729407712817, -0.01683489792048931, -0.05155472457408905, -0.06740450114011765, -0.03236781060695648, 0.016178151592612267, 0.0051164692267775536, 0.10884148627519608, -0.040646083652973175, 0.03495866060256958, 0.012878473848104477, -0.03388923034071922, -0.05605919286608696, 0.06882359087467194, -0.026058290153741837, -0.02720469795167446, 0.03906591236591339, -0.0419297069311142, 0.03165217489004135, 0.0276313629001379, 0.022896386682987213, -0.001177104189991951, 0.051539964973926544, 0.0844164788722992, -0.01687134988605976, 0.04841814935207367, -0.0008116667158901691, -0.0710630714893341, -0.04356729984283447, -0.007902632467448711, 0.04283836483955383, 0.0885855183005333, -0.1382606476545334, 0.03251824900507927, 0.009787620976567268, 0.002012772485613823, 0.08987703174352646, 0.09677567332983017, 0.011433837935328484, 0.06436566263437271, 0.06541227549314499, 0.004323047120124102, 0.034427378326654434, -0.028595516458153725, -0.015351345762610435, -0.0037305369041860104, 0.04108687490224838, 0.0960361436009407, -0.08045543730258942, 0.08987779915332794, 0.0020616245456039906, -0.0036116130650043488, -0.012762978672981262, 0.055675115436315536, 0.020036693662405014, 0.05870051309466362, -0.04988918453454971, 0.025598494336009026, -0.03646683692932129, 0.013609999790787697, -0.012686029076576233, -0.026451079174876213, -0.011430458165705204, 0.019558509811758995, -0.01944320648908615, 0.08300580829381943, -0.07155908644199371, -0.02925427258014679, 0.02534542791545391, -0.017608067020773888, -0.008866528980433941, 0.027728091925382614, 0.11207521706819534, 0.030229341238737106, -0.03964139148592949, 0.02484600432217121, 0.06842094659805298, 0.09165620058774948, -0.05729351192712784, 0.02860243432223797, -0.005162724293768406, 0.043310634791851044, 0.029568884521722794, 0.01584191992878914, 0.0008981372229754925, 0.027359722182154655, 0.015236497856676579, 0.2205759435892105, -0.07978397607803345, 0.009991337545216084, -0.04670402407646179, -0.010866925120353699, 0.050612159073352814, 0.0026598223485052586, -0.015806617215275764, 0.0010767626808956265, -0.010949638672173023, -0.004902215674519539, -0.025750139728188515, -0.0827392041683197, 0.020200300961732864, -0.025571344420313835, 0.06531976908445358, 0.01949133723974228, 0.0044666011817753315, 0.022472064942121506, -0.08994846045970917, -0.02949630282819271, -0.011717811226844788, -0.21013711392879486, 0.010938189923763275, 0.019863562658429146, -0.09766430407762527, 0.027760181576013565, 0.09171896427869797, 0.009266974404454231, -0.0635770857334137, -0.10150481760501862, -0.05424198508262634, 0.08417495340108871, -0.0024629593826830387, -0.002250042976811528, -0.05410720407962799, 0.024817239493131638, -0.017858505249023438, 0.08104578405618668, 0.02070656232535839, -0.03449051454663277, -0.0130500178784132, 0.08860378712415695, -0.02277345210313797, 0.06442263722419739, 0.049389373511075974, 0.006813505198806524, -0.038480471819639206, 0.018053369596600533, -0.008371297270059586, 0.008701999671757221, 0.001272335764952004, -0.005134333856403828, -0.024012045934796333, 0.018311716616153717, -0.05040420964360237, -0.021415265277028084, -0.028367051854729652, 0.00237926933914423, -0.06857678294181824, -0.003819872625172138, 0.020575404167175293, 0.0019187169382348657, -0.023944368585944176, 0.08872637152671814, -0.01147413905709982, 0.10317488759756088, 0.01189480535686016, 0.005323794204741716, -0.036944516003131866, 0.022064121440052986, 0.039115652441978455, -0.033474817872047424, -0.03246793523430824, 0.021434878930449486, 0.018126973882317543, 0.03294187784194946, 0.04913037642836571, 0.01533796638250351, 0.052242912352085114, -0.016139892861247063, 0.05360676720738411, -0.011596755124628544, 0.0004529251018539071, -0.018247710540890694, -0.03716636076569557, 0.054169394075870514, -0.015588503330945969, 0.05044626444578171, 0.07424204796552658, 0.0492735430598259, -0.01949791982769966, 0.013659543357789516, -0.03617272526025772, 0.09302450716495514, 0.017032377421855927, 0.07405824959278107, 0.11096527427434921, -0.013585527427494526, -0.03002995438873768, -0.009285323321819305, -0.04772467538714409, -0.004659321159124374, 0.012761764228343964, 0.06711994856595993, -0.015011193230748177, -0.06578804552555084, -0.01995028369128704, 0.004956325516104698, -0.06423410028219223, 0.04217831417918205, -0.08307402580976486, 0.0717773586511612, 0.13165028393268585, 0.025757020339369774, -0.03283444419503212, -0.006457578856498003, 0.04466022551059723, -0.046290889382362366, -0.01575525291264057, 0.01348929200321436, 0.024927450343966484, 0.004899300634860992, -0.03394519165158272, -0.013345971703529358, -0.02926046773791313, 0.12353774160146713, -0.037121713161468506, -0.18963521718978882, 0.01066961046308279, -0.02726590633392334, -0.023474857211112976, -0.024204904213547707, -0.04599868506193161, 0.0014458972727879882, -0.06492318212985992, -0.048585232347249985, -0.0059777507558465, -0.0590352825820446, 0.0387587808072567, -0.0049626585096120834, 0.007710798643529415, -0.004770142026245594, 0.057412728667259216, -0.01715990900993347, 0.04524438828229904, 0.04806366190314293, 0.027462907135486603], [-0.007679367903620005, -0.035047706216573715, -0.0463058166205883, -0.06874804198741913, -0.05696620047092438, -0.04980035871267319, -0.03455156087875366, 0.2193775177001953, -0.03073643147945404, -0.03842094913125038, 0.0067331199534237385, 0.011644328013062477, 0.015238462947309017, -0.06273622810840607, 0.001342840725556016, 0.01536822970956564, 0.00686408206820488, -0.02336951345205307, -0.0672273188829422, -0.009716161526739597, 0.018738364800810814, 0.025766436010599136, -0.04690391197800636, 0.10316966474056244, -0.10935834050178528, -0.06480809301137924, 0.1486273556947708, -0.03137115016579628, 0.009018786251544952, -0.11252804100513458, -0.01822902075946331, -0.014158574864268303, 0.019102880731225014, 0.0713888555765152, 0.11629100888967514, 0.06884125620126724, -0.045055463910102844, 0.08539534360170364, -0.04115920141339302, 0.012068280950188637, 0.0012167306849732995, -0.0017397546907886863, 0.004577993415296078, -0.013902195729315281, 0.09791626036167145, -0.014033053070306778, 0.08634986728429794, -0.017797745764255524, -0.09151852130889893, 0.015213641338050365, -0.04118833318352699, -0.052851174026727676, -0.012213241308927536, -0.023636313155293465, 0.017857229337096214, -0.054465409368276596, -0.014977782964706421, 0.047665804624557495, -0.04655500873923302, -0.07344137132167816, -0.005188108887523413, -0.025557849556207657, 0.019712848588824272, -0.01921316608786583, -0.02375403419137001, 0.13053353130817413, -0.03079925663769245, -0.05927341803908348, 0.11843664199113846, -0.02848365716636181, -0.034928299486637115, -0.007876135408878326, 0.09290096908807755, -0.02826063334941864, -0.09289678186178207, 0.03484520688652992, 0.02939683198928833, 0.0062501560896635056, 0.2909279465675354, 0.03349306434392929, -0.026995128020644188, 0.025054045021533966, 0.08421080559492111, 0.0023477324284613132, 2.4399656467721798e-05, 0.05433076620101929, -0.043299656361341476, -0.045854922384023666, 0.06300291419029236, 0.017040250822901726, 0.014446782879531384, -0.060352567583322525, -0.045120541006326675, 0.00881359912455082, -0.01049896702170372, 0.02332526445388794, 0.04034097492694855, -0.06629367917776108, 0.19615845382213593, 0.009013334289193153, 0.01958327554166317, -0.0321505106985569, 0.03501058369874954, 0.037796203047037125, 0.049504172056913376, -0.08985478430986404, 0.038454942405223846, 0.021973183378577232, -0.1706947535276413, -0.039170041680336, -0.024028558284044266, 0.058642614632844925, -0.067410409450531, 0.1365162432193756, 0.016948850825428963, -0.015143195167183876, -0.06269942969083786, 0.026729533448815346, -0.0059301601722836494, 0.08392917364835739, -0.02451983094215393, -0.021066227927803993, 0.015850428491830826, 0.04377881437540054, 0.023013930767774582, -0.0042543415911495686, -0.09834131598472595, -0.001926901051774621, 0.009797447361052036, 0.011387955397367477, 0.04831795021891594, 0.018379751592874527, 0.02449997141957283, 0.03434298187494278, 0.10640648752450943, 0.068837471306324, 0.10448416322469711, -0.0014449326554313302, 0.06130417436361313, 0.057537250220775604, -0.03184759244322777, -0.055532000958919525, 0.0005627445643767715, -0.011399852111935616, -0.021073587238788605, -0.08549562096595764, 0.018366465345025063, -0.03130047023296356, 0.012917238287627697, -0.008767563849687576, 0.04533695429563522, 0.09126783907413483, 0.04145905748009682, -0.06470765918493271, -0.03453250229358673, 0.07470718771219254, 0.1025443971157074, -0.004172134213149548, -0.0011551481438800693, 0.023355938494205475, -0.00047027927939780056, -0.10498777776956558, 0.10836241394281387, -0.053903769701719284, 0.005116959568113089, 0.02186002768576145, -0.04215933382511139, 0.040821533650159836, -0.010459477081894875, 0.022688008844852448, -0.07326539605855942, 0.007427032571285963, -0.06433872878551483, -0.03244265168905258, 0.020127959549427032, 0.007916300557553768, 0.040554068982601166, -0.028681831434369087, -0.015812503173947334, -0.007456093095242977, -0.0710032656788826, -0.17346659302711487, 0.017987186089158058, 0.024909978732466698, 0.018714187666773796, 0.07121104747056961, -0.02476295456290245, 0.02840125747025013, 0.022089319303631783, 0.005940532777458429, 0.08725965023040771, 0.006119249388575554, -0.020032024011015892, -0.08872968703508377, 0.02105879969894886, 0.023327382281422615, 0.09555123746395111, 0.09598100185394287, 0.026432987302541733, 0.02818397991359234, -0.07553371787071228, -0.12355896830558777, -0.039724934846162796, -0.06671205163002014, -0.014125930145382881, 0.04439743980765343, -0.07438100874423981, -0.07868227362632751, 0.052618056535720825, -0.017643172293901443, 0.13259537518024445, -0.013993560336530209, 0.14705459773540497, -0.05431392416357994, 0.080839604139328, -0.010969378054141998, -0.023758118972182274, -0.022987838834524155, -0.038434192538261414, 0.06354308873414993, -0.06599616259336472, -0.1039421409368515, -0.09523777663707733, 0.08910108357667923, 0.008164996281266212, 0.012235663831233978, -0.17975206673145294, -0.04960591346025467, -0.18322765827178955, -0.0261825080960989, -0.005674084648489952, -0.045109823346138, 0.011937214061617851, 0.016768842935562134, -0.07697579264640808, 0.036847855895757675, -0.059878211468458176, 0.0880943238735199, 0.0600164569914341, 0.05835578963160515, -0.01106956135481596, -0.016986174508929253, -0.029234629124403, -0.043630193918943405, -0.026741454377770424, 0.016388991847634315, -0.022875266149640083, -0.06711073964834213, 0.025208037346601486, 0.021304156631231308, 0.06774841248989105, 0.025049205869436264, -0.009239968843758106, -0.05522051081061363, 0.04668032377958298, -0.044232357293367386], [0.022841010242700577, 0.03382620960474014, 0.05589628219604492, -0.026890115812420845, 0.015741068869829178, 0.042946964502334595, 0.013812921941280365, -0.1790577620267868, -0.0028615817427635193, 0.04641914740204811, -0.029310908168554306, 0.050964538007974625, 0.04389463737607002, 0.02641358971595764, 0.02478116750717163, 0.03343617171049118, 0.08014637976884842, -0.05541824921965599, 0.020133893936872482, -0.022824415937066078, -0.025174573063850403, -0.019196845591068268, 0.005718125496059656, -0.031583014875650406, -0.10006039589643478, -0.07277872413396835, 0.024470727890729904, -0.0009274871554225683, 0.01090281829237938, 0.05396271497011185, -0.024714449420571327, 0.0004771873354911804, -0.04367046430706978, 0.030825458467006683, 0.11781509965658188, -0.023358378559350967, 0.04099525883793831, -0.07149484008550644, -0.026084180921316147, 0.006778211798518896, 0.0035121554974466562, 0.014478209428489208, 0.020923597738146782, 0.05308118462562561, -0.041206177324056625, 0.05803836137056351, -0.009039942175149918, 0.02488204650580883, 0.02254471182823181, -0.04383428767323494, -0.010118461214005947, -0.032856814563274384, 0.04302435368299484, 0.1525816172361374, 0.012411702424287796, -0.0032416582107543945, 0.01573554053902626, -0.008679389022290707, -0.027595488354563713, 0.04364224150776863, 0.02717524766921997, -0.01416726503521204, 0.0505584254860878, 0.007941574789583683, -0.010143390856683254, 0.031658101826906204, -0.01607220433652401, 0.008146676234900951, -0.01953926309943199, 0.015509147197008133, -0.04955104738473892, -0.006256000138819218, -0.00709367822855711, -0.02918688952922821, 0.011802656576037407, 0.010505950078368187, -0.04366006329655647, 0.02586442604660988, -0.23632603883743286, -0.013563238084316254, 0.03702753409743309, -0.015301218256354332, 0.16745005548000336, 0.025136200711131096, -0.006253021769225597, 0.042043719440698624, -0.03138396516442299, 0.10189219564199448, -0.0166789423674345, -0.037547048181295395, 0.0012668856652453542, 0.1263161301612854, -0.06789472699165344, -0.07253406941890717, 0.19515360891819, 0.04240148514509201, 0.0030149128288030624, -0.04236716777086258, -0.2754148244857788, 0.1501408964395523, -0.07950125634670258, 0.02674110233783722, -0.004695086274296045, -0.039575133472681046, -0.03245493769645691, 0.010757071897387505, -0.07348194718360901, 0.009405780583620071, -0.1539011150598526, 0.05796748399734497, 0.046072907745838165, 0.009531458839774132, -0.029003450646996498, -0.014591267332434654, -0.0058745830319821835, 0.016091616824269295, 0.036851461976766586, 0.018724801018834114, 0.050261229276657104, -0.03558420017361641, -0.01281875278800726, -0.03127815201878548, -0.014359086751937866, 0.06005346029996872, 0.012591814622282982, 0.01690574176609516, 0.0018124306807294488, 0.06595253944396973, 0.010163574479520321, 0.043546780943870544, 0.04198150709271431, 0.009828444570302963, 0.026553351432085037, 0.010939755477011204, -0.08292277902364731, 0.3537808656692505, -0.07797425240278244, 0.03553546220064163, 0.041240546852350235, -0.07928308099508286, -0.01753927953541279, -0.11964407563209534, -0.03779595345258713, 0.029718130826950073, 0.049647122621536255, 0.19550997018814087, -0.0016501626232638955, -0.03387755900621414, 0.021679075434803963, 0.009469835087656975, -0.03199455142021179, -0.050790730863809586, -0.22653573751449585, -0.028686152771115303, -0.05688843876123428, 0.0065681771375238895, 0.06154576316475868, -0.013573192059993744, -0.006607899442315102, -0.029212992638349533, -0.03438034653663635, -0.059961311519145966, -0.21685932576656342, -0.2334507405757904, 0.014421232044696808, -0.00014339190965984017, 0.01758575066924095, -0.02498290315270424, -0.027223017066717148, 0.07229118049144745, -0.006190421525388956, -0.0191213246434927, -0.06672822684049606, 0.02439274452626705, -0.058782774955034256, -0.010485752485692501, 0.02964339777827263, 0.01224101334810257, -0.01373936329036951, -0.009204900823533535, -0.013868213631212711, 0.005450140684843063, 0.04916910454630852, -0.0012477177660912275, 0.006691250950098038, 0.011456185020506382, -0.024910099804401398, 0.005803531035780907, -0.0019067451357841492, -0.06413114070892334, 0.03977424278855324, -0.03530748188495636, -0.03693178668618202, 0.014473997987806797, -0.025304805487394333, 0.025189558044075966, 0.008311964571475983, 0.0838434174656868, 0.015046856366097927, -0.013711926527321339, -0.0006788608152419329, 0.018617363646626472, -0.12474051117897034, 0.07305227965116501, 0.033362146466970444, -0.07956193387508392, 0.10932803899049759, -0.039097487926483154, -0.062023598700761795, 0.011029429733753204, 0.0735439881682396, 0.030451804399490356, -0.035725757479667664, 0.04485412687063217, 0.018498050048947334, -0.08659600466489792, 0.017774347215890884, -0.034176409244537354, -0.013840065337717533, -0.05955664440989494, 0.007269224151968956, 0.1208905279636383, 0.15443231165409088, -0.020044855773448944, 0.0620136521756649, -0.2154698520898819, 0.12752237915992737, -0.08191628009080887, 0.06099585443735123, -0.05765280872583389, 0.011832396499812603, -0.031456973403692245, 0.022348346188664436, -0.03907138481736183, 0.0660039633512497, 0.010468034073710442, -0.0022839766461402178, -0.005824051797389984, -0.0020963044371455908, 0.01363127026706934, -0.04232265427708626, -0.029351867735385895, -0.020327981561422348, -0.018425509333610535, 0.004475385881960392, 0.00895315408706665, -0.012570472434163094, 0.08691922575235367, -0.0752997174859047, 0.020766662433743477, -0.0600358322262764, -0.024676643311977386, 0.028182681649923325, -0.01667448692023754, -0.02256527729332447, -0.0032358705066144466], [0.004287227056920528, -0.008786420337855816, -0.1543053537607193, -0.006773806642740965, -0.0031040392350405455, 0.03354319557547569, -0.05418120697140694, 0.05304136872291565, -0.021296121180057526, -0.008056903257966042, -0.05647731572389603, 0.032383572310209274, -0.043992139399051666, -0.1403728723526001, 0.015221642330288887, -0.04965436831116676, -0.061055365949869156, 0.037508297711610794, -0.0046014911495149136, 0.013887405395507812, 0.02914232388138771, -0.03451306000351906, -0.09923361241817474, 0.11318369209766388, 0.06147438660264015, -0.016598235815763474, -0.04019578918814659, -0.013663526624441147, -0.00163756194524467, 0.057973623275756836, -0.002904771827161312, -0.008490066044032574, 0.011978860013186932, 0.052753154188394547, 0.04246648773550987, 0.0960775688290596, -0.021201519295573235, -0.013575631193816662, 0.02017114870250225, 0.04701831564307213, -0.007890554144978523, -0.018412165343761444, 0.0059136259369552135, 0.048015136271715164, 0.0014283343916758895, 0.03491305932402611, -0.0249331034719944, 0.008496281690895557, 0.0029841416981071234, 0.008428724482655525, -0.019705845043063164, 0.04698773846030235, 0.07667014002799988, -0.23570875823497772, -0.02036302536725998, -0.016287826001644135, 0.03564691171050072, -0.06276974081993103, 0.04592098668217659, 0.015776995569467545, 0.03319776803255081, 0.06377774477005005, 0.015511731617152691, 0.09122249484062195, 0.009347363375127316, -0.036156922578811646, -0.035809602588415146, 0.024262093007564545, -0.014380356296896935, 0.0396544374525547, -0.06012441962957382, 0.0012099177110940218, 0.007597609888762236, 0.019752925261855125, 0.005026346072554588, -0.06050894036889076, -0.045937322080135345, 0.1031980887055397, -0.008132549934089184, 0.034351374953985214, 0.13524986803531647, -0.009492440149188042, -0.029440540820360184, -0.041455041617155075, -0.013621008023619652, -0.03871540352702141, 0.02972378581762314, 0.03653585910797119, -0.07417265325784683, -0.008443952538073063, -0.023244956508278847, -0.024336207658052444, 0.06103375926613808, -0.08617012202739716, 0.029153665527701378, -0.04643407091498375, -0.019957805052399635, -0.12366283684968948, 0.1277894377708435, -0.0881248414516449, -0.11003049463033676, -0.01156415231525898, -0.03141468018293381, 0.0195868369191885, -0.001268531777895987, -0.047160208225250244, 0.014073959551751614, -0.01567121222615242, -0.11364748328924179, 0.0626637190580368, 0.005108555778861046, -0.006583862006664276, 0.017050812020897865, -0.030981801450252533, 0.019402174279093742, 0.08645927160978317, 0.006671949289739132, 0.018173398450016975, 0.10377658903598785, 0.12566842138767242, 0.03768036887049675, -0.02688315138220787, 0.00029596933745779097, 0.04854695871472359, -0.006993957795202732, -0.015729280188679695, -0.029520420357584953, 0.030331779271364212, 0.032197505235672, -0.01193529274314642, 0.058962997049093246, 0.013635923154652119, 0.003654502099379897, -0.02206425741314888, -0.09004174917936325, -0.024026481434702873, -0.08411307632923126, -0.04440423473715782, 0.020858246833086014, 0.0011636029230430722, 0.005064790602773428, 0.12281505018472672, 0.01438395120203495, 0.12214276939630508, 0.011598396115005016, 0.056887250393629074, 0.062004879117012024, 0.048523254692554474, -0.023296592757105827, 0.015097816474735737, 0.13901126384735107, -0.02967838943004608, 0.03752361983060837, -0.059502311050891876, 0.060572922229766846, 0.03521586209535599, 0.058040373027324677, -0.00780733535066247, -0.01647615246474743, -0.011039208620786667, -0.02420162968337536, -0.022426243871450424, 0.02418903447687626, -0.13225308060646057, 0.0064458963461220264, -0.001057832851074636, 0.006241666153073311, 0.013439198024570942, -0.03822791576385498, 0.017864741384983063, -0.025029925629496574, 0.016126077622175217, 0.00855109840631485, -0.00651077413931489, 0.05890807509422302, -0.01221151277422905, 0.054916881024837494, 0.0011941326083615422, -0.007122079376131296, 0.004950896371155977, -0.05596952885389328, 0.08485932648181915, 0.006622491870075464, -0.02276117168366909, -0.0010813579428941011, 0.06565003097057343, -0.04083564877510071, 0.06526913493871689, 0.025420723482966423, -0.01778987981379032, -0.007498136721551418, 0.04816969111561775, 0.04860909655690193, -0.05819021165370941, -0.024850210174918175, 0.007348115090280771, 0.02333482727408409, -0.019395999610424042, 0.11264003813266754, 0.00046236952766776085, 0.0051948511973023415, 0.03354525938630104, 0.051832862198352814, 0.007707369513809681, 0.027671538293361664, -0.026492198929190636, -0.0947885736823082, 0.03976280242204666, 0.0801222175359726, -0.010662729851901531, -0.008692766539752483, 0.025424793362617493, 0.04457155987620354, -0.01899430900812149, 0.012024429626762867, -0.046513672918081284, 0.009798740036785603, 0.027710167691111565, -0.008067318238317966, -0.0010304796742275357, -0.03448257967829704, -0.10799705237150192, -0.1438225954771042, -0.05575026571750641, -0.003609101753681898, -0.12098205089569092, 0.10089720040559769, -0.033255647867918015, -0.10019286721944809, 0.009006013162434101, -0.011749370023608208, -0.015388421714305878, -0.0508914515376091, -0.014828728511929512, 0.052697520703077316, 0.0029677296988666058, -0.02561957761645317, 0.05399215593934059, 0.05459703877568245, -0.00980006717145443, 0.03361105918884277, -0.08928710222244263, -0.014066658914089203, 0.03682403638958931, -0.03577706590294838, 0.0012423113221302629, 0.0038611136842519045, 0.01425787154585123, -0.0004163786652497947, 0.0015112534165382385, -0.07443653792142868, -0.005259266123175621, -0.014417150989174843, -0.019465776160359383, -0.019124042242765427, -0.017642172053456306], [-0.05483938008546829, -0.006488456390798092, 0.0341290682554245, -0.048916757106781006, 0.023331142961978912, -0.032140590250492096, -0.07250895351171494, -0.17562317848205566, 0.02837982587516308, -0.008130592294037342, 0.006091782357543707, 0.04817443713545799, 0.0006072702817618847, 0.12985824048519135, -0.048481959849596024, 0.04066341742873192, 0.011331490240991116, -0.002295415150001645, 0.05141160637140274, -0.000930597772821784, 0.014804852195084095, 0.009058891795575619, -0.07097464054822922, -0.037251632660627365, 0.1513300985097885, -0.07731813192367554, -0.018006522208452225, 0.048853322863578796, -0.06162527576088905, 0.04139966145157814, -0.0031840549781918526, 0.0025090817362070084, 0.03108253888785839, 0.05946430563926697, -0.1404574066400528, 0.13667072355747223, 0.045766375958919525, -0.02642354741692543, 0.040207862854003906, 0.013453813269734383, -0.04040520638227463, -0.00701018376275897, 0.028461389243602753, -0.02857075445353985, 0.03040044754743576, -0.035839058458805084, 0.08177667111158371, -0.044835448265075684, 0.0016915460582822561, 0.005368481390178204, 0.030079588294029236, 0.0713026151061058, 0.07775948196649551, 0.027869010344147682, -0.030202750116586685, 0.04741315916180611, 0.008559396490454674, 0.0816730335354805, 0.01291007548570633, -0.06705807894468307, 0.060403961688280106, -0.02429194189608097, -0.07146909832954407, -0.03860842436552048, -0.02401304990053177, -0.02415613643825054, -0.02463914267718792, -0.028626902028918266, 0.04065929725766182, 0.01879696361720562, 0.0009789075702428818, -0.0011284200008958578, -0.008657914586365223, -0.03956640139222145, 0.029505811631679535, 0.016362717375159264, 0.03309178352355957, -0.07723945379257202, 0.20977918803691864, 0.026514658704400063, -0.09810599684715271, 5.891915498068556e-05, 0.14021798968315125, 0.030621038749814034, -0.031050529330968857, 0.0013571250019595027, -0.015939470380544662, 0.034721557050943375, -0.010139841586351395, -0.04724162444472313, 0.014203136786818504, -0.036604490131139755, 0.04805809259414673, 0.024695398285984993, -0.06731097400188446, 0.11491136252880096, 0.0003543941711541265, 0.06201845034956932, 0.020947307348251343, 0.02903624065220356, 0.03666485473513603, 0.004365893080830574, -0.04362446814775467, -0.018023498356342316, -0.027843795716762543, -0.06373284012079239, 0.05564798042178154, -0.07060594111680984, -0.16494542360305786, 0.02122984267771244, -0.01587865687906742, 0.010268518701195717, 0.0017098987009376287, 0.03285767883062363, -0.023787695914506912, -0.0032437064219266176, 0.07371053099632263, 0.020181497558951378, 0.09095723181962967, -0.0680701807141304, 0.07065912336111069, 0.06195461004972458, -0.025632966309785843, -0.020233245566487312, -0.025506841018795967, 0.011056422255933285, -0.0028602927923202515, -0.008970861323177814, -0.019910352304577827, 0.01673170179128647, 0.1575428545475006, 0.013541461899876595, -0.0178068820387125, -0.02178802527487278, -0.011300790123641491, -0.14494940638542175, 0.0865866020321846, 0.007785554975271225, -0.012591912411153316, 0.028054697439074516, 0.056767985224723816, 0.04633127897977829, 0.05775725096464157, -0.04345951974391937, -0.059602268040180206, 0.08519043028354645, 0.03222309798002243, -0.00036688189720734954, 0.008139325305819511, -0.025512102991342545, -0.024973878636956215, -0.007152199279516935, -0.11340100318193436, -0.0014569436898455024, -0.016223782673478127, -0.03213886544108391, -0.04516223818063736, -0.005978049244731665, -0.007246751803904772, 0.006068340502679348, -0.0224259402602911, 0.02795920893549919, 0.08188498765230179, 0.06219780072569847, 0.04232203960418701, -0.008732660673558712, 0.004936135374009609, 0.0015724661061540246, 0.03238172084093094, 0.004154040012508631, 0.00029053015168756247, 0.002624098677188158, 0.00695387739688158, -0.0257098525762558, 0.08089027553796768, -0.034507572650909424, 0.0431586354970932, -0.019824828952550888, 0.04425102099776268, 0.05737072601914406, -0.018896441906690598, 0.07378935813903809, -0.022551799193024635, -0.06501119583845139, 0.03250684589147568, -0.02425210177898407, 0.013781444169580936, -0.11029087752103806, 0.01996460184454918, 0.04757688567042351, -0.015345128253102303, -0.017458802089095116, 0.03569181263446808, 0.024327361956238747, 0.0020028110593557358, -0.0978846326470375, 0.038001708686351776, 0.014864439144730568, 0.06212812289595604, 0.0010488892439752817, 0.01721162348985672, -0.0860167145729065, 0.04857474938035011, -0.10107501596212387, 0.016208607703447342, 0.15642721951007843, 0.08609455078840256, -0.038661468774080276, -0.07933389395475388, -0.0029242264572530985, 0.003976037725806236, -0.015031399205327034, -0.05921008810400963, 0.07691111415624619, 0.0764775425195694, -0.008350594900548458, 0.0444282628595829, 0.018493805080652237, 0.04450960457324982, -0.0004258459957782179, -0.07324831932783127, 0.10893706977367401, -0.09375559538602829, -0.09563805907964706, 0.00036673297290690243, -0.08914972841739655, -0.2587622404098511, -0.08433395624160767, 0.06646715849637985, -0.03169591724872589, -0.007655913010239601, 0.025341613218188286, -0.05125763639807701, -0.019399462267756462, 0.009898453019559383, 0.027466703206300735, 0.02361195906996727, -0.0023365244269371033, 0.029307659715414047, -0.037622109055519104, 0.03710632771253586, 0.04254689812660217, 0.03601687029004097, 0.019836576655507088, -0.045748062431812286, 0.01320100948214531, 0.01869484782218933, 0.008227558806538582, -0.02948390133678913, 0.04972854629158974, 0.035764455795288086, -0.03653480485081673, 0.008827733807265759, 0.03548791632056236, 0.05515208840370178, 0.04835804924368858], [-0.02817884273827076, 0.0005900347023271024, -0.012096104212105274, 0.02272954396903515, 0.02923492155969143, -0.03546549379825592, 0.04862938076257706, -0.04821520671248436, -0.022318057715892792, -0.006107014138251543, -0.0010991463204845786, 0.006986813619732857, -0.03077651746571064, 0.1096075102686882, -0.0336742028594017, 0.035857103765010834, 0.018258143216371536, 0.009077674709260464, -0.07377421110868454, 0.019218459725379944, 0.01238955371081829, 0.059321556240320206, -0.11548793315887451, -0.06101351976394653, 0.022340159863233566, 0.03245851397514343, 0.037141382694244385, 0.06921294331550598, -0.027254164218902588, 0.06373156607151031, 0.010010981932282448, 0.0005644025513902307, -0.0007505391840822995, 0.016113407909870148, -0.01323088351637125, -0.1290670782327652, 0.03998327627778053, 0.00901723001152277, 0.016262734308838844, -0.02221115492284298, 0.016266191378235817, -0.003348225960507989, -0.01838669925928116, 0.02930748276412487, -0.01616932451725006, -0.029186423867940903, 0.006797238253057003, -0.0332377664744854, 0.09288740903139114, 0.01916888915002346, -0.039256151765584946, -0.007847378961741924, -0.10751927644014359, 0.04249449446797371, 0.01614183746278286, -0.06528874486684799, -0.03688674047589302, 0.008633029647171497, -0.03405487909913063, -0.032237354665994644, 0.019032852724194527, 0.01747872307896614, 0.04470573738217354, -0.07304555922746658, -0.03417094796895981, 0.005859443452209234, -0.027294453233480453, 0.02475763112306595, 0.012946467846632004, -0.003871350781992078, 0.01536985207349062, -0.007175964768975973, -0.0007759512518532574, 0.0035521648824214935, -0.11268579214811325, -0.03376661613583565, -0.008913151919841766, -0.13536414504051208, 0.009813549928367138, 0.0068591502495110035, 0.04728391766548157, 0.020877765491604805, -0.07687001675367355, -0.024146579205989838, 0.08210178464651108, 0.07730504870414734, -0.05929359421133995, 0.01720884069800377, 0.05223575979471207, 0.09785459190607071, -0.10179829597473145, 0.0527673102915287, -9.160258196061477e-05, -0.08054535835981369, -0.024351317435503006, 0.09449589997529984, 0.013657771982252598, 0.040810078382492065, -0.015922635793685913, 0.03389834612607956, -0.07212424278259277, -0.01607913337647915, 0.019893307238817215, 0.03792138397693634, -0.0565427802503109, 0.06468049436807632, 0.07082773000001907, -0.004889851901680231, 0.1698770821094513, 0.03028377890586853, 0.09710601717233658, -0.0031953935977071524, 0.03869260102510452, -0.022409554570913315, -0.013433441519737244, 0.02090326137840748, 0.005857833195477724, 0.01375411357730627, 0.02895965613424778, -0.023226968944072723, 0.07847225666046143, 0.03559787943959236, -0.09352608025074005, 0.005953527055680752, -0.020529409870505333, 0.014845765195786953, -0.058568064123392105, -0.05070292949676514, -0.0021248594857752323, -0.013278769329190254, -0.12019314616918564, -0.20730461180210114, -0.0035345074720680714, -0.03589034825563431, -0.0862102061510086, 0.04387407377362251, 0.027234874665737152, 0.023487718775868416, -0.00396847864612937, -0.025295034050941467, -0.03650541976094246, 0.1638909876346588, -0.04971139878034592, -0.02638406679034233, 0.004982889164239168, -0.015839064493775368, 0.043273866176605225, -0.00510259997099638, -0.0006453499663621187, 0.024999696761369705, -0.03898116201162338, -0.02111099474132061, -0.0731639415025711, 0.12117623537778854, -0.0634683147072792, -0.0019008334493264556, -0.022272204980254173, 0.03619696572422981, -0.015536414459347725, 0.01166401244699955, 0.03516905754804611, -0.023027751594781876, 0.0043342215940356255, 0.11768153309822083, -0.07675129175186157, -0.026876579970121384, 0.036236658692359924, -0.029560264199972153, 0.00014936531079001725, 0.005607590079307556, -0.03542717918753624, -0.007882796227931976, -0.06848796457052231, -0.004759244155138731, 0.025407714769244194, 0.003556404961273074, 0.06055712327361107, -0.04176195338368416, -0.05546970292925835, -0.010305740870535374, -0.07655325531959534, 0.22290268540382385, -0.01725122146308422, -0.010549056343734264, -0.03610725328326225, 0.03537844121456146, -0.007802286185324192, -0.02794068120419979, -0.04803013801574707, -0.03900895640254021, -0.06153499707579613, -0.025189893320202827, 0.003461339045315981, 0.08344057947397232, 0.031052472069859505, -0.0032258336432278156, -0.05570973828434944, 0.05526990443468094, -0.20588591694831848, 0.005470610689371824, -0.025282762944698334, 0.048157282173633575, 0.08087360113859177, 0.02032715268433094, 0.033852532505989075, 0.06255283951759338, -0.04794975370168686, 0.006407244596630335, -0.005740678403526545, 0.025252917781472206, -0.15480828285217285, -0.0008228275692090392, -0.09431318938732147, -0.01309050340205431, -0.013280927203595638, 0.044472966343164444, 0.004374739248305559, 0.01121195126324892, -0.023126862943172455, 0.0041128043085336685, 0.009458716958761215, 0.07892224937677383, 0.09969092160463333, 0.06042974442243576, -0.016823941841721535, -0.08029871433973312, 0.048874445259571075, -0.006611970718950033, 0.058366525918245316, -0.04076851159334183, -0.01122779306024313, -0.02154732681810856, 0.04416412487626076, 0.0164983831346035, -0.019148586317896843, -0.03552048280835152, -0.13179966807365417, -0.021050244569778442, 0.008054368197917938, -0.012298094108700752, 0.015002853237092495, -0.010522792115807533, -0.02820015698671341, -0.028681939467787743, -0.10241793841123581, -0.026470402255654335, -0.04989461228251457, 0.05033658444881439, 0.0007992876344360411, 0.08290792256593704, -0.05310799926519394, -0.017376810312271118, 0.02106882818043232, 0.02084054797887802, -0.05703246593475342, -0.05462205410003662], [-0.054385099560022354, -0.04497312754392624, -0.16104552149772644, -0.15225905179977417, -0.006510804872959852, -0.02732352539896965, 0.037408504635095596, -0.03040790557861328, -0.052037570625543594, 0.05760872736573219, -0.01881416141986847, 0.08075873553752899, 0.054540108889341354, -0.0932556688785553, -0.006800852250307798, -0.0019559296779334545, -0.08908435702323914, -0.1574268341064453, 0.02030137926340103, -0.030081670731306076, -0.016102727502584457, -0.02253231406211853, -0.09139199554920197, -0.08478176593780518, 0.003107141936197877, 0.031076911836862564, -0.023743776604533195, -0.03860706463456154, -0.02226172760128975, -0.00894036516547203, -0.009003140032291412, 0.005284494254738092, 0.05870022624731064, -0.02420637756586075, 0.08007556945085526, 0.02227111905813217, 0.0017149242339655757, -0.08815155923366547, -0.0074256835505366325, -0.0749298557639122, 0.06447047740221024, 0.04994186758995056, 0.036117129027843475, 0.09800662100315094, -0.1246693804860115, -0.0060307299718260765, -0.023876341059803963, -0.036868754774332047, 0.21435198187828064, -0.021220693364739418, 0.021728800609707832, -0.032188065350055695, -0.021096857264637947, -0.06513819098472595, -0.03554881364107132, -0.09666922688484192, -0.03405984491109848, -0.09298159927129745, 0.020875710994005203, 0.049306195229291916, 0.04438012093305588, -0.02946208231151104, -0.025265421718358994, 0.017471758648753166, -0.0021702777594327927, 0.049499381333589554, 0.04312904179096222, 0.03271305561065674, -0.09809830784797668, -0.048065442591905594, -0.19983245432376862, 0.013580424711108208, 0.025072254240512848, 0.031193986535072327, 0.05495583266019821, 0.01382647454738617, 0.032245174050331116, 0.05760206654667854, -0.11957557499408722, -0.04360154643654823, -0.021725166589021683, -0.00969961378723383, 0.13403412699699402, 0.02399027906358242, 0.01027203444391489, -0.016927974298596382, 0.0074578928761184216, 0.025456301867961884, -0.003401542780920863, -0.06864898651838303, -0.05963549762964249, -0.0472879633307457, 0.10632031410932541, -0.08338662981987, -0.060405049473047256, 0.09993208199739456, -0.015381840988993645, 0.04030081629753113, -0.07136159390211105, 0.17412970960140228, -0.12346887588500977, -0.03336118906736374, -0.014625724405050278, -0.03855566307902336, 0.01714528165757656, 0.013308396562933922, -0.03494098410010338, 0.01047595776617527, -0.13156503438949585, 0.029190434142947197, 0.008023354224860668, 0.019310317933559418, -0.05855865776538849, 0.04624698683619499, -0.032456621527671814, 0.0916498601436615, -0.04115639254450798, -0.00844879262149334, 0.031683798879384995, -0.06812545657157898, -0.05129703879356384, -0.005911287851631641, 0.058790672570466995, -0.022059714421629906, -0.016486547887325287, 0.04890802875161171, -0.021517207846045494, 0.003598065348342061, 0.022474220022559166, -0.009235606528818607, 0.05133768916130066, 0.07638804614543915, 0.01301328931003809, -0.055091287940740585, -0.0319092757999897, 0.07205349206924438, 0.0204316359013319, 0.026676084846258163, -0.008494177833199501, -0.005486404988914728, -0.0033491989597678185, -0.06232961267232895, -0.057144153863191605, 0.0427878201007843, -0.013305296190083027, -0.05895397067070007, -0.04477434977889061, -0.02054593153297901, -0.00037928030360490084, -0.03197123482823372, -0.06835909187793732, 0.038748420774936676, -0.02136041969060898, -0.014014615677297115, 0.1232958436012268, -0.0008465871214866638, -0.10895638912916183, -0.003012492787092924, 0.012463722378015518, -0.010546986013650894, 0.006254056002944708, 0.09405433386564255, 0.010737163946032524, 0.0627814531326294, 0.06415721029043198, -0.013462519273161888, 0.0507388673722744, 0.011784994043409824, -0.01255981158465147, 0.01297284197062254, -0.044626668095588684, 0.0005338709452189505, 0.014624969102442265, -0.01084940042346716, -0.07993599772453308, 0.00010923621448455378, 0.10806979984045029, 0.025696231052279472, 0.033068154007196426, -0.04090902581810951, 0.021721454337239265, 0.1300218105316162, 0.02180599793791771, 0.026402534916996956, 0.047787588089704514, -0.02660735510289669, 0.05979376286268234, -0.08885317295789719, 0.04016934707760811, 0.07489720731973648, -0.03878873959183693, -0.06778134405612946, 0.07678584009408951, -0.01998165063560009, -0.012133773416280746, -0.024086322635412216, 0.07946798205375671, -0.07260307669639587, 0.045670051127672195, -0.0014159989077597857, -0.04417399317026138, -0.043109990656375885, -0.15021760761737823, -0.03648841381072998, 0.010405315086245537, -0.05441691353917122, 0.016152983531355858, 0.0037487666122615337, -0.01712985336780548, -0.0035093631595373154, 0.03195634111762047, -0.004877770785242319, 0.0820382833480835, 0.04227038845419884, 0.014471172355115414, -0.016575684770941734, -0.0025071396958082914, -0.02314244583249092, 0.053824763745069504, 0.055464968085289, -0.050231870263814926, 0.09189146757125854, 0.07706671953201294, 0.04174952208995819, 0.006291507743299007, 0.003143677953630686, 0.044919513165950775, 0.031076492741703987, 0.09234697371721268, -0.04513688385486603, -0.053733281791210175, 0.009209933690726757, 0.026792407035827637, -0.051918767392635345, -0.036705322563648224, 0.002332435455173254, -0.06111921742558479, 0.06162911280989647, -0.02884889580309391, -0.10511231422424316, -0.0011222572065889835, 0.039487384259700775, -3.9471458876505494e-05, -0.0412973091006279, 0.03362466022372246, -0.011268493719398975, 0.0598737969994545, -0.06517750769853592, -0.06663983315229416, -0.08056216686964035, 0.10085532069206238, 0.0011273690033704042, -0.022775882855057716, 0.03523453325033188, -0.14934608340263367, -0.029461989179253578], [0.01728511042892933, -0.01341678574681282, -0.16879063844680786, 0.08520578593015671, 0.0003441617591306567, -0.10492356866598129, 0.0842583179473877, 0.019980313256382942, 0.10249058157205582, -0.032159268856048584, 0.015223457477986813, 0.038147710263729095, -0.07815489172935486, -0.059356436133384705, 0.010984866879880428, 0.01941208355128765, -0.06365606933832169, 0.07324741780757904, -0.06738033890724182, 0.04294129088521004, -0.0030012130737304688, -0.011248148046433926, 0.034573983401060104, 0.07888185977935791, -0.019257698208093643, 0.029845908284187317, 0.10096101462841034, 0.02003355696797371, -0.004041360691189766, -0.04667900875210762, 0.020934421569108963, -0.01421365700662136, -0.04043610394001007, 0.027775635942816734, -0.04807715490460396, 0.03113112784922123, -0.006612558849155903, -0.02264244295656681, -0.004730306100100279, -0.011490801349282265, 0.006452920846641064, 0.00963995885103941, 0.0188649483025074, 0.07081679999828339, -0.013626824133098125, -0.010773749090731144, -0.08486562967300415, -0.010229724459350109, 0.06898869574069977, -0.026334816589951515, 0.07676085084676743, -0.05197707191109657, 0.01985289715230465, -0.039079710841178894, -0.03828856348991394, 0.007951274514198303, 0.027981676161289215, -0.028031963855028152, -0.03953196853399277, -0.05059462785720825, 0.006756471935659647, 0.00846047792583704, 0.008128996938467026, 0.015666062012314796, 0.00466613844037056, 0.014305347576737404, 0.04425295069813728, 0.04672841727733612, -0.04833487421274185, -0.044714827090501785, -0.052439771592617035, -0.024789292365312576, -0.014259214513003826, 0.11711880564689636, 0.17478078603744507, 0.05704854428768158, 0.02183566987514496, 0.18406006693840027, -0.08898968249559402, 0.0050173732452094555, -0.012789377942681313, 0.022715533152222633, -0.04799788445234299, 0.018110627308487892, 0.09277603775262833, 0.011653815396130085, 0.06554033607244492, -0.0129249831661582, 0.040005873888731, -0.03397154062986374, 0.06799425184726715, -0.09831271320581436, 0.0016277077374979854, -0.0637020394206047, 0.07863664627075195, -0.02097422629594803, -0.005936327390372753, 0.05147356912493706, -0.09883753955364227, 0.018297860398888588, -0.0023942627012729645, -0.004738480783998966, 0.0277278833091259, 0.010588886216282845, 0.12257474660873413, -0.025438807904720306, -0.03642319515347481, 0.0011175021063536406, 0.044828593730926514, -0.06931514292955399, 0.06679677218198776, 0.01573202759027481, -0.0023104955907911062, -0.03654610365629196, -0.010575846768915653, -0.04389677569270134, -0.015792299062013626, 0.05152107775211334, -0.08931200206279755, 0.07817523181438446, -0.0352630540728569, 0.01709381863474846, -0.044468365609645844, 0.002533469581976533, 0.015568668954074383, -0.010535964742302895, -0.029445389285683632, 0.005084820091724396, 0.01414649561047554, 0.0032119962852448225, -0.11189919710159302, 0.06012134999036789, -0.03671839088201523, -0.04315941780805588, -0.05877226963639259, -0.05358866974711418, -0.018541086465120316, 0.08250684291124344, -0.010058843530714512, -0.01720273122191429, -0.007262664381414652, 0.1845182180404663, 0.05907311290502548, -0.05527820438146591, -0.07054830342531204, 0.07463432103395462, -0.03756675869226456, -0.024084752425551414, -0.00505655724555254, 0.008474493399262428, -0.0483502522110939, -0.0326356366276741, 0.011030099354684353, 0.002145766746252775, -0.09634442627429962, -0.0399564728140831, -0.017669757828116417, 2.3678043362451717e-05, 0.025982283055782318, -0.006187540479004383, -0.019923361018300056, 0.02999231219291687, -0.003829321591183543, -0.15304943919181824, 0.007160908542573452, -0.03837831690907478, -0.027845509350299835, 0.0204475037753582, -0.011543349362909794, -0.0063850414007902145, 0.024252651259303093, -0.053430937230587006, 0.004743737634271383, -0.03323040157556534, -0.09421740472316742, -0.0409901887178421, -0.025663455948233604, 0.01805434748530388, 0.05999423936009407, -0.09477851539850235, 0.15146735310554504, 0.12498650699853897, -0.025082988664507866, -0.026501841843128204, -0.0005989596247673035, -0.07685085386037827, -0.05439343675971031, -0.017379356548190117, -0.0005633373511955142, -0.007963404059410095, 0.0028906401712447405, -0.032964061945676804, -0.019997769966721535, -0.07280077040195465, 0.04345408082008362, -0.043911777436733246, 0.036697108298540115, 0.0012817151146009564, 0.11045689880847931, -0.012816223315894604, -0.02966259978711605, 0.040348488837480545, 0.0007287855260074139, 0.009356299415230751, 0.04628591984510422, -0.05711068585515022, 0.10191937536001205, 0.022486146539449692, 0.030836375430226326, 0.019847508519887924, -0.11005447804927826, -0.02741752378642559, 0.017903674393892288, 0.02214650809764862, -0.019096434116363525, -0.037939298897981644, 0.003542122431099415, 0.0014542239950969815, 0.007789779920130968, 0.045262087136507034, -0.012366803362965584, 0.07130063325166702, -0.11318891495466232, -0.12490534782409668, -0.011217715218663216, -0.16625693440437317, -0.05741380527615547, -0.158726304769516, 0.0604594461619854, 0.0009240417857654393, 0.0035021472722291946, -0.018933141604065895, -0.009468688629567623, -0.037076275795698166, 0.09692766517400742, 0.02615046314895153, -0.1094362661242485, 0.12955649197101593, -0.03712065890431404, -0.07058213651180267, 0.019293121993541718, -0.029155703261494637, 0.024960512295365334, -0.009310437366366386, -0.09232529252767563, -0.03259589150547981, -0.08647838234901428, 0.03917574882507324, -0.013270358555018902, -0.026007158681750298, -0.1445954442024231, -0.04466533660888672, -0.04227126017212868, -0.00904879067093134, 0.025807620957493782, 0.02638048678636551], [0.0042152623645961285, -0.00927414558827877, -0.12140757590532303, 0.05895518884062767, -0.018889252096414566, 0.02822384238243103, -0.09633587300777435, -0.029283856973052025, -0.04651708900928497, 0.05738664045929909, -0.022518038749694824, 0.019013047218322754, -0.035171352326869965, -0.00524540850892663, -0.051154352724552155, 0.05811505764722824, 0.0402032844722271, 0.03903186321258545, -0.0373799204826355, 0.04670214653015137, -0.008595013059675694, -0.0324765183031559, -0.054371945559978485, -0.024704203009605408, -0.018781665712594986, 0.13855063915252686, 0.10972581058740616, -0.017509667202830315, -0.04401988536119461, 0.03468341752886772, -0.01026496198028326, -0.025645939633250237, 0.007349109277129173, -0.01954353041946888, -0.017938289791345596, 0.01922876201570034, 0.005697943735867739, -0.016570625826716423, -0.01619577221572399, -0.025446001440286636, 0.01163265760987997, 0.03734206780791283, 0.014017393812537193, -0.04611918702721596, 0.06256388872861862, -0.025119680911302567, 0.06745783984661102, 0.03854157775640488, 0.05701157823204994, -0.046224288642406464, 0.04321911185979843, 0.0008672496769577265, -0.027435321360826492, -0.025248464196920395, 0.003127593081444502, 0.048412032425403595, 0.04474391043186188, 0.08695054054260254, -0.0452534481883049, -0.006685568485409021, 0.052039146423339844, -0.022089708596467972, -0.02610713057219982, 0.06697899103164673, 0.036905769258737564, -0.05982976034283638, -9.927865175995976e-05, 0.04078034684062004, 0.1918579638004303, 0.02907440811395645, 0.20512181520462036, -0.012642363086342812, -0.02134714648127556, -0.10082118958234787, -0.03432675823569298, -0.10698693990707397, -0.07004636526107788, -0.12348539382219315, 0.03147154673933983, 0.03163755685091019, -0.041718073189258575, -0.00603821175172925, 0.03191084787249565, -0.004046828020364046, 0.0725337415933609, 0.0005000783130526543, -0.012861838564276695, 0.0026540663093328476, 0.07678953558206558, -0.040232863277196884, 0.05755728855729103, 0.04886981099843979, 0.010178899392485619, -0.07891435921192169, 0.07617373019456863, -0.11678965389728546, 0.013935948722064495, -0.09172327816486359, 0.08369263261556625, -0.03940977528691292, -0.014615203253924847, 0.04477566108107567, 0.0028779522981494665, -0.05470215156674385, -0.014471796341240406, 0.09753343462944031, -0.004738846328109503, -0.02683759480714798, -0.11734672635793686, -0.03755123168230057, 0.008133307099342346, -0.014688592404127121, 0.015159958973526955, 0.006651809439063072, 0.0385734923183918, 0.02652738243341446, -0.09711336344480515, 0.05647469684481621, 0.007622342556715012, -0.03871247544884682, -0.04362263157963753, -0.06829531490802765, -0.05544997751712799, -0.04567316174507141, 0.030800679698586464, 0.029001152142882347, 0.0295431949198246, -0.044111840426921844, 0.04724215343594551, -0.00587882986292243, 0.1486865133047104, 0.02605064958333969, 0.013729647733271122, -0.004383217543363571, 0.00731725012883544, 0.02091798186302185, 0.09495393931865692, -0.04832180589437485, -0.020056067034602165, -0.03025299869477749, 0.013175480999052525, 0.09908504039049149, -0.04391227290034294, -0.08833198249340057, -0.008828884921967983, 0.08336915075778961, -0.006070444826036692, 0.019035371020436287, 0.01527409628033638, -0.0018675096798688173, -0.021864069625735283, -0.012541080825030804, -0.011996965855360031, 0.15067319571971893, 0.024517983198165894, -0.05758758634328842, 0.0028288576286286116, -0.046970635652542114, 0.021703410893678665, -0.015389525331556797, -0.02713477611541748, -0.06593598425388336, -0.002489279955625534, -0.11702318489551544, -0.017067614942789078, 0.06564844399690628, -0.005298284813761711, -0.07563439756631851, -0.023704400286078453, -0.0033729933202266693, 0.01775495335459709, 0.008786085061728954, 0.046147748827934265, -0.047356896102428436, 0.04968075081706047, 0.0013676327653229237, -0.02027839422225952, 0.004755196627229452, -0.13652543723583221, -0.035800859332084656, -0.0015813111094757915, 0.09834476560354233, -0.01020300853997469, -0.018834000453352928, 0.02218499220907688, 0.004976105876266956, -0.04770467430353165, 0.058593977242708206, 0.009257207624614239, -0.02452470175921917, 0.032654546201229095, -0.04201497882604599, 0.012813692912459373, -0.01765425130724907, -0.026312176138162613, 0.017311368137598038, 0.18969988822937012, -0.00812474824488163, 0.06785934418439865, -0.0033736752811819315, 0.003134910948574543, 0.00269578886218369, -0.04852611944079399, 0.06814086437225342, 0.04638541489839554, 0.11665929853916168, -0.060869209468364716, 0.04916061833500862, -0.013024547137320042, -0.02222413942217827, -0.09216538071632385, 0.0014594844542443752, -0.052425310015678406, 0.041887301951646805, 0.03962838277220726, -0.013259845785796642, -0.06459375470876694, -0.08827399462461472, -0.12612870335578918, -0.03428148478269577, 0.025745157152414322, 0.08056632429361343, -0.10972356796264648, 0.04318946599960327, 0.003931203857064247, -0.1689094752073288, -0.052117329090833664, -0.04973716661334038, -0.027962280437350273, 0.01338526513427496, 0.028772685676813126, -0.06934140622615814, 0.07575114071369171, 0.021982382982969284, -0.028741758316755295, -0.011789534240961075, 0.07851997017860413, -0.038847729563713074, 0.02473747916519642, 0.04518105089664459, 0.0500730536878109, -0.036058615893125534, -0.015643952414393425, -0.03397667035460472, 0.09264911711215973, -0.013370637781918049, -0.02242392487823963, 0.005381170194596052, 0.08278033137321472, -0.08423978090286255, -0.0677180141210556, -0.07935231924057007, -0.019482016563415527, -0.0037840961012989283, 0.036494966596364975, 0.036006271839141846], [0.010485763661563396, 0.01294929813593626, 0.17336340248584747, -0.03614818677306175, -0.03172527998685837, -0.042501866817474365, 0.012370741926133633, 0.004271904472261667, 0.08936338126659393, 0.004681318532675505, -8.323509246110916e-05, 0.02408059686422348, 0.04154346510767937, -0.08009117096662521, -0.02822006493806839, 0.07209505140781403, 0.06021944805979729, -0.03605543449521065, -0.03869529068470001, -0.06703215092420578, 0.0010638227686285973, -0.0116982851177454, 0.023449966683983803, -0.04162651672959328, -0.016218191012740135, -0.0406978614628315, -0.06363634020090103, -0.04044310748577118, 0.014128711074590683, -0.05933723971247673, -0.0029444394167512655, 0.019703039899468422, -0.015126023441553116, -0.02733304351568222, -0.036236781626939774, -0.11982802301645279, -0.04275984317064285, -0.05185246467590332, 0.013726837001740932, 0.05459227040410042, -0.014383076690137386, -0.009591836482286453, -0.010892732068896294, 0.01459379494190216, -0.0452566035091877, 0.06626700609922409, -0.07450633496046066, 0.008307364769279957, -0.11626394093036652, -0.0034645735286176205, 0.031077532097697258, 0.08098683506250381, 0.04620889201760292, -0.11773829162120819, -0.019012905657291412, 0.041372254490852356, -0.00045731422142125666, 0.028005165979266167, -0.04214457795023918, -0.005263750907033682, -0.022449418902397156, -0.017049362882971764, 0.051374275237321854, 0.06461726129055023, 0.020467184484004974, -0.004869440104812384, -0.005761642940342426, -0.04500066116452217, -0.15532870590686798, 0.07106006890535355, -0.1154216080904007, 0.0031062511261552572, 0.02588408812880516, 0.02358415722846985, -0.007222571410238743, 0.027914561331272125, 0.01927938498556614, 0.0738774761557579, 0.02926120162010193, -0.010002419352531433, -0.04152775928378105, 0.01952088251709938, -0.014256220310926437, 0.03028552606701851, 0.03909215331077576, -0.09793658554553986, -0.07690676301717758, 0.006550654303282499, -0.031751781702041626, -0.05758959427475929, 0.05180966854095459, -0.09544294327497482, -0.034053388983011246, -0.01045627985149622, 0.10846089571714401, 0.03028695285320282, 0.009978123940527439, -0.07184604555368423, -0.019836310297250748, 0.08451838791370392, 0.12738819420337677, -0.036542896181344986, 0.021189594641327858, -0.001208390574902296, 0.0077929128892719746, 0.01748986355960369, -0.03986727446317673, 0.003925934433937073, 0.13379183411598206, 0.0050170947797596455, -0.01697872020304203, 0.007832780480384827, -0.023832974955439568, -0.028353707864880562, -0.008879711851477623, -0.0008248745580203831, 0.06064543128013611, 0.03117937035858631, -0.004617782775312662, -0.052130527794361115, 0.03179651498794556, -0.01999395340681076, 0.02543235756456852, 0.003938876558095217, 0.002245893469080329, 0.01124319713562727, -0.022649992257356644, 0.0016408991068601608, -0.004139191936701536, -0.013073818758130074, -0.12767690420150757, -0.13308276236057281, 0.006402235943824053, -0.015703773126006126, -0.09285581111907959, 0.024591846391558647, 0.12651386857032776, -4.823750350624323e-05, -0.010869010351598263, -0.04822535812854767, 0.028336508199572563, -0.08783011138439178, -0.020285146310925484, -0.04062298312783241, 0.003274846589192748, -0.019272034987807274, 0.07511328905820847, -0.013689963147044182, 0.0020665470510721207, -0.032113488763570786, -0.005344977602362633, 0.04606945067644119, -0.012829123996198177, -0.024579446762800217, 0.037346962839365005, -0.002195320324972272, 0.10134230554103851, -0.057917479425668716, 0.006376916542649269, -0.007599384989589453, 0.02655470184981823, -0.163701593875885, -0.031954653561115265, -0.04507646709680557, 0.008362969383597374, -0.007192075718194246, -0.013893087394535542, -0.04615406692028046, 0.012586232274770737, -0.0033872462809085846, 0.00430961512029171, -0.011199681088328362, -0.05796350538730621, -0.005168605130165815, 0.11065033823251724, -0.015067391097545624, 0.005158600397408009, -0.03579171746969223, -0.04546075686812401, -0.012301996350288391, 0.033362120389938354, -0.10519136488437653, -0.01622636988759041, -0.01729331724345684, -0.0010141577804461122, -0.07509983330965042, -0.024568960070610046, -0.060015399008989334, 0.008608879521489143, -0.04226713255047798, -0.013859143480658531, -0.005626157857477665, 0.025869114324450493, 0.047531578689813614, -0.00441448949277401, 0.020979074761271477, 0.1984323114156723, 0.0708358958363533, 0.048096004873514175, 0.00857516098767519, 0.06108623743057251, -0.1571812629699707, -0.00435710558667779, 0.036494847387075424, 0.013145390897989273, 0.20670294761657715, 0.0045179398730397224, 0.02501830644905567, 0.11086538434028625, 0.01498637069016695, 0.07990961521863937, 0.023036202415823936, -0.028285294771194458, 0.05983036756515503, 0.06418179720640182, 0.003721228102222085, 0.007552577182650566, 0.03852882236242294, 0.011690146289765835, -0.05037929117679596, -0.03628237918019295, 0.05864957720041275, 0.06818921118974686, 0.04307674989104271, 0.00701972097158432, 0.006569016724824905, -0.15265758335590363, 0.09509876370429993, 0.10657426714897156, -0.01300690695643425, 0.04075038805603981, -0.009400302544236183, -0.02960728295147419, -0.00828899908810854, -0.018767472356557846, -0.04445565119385719, 0.07037580758333206, 0.043945226818323135, -0.01890043541789055, -0.012528418563306332, 0.003599365008994937, 0.02005758322775364, -0.015542393550276756, 0.013003362342715263, -0.029186684638261795, -0.022309869527816772, 0.05185381695628166, -0.05929845944046974, 0.010735239833593369, 0.11644035577774048, -0.01196620799601078, 0.008894319646060467, 0.011346801184117794, -0.010655616410076618, 0.00030534458346664906, 0.06824011355638504], [-0.012318160384893417, 0.013801034539937973, -0.08922715485095978, 0.06756976991891861, -0.00819630641490221, 0.05806773900985718, 0.09710203111171722, -0.06590989977121353, 0.032607827335596085, -0.005252994131296873, -0.04753032326698303, -0.03960682079195976, -0.04335157573223114, -0.09501347690820694, 0.031348999589681625, -0.034893933683633804, 0.029203983023762703, 0.04078655317425728, -0.0806555300951004, 0.07899380475282669, 0.02190295234322548, -0.009969831444323063, 0.07000411301851273, 0.011901061050593853, 0.08210496604442596, -0.0009403909207321703, 0.031124720349907875, -0.021177036687731743, -0.05988101288676262, 0.034502625465393066, -0.020838283002376556, 0.021963927894830704, -0.009635359048843384, -0.11202182620763779, -0.06314724683761597, 0.06529286503791809, -0.007610048167407513, -0.04109933227300644, 0.027061346918344498, -0.021587669849395752, 0.011746169067919254, -0.011504526250064373, -0.04866752400994301, -0.0182891134172678, 0.007405844517052174, 0.01959676668047905, 0.005764137487858534, -0.061413202434778214, 0.06108739227056503, 0.046884406358003616, -0.023402918130159378, 0.006646180059760809, 0.022806743159890175, -0.11026077717542648, -0.03912171348929405, -0.034354742616415024, -0.042450081557035446, 0.022459836676716805, 0.039624616503715515, -0.018382243812084198, -0.008807056583464146, -0.018859971314668655, -0.014757621102035046, -0.053150493651628494, 0.006568994838744402, 0.02545659989118576, 0.056302525103092194, -0.06275104731321335, 0.08097566664218903, 0.01427807193249464, 0.1416776329278946, 0.008593523874878883, -0.04010060429573059, -0.04678196460008621, -0.09066421538591385, 0.047625582665205, 0.024508891627192497, -0.047131504863500595, 0.08770778775215149, 0.025482216849923134, -0.017162803560495377, 0.0028468435630202293, -0.010591775178909302, -0.018560834228992462, -0.044654447585344315, -0.03355943411588669, -0.0508292056620121, -0.03790135681629181, 0.04515433311462402, 0.105080746114254, 0.02971240133047104, -0.08037157356739044, -0.02524033933877945, 0.008425071835517883, -0.20014561712741852, 0.08578463643789291, 0.0030351816676557064, 0.062120020389556885, 0.07099361717700958, -0.13018518686294556, 0.04960562288761139, 0.010306812822818756, -0.029537998139858246, -0.018590552732348442, 0.00021644825756084174, 0.04189279302954674, 0.01875917986035347, -0.06033516675233841, -0.21268990635871887, -0.02725072391331196, -0.0400286540389061, -0.0037440494634211063, 0.07150232791900635, -0.010697252117097378, -0.02700635977089405, -0.01503769401460886, -0.054170504212379456, 0.00044164006249047816, -0.001265622559003532, 0.06158651411533356, -0.0644146203994751, 0.02520867809653282, 0.08962378650903702, 0.013020035810768604, -0.025567704811692238, 0.01034087035804987, -0.0014905526768416166, -0.0010153371840715408, -0.012527236714959145, -0.02622411958873272, 0.22123128175735474, 0.0040272558107972145, 0.015323962084949017, -0.019095487892627716, -0.03358001634478569, -0.2017049938440323, 0.01614067703485489, 0.0026473512407392263, 0.033734649419784546, -0.021440397948026657, 0.0045655411668121815, -0.017674067988991737, 0.048092152923345566, -0.05675455182790756, -0.02321583963930607, -0.030349671840667725, 0.00042388358269818127, 0.03340631350874901, 0.015259661711752415, -0.02991219237446785, -0.07526617497205734, -0.01304041687399149, 0.07836242020130157, -0.05921197310090065, 0.07499449700117111, 0.017980488017201424, -0.1823914498090744, -0.0678190216422081, 0.0009590928093530238, 0.006788546219468117, 0.0811360776424408, 0.08341667056083679, 0.07979275286197662, 0.13001413643360138, -0.033182088285684586, -0.012778387404978275, 0.05685621127486229, -0.03410620987415314, 0.0022338302806019783, -0.052905261516571045, 0.014745947904884815, 0.013283572159707546, 0.026711752638220787, 0.023455942049622536, -0.03699414059519768, 0.02378910779953003, 0.01611694134771824, -0.0037739998660981655, -0.0790950357913971, 0.018322020769119263, 0.05398223549127579, -0.03678923845291138, 0.019626721739768982, -0.06679154187440872, 0.02505704015493393, -0.01725589483976364, 0.04959719628095627, -0.0788259208202362, 0.06331205368041992, 0.0822194442152977, -0.014456070028245449, -0.020414702594280243, -0.02998277358710766, -0.009472943842411041, 0.0517394095659256, -0.029477139934897423, -0.005274083465337753, 0.031883396208286285, 0.08950774371623993, 0.0030812344048172235, -0.010246368125081062, 0.06840281188488007, -0.052094101905822754, 0.05059335008263588, -0.03586507588624954, -0.13526929914951324, 0.045600954443216324, 0.06745563447475433, 0.14678257703781128, -0.0012597352033481002, -0.008219928480684757, -0.0008113830117508769, 0.13296017050743103, -0.0844772458076477, -0.01643485389649868, -0.056765180081129074, -0.029430877417325974, -0.013962682336568832, 0.04507994279265404, 0.04468196630477905, -0.0380653515458107, -0.0935102105140686, 0.051154591143131256, -0.020394835621118546, 0.02087373286485672, -0.003383014118298888, -0.11275401711463928, -0.0061749001033604145, 0.09351802617311478, 0.0030089430510997772, 0.024185389280319214, -0.04107293486595154, 0.03514222428202629, 0.059771761298179626, -0.129852294921875, -0.02342442236840725, 0.012306277640163898, 0.07517542690038681, 0.006673766765743494, -0.02571454830467701, 0.0334351547062397, -0.08368058502674103, -0.026520447805523872, 0.18741001188755035, 0.03858445957303047, 0.0023522416595369577, 0.014840496703982353, -0.02669456973671913, -0.013895653188228607, -0.0002604787005111575, -0.004712595138698816, -0.008194530382752419, -0.027734603732824326, 0.0066243428736925125, 0.06129629537463188, -0.022924326360225677], [-0.029831072315573692, 0.02048042044043541, -0.08772552013397217, -0.007655316032469273, 0.006998581346124411, -0.12763288617134094, 0.08488515764474869, -0.030129535123705864, 0.03798021748661995, 0.007525446824729443, 0.06485090404748917, -0.020867042243480682, 0.021100811660289764, -0.11930933594703674, 0.020238500088453293, -0.006995112169533968, -0.026104271411895752, 0.04244860261678696, -0.009312795475125313, -0.014755980111658573, -0.0036977522540837526, -0.0021029191557317972, -0.054504867643117905, 0.03508346155285835, -0.045520588755607605, -0.020033031702041626, 0.05649293586611748, 0.025460796430706978, 0.01555634941905737, 0.07821761071681976, -0.007726563606411219, 0.010898767039179802, 0.011615065857768059, -0.055023543536663055, 0.10989124327898026, 0.06800856441259384, 0.03543822467327118, 0.016784558072686195, -0.01891903206706047, 0.043029725551605225, 0.023145129904150963, -0.005765242502093315, -0.024474933743476868, 0.022953974083065987, -0.12062613666057587, 0.02422187104821205, 0.02694636397063732, 0.012685735709965229, -0.04076103866100311, 0.033103205263614655, 0.006442803889513016, -0.0793633982539177, -0.05459699034690857, 0.04425596073269844, 0.032543379813432693, -0.05404029041528702, 0.004491725470870733, -0.0013780533336102962, 0.055073514580726624, -0.04030584171414375, 0.069578155875206, 0.04071321338415146, -0.07343360036611557, -0.00906484667211771, -0.02002134546637535, -0.01974581368267536, 0.0035973810590803623, 0.09870096296072006, 0.11315838992595673, 0.010572964325547218, 0.04426032304763794, 0.0064490134827792645, -0.03847269341349602, 0.04973427206277847, 0.0108548728749156, 0.045805588364601135, 0.04672208055853844, -0.04171053320169449, -0.1161772608757019, -0.004015342332422733, -0.019413884729146957, -0.017343241721391678, -0.03529505431652069, 0.03165313974022865, 0.04157122224569321, -0.08351302146911621, 0.023026471957564354, -0.04451536387205124, 0.006624020170420408, -0.052657600492239, -0.020484138280153275, 0.026200398802757263, -0.005819170270115137, -0.14835529029369354, -0.1363002061843872, 0.021595487371087074, -0.008763700723648071, -0.035191610455513, -0.08236901462078094, 0.04094754159450531, -0.13656285405158997, -0.004081970080733299, 0.0009907162748277187, 0.030617717653512955, 0.026394441723823547, 0.006667227949947119, -0.09781075268983841, -0.004732871428132057, 0.043740708380937576, -0.046169478446245193, 0.012245082296431065, 0.00409045210108161, 0.057095881551504135, 0.09394004195928574, 0.002672335598617792, 0.1274430751800537, 0.0015640135388821363, 0.05887709930539131, -0.019680924713611603, 0.0019764944445341825, -0.012418258935213089, 0.02346612699329853, 0.0022848874796181917, 0.015461444854736328, 0.018434273079037666, 0.007421338465064764, -0.033119961619377136, 0.0321180522441864, 0.011096032336354256, -0.03835529461503029, -0.09437422454357147, 0.01019988302141428, -0.03276664391160011, -0.026467278599739075, 0.003488226793706417, 0.16021688282489777, 0.006380083505064249, -0.07807834446430206, 0.08230816572904587, -0.02189720794558525, -0.02658221684396267, -0.13644243776798248, 0.0005834293551743031, -0.029408089816570282, 0.0030061739962548018, 0.007009404711425304, 0.005497419741004705, 0.010232936590909958, -0.007945787161588669, 0.022027822211384773, -0.0298952367156744, 0.0019451563712209463, -0.05693351849913597, 0.05239270627498627, 0.11297134310007095, 0.023098155856132507, 0.013350223191082478, 0.035168055444955826, -0.013133215717971325, 0.008971798233687878, -0.03752928599715233, -0.07396200299263, -0.08525174856185913, 0.13943998515605927, -0.021101301535964012, 0.04072365164756775, -0.0027678946498781443, -0.04562975466251373, 0.04978286474943161, -0.0662359967827797, 0.0023459491785615683, 0.05013808235526085, 0.09097140282392502, -0.0505516342818737, 0.0349743478000164, 0.012442142702639103, -0.024080710485577583, 0.000524429720826447, -0.012181165628135204, -0.059706076979637146, -0.0031407151836901903, -0.10633943974971771, -0.007518368773162365, 0.05362710356712341, -0.006478745955973864, 0.021344594657421112, -0.03895492106676102, 0.10238923877477646, -0.048154667019844055, 0.007628133054822683, -0.025304419919848442, 0.04242605343461037, -0.007935593836009502, 0.012383486144244671, -0.0009002272854559124, 0.030551912263035774, 0.06437578052282333, -0.01867331750690937, -0.10334400087594986, 0.016569389030337334, -0.004012531600892544, -0.00949870329350233, -0.07443489134311676, -0.07437743991613388, 0.04158191382884979, 0.05538518354296684, 0.09512526541948318, 0.016066400334239006, 0.10009626299142838, 0.019088413566350937, -0.09556201845407486, -0.004503039177507162, 0.07125989347696304, 0.023216290399432182, 0.08087239414453506, -0.03582073748111725, -0.04661864414811134, 0.04093505069613457, -0.08990486711263657, 0.08425034582614899, -0.09856981784105301, 0.1479811668395996, 0.03076949529349804, -0.04627694562077522, -0.006808006204664707, -0.19709359109401703, 0.017976287752389908, -0.044813983142375946, -0.0018572297412902117, 0.01593105122447014, -0.05105157569050789, -0.02854223921895027, 0.014082936570048332, -0.05730608105659485, 0.02654796466231346, -0.04078502207994461, -0.10918918251991272, 0.0764162614941597, -0.013182259164750576, 0.0437757708132267, -0.04145590588450432, -0.07219839841127396, -0.0036915878299623728, -0.03612513467669487, -0.12637512385845184, -0.015515901148319244, -0.06619741022586823, 0.008721301332116127, 0.017904410138726234, -0.1064496785402298, 0.06231815740466118, 0.0009806400630623102, -0.012761065736413002, -0.035938285291194916, 0.022257627919316292, 0.010860770009458065], [0.005549933295696974, 0.028780214488506317, -0.2719076871871948, 0.02105422131717205, -0.005780497565865517, -0.01948164962232113, -0.0690189003944397, -0.012216410599648952, -5.924447759753093e-05, 0.041905924677848816, -0.015719281509518623, -0.04197237268090248, -0.009206002578139305, 0.24836310744285583, 0.030765455216169357, 0.018304888159036636, 0.07752342522144318, -0.060064394026994705, -0.013711332343518734, 0.0030724836979061365, -0.029148247092962265, 0.016953712329268456, -0.030414342880249023, -0.06392025202512741, -0.09303966164588928, 0.09242106229066849, 0.11958310008049011, -0.04412037134170532, -0.1603846400976181, 0.07812891900539398, -0.008406354114413261, -0.005165441427379847, 0.019690601155161858, 0.11146122962236404, 0.004364820662885904, 0.08695339411497116, -0.014596794731914997, -0.030723975971341133, -0.014188548550009727, 0.0018365432042628527, 0.00518372468650341, 0.004281219094991684, -0.02595931477844715, -0.06932370364665985, -0.06344776600599289, -0.03982147201895714, 0.016933508217334747, 0.009995515458285809, -0.08939047157764435, -0.023576179519295692, 0.0661669597029686, -0.13915951550006866, -0.10590526461601257, 0.21066445112228394, -0.014764729887247086, -0.03575392812490463, -0.004332344513386488, 0.0005545328604057431, 0.0003120885812677443, 0.03775865584611893, -0.05345313996076584, -0.004247220233082771, -0.08788955956697464, 0.016558852046728134, 0.017994903028011322, -0.0011179365683346987, -0.0516984723508358, -0.0032206911128014326, -0.030826792120933533, 0.11569491028785706, -0.016789764165878296, 0.010914323851466179, 0.00023066549329087138, 0.04709186032414436, 0.10260234773159027, 0.09439106285572052, -0.01222224161028862, -0.0032317088916897774, 0.014770357869565487, -0.03523283824324608, 0.005022998433560133, 0.00036510115023702383, 0.12782031297683716, -0.028033025562763214, 0.1101851835846901, -0.10563043504953384, 0.06984101980924606, -0.07212736457586288, 0.036334481090307236, 0.004141742829233408, -0.05586094781756401, -0.03122599609196186, -0.0018364909337833524, -0.06971587240695953, -0.03652332350611687, -0.031486958265304565, -0.017033888027071953, 0.09916577488183975, 0.04578045755624771, -0.030487507581710815, 0.039618514478206635, 0.006406293250620365, 0.039701081812381744, -0.05822736769914627, 0.00859933439642191, 0.03328365832567215, -0.04385010525584221, -0.04447350651025772, -0.2447669953107834, 0.016045670956373215, -0.07969746738672256, -0.023115722462534904, 0.051827024668455124, -0.03093150071799755, -0.024658016860485077, 0.01635502278804779, 0.05203821137547493, -0.015896741300821304, -0.004333927761763334, -0.03948540613055229, -0.08945934474468231, 0.027578091248869896, 0.002991610672324896, 0.019596168771386147, -0.009361370466649532, 0.020062800496816635, 0.07114493101835251, 0.007932716980576515, -0.03611110895872116, -0.013567275367677212, 0.12068604677915573, -0.07783376425504684, -0.02092185989022255, 0.11115185916423798, 0.02819027751684189, 0.027963019907474518, -0.04407210275530815, -0.040530864149332047, 0.04502382501959801, 0.04567890614271164, -0.010037101805210114, -0.026282919570803642, -0.023343879729509354, -0.13001269102096558, 0.015946848317980766, -0.05875121057033539, -0.01369529590010643, -0.006889571435749531, -0.031806282699108124, 0.01912950910627842, -0.03611329197883606, -0.04955679923295975, 0.0684107318520546, -0.004224399104714394, -0.046910375356674194, 0.05300385132431984, 0.047254957258701324, 0.07758275419473648, -0.006775109563022852, 0.022914517670869827, 0.020002860575914383, 0.03776276484131813, -0.054106876254081726, -0.02713618054986, 0.02332637645304203, 0.006060141138732433, 0.005072310566902161, -0.0037286952137947083, 0.014512722380459309, 0.00757461367174983, 0.027543820440769196, -0.0159925427287817, -0.031836654990911484, 0.0009200743515975773, 0.11327139288187027, -0.01889321394264698, 0.07498911023139954, -0.0239175446331501, 0.0006605692906305194, -0.029496770352125168, 0.029473844915628433, 0.24071963131427765, -0.04104617238044739, 0.00023826358665246516, -0.02337731048464775, 0.04492732509970665, 0.06365390866994858, -0.0012573371641337872, 0.03575359657406807, -0.12015049904584885, 0.05114543065428734, -0.011055445298552513, 0.02521190047264099, 0.04133283719420433, -0.026056557893753052, -0.03594321012496948, -0.02548353560268879, -0.0910860002040863, -0.032402489334344864, -0.0009840273996815085, 0.0037334016524255276, -0.06499850004911423, -0.10123265534639359, 0.006323317531496286, 0.04393921047449112, -0.015567313879728317, 0.04607094079256058, -0.03510599955916405, 0.015599070116877556, -0.015511971898376942, -0.20051518082618713, 0.05840801075100899, -0.10354411602020264, 0.066749207675457, -0.0584384985268116, 0.031275756657123566, 0.043049156665802, 0.012647935189306736, 0.03663456439971924, -0.061360009014606476, 0.11189554631710052, 0.036482181400060654, -0.04112499952316284, -0.06406691670417786, 0.007648221217095852, -0.10729779303073883, 0.12213031202554703, 0.12396732717752457, 0.04356882721185684, 0.010908614844083786, 0.004625733010470867, 0.026520514860749245, -0.04815634340047836, 0.05853486806154251, 0.0042936489917337894, -0.009731841273605824, -0.22670422494411469, 0.010718310251832008, -0.034114040434360504, 0.017843572422862053, 0.016711894422769547, -0.03305831179022789, -0.017714867368340492, 0.009215950034558773, -0.011169041506946087, -0.03537428379058838, 0.011187645606696606, 0.0857970342040062, -0.024454781785607338, 0.03003043681383133, -0.11307161301374435, 0.02070721611380577, 0.012092472985386848, -0.0007814349373802543, -0.11600877344608307, -0.07221582531929016], [-0.007941133342683315, 0.023496583104133606, 0.03722997382283211, -0.10682128369808197, 0.01238305028527975, -0.08548526465892792, 0.07609211653470993, 0.09024171531200409, -0.03157392516732216, -0.05231161415576935, 0.05781063809990883, 0.030024709179997444, 0.006158567499369383, 0.16850291192531586, -0.005721941590309143, -0.09697461873292923, -0.029887622222304344, 0.055797405540943146, 0.025786476209759712, 0.030520537868142128, 0.004422195255756378, 0.03267236053943634, 0.012031398713588715, 0.07580019533634186, 0.005391455255448818, 0.06433608382940292, 0.07985490560531616, 0.10003025084733963, -0.014104465022683144, -0.06353272497653961, -0.010031821206212044, 0.014291011728346348, -0.01215137168765068, 5.437571962829679e-05, -0.0017856362974271178, -0.07840403914451599, -0.016882149502635002, -0.04081551730632782, -0.03991205245256424, -0.0008515948429703712, 0.020125359296798706, -0.02819778583943844, 0.007724144030362368, -0.009310542605817318, -0.012186088599264622, 0.015436142683029175, 0.0398407056927681, 0.004332440439611673, 0.046562325209379196, -0.04950197413563728, 0.01448628306388855, 0.049240995198488235, -0.01178231742233038, 0.04218537360429764, 0.0020040192175656557, 0.015444722026586533, 0.016687797382473946, 0.039917413145303726, 0.011045311577618122, 0.0066847968846559525, -0.041131582111120224, -0.009243588894605637, 0.0017031418392434716, -0.07719272375106812, 0.00956109818071127, 0.06670577824115753, 0.007200207561254501, -0.052392225712537766, 0.08031870424747467, 0.01538248360157013, 0.06731797009706497, -0.003657321212813258, -0.023939600214362144, -0.11360300332307816, -0.0204639695584774, 0.00435348367318511, 0.04860534146428108, -0.24222493171691895, 0.145761638879776, -0.0425407774746418, 0.01934332400560379, 0.009661014191806316, 0.01720983348786831, 0.01923970691859722, -0.0007159382803365588, 0.04031011089682579, 0.003220505313947797, -0.03810291364789009, -0.04897535964846611, 0.04550037160515785, 0.053413450717926025, -0.04138866811990738, -0.009108355268836021, -0.1062803715467453, 0.11062873154878616, 0.04197542741894722, 0.010263241827487946, -0.010173231363296509, 0.144413024187088, -0.032578419893980026, -0.008509228937327862, 0.009780872613191605, -0.007061274256557226, -0.059489715844392776, 0.04259876906871796, -0.08067414164543152, 0.12858694791793823, 0.11190874874591827, -0.12284792959690094, -0.035322096198797226, 0.02099430561065674, -0.060087621212005615, -0.04309140145778656, -0.0022486583329737186, 0.03139140456914902, -0.09275849908590317, 0.032165057957172394, 0.009932909160852432, 0.05078853294253349, 0.034144382923841476, 0.03374439477920532, -0.04760073125362396, -0.02599354274570942, -0.020938148722052574, -0.015217741951346397, -0.021557604894042015, -0.017456045374274254, 0.05134698003530502, -0.015025939792394638, 0.007705409545451403, 0.1329723596572876, -0.12440914660692215, -0.04052376374602318, 0.034471359103918076, 0.05823370814323425, -0.0762086734175682, 0.026872770860791206, 0.02654513344168663, 0.013320786878466606, -0.020748846232891083, -0.011604963801801205, 0.14616644382476807, 0.002164584817364812, 0.06923649460077286, -0.018071763217449188, -0.02825532667338848, -0.029038498178124428, -0.02361643873155117, -0.0014792336151003838, -0.024858368560671806, -0.06432116776704788, -0.07178264111280441, 0.08846521377563477, 0.013703646138310432, -0.02855590544641018, -0.0017495262436568737, 0.1017172783613205, 0.024763528257608414, 0.004402559250593185, 0.0052184839732944965, -0.0010301587171852589, 0.03218790516257286, -0.00829395279288292, -0.1036759614944458, 0.005839355755597353, 0.0028828587383031845, -0.08562035113573074, 0.05216596648097038, -0.03557364270091057, 0.008382350206375122, -0.00559133430942893, -0.04824179410934448, -0.07407695055007935, 0.06064726784825325, 0.11778122931718826, -0.027222756296396255, -0.03304629027843475, 0.035210296511650085, -0.13544876873493195, -0.04641781002283096, 0.02550089918076992, 0.13445264101028442, 0.015888933092355728, 0.04665201157331467, -0.003044015960767865, 0.01627000793814659, 0.0052914791740477085, 0.0011320795165374875, 0.004211125895380974, -0.0426342748105526, 0.0290449820458889, 0.1320076882839203, -0.006330098491162062, -0.03664812073111534, 0.019240427762269974, -0.0005615862319245934, 0.18760795891284943, -0.03073522448539734, -0.07008509337902069, -0.0007570502930320799, 0.021695967763662338, -0.0009494412806816399, 0.07558847218751907, 0.08755280077457428, -0.0004047066031489521, 0.11239979416131973, -0.03347068652510643, 0.01017774362117052, -0.0784221664071083, -0.0037308288738131523, -0.08405111730098724, 0.002770208055153489, -0.13382595777511597, -0.024819474667310715, -0.06249997019767761, -0.026658127084374428, 0.037156980484724045, -0.009374147281050682, 0.02961369790136814, -0.04226969927549362, 0.031722839921712875, -0.08769673854112625, -0.003306350437924266, 0.15987800061702728, -0.04022771492600441, -0.12051402777433395, -0.047336697578430176, 0.09540977329015732, -0.1538085788488388, 0.0014487646985799074, -0.010156799107789993, 0.040468569844961166, 0.04320259019732475, 0.06574108451604843, 0.02471202239394188, 0.03135562688112259, 0.11057502031326294, -0.1035197377204895, 0.016084451228380203, 0.02008691430091858, 0.004487209487706423, 0.03318505734205246, -0.00882104691118002, 0.03205154091119766, -0.055648040026426315, -0.005728730000555515, 0.014964897185564041, 0.047338396310806274, 0.01260802336037159, 0.049937326461076736, -0.003651249688118696, 0.0033794797491282225, -0.0005212484975345433, 0.024907279759645462, -0.030536524951457977, 0.025870174169540405], [-0.02845960296690464, 0.02383223921060562, -0.22460682690143585, 0.017637664452195168, 0.013455111533403397, -0.0021732961758971214, -0.032651521265506744, 0.0655723437666893, 0.062305498868227005, -0.012684598565101624, 0.04993349686264992, 0.01006157323718071, -0.06223485618829727, -0.10150102525949478, -0.00021561785251833498, 0.00014064509014133364, -0.056461151689291, 0.09197653830051422, -0.015006775967776775, 0.041229862719774246, -0.02084438130259514, -0.006940786261111498, -0.02901911735534668, 0.014441590756177902, 0.02059396542608738, -0.050286076962947845, -0.03223484382033348, -0.02021053060889244, -0.13609005510807037, 0.020190777257084846, 0.018728474155068398, -0.0037195042241364717, -0.011815105564892292, 0.07757759839296341, 0.03980930149555206, -0.05462844297289848, 0.030158650130033493, 0.0035021102521568537, 0.0051280297338962555, 0.02468821033835411, 0.06053222343325615, 0.029061997309327126, -0.011677096597850323, 0.0002875391801353544, 0.06169925630092621, -0.03280802443623543, 0.018358752131462097, 0.013195791281759739, -0.10571414232254028, 0.016342300921678543, 0.07446707040071487, -0.006735961884260178, -0.051807571202516556, -0.04888145625591278, -0.02246050164103508, -0.07131272554397583, 0.005434069316834211, -0.06153779849410057, -0.040888942778110504, -0.13299524784088135, 0.004445662256330252, 0.038615211844444275, -0.032526466995477676, -0.05708037689328194, -0.01337411068379879, -0.04871457815170288, 0.05766621604561806, -0.0001309250801568851, 0.08812752366065979, 0.06979478150606155, 0.08065826445817947, -0.0015955903800204396, -0.023142455145716667, -0.07544784992933273, -0.05779227241873741, 0.014835981652140617, -0.027967343106865883, -0.10971871763467789, 0.05516514182090759, -0.039632491767406464, -0.018541840836405754, -0.005307388957589865, 0.05449768900871277, 0.015964530408382416, -0.06589800119400024, -0.02590724639594555, 0.08846302330493927, 0.026692522689700127, -0.033832259476184845, 0.025989627465605736, 0.027979906648397446, 0.030723726376891136, 0.0054041980765759945, -0.08929424732923508, 0.010827039368450642, 0.020524214953184128, 0.02356727421283722, -0.016224203631281853, -0.14663422107696533, -0.029413746669888496, 0.03870697319507599, -0.0018590992549434304, -0.0012997249141335487, -0.03668196126818657, -0.0007629612227901816, -0.05383938178420067, 0.06946699321269989, 0.023233167827129364, -0.22081419825553894, 0.06433519721031189, 0.0038239224813878536, -0.03349145129323006, -0.022670788690447807, -0.049306850880384445, -0.027087824419140816, -0.032074224203825, 0.04236224666237831, -0.018360601738095284, 0.08201031386852264, 0.019096262753009796, 0.04144610837101936, 0.047962453216314316, 0.03622059524059296, -0.028255553916096687, -0.002473886124789715, 0.019567497074604034, 0.06157824769616127, 0.012789014726877213, -0.03640669956803322, -0.010348125360906124, 0.014646582305431366, 0.09119011461734772, -0.010856359265744686, -0.07088242471218109, -0.02877900004386902, -0.058663222938776016, -0.05881110206246376, 0.006565218325704336, 0.015682563185691833, 0.04035479575395584, -0.04540807008743286, -0.23301759362220764, 0.006940129678696394, 0.080360546708107, 0.00954016949981451, 0.07261119782924652, -0.0007733675884082913, -0.04633251577615738, -0.019417736679315567, 0.001322657917626202, -0.03374093770980835, -0.040567830204963684, 0.011506852693855762, -0.026740258559584618, 0.03603433072566986, 0.007211758755147457, 0.07194724678993225, -0.004622993059456348, 0.01641271822154522, 0.002060903236269951, -0.00600086385384202, 0.009389510378241539, 0.04699563980102539, 0.04747595265507698, 0.01302152406424284, -0.003944984171539545, -0.09029799699783325, 0.06441069394350052, 0.008632087148725986, -0.060017578303813934, 0.029442230239510536, 0.04139995574951172, 0.09804493933916092, 0.00996602512896061, 0.10656651854515076, -0.011364021338522434, 0.017605727538466454, 0.041808899492025375, 0.010813343338668346, -0.05037974938750267, 0.0021243002265691757, -0.19030962884426117, 0.010632382705807686, 0.03411152586340904, 0.010535677894949913, -0.02155156247317791, 0.021463314071297646, 0.08817087858915329, 0.024503525346517563, 0.03232674300670624, 0.07952351123094559, 