{"mlp": {"layers": [{"weights": [[-0.023246634751558304, -0.07591613382101059, -0.0410287007689476, 0.04212942346930504, 0.07460207492113113, 0.03394070640206337, -0.048403721302747726, -0.1146298199892044, -0.043436549603939056, -0.06624259054660797, -0.0113526014611125, -0.06790988892316818, -0.015584771521389484, 0.0007136752246879041, 0.03879086300730705, 0.10629048198461533, -0.014574325643479824, -0.03164861351251602, 0.04500848054885864, 0.06381037831306458, 0.005895975977182388, 0.02100371941924095, 0.047608815133571625, 0.0036691585555672646, 0.0623299814760685, -0.14535550773143768, -0.021524256095290184, 0.008480645716190338, -0.04176320135593414, 0.07870657742023468, -0.11188357323408127, -0.015767155215144157, 0.02133232355117798, 0.06507479399442673, 0.03572285920381546, -0.09155367314815521, 0.11347436159849167, -0.056644417345523834, 0.05811787769198418, -0.0929572656750679, -0.14911678433418274, -0.07601165771484375, 0.1330370455980301, 0.18814495205879211, 0.0595734640955925, -0.0026837314944714308, 0.05219191685318947, -0.06825076043605804, 0.022053293883800507, 0.03559131547808647, 0.05330142378807068, -0.04664691165089607, 0.12290412932634354, 0.06640054285526276, -0.16339220106601715, 0.028334297239780426, -0.023852920159697533, 0.10790014266967773, 0.0601479709148407, -0.00641574477776885, -0.044612571597099304, -0.09291448444128036, 0.0818987488746643, -0.049018800258636475, -0.00037210690788924694, -0.04968102276325226, -0.0375078059732914, -0.025520548224449158, 0.09796302765607834, 0.06541744619607925, -0.01986953802406788, 0.010288682766258717, -0.07606238126754761, -0.043553054332733154, -0.03704458475112915, 0.043753061443567276, 0.078180231153965, -0.04674198105931282, 0.1430780589580536, 0.05662715435028076, 0.026947231963276863, 0.033984147012233734, 0.08946097642183304, 0.08714651316404343, -0.043435703963041306, -0.055545974522829056, 0.010050412267446518, 0.04048680141568184, 0.030449846759438515, -0.020267250016331673, -0.04037238284945488, 0.042487163096666336, -0.08480017632246017, 0.029162410646677017, -0.04361126571893692, -0.07564406096935272, -0.03774365782737732, -0.03596465289592743, -0.15951058268547058, -0.06540524214506149, -0.07422307878732681, -0.06477759033441544, 0.08004340529441833, -0.05658834055066109, -0.0858355313539505, -0.08681837469339371, 0.09060762822628021, -0.06775028258562088, 0.038510870188474655, -0.09675127267837524, -0.06542778760194778, 0.07195688039064407, -0.004622847307473421, -0.03485925868153572, -0.041538532823324203, 0.05160826817154884, -0.09952829778194427, -0.005878443364053965, -0.0839257538318634, 0.02157287485897541, 0.06761203706264496, -0.077457956969738, -0.06684838235378265, 0.04562101140618324, 0.020145611837506294, 0.09019534289836884, -0.09864223003387451, 0.0724112018942833], [-0.023959528654813766, 0.00891468208283186, 0.040261294692754745, -0.09725803136825562, 0.025266969576478004, -0.07752799242734909, -0.020355451852083206, -0.0661291554570198, -0.05477181822061539, -0.13879448175430298, -0.015292642638087273, 0.07438509166240692, -0.05698445439338684, -0.03296440839767456, -0.12328832596540451, -0.06363579630851746, 0.029082201421260834, -0.009773771278560162, 0.019735516980290413, 0.008464404381811619, -0.06435581296682358, -0.031871866434812546, 0.1529199630022049, -0.011002343147993088, -0.06189584359526634, -0.010396148078143597, 0.04312807321548462, 0.07340113073587418, 0.08872714638710022, 0.07456538826227188, -0.13329549133777618, 0.023036789149045944, 0.044626835733652115, -0.0648416206240654, 0.04106016084551811, 0.05768989399075508, 0.013398111797869205, 0.07383046299219131, -0.06071190908551216, 0.00542466901242733, -0.058066707104444504, 0.011063524521887302, 0.02108144573867321, -0.030445631593465805, -0.002771573606878519, 0.10498934239149094, -0.1432286947965622, 0.1268593817949295, -0.07678006589412689, -0.02177462726831436, 0.01976734586060047, -0.14323142170906067, -0.11710989475250244, 0.00436039874330163, -0.05065421015024185, -0.009387529455125332, 0.11654910445213318, -0.1756950467824936, 0.05049830675125122, -0.05020753666758537, 0.045097943395376205, -0.05532396212220192, -0.11744707822799683, 0.05185861140489578, 0.11258430778980255, -0.03979768976569176, -0.09755531698465347, 0.03201868385076523, 0.07399681955575943, -0.011841196566820145, -0.053347934037446976, 0.014486885629594326, 0.045931532979011536, 0.048829689621925354, -0.1138518899679184, 0.10885182023048401, 0.03567792847752571, 0.06909942626953125, -0.04485543444752693, -0.12169286608695984, 0.12151637673377991, -0.14534881711006165, -0.012763558886945248, -0.22326865792274475, 0.09358467161655426, 0.1514146327972412, 0.021694296970963478, 0.006015431601554155, -0.09190042316913605, 0.2229728102684021, 0.0067739058285951614, -0.10166675597429276, 0.094510018825531, 0.02939561940729618, 0.06416816264390945, 0.06101643666625023, 0.18027347326278687, 0.06282743811607361, -0.052458781749010086, -0.09579536318778992, -0.09598162025213242, -0.014936852268874645, -0.10455084592103958, -0.1576385796070099, 0.07356539368629456, -0.0651571974158287, 0.002166939666494727, -0.19443579018115997, 0.11454536020755768, 0.17599858343601227, -0.053420860320329666, 0.09961893409490585, 0.07138637453317642, -0.03538025915622711, -0.03362618386745453, -0.14183169603347778, -0.08916985243558884, 0.10085179656744003, 0.033172640949487686, -0.057326242327690125, 0.06279339641332626, -0.07225380837917328, 0.15765579044818878, 0.021287474781274796, -0.04066251218318939, -0.04933799058198929, 0.005203968845307827, -0.08497264236211777], [0.056493908166885376, 0.0008039544918574393, 0.03541214019060135, 0.06601313501596451, 0.09116348624229431, -0.05000308156013489, -0.03900578245520592, -0.16311277449131012, 0.060694221407175064, 0.0014878258807584643, 0.08150162547826767, -0.01558805163949728, -0.1488325148820877, 0.06309870630502701, -0.010059100575745106, -0.08415044099092484, 0.06861907988786697, 0.04965736344456673, 0.002058986807242036, -0.11086630821228027, 0.011225228197872639, -0.0023410418070852757, 0.01735302433371544, -0.014017024077475071, -0.06132904812693596, 0.05875120684504509, -0.1041937917470932, 0.08418221771717072, 0.13592563569545746, 0.01810777559876442, 0.1320868581533432, 0.13392987847328186, -0.05547872558236122, 0.06379412859678268, -0.06275935471057892, -0.028623273596167564, -0.041820283979177475, -0.034455377608537674, 0.009970612823963165, 0.028703367337584496, 0.000461852818261832, 0.04151003435254097, -0.009659146890044212, -0.046229079365730286, 0.07986406981945038, -0.16987471282482147, 0.010317986831068993, 0.0029952607583254576, -0.019859520718455315, -0.07261499762535095, 0.13251343369483948, 0.05182981863617897, 0.05479608103632927, -0.03645007312297821, 0.1468065232038498, 0.02818549983203411, 0.06172298267483711, 0.08514132350683212, -0.004222100134938955, 0.04879796877503395, -0.09602658450603485, 0.0634261965751648, 0.016644805669784546, -0.012501185759902, -0.009056538343429565, 0.09536895900964737, -0.14206530153751373, 0.03446578234434128, 0.05989091098308563, -0.08010702580213547, -0.02355889603495598, 0.06272196769714355, -0.015378402546048164, 0.03967619314789772, 0.04675453528761864, -0.04492592811584473, -0.12831249833106995, -0.060922738164663315, 0.0382305309176445, -0.04955697059631348, -0.0885515809059143, -0.08459004014730453, 0.07654701173305511, -0.005189563613384962, 0.1361110508441925, 0.03611832112073898, -0.09536146372556686, -0.017069682478904724, 0.040293652564287186, 0.028985759243369102, 0.0009444279712624848, -0.009488065727055073, -0.08584225177764893, -0.04695897176861763, 0.043838273733854294, -0.05077873542904854, -0.05073806270956993, -0.11435128003358841, -0.043829187750816345, -0.07851910591125488, -0.006283972878009081, 0.13309922814369202, 0.0016944108065217733, 0.044728320091962814, -0.10072355717420578, -0.16410572826862335, -0.019620489329099655, 0.04395400360226631, 0.050075940787792206, -0.013644459657371044, 0.05661868676543236, -0.014945429749786854, -0.07117340713739395, 0.14268915355205536, -0.0027172164991497993, -0.13312700390815735, -0.10200396180152893, 0.08464977890253067, -0.0021067652851343155, 0.04841650277376175, 0.05376265197992325, 0.07563988119363785, -0.008573601953685284, -0.010532171465456486, 0.005411237012594938, 0.04721084237098694, 0.019938115030527115, 0.07150782644748688], [-0.10440915077924728, 0.05492861941456795, 0.009129567071795464, 0.07566279172897339, 0.10878032445907593, -0.1915268898010254, -0.04183167219161987, -0.0660325214266777, -0.06187894195318222, -0.20505391061306, 0.021848781034350395, 0.0588064081966877, -0.08367250114679337, -0.027174044400453568, -0.005834044422954321, -0.043176375329494476, -0.10587040334939957, 0.03487882390618324, -0.037149518728256226, 0.07959304749965668, 0.06510685384273529, 0.06404399126768112, -0.04715553671121597, 0.0365973599255085, 0.14212670922279358, -0.17658254504203796, -0.06303048133850098, 0.03472314029932022, -0.04836764559149742, 0.15922732651233673, -0.04861101508140564, 0.14310897886753082, 0.2525991201400757, 0.020494157448410988, 0.04839463159441948, -0.14065507054328918, 0.03017626889050007, -0.03838013857603073, 0.14738571643829346, 0.07629719376564026, -0.10553591698408127, -0.0025103390216827393, 0.027283398434519768, -0.06536010652780533, 0.06480133533477783, 0.12635831534862518, 0.03579467907547951, -0.12162807583808899, 0.12378525733947754, -0.03243272751569748, -0.05442320182919502, -0.030548669397830963, -0.027102183550596237, -0.025987878441810608, -0.14724120497703552, 0.05947320908308029, 0.10996560007333755, 0.0569005087018013, -0.07381416857242584, -0.1637762188911438, 0.006800680421292782, -0.023392995819449425, -0.10108689963817596, -0.07354573905467987, -0.12592342495918274, 0.037389110773801804, -0.0363842137157917, -0.002225299132987857, 0.0016125912079587579, -0.046412110328674316, 0.06507323682308197, -0.00019536021864041686, -0.09908667951822281, -0.13366356492042542, -0.08480221033096313, 0.025126243010163307, -0.013646303676068783, 0.041553664952516556, 0.05358206480741501, 0.024189937859773636, -0.024977244436740875, -0.08723443746566772, -0.023172646760940552, -0.03735365718603134, 0.20998381078243256, -0.09006375074386597, 0.049657538533210754, -0.06563150882720947, -0.051828980445861816, -0.042477041482925415, -0.04916607588529587, -0.06862927973270416, -0.11291105300188065, 0.034571677446365356, -0.010683063417673111, 0.029389802366495132, -0.0028538217302411795, -0.03035483881831169, -0.12386607378721237, -0.07829426974058151, 0.07571324706077576, 0.011964045464992523, 0.055917493999004364, -0.05207511782646179, -0.00790976919233799, 0.019206982105970383, 0.019214190542697906, -0.09673284739255905, 0.012499906122684479, -0.04944698512554169, -0.02540535107254982, 0.04215892031788826, -0.0687720999121666, 0.040180958807468414, -0.04431895166635513, -0.02254575304687023, 0.05027499049901962, -0.06137336418032646, -0.011478361673653126, -0.0942433550953865, 0.1283319592475891, 0.044132791459560394, -0.04850330948829651, 0.00805694330483675, 0.006314022932201624, -0.00733990129083395, 0.04085761681199074, 0.023762982338666916], [-0.03140014037489891, -0.02349662408232689, -0.016572019085288048, -0.06824509799480438, 0.14088882505893707, -0.04057702794671059, -0.05271334573626518, 0.029617033898830414, -0.0694979578256607, -0.07664615660905838, -0.08061405271291733, -0.002530991332605481, -0.023547077551484108, -0.021475115790963173, -0.13538245856761932, -0.03309876099228859, -0.06454228609800339, 0.06286858767271042, -0.0566999576985836, -0.05179563909769058, -0.10990521311759949, -0.05630503594875336, -0.024876393377780914, 0.0354142040014267, -0.023645713925361633, 0.09230411797761917, 0.040492791682481766, 0.09332272410392761, 0.13435570895671844, -0.04776298627257347, 0.08947625011205673, 0.028667964041233063, 0.10329605638980865, -0.017991553992033005, -0.03159578517079353, 0.00413579260930419, -0.17473894357681274, -0.1716187447309494, -0.0072472430765628815, 0.048776596784591675, 0.060702234506607056, -0.0485784187912941, 0.07037612050771713, -0.02227693237364292, 0.03632238134741783, -0.03474040329456329, -0.13751542568206787, -0.04390166327357292, 0.09296590089797974, 0.05483748018741608, 0.04734769091010094, 0.06826566904783249, -0.045543573796749115, 0.055621299892663956, 0.08728121221065521, -0.13501374423503876, 0.09853119403123856, -0.07193688303232193, 0.010521937161684036, -0.10201013833284378, -0.0947999656200409, 0.05931202322244644, 0.023738021031022072, 0.022813642397522926, 0.015135843306779861, -0.08453349024057388, -0.09335722029209137, 0.053239185363054276, 0.05530227720737457, -0.11637593805789948, -0.05771677568554878, 0.06063593924045563, -0.0035947426222264767, 0.01725434884428978, -0.09424374997615814, 0.05509966239333153, 0.06775545328855515, -0.06024351716041565, 0.11596377193927765, 0.07442373782396317, -0.051516227424144745, -0.09488540887832642, 0.08337332308292389, 0.03321385756134987, -0.05435186251997948, 0.06703097373247147, -0.02125273086130619, 0.04538081958889961, 0.036808695644140244, -0.0067944093607366085, -0.021758025512099266, 0.07879375666379929, -0.03964342176914215, 0.061306584626436234, 0.020095931366086006, -0.029095537960529327, -0.06453008204698563, 0.03415306657552719, 0.017182689160108566, -0.02004491537809372, 0.012630377896130085, -0.0671580359339714, -0.0019922442734241486, 0.04838116839528084, 0.05411830544471741, -0.08553961664438248, 0.08155176788568497, -0.00965912826359272, -0.039063747972249985, -0.02138461358845234, -0.05099286139011383, -0.029860911890864372, 0.009813058190047741, 0.0032461530063301325, -0.03361385688185692, 0.02484772354364395, -0.04142212122678757, 0.09165836870670319, -0.1128481924533844, -0.0835956409573555, 0.1313917338848114, -0.060271114110946655, -0.01889895275235176, -0.04221883788704872, -0.05885165184736252, 0.00862223468720913, 0.028648074716329575, 0.015906253829598427], [0.06424418091773987, 0.029312357306480408, -0.04616941884160042, 0.16460056602954865, 0.060859400779008865, -0.016043735668063164, 0.015714429318904877, -0.11135177314281464, -0.13128986954689026, -0.0040968977846205235, -0.02328193187713623, -0.004667570814490318, 0.00782083161175251, 0.0002126439067069441, 0.05747918784618378, 0.09341433644294739, 0.0055872113443911076, -0.07102438807487488, 0.015527362935245037, 0.1142728179693222, 0.0742901861667633, 0.08987459540367126, 0.12048477679491043, 0.0018953123362734914, 0.010996234603226185, -0.003532144706696272, -0.05582956597208977, 0.06385847181081772, -0.035074587911367416, 0.035334788262844086, -0.09626437723636627, 0.026089968159794807, -0.10400184988975525, 0.013270290568470955, -0.05121897906064987, -0.019378535449504852, -0.06506409496068954, 0.06720294803380966, 0.04669075459241867, -0.1399705559015274, 0.03479018434882164, 0.009953198954463005, 0.02916650101542473, 0.1643735021352768, -0.08531516790390015, -0.007002123631536961, 0.10497488081455231, 0.09998665004968643, 0.0025582497473806143, 0.14221134781837463, 0.06530127674341202, 0.11988960951566696, -0.019817518070340157, 0.03548792377114296, -0.0017707501538097858, -0.06539157032966614, 0.044916458427906036, 0.08464064449071884, -0.02866397611796856, -0.09615924209356308, -0.05001212656497955, -0.000656667398288846, -0.02370745874941349, 0.0028034497518092394, -0.05028786510229111, -0.06761564314365387, 0.1136639267206192, 0.02531808614730835, 0.04312145337462425, -0.021243248134851456, 0.047261256724596024, 0.09288453310728073, -0.03702953830361366, 0.08175259083509445, 0.02401030994951725, -0.0649593397974968, -0.03222228214144707, 0.018512215465307236, -0.06939106434583664, -0.005317538045346737, -0.032500430941581726, 0.06734677404165268, -0.018963927403092384, -0.014136042445898056, 0.030164238065481186, 0.03209226205945015, -0.05631275847554207, 0.04614323377609253, -0.14584694802761078, -0.01578064076602459, -0.05946978181600571, 0.007294456008821726, 0.06078649312257767, 0.03759939968585968, 0.1302904337644577, -0.009373660199344158, -0.03216627240180969, 0.027659304440021515, 0.07360834628343582, -0.01911512017250061, -0.0215718075633049, 0.09928068518638611, 0.03568751737475395, -0.07760762423276901, 0.07375041395425797, 0.09296677261590958, 0.010733524337410927, -0.11514949798583984, 0.07605405151844025, 0.0556599386036396, -0.00803323369473219, -0.03647824749350548, -0.027434933930635452, -0.11176873743534088, 0.08670251071453094, 0.10175175964832306, 0.02661961130797863, -0.048588383942842484, -0.03510776907205582, 0.10679597407579422, -0.10682792216539383, 0.09077928960323334, -0.07106458395719528, -0.13335132598876953, -0.014795223250985146, -0.07044204324483871, 0.1198287159204483, -0.015612825751304626], [0.053675245493650436, 0.09097538143396378, -0.02090718224644661, 0.02455277554690838, 0.18553496897220612, 0.0426761694252491, -0.1156662330031395, 0.12000355869531631, 0.002316502621397376, 0.007158821448683739, 0.07532893121242523, 0.056061290204524994, -0.09292636811733246, 0.054164819419384, -0.017010478302836418, 0.08696231245994568, -0.07367604225873947, -0.031112829223275185, 0.023879334330558777, 0.07501234859228134, -0.12217812985181808, -0.014583122916519642, -0.05167018622159958, -0.017662130296230316, 0.06728270649909973, 0.03431910276412964, 0.10110507160425186, -0.03671647608280182, 0.09914743155241013, -0.058137230575084686, -0.04060425981879234, 0.08899739384651184, 0.07584037631750107, 0.00920371524989605, 0.05329897627234459, 0.07864296436309814, -0.05045407637953758, 0.02271556854248047, -0.00470839673653245, 0.016085412353277206, -0.021256892010569572, -0.044435661286115646, -0.03531225770711899, 0.02062227576971054, 0.1437152624130249, -0.16459541022777557, -0.07387338578701019, -0.0016627237200737, -0.025521529838442802, -0.05064518377184868, 0.023064978420734406, 0.09308222681283951, -0.004744769539684057, -0.015301615931093693, -0.01685245707631111, 0.008743478916585445, 0.0994521975517273, -0.019288206472992897, -0.12340015172958374, -0.08758601546287537, 0.021835193037986755, 0.06647438555955887, -0.06426818668842316, 0.031113384291529655, 0.04437444731593132, -0.030460912734270096, 0.028940947726368904, -0.012596884742379189, 0.13613052666187286, 0.003480758983641863, 0.03633234277367592, -0.02088194526731968, -0.08835510164499283, -0.0307295024394989, -0.0029971650801599026, 0.04591822251677513, -0.05150707811117172, 0.026022542268037796, 0.12906943261623383, -0.03182833641767502, 0.0699431300163269, 0.05787305906414986, -0.045326102524995804, 0.05126434937119484, 0.06879584491252899, -0.031071824952960014, 0.0029518527444452047, 0.10378018021583557, 0.030206967145204544, -0.04574088752269745, -0.12379782646894455, -0.0021820631809532642, -0.016589917242527008, -0.061454664915800095, 0.085179403424263, -0.046116478741168976, -0.05375956743955612, -0.05888233706355095, -0.012090622447431087, -0.03692597150802612, -0.006048975978046656, -0.2049371898174286, 0.06194817274808884, -0.052758049219846725, -0.11945818364620209, -0.07514725625514984, 0.11139244586229324, -0.053205981850624084, 0.009282204322516918, 0.07582664489746094, -0.07476087659597397, -0.10706557333469391, 0.05492883548140526, -0.037718433886766434, 0.003169784089550376, -0.036550700664520264, -0.0857752338051796, -0.06463006138801575, -0.04192442446947098, -0.05756760388612747, -0.0011170420330017805, 0.004034559242427349, -0.035467274487018585, -0.025299079716205597, -0.08147244155406952, -0.07031980156898499, 0.0019060514168813825, 0.000540496374014765], [0.002866910072043538, -0.13988874852657318, -0.045976944267749786, -0.009419022127985954, -0.056497350335121155, -0.030971618369221687, 0.04054035246372223, 0.0700426697731018, -0.057326871901750565, 0.02289164997637272, 0.09032565355300903, 0.14970439672470093, 0.1276203840970993, 0.016897505149245262, -0.03249961882829666, -0.05104551836848259, -0.056041963398456573, 0.11645545810461044, -0.14943689107894897, -0.05328072980046272, 0.20447617769241333, 0.04249688982963562, 0.04140361398458481, 0.010539541020989418, 0.1302296668291092, 0.02701827883720398, -0.006462416611611843, 0.13993053138256073, 0.0141603397205472, 0.10752091556787491, -0.029503047466278076, -0.13362713158130646, 0.10008499026298523, 0.06645328551530838, 0.05570382624864578, 0.10706941783428192, -0.012104922905564308, 0.0040085590444505215, 0.006621737964451313, -0.007327808532863855, 0.10786803066730499, 0.028299927711486816, 0.04937471076846123, -0.05958590283989906, 0.019718505442142487, 0.05074360594153404, -0.05351381376385689, -0.055877383798360825, -0.11213399469852448, -0.06845277547836304, 0.04660172760486603, 0.018150128424167633, -0.05297137424349785, -0.07418770343065262, 0.08697333186864853, 0.03295324742794037, 0.06853213161230087, -0.01379096508026123, 0.09108658879995346, 0.013955450616776943, -0.011068667285144329, 0.0507519505918026, -0.08707090467214584, -0.0415494441986084, 0.03397509828209877, -0.05125539004802704, -0.04200061783194542, -0.07548805326223373, -0.05250241979956627, 0.06619279831647873, -0.029652856290340424, -0.02044927142560482, 0.049654632806777954, -0.09539749473333359, -0.07533196359872818, -0.02047206088900566, -0.21306031942367554, 0.0853215679526329, -0.034384921193122864, 0.018084831535816193, -0.09299220889806747, -0.05332304909825325, -0.06730300933122635, -0.09317667037248611, -0.09533649682998657, -0.12183474004268646, 0.04728749394416809, -0.06464827805757523, -0.0511183887720108, 0.1477888524532318, -0.08669385313987732, 0.005750313401222229, 0.049966778606176376, 0.08854983747005463, 0.07695861905813217, 0.10230004042387009, 0.04196925833821297, 0.03992151841521263, -0.1084810420870781, -0.007344764657318592, -0.02754809334874153, -0.047012414783239365, -0.1388378143310547, -0.005467635579407215, 0.039963047951459885, 0.016622351482510567, -0.08604729175567627, -0.0071605355478823185, 0.056964293122291565, -0.018837861716747284, 0.0349956713616848, 0.08983523398637772, 0.12843352556228638, 0.0031009665690362453, 0.10823515802621841, -0.18146763741970062, -0.018715087324380875, 0.1569337248802185, 0.009359734132885933, 0.012784993276000023, -0.07981672883033752, -0.07767307013273239, -0.0194866880774498, -0.040096402168273926, -0.022862493991851807, 0.008756169117987156, -0.04805245250463486, -0.07912347465753555], [0.007301258388906717, -0.16109053790569305, -0.008240578696131706, 0.1557781845331192, 0.13421058654785156, 0.2134786993265152, 0.08016004413366318, 0.06663290411233902, -0.05783383175730705, -0.06103731691837311, 0.13646802306175232, -0.007703146431595087, -0.059460535645484924, 0.09221715480089188, -0.10183461755514145, -0.010778502561151981, -0.07052755355834961, -0.036874234676361084, -0.09684707224369049, -0.008678914979100227, 0.12583205103874207, -0.06285548210144043, -0.04223908856511116, 0.05462754890322685, 0.05055747181177139, -0.06172291934490204, 0.11782959848642349, 0.1331523060798645, -0.0194089412689209, 0.11027111113071442, 0.15477032959461212, 0.008349995128810406, 0.07449033856391907, -0.09750651568174362, -0.007664009463042021, 0.06931200623512268, -0.11003146320581436, 0.052631817758083344, -0.1527545154094696, 0.23120801150798798, 0.06320352852344513, 0.10164714604616165, -0.012245080433785915, -0.14994721114635468, -0.05735635384917259, 0.11794541776180267, -0.061668481677770615, 0.0921667218208313, 0.010883165523409843, -0.06477978080511093, -0.021629201248288155, 0.048749879002571106, -0.13366790115833282, -0.03542536124587059, -0.018292132765054703, -0.0322960801422596, -0.0006329487659968436, -0.11969981342554092, 0.0003909903753083199, 0.004935915581882, 0.16148142516613007, 0.15106333792209625, -0.004346117842942476, -0.1576855629682541, 0.04649711772799492, 0.08218654245138168, -0.03751589357852936, 0.03543810546398163, 0.005105334799736738, 0.0004036015016026795, -0.0637848824262619, -0.01528750266879797, 0.06248217821121216, 0.21748511493206024, 0.0893736481666565, 0.17278644442558289, -0.004773928318172693, 0.07030906528234482, -0.05059715732932091, 0.01253926195204258, -0.03918411210179329, 0.013896780088543892, -0.11137764900922775, 0.12061562389135361, 0.08565977960824966, -0.06337597966194153, 0.03231818601489067, -0.03690828010439873, -0.09410711377859116, -0.0053182183764874935, 0.054837632924318314, -0.05927903950214386, -0.051772862672805786, 0.01047459989786148, -0.057272497564554214, 0.01651541143655777, 0.04478789493441582, 0.13102930784225464, 0.056123752146959305, -0.039750535041093826, -0.021256478503346443, -0.06363020092248917, -0.08882281184196472, 0.0924324169754982, 0.11247410625219345, 0.058960434049367905, -0.10167030245065689, 0.03812090680003166, -0.057225361466407776, 0.049356963485479355, -0.05600437894463539, -0.022705312818288803, 0.029493754729628563, 0.01790088787674904, 0.09770085662603378, -0.07302188873291016, 0.061113376170396805, 0.06122877448797226, 0.057335495948791504, 0.0017509815515950322, 0.04436703398823738, 0.08816118538379669, -0.07407840341329575, -0.0037387399934232235, 0.04630088061094284, 0.032157592475414276, 0.06534246355295181, -0.003397816326469183], [0.010502109304070473, 0.008543436415493488, -0.015878885984420776, 0.09422909468412399, -0.022443631663918495, -0.02389318123459816, 0.004636857658624649, 0.1388489007949829, -0.009882599115371704, -0.04038354754447937, 0.09344162791967392, 0.04833434522151947, 0.04449993371963501, -0.16242121160030365, -0.0937509834766388, -0.08924716711044312, 0.05142132565379143, -0.07669678330421448, -0.07640641182661057, -0.0180110651999712, -0.0029995788354426622, -0.004354166332632303, 0.04593789950013161, 0.0554506741464138, 0.11990075558423996, -0.026044148951768875, -0.09213950484991074, -0.12688782811164856, 0.035572584718465805, -0.012703835032880306, -0.07745607197284698, -0.09340494126081467, -0.0964050218462944, -0.04172221198678017, -0.01714184880256653, -0.013448389247059822, 0.14410699903964996, 0.018464628607034683, -0.08682485669851303, -0.11214175075292587, -0.06834828108549118, -0.06879153102636337, 0.09839222580194473, 0.10494918376207352, 0.06473995745182037, 0.13881170749664307, 0.12163090705871582, 0.08843579143285751, -0.13125087320804596, 0.12779857218265533, -0.07669943571090698, 0.010682768188416958, -0.010558800771832466, -0.07623155415058136, -0.13307170569896698, -0.09769769757986069, 0.015421743504703045, -0.11111894994974136, 0.15188845992088318, -0.02492346428334713, 0.016077406704425812, 0.020676983520388603, 0.04009946808218956, 0.03917550668120384, -0.033333249390125275, 0.0064957356080412865, -0.08525704592466354, -0.0381624773144722, 0.09350154548883438, -0.0878790095448494, -0.029319852590560913, 0.1568925380706787, -0.013506244868040085, -0.057232536375522614, 0.07534947246313095, 0.08846978843212128, -0.05419972166419029, -0.09303835779428482, 0.10897684842348099, 0.017168959602713585, -0.018025439232587814, -0.04385918378829956, 0.04976245388388634, 0.01360842864960432, 0.04067717120051384, 0.009518043138086796, 0.0008918634848669171, -0.04427114874124527, -0.16804610192775726, -0.024469241499900818, 0.058245111256837845, -0.058208443224430084, 0.05680719390511513, 0.0009890205692499876, -0.005862414836883545, -0.041377339512109756, 0.16472870111465454, 0.0419449657201767, -0.0043911682441830635, 0.05056813359260559, -0.0778069943189621, 0.0166326817125082, -0.03650488331913948, -0.08003126084804535, -0.054211776703596115, -0.031058527529239655, 0.0005378678906708956, -0.05432905629277229, 0.15141361951828003, -0.06771973520517349, -0.02324753627181053, 0.05193701386451721, 0.03505918011069298, 0.09162144362926483, 0.03820930793881416, 0.11310477554798126, 0.024712124839425087, 0.02570631355047226, 0.09038039296865463, -0.014729253947734833, 0.04927303269505501, -0.07218147814273834, -0.038172438740730286, -0.04403781145811081, -0.10367052257061005, -0.0006209087441675365, -0.08966276794672012, -0.03692464157938957], [-0.05132176727056503, 0.032425083220005035, 0.0070057339034974575, -0.06407254189252853, 0.05148587003350258, -0.09101540595293045, -0.14895538985729218, -0.051031116396188736, 0.0892239585518837, -0.031637176871299744, -0.01605689711868763, 0.09208274632692337, 0.04097627475857735, 0.023539332672953606, -0.005506278481334448, 0.02861718274652958, -0.025019008666276932, 0.025468774139881134, -0.0034411465749144554, 0.07170981168746948, -0.13320986926555634, 0.0526408925652504, -0.05308227986097336, 0.06603192538022995, 0.034687213599681854, -0.05236496776342392, 0.040989555418491364, 0.15425075590610504, -0.009172897785902023, -0.07153576612472534, 0.13285556435585022, 0.1431732028722763, -0.060153063386678696, -0.014806348830461502, -0.012850259430706501, 0.13938121497631073, -0.13517527282238007, 0.20663565397262573, 0.018892360851168633, 0.07931534945964813, 0.02488638646900654, 0.11901537328958511, -0.05961063131690025, -0.06581679731607437, 0.14718306064605713, -0.0916229709982872, -0.031878817826509476, -0.0831974446773529, 0.039990074932575226, 0.059964291751384735, -0.023569991812109947, 0.11698630452156067, -0.008307509124279022, 0.11480364203453064, -0.018740717321634293, 0.052329227328300476, 0.04040516912937164, 0.19890478253364563, -0.017887286841869354, 0.049578167498111725, 0.035556793212890625, -0.02167700231075287, -0.05234336853027344, -0.0523630790412426, -0.0167144276201725, 0.011016575619578362, -0.06571200489997864, 0.14154808223247528, 0.10620599240064621, 0.03334919363260269, -0.020718645304441452, -0.05572407692670822, 0.014272964559495449, 0.008635585196316242, 0.0794508084654808, -0.10405135899782181, 0.04220627248287201, -0.08900859951972961, 0.01123780570924282, -0.04431525990366936, -0.03775044530630112, 0.052766237407922745, 0.05469125881791115, -0.05617748573422432, -0.1385212242603302, -0.06514549255371094, 0.02337155118584633, -0.10854791104793549, -0.048255905508995056, -0.032072070986032486, 0.03770311176776886, -0.00943254679441452, -0.05522798374295235, 0.026868855580687523, -0.00024425325682386756, 0.013042754493653774, 0.022659679874777794, -0.014185707084834576, 0.055881474167108536, -0.002791795413941145, -0.024944307282567024, -0.09328889846801758, 0.06436040252447128, 0.05285802483558655, 0.04840179160237312, -0.10186983644962311, 0.09583166241645813, 0.0008134638192132115, 0.06256940960884094, -0.08057304471731186, 0.030445801094174385, 0.08026739209890366, -0.04774152860045433, -0.07446279376745224, -0.03526320680975914, -0.10872320830821991, 0.033624984323978424, -0.04540566727519035, -0.030761823058128357, 0.023188691586256027, 0.10879488289356232, 0.04103986173868179, 0.01723843440413475, -0.005934251472353935, 0.009304555132985115, 0.04735811799764633, 0.05645827576518059, -0.03832200914621353], [0.005273119546473026, -0.014903531409800053, -0.14690138399600983, -0.0025209009181708097, 0.026141079142689705, -0.01930510811507702, 0.11608218401670456, -0.12026384472846985, -0.04968755319714546, 0.032960765063762665, -0.004745616111904383, 0.1092204749584198, -0.13415950536727905, -0.11597702652215958, 0.08903202414512634, 0.0630844309926033, -0.08169572055339813, -0.14963862299919128, -0.10662543773651123, 0.11134377866983414, -0.0580487884581089, 0.06925695389509201, 0.1273270547389984, 0.03420490771532059, 0.152258962392807, -9.304179548053071e-05, -0.02664235606789589, -0.08913781493902206, 0.023242991417646408, 0.09198787808418274, -0.13421249389648438, -0.1657862663269043, 0.11885645985603333, -0.14385885000228882, -0.025782844051718712, -0.01827232912182808, 0.043298304080963135, 0.06810364872217178, -0.09068026393651962, -0.11562440544366837, 0.02175319939851761, 0.0724869966506958, 0.02186516299843788, -0.0022540059871971607, -0.05648600682616234, 0.15139652788639069, -0.03969137743115425, 0.007453294470906258, -0.129629984498024, 0.12058702111244202, -0.0377412848174572, 0.09085133671760559, 0.01570352353155613, -0.08474616706371307, -0.05748175084590912, -0.0900433212518692, -0.1385844498872757, -0.09954438358545303, 0.06579776853322983, -0.0824984610080719, 0.05933470278978348, 0.053980566561222076, -0.04271906614303589, -0.04116469994187355, 0.07132434844970703, 0.050011057406663895, -0.07424172759056091, 0.07231394946575165, 0.07623714953660965, -0.06606917083263397, 0.054301921278238297, 0.038282617926597595, 0.09260173887014389, 0.04946797713637352, -0.07074370235204697, -0.06584730744361877, -0.11574900150299072, -0.10985518991947174, -0.002718996023759246, -0.06897856295108795, -0.03341902419924736, -0.07379378378391266, -0.00566105917096138, -0.06364059448242188, 0.0806061252951622, 0.018251601606607437, -0.007653784938156605, -0.0713663250207901, 0.04270476847887039, -0.11717015504837036, 0.06190860643982887, 0.058395739644765854, -0.15371327102184296, -0.05146703124046326, -0.08320055902004242, -0.0762176662683487, 0.0727105513215065, -0.0995183140039444, -0.08263851702213287, -0.007715210318565369, 0.09005491435527802, 0.025698905810713768, -0.09220196306705475, -0.03215533494949341, -0.08049948513507843, -0.11395207792520523, 0.03852458298206329, 0.0834161639213562, -0.026906587183475494, -0.0011853340547531843, 0.01719565875828266, -0.12973237037658691, 0.053036537021398544, 0.06716078519821167, 0.003785636741667986, 0.07608067989349365, -0.07707594335079193, -0.015434423461556435, -0.013676664792001247, 0.04540277272462845, 0.024736613035202026, -0.03645456209778786, 0.04638655111193657, -0.08560197055339813, -0.029334306716918945, 0.08242769539356232, -0.14913661777973175, 0.06365332752466202], [0.05232258141040802, -0.024415673688054085, -0.046814680099487305, -0.03793983906507492, 0.07971633970737457, -0.06212744116783142, -0.014961686916649342, 0.119328573346138, 0.030657192692160606, -0.019432885572314262, -0.030746297910809517, -0.12224569171667099, 0.10480824112892151, 0.1081613227725029, 0.012812276370823383, 0.024067848920822144, 0.038844961673021317, -0.12021247297525406, -0.014744698069989681, 0.026450615376234055, -0.1118137538433075, 0.10222084075212479, -0.019745009019970894, 0.06248154118657112, -0.006515028420835733, -0.038604024797677994, -0.008728697896003723, 0.027601338922977448, -0.06846828758716583, 0.0057044606655836105, -0.030175194144248962, 0.07017724215984344, -0.09679777175188065, -0.16480271518230438, -0.09832649677991867, -0.052059222012758255, -0.011794732883572578, 0.03968260809779167, -0.04968143627047539, -0.021420089527964592, 0.13679857552051544, -0.0008865803829394281, 0.07540798932313919, 0.036882106214761734, 0.10139810293912888, 0.10083726793527603, 0.060506146401166916, -0.016855377703905106, 0.029594946652650833, -0.07549524307250977, 0.0690440759062767, 0.0985221192240715, -0.05203215032815933, 0.10215610265731812, 0.09257039427757263, -0.19766119122505188, -0.0670708492398262, 0.03734074905514717, 0.014764775522053242, -0.019476737827062607, 0.02027982473373413, 0.04401595517992973, -0.1081262081861496, -0.10139832645654678, -0.03619154915213585, -0.07659786194562912, 0.10946600884199142, -0.10503292828798294, 0.02452671155333519, -0.08577077835798264, 0.02488260343670845, 0.037084899842739105, -0.02192920818924904, 0.09519626200199127, -0.05149548873305321, -0.043608903884887695, 0.08379625529050827, 0.08045800030231476, 0.010034976527094841, -0.06652399897575378, 0.07390841841697693, 0.0019159201765432954, -0.02619759738445282, 0.06032869219779968, 0.06606042385101318, 0.03093750961124897, 0.08692670613527298, 0.03037792071700096, -0.05517832189798355, 0.04060151427984238, -0.07799646258354187, 0.013669630512595177, 0.026962416246533394, 0.168857142329216, 0.10708342492580414, 0.03005320020020008, -0.0007119420333765447, -0.02559937909245491, 0.1327965408563614, 0.00869287084788084, 0.012776356190443039, 0.10175089538097382, 0.025730416178703308, -0.13249534368515015, 0.10156478732824326, 0.014414824545383453, -0.07377523183822632, 0.00993676483631134, 0.08535692095756531, 0.11430084705352783, -0.06274133175611496, -0.004309612326323986, -0.09656889736652374, 0.002025627763941884, -0.016585664823651314, 0.014890994876623154, 0.10968330502510071, -0.09489220380783081, -0.08052119612693787, 0.08813852816820145, -0.016806166619062424, 0.018944546580314636, 0.03385540097951889, -0.033927496522665024, -0.03220633417367935, 0.028833936899900436, 0.04885334149003029, -0.04088065028190613], [-0.023302599787712097, 0.11651551723480225, 0.014144650660455227, 0.10005315393209457, 0.20297548174858093, 0.02612212300300598, -0.12858788669109344, -0.08317136764526367, 0.151144877076149, 0.06879835575819016, 0.02639591507613659, 0.12037898600101471, 0.08230450004339218, -0.0028222480323165655, -0.1236523687839508, -0.0426899679005146, 0.09880027174949646, -0.079221211373806, -0.04121782258152962, -0.003967941273003817, 0.06090463325381279, -0.06053069978952408, -0.15120521187782288, -0.05365889146924019, -0.13152919709682465, -0.1118108257651329, 0.1654425859451294, 0.020570620894432068, -0.05220099166035652, -0.039387404918670654, -0.020723987370729446, -0.005333206616342068, -0.12452004104852676, -0.0575159527361393, 0.08137764781713486, 0.07693754881620407, 0.002139308024197817, 0.13201819360256195, 0.1509130746126175, 0.04841245338320732, 0.01886085607111454, -0.061097368597984314, 0.153446763753891, -0.04650899022817612, 0.044699445366859436, -0.06935019046068192, -0.02437327615916729, -0.013531463220715523, 0.013452563434839249, -0.10281628370285034, -0.09409748762845993, -0.008203730918467045, 0.0967981219291687, 0.0250164195895195, 0.05300284922122955, -0.05542994663119316, 0.08360922336578369, 0.03251302242279053, -0.14431802928447723, -0.008516375906765461, -0.09564538300037384, -0.07163343578577042, -0.055319078266620636, 0.05849910527467728, 0.07087671756744385, -0.011424560099840164, -0.06845612823963165, 0.11107102781534195, -0.02078285813331604, 0.087922602891922, 0.001636392786167562, 0.04885592311620712, 0.049262817949056625, 0.023912211880087852, -0.01894846186041832, 0.03834325075149536, 0.0504586361348629, 0.00837214756757021, 0.10269621014595032, -0.06281484663486481, 0.062025073915719986, 0.0057265483774244785, -0.03092852421104908, -0.009158500470221043, 0.04918132349848747, 0.008752698078751564, 0.0692123994231224, 0.052015967667102814, 0.03885146975517273, 0.02689581923186779, 0.07688697427511215, 0.017214609310030937, 0.01692504994571209, 0.054327208548784256, -0.1740577667951584, -0.024012312293052673, 0.04580812528729439, -0.06440256536006927, -0.09682254493236542, 0.06567900627851486, 0.04314303398132324, -0.047456491738557816, 0.0049246326088905334, -0.004524970427155495, -0.06449761241674423, -0.12461288273334503, 0.05520077794790268, 0.0831291675567627, -0.0620361752808094, -0.01175110787153244, 0.025744428858160973, 0.09030039608478546, -0.0035251369699835777, 0.009090092964470387, 0.0244015883654356, 0.10724367201328278, -0.020477911457419395, -0.011807956732809544, 0.10992175340652466, -0.06678818166255951, 0.01872723549604416, -0.08494588732719421, 0.05039786174893379, -0.06750234216451645, 0.006276718806475401, -0.13467936217784882, 0.026577312499284744, -0.0063249156810343266], [0.02138020657002926, 0.09152676165103912, -0.07827504724264145, 0.09590136259794235, -0.10089173167943954, 0.03223104402422905, -0.06564222276210785, -0.019862165674567223, 0.021527519449591637, -0.08785441517829895, -0.041803669184446335, -0.12830650806427002, -0.002032079268246889, -0.08215002715587616, -0.024366704747080803, 0.004357334226369858, -0.035180386155843735, -0.0008902291301637888, -0.06284927576780319, -0.03623510152101517, -0.027695510536432266, 0.028067246079444885, -0.14554570615291595, 0.012348802760243416, -0.005826860666275024, -0.15287892520427704, 0.010981393046677113, 0.06636901944875717, -0.0052589429542422295, -0.11341934651136398, 0.0364176407456398, 0.09939514100551605, -0.12299288064241409, 0.017182694748044014, -0.02909807302057743, -0.014128932729363441, -0.018737835809588432, -0.01857033185660839, -0.030326364561915398, -0.08622737228870392, -0.02887234091758728, -0.02307053469121456, 0.04649766907095909, 0.0462220162153244, -0.01739365980029106, -0.10291169583797455, -0.04305301606655121, -0.08015958219766617, 0.12847088277339935, -0.010006873868405819, 0.004691637586802244, -0.028122596442699432, 0.043709490448236465, 0.10717165470123291, -0.11414745450019836, -0.03026771917939186, -0.09056378155946732, 0.1144208312034607, -0.02045378088951111, 0.005149276927113533, -0.06927225738763809, 0.008971969597041607, 0.14805512130260468, 0.015661466866731644, 0.02058597281575203, 0.06678645312786102, -0.06890810281038284, -0.050533443689346313, 0.09008245170116425, -0.12221638858318329, 0.09795089811086655, 0.025048471987247467, 0.05977423116564751, -0.04681478068232536, 0.025786802172660828, -0.10630486905574799, -0.01917959935963154, -0.031306374818086624, 0.04830359295010567, -0.002193388296291232, 0.0533611997961998, -0.02099568396806717, 0.0044302139431238174, -0.057073578238487244, -0.17354166507720947, -0.0962522104382515, -0.062033358961343765, -0.05081140249967575, -0.0669819712638855, 0.08227311074733734, -0.055332887917757034, -0.02168593741953373, 0.02945074811577797, 0.014796161092817783, -0.07774816453456879, 0.005037292838096619, -0.07325673848390579, -0.04173265025019646, -0.061796676367521286, 0.10826930403709412, -0.070197194814682, -0.065873883664608, -0.04365876317024231, -0.023569349199533463, 0.09822912514209747, -0.11609572917222977, -0.01618131995201111, 0.003053270047530532, -0.014518975280225277, 0.03427758440375328, 0.016078773885965347, 0.06796377897262573, 0.02884165197610855, 0.003950903657823801, 0.06317496299743652, -0.0629146620631218, 0.019212787970900536, 0.11850462853908539, 0.08559983968734741, 0.0075540198013186455, 0.04935583844780922, -0.0789673924446106, 0.13304561376571655, -0.011792517267167568, 0.045173607766628265, -0.0545123927295208, -0.11161810904741287, 0.03869623318314552], [-0.05680648609995842, -0.029327092692255974, 0.01491622719913721, 0.05449839308857918, -0.06857873499393463, -0.0737847089767456, 0.043872565031051636, -0.15434379875659943, 0.05061838775873184, 0.016056837514042854, -0.0022828930523246527, -0.12606067955493927, -0.06990359723567963, 0.006816077511757612, -0.13004091382026672, -0.018974432721734047, -0.005669271573424339, -0.05924404039978981, 0.0008176101837307215, -0.060960326343774796, 0.044270388782024384, -0.13217513263225555, -0.0212969109416008, 0.040338002145290375, 0.037514328956604004, -0.15253518521785736, 0.11606255918741226, -0.07530390471220016, -0.14851067960262299, 0.009627992287278175, -0.11985563486814499, 0.028193723410367966, -0.08317167311906815, 0.03359566256403923, -0.12220291048288345, 0.002570625627413392, 0.05284421518445015, 0.019509807229042053, 0.05303352698683739, -0.07524032890796661, -0.07448025047779083, 0.0019162880489602685, 0.03664442524313927, 0.11943453550338745, 0.1098661795258522, -0.010894659906625748, 0.1332840472459793, -0.11678966134786606, 0.02379746548831463, 0.0767287015914917, -0.113700270652771, 0.03811652213335037, 0.09370025247335434, 0.07636675983667374, -0.0661621242761612, 0.09055574983358383, -0.06668534874916077, 0.09904807060956955, -0.06566590070724487, 0.020378660410642624, -0.03084034100174904, -0.14019393920898438, 0.11028359830379486, -0.04938717558979988, -0.09091505408287048, 0.07697874307632446, -0.08152825385332108, -0.04243922606110573, 0.002113357186317444, -0.018937861546874046, 0.06838259100914001, 0.13257929682731628, -0.04828260466456413, -0.0860007181763649, -0.03989158943295479, -0.07936184853315353, -0.002064937725663185, -0.030026115477085114, -0.008620411157608032, -0.03387633338570595, 0.06090201064944267, 0.025641366839408875, -0.0036760177463293076, 0.0016454984433948994, -0.08356986939907074, 0.017048779875040054, -0.046518780291080475, -0.06453927606344223, -0.014009914360940456, -0.06226801499724388, -0.1026347205042839, 0.08570359647274017, -0.055733539164066315, 0.01356307603418827, -0.12456241250038147, -0.10228558629751205, 0.12621033191680908, -0.045823726803064346, -0.12791475653648376, 0.03051597997546196, 0.04757068306207657, 0.02427079528570175, -0.03484758734703064, -0.027762211859226227, -0.07768319547176361, -0.1359359174966812, 0.03890463709831238, -0.0980382189154625, 0.0901077538728714, -0.13312514126300812, -0.08209391683340073, -0.01854061335325241, 0.03583958372473717, 0.025995519012212753, -0.030224960297346115, -0.0329870842397213, -0.06469802558422089, -0.09921584278345108, -0.005020312964916229, -0.0920623391866684, 0.01711614988744259, 0.0011356421746313572, 0.01710813120007515, 0.05498979240655899, -0.013544619083404541, 0.015313330106437206, -0.1682179719209671, -0.010326163843274117], [0.026728184893727303, -0.003721688175573945, 0.038706570863723755, 0.11997641623020172, -0.035433556884527206, 0.056515906006097794, -0.1309989094734192, 0.21194881200790405, 0.024768300354480743, -0.0540693961083889, 0.03742022067308426, -0.06519996374845505, -0.09831687062978745, 0.04174597188830376, 0.022255755960941315, -0.0011242461623623967, -0.0034522884525358677, 0.10612348467111588, -0.04020100086927414, -0.09268587827682495, -0.13431411981582642, 0.004929913207888603, -0.15450645983219147, 0.0018089187797158957, 0.036011334508657455, 0.0905967429280281, -0.002982273930683732, 0.19279973208904266, 0.02232542261481285, 0.023406067863106728, -0.05073176324367523, 0.04253096505999565, 0.05840271711349487, 0.02968318946659565, 0.12762218713760376, -0.01658806763589382, -0.09169293940067291, 0.04709085449576378, -0.021552450954914093, 0.028544647619128227, 0.06778180599212646, -0.09923671931028366, 0.09529542177915573, -0.13574247062206268, 0.030222948640584946, 0.050067074596881866, -0.1081247627735138, -0.023616066202521324, -0.04119250923395157, 0.0056713540107011795, -0.017899904400110245, 0.16381606459617615, -0.036893635988235474, -0.07321594655513763, 0.003055963898077607, -0.06584170460700989, 0.04402758926153183, -0.01066019106656313, -0.0025629610754549503, 0.0452173687517643, 0.04420643299818039, -0.018736526370048523, -0.10767485201358795, -0.04584459587931633, -0.016527872532606125, 0.09503843635320663, -0.058138832449913025, -0.05901523306965828, 0.014269654639065266, 0.0010165998246520758, 0.08031854033470154, 0.0763329491019249, -0.07725303620100021, -0.08327273279428482, -0.05170100927352905, -0.036788176745176315, -0.05053386464715004, -0.14863188564777374, 0.026349354535341263, 0.07908730208873749, 0.020103326067328453, -0.039903536438941956, 0.054009467363357544, -0.04436168819665909, 0.04859945550560951, -0.18672220408916473, 0.08608346432447433, -0.04976768419146538, -0.01948651298880577, -0.12283020466566086, -0.041804030537605286, -0.011313682422041893, 0.018573224544525146, 0.0032834350131452084, -0.005101981572806835, -0.07266989350318909, -0.06235393509268761, -0.0006272024475038052, -0.1439097672700882, 0.05008455365896225, -0.00537625327706337, -0.07424343377351761, 0.020410258322954178, -0.03614582493901253, 0.06361089646816254, -0.062383078038692474, 0.05465136840939522, -0.007575836032629013, 0.021461833268404007, 0.0430479422211647, 0.05644683912396431, 0.04543678089976311, -0.009459620341658592, 0.044702231884002686, -0.04476763680577278, -0.05653584375977516, 0.006282533518970013, 0.07212885469198227, 0.04491179808974266, -0.08728116750717163, 0.03618154674768448, -0.0697053074836731, -0.019194800406694412, -0.07882440835237503, -0.029710454866290092, 0.04471956565976143, -0.11625183373689651, -0.10826507210731506], [0.09355053305625916, -0.01811671070754528, -0.01740925945341587, 0.04358651116490364, 0.0070769102312624454, 0.04302936792373657, -0.012312740087509155, 0.04188726842403412, -0.03079969249665737, 0.09157327562570572, 0.04481343924999237, -0.0570465549826622, -0.03613021597266197, 0.0564880333840847, 0.07722412049770355, -0.02597830258309841, -0.00033422859269194305, -0.01879754103720188, -0.013476266525685787, 0.08092625439167023, 0.012793321162462234, 0.026026371866464615, -0.038613975048065186, 0.015268932096660137, 0.10251753777265549, -0.000935073068831116, 0.12210776656866074, -0.028041867539286613, 0.024814890697598457, -0.030743958428502083, 0.07848474383354187, 0.005278820637613535, 0.10349199920892715, -0.050698671489953995, -0.049389299005270004, -0.07430558651685715, -0.008598723448812962, -0.09122459590435028, -0.08526962250471115, -0.008887394331395626, 0.07444808632135391, 0.046225160360336304, 0.05992519110441208, 0.01935386471450329, 0.01209325809031725, 0.0837746188044548, 0.09961327910423279, -0.026620442047715187, 0.09368965029716492, 0.12071824818849564, 0.01591569557785988, 0.011029810644686222, -0.05046868324279785, -0.0026710855308920145, -0.04970996826887131, 0.005988876800984144, -0.012062080204486847, 0.03219318762421608, -0.07897677272558212, 0.028443781659007072, 0.06961105763912201, -0.09933704882860184, -0.003620997304096818, 0.02489064820110798, -0.0650726705789566, -0.06443186849355698, 0.012930750846862793, -0.0067026554606854916, -0.008062794804573059, 0.08866894990205765, 0.01811128482222557, -0.018917320296168327, -0.03739890083670616, 0.18390808999538422, -0.05058390647172928, 0.025170059874653816, -0.05323430523276329, -0.0380161888897419, -0.07646069675683975, -0.06495456397533417, -0.036080844700336456, 0.06605806946754456, -0.03634810447692871, 0.0504283681511879, 0.05939975753426552, -0.052992913872003555, 0.0417538546025753, 0.06918814033269882, -0.08341959863901138, -0.09043171256780624, -0.0014143527951091528, -0.004453758709132671, -0.031049547716975212, -0.08939004689455032, -0.048038918524980545, -0.026424800977110863, -0.06280692666769028, 0.07325080782175064, -0.10540414601564407, -0.014709529466927052, -0.009047236293554306, 0.031039614230394363, 0.04646844416856766, -0.10883960127830505, -0.06443742662668228, -0.10648848861455917, -0.10029450803995132, -0.06713740527629852, -0.0960889458656311, 0.03488883376121521, 0.04072999209165573, -0.034726567566394806, -0.03172929212450981, 0.08967562764883041, -0.050919096916913986, -0.003740590298548341, 0.03840704262256622, 0.04050262272357941, -0.05056864768266678, 0.062083203345537186, -0.058946073055267334, 0.016743186861276627, -0.07473509013652802, -0.01276769582182169, 0.09293476492166519, 0.17392253875732422, 0.11143949627876282, -0.06988082826137543], [-0.030567634850740433, -0.04900367558002472, -0.17230476438999176, 0.11486845463514328, -0.04298325628042221, 0.01631719246506691, -0.047253478318452835, -0.017246346920728683, 0.03732342645525932, -0.021819863468408585, -0.020412016659975052, -0.12524563074111938, -0.05523606389760971, 0.07475372403860092, 0.08521617949008942, -0.02297901175916195, 0.074573814868927, -0.004264393355697393, -0.007698779460042715, 0.23682120442390442, 0.048387546092271805, -0.061568234115839005, 0.05199700966477394, -0.017219368368387222, 0.03406548500061035, -0.16349057853221893, 0.11563286930322647, -0.12302198261022568, -0.1284296065568924, -0.04752248525619507, 0.02884259633719921, 0.010894869454205036, 0.03761295974254608, -0.11922799050807953, -0.08880952000617981, -0.01639394462108612, 0.07163842022418976, 0.08549761027097702, -0.06189640983939171, 0.013239131309092045, -0.1477869153022766, -0.03786792606115341, 0.07706471532583237, -0.02174948714673519, -0.03800620511174202, 0.10092730075120926, 0.1519617736339569, 0.035257816314697266, 0.08698121458292007, 0.08702980726957321, -0.15914039313793182, 0.008136920630931854, -0.0977671667933464, 0.020230211317539215, 0.00941477157175541, 0.04070473834872246, 0.008801218122243881, -0.02216731384396553, 0.01759394258260727, 0.06039371341466904, -0.01248949021100998, 0.004601221531629562, 0.021334176883101463, -0.00354539742693305, 0.13072501122951508, -0.07970905303955078, -0.11636103689670563, 0.0040635340847074986, -0.002209886908531189, 0.02939344011247158, 0.023708630353212357, 0.06875979900360107, -0.05242914333939552, 0.09669385105371475, 0.010129894129931927, 0.010545018129050732, 0.04669142886996269, -0.07011346518993378, 0.026941532269120216, 0.005726774223148823, 0.002513008425012231, -0.08747347444295883, -0.05513141304254532, 0.04835767298936844, -0.04535162076354027, 0.09026143699884415, -0.04462968185544014, 0.09551245719194412, -0.12574779987335205, 0.07212692499160767, -0.04102358967065811, 0.008527092635631561, -0.11053930222988129, -4.591012384480564e-06, 0.03265034407377243, 0.11757078766822815, -0.04145687073469162, -0.06419730186462402, -0.08370832353830338, 0.040182750672101974, -0.1201707273721695, -0.06653908640146255, -0.002662596059963107, -0.012339048087596893, 0.16061384975910187, -0.021380111575126648, 0.0688915103673935, -0.11795245856046677, -0.004718253389000893, -0.015090027824044228, 0.009052655659615993, 0.005134695675224066, 0.08031624555587769, -0.02419615164399147, -0.09754607826471329, -0.01493249274790287, -0.15544621646404266, 0.026797030121088028, -0.05861392244696617, -0.11462800949811935, -0.006971807684749365, -0.05061165615916252, 0.006817151326686144, 0.022117139771580696, -0.09040272235870361, -0.04064969718456268, -0.1443420946598053, -0.020990567281842232], [0.0517706573009491, -0.08827788382768631, -0.01166481152176857, -0.04743801802396774, -0.0556962788105011, 0.035323020070791245, 0.10696690529584885, 0.010885369032621384, 0.023993173614144325, 0.0697050392627716, 0.15394510328769684, 0.025083597749471664, -0.14761880040168762, -0.06563045084476471, -0.0071271988563239574, 0.07310894131660461, 0.05556005612015724, -0.09856268018484116, -0.18338795006275177, -0.011903977021574974, -0.008935455232858658, 0.07928584516048431, 0.06436360627412796, 0.06957035511732101, 0.12472032010555267, 0.017930438742041588, 0.01660113036632538, -0.08148683607578278, 0.04291161894798279, -0.027890793979167938, -0.11378242820501328, -0.07481902092695236, 0.08344446122646332, 0.07196104526519775, 0.012605944648385048, -0.0804055705666542, 0.07208530604839325, 0.018737003207206726, 0.03280061483383179, 0.08080717921257019, -0.14735600352287292, -0.06322179734706879, 0.07830414175987244, 0.0045208195224404335, -0.021479183807969093, -0.03332431614398956, 0.007413949817419052, -0.0634932890534401, -0.08349548280239105, 0.1187514215707779, 0.014011610299348831, 0.08082824945449829, -0.0003375746018718928, -0.11480484902858734, -0.00799575075507164, -0.0335356742143631, -0.03951273858547211, -0.05660595744848251, 0.027933264151215553, -0.05034550279378891, -0.005797242280095816, -0.08926580101251602, 0.05476513132452965, -0.026316868141293526, 0.16020500659942627, 0.04399167373776436, -0.09318622201681137, -0.04149417206645012, -0.04290689155459404, 0.017127037048339844, -0.04717466980218887, 0.0503525584936142, 0.07996133714914322, -0.07050001621246338, 0.04440014436841011, -0.13253246247768402, -0.08130554109811783, -0.0439087450504303, 0.1153232529759407, 0.02658284269273281, 0.08049537241458893, -0.007681998424232006, 0.04952361062169075, 0.010538461618125439, 0.06835340708494186, 0.003603387391194701, 0.037489306181669235, 0.016353419050574303, -0.044578827917575836, -0.0935981422662735, -0.06322719901800156, -0.07130485773086548, -0.033750228583812714, -0.12383941560983658, 0.010054669342935085, -0.030182693153619766, 0.059583891183137894, -0.044568631798028946, -0.18252326548099518, -0.0009852010989561677, 0.04536950960755348, 0.04612791910767555, -0.10675913840532303, 0.08862458169460297, 0.07767173647880554, -0.001279219752177596, 0.006962239276617765, 0.007137947250157595, 0.11225911229848862, 0.004988463595509529, 0.051991552114486694, -0.08190285414457321, 0.056470710784196854, -0.07913929969072342, 0.09937157481908798, 0.1576409637928009, -0.006817209534347057, -0.08428805321455002, -0.013372461311519146, -0.003326107980683446, 0.17570577561855316, -0.07797428220510483, 0.04504600167274475, -0.024067506194114685, 0.014751069247722626, 0.0012100697495043278, -0.0701698362827301, -0.04419342800974846], [0.0025102628860622644, -0.1453005075454712, 0.02615181729197502, -0.03859091177582741, -0.03288624808192253, -0.17840039730072021, 0.09859146922826767, 0.1209685429930687, 0.04686381295323372, 0.02381221018731594, 0.044819291681051254, 0.13162830471992493, -0.04776522517204285, -0.08883976191282272, -0.021626511588692665, 0.161108136177063, -0.1114952489733696, 0.02593494951725006, -0.1289455145597458, 0.059090014547109604, 0.025439560413360596, -0.006306266877800226, 0.07955095916986465, 0.02579880878329277, 0.03196609392762184, 0.0034098317846655846, -0.18275955319404602, -0.09146250039339066, 0.020966360345482826, 0.03224363923072815, -0.10801803320646286, -0.12216512858867645, 0.02021726220846176, 0.01877731643617153, 0.043863508850336075, -0.09748541563749313, 0.09378020465373993, 0.04950226843357086, -0.09541665762662888, 0.161934033036232, 0.018807535991072655, 0.015049776062369347, 0.1086275577545166, -0.048153359442949295, -0.07810432463884354, -0.015067112632095814, -0.03853888437151909, 0.01914394274353981, -0.05259726196527481, 0.08795882761478424, -0.06399942934513092, 0.046944621950387955, 0.07188564538955688, -0.11010859161615372, 0.08520262688398361, 0.03361547738313675, -0.05836152657866478, 0.0015973938861861825, 0.05883309245109558, 0.01081277895718813, 0.16011112928390503, -0.002542132744565606, 0.01910957135260105, -0.08355201035737991, 0.07550599426031113, 0.0140069043263793, -0.008644530549645424, 0.08675752580165863, -0.04319588467478752, 0.0458405576646328, -0.05431757867336273, 0.05388317629694939, 0.042118385434150696, -0.08244043588638306, -0.09942848235368729, -0.03744487836956978, -0.05284755676984787, -0.07603837549686432, -0.00814405083656311, 0.08720284700393677, -0.025535400956869125, -0.06791682541370392, -0.05961453914642334, -0.007603093516081572, 0.013347062282264233, -0.03533875569701195, 0.014986607246100903, 0.025942238047719002, -0.1642094999551773, 0.07868090271949768, -0.009110243991017342, 0.0698922649025917, 0.10788387805223465, -0.04472600296139717, -0.09035328030586243, -0.033884190022945404, -0.05724940076470375, -0.06508687883615494, -0.1165555864572525, 0.0610041581094265, -0.041812971234321594, 0.04746416583657265, 0.04053204879164696, -0.10365241765975952, 0.0981445163488388, -0.006864476948976517, -0.014297649264335632, -0.016652433201670647, 0.02745893783867359, 0.07285594195127487, 0.1408321112394333, 0.047999076545238495, 0.0525394082069397, 0.010585919953882694, -0.04024175927042961, -0.06395124644041061, -0.04484817385673523, 0.02248973213136196, 0.09162381291389465, 0.02900821715593338, 0.04830927029252052, -0.09938080608844757, -0.0314420685172081, -0.07460837811231613, -0.10725370794534683, -0.0026306170038878918, -0.06120144575834274, 0.042419616132974625], [-0.044441014528274536, 0.10079850256443024, -0.05505163222551346, 0.020702393725514412, -0.0343143530189991, -0.004281405825167894, -0.12285952270030975, -0.009230495430529118, 0.016861626878380775, 0.05549593269824982, 0.07317101210355759, -0.058970313519239426, -0.1317531168460846, -0.09447392076253891, -0.11391977965831757, 0.022021273151040077, 0.058504316955804825, -0.10178686678409576, -0.07807578146457672, 0.05479469150304794, -0.05648256465792656, -0.04299565404653549, 0.0031787387561053038, -0.05265955999493599, -0.13334672152996063, -0.09052693843841553, 0.06374011188745499, 0.10170261561870575, -0.06133478879928589, -0.19080480933189392, 0.12333542853593826, 0.06332125514745712, -0.046910692006349564, -0.06314472109079361, -0.10988903045654297, -0.0027146432548761368, -0.06843700259923935, 0.03422146290540695, -0.03680090606212616, 0.04853299632668495, 0.08007676154375076, 0.086463563144207, -0.025897415354847908, -0.019516944885253906, 0.05740228295326233, -0.05907614156603813, -0.034470364451408386, 0.050227951258420944, 0.09945326298475266, 0.06104540452361107, -0.03996024653315544, -0.11256054788827896, 0.050460752099752426, 0.039895303547382355, -0.056769467890262604, -0.10595255345106125, -0.08221615850925446, 0.07547810673713684, -0.12483162432909012, -0.00553159462288022, -0.04081878066062927, 0.14077548682689667, 0.07323821634054184, -0.023580262437462807, -0.013877084478735924, -0.103486567735672, -0.02676338702440262, -0.1569109708070755, 0.025901351124048233, -0.12861795723438263, 0.01798703894019127, 0.07504811137914658, 0.018909726291894913, -0.02094937302172184, 0.04140424728393555, -0.12083062529563904, 0.020454920828342438, -0.03402421623468399, 0.09732016921043396, 0.01577184908092022, 0.12099083513021469, -0.07867810130119324, -0.06790603697299957, -0.026415713131427765, 0.08395842462778091, 0.08084575831890106, -0.02647591009736061, -0.019049234688282013, -0.058334268629550934, -0.010769489221274853, 0.033822834491729736, 0.0494876466691494, 0.020001374185085297, -0.017733441665768623, -0.06598322838544846, -0.015085602179169655, -0.2536136209964752, -0.0956469476222992, 0.008617519401013851, 0.021200474351644516, -0.003378594294190407, -0.02973618172109127, -0.033877089619636536, -0.08570648729801178, 0.07324706763029099, -0.1484440714120865, 0.002028816379606724, -0.01676177978515625, 0.16733738780021667, 0.12444237619638443, -0.008027327246963978, -0.011742123402655125, -0.05665930360555649, -0.014269310049712658, 0.038689468055963516, -0.05959353223443031, -0.019672315567731857, -0.02413252554833889, -0.11645421385765076, -0.048898838460445404, 0.11100747436285019, 0.010742816142737865, 0.02484787069261074, 0.1011144146323204, -0.1438901275396347, 0.05720014125108719, -0.020768558606505394, 0.032677728682756424], [-0.03670147433876991, 0.12306347489356995, 0.011774943210184574, -0.08759931474924088, -0.016939722001552582, -0.03154659643769264, -0.13491739332675934, -0.01874384470283985, -0.023988986387848854, -0.11274764686822891, -0.09122877568006516, -0.0276645440608263, 0.026287278160452843, -0.03172542527318001, 0.021709267050027847, -0.18129195272922516, -0.061791229993104935, -0.015473871491849422, 0.046341028064489365, 0.09195038676261902, -0.26028528809547424, 0.01249378640204668, -0.010176452808082104, 0.02120397984981537, -0.010301393456757069, 0.01747647486627102, -0.038708508014678955, 0.1641349494457245, 0.18016430735588074, -0.10818063467741013, -0.014206338673830032, 0.007600906305015087, -0.006314550526440144, 0.12459517270326614, -0.0032132877968251705, 0.10795936733484268, -0.042473286390304565, 0.009332740679383278, 0.06511100381612778, -0.011495368555188179, 0.051946960389614105, -0.09659430384635925, -0.08278848975896835, 0.03443647921085358, -0.03362773358821869, -0.13109809160232544, -0.085812509059906, -0.0460546500980854, 0.06589143723249435, 0.026789676398038864, -0.05035065487027168, -0.02070757932960987, -0.0019500639755278826, 0.034862905740737915, 0.037786222994327545, -0.0716710239648819, 0.12744785845279694, 0.04813660308718681, -0.0061973687261343, -0.07027439028024673, -0.07931285351514816, 0.10377583652734756, 0.02723967283964157, -0.06854695826768875, -0.04184085130691528, -0.020879318937659264, -0.16041456162929535, 0.09937932342290878, 0.11389188468456268, -0.030175581574440002, 0.00455434201285243, 0.07592585682868958, 0.011371449567377567, -0.022427333518862724, -0.01695930026471615, -0.019839845597743988, 0.019708728417754173, -0.10234785079956055, 0.1036447137594223, -0.0156688392162323, -0.04057314246892929, 0.016070298850536346, 0.07618778198957443, -0.028705226257443428, -0.010030456818640232, -0.051071297377347946, 0.04928543046116829, 0.01654597744345665, 0.10485078394412994, -0.07142319530248642, 0.040460728108882904, 0.03913570195436478, -0.09670952707529068, -0.00879201665520668, -0.083564892411232, 0.024990743026137352, -0.025466717779636383, -0.05584157258272171, -0.11793322116136551, -0.07739517092704773, -0.018279626965522766, -0.21183368563652039, -0.1219627633690834, -0.03849555179476738, 0.016041424125432968, 0.005389259196817875, 0.005990649573504925, 0.07008833438158035, -0.048176586627960205, -0.018071308732032776, 0.0476919561624527, -0.13516566157341003, -0.022511281073093414, 0.07554522901773453, 0.032382093369960785, -0.03255896270275116, -0.027288444340229034, 0.05122196674346924, -0.1093692034482956, -0.08608003705739975, 0.10582470148801804, -0.09882503747940063, -0.01505820732563734, 0.027625679969787598, 0.04890979081392288, 0.0752265527844429, -0.036776311695575714, 0.061371058225631714], [0.05882578343153, -0.07857770472764969, 0.0336843878030777, -0.042958203703165054, 0.10163091868162155, -0.08575917780399323, 0.026978397741913795, 0.04507756978273392, -0.04039836674928665, 0.06276711076498032, 0.1445663869380951, -0.11906178295612335, -0.0957087054848671, 0.006491650361567736, -0.09490839391946793, 0.043582797050476074, -0.004462230484932661, 0.06906095892190933, 0.026694459840655327, 0.024527834728360176, 0.017235586419701576, -0.030497243627905846, -0.018123934045433998, -0.002881157211959362, -0.04505437985062599, 0.023747792467474937, -0.17843632400035858, 0.046009425073862076, 0.0302621778100729, 0.02554050274193287, -0.06574853509664536, -0.03837396577000618, -0.14228050410747528, -0.02485031820833683, 0.037536464631557465, -0.05262867733836174, 0.11450999975204468, -0.028337087482213974, 0.029545484110713005, 0.038584720343351364, 0.09799718856811523, -0.05536400526762009, -0.017958637326955795, -0.021193325519561768, -0.017358887940645218, -0.08617396652698517, -0.0776340588927269, 0.04016983136534691, -0.01966887153685093, -0.011713767424225807, 0.06900259107351303, 0.022716540843248367, 0.09360228478908539, -0.0814509466290474, 0.12646472454071045, 0.093083955347538, 0.011881996877491474, 0.03115481324493885, 0.10816458612680435, 0.0888591930270195, 0.13956160843372345, -0.008596318773925304, 0.013414855115115643, -0.03380384296178818, -0.005370479542762041, 0.0008363916422240436, -0.005350541789084673, 0.09956724941730499, -0.012703688815236092, -0.012517423368990421, 0.10284688323736191, -0.011758420616388321, -0.10185563564300537, -0.058922845870256424, 0.004679511766880751, -0.009684626944363117, -0.022481463849544525, -0.07659202069044113, 0.0843886137008667, 0.005042766686528921, -0.06527981907129288, -0.0008969273185357451, -0.008534982800483704, 0.06488095968961716, -0.017448654398322105, -0.08959139138460159, 0.10084328055381775, 0.06995899230241776, 0.020414022728800774, 0.003295332659035921, 0.0049493806436657906, 0.05273187533020973, -0.005046885460615158, 0.011824486777186394, 0.007378233131021261, -0.08291982114315033, -0.02871071919798851, 0.013325483538210392, 0.025386353954672813, 0.0647658258676529, -0.0001825766230467707, 0.014584792777895927, -0.06901804357767105, -0.07278028875589371, 0.02972228452563286, -0.04700065776705742, 0.01458173617720604, -0.03247015178203583, 0.016625842079520226, -0.04990512877702713, -0.04640553519129753, 0.08923376351594925, -0.033357247710227966, 0.03299565240740776, 0.010210632346570492, 0.05356192588806152, -0.05859357863664627, -0.03426205739378929, 0.06999906897544861, -0.03905955329537392, 0.09599781781435013, -0.05797942727804184, 0.030782457441091537, -0.10831821709871292, -0.22851088643074036, -0.041140906512737274, -0.1367279440164566, 0.08453575521707535], [0.14901280403137207, -0.002234657993540168, 0.10093970596790314, -0.1272231787443161, -0.1996675431728363, 0.13256953656673431, -0.1360219568014145, 0.18278704583644867, 0.046779729425907135, -0.033542558550834656, 0.09676449000835419, 0.0027555839624255896, -0.030440257862210274, 0.009222052991390228, -0.0927291288971901, -0.27555662393569946, 0.12800006568431854, 0.09782733768224716, -0.029557647183537483, 0.03539838269352913, -0.051147330552339554, 0.05012301728129387, 0.1494438499212265, -0.10076606273651123, -0.040395867079496384, 0.031805749982595444, 0.040811240673065186, 0.11490090191364288, 0.07834714651107788, -0.10588256269693375, -0.1197296679019928, 0.04115453362464905, 0.19178494811058044, -0.08114110678434372, 0.12388017028570175, 0.044415850192308426, -0.06868370622396469, 0.05698490887880325, -0.024407831951975822, -0.039674341678619385, 0.01592765375971794, -0.04390288144350052, -0.14284467697143555, 0.08004329353570938, -0.02673458121716976, -0.05267917737364769, 0.030040107667446136, -0.05570419877767563, -0.08107484877109528, -0.005408192053437233, -0.06659591943025589, -0.22929996252059937, -0.06345438212156296, -0.02464217320084572, 0.1512788087129593, -0.03403907269239426, 0.16901248693466187, -0.0253106988966465, -0.02481880970299244, 0.04800251126289368, 0.07355695217847824, -0.02084268443286419, 0.0631893202662468, -0.03396424651145935, 0.04012394696474075, 0.1087108850479126, 0.07579698413610458, -0.06586739420890808, 0.05331411212682724, 0.04919235408306122, 0.09616969525814056, 0.03974926471710205, -0.04456813633441925, 0.04941469803452492, 0.06670214235782623, 0.2691030204296112, -0.06414556503295898, 0.014384298585355282, 0.10837077349424362, 0.06914292275905609, 0.10389023274183273, 0.06867948174476624, 0.04594866558909416, -0.09512163698673248, -0.05571449175477028, 0.21673551201820374, -0.051979560405015945, -0.015270511619746685, -0.04456339403986931, 0.05430589243769646, -0.0749281495809555, -0.042912937700748444, 0.021395202726125717, 0.0011888493318110704, 0.060687147080898285, -0.0003396953397896141, -0.018066709861159325, -0.041933514177799225, 0.07005920261144638, 0.047800980508327484, 0.08528344333171844, 0.13314367830753326, 0.05812770128250122, 0.011641179211437702, -0.07732108980417252, 0.0966239720582962, -0.028050750494003296, 0.0730714201927185, 0.1416347175836563, -0.18698740005493164, 0.027497511357069016, -0.015177996829152107, -0.0019418002339079976, -0.05862325057387352, 0.0771486759185791, 0.08069615811109543, 0.019957950338721275, 0.1340668648481369, 0.017272641882300377, -0.09387408941984177, -0.020820772275328636, -0.11999902129173279, 0.017663901671767235, -0.08750918507575989, -0.03664545714855194, -0.044913150370121, -0.043869249522686005, 0.11541195958852768], [-0.01588832028210163, -0.12792052328586578, 0.014031163416802883, 0.0008278656168840826, -0.019743580371141434, 0.041772712022066116, 0.05731594190001488, 0.07685956358909607, 0.08107945322990417, -0.2991120517253876, 0.04344462975859642, -0.15887564420700073, 0.1709243655204773, -0.08538483828306198, -0.05847758799791336, -0.01587553881108761, -0.08766245096921921, -0.05247442424297333, -0.0036380335222929716, 0.08562605082988739, -0.07635395973920822, -0.010341908782720566, -0.008796962909400463, -0.0004753171815536916, 0.058297768235206604, -0.05986980348825455, -0.07096634060144424, 0.000745723838917911, 0.09385623037815094, 0.08228293061256409, 0.06616348773241043, 0.02673058956861496, -0.08319904655218124, -0.08341959863901138, -0.023728713393211365, 0.06490636616945267, 0.0247334074229002, -0.06466328352689743, -0.08683481812477112, -0.07811839133501053, 0.055914029479026794, 0.10610942542552948, 0.11273102462291718, 0.03917936608195305, 0.0583566389977932, 0.005444660317152739, -0.08763839304447174, -0.015590211376547813, 0.04757465422153473, 0.010475429706275463, 0.08557119965553284, -0.028260646387934685, -0.038483258336782455, -0.09854341298341751, 0.02074604295194149, 0.16792282462120056, -0.11915165185928345, 0.19870148599147797, -0.03143123537302017, -0.045228198170661926, 0.06257905811071396, -0.007181543856859207, 0.051323797553777695, -0.027412831783294678, -0.033176545053720474, 0.014875180087983608, -0.018892772495746613, -0.0007028531399555504, 0.005515548400580883, -0.018696807324886322, 0.005110981408506632, 0.018101060763001442, 0.034155964851379395, 0.10525380074977875, 0.011451229453086853, 0.2640976309776306, -0.04857010394334793, -0.03264262154698372, -0.03291163966059685, -0.06154998019337654, -0.048911672085523605, 0.05034806951880455, -0.08438126742839813, 0.052371688187122345, -0.2399992048740387, -0.01319018192589283, 0.01378738135099411, 0.04503922536969185, -0.04231642186641693, -0.055665500462055206, 0.06962260603904724, -0.043844498693943024, 0.08818569034337997, -0.1000557541847229, -0.12619338929653168, 0.0012762584956362844, 0.04810844361782074, 0.06858785450458527, 0.08611532300710678, -0.011785055510699749, -0.02258172444999218, -0.1954049915075302, -0.02586463652551174, -0.03889235854148865, -0.1358955204486847, -0.03243182599544525, -0.09887831658124924, 0.030558748170733452, 0.06942608207464218, -0.08988501876592636, 0.061238378286361694, -0.029671834781765938, 0.03592456877231598, 0.016803361475467682, 0.14483143389225006, -0.011521292850375175, 0.12521156668663025, 0.08794407546520233, 0.024660145863890648, 0.06574539840221405, -0.1198342815041542, -0.02842489629983902, 0.030912775546312332, -0.0710047036409378, -0.00803515687584877, 0.07759220153093338, -0.01710743084549904, 0.0739152729511261], [-0.034561436623334885, -0.021633554250001907, -0.06879674643278122, 0.04375478997826576, 0.08651541918516159, -0.02381773665547371, -0.024440566077828407, -0.07066138088703156, -0.038968149572610855, -0.016100171953439713, 0.07513237744569778, -0.014252135530114174, -0.06825243681669235, -0.06200334429740906, 0.03995881974697113, 0.06444422900676727, -0.04596984386444092, -0.07839378714561462, 0.060254380106925964, 0.07584582269191742, -0.014062213711440563, -0.05004636570811272, -0.14274495840072632, 0.008442172780632973, 0.012000476010143757, -0.040192265063524246, -0.033528637140989304, -0.029216552153229713, 0.019947579130530357, 0.021929146721959114, -0.10523980855941772, 0.08099551498889923, 0.038061246275901794, 0.04949771612882614, -0.004701768513768911, -0.01602567732334137, -0.07174702733755112, -0.11401420831680298, -0.015463409945368767, 0.1394922137260437, -0.11947613209486008, 0.049391042441129684, 0.10427795350551605, -0.12128304690122604, 0.05263610929250717, -0.11192982643842697, 0.03094141185283661, -0.03299245610833168, -0.05476624146103859, 0.11289610713720322, 0.07298743724822998, -0.024667050689458847, 0.07342267781496048, -0.018151694908738136, -0.06125182285904884, 0.061281610280275345, -0.025002406910061836, -0.066513292491436, 0.00516812689602375, 0.05860430747270584, -0.06020732223987579, 0.034134507179260254, -0.06956877559423447, -0.05172198265790939, 0.006627271417528391, 0.042976852506399155, -0.08856982737779617, -0.14010734856128693, 0.04332379251718521, -0.14358726143836975, 0.037668660283088684, 0.11999648064374924, 0.025972293689846992, 0.07252389937639236, 0.0007215467630885541, 0.032499413937330246, -0.12108974903821945, -0.01796962320804596, 0.09078782796859741, -0.025474509224295616, 0.021021921187639236, 0.10577411204576492, 0.04930562525987625, 0.04231322556734085, 0.09729651361703873, -0.08084525167942047, -0.0020283504854887724, 0.032236259430646896, 0.04015417397022247, -0.05762684345245361, -0.038444023579359055, -0.04857459291815758, -0.0725557804107666, 0.03600035607814789, -0.10599008947610855, 0.08688434958457947, 0.056265708059072495, 0.07026474177837372, -0.01392844133079052, -0.0451444610953331, -0.03390362858772278, 0.03090907819569111, -0.054312124848365784, -0.08087125420570374, -0.08032800257205963, -0.1472160518169403, 0.05547359585762024, -0.03024986758828163, -0.010862894356250763, -0.04653596505522728, -0.09758847206830978, -0.16400843858718872, -0.1223737820982933, 0.0351312980055809, -0.061566926538944244, 0.0900227501988411, -0.005008338019251823, 0.0036861193366348743, -0.02778134122490883, 0.10040856152772903, 0.06223490461707115, -0.02910895086824894, -0.06950138509273529, 0.01709325611591339, -0.07904026657342911, 0.07443240284919739, -0.008422067388892174, 0.1540369987487793], [-0.028692323714494705, -0.025238391011953354, 0.010992174968123436, 0.09454921633005142, 0.013836899772286415, 0.07663477212190628, 0.08628750592470169, -0.07596512883901596, -0.04168782755732536, -0.06621530652046204, 0.0614437609910965, 0.007018106523901224, -0.03020353801548481, 0.04465339705348015, -0.11839216202497482, 0.058612607419490814, 0.004816103260964155, 0.033642448484897614, -0.11157412081956863, -0.025661814957857132, -0.06772560626268387, -0.034657951444387436, -0.007411961909383535, 0.08926081657409668, -0.004908704198896885, 0.014550955966114998, -0.0687977746129036, -0.14977851510047913, -0.03152921050786972, 0.1588587611913681, -0.09708547592163086, -0.025882573798298836, 0.07333925366401672, -0.009131776168942451, -0.06546282023191452, -0.0675760880112648, 0.07504785060882568, 0.08092696219682693, 0.06021363288164139, -0.11668984591960907, -0.1604127585887909, -0.09156226366758347, 0.03675059601664543, 0.16138043999671936, -0.11960534751415253, 0.07083877921104431, 0.06918971240520477, 0.0681898295879364, -0.028016304597258568, 0.105826735496521, 0.036283187568187714, 0.05500223487615585, -0.06409792602062225, -0.031183000653982162, 0.03883926942944527, 0.0690455362200737, 0.07429495453834534, -0.05072314664721489, 0.10401076823472977, -0.11266201734542847, 0.03713194280862808, -0.0009087083744816482, 0.05493016913533211, -0.06001942604780197, 0.016772177070379257, -0.06957019865512848, -0.011059941723942757, -0.06823158264160156, 0.1314501315355301, 0.0034058410674333572, -0.028263011947274208, 0.023675857111811638, 0.055658239871263504, 0.06443917006254196, 0.08309674263000488, 0.05183882638812065, -0.02901441603899002, 0.0028531972784549, -0.03437851369380951, -0.0144263980910182, 0.007902509532868862, 0.09256666898727417, 0.012413897551596165, 0.0017405052203685045, -0.025181831791996956, 0.07651679217815399, 0.06544975191354752, -0.04258628934621811, 0.014097996987402439, -0.013157241977751255, 0.05039311200380325, -0.014515148475766182, -0.0008370740106329322, -0.0108905378729105, -0.10114115476608276, 0.0041614677757024765, -0.030438287183642387, -0.04399808123707771, 0.043715979903936386, -0.057055871933698654, -0.03418898582458496, 0.04637688025832176, 0.014209538698196411, -0.043743059039115906, -0.04917391017079353, -0.013611898757517338, 0.11135408282279968, -0.06975255161523819, -0.048604439944028854, -0.059875618666410446, 0.08701134473085403, -0.018916331231594086, 0.056134916841983795, -0.003738527884706855, 0.03375702723860741, 0.09635934233665466, -0.05370541289448738, -0.02794986218214035, 0.06445451825857162, -0.041431937366724014, 0.021842727437615395, -0.11720553040504456, 0.0481775738298893, -0.08144612610340118, -0.08785920590162277, 0.004263477865606546, -0.10760418325662613, -0.04271071404218674], [0.09448529779911041, -0.09190268069505692, 0.06065969914197922, -0.007458035834133625, 0.08524778485298157, 0.0275579821318388, 0.03892495855689049, 0.08698537945747375, 0.07734788954257965, 0.11167332530021667, 0.02657647803425789, 0.012082478031516075, 0.016490524634718895, -0.11167052388191223, -0.036690160632133484, 0.0012415040982887149, 0.07166270911693573, -0.06635534763336182, -0.09274357557296753, -0.06798700988292694, -0.034729212522506714, 0.0781131163239479, -0.035390663892030716, -0.028932182118296623, -0.13479402661323547, 0.015088868327438831, 0.043973159044981, 0.04184120520949364, -0.028109420090913773, 0.025033989921212196, 0.18401531875133514, 0.00785804633051157, -0.07251813262701035, 0.02651106007397175, 0.0949409008026123, 0.05869075283408165, 0.10135146975517273, 0.11786819249391556, 0.07443486899137497, -0.04516097158193588, 0.03627907484769821, 0.03638502210378647, 0.051125138998031616, 0.1374783217906952, -0.0627228319644928, -0.10210344940423965, -0.07696430385112762, 0.08850917965173721, 0.004060601349920034, -0.06307770311832428, -0.06363949179649353, 0.04228499159216881, 0.14291107654571533, -0.07356708496809006, 0.016118239611387253, -0.011299999430775642, -0.05015939846634865, -0.033388007432222366, -0.05454821512103081, 0.029475847259163857, 0.046158891171216965, 0.10300678759813309, 0.029144739732146263, 0.06025005131959915, 0.049805693328380585, -0.013020465150475502, -0.11007622629404068, -0.013697843067348003, -0.025659631937742233, -0.05533529445528984, 0.007932232692837715, 0.15347689390182495, 0.05918797478079796, 0.0299342330545187, 0.034263502806425095, 0.0910818800330162, -0.030237991362810135, -0.052883900701999664, 0.09162845462560654, 0.03356350213289261, -0.050379108637571335, -0.0643141120672226, 0.0538024976849556, -0.06422007828950882, 0.02434159629046917, 0.0173665639013052, 0.09567861258983612, -0.10465683043003082, 0.03619597479701042, -0.014852249063551426, -0.0021279340144246817, -0.04432360455393791, 0.02961612306535244, -0.12932990491390228, 0.06397304683923721, -0.07381837069988251, -0.04758322238922119, -0.10100339353084564, -0.16098155081272125, 0.005823993589729071, -0.03844606131315231, 0.046591099351644516, -0.0013923291116952896, 0.09162843972444534, -0.069938063621521, 0.03567908704280853, 0.10582498461008072, 0.05499941483139992, 0.06997021287679672, -0.011600962840020657, -0.10996408015489578, 0.007651343010365963, -0.0031471007969230413, 0.05606771633028984, -0.07578316330909729, -0.10823791474103928, -0.027950599789619446, -0.001457568840123713, -0.12804588675498962, -0.1325952410697937, 0.13566628098487854, -0.11819484084844589, 0.06694334745407104, -0.06534845381975174, -0.14314641058444977, -0.029222000390291214, -0.15781520307064056, -0.05492321401834488], [-0.005177753046154976, 0.008192094042897224, -0.030990159139037132, 0.0560891218483448, 0.13398198783397675, 0.0635252296924591, 0.05847785994410515, 0.05987080559134483, 0.06500039994716644, -0.13912005722522736, 0.018862584605813026, 0.04594628885388374, 0.04478207975625992, -0.05802013725042343, 0.011231421492993832, 0.09517478942871094, -0.0005551999784074724, -0.030168108642101288, 0.020846066996455193, -0.043591730296611786, 0.00635526143014431, 0.0795658752322197, -0.08307221531867981, 0.0611509308218956, -0.044284626841545105, -0.07887229323387146, -0.09608522802591324, 0.08884057402610779, -0.017096005380153656, 0.12245067954063416, -0.016866115853190422, -0.09486029297113419, -0.0614694207906723, -0.02106259949505329, -0.11888257414102554, 0.033623505383729935, -0.08878515660762787, 0.015494601801037788, 0.018937474116683006, -0.10156340897083282, 0.03685914725065231, 0.18289364874362946, -0.0009548063389956951, 0.12260833382606506, 0.005436781328171492, 0.0839368999004364, 0.04558207094669342, 0.04399237409234047, -0.013675609603524208, 0.05967907980084419, -0.07790239155292511, -0.022155923768877983, 0.0740281343460083, -0.1147034540772438, -0.003651320468634367, -0.01358537282794714, 0.007750135380774736, 0.06143886223435402, 0.07406706362962723, -0.049753300845623016, 0.09475970268249512, 0.07613188028335571, 0.056055955588817596, -0.03711617738008499, 0.020928656682372093, -0.03715411573648453, -0.02634899504482746, 0.09929351508617401, -0.14146840572357178, 0.06818611919879913, -0.015593254938721657, -0.09246467798948288, -0.034464847296476364, 0.073677659034729, 0.007939479313790798, 0.05983954668045044, -0.12518702447414398, 0.05896430462598801, 0.06076609715819359, 0.13467729091644287, 0.004260828252881765, 0.10488488525152206, -0.0741720199584961, 0.00858504232019186, 0.034365132451057434, 0.22109779715538025, 0.10349547117948532, 0.019025959074497223, 0.023429017513990402, 0.009660131298005581, -0.03516598790884018, 0.09662984311580658, -0.059159137308597565, 0.028749626129865646, 0.02059595286846161, 0.04804970696568489, 0.11883880943059921, -0.01360836997628212, 0.10528206080198288, 0.06533217430114746, -0.046578820794820786, 0.05440812557935715, -0.058973491191864014, -0.16915741562843323, -0.046258918941020966, 0.07288894057273865, -0.05117679387331009, -0.1295643448829651, -0.022778907790780067, -0.11314011365175247, 0.06998968124389648, -0.11541398614645004, 0.0009060054435394704, -0.009981282986700535, 0.08533245325088501, 0.08913926035165787, 0.03398102894425392, 0.025607304647564888, 0.038106270134449005, 0.0985419824719429, -0.15143486857414246, 0.06552247703075409, -0.10548321902751923, 0.02319660224020481, 0.0289278756827116, -0.06562845408916473, 0.0803680345416069, 0.00987769104540348], [0.03296654671430588, 0.15415272116661072, 0.03189433738589287, 0.10435594618320465, 0.02958417497575283, -0.025830749422311783, -0.05426992475986481, -0.0036207193043082952, 0.06872723996639252, -0.06295289099216461, -0.08725900948047638, -0.13145461678504944, -0.041415680199861526, 0.014826144091784954, -0.045404598116874695, -0.09466922283172607, -0.04867719113826752, 0.0407245010137558, 0.012832614593207836, -0.08520238101482391, -0.03054915927350521, 0.015621284954249859, -0.012948310002684593, 0.005098995752632618, -0.015358584001660347, 0.10106311738491058, -0.0016620956594124436, 0.15969526767730713, 0.05841504782438278, -0.11034248024225235, 0.047899454832077026, 0.046736929565668106, -0.08144885301589966, -0.0515066422522068, 0.07956261932849884, 0.03604709729552269, -0.04203646257519722, -0.1629004031419754, -0.10027588903903961, 0.055535782128572464, 0.05634182691574097, -0.03497521951794624, 0.07404473423957825, -0.08988991379737854, -0.020856011658906937, -0.1137305498123169, -0.08620278537273407, -0.016865324229002, -0.1156420111656189, -0.04939864203333855, -0.12248510122299194, 0.1661953628063202, -0.06573925167322159, 0.05372430011630058, 0.09711010754108429, -0.07172812521457672, -0.008895293809473515, 0.1581684798002243, -0.036289334297180176, 0.0528453066945076, -0.1196024939417839, -0.05399969220161438, 0.04934520274400711, -0.020444044843316078, 0.05481332913041115, 0.023656845092773438, -0.2004866898059845, 0.07086768746376038, 0.017740152776241302, -0.08820247650146484, 0.1050030067563057, -0.01757698319852352, 0.07771413773298264, 0.043875712901353836, -0.05697077512741089, -0.04217194393277168, -0.010830964893102646, -0.11196042597293854, 0.11273156106472015, 0.014927338808774948, 0.028383200988173485, -0.11248546093702316, -0.009335719980299473, -0.0790284126996994, -0.08451935648918152, 0.04877961054444313, 0.0237567238509655, -0.060668304562568665, -0.07254509627819061, -0.06412190943956375, 0.022318284958600998, 0.043098676949739456, -0.027101172134280205, -0.057326238602399826, 0.01528246607631445, -0.018845384940505028, 0.006587045732885599, 0.029671981930732727, -0.19410429894924164, -0.014485408551990986, -0.08227367699146271, -0.03947079926729202, -0.0787380263209343, 0.08221502602100372, 0.0028489376418292522, -0.0207794439047575, 0.09338723123073578, -0.06175418198108673, 0.01920551247894764, 0.06057615205645561, 0.05644475296139717, -0.04163713380694389, 0.05059679225087166, -0.045230165123939514, -0.02392468973994255, -0.11050350964069366, 0.030507560819387436, 0.05976804718375206, -0.030698075890541077, 0.09126026928424835, 0.12690438330173492, -0.09254758059978485, 0.06654882431030273, -0.07176745682954788, -0.015051561407744884, -0.09579683840274811, 0.015024830587208271, -0.04153202101588249], [-0.060514695942401886, -0.019113434478640556, 0.0680566057562828, 0.07254477590322495, -0.020846132189035416, 0.1849415898323059, -0.14910845458507538, -0.12220444530248642, -0.1281355321407318, 0.15006989240646362, -0.048986129462718964, -0.032610632479190826, 0.005782530177384615, 0.03115806356072426, 0.09836994856595993, -0.07458345592021942, 0.06599526852369308, 0.0036244175862520933, 0.05313432216644287, 0.10077624022960663, 0.052666373550891876, 0.19472365081310272, 0.04231889918446541, -0.015745600685477257, 0.03589893877506256, -0.03305017948150635, 0.0663900077342987, -0.08453373610973358, -0.05774417892098427, 0.12948739528656006, -0.16873666644096375, -0.04478910565376282, 0.050371523946523666, 0.02749779261648655, -0.049721963703632355, 0.012397068552672863, -0.0595918633043766, 0.023879677057266235, -0.03565468639135361, -0.01165294274687767, -0.024636713787913322, -0.030983027070760727, 0.1640520691871643, 0.016881177201867104, -0.0640064924955368, 0.14449851214885712, -0.008695438504219055, 0.07284411787986755, 0.0873776450753212, 0.027908863499760628, -0.0014379393542185426, 0.007484849076718092, -0.03459080681204796, 0.05791737884283066, -0.06525935977697372, 0.11528358608484268, -0.043590135872364044, 0.11637872457504272, -0.0003307002771180123, -0.05974813550710678, 0.025820057839155197, -0.10927379876375198, 0.03853379189968109, 0.08206343650817871, -0.10398166626691818, 0.03257127106189728, -0.0719720870256424, -0.0729791671037674, -0.07980985194444656, 0.20747089385986328, 0.028259960934519768, 0.10602792352437973, 0.03656568378210068, 0.1370830535888672, 0.1449017971754074, -0.05110885575413704, -0.02059159427881241, -0.04485895857214928, 0.1441332995891571, -0.06243537366390228, 0.002853493206202984, -0.020907992497086525, 0.046598609536886215, 0.11039071530103683, 0.18975384533405304, 0.10347308963537216, 0.045445024967193604, -0.13100267946720123, 0.05062277615070343, -0.06286326795816422, 0.015257294289767742, -0.008798392489552498, -0.031710654497146606, -0.01766638085246086, 0.032267261296510696, 0.0124282818287611, -0.13938747346401215, 0.013380040414631367, -0.043393831700086594, -0.05767350643873215, 0.05607832223176956, 0.12269256263971329, -0.008184835314750671, 0.07152482122182846, 0.08007272332906723, -0.02309199422597885, -0.01491884607821703, 0.008851392194628716, 0.03788067772984505, 0.049507174640893936, -0.010283657349646091, -0.07968010753393173, -0.05324539914727211, -0.14864178001880646, -0.09045196324586868, 0.15437839925289154, -0.05289820209145546, -0.056300148367881775, -0.002342300023883581, -0.003286386840045452, -0.0933036357164383, 0.07972688227891922, -0.07714205980300903, -0.03004072792828083, -0.0004975567571818829, 0.006673544645309448, 0.10175669938325882, 0.026358533650636673]], "biases": [0.1273421049118042, -0.0018910733051598072, 0.012324610725045204, 0.12759093940258026, 0.0907198041677475, 0.035206325352191925, -0.014875664375722408, 0.06267278641462326, -0.07807418704032898, 0.13139155507087708, 0.036185864359140396, 0.061910659074783325, 0.05833215266466141, 0.030284516513347626, 0.06595614552497864, 0.12470144033432007, 0.018969299271702766, -0.018188361078500748, -0.0011576112592592835, 0.1282365918159485, 0.08879788219928741, 0.14263281226158142, -0.02689177915453911, 0.14943310618400574, -0.056972701102495193, -0.03631797060370445, 0.08489383012056351, 0.08424036204814911, 0.05210219323635101, 0.01986391842365265, 0.050616633147001266, -0.08466370403766632]}, {"weights": [[0.06791190057992935, 0.017814312130212784, -0.12192389369010925, 0.10753767192363739, -0.03089958056807518, 0.11320770531892776, 0.1280413269996643, 0.08331049978733063, 0.04212003946304321, -0.060512103140354156, 0.016162525862455368, -0.014729789458215237, 0.15389303863048553, -0.15843550860881805, 0.014300361275672913, 0.15193451941013336, -0.0554959774017334, 0.12092781066894531, 0.09629222005605698, -0.09785868227481842, 0.05884352698922157, -0.07257787138223648, 0.006804430857300758, 0.013754965737462044, 0.015141556039452553, 0.07750668376684189, 0.06655993312597275, 0.08428355306386948, 0.1034635379910469, 0.18976449966430664, 0.06431107223033905, 0.0020578126423060894], [-0.10487163066864014, 0.07584976404905319, 0.151504248380661, -0.04603436961770058, 0.16270233690738678, 0.029876891523599625, 0.08294298499822617, 0.08194123953580856, 0.00918896496295929, 0.05340716242790222, 0.0034274302888661623, 0.02001066692173481, -0.019557878375053406, 0.12007297575473785, 0.20837801694869995, -0.027614491060376167, 0.23291964828968048, -0.048108506947755814, -0.033625680953264236, 0.025416525080800056, -0.02433510310947895, 0.018587270751595497, 0.2023148089647293, 0.15343497693538666, 0.2063468098640442, -0.21752673387527466, 0.005679617170244455, 0.1468532681465149, 0.14920544624328613, -0.1703585833311081, 0.1285286545753479, -0.07252106815576553], [-0.07060214132070541, 0.2766071557998657, 0.09320709854364395, -0.10215096920728683, 0.024026622995734215, 0.12547443807125092, 0.2256375104188919, 0.15705694258213043, -0.008825610391795635, 0.22654889523983002, 0.06603925675153732, -0.045337654650211334, 0.08207981288433075, -0.12290645390748978, -0.002539993030950427, 0.14957313239574432, 0.09916960448026657, -0.14336080849170685, -0.10869772732257843, 0.16380585730075836, 0.07307741045951843, -0.06359605491161346, 0.10094978660345078, 0.17729634046554565, -0.10702303051948547, -0.1766332983970642, -0.04622340574860573, 0.005752171389758587, 0.14853328466415405, -0.18422499299049377, 0.06561005115509033, -0.046514760702848434], [0.12771782279014587, -0.2042190283536911, 0.027138063684105873, -0.08612532913684845, -0.09300685673952103, 0.0189836286008358, 0.00799489114433527, -0.22740976512432098, 0.13850033283233643, 0.18723951280117035, -0.17286238074302673, -0.022786371409893036, 0.07374104112386703, 0.056987810879945755, 0.10188202559947968, 0.09523992240428925, -0.19185340404510498, -0.15322789549827576, -0.053940385580062866, -0.012819482944905758, -0.011751598678529263, -0.1625942587852478, 0.028386864811182022, -0.06367320567369461, 0.14806433022022247, -0.004384834319353104, 0.17970125377178192, 0.06156168505549431, -0.26092976331710815, 0.12345747649669647, -0.1198110431432724, 0.037168048322200775], [0.2097511738538742, -0.1263517290353775, 0.14889773726463318, 0.060073066502809525, 0.06084734573960304, -0.12978023290634155, -0.039725080132484436, 0.15147030353546143, -0.0060784704983234406, 0.20424146950244904, 0.10233709216117859, 0.20276542007923126, -0.15857838094234467, 0.20061388611793518, 0.00016094031161628664, -0.07489261776208878, 0.015468446537852287, -0.15085723996162415, -0.05457010120153427, 0.03946376219391823, 0.11239742487668991, 0.12570276856422424, 0.17225952446460724, 0.11756927520036697, -0.14970484375953674, 0.00019230879843235016, 0.21616438031196594, -0.06353124976158142, 0.2006324976682663, 0.037195343524217606, -0.0003267577849328518, -0.1657092124223709], [0.06338855624198914, -0.010076533071696758, -0.1835065484046936, 0.06683844327926636, 0.08687273412942886, 0.042459189891815186, -0.17178288102149963, 0.014302287250757217, 0.1574190855026245, -0.10024518519639969, -0.001158530474640429, -0.11471936851739883, 0.16566775739192963, -0.09375325590372086, -0.2009434551000595, -0.04820624366402626, -0.04431551694869995, 0.25139760971069336, 0.09437190741300583, -0.3882761001586914, -0.005521723069250584, -0.0050778575241565704, -0.11927661299705505, 0.1411617249250412, -0.06054355576634407, 0.13705703616142273, 0.07463813573122025, -0.08835051208734512, 0.09144783020019531, -0.05095626041293144, -0.02459036000072956, -0.18436066806316376], [0.028122413903474808, -0.18349701166152954, 0.02243408001959324, 0.03455883264541626, -0.07204379141330719, 0.07247617840766907, -0.005110630765557289, 0.09287458658218384, 0.05237683281302452, 0.1190982311964035, 0.21953727304935455, -0.05544675886631012, 0.17699116468429565, -0.018128760159015656, -0.04015592113137245, 0.04638000577688217, -0.046091385185718536, 0.0807502344250679, 0.13990803062915802, -0.19521859288215637, -0.05515849217772484, 0.14354074001312256, -0.03933163732290268, 0.0982443168759346, -0.04580065980553627, -0.07030102610588074, 0.1316009908914566, -0.060745719820261, -0.12292425334453583, 0.03127545863389969, -0.06141332536935806, 0.07471366971731186], [-0.05178077518939972, -0.1560458093881607, 0.23299705982208252, -0.02647521160542965, 0.05659808591008186, -0.14038023352622986, 0.02069411613047123, 0.12294598668813705, 0.053029295057058334, -0.09924784302711487, -0.03471919149160385, 0.03935439512133598, -0.13428454101085663, -0.22479812800884247, 0.0995502918958664, 0.1434275209903717, 0.1170111820101738, 0.08322847634553909, -0.002447637729346752, 0.007209502626210451, 0.12305436283349991, -0.0013532382436096668, 0.0618993379175663, -0.07620883733034134, -0.4972112774848938, 0.07130900025367737, 0.11922614276409149, -0.10771775245666504, -0.1242697536945343, -0.14209280908107758, 0.0779753103852272, 0.039623357355594635], [0.12083885073661804, -0.018863782286643982, -0.1177910715341568, 0.012953540310263634, 0.14518755674362183, -0.10810043662786484, -0.03441069647669792, -0.024365980178117752, 0.2243787944316864, 0.002171262865886092, 0.0789165198802948, 0.008628618903458118, 0.18323470652103424, -0.13344132900238037, -0.08902689814567566, 0.08981676399707794, 0.06539302319288254, -0.0898614227771759, -0.02653057873249054, 0.18811900913715363, 0.06499159336090088, 0.15046426653862, 0.1346871256828308, 0.022570118308067322, 0.17542938888072968, 0.14350247383117676, -0.07775163650512695, -0.05257059633731842, 0.03383181616663933, 0.10486818850040436, 0.026311557739973068, 0.0723119005560875], [-0.1154477670788765, 0.08645467460155487, -0.1053994819521904, 0.03492997586727142, 0.11166897416114807, 0.16065658628940582, 0.19767963886260986, -0.2044779509305954, 0.04959246143698692, -0.1837354153394699, 0.09404762089252472, -0.18780171871185303, 0.05796506255865097, -0.11887539178133011, -0.16558794677257538, 0.0835232064127922, 0.07908879965543747, -0.13824495673179626, -0.10352964699268341, -0.1232830360531807, -0.11046160757541656, 0.058282382786273956, -0.06405192613601685, -0.17959199845790863, 0.03607562184333801, -0.09405796974897385, 0.06552660465240479, -0.08652894198894501, 0.08340224623680115, 0.05109693482518196, -0.007834144867956638, -0.16835257411003113], [0.07656177878379822, -0.48743218183517456, -0.07871927320957184, 0.05869702249765396, 0.17964528501033783, 0.17211176455020905, 0.06449253112077713, 0.044109731912612915, 0.0015642235521227121, 0.07654337584972382, 0.1600496917963028, 0.018889084458351135, -0.18646547198295593, -0.03349601849913597, 0.21479031443595886, 0.18296599388122559, -0.18323549628257751, 0.20529942214488983, -0.013219116255640984, 0.17623426020145416, 0.0709059089422226, -0.043750543147325516, 0.05594843626022339, -0.09364788234233856, 0.022149689495563507, 0.0021480158902704716, -0.07861732691526413, -0.0824226438999176, -0.2128785252571106, 0.18417297303676605, -0.13172975182533264, 0.0653180330991745], [0.18428726494312286, 0.11400793492794037, 0.20385776460170746, 0.15615685284137726, 0.13896839320659637, -0.08646091818809509, 0.14217860996723175, -0.10061021894216537, 0.020468829199671745, 0.12554679811000824, -0.14848998188972473, -0.020689908415079117, 0.004392052069306374, 0.0626482293009758, 0.15427425503730774, 0.035730019211769104, 0.13067662715911865, -0.14923496544361115, 0.03171907737851143, 0.20481637120246887, -0.022340994328260422, 0.2104702889919281, 0.08009228110313416, 0.19538073241710663, 0.14478367567062378, -0.12472952902317047, 0.09345913678407669, -0.000755435205064714, 0.15522810816764832, 0.04470127820968628, 0.17059439420700073, 0.14185941219329834], [0.1802014410495758, 0.04067930206656456, -0.018054239451885223, 0.07954990863800049, 0.03248252347111702, -0.006908056326210499, 0.07121094316244125, 0.19606627523899078, -0.10121610015630722, 0.12715385854244232, -0.004785922821611166, -0.11397343128919601, -0.05290978401899338, -0.04355731979012489, 0.17028658092021942, 0.09011247754096985, -0.00018954648112412542, 0.03384251892566681, 0.1379944086074829, 0.16012519598007202, -0.09045086801052094, -0.07985306531190872, -0.12994301319122314, -0.05589151009917259, -0.012291518040001392, -0.14983637630939484, -0.07664879411458969, -0.03683812543749809, -0.1294494867324829, -0.09446291625499725, 0.22538675367832184, -0.1997513771057129], [0.07362190634012222, 0.2683990001678467, -0.027718661352992058, 0.21641382575035095, 0.018548525869846344, -0.12944945693016052, -0.0050345188938081264, 0.24021880328655243, -0.09018994867801666, -0.08006099611520767, 0.24183635413646698, 0.0907820612192154, -0.024379201233386993, 0.16333365440368652, 0.05394607409834862, 0.21346664428710938, 0.13606129586696625, 0.019457759335637093, -0.04756128415465355, -0.09835981577634811, 0.22356979548931122, -0.04858211800456047, 0.22203169763088226, 0.04238756000995636, -0.018557848408818245, -0.13622306287288666, -0.06750177592039108, 0.2001962810754776, -0.026737933978438377, -0.15601220726966858, 0.07510031014680862, -0.0948505625128746], [0.17456312477588654, -0.008952846750617027, 0.205903097987175, 0.018566356971859932, 0.06631142646074295, -0.18072712421417236, 0.0337127260863781, 0.08427298814058304, -0.03769943490624428, -0.07683316618204117, 0.10020424425601959, 0.16976496577262878, -0.019292252138257027, 0.14715050160884857, -0.08193547278642654, 