{
  "metadata": {
    "mode": "image",
    "image": {
      "width": 771,
      "height": 1080,
      "aspect_ratio": 0.7138888888888889
    }
  },
  "model": {
    "type": "fourier"
  },
  "mlp": {
    "layers": [
      {
        "weights": [
          [
            0.060312420129776,
            0.12228664010763168,
            -0.13386645913124084,
            0.15555186569690704,
            -0.07139500230550766,
            0.05517464503645897,
            0.0021267805714160204,
            0.23531310260295868,
            -0.11466065049171448,
            0.1305355727672577,
            0.0992841124534607,
            -0.07594618946313858,
            0.19517283141613007,
            0.049164798110723495,
            -0.03988108038902283,
            -0.08688701689243317,
            0.004007164388895035,
            0.062447115778923035,
            0.053132444620132446,
            -0.004177250433713198,
            -0.13863100111484528,
            -0.17751774191856384,
            -0.12167055159807205,
            -0.027068857103586197,
            -0.14873671531677246,
            -0.001122908084653318,
            0.1788153052330017,
            0.08446052670478821,
            -0.12873435020446777,
            -0.047930002212524414,
            -0.05981982871890068,
            0.038130857050418854,
            0.058212608098983765,
            -0.10797727108001709,
            0.04872240126132965,
            0.18065547943115234,
            -0.1257300078868866,
            0.21107159554958344,
            -0.04173869267106056,
            -0.13015200197696686,
            -0.2529904544353485,
            -0.11331934481859207,
            0.18405626714229584,
            -0.06410699337720871,
            0.41062742471694946,
            0.14467407763004303,
            -0.14465276896953583,
            -0.10897376388311386,
            0.00438480731099844,
            0.04993562772870064,
            -0.020750371739268303,
            0.07502298802137375,
            0.24769899249076843,
            -0.03919023275375366,
            0.16670987010002136,
            -0.06325677782297134,
            -0.13703608512878418,
            -0.07617375254631042,
            0.1058453693985939,
            0.02766158990561962,
            -0.09252136945724487,
            0.047664184123277664,
            0.05876961722970009,
            0.06975162029266357,
            -0.06073634326457977,
            0.12271182239055634,
            -0.0822683796286583,
            -0.05442642420530319,
            0.024303467944264412,
            0.04893554002046585,
            -0.062207143753767014,
            0.11257074028253555,
            0.014890648424625397,
            -0.04900554567575455,
            0.0480632409453392,
            0.13213859498500824,
            -0.18735405802726746,
            0.004545310046523809,
            -0.17366783320903778,
            -0.16454806923866272,
            0.22317010164260864,
            -0.20840498805046082,
            0.19952599704265594,
            -0.01963018625974655,
            -0.028652485460042953,
            -0.14455588161945343,
            -0.13254445791244507,
            -0.131795734167099,
            0.06513098627328873,
            0.0926608294248581,
            0.2303401231765747,
            0.03089829534292221,
            -0.01367923617362976,
            -0.07520930469036102,
            0.13799484074115753,
            0.06535173952579498,
            -0.14016003906726837,
            -0.012012016959488392,
            -0.1483708918094635,
            -0.36483046412467957,
            -0.22705739736557007,
            0.003586533945053816,
            -0.13534638285636902,
            -0.021410785615444183,
            0.13041788339614868,
            -0.029902342706918716,
            -0.23751813173294067,
            -0.13889893889427185,
            0.0804302990436554,
            -0.187890887260437,
            0.05961693078279495,
            -0.07886388152837753,
            0.014954001642763615,
            0.11332010477781296,
            0.07025858759880066,
            0.06686732172966003,
            0.06234243884682655,
            0.016726169735193253,
            -0.33613768219947815,
            0.243733212351799,
            0.07191802561283112,
            0.09677030146121979,
            -0.13007912039756775,
            0.008815683424472809,
            0.09644521772861481,
            0.14826159179210663,
            -0.18937774002552032,
            -0.42864254117012024
          ],
          [
            -0.2904241383075714,
            -0.12950775027275085,
            -0.1769658923149109,
            0.13771098852157593,
            -0.16963493824005127,
            0.006144411861896515,
            0.0014083903515711427,
            0.07645485550165176,
            0.13998927175998688,
            -0.23993349075317383,
            0.06657290458679199,
            0.04404013231396675,
            0.034950487315654755,
            -0.2317470759153366,
            0.161007821559906,
            -0.02156430296599865,
            0.09873279184103012,
            0.03995088115334511,
            -0.3573651611804962,
            -0.08173099905252457,
            -0.14881566166877747,
            -0.07935548573732376,
            -0.1094939112663269,
            -0.045935165137052536,
            0.3594590425491333,
            0.08103661984205246,
            -0.02765788696706295,
            0.05501943454146385,
            -0.053528159856796265,
            0.02341422624886036,
            0.003596060909330845,
            -0.17169223725795746,
            0.05156486853957176,
            -0.25788414478302,
            0.17120270431041718,
            0.11992926150560379,
            -0.1426728069782257,
            0.0037485493812710047,
            -0.2582525908946991,
            -0.14554424583911896,
            -0.19894547760486603,
            0.06063035875558853,
            0.06626021862030029,
            -0.1276649534702301,
            -0.20396395027637482,
            -0.08744914084672928,
            0.08905529230833054,
            0.03317547217011452,
            -0.1337203085422516,
            0.16768354177474976,
            -0.013151497580111027,
            -0.027995513752102852,
            0.12941621243953705,
            -0.2026989907026291,
            0.026178834959864616,
            -0.2528380751609802,
            0.07363244146108627,
            -0.23984213173389435,
            -0.1271630823612213,
            -0.32024049758911133,
            0.11554302275180817,
            0.0005215578130446374,
            -0.02046843059360981,
            0.10083314031362534,
            -0.19049407541751862,
            -0.004163552075624466,
            -0.2864830791950226,
            0.1066734790802002,
            -0.010032263584434986,
            -0.15380685031414032,
            0.017870604991912842,
            0.1270880550146103,
            -0.004881695378571749,
            0.10038750618696213,
            0.12662945687770844,
            0.2010912299156189,
            0.19230863451957703,
            -0.34309905767440796,
            0.05454126000404358,
            0.25826260447502136,
            -0.023816106840968132,
            0.0645398274064064,
            0.09979908913373947,
            -0.024622824043035507,
            0.13801561295986176,
            0.09241196513175964,
            -0.16371968388557434,
            0.0526372492313385,
            0.2742592692375183,
            0.21521061658859253,
            -0.04581204429268837,
            -0.08250203728675842,
            -0.018124990165233612,
            -0.16300126910209656,
            -0.12408140301704407,
            0.16744452714920044,
            -0.1299479752779007,
            0.012202260084450245,
            -0.12098906189203262,
            -0.15759247541427612,
            -0.028401045128703117,
            -0.03972877562046051,
            0.13077762722969055,
            -0.11633862555027008,
            0.20427018404006958,
            0.22422856092453003,
            0.29154813289642334,
            0.23767146468162537,
            0.07468172162771225,
            -0.15528926253318787,
            -0.11250779777765274,
            -0.26895672082901,
            0.008980709128081799,
            -0.0001139846135629341,
            -0.11026810109615326,
            0.2293746918439865,
            -0.03698510676622391,
            0.06910310685634613,
            0.3520931601524353,
            0.11156733334064484,
            0.13177019357681274,
            -0.08464551717042923,
            -0.07351579517126083,
            0.001259496551938355,
            -0.07773539423942566,
            -0.18070390820503235,
            -0.009798952378332615,
            -0.003639905247837305
          ],
          [
            -0.29629844427108765,
            -0.27209749817848206,
            0.14207537472248077,
            0.23682893812656403,
            -0.05092678219079971,
            0.08082308620214462,
            0.018786698579788208,
            0.03178919106721878,
            -0.024670815095305443,
            -0.032925963401794434,
            0.19843633472919464,
            0.08334873616695404,
            0.029525918886065483,
            0.03327460587024689,
            0.03810972347855568,
            0.04915817826986313,
            0.08143727481365204,
            -0.36026182770729065,
            0.013271975331008434,
            0.04569095000624657,
            0.024136312305927277,
            0.025379059836268425,
            -0.2620471715927124,
            -0.1156616285443306,
            0.28947320580482483,
            0.2478039711713791,
            0.15860040485858917,
            0.07432665675878525,
            0.2537313401699066,
            -0.012176139280200005,
            0.053070466965436935,
            -0.08118299394845963,
            -0.10781338065862656,
            -0.2870049774646759,
            0.10310176759958267,
            0.000578484614379704,
            -0.3438407778739929,
            -0.3685941696166992,
            -0.18336765468120575,
            -0.07111077010631561,
            -0.0016022052150219679,
            0.2798510193824768,
            -0.11483701318502426,
            0.019258903339505196,
            0.021072641015052795,
            0.21362876892089844,
            0.23966078460216522,
            -0.08257071673870087,
            0.14140596985816956,
            0.3341376483440399,
            0.24797242879867554,
            0.07495240867137909,
            0.13893096148967743,
            -0.10505857318639755,
            0.13982926309108734,
            -0.10904251784086227,
            0.24696344137191772,
            0.07048609852790833,
            -0.16632850468158722,
            0.12820342183113098,
            -0.13528373837471008,
            -0.047697700560092926,
            -0.039950303733348846,
            0.0818592980504036,
            -0.2158549726009369,
            -0.1331920474767685,
            -0.1936316341161728,
            -0.04927736520767212,
            -0.06003846600651741,
            0.228726327419281,
            -0.36067721247673035,
            0.0501384474337101,
            0.11001034826040268,
            0.1344269961118698,
            -0.11786114424467087,
            -0.06289415061473846,
            -0.26775673031806946,
            -0.01850535161793232,
            0.08145004510879517,
            0.1311909556388855,
            0.06523190438747406,
            0.024663763120770454,
            -0.0844636857509613,
            0.3141784369945526,
            0.23905697464942932,
            0.2588230073451996,
            0.19614918529987335,
            0.11233460158109665,
            -0.061018820852041245,
            -0.17306078970432281,
            0.2115483582019806,
            -0.14160609245300293,
            -0.05003147944808006,
            0.25844985246658325,
            0.43748044967651367,
            -0.1924535185098648,
            -0.2458566576242447,
            -0.21492145955562592,
            0.1598552018404007,
            -0.03734545037150383,
            -0.02045203186571598,
            0.08655228465795517,
            -0.20203562080860138,
            0.10470792651176453,
            -0.19370388984680176,
            0.2567721903324127,
            0.10862582921981812,
            -0.12414925545454025,
            0.1403212696313858,
            0.04195787385106087,
            -0.0582263357937336,
            -0.16858714818954468,
            -0.2361411601305008,
            0.3549148142337799,
            -0.02076640911400318,
            -0.04540104791522026,
            0.008309677243232727,
            0.16902956366539001,
            0.3349563479423523,
            -0.1590513288974762,
            -0.07040132582187653,
            0.11011692136526108,
            0.10852290689945221,
            0.3668586313724518,
            0.13608235120773315,
            0.08293253928422928,
            0.08630070090293884,
            -0.11105184257030487
          ],
          [
            -0.155079185962677,
            -0.18589405715465546,
            -0.07574833184480667,
            -0.0021832683123648167,
            0.06118835136294365,
            0.1711004376411438,
            0.006871361751109362,
            0.074659563601017,
            -0.3435601592063904,
            -0.1523539274930954,
            -0.20476137101650238,
            -0.2047707885503769,
            -0.13310307264328003,
            0.025004982948303223,
            0.1419651210308075,
            -0.06064288690686226,
            0.24457307159900665,
            -0.2780359983444214,
            -0.20874843001365662,
            -0.013231320306658745,
            -0.01903471164405346,
            0.12323086708784103,
            0.04980969429016113,
            -0.047693852335214615,
            0.21023178100585938,
            -0.13050755858421326,
            -0.2424677610397339,
            -0.18657474219799042,
            -0.03942778334021568,
            -0.12379094958305359,
            -0.16933786869049072,
            0.1176263839006424,
            0.1008618175983429,
            -0.07688234746456146,
            -0.13102106750011444,
            0.12295308709144592,
            0.02024284563958645,
            0.0402364544570446,
            -0.1761663407087326,
            -0.23633220791816711,
            0.0988672599196434,
            0.037998270243406296,
            -0.16773666441440582,
            -0.12436406314373016,
            0.06734424084424973,
            0.020287301391363144,
            0.12039203941822052,
            0.20953643321990967,
            -0.07731924951076508,
            0.04166323319077492,
            -0.0010871500708162785,
            0.027294808998703957,
            0.0373031422495842,
            -0.09808797389268875,
            -0.1373622566461563,
            -0.07324270904064178,
            -0.06783115863800049,
            0.1794312447309494,
            0.1777951866388321,
            0.07188139855861664,
            0.05498557165265083,
            -0.07679662108421326,
            -0.13696397840976715,
            0.4152003228664398,
            -0.07855481654405594,
            -0.15390048921108246,
            0.28678563237190247,
            -0.197195366024971,
            -0.12642402946949005,
            0.014491762034595013,
            0.03383912518620491,
            -0.10794291645288467,
            -0.02536381222307682,
            -0.15469978749752045,
            0.009159830398857594,
            0.12738525867462158,
            0.09891444444656372,
            -0.03460582345724106,
            -0.06677621603012085,
            0.06823375821113586,
            -0.07776042073965073,
            -0.004856226034462452,
            -0.018861841410398483,
            0.3462570607662201,
            0.13617044687271118,
            -0.11733018606901169,
            0.039271626621484756,
            -0.21074946224689484,
            0.377429723739624,
            0.18058237433433533,
            0.10194072872400284,
            -0.1722216010093689,
            0.08262299746274948,
            -0.3181082308292389,
            -0.041179873049259186,
            -0.24332566559314728,
            -0.3962182104587555,
            -0.007208609953522682,
            -0.05097285658121109,
            -0.09368200600147247,
            0.23476159572601318,
            0.09188540279865265,
            -0.0028511376585811377,
            0.14452748000621796,
            -0.202985942363739,
            -0.11234334111213684,
            0.0073892357759177685,
            -0.04428565502166748,
            0.11357736587524414,
            0.06301073729991913,
            -0.19623254239559174,
            0.003794365329667926,
            -0.11323977261781693,
            -0.25714194774627686,
            -0.10982930660247803,
            -0.16529034078121185,
            0.17190684378147125,
            0.07536644488573074,
            0.10917137563228607,
            0.1101122573018074,
            -0.10337046533823013,
            0.17839542031288147,
            -0.06264804303646088,
            -0.05112071335315704,
            0.0896492674946785,
            0.04680019989609718,
            0.09674877673387527,
            0.28881019353866577
          ],
          [
            -0.07216417044401169,
            0.04918937012553215,
            -0.21072417497634888,
            -0.0805710181593895,
            0.08028599619865417,
            0.1787862777709961,
            -0.035863328725099564,
            0.023805757984519005,
            -0.08474205434322357,
            -0.0913017988204956,
            0.045659441500902176,
            -0.00824020802974701,
            0.05975237116217613,
            -0.052880845963954926,
            -0.009873030707240105,
            0.12529978156089783,
            -0.06087050586938858,
            0.20969688892364502,
            0.07729274034500122,
            -0.1992964893579483,
            0.39586055278778076,
            0.07996724545955658,
            -0.12526081502437592,
            -0.17873263359069824,
            0.04650861769914627,
            -0.0878533124923706,
            0.11051454395055771,
            0.016247550025582314,
            -0.12297612428665161,
            0.021953660994768143,
            0.17930477857589722,
            -0.20378108322620392,
            0.12137077748775482,
            0.13090848922729492,
            0.05471169576048851,
            -0.04670130833983421,
            -0.12646572291851044,
            -0.1389590948820114,
            -0.26049134135246277,
            -0.13790033757686615,
            -0.12577666342258453,
            0.009243789128959179,
            -0.13553829491138458,
            -0.008082317188382149,
            0.15143632888793945,
            -0.1437174379825592,
            -0.07904970645904541,
            -0.09752596169710159,
            -0.05986745283007622,
            0.12867975234985352,
            0.026164110749959946,
            -0.034237757325172424,
            0.032347165048122406,
            -0.14747735857963562,
            -0.15157566964626312,
            -0.06947173923254013,
            0.16288511455059052,
            -0.07672044634819031,
            0.2221793532371521,
            0.08756789565086365,
            -0.19421614706516266,
            -0.12614192068576813,
            -0.25125259160995483,
            0.08036120235919952,
            -0.07457051426172256,
            0.07511558383703232,
            0.011771942488849163,
            -0.23964092135429382,
            -0.1897106170654297,
            -0.047845594584941864,
            -0.07831992208957672,
            0.06432997435331345,
            0.019253531470894814,
            -0.13726958632469177,
            -0.09390826523303986,
            0.15435504913330078,
            0.05616028234362602,
            0.043699320405721664,
            -0.034851524978876114,
            0.07276488095521927,
            -0.1458154320716858,
            0.18209423124790192,
            0.05058900639414787,
            -0.00908785779029131,
            0.0007905334350652993,
            -0.410919189453125,
            -0.10593847185373306,
            0.03694567084312439,
            -0.20491531491279602,
            -0.27402111887931824,
            0.21266750991344452,
            -0.1126551479101181,
            0.1063094511628151,
            0.10266362875699997,
            0.06992970407009125,
            0.3047587275505066,
            0.10275118052959442,
            -0.02456200122833252,
            0.13703347742557526,
            -0.02244364097714424,
            0.05159929394721985,
            -0.07100233435630798,
            -0.012567948549985886,
            -0.04727497696876526,
            -0.25094422698020935,
            -0.01591763086616993,
            0.20941416919231415,
            -0.26243293285369873,
            -0.15546467900276184,
            0.09663403034210205,
            0.16839753091335297,
            0.16457286477088928,
            0.035198621451854706,
            -0.09109897911548615,
            0.14489111304283142,
            -0.11744892597198486,
            -0.055860474705696106,
            0.017323408275842667,
            0.04352894425392151,
            -0.11810967326164246,
            0.38229724764823914,
            -0.03144122660160065,
            -0.2636612057685852,
            -0.18010979890823364,
            -0.07045445591211319,
            0.07623013854026794,
            0.1358676254749298,
            0.11730389297008514
          ],
          [
            0.05181979387998581,
            -0.024945100769400597,
            -0.20647619664669037,
            0.07809677720069885,
            0.09797316789627075,
            0.1442929357290268,
            0.2518133223056793,
            -0.03210505470633507,
            0.049694303423166275,
            0.19791918992996216,
            0.19811415672302246,
            0.024338409304618835,
            0.013071497902274132,
            -0.1701689511537552,
            -0.03384840488433838,
            0.3274046778678894,
            -0.02033945918083191,
            0.06507410109043121,
            0.292966365814209,
            0.2250182181596756,
            -0.029282499104738235,
            -0.18267081677913666,
            -0.0022976133041083813,
            -0.29615113139152527,
            0.0045596095733344555,
            0.09643423557281494,
            -0.5062658190727234,
            0.02612314000725746,
            0.3765875995159149,
            -0.11959584057331085,
            0.07358165085315704,
            -0.051709551364183426,
            -0.16135583817958832,
            -0.16746115684509277,
            -0.02809942327439785,
            0.12236769497394562,
            0.026589110493659973,
            -0.12528233230113983,
            0.1634056568145752,
            -0.04316798225045204,
            -0.2175234705209732,
            -0.20649833977222443,
            -0.014695686288177967,
            -0.17675165832042694,
            0.14410631358623505,
            0.18338057398796082,
            0.0074765426106750965,
            0.2449316531419754,
            -0.1524980515241623,
            0.24362637102603912,
            0.24411103129386902,
            0.15470732748508453,
            -0.09674649685621262,
            -0.04299403727054596,
            0.08985564112663269,
            -0.06767447292804718,
            -0.1013348251581192,
            0.09965529292821884,
            0.09155132621526718,
            -0.1517244428396225,
            0.1738663613796234,
            -0.14071126282215118,
            -0.2303316295146942,
            0.08980415761470795,
            -0.24144373834133148,
            -0.19717751443386078,
            -0.2570774555206299,
            0.015860019251704216,
            -0.07520658522844315,
            0.25698938965797424,
            0.11815229803323746,
            -0.28800612688064575,
            -0.09982966631650925,
            -0.13980375230312347,
            0.10683176666498184,
            -0.09335064888000488,
            -0.3701525926589966,
            -0.18695537745952606,
            0.24927519261837006,
            -0.17994290590286255,
            -0.02746114507317543,
            0.12013065069913864,
            -0.10198261588811874,
            0.004924448672682047,
            -0.024953696876764297,
            0.012381481938064098,
            -0.17980626225471497,
            -0.037100136280059814,
            -0.11336930841207504,
            -0.07564806938171387,
            -0.035743724554777145,
            -0.14896158874034882,
            0.31466540694236755,
            0.038365136831998825,
            0.046214938163757324,
            0.0662052258849144,
            -0.10873989760875702,
            -0.19621631503105164,
            -0.03769700974225998,
            -0.3044542372226715,
            0.16028472781181335,
            0.2332562357187271,
            0.277746319770813,
            -0.1689809411764145,
            0.0610085166990757,
            0.013868098147213459,
            0.04707494378089905,
            0.008157094940543175,
            0.17112523317337036,
            -0.37922799587249756,
            -0.027760962024331093,
            -0.03872184827923775,
            -0.10675349831581116,
            0.04636671021580696,
            0.21079745888710022,
            0.2570997178554535,
            0.19009710848331451,
            -0.004810824058949947,
            -0.0733400508761406,
            0.12377583235502243,
            0.019941963255405426,
            0.02481723576784134,
            0.01099296472966671,
            0.052585773169994354,
            -0.14901049435138702,
            -0.2858561873435974,
            0.04782251641154289,
            -0.1687290370464325
          ],
          [
            0.09258175641298294,
            0.0766531378030777,
            0.031819239258766174,
            -0.1468556672334671,
            -0.10216765850782394,
            0.018208099529147148,
            0.15539157390594482,
            -0.4735802114009857,
            0.2639096975326538,
            -0.42588701844215393,
            -0.21082466840744019,
            -0.07260814309120178,
            0.22386357188224792,
            0.10180368274450302,
            -0.08790465444326401,
            0.27319616079330444,
            0.1996062695980072,
            -0.24079029262065887,
            -0.37494978308677673,
            -0.16562525928020477,
            -0.047408875077962875,
            0.01718893274664879,
            0.10363001376390457,
            0.08865994960069656,
            -0.07258924096822739,
            -0.01635076478123665,
            -0.08673480898141861,
            -0.29221799969673157,
            0.12064456939697266,
            0.014543523080646992,
            -0.38449233770370483,
            0.09610150009393692,
            -0.28317227959632874,
            0.06695441901683807,
            0.08224945515394211,
            -0.28295576572418213,
            0.23423032462596893,
            -0.047847673296928406,
            -0.1068783700466156,
            -0.26492345333099365,
            0.13140569627285004,
            -0.10909856110811234,
            0.16956768929958344,
            0.041914619505405426,
            0.16200093924999237,
            0.03444119915366173,
            0.2454420030117035,
            0.1426185816526413,
            0.09401039779186249,
            0.18200796842575073,
            0.14242111146450043,
            -0.14398764073848724,
            -0.21025137603282928,
            -0.012559785507619381,
            0.11372076719999313,
            0.11850357055664062,
            0.024218318983912468,
            0.0073149013333022594,
            -0.22565369307994843,
            0.05524072423577309,
            -0.05881863087415695,
            -0.2188795804977417,
            -0.025421196594834328,
            -0.08790666610002518,
            0.20782534778118134,
            -0.010687698610126972,
            0.100028395652771,
            0.2791893780231476,
            0.0027062445878982544,
            0.1561012864112854,
            -0.028850950300693512,
            0.007066891994327307,
            0.003959933295845985,
            -0.09062778949737549,
            0.007093420252203941,
            0.026456888765096664,
            -0.002342725172638893,
            0.1697647124528885,
            0.16599193215370178,
            -0.08659292012453079,
            0.012270687147974968,
            -0.007490560412406921,
            -0.30244743824005127,
            -0.15930011868476868,
            0.01778574101626873,
            -0.048198048025369644,
            0.2103683352470398,
            0.1946125328540802,
            -0.06264565140008926,
            -0.24658085405826569,
            0.2219352424144745,
            0.20547474920749664,
            -0.08510293811559677,
            -0.1365249902009964,
            -0.032845642417669296,
            0.2336428165435791,
            0.09234132617712021,
            0.0810818150639534,
            0.06663358956575394,
            0.01824193261563778,
            0.10157165676355362,
            -0.013818071223795414,
            -0.07062985748052597,
            -0.3029384911060333,
            0.19371691346168518,
            0.04455185309052467,
            0.1446661651134491,
            0.18203695118427277,
            -0.17612600326538086,
            0.03531144559383392,
            -0.2248249053955078,
            0.16918452084064484,
            -0.14049507677555084,
            -0.26585137844085693,
            0.06664339452981949,
            -0.10322482883930206,
            -0.3066893219947815,
            -0.24435728788375854,
            0.02065441384911537,
            0.29994335770606995,
            0.09182272851467133,
            -0.40983688831329346,
            -0.16997897624969482,
            -0.06192101910710335,
            0.0863008126616478,
            0.09922429174184799,
            0.3134743273258209,
            -0.1296360343694687
          ],
          [
            -0.11154616624116898,
            -0.16066467761993408,
            0.28456205129623413,
            -0.0010584056144580245,
            0.2960313558578491,
            -0.027628641575574875,
            0.003368034726008773,
            0.29584646224975586,
            0.03012118674814701,
            -0.05089208856225014,
            0.06134369224309921,
            -0.07208947092294693,
            -0.04303546994924545,
            0.11280979961156845,
            -0.029396861791610718,
            0.028615465387701988,
            -0.1965566873550415,
            -0.05023341253399849,
            -0.022244123741984367,
            -0.06348297744989395,
            -0.1365453153848648,
            -0.02829107642173767,
            0.1697089672088623,
            -0.0384228341281414,
            -0.19152817130088806,
            -0.13566654920578003,
            0.14500409364700317,
            0.1081983670592308,
            0.03105781599879265,
            -0.28440049290657043,
            0.11304010450839996,
            0.17627541720867157,
            0.2244853973388672,
            -0.03886964172124863,
            -0.16095705330371857,
            -0.011824574321508408,
            0.055686429142951965,
            0.039344631135463715,
            0.17598429322242737,
            -0.09939339756965637,
            0.16517195105552673,
            0.11019700765609741,
            0.021791402250528336,
            -0.14277637004852295,
            -0.34308570623397827,
            0.06691911816596985,
            -0.02628973498940468,
            0.1438574492931366,
            -0.2154737263917923,
            -0.0258775744587183,
            0.04763788357377052,
            -0.10855517536401749,
            0.010384631343185902,
            0.07568036019802094,
            -0.23699775338172913,
            0.18062730133533478,
            -0.06436212360858917,
            -0.08173948526382446,
            0.13508597016334534,
            0.021275611594319344,
            -0.2897849977016449,
            -0.07160264253616333,
            -0.09296856075525284,
            -0.13311578333377838,
            0.0012302026152610779,
            -0.07387854903936386,
            0.19397006928920746,
            0.30584463477134705,
            -0.18715468049049377,
            -0.07255673408508301,
            -0.12322849780321121,
            -0.04405362159013748,
            0.07629906386137009,
            -0.13325585424900055,
            0.1581781804561615,
            0.12371030449867249,
            0.005445301067084074,
            0.04901256784796715,
            -0.06426888704299927,
            0.14469844102859497,
            0.13570691645145416,
            0.122123122215271,
            -0.23654428124427795,
            -0.06331481784582138,
            0.08593141287565231,
            -0.04324401915073395,
            -0.248780757188797,
            0.04498755559325218,
            -0.05224461108446121,
            0.05288621038198471,
            -0.6045809984207153,
            0.03254270181059837,
            -0.05630066990852356,
            0.21362291276454926,
            0.07394766062498093,
            -0.056521933525800705,
            -0.2681751251220703,
            -0.04855409264564514,
            -0.14300931990146637,
            0.2722519338130951,
            -0.18164533376693726,
            0.2521429657936096,
            -0.057674407958984375,
            -0.080576092004776,
            -0.24473020434379578,
            0.09619086980819702,
            -0.16281773149967194,
            -0.050818610936403275,
            -0.14053528010845184,
            0.07732637971639633,
            -0.008186583407223225,
            0.22589389979839325,
            -0.04627137631177902,
            -0.04231087863445282,
            0.0661718025803566,
            0.020351452752947807,
            0.05947280302643776,
            -0.026052553206682205,
            0.06256873905658722,
            -0.08096849918365479,
            -0.14606203138828278,
            -0.1428440362215042,
            0.3685396611690521,
            -0.07026504725217819,
            -0.17847774922847748,
            0.11644330620765686,
            -0.18293341994285583,
            0.11722453683614731
          ],
          [
            0.27003100514411926,
            0.05507252737879753,
            -0.17093099653720856,
            -0.017989469692111015,
            -0.07347115129232407,
            0.0033608227968215942,
            -0.09269651770591736,
            0.09504865854978561,
            -0.07007230818271637,
            -0.02042182721197605,
            -0.05020106956362724,
            0.13789093494415283,
            0.028330815955996513,
            0.20152193307876587,
            -0.02962663024663925,
            0.12137722969055176,
            0.15310880541801453,
            0.044057972729206085,
            0.12520712614059448,
            0.08592136204242706,
            -0.1035568043589592,
            -0.002608817769214511,
            -0.21228986978530884,
            0.050241999328136444,
            0.19524303078651428,
            -0.11760293692350388,
            -0.010818861424922943,
            -0.05587712675333023,
            -0.14359310269355774,
            -0.10029251873493195,
            0.22687922418117523,
            -0.3693016469478607,
            0.11735732853412628,
            0.0848904475569725,
            -0.07404288649559021,
            -0.09824178367853165,
            0.022590311244130135,
            0.23594412207603455,
            -0.03643982857465744,
            0.03320692852139473,
            -0.23608055710792542,
            -0.08095802366733551,
            -0.010806373320519924,
            -0.15070046484470367,
            0.1694667935371399,
            0.07374969869852066,
            0.23906970024108887,
            -0.155119389295578,
            0.12834885716438293,
            -0.05482979863882065,
            0.0501568466424942,
            -0.07665818184614182,
            -0.05712879076600075,
            -0.14774103462696075,
            -0.012718580663204193,
            -0.3059244751930237,
            -0.2404957115650177,
            -0.07352957129478455,
            0.1306893229484558,
            -0.1183045357465744,
            -0.033040601760149,
            -0.16436924040317535,
            0.08143395185470581,
            0.15134301781654358,
            -0.1725013107061386,
            0.2800741493701935,
            -0.44776880741119385,
            0.1319786012172699,
            0.0445534847676754,
            -0.0012556008296087384,
            0.19120416045188904,
            0.2106238752603531,
            -0.2350655347108841,
            -0.2470310777425766,
            0.10997481644153595,
            0.1339704394340515,
            0.08747647702693939,
            -0.28642427921295166,
            0.24498815834522247,
            -0.04721923917531967,
            0.4048176407814026,
            0.20302638411521912,
            -0.03879544138908386,
            0.01054270938038826,
            -0.00959047582000494,
            0.10263588279485703,
            0.21596913039684296,
            -0.07373445481061935,
            0.16217754781246185,
            0.14121198654174805,
            0.1021776795387268,
            -0.20191913843154907,
            0.021926406770944595,
            -0.04769985377788544,
            0.04320148378610611,
            -0.08921832591295242,
            0.023777509108185768,
            -0.013594337739050388,
            -0.01879117637872696,
            -0.3824208974838257,
            0.26588109135627747,
            0.14834141731262207,
            0.11233476549386978,
            0.015157770365476608,
            0.002839787397533655,
            0.23279111087322235,
            0.18996216356754303,
            0.1261429339647293,
            0.06081999093294144,
            0.11096128076314926,
            -0.04692856967449188,
            -0.37517642974853516,
            -0.04325385019183159,
            -0.041059624403715134,
            0.046078961342573166,
            0.21282455325126648,
            -0.11595254391431808,
            0.13546642661094666,
            0.32112258672714233,
            0.0015613794093951583,
            0.003551308996975422,
            0.11791141331195831,
            0.02621213160455227,
            -0.16347746551036835,
            0.2846648097038269,
            0.041689544916152954,
            0.11567997932434082,
            -0.10410267114639282
          ],
          [
            -0.06730059534311295,
            -0.24309030175209045,
            0.05491539090871811,
            -0.08084017038345337,
            0.14372268319129944,
            -0.20795385539531708,
            -0.1768670231103897,
            -0.04197367653250694,
            -0.0950232446193695,
            0.1917738914489746,
            0.17439401149749756,
            -0.08543840795755386,
            0.16928096115589142,
            0.27213603258132935,
            0.18112191557884216,
            0.19785906374454498,
            0.1186775490641594,
            0.12835918366909027,
            0.05658635124564171,
            -0.10468536615371704,
            -0.052319806069135666,
            -0.31939616799354553,
            0.026142792776226997,
            0.17698310315608978,
            -0.31700554490089417,
            -0.09540780633687973,
            0.041486434638500214,
            0.1706799566745758,
            0.058744877576828,
            -0.14739200472831726,
            0.18639719486236572,
            -0.2160865217447281,
            0.2292071133852005,
            -0.09564819931983948,
            -0.28524255752563477,
            -0.03785068169236183,
            -0.01492044422775507,
            -0.014478616416454315,
            0.020693998783826828,
            0.05841508507728577,
            0.08199307322502136,
            -0.020248670130968094,
            0.05986153334379196,
            0.05059018358588219,
            0.10246983915567398,
            0.07609894871711731,
            0.13935190439224243,
            -0.3762684762477875,
            0.02079726569354534,
            0.16450272500514984,
            0.10263831913471222,
            0.11327015608549118,
            -0.2772490978240967,
            -0.11675886809825897,
            0.16296683251857758,
            -0.09519537538290024,
            -0.08777151256799698,
            -0.1011214628815651,
            -0.18580269813537598,
            0.07235399633646011,
            0.03893186151981354,
            0.06913774460554123,
            -0.08598228543996811,
            0.01297590509057045,
            0.10722573101520538,
            0.053385455161333084,
            -0.12343978881835938,
            0.141450896859169,
            -0.00767112011089921,
            0.14248809218406677,
            -0.005346191581338644,
            -0.02718326635658741,
            0.1507657766342163,
            0.1288689523935318,
            -0.0785074457526207,
            0.08715900778770447,
            -0.10107363015413284,
            0.06799880415201187,
            0.13193370401859283,
            0.053476594388484955,
            0.14198127388954163,
            0.050013989210128784,
            0.05194532871246338,
            -0.06258758902549744,
            -0.22054187953472137,
            -0.04759136959910393,
            0.04401043802499771,
            0.21372951567173004,
            0.10788887739181519,
            0.16466251015663147,
            -0.018934383988380432,
            -0.020152989774942398,
            0.19955359399318695,
            -0.14366808533668518,
            0.09522699564695358,
            0.08862867951393127,
            -0.2874799072742462,
            -0.13215340673923492,
            0.13969489932060242,
            0.13794460892677307,
            0.035041701048612595,
            -0.2162926197052002,
            -0.01385138276964426,
            -0.009570512920618057,
            0.24557320773601532,
            -0.0084042614325881,
            -0.3899765610694885,
            0.05726088955998421,
            -0.1589399129152298,
            0.1926490068435669,
            -0.08984270691871643,
            -0.14295469224452972,
            -0.12634168565273285,
            -0.06734833121299744,
            -0.002097874879837036,
            -0.07967634499073029,
            -0.42337432503700256,
            0.17969952523708344,
            0.15653979778289795,
            -0.15551957488059998,
            -0.12027575820684433,
            0.09435135126113892,
            0.012291268445551395,
            -0.17790937423706055,
            -0.017668167129158974,
            0.1819288581609726,
            -0.09466350078582764,
            0.1451001763343811
          ],
          [
            0.10464291274547577,
            -0.05857383832335472,
            -0.009168365970253944,
            -0.2223418802022934,
            -0.2946126163005829,
            0.03362305089831352,
            -0.11073831468820572,
            0.1833789050579071,
            -0.02918088436126709,
            -0.11343000829219818,
            0.15136870741844177,
            -0.20459476113319397,
            0.12399395555257797,
            0.018393581733107567,
            -0.11184509843587875,
            -0.17611001431941986,
            -0.05359268561005592,
            -0.12059425562620163,
            0.009412795305252075,
            0.26729944348335266,
            0.08918050676584244,
            0.01987527497112751,
            -0.08198562264442444,
            0.2756570875644684,
            0.16766682267189026,
            0.13783787190914154,
            -0.041955962777137756,
            0.16032613813877106,
            0.002277654828503728,
            -0.19489595293998718,
            0.04806899651885033,
            0.11109915375709534,
            0.15823957324028015,
            0.14314162731170654,
            -0.2187536358833313,
            0.19384069740772247,
            -0.22190912067890167,
            0.10154058784246445,
            0.0633961632847786,
            0.006931615527719259,
            -0.031193139031529427,
            -0.0014228529762476683,
            -0.39537009596824646,
            -0.08321373164653778,
            -0.1344342976808548,
            -0.020406952127814293,
            0.061497412621974945,
            0.047034140676259995,
            -0.09366994351148605,
            -0.4051852822303772,
            0.0012349755270406604,
            0.24281513690948486,
            -0.06428209692239761,
            0.18063105642795563,
            0.0770488753914833,
            -0.02508947253227234,
            -0.0293397456407547,
            0.01177806593477726,
            0.20692554116249084,
            0.07431148737668991,
            0.10888110846281052,
            0.01673254929482937,
            -0.24666669964790344,
            0.4442712366580963,
            -0.03145075961947441,
            -0.03521089628338814,
            0.169955313205719,
            0.10720043629407883,
            -0.22302179038524628,
            0.19735266268253326,
            -0.2998097836971283,
            0.13104590773582458,
            -0.07839827239513397,
            0.3830425441265106,
            -0.24070854485034943,
            -0.1218722015619278,
            -0.24285192787647247,
            0.04387179762125015,
            0.2825671434402466,
            -0.12312474846839905,
            0.037324175238609314,
            -0.16065986454486847,
            0.06505540758371353,
            0.1533026546239853,
            -0.21539074182510376,
            0.41170620918273926,
            -0.051333315670490265,
            0.1528884768486023,
            0.00770993996411562,
            0.17804227769374847,
            -0.0275051798671484,
            -0.11446543782949448,
            -0.0722690001130104,
            0.05976277217268944,
            0.05163773521780968,
            -0.0439470149576664,
            0.10670504719018936,
            -0.1921311765909195,
            -0.07371582835912704,
            0.16047385334968567,
            0.0716792643070221,
            -0.10826639831066132,
            0.021104758605360985,
            0.20697546005249023,
            0.11335162818431854,
            -0.2078026682138443,
            -0.17479665577411652,
            0.12638364732265472,
            -0.03634278103709221,
            0.28668349981307983,
            -0.11898982524871826,
            -0.04127942770719528,
            -0.12774641811847687,
            -0.0037033651024103165,
            -0.024103693664073944,
            0.18084301054477692,
            0.02030687779188156,
            0.32654738426208496,
            -0.27451249957084656,
            0.06350141763687134,
            0.015008317306637764,
            0.0027714562602341175,
            -0.061841920018196106,
            0.11333068460226059,
            -0.37537238001823425,
            0.0014736840967088938,
            -0.062035441398620605,
            -0.3649154305458069
          ],
          [
            -0.01727314479649067,
            0.11577502638101578,
            0.006308342795819044,
            -0.17335130274295807,
            -0.09266060590744019,
            0.22919341921806335,
            0.04638146609067917,
            0.29716750979423523,
            0.18467079102993011,
            -0.036456380039453506,
            0.18947920203208923,
            0.08218739926815033,
            -0.06779810786247253,
            -0.15904025733470917,
            0.007817632518708706,
            -0.21880045533180237,
            0.24215956032276154,
            0.010507368482649326,
            -0.16668060421943665,
            -0.017402829602360725,
            0.09466592967510223,
            0.04687110334634781,
            -0.05965212360024452,
            -0.013227046467363834,
            0.06992398202419281,
            0.3892788589000702,
            0.0719636082649231,
            -0.06625335663557053,
            0.06714144349098206,
            -0.04182594642043114,
            -0.21511489152908325,
            -0.019332686439156532,
            -0.19566000998020172,
            0.0006636840407736599,
            0.2103666365146637,
            0.16630752384662628,
            0.15327060222625732,
            0.08983110636472702,
            0.0008625144837424159,
            0.20843224227428436,
            0.03284698352217674,
            0.051988113671541214,
            0.10988719016313553,
            0.20179425179958344,
            0.09893375635147095,
            -0.05883771553635597,
            0.04084857180714607,
            -0.09499014168977737,
            0.14626264572143555,
            -0.09347467869520187,
            0.003985441289842129,
            0.18635858595371246,
            0.16088727116584778,
            0.11721671372652054,
            0.10186543315649033,
            0.2822394371032715,
            0.007119661662727594,
            0.07828919589519501,
            0.021713946014642715,
            -0.1033237874507904,
            -0.03525097668170929,
            -0.26207706332206726,
            0.04252465069293976,
            -0.10981965065002441,
            0.11789395660161972,
            -0.04678567871451378,
            0.0969865545630455,
            0.13720615208148956,
            0.1514820009469986,
            0.017166273668408394,
            0.14740395545959473,
            -0.03652254119515419,
            0.1390891969203949,
            -0.3206954002380371,
            -0.25959616899490356,
            0.037300534546375275,
            -0.22169595956802368,
            -0.09614336490631104,
            -0.07446204870939255,
            0.0311917532235384,
            -0.37651386857032776,
            -0.15132440626621246,
            -0.21388812363147736,
            0.0026815023738890886,
            -0.18762938678264618,
            -0.17929521203041077,
            -0.03030637465417385,
            0.2586990296840668,
            -0.1490650177001953,
            0.0705156922340393,
            0.06353628635406494,
            0.1735590547323227,
            0.028875363990664482,
            -0.22940832376480103,
            0.29995790123939514,
            0.09164898097515106,
            -0.24683132767677307,
            -0.3119039833545685,
            -0.050147563219070435,
            0.2539905607700348,
            -0.03316318616271019,
            -0.04239746183156967,
            0.054913248866796494,
            -0.20977382361888885,
            0.2434682697057724,
            -0.07909039407968521,
            -0.11260420829057693,
            -0.07925286144018173,
            -0.36019301414489746,
            -0.19816359877586365,
            -0.21177086234092712,
            -0.02579023316502571,
            -0.08864551782608032,
            0.07547252625226974,
            0.14130063354969025,
            -0.14329838752746582,
            -0.02727358788251877,
            0.07293041795492172,
            0.0679851621389389,
            -0.12965776026248932,
            -0.21137018501758575,
            -0.033051908016204834,
            0.1645149141550064,
            0.21281050145626068,
            -0.012437249533832073,
            0.010703197680413723,
            -0.11978816986083984,
            0.06486544758081436
          ],
          [
            -0.15427717566490173,
            -0.26882070302963257,
            -0.0702757015824318,
            -0.10921216756105423,
            0.017272744327783585,
            0.2196662276983261,
            0.10241323709487915,
            0.1164502203464508,
            -0.21335044503211975,
            0.2238299399614334,
            0.2111704796552658,
            -0.11555816978216171,
            -0.2736218273639679,
            -0.1893800050020218,
            -0.18129131197929382,
            0.09621457755565643,
            -0.00010311372898286209,
            -0.10232691466808319,
            0.06374062597751617,
            -0.06824938207864761,
            -0.017473595216870308,
            0.1419135481119156,
            0.2208460569381714,
            0.3647492229938507,
            0.051955826580524445,
            0.06269252300262451,
            0.15296348929405212,
            -0.12961174547672272,
            0.050986651331186295,
            -0.034334905445575714,
            0.1687021404504776,
            0.19860991835594177,
            0.23973560333251953,
            -0.23829111456871033,
            0.11473338305950165,
            0.12193808704614639,
            -0.08206255733966827,
            -0.22615495324134827,
            -0.027308018878102303,
            0.018038392066955566,
            0.15481287240982056,
            -0.012211458757519722,
            0.2442227005958557,
            -0.050413183867931366,
            -0.013973074965178967,
            0.0034660259261727333,
            -0.3717693090438843,
            -0.2464459240436554,
            0.07430287450551987,
            0.05206621438264847,
            0.004156024195253849,
            0.04056254029273987,
            0.05143143981695175,
            -0.05629012733697891,
            0.03276246413588524,
            0.06522578746080399,
            0.04438275471329689,
            0.03045090287923813,
            0.163436159491539,
            0.1920466274023056,
            0.02493940107524395,
            0.09212133288383484,
            0.04102708026766777,
            0.18268348276615143,
            0.005333808250725269,
            -0.12140949070453644,
            -0.03233347460627556,
            -0.20009586215019226,
            0.10242123156785965,
            -0.0474342480301857,
            0.02581997774541378,
            -0.24273166060447693,
            0.15506984293460846,
            -0.09375404566526413,
            -0.10834566503763199,
            0.25156745314598083,
            0.1655556559562683,
            0.09619425982236862,
            -0.009930174797773361,
            0.036088407039642334,
            0.08122625201940536,
            0.14358291029930115,
            0.1816597878932953,
            0.04541884362697601,
            -0.01102191861718893,
            -0.19249074161052704,
            -0.047451820224523544,
            0.1689222753047943,
            0.15847977995872498,
            0.24484644830226898,
            -0.3842129111289978,
            0.03125070780515671,
            0.05069587007164955,
            0.06789463013410568,
            -0.12231206148862839,
            -0.15489718317985535,
            0.043170515447854996,
            -0.06226758286356926,
            0.033786479383707047,
            -0.024095341563224792,
            -0.08218540251255035,
            0.012581960298120975,
            0.08028914779424667,
            -0.037882424890995026,
            -0.15474069118499756,
            0.3718931972980499,
            -0.17734640836715698,
            0.03191399946808815,
            -0.3030301034450531,
            0.029159393161535263,
            0.07187483459711075,
            -0.14824476838111877,
            -0.07941155880689621,
            -0.2892710864543915,
            -0.24449646472930908,
            0.1550205796957016,
            -0.06044083461165428,
            0.043001603335142136,
            -0.0748862698674202,
            -0.007363641168922186,
            -0.09155344218015671,
            -0.029869792982935905,
            -0.09847261756658554,
            -0.05577177554368973,
            -0.08031980693340302,
            0.22286003828048706,
            -0.37668541073799133,
            0.07013717293739319
          ],
          [
            0.08277279138565063,
            0.09838241338729858,
            -0.053929515182971954,
            -0.060481827706098557,
            0.1973603516817093,
            0.22987401485443115,
            -0.058286070823669434,
            -0.016539182513952255,
            -0.12680654227733612,
            -0.21832343935966492,
            0.15994739532470703,
            -0.08178190141916275,
            -0.002208937192335725,
            0.1836646944284439,
            -0.04643668234348297,
            -0.22597181797027588,
            0.20349465310573578,
            -0.11284679174423218,
            0.029268503189086914,
            -0.12670211493968964,
            0.12874247133731842,
            0.08415532112121582,
            -0.06216839700937271,
            -0.14496023952960968,
            -0.09297776967287064,
            0.0671856701374054,
            -0.11266367882490158,
            0.06146452948451042,
            -0.1016557589173317,
            0.1055896207690239,
            -0.1798914521932602,
            -0.0887979120016098,
            -0.1569540649652481,
            0.09878888726234436,
            -0.10031633824110031,
            -0.004283852409571409,
            -0.06673747301101685,
            -0.06396409869194031,
            0.09556878358125687,
            -0.08489464968442917,
            -0.3986618220806122,
            -0.08222273737192154,
            -0.0653931275010109,
            0.38043147325515747,
            0.012256826274096966,
            0.0598260723054409,
            -0.009303619153797626,
            -0.10940653830766678,
            -0.027751499786973,
            0.4015207588672638,
            0.238505557179451,
            -0.21791613101959229,
            -0.21867121756076813,
            -0.027821209281682968,
            0.14257393777370453,
            -0.10344024002552032,
            0.03596898168325424,
            0.01580824702978134,
            -0.0901096761226654,
            0.2535000145435333,
            0.01203114353120327,
            0.07829123735427856,
            0.07065768539905548,
            -0.029188502579927444,
            -0.004574621561914682,
            -0.05380707234144211,
            -0.004652016330510378,
            0.04776420444250107,
            -0.39160922169685364,
            -0.05238495394587517,
            0.18975695967674255,
            -0.20406100153923035,
            -0.060520246624946594,
            -0.09015168994665146,
            -0.026095859706401825,
            -0.21878574788570404,
            -0.07634549587965012,
            0.09614691138267517,
            -0.015105137601494789,
            -0.2781398594379425,
            0.1326761245727539,
            -0.07591643929481506,
            -0.11610202491283417,
            -0.11211952567100525,
            0.17426611483097076,
            -0.1364554464817047,
            -0.014630651101469994,
            0.0073370374739170074,
            0.06098819524049759,
            -0.06080890819430351,
            -0.1774083375930786,
            0.15340791642665863,
            -0.17272408306598663,
            0.11979369819164276,
            0.3891490697860718,
            -0.00874534621834755,
            -0.2932942509651184,
            -0.05459665507078171,
            0.05230657011270523,
            0.010703722946345806,
            -0.03291686996817589,
            0.15400376915931702,
            0.09750725328922272,
            -0.08983293175697327,
            -0.18601617217063904,
            0.068311907351017,
            0.07352447509765625,
            -0.22420313954353333,
            -0.386846125125885,
            -0.17477738857269287,
            0.10866101086139679,
            0.2598130404949188,
            0.01956733874976635,
            0.05030855908989906,
            0.033120062202215195,
            -0.29097265005111694,
            -0.058302026242017746,
            0.16657507419586182,
            0.058914344757795334,
            -0.3064854145050049,
            -0.1661861538887024,
            -0.09023923426866531,
            -0.062250055372714996,
            0.02346656657755375,
            -0.0791010856628418,
            0.20929080247879028,
            -0.2311210185289383,
            -0.01778276078402996
          ],
          [
            -0.20434603095054626,
            0.11319239437580109,
            -0.09301219135522842,
            -0.09309318661689758,
            -0.1277702897787094,
            0.3632405400276184,
            -0.06543141603469849,
            0.1545124650001526,
            0.06455957144498825,
            -0.11575309187173843,
            -0.004225105978548527,
            -0.08415012061595917,
            -0.05573885515332222,
            0.06851154565811157,
            0.15559431910514832,
            -0.05511217936873436,
            0.15727199614048004,
            0.0988212525844574,
            0.0409964956343174,
            0.014861696399748325,
            0.02653317153453827,
            -0.11895284056663513,
            0.0981936827301979,
            -0.07060927152633667,
            -0.004342971369624138,
            0.15160487592220306,
            -0.04724656790494919,
            0.3246689438819885,
            0.05626450851559639,
            0.0059472802095115185,
            -0.07263009250164032,
            -0.1898914873600006,
            -0.006213723216205835,
            0.15322735905647278,
            0.07720973342657089,
            0.05561421066522598,
            0.1944829523563385,
            0.0787321999669075,
            0.04736224189400673,
            0.10694187134504318,
            0.11331716179847717,
            0.2035900056362152,
            0.10252110660076141,
            0.047739434987306595,
            0.0768517553806305,
            0.08582310378551483,
            0.009733045473694801,
            0.011827670969069004,
            -0.09518011659383774,
            -0.048594120889902115,
            -0.17407600581645966,
            -0.1904711127281189,
            0.02315511740744114,
            0.2544098496437073,
            0.13216520845890045,
            -0.11606048792600632,
            0.17664873600006104,
            0.13931475579738617,
            0.1562114655971527,
            -0.18570294976234436,
            0.03064556233584881,
            -0.1256577968597412,
            0.09276888519525528,
            0.05677399784326553,
            0.3737967312335968,
            0.07021376490592957,
            0.12519237399101257,
            0.20078836381435394,
            0.25863155722618103,
            -0.12947501242160797,
            0.046318743377923965,
            -0.19932225346565247,
            0.16144464910030365,
            -0.24102525413036346,
            -0.23253510892391205,
            -0.08940079808235168,
            0.0035300913732498884,
            -0.14170150458812714,
            0.043970298022031784,
            0.0986604169011116,
            -0.014018046669661999,
            0.02829769253730774,
            -0.11077994108200073,
            0.11022592335939407,
            0.07709332555532455,
            -0.14002388715744019,
            0.22098399698734283,
            -0.10215974599123001,
            -0.20565032958984375,
            0.10666647553443909,
            -0.15490156412124634,
            0.168430894613266,
            -0.004322012886404991,
            -0.09722801297903061,
            -0.19265590608119965,
            -0.23140443861484528,
            -0.08928518742322922,
            -0.11129303276538849,
            0.20590358972549438,
            -0.16722413897514343,
            -0.05995587259531021,
            -0.14914537966251373,
            -0.015603837557137012,
            0.19371041655540466,
            -0.12956243753433228,
            0.33569902181625366,
            0.013750027865171432,
            0.03729220852255821,
            -0.23646454513072968,
            0.33376988768577576,
            0.011400604620575905,
            0.15198193490505219,
            0.0413912795484066,
            0.04355314373970032,
            0.0755310207605362,
            -0.020112695172429085,
            0.004175652749836445,
            0.15426190197467804,
            0.09502904117107391,
            0.03589088097214699,
            0.032418135553598404,
            0.002437752904370427,
            -0.4571041166782379,
            -0.10883264988660812,
            0.17523668706417084,
            0.13697586953639984,
            -0.04296291619539261,
            -0.20420947670936584
          ],
          [
            -0.19302688539028168,
            0.05453580617904663,
            0.0530804805457592,
            -0.06265038251876831,
            0.06093119457364082,
            -0.028951697051525116,
            -0.11306200176477432,
            -0.3936789333820343,
            -0.053487345576286316,
            0.14884357154369354,
            -0.32775020599365234,
            0.08479682356119156,
            0.005185221321880817,
            -0.05457823723554611,
            0.12198162078857422,
            -0.21065965294837952,
            0.14544320106506348,
            -0.20676778256893158,
            0.04448737949132919,
            -0.23310577869415283,
            -0.0577816516160965,
            -0.010394810698926449,
            -0.0417025089263916,
            0.043990954756736755,
            -0.06466102600097656,
            0.004136587958782911,
            -0.10060007125139236,
            -0.07252287119626999,
            -0.21561051905155182,
            -0.06674373894929886,
            -0.018910100683569908,
            -0.1396317332983017,
            0.1118975281715393,
            0.13717882335186005,
            0.054239995777606964,
            -0.17222192883491516,
            -0.026919681578874588,
            -0.16117246448993683,
            0.09842728078365326,
            -0.008248616941273212,
            -0.00041828094981610775,
            -0.21206128597259521,
            0.05367204546928406,
            -0.0973118394613266,
            0.1762681007385254,
            0.03028031438589096,
            0.03297624737024307,
            0.21366436779499054,
            -0.240889310836792,
            0.04937751218676567,
            0.04571468383073807,
            0.37680262327194214,
            0.16741405427455902,
            0.07944532483816147,
            0.021693557500839233,
            0.2983924150466919,
            0.17748449742794037,
            -0.26402178406715393,
            -0.018492627888917923,
            0.09585797041654587,
            -0.14255677163600922,
            -0.06362468749284744,
            0.05686609819531441,
            0.05401290953159332,
            0.21130509674549103,
            -0.3882594108581543,
            0.027909759432077408,
            0.02655993402004242,
            0.06871291249990463,
            0.18640075623989105,
            0.13762493431568146,
            -0.0018369666067883372,
            -0.12976548075675964,
            -0.15357141196727753,
            -0.049091897904872894,
            0.09451211243867874,
            -0.1038731038570404,
            -0.0008203934412449598,
            0.2934378385543823,
            -0.005072880536317825,
            -0.08301375061273575,
            0.022070210427045822,
            -0.01281031221151352,
            -0.1649014800786972,
            -0.07975342869758606,
            0.09761031717061996,
            -0.014401824213564396,
            -0.1657218486070633,
            -0.010548649355769157,
            0.207079216837883,
            0.23548412322998047,
            0.24130457639694214,
            0.25668865442276,
            -0.09706322103738785,
            -0.10930165648460388,
            -0.08640549331903458,
            0.006931253243237734,
            -0.13678468763828278,
            0.051623620092868805,
            -0.09836436808109283,
            0.05757717043161392,
            -0.02586248889565468,
            0.03261065483093262,
            0.161229208111763,
            -0.18852566182613373,
            0.16542819142341614,
            0.21569155156612396,
            -0.27647894620895386,
            0.11299042403697968,
            0.13396184146404266,
            -0.24043677747249603,
            0.06538241356611252,
            -0.04262818768620491,
            0.4479885995388031,
            0.0013917748583480716,
            -0.16847854852676392,
            -0.023547301068902016,
            0.19270841777324677,
            0.17872339487075806,
            0.11351523548364639,
            0.2198314368724823,
            0.11137533187866211,
            0.03434915840625763,
            0.06470902264118195,
            0.1806800663471222,
            -0.1349487006664276,
            0.37805917859077454,
            0.04897911474108696
          ],
          [
            0.1530074179172516,
            -0.20982760190963745,
            -0.08521953970193863,
            -0.1729254126548767,
            -0.1645122617483139,
            -0.043554626405239105,
            -0.027248382568359375,
            0.14955051243305206,
            -0.12320568412542343,
            0.10214810073375702,
            0.11129310727119446,
            0.05839627608656883,
            0.031300075352191925,
            -0.19383147358894348,
            -0.06409553438425064,
            0.011028453707695007,
            0.19123496115207672,
            0.06067598611116409,
            0.002657824195921421,
            -0.2834728956222534,
            -0.0667615756392479,
            0.16112598776817322,
            0.05641242489218712,
            0.017240865156054497,
            0.015212981961667538,
            0.07268670946359634,
            -0.3839677572250366,
            0.08296675235033035,
            0.06630020588636398,
            0.15524141490459442,
            -0.14100487530231476,
            0.2623049020767212,
            -0.04327542707324028,
            -0.2696496546268463,
            -0.04943099245429039,
            0.032548222690820694,
            -0.15922826528549194,
            0.062380291521549225,
            -0.058555468916893005,
            -0.05369974672794342,
            0.007823973894119263,
            0.1644439846277237,
            -0.32932302355766296,
            -0.13103438913822174,
            -0.0027927139308303595,
            0.0418299175798893,
            -0.05442127212882042,
            -0.08722364902496338,
            -0.09362368285655975,
            0.09120360016822815,
            -0.10889961570501328,
            -0.015676304697990417,
            -0.1479223221540451,
            0.07871608436107635,
            -0.3240126371383667,
            0.13615000247955322,
            0.041432544589042664,
            0.17129163444042206,
            0.22646284103393555,
            -0.16185738146305084,
            0.1350872665643692,
            0.1458865851163864,
            -0.12080654501914978,
            0.01944936439394951,
            -0.045488085597753525,
            -0.16933132708072662,
            -0.238273024559021,
            -0.10769405215978622,
            -0.10756665468215942,
            0.20391449332237244,
            0.0922478660941124,
            0.04438528046011925,
            -0.2770117223262787,
            0.2181674838066101,
            0.08747615665197372,
            0.042996183037757874,
            -0.07355925440788269,
            0.24136824905872345,
            0.003270314075052738,
            0.1776057779788971,
            -0.1910189688205719,
            0.10931870341300964,
            0.0510224811732769,
            -0.1468028426170349,
            0.09353137016296387,
            0.19633996486663818,
            -0.18118219077587128,
            -0.07971123605966568,
            0.20641577243804932,
            -0.1502845734357834,
            0.2827795743942261,
            -0.06365332007408142,
            -0.12357471138238907,
            -0.05494081974029541,
            0.042889054864645004,
            -0.145797997713089,
            -0.1467810422182083,
            0.015065668150782585,
            0.1605580896139145,
            -0.3926493227481842,
            0.23463836312294006,
            0.4361453354358673,
            0.15764158964157104,
            -0.36043107509613037,
            0.2234136015176773,
            -0.26029276847839355,
            -0.2900530695915222,
            -0.2896961271762848,
            0.08239343017339706,
            0.17747503519058228,
            -0.23956739902496338,
            0.09613054245710373,
            -0.09659513086080551,
            -0.12863339483737946,
            -0.20343120396137238,
            0.15051183104515076,
            0.001737962942570448,
            -0.17402707040309906,
            0.2678469121456146,
            -0.00858224369585514,
            0.16860823333263397,
            -0.18206483125686646,
            -0.01087062805891037,
            0.19461217522621155,
            0.06954685598611832,
            -0.0073295701295137405,
            0.20208413898944855,
            -0.09060385078191757
          ],
          [
            0.06729521602392197,
            -0.02185269631445408,
            -0.08959752321243286,
            0.16725823283195496,
            0.010199288837611675,
            0.04164442420005798,
            0.1038609966635704,
            -0.28719252347946167,
            -0.1650572270154953,
            -0.00877300463616848,
            -0.032118529081344604,
            0.17692914605140686,
            0.4159802496433258,
            -0.22209207713603973,
            0.1795007735490799,
            -0.1797911375761032,
            -0.27738094329833984,
            0.07945743203163147,
            0.10599148273468018,
            0.20819932222366333,
            0.06528329849243164,
            0.06536772847175598,
            -0.09644178301095963,
            -0.0503106452524662,
            -0.09903977811336517,
            -0.0821542888879776,
            -0.07569622248411179,
            -0.02366599440574646,
            -0.2039196789264679,
            0.15247897803783417,
            0.1860503852367401,
            -0.22588613629341125,
            0.0342138297855854,
            -0.3568699359893799,
            0.006601653527468443,
            -0.002114976989105344,
            -0.030555544421076775,
            -0.20955431461334229,
            -0.03350381925702095,
            0.2047252655029297,
            -0.0033999981824308634,
            0.08407342433929443,
            -0.3937661945819855,
            -0.2139938324689865,
            0.047247301787137985,
            -0.11818307638168335,
            0.048119232058525085,
            0.006809047423303127,
            -0.02932855300605297,
            0.35643476247787476,
            -0.2619936764240265,
            0.05261532962322235,
            -0.24745601415634155,
            -0.21883772313594818,
            -0.043925222009420395,
            -0.002892364514991641,
            0.22026818990707397,
            -0.012829514220356941,
            0.21966734528541565,
            -0.19583895802497864,
            0.0936858206987381,
            0.050759658217430115,
            -0.10923643410205841,
            0.0500619113445282,
            -0.11044014245271683,
            -0.283142626285553,
            0.049746040254831314,
            0.15824617445468903,
            0.07411503791809082,
            -0.2399817556142807,
            -0.02590947039425373,
            -0.03624458611011505,
            -0.03645602986216545,
            0.06328115612268448,
            -0.13284091651439667,
            0.04329122230410576,
            0.20142503082752228,
            0.2199733555316925,
            0.12413950264453888,
            0.13960079848766327,
            -0.13454848527908325,
            0.059990935027599335,
            0.10452359169721603,
            0.07576306164264679,
            0.09901096671819687,
            0.14186586439609528,
            0.29803019762039185,
            0.11001088470220566,
            0.4477611780166626,
            0.21943031251430511,
            0.041375599801540375,
            -0.39607855677604675,
            0.1462593674659729,
            -0.13264985382556915,
            -0.02695431374013424,
            0.025145776569843292,
            0.20454862713813782,
            -0.09253072738647461,
            0.00959000363945961,
            0.015373100526630878,
            0.03842322155833244,
            -0.1500944048166275,
            -0.19457833468914032,
            0.024218052625656128,
            0.23507897555828094,
            -0.03818238899111748,
            0.1487792730331421,
            -0.17152588069438934,
            -0.10704389214515686,
            0.040130142122507095,
            -0.13959993422031403,
            -0.2925258278846741,
            -0.01419373694807291,
            -0.0010127767454832792,
            -0.12605401873588562,
            -0.05781720578670502,
            -0.1481555551290512,
            -0.3493994474411011,
            -0.05619890242815018,
            0.4335498809814453,
            0.14173273742198944,
            0.119211345911026,
            -0.2526642084121704,
            -0.23352274298667908,
            -0.11521764099597931,
            -0.20561327040195465,
            -0.09406480938196182,
            -0.28638163208961487
          ],
          [
            -0.1453029364347458,
            -0.03645438328385353,
            -0.05210554599761963,
            -0.2532087564468384,
            0.012185269966721535,
            -0.3278893828392029,
            0.17649273574352264,
            0.22168588638305664,
            -0.23698841035366058,
            -0.16086868941783905,
            -0.08504690229892731,
            -0.04576442390680313,
            0.05575291067361832,
            0.043536100536584854,
            -0.06502123922109604,
            0.05647943541407585,
            -0.10670817643404007,
            0.20702026784420013,
            0.002450811443850398,
            0.03825527802109718,
            -0.303611695766449,
            0.03779568150639534,
            -0.02032642997801304,
            -0.22441723942756653,
            -0.054168589413166046,
            0.0847439095377922,
            -0.16193436086177826,
            0.07625094056129456,
            0.027736961841583252,
            -0.1143694669008255,
            -0.0705035924911499,
            -0.10937674343585968,
            -0.2718312442302704,
            -0.10298043489456177,
            -0.012539185583591461,
            -0.38102754950523376,
            0.009420420043170452,
            0.04846100136637688,
            -0.0385076068341732,
            0.023740481585264206,
            0.1876906007528305,
            -0.032006412744522095,
            0.027061056345701218,
            -0.05580100789666176,
            0.007089352700859308,
            -0.25991949439048767,
            -0.17408913373947144,
            -0.3266465663909912,
            -0.12805306911468506,
            -0.060581982135772705,
            -0.25440964102745056,
            0.11614133417606354,
            -0.13036973774433136,
            0.017880767583847046,
            -0.026720501482486725,
            0.055052511394023895,
            -0.24264931678771973,
            -0.019580459222197533,
            -0.13247600197792053,
            0.0174447949975729,
            0.1416165828704834,
            0.07633412629365921,
            0.07339202612638474,
            0.12764506042003632,
            0.20181110501289368,
            0.376210480928421,
            -0.06265736371278763,
            0.04039033129811287,
            0.30636700987815857,
            0.2695508599281311,
            -0.030194852501153946,
            0.2769571542739868,
            0.05280096083879471,
            0.1000223457813263,
            0.0383773073554039,
            0.006019950844347477,
            0.08320729434490204,
            0.016886280849575996,
            -0.05801540985703468,
            0.1852748841047287,
            -0.11239740997552872,
            0.267487108707428,
            0.19310824573040009,
            -0.061024222522974014,
            -0.10412508249282837,
            -0.03448139503598213,
            -0.302240788936615,
            -0.06938941776752472,
            0.22332490980625153,
            -0.1966858208179474,
            0.08765877038240433,
            0.14100557565689087,
            -0.12776392698287964,
            0.1266240030527115,
            0.09368998557329178,
            0.08527462184429169,
            -0.13941414654254913,
            0.06608989089727402,
            0.04900706559419632,
            -0.2407682240009308,
            -0.01770487055182457,
            -0.3407643437385559,
            -0.05972065031528473,
            -0.06883168965578079,
            0.2625095546245575,
            0.062393173575401306,
            -0.011818617582321167,
            -0.045937586575746536,
            0.07557071000337601,
            0.008524232544004917,
            0.1599551886320114,
            -0.19883877038955688,
            0.16640572249889374,
            0.06904526799917221,
            0.12889108061790466,
            -0.33056244254112244,
            0.2054077684879303,
            0.004676810000091791,
            -0.10095690190792084,
            -0.11016646027565002,
            0.043852731585502625,
            -0.16411226987838745,
            -0.06047171726822853,
            -0.04745756462216377,
            0.06800040602684021,
            -0.05563652887940407,
            -0.24556468427181244,
            0.017722750082612038
          ],
          [
            -0.22301743924617767,
            -0.13610677421092987,
            -0.06847397238016129,
            -0.15063691139221191,
            0.11453310400247574,
            0.19884446263313293,
            -0.15253396332263947,
            -0.2150532305240631,
            -0.23569835722446442,
            0.1493932157754898,
            0.029103627428412437,
            -0.019440503790974617,
            0.004980660974979401,
            -0.14247344434261322,
            0.008539650589227676,
            -0.042632393538951874,
            0.21138440072536469,
            -0.07892729341983795,
            -0.26559343934059143,
            -0.011637985706329346,
            0.3716636598110199,
            0.020673053339123726,
            0.188589945435524,
            -0.0631367564201355,
            -0.047293245792388916,
            0.058301106095314026,
            -0.00236948998644948,
            0.12841063737869263,
            -0.07888275384902954,
            0.21236689388751984,
            0.10385763645172119,
            -0.07321399450302124,
            -0.1647336333990097,
            -0.13128302991390228,
            -0.038832277059555054,
            -0.03494250401854515,
            -0.28267842531204224,
            0.14811795949935913,
            0.20437267422676086,
            0.17679736018180847,
            -0.045531246811151505,
            0.25054892897605896,
            0.1741011142730713,
            0.06889697909355164,
            0.045563340187072754,
            0.08022496849298477,
            0.36036890745162964,
            -0.002355410484597087,
            -0.007606007624417543,
            -0.203822061419487,
            -0.04875147342681885,
            0.158115953207016,
            0.25825226306915283,
            0.04387829080224037,
            0.014368873089551926,
            0.01471602264791727,
            -0.26274311542510986,
            0.04311494156718254,
            -0.1669415533542633,
            0.06130385398864746,
            0.027740029618144035,
            -0.14831089973449707,
            0.03557067736983299,
            0.003416346153244376,
            0.007098248694092035,
            0.03189244866371155,
            0.19153884053230286,
            -0.17800931632518768,
            -0.03955670818686485,
            0.144758403301239,
            -0.1423499435186386,
            -0.1418105661869049,
            -0.07726529240608215,
            0.04354751855134964,
            -0.1048441082239151,
            0.06397057324647903,
            0.26093554496765137,
            0.1387058049440384,
            0.20398089289665222,
            -0.11560949683189392,
            -0.020888514816761017,
            0.14733357727527618,
            -0.03605106100440025,
            0.32122114300727844,
            -0.05882199481129646,
            -0.021125325933098793,
            0.06527592986822128,
            0.06278014183044434,
            -0.04945960268378258,
            0.0997726246714592,
            0.12381435930728912,
            0.14719964563846588,
            0.01857016794383526,
            -0.11990320682525635,
            0.0016355616971850395,
            -0.11004616320133209,
            -0.06595917046070099,
            0.12697142362594604,
            0.1546783447265625,
            -0.11916181445121765,
            -0.17041270434856415,
            -0.15202000737190247,
            -0.03198612481355667,
            0.2640937268733978,
            0.04676775261759758,
            0.20799307525157928,
            0.061569586396217346,
            -0.04242858290672302,
            -0.10448380559682846,
            -0.0731227919459343,
            0.04364591836929321,
            0.08852189034223557,
            0.13460469245910645,
            -0.04228021204471588,
            -0.1572909653186798,
            -0.11680417507886887,
            0.12060041725635529,
            0.13245339691638947,
            0.09451818466186523,
            0.0034705603029578924,
            -0.07730267196893692,
            -0.05543375387787819,
            -0.17130891978740692,
            -0.14533576369285583,
            0.258206844329834,
            0.03519705682992935,
            0.14283040165901184,
            -0.0022606004495173693
          ],
          [
            -0.036742210388183594,
            0.12490975856781006,
            0.017571663483977318,
            -0.33184826374053955,
            -0.06777256727218628,
            -0.07577480375766754,
            0.105793297290802,
            -0.14169244468212128,
            0.09377432614564896,
            -0.21392859518527985,
            0.004373305477201939,
            0.08271360397338867,
            0.20487457513809204,
            -0.09410205483436584,
            -0.0022634495981037617,
            -0.1263456642627716,
            0.011111078783869743,
            0.046849023550748825,
            0.15696658194065094,
            -0.24963682889938354,
            -0.0973263680934906,
            -0.12977759540081024,
            0.12425602972507477,
            0.02259354293346405,
            0.07676523178815842,
            0.05082719773054123,
            -0.017055772244930267,
            0.049322452396154404,
            0.06553272157907486,
            -0.19241216778755188,
            0.041145872324705124,
            0.10605288296937943,
            0.031644027680158615,
            0.00610934616997838,
            0.08956510573625565,
            -0.07783123105764389,
            0.03450892120599747,
            -0.23261208832263947,
            -0.0708199143409729,
            0.08848270028829575,
            0.05066726356744766,
            -0.013443087227642536,
            0.030986005440354347,
            -0.052969373762607574,
            0.03555864840745926,
            -0.07800857722759247,
            -0.15065455436706543,
            -0.024272093549370766,
            0.17152340710163116,
            0.3613705635070801,
            0.39460325241088867,
            -0.08959615230560303,
            -0.015485616400837898,
            0.09139623492956161,
            -0.06987348943948746,
            -0.09293407201766968,
            -0.022870438173413277,
            0.05746939778327942,
            -0.005722596310079098,
            0.19827471673488617,
            0.06912197917699814,
            0.3505721390247345,
            -0.11969585716724396,
            -0.20930372178554535,
            0.4433590769767761,
            -0.054015837609767914,
            0.05227066949009895,
            -0.011826290749013424,
            -0.001172248157672584,
            0.07932475209236145,
            -0.10125629603862762,
            -0.09575162082910538,
            0.03382694348692894,
            -0.005843181628733873,
            0.18717223405838013,
            0.09439090639352798,
            -0.15545159578323364,
            0.15493816137313843,
            0.006994359660893679,
            0.015348438173532486,
            -0.09350980073213577,
            -0.23983564972877502,
            -0.10834409296512604,
            0.3038172423839569,
            0.21580512821674347,
            0.15155354142189026,
            0.012815667316317558,
            -0.01263173297047615,
            -0.027014749124646187,
            0.016430780291557312,
            -0.28180819749832153,
            -0.22960199415683746,
            -0.233549103140831,
            -0.08134061843156815,
            0.1491977721452713,
            -0.27245232462882996,
            0.090655118227005,
            -0.36374956369400024,
            0.06363867968320847,
            0.10030722618103027,
            -0.16423185169696808,
            -0.2691119313240051,
            0.04124132916331291,
            0.006932548247277737,
            0.06480008363723755,
            0.29854246973991394,
            0.012887239456176758,
            0.056180521845817566,
            -0.0667564868927002,
            -0.08515419811010361,
            0.08760067075490952,
            -0.2681656777858734,
            -0.2217254936695099,
            0.09484203159809113,
            -0.025085892528295517,
            0.2464981973171234,
            -0.01598472334444523,
            0.2850220203399658,
            0.1328042894601822,
            0.08870526403188705,
            0.07010757923126221,
            0.14258445799350739,
            0.11892305314540863,
            -0.06920482963323593,
            -0.11236047744750977,
            0.24433839321136475,
            0.06907682120800018,
            -0.36252689361572266
          ],
          [
            -0.23273999989032745,
            -0.02856147661805153,
            -0.15722598135471344,
            0.22241711616516113,
            -0.02228638529777527,
            -0.14947828650474548,
            -0.08120564371347427,
            -0.016651595011353493,
            0.12428543716669083,
            0.23024241626262665,
            0.22016292810440063,
            -0.17868614196777344,
            -0.1842808723449707,
            -0.032201021909713745,
            0.09087827056646347,
            -0.2801029682159424,
            -0.13173051178455353,
            0.11637739837169647,
            0.05518549308180809,
            0.1629043072462082,
            -0.010367462411522865,
            0.10905718058347702,
            0.07979975640773773,
            0.05645420029759407,
            0.1927499622106552,
            -0.1650102734565735,
            -0.053899239748716354,
            -0.012557771988213062,
            -0.08866661787033081,
            -0.21789178252220154,
            0.2321157604455948,
            -0.20669148862361908,
            -0.07934330403804779,
            -0.18021325767040253,
            0.09683806449174881,
            0.10066353529691696,
            0.031349241733551025,
            0.25566449761390686,
            0.12874098122119904,
            -0.1861950010061264,
            -0.12776899337768555,
            0.005708858370780945,
            -0.17850154638290405,
            -0.13847005367279053,
            -0.04800606518983841,
            0.22668088972568512,
            0.1072046160697937,
            0.2287474423646927,
            0.14133119583129883,
            -0.03657883405685425,
            -0.2024928331375122,
            0.3303033709526062,
            -0.4075092673301697,
            0.17876386642456055,
            -0.13156351447105408,
            0.219371035695076,
            0.011125173419713974,
            -0.019472936168313026,
            -0.03327188268303871,
            0.32470443844795227,
            0.15444663166999817,
            -0.025784190744161606,
            0.09375349432229996,
            0.11156797409057617,
            0.06226744502782822,
            -0.008002537302672863,
            0.24877901375293732,
            0.21600569784641266,
            0.04116267338395119,
            0.11847609281539917,
            0.14321710169315338,
            -0.05640994757413864,
            -0.024840498343110085,
            0.10265964269638062,
            0.23041430115699768,
            -0.03485110402107239,
            -0.06104523688554764,
            -0.09766872227191925,
            0.15537098050117493,
            -0.2105281949043274,
            -0.05815889686346054,
            0.08152032643556595,
            0.028755435720086098,
            0.17217373847961426,
            0.08662989735603333,
            -0.17332634329795837,
            0.12696292996406555,
            -0.055066950619220734,
            -0.07608997076749802,
            0.3468693792819977,
            0.12973082065582275,
            0.13960015773773193,
            0.02869504690170288,
            -0.002735590562224388,
            0.21497845649719238,
            0.31900492310523987,
            -0.16731606423854828,
            0.0018795316573232412,
            0.14166125655174255,
            0.019705437123775482,
            -0.020402856171131134,
            -0.10931316018104553,
            0.4064811170101166,
            -0.08791371434926987,
            0.10932382941246033,
            0.00922404881566763,
            0.255498468875885,
            -0.23069310188293457,
            -0.06598148494958878,
            -0.2091444730758667,
            -0.1772361695766449,
            -0.31151431798934937,
            -0.0021118989679962397,
            0.15121960639953613,
            0.02846081554889679,
            -0.2570960223674774,
            -0.057062458246946335,
            -0.467208594083786,
            0.15061131119728088,
            0.3510662019252777,
            -0.037380870431661606,
            -0.09670068323612213,
            -0.22124435007572174,
            0.04850347712635994,
            0.018185587599873543,
            0.13604050874710083,
            -0.03292364999651909,
            0.12041275203227997
          ],
          [
            0.24440598487854004,
            -0.23880144953727722,
            0.026630442589521408,
            -0.1759905219078064,
            0.23185397684574127,
            -0.11587100476026535,
            -0.22225376963615417,
            -0.14052152633666992,
            0.07510843127965927,
            0.17611606419086456,
            0.09312302619218826,
            -0.0033427830785512924,
            -0.15055130422115326,
            0.1346251517534256,
            -0.0006208205595612526,
            0.0059654079377651215,
            -0.11867383867502213,
            -0.20999722182750702,
            -0.28197330236434937,
            -0.20764406025409698,
            0.12896442413330078,
            0.050244808197021484,
            0.2427326738834381,
            -0.008761723525822163,
            0.1671726107597351,
            0.29231908917427063,
            -0.07531199604272842,
            -0.06798353046178818,
            0.11382459104061127,
            0.33183810114860535,
            0.20880216360092163,
            -0.2238333821296692,
            0.1938398778438568,
            0.30159229040145874,
            -0.13393497467041016,
            -0.10498548299074173,
            -0.07904765754938126,
            0.046709056943655014,
            0.050728730857372284,
            -0.14521390199661255,
            0.10987935960292816,
            0.21093711256980896,
            -0.15069612860679626,
            -0.09587686508893967,
            -0.004806522745639086,
            -0.20733778178691864,
            0.034271132200956345,
            -0.16660620272159576,
            0.025846071541309357,
            -0.4071391522884369,
            -0.27051475644111633,
            0.0396125391125679,
            -0.1769411414861679,
            -0.037085819989442825,
            0.08232460916042328,
            -0.019101690500974655,
            0.28854870796203613,
            -0.037225399166345596,
            0.018989358097314835,
            -0.13041545450687408,
            0.11394407600164413,
            0.09801219403743744,
            -0.043605610728263855,
            0.16261166334152222,
            0.17593848705291748,
            -0.05036154389381409,
            -0.06687833368778229,
            0.06716633588075638,
            -0.27008700370788574,
            -0.315997838973999,
            0.06992299109697342,
            0.004850775469094515,
            0.15498511493206024,
            -0.3537153899669647,
            -0.10002515465021133,
            0.16922210156917572,
            0.18466877937316895,
            -0.2619253695011139,
            -0.10990875214338303,
            -0.09791308641433716,
            -0.007461178582161665,
            -0.11329390108585358,
            -0.09188545495271683,
            -0.014192992821335793,
            -0.08237789571285248,
            -0.19894607365131378,
            -0.014234957285225391,
            0.0526001863181591,
            -0.1318083107471466,
            -0.003413090016692877,
            -0.16111604869365692,
            -0.02297707088291645,
            -0.21527528762817383,
            -0.08377416431903839,
            0.04785521700978279,
            -0.004091006238013506,
            0.17429888248443604,
            0.09419765323400497,
            -0.043243054300546646,
            -0.10720469057559967,
            -0.1346893459558487,
            -0.13211475312709808,
            -0.218413844704628,
            -0.0808967724442482,
            0.3349947929382324,
            -0.021623127162456512,
            -0.014464783482253551,
            -0.08481262624263763,
            -0.009468670934438705,
            0.016086028888821602,
            0.09724569320678711,
            -0.10757114738225937,
            -0.1027141883969307,
            -0.0023215734399855137,
            0.10916437208652496,
            -0.0672406405210495,
            -0.06956218183040619,
            -0.07749450951814651,
            0.002434416441246867,
            -0.08650676906108856,
            0.20696082711219788,
            0.0022128422278910875,
            -0.04741133004426956,
            -0.09936221688985825,
            -0.0917719155550003,
            -0.07467245310544968,
            -0.2486913949251175,
            -0.09454449266195297
          ],
          [
            0.013508986681699753,
            -0.04050101339817047,
            0.06707961112260818,
            -0.12613682448863983,
            -0.24741803109645844,
            -0.3753019869327545,
            0.19176828861236572,
            -0.15348443388938904,
            -0.16074609756469727,
            -0.1251513808965683,
            -0.19941796362400055,
            0.04184088110923767,
            0.12035733461380005,
            -0.13565993309020996,
            0.06519842147827148,
            -0.023569487035274506,
            -0.18678417801856995,
            -0.04958779737353325,
