{
  "metadata": {
    "mode": "image",
    "image": {
      "width": 771,
      "height": 1080,
      "aspect_ratio": 0.7138888888888889
    }
  },
  "model": {
    "type": "siren"
  },
  "mlp": {
    "layers": [
      {
        "weights": [
          [
            0.30632904171943665,
            0.00959701370447874
          ],
          [
            0.3145039975643158,
            -0.3773484230041504
          ],
          [
            -0.39187610149383545,
            0.24276870489120483
          ],
          [
            0.41827648878097534,
            -0.006580746732652187
          ],
          [
            0.31652525067329407,
            -0.05349874123930931
          ],
          [
            -0.49521586298942566,
            -0.22325648367404938
          ],
          [
            0.10562256723642349,
            0.13457384705543518
          ],
          [
            0.5080252289772034,
            0.10046470165252686
          ],
          [
            0.18326671421527863,
            -0.1856110543012619
          ],
          [
            -0.38674694299697876,
            0.008540204726159573
          ],
          [
            0.30054327845573425,
            0.341167688369751
          ],
          [
            0.4608171880245209,
            -0.005260844714939594
          ],
          [
            0.09525875002145767,
            -0.07995304465293884
          ],
          [
            0.22732830047607422,
            0.18213851749897003
          ],
          [
            0.06487638503313065,
            0.4967455267906189
          ],
          [
            0.0786120668053627,
            0.4098074436187744
          ],
          [
            -0.15867498517036438,
            0.4826793074607849
          ],
          [
            -0.2675240933895111,
            0.16944116353988647
          ],
          [
            -0.0929587334394455,
            -0.285732626914978
          ],
          [
            0.4953341484069824,
            0.26393216848373413
          ],
          [
            0.11926751583814621,
            -0.3674181401729584
          ],
          [
            0.026554739102721214,
            0.08169787377119064
          ],
          [
            0.09381117671728134,
            0.14163029193878174
          ],
          [
            0.3028125762939453,
            -0.29282790422439575
          ],
          [
            -0.2743518352508545,
            -0.013101769611239433
          ],
          [
            0.3481285572052002,
            0.1292496621608734
          ],
          [
            0.3468342125415802,
            0.3095118999481201
          ],
          [
            -0.42845454812049866,
            -0.36610469222068787
          ],
          [
            -0.42578354477882385,
            -0.15104997158050537
          ],
          [
            0.390427827835083,
            -0.15177926421165466
          ],
          [
            0.011341655626893044,
            0.47152990102767944
          ],
          [
            -0.509087860584259,
            0.2917294204235077
          ],
          [
            0.3261193037033081,
            -0.29489490389823914
          ],
          [
            0.14065483212471008,
            -0.40240901708602905
          ],
          [
            0.5011686086654663,
            -0.028799425810575485
          ],
          [
            0.22828683257102966,
            0.16751956939697266
          ],
          [
            -0.4163800776004791,
            -0.2063899040222168
          ],
          [
            0.17378103733062744,
            -0.4459880590438843
          ],
          [
            0.32055413722991943,
            -0.018468424677848816
          ],
          [
            0.12499511241912842,
            -0.09107761085033417
          ],
          [
            -0.39310529828071594,
            0.3471638560295105
          ],
          [
            -0.1504901796579361,
            0.16211985051631927
          ],
          [
            0.27549809217453003,
            0.36975863575935364
          ],
          [
            0.4494892954826355,
            -0.09049119800329208
          ],
          [
            -0.3510793149471283,
            -0.07482194900512695
          ],
          [
            0.3562906086444855,
            -0.42884236574172974
          ],
          [
            -0.3132045567035675,
            0.3534931540489197
          ],
          [
            -0.05117979273200035,
            0.3499675989151001
          ],
          [
            -0.009512407705187798,
            -0.0682426169514656
          ],
          [
            -0.11020344495773315,
            0.1593923717737198
          ],
          [
            0.32763493061065674,
            -0.44344645738601685
          ],
          [
            0.46202361583709717,
            0.11599121987819672
          ],
          [
            0.4772607386112213,
            0.056095026433467865
          ],
          [
            0.01615767739713192,
            0.17768169939517975
          ],
          [
            0.08041152358055115,
            -0.2954471707344055
          ],
          [
            -0.2550961673259735,
            0.4825369417667389
          ],
          [
            0.47344017028808594,
            0.17323961853981018
          ],
          [
            0.20729272067546844,
            0.2429918348789215
          ],
          [
            -0.2852622866630554,
            -0.12983040511608124
          ],
          [
            0.04322456941008568,
            -0.36666518449783325
          ],
          [
            -0.44845443964004517,
            -0.1073298379778862
          ],
          [
            0.319319486618042,
            0.07366110384464264
          ],
          [
            -0.38288432359695435,
            0.5127828121185303
          ],
          [
            -0.3549996018409729,
            -0.035605862736701965
          ]
        ],
        "biases": [
          -0.5036412477493286,
          -0.20200617611408234,
          -0.06813692301511765,
          0.3764244616031647,
          -0.49782484769821167,
          -0.08351684361696243,
          0.19123737514019012,
          0.34526801109313965,
          0.1701676994562149,
          0.26660966873168945,
          -0.29626038670539856,
          -0.0688098594546318,
          -0.3879149258136749,
          0.1366479992866516,
          -0.30353057384490967,
          0.3262339234352112,
          0.1949315220117569,
          -0.32601478695869446,
          -0.21617642045021057,
          -0.039266377687454224,
          -0.23383712768554688,
          0.13705214858055115,
          0.26230549812316895,
          0.3973945379257202,
          -0.38326647877693176,
          -0.35645195841789246,
          0.16384975612163544,
          -0.0910363644361496,
          0.2805553376674652,
          0.4676097631454468,
          -0.28537634015083313,
          -0.4128510057926178,
          0.03768766671419144,
          0.2301090508699417,
          0.4142144024372101,
          -0.2115628719329834,
          0.14270180463790894,
          0.46770015358924866,
          0.1857530176639557,
          0.3055241107940674,
          -0.4090931713581085,
          -0.11517956107854843,
          0.008904234506189823,
          -0.4721939265727997,
          0.09043552726507187,
          0.05997161939740181,
          -0.16789768636226654,
          0.2577647566795349,
          0.49968695640563965,
          0.18666134774684906,
          0.23408272862434387,
          -0.29589882493019104,
          0.46990126371383667,
          -0.07607436180114746,
          0.42914676666259766,
          0.31272783875465393,
          -0.3525530993938446,
          -0.17866899073123932,
          0.3440040051937103,
          -0.4202076196670532,
          -0.16386954486370087,
          0.4140198230743408,
          -0.36829447746276855,
          -0.059548042714595795
        ]
      },
      {
        "weights": [
          [
            0.2628990709781647,
            0.18784725666046143,
            -0.255103200674057,
            -0.24133077263832092,
            0.25933030247688293,
            0.2916046977043152,
            -0.13010510802268982,
            -0.02725599892437458,
            0.07724127173423767,
            0.020389720797538757,
            -0.0945858433842659,
            -0.29311874508857727,
            -0.09305925667285919,
            0.05185878649353981,
            0.1977616399526596,
            -0.1724051684141159,
            -0.416303426027298,
            -0.2599044740200043,
            0.023392312228679657,
            0.18563155829906464,
            -0.1595267355442047,
            -0.008999577723443508,
            0.0721077248454094,
            0.26089611649513245,
            0.17330364882946014,
            0.04686225205659866,
            -0.2398349791765213,
            0.1879774034023285,
            -0.1266498565673828,
            -0.09271451830863953,
            0.39908966422080994,
            0.18868887424468994,
            -0.15471647679805756,
            -0.06778986006975174,
            0.03760160133242607,
            -0.08650274574756622,
            -0.0187858697026968,
            -0.27252575755119324,
            0.10240470618009567,
            0.04770107567310333,
            0.1000947579741478,
            0.13215722143650055,
            0.10796447098255157,
            -0.3711603283882141,
            -0.07114855200052261,
            -0.21971751749515533,
            -0.14099261164665222,
            0.3284989297389984,
            -0.2912539541721344,
            0.0912490263581276,
            0.05692440643906593,
            -0.013912760652601719,
            0.13197951018810272,
            0.19732485711574554,
            0.19200991094112396,
            -0.028809674084186554,
            -0.028677567839622498,
            0.07068873941898346,
            -0.09631858021020889,
            -0.037062086164951324,
            0.11526425927877426,
            0.01738114096224308,
            0.1272023618221283,
            -0.039036404341459274
          ],
          [
            0.28977835178375244,
            0.24467132985591888,
            0.2874991297721863,
            -0.09742213785648346,
            -0.3235965967178345,
            0.08104842156171799,
            -0.08831198513507843,
            -0.14569997787475586,
            -0.27237802743911743,
            0.22572049498558044,
            -0.1715666949748993,
            0.052057214081287384,
            0.1346338987350464,
            0.14717434346675873,
            -0.03434133529663086,
            0.06964042037725449,
            -0.15902705490589142,
            -0.016068605706095695,
            -0.4146282374858856,
            0.28273388743400574,
            0.28291213512420654,
            0.06515198200941086,
            -0.2683340907096863,
            0.2794319689273834,
            0.17030870914459229,
            0.011442242190241814,
            -0.3007691204547882,
            0.0019352652598172426,
            -0.17237091064453125,
            -0.07250672578811646,
            -0.4381159245967865,
            0.021229343488812447,
            -0.09652017802000046,
            -0.17361076176166534,
            -0.013964963145554066,
            -0.27748170495033264,
            -0.023682914674282074,
            -0.38523706793785095,
            0.1378101408481598,
            0.1939602941274643,
            -0.18588261306285858,
            -0.24428369104862213,
            -0.01563895121216774,
            0.1003577709197998,
            -0.18403306603431702,
            0.1304805874824524,
            0.0816965326666832,
            0.030508309602737427,
            -0.265737384557724,
            0.08677144348621368,
            -0.19168134033679962,
            -0.2503683269023895,
            -0.08635235577821732,
            0.26178404688835144,
            0.19870488345623016,
            0.13686102628707886,
            0.2836350202560425,
            -0.2980831265449524,
            -0.39641422033309937,
            0.3300045430660248,
            -0.24673901498317719,
            -0.027871649712324142,
            -0.03822760656476021,
            -0.19201871752738953
          ],
          [
            0.2844317853450775,
            -0.15275824069976807,
            -0.16496604681015015,
            -0.137274369597435,
            -0.2645675539970398,
            0.1918642222881317,
            -0.06305825710296631,
            0.21595843136310577,
            -0.12358199059963226,
            0.04567614570260048,
            -0.1069045215845108,
            0.056733470410108566,
            -0.21065329015254974,
            0.38810649514198303,
            0.01951431855559349,
            -0.056328244507312775,
            -0.32223325967788696,
            -0.2818882465362549,
            -0.15308761596679688,
            -0.21317127346992493,
            0.2561880648136139,
            -0.232451930642128,
            -0.0428260900080204,
            0.12971651554107666,
            0.08405103534460068,
            0.11149821430444717,
            0.31211498379707336,
            -0.057185426354408264,
            -0.016462506726384163,
            0.37871405482292175,
            -0.11992707848548889,
            0.015972934663295746,
            -0.42819130420684814,
            0.2909450829029083,
            0.27946752309799194,
            -0.30510780215263367,
            0.2773455083370209,
            0.018765250220894814,
            0.018017590045928955,
            -0.21215079724788666,
            -0.21213483810424805,
            -0.0919124037027359,
            -0.21617187559604645,
            -0.02756650745868683,
            0.23504772782325745,
            0.24249696731567383,
            0.06451044231653214,
            -0.27053141593933105,
            0.12141656130552292,
            -0.1682824343442917,
            0.06224435567855835,
            -0.2170661836862564,
            0.19532114267349243,
            0.007274182979017496,
            -0.17221416532993317,
            0.11577565968036652,
            0.06208384782075882,
            0.31464633345603943,
            -0.26547664403915405,
            0.3454892933368683,
            -0.1634499579668045,
            -0.20900776982307434,
            0.11517500132322311,
            0.14666804671287537
          ],
          [
            0.24782651662826538,
            -0.14832903444766998,
            -0.10940662771463394,
            -0.040281038731336594,
            -0.354618638753891,
            0.13556629419326782,
            -0.3058442175388336,
            0.2665117681026459,
            0.1294245570898056,
            -0.13186880946159363,
            0.28711754083633423,
            -0.3275309205055237,
            0.20248359441757202,
            -0.4059101343154907,
            0.09419548511505127,
            -0.08526879549026489,
            0.05456629395484924,
            -0.05367698147892952,
            -0.10559321194887161,
            -0.058615125715732574,
            0.12573303282260895,
            0.15863582491874695,
            0.15254707634449005,
            -0.1635308712720871,
            0.026540106162428856,
            -0.12461729347705841,
            0.2536681294441223,
            -0.0711229220032692,
            0.13324160873889923,
            -0.10274071246385574,
            0.05612912401556969,
            -0.11280332505702972,
            0.1923462301492691,
            0.04675711691379547,
            -0.023243190720677376,
            0.11008314788341522,
            0.009576555341482162,
            0.10050417482852936,
            0.015887567773461342,
            -0.1671987622976303,
            0.2495942860841751,
            0.16272559762001038,
            -0.33472561836242676,
            0.2397005259990692,
            -0.16901886463165283,
            0.11105743795633316,
            0.13831084966659546,
            0.014905059710144997,
            0.07296480983495712,
            -0.1005273163318634,
            0.10325445234775543,
            -0.33001574873924255,
            0.07637331634759903,
            -0.1424740105867386,
            0.006497825495898724,
            0.002746921731159091,
            -0.16964051127433777,
            -0.31444108486175537,
            0.04738783463835716,
            0.27608034014701843,
            0.05507499724626541,
            -0.23890897631645203,
            -0.10118700563907623,
            -0.21804925799369812
          ],
          [
            0.11377015709877014,
            -0.22036562860012054,
            0.03283936530351639,
            -0.051363926380872726,
            -0.05151959881186485,
            0.18886838853359222,
            -0.05528893694281578,
            0.37814003229141235,
            -0.3051794469356537,
            0.12473340332508087,
            -0.24187450110912323,
            0.13603825867176056,
            -0.21518118679523468,
            -0.2326340228319168,
            -0.05102550610899925,
            -0.27154287695884705,
            0.19149889051914215,
            -0.12668119370937347,
            0.3999989330768585,
            -0.2099694162607193,
            -0.2266843318939209,
            0.16066347062587738,
            -0.17955535650253296,
            -0.08661408722400665,
            -0.11851207911968231,
            -0.054789602756500244,
            0.2890707850456238,
            -0.0029864676762372255,
            0.04944932833313942,
            0.005210252944380045,
            -0.31565362215042114,
            0.42421022057533264,
            -0.19083060324192047,
            0.2284671813249588,
            -0.18973873555660248,
            0.3815714418888092,
            0.13570156693458557,
            0.002894482109695673,
            0.07121377438306808,
            0.09057698398828506,
            -0.10602711141109467,
            0.1720331907272339,
            0.19975778460502625,
            0.23095394670963287,
            0.16508999466896057,
            -0.2851296663284302,
            -0.28123486042022705,
            -0.018611401319503784,
            -0.2661917507648468,
            -0.14064407348632812,
            0.2631615400314331,
            0.17713499069213867,
            0.21990074217319489,
            -0.19073887169361115,
            0.22442664206027985,
            -0.16998621821403503,
            -0.10474912077188492,
            0.01408257707953453,
            -0.06691601127386093,
            -0.3385547399520874,
            0.19708681106567383,
            0.14933419227600098,
            -0.07531958073377609,
            -0.11424104124307632
          ],
          [
            0.10361435264348984,
            -0.1050102487206459,
            -0.0048888674937188625,
            -0.230269655585289,
            0.28269150853157043,
            -0.22305358946323395,
            -0.06537695229053497,
            0.27055439352989197,
            -0.011668471619486809,
            0.0011977191315963864,
            -0.19811291992664337,
            0.2146456241607666,
            -0.1325199455022812,
            0.24548180401325226,
            0.22105097770690918,
            -0.3098030388355255,
            -0.0479142926633358,
            -0.23861892521381378,
            -0.21193604171276093,
            -0.3366905450820923,
            -0.2259279042482376,
            0.04180821776390076,
            0.10278226435184479,
            0.032478779554367065,
            -0.029476141557097435,
            -0.2962484061717987,
            -0.10708944499492645,
            -0.0411108061671257,
            -0.02369825914502144,
            -0.06329219788312912,
            0.2295677363872528,
            -0.15130850672721863,
            -0.17725342512130737,
            -0.24405129253864288,
            -0.2272389978170395,
            0.08986426144838333,
            -0.12464898079633713,
            -0.042930565774440765,
            0.2742461860179901,
            -0.07534068077802658,
            -0.14905984699726105,
            0.023536691442131996,
            -0.1283917874097824,
            -0.3421882688999176,
            0.03233753517270088,
            0.21853983402252197,
            -0.1740296334028244,
            -0.1613520383834839,
            0.08417845517396927,
            0.15048538148403168,
            -0.018863411620259285,
            0.1546430140733719,
            -0.029578423127532005,
            -0.30672168731689453,
            -0.12542280554771423,
            -0.1306595355272293,
            0.10585083067417145,
            -0.15580695867538452,
            0.04160020127892494,
            -0.07368018478155136,
            -0.11142194271087646,
            0.04571137949824333,
            -0.24672503769397736,
            -0.12336579710245132
          ],
          [
            -0.07109826058149338,
            0.057668499648571014,
            0.23512697219848633,
            0.17016151547431946,
            -0.31939947605133057,
            0.17613549530506134,
            0.3113989531993866,
            0.24928849935531616,
            -0.11304184049367905,
            -0.10645154118537903,
            0.11222444474697113,
            -0.3388764560222626,
            0.0787850171327591,
            0.024823958054184914,
            0.21780401468276978,
            -0.04727492481470108,
            -0.24745003879070282,
            -0.13736176490783691,
            0.12047302722930908,
            -0.04247378557920456,
            0.28077179193496704,
            0.018945254385471344,
            0.08880172669887543,
            0.10133906453847885,
            0.06158559396862984,
            -0.16557474434375763,
            -0.09936188161373138,
            0.01799222268164158,
            0.16665004193782806,
            0.36006155610084534,
            0.10853607952594757,
            0.1329554170370102,
            0.34266623854637146,
            0.15240876376628876,
            0.0625990480184555,
            -0.00996378343552351,
            0.27481651306152344,
            0.13530363142490387,
            0.005336140748113394,
            0.1199168711900711,
            -0.07924816012382507,
            0.31023314595222473,
            0.19304326176643372,
            -0.37664133310317993,
            -0.1466098576784134,
            0.28424039483070374,
            -0.034393101930618286,
            -0.1486516147851944,
            0.025037510320544243,
            -0.06162772327661514,
            -0.12061739712953568,
            -0.05816180631518364,
            0.11050867289304733,
            0.32978057861328125,
            -0.31188780069351196,
            -0.275718092918396,
            -0.1626305729150772,
            0.17253316938877106,
            0.45695915818214417,
            -0.08553111553192139,
            0.14169639348983765,
            -0.23445969820022583,
            0.008418581448495388,
            -0.26474952697753906
          ],
          [
            -0.16028831899166107,
            -0.06563737988471985,
            0.12325429916381836,
            0.16249245405197144,
            0.11964482814073563,
            0.05725088343024254,
            -0.023887090384960175,
            -0.04836885258555412,
            0.20218929648399353,
            -0.26675012707710266,
            -0.05145004391670227,
            0.16994130611419678,
            -0.13096341490745544,
            -0.033133745193481445,
            -0.07115313410758972,
            -0.3216244578361511,
            -0.07897673547267914,
            0.1301623433828354,
            -0.10020258277654648,
            -0.1326793134212494,
            0.19942252337932587,
            0.036463961005210876,
            -0.30534040927886963,
            0.24583235383033752,
            0.18695518374443054,
            -0.02402893267571926,
            0.11656064540147781,
            -0.17446570098400116,
            0.09011077135801315,
            -0.206867977976799,
            -0.19050396978855133,
            -0.25578099489212036,
            -0.14538314938545227,
            -0.24340522289276123,
            0.1804136484861374,
            0.22993816435337067,
            -0.2532329261302948,
            -0.21178072690963745,
            -0.0955507755279541,
            0.062568299472332,
            -0.0031460351310670376,
            0.23832400143146515,
            -0.14006280899047852,
            0.16680289804935455,
            -0.022135751321911812,
            0.39569076895713806,
            0.16276372969150543,
            -0.09076406061649323,
            -0.1649424433708191,
            -0.2000817209482193,
            0.2125747948884964,
            -0.030623730272054672,
            -0.10224909335374832,
            -0.29821062088012695,
            0.19084680080413818,
            0.1437002569437027,
            -0.3642405867576599,
            -0.27307429909706116,
            -0.008058160543441772,
            -0.26663675904273987,
            -0.00971202552318573,
            0.06027693301439285,
            -0.19771389663219452,
            -0.02558012306690216
          ],
          [
            0.06641264259815216,
            -0.22868090867996216,
            0.09652304649353027,
            0.25156641006469727,
            0.2609921395778656,
            0.292396605014801,
            -0.3168582320213318,
            0.07836517691612244,
            -0.25054317712783813,
            0.082720085978508,
            0.07186727970838547,
            0.2684198021888733,
            -0.025899335741996765,
            0.23998400568962097,
            -0.07128501683473587,
            -0.17059053480625153,
            -0.16363376379013062,
            -0.044217515736818314,
            0.22304458916187286,
            -0.09745306521654129,
            -0.08642643690109253,
            0.03012922964990139,
            -0.09786868095397949,
            -0.10346134006977081,
            0.06428977102041245,
            0.22892773151397705,
            -0.022075200453400612,
            0.21404245495796204,
            0.03591886907815933,
            0.07559294253587723,
            -0.13069812953472137,
            0.12234518676996231,
            -0.08375826478004456,
            0.2173599898815155,
            -0.48704421520233154,
            -0.2026894986629486,
            0.2136858105659485,
            0.002710591070353985,
            0.029417075216770172,
            -0.07970891147851944,
            0.009527606889605522,
            0.079411581158638,
            -0.09317423403263092,
            0.27965301275253296,
            0.21166664361953735,
            0.08843591064214706,
            -0.22160406410694122,
            -0.003976475913077593,
            -0.26468342542648315,
            -0.23848482966423035,
            -0.43893688917160034,
            0.21465642750263214,
            0.1573076695203781,
            0.0800771489739418,
            -0.38989895582199097,
            -0.14407503604888916,
            -0.05198719725012779,
            -0.12309339642524719,
            -0.1589253693819046,
            -0.20625989139080048,
            -0.15835216641426086,
            -0.22227910161018372,
            0.37974536418914795,
            -0.06368104368448257
          ],
          [
            0.06645085662603378,
            -0.001559623284265399,
            0.0794610008597374,
            -0.18200555443763733,
            -0.09490957111120224,
            0.4732365012168884,
            -0.09348540753126144,
            -0.2041526436805725,
            0.3051218092441559,
            -0.010095636360347271,
            -0.08583357185125351,
            -0.0992329865694046,
            0.31971296668052673,
            0.002907613292336464,
            -0.05948175862431526,
            -0.2616550326347351,
            -0.10424616187810898,
            -0.3176058530807495,
            -0.28238245844841003,
            0.07424049079418182,
            0.10098233073949814,
            0.06719988584518433,
            -0.1608654260635376,
            0.15159404277801514,
            0.24952220916748047,
            0.296482115983963,
            0.09178917855024338,
            -0.15289027988910675,
            0.2797812819480896,
            0.18132105469703674,
            -0.1550324410200119,
            -0.2827112674713135,
            -0.1990908980369568,
            0.2299797385931015,
            -0.23270779848098755,
            0.22452285885810852,
            0.10187216848134995,
            0.22390785813331604,
            -0.2655107378959656,
            -0.1577598601579666,
            -0.0670100748538971,
            -0.17103606462478638,
            -0.11511046439409256,
            0.14827805757522583,
            0.3015083372592926,
            0.2136707752943039,
            0.350593239068985,
            -0.10273557156324387,
            -0.06048641726374626,
            0.0777207463979721,
            -0.25078293681144714,
            0.048090334981679916,
            0.055044542998075485,
            0.2591361701488495,
            -0.3193816542625427,
            0.1920088827610016,
            -0.18979786336421967,
            -0.2377738356590271,
            0.25795847177505493,
            -0.20766660571098328,
            -0.12490297853946686,
            0.22559355199337006,
            0.17441250383853912,
            -0.25324663519859314
          ],
          [
            -0.07004578411579132,
            -0.2001352310180664,
            -0.11009737104177475,
            -0.2048187404870987,
            -0.013137483969330788,
            0.2887115478515625,
            -0.08065811544656754,
            -0.3141138553619385,
            -0.18322020769119263,
            -0.18044887483119965,
            -0.2927792966365814,
            0.09828716516494751,
            -0.016848716884851456,
            0.07319483160972595,
            -0.05080932006239891,
            0.05897805839776993,
            -0.11069583892822266,
            0.25407877564430237,
            -0.08994285762310028,
            -0.08307771384716034,
            0.07877975702285767,
            -0.11055842787027359,
            0.22440862655639648,
            -0.05864066258072853,
            0.3967110216617584,
            -0.053759846836328506,
            0.138145312666893,
            -0.3136107623577118,
            0.3940295875072479,
            -0.2322942316532135,
            0.09185108542442322,
            -0.13443154096603394,
            -0.10389181971549988,
            -0.31986138224601746,
            0.34050264954566956,
            0.10330093652009964,
            0.32869216799736023,
            0.2657746970653534,
            -0.25015413761138916,
            -0.06264394521713257,
            -0.03627640753984451,
            -0.11760254204273224,
            0.02796904556453228,
            -0.20900659263134003,
            -0.019223686307668686,
            -0.07757647335529327,
            0.014087045565247536,
            0.16087578237056732,
            0.28877609968185425,
            0.30620115995407104,
            0.03542783483862877,
            0.06973987817764282,
            -0.04361891373991966,
            -0.06106149032711983,
            -0.13503935933113098,
            -0.2504251301288605,
            -0.2834491729736328,
            0.12167640030384064,
            0.1814122349023819,
            -0.2948984205722809,
            0.33329853415489197,
            0.2314235270023346,
            0.021288197487592697,
            -0.1285313218832016
          ],
          [
            0.005950892809778452,
            0.1645248383283615,
            -0.06650665402412415,
            0.05354487895965576,
            -0.08086561411619186,
            0.06414517760276794,
            0.2698037326335907,
            -0.16074468195438385,
            -0.06655466556549072,
            0.015794502571225166,
            -0.15502884984016418,
            -0.25047892332077026,
            0.2932127118110657,
            0.2368381768465042,
            -0.08459541946649551,
            -0.08725804090499878,
            0.24791263043880463,
            -0.0570024810731411,
            -0.039011429995298386,
            0.13627538084983826,
            -0.36662620306015015,
            0.2819904386997223,
            0.05946449935436249,
            -0.1569857895374298,
            0.07161014527082443,
            -0.3536134362220764,
            -0.09348385781049728,
            -0.21641655266284943,
            0.2410304695367813,
            0.3268505334854126,
            0.10516313463449478,
            0.21257568895816803,
            0.1670462191104889,
            -0.12942467629909515,
            0.2124379575252533,
            0.20139087736606598,
            -0.03180994465947151,
            0.09003107994794846,
            -0.2976110875606537,
            -0.295472115278244,
            0.11234107613563538,
            0.05510590970516205,
            0.3259563446044922,
            -0.18715763092041016,
            0.03266867995262146,
            -0.22628313302993774,
            0.2393827885389328,
            0.1735786646604538,
            -0.10901949554681778,
            0.1519007831811905,
            0.3121100664138794,
            0.1603918969631195,
            -0.016401834785938263,
            -0.17858318984508514,
            0.12513385713100433,
            -0.02222142368555069,
            -0.14887431263923645,
            0.07516288757324219,
            0.07311873883008957,
            -0.11822906136512756,
            -0.07184813171625137,
            -0.19620005786418915,
            0.3826373219490051,
            0.02353125624358654
          ],
          [
            -0.2017592340707779,
            0.21010206639766693,
            0.30059269070625305,
            0.020237023010849953,
            -0.08581177145242691,
            0.3987150490283966,
            -0.004753348417580128,
            -0.036505747586488724,
            -0.09574078023433685,
            0.037739429622888565,
            -0.32189929485321045,
            0.18302099406719208,
            0.2795124650001526,
            0.1794407069683075,
            -0.20567499101161957,
            -0.06052251160144806,
            0.21951888501644135,
            0.25136837363243103,
            -0.19149434566497803,
            0.05649518221616745,
            0.23288492858409882,
            -0.11038072407245636,
            0.09668722748756409,
            -0.37175098061561584,
            -0.07755571603775024,
            -0.16068364679813385,
            -0.11482937633991241,
            -0.2544762194156647,
            0.035512473434209824,
            0.0567653626203537,
            0.2102261632680893,
            0.2642102539539337,
            0.4764031767845154,
            0.12984885275363922,
            -0.08192629367113113,
            -0.11946648359298706,
            -0.1651490181684494,
            0.4021930396556854,
            -0.11469462513923645,
            -0.2811163663864136,
            -0.07543452084064484,
            -0.16641263663768768,
            0.263293594121933,
            -0.12794096767902374,
            -0.3784668445587158,
            -0.22803808748722076,
            0.23910117149353027,
            -0.12931273877620697,
            0.034816544502973557,
            0.020880501717329025,
            0.24278630316257477,
            -0.17953921854496002,
            0.02100580558180809,
            -0.16794845461845398,
            -0.16055378317832947,
            0.19080984592437744,
            -0.2187899798154831,
            -0.29961514472961426,
            0.04381294921040535,
            0.3810674250125885,
            0.22673578560352325,
            0.08673592656850815,
            -0.19043923914432526,
            0.2438839077949524
          ],
          [
            -0.22892627120018005,
            0.0023987034801393747,
            -0.0040183099918067455,
            -0.0022201859392225742,
            0.20222708582878113,
            0.31145167350769043,
            -0.3550240099430084,
            0.28016164898872375,
            -0.20983393490314484,
            -0.3660072088241577,
            -0.0010200589895248413,
            0.33720162510871887,
            0.0830700546503067,
            0.4128715395927429,
            0.04839923605322838,
            0.1654820293188095,
            -0.1409013271331787,
            0.2798306345939636,
            -0.018384641036391258,
            -0.18523931503295898,
            0.06840194761753082,
            0.3233635425567627,
            0.16954509913921356,
            0.017144709825515747,
            0.16218355298042297,
            -0.22808240354061127,
            0.040812451392412186,
            0.40241289138793945,
            -0.24689030647277832,
            -0.15844422578811646,
            0.20391544699668884,
            0.28317511081695557,
            -0.08977904170751572,
            0.12161096185445786,
            -0.08867596089839935,
            0.01243253517895937,
            -0.24474412202835083,
            -0.2763124108314514,
            -0.1178230345249176,
            0.15294405817985535,
            -0.039600953459739685,
            0.3191107511520386,
            -0.12367565184831619,
            0.28055697679519653,
            0.18141674995422363,
            -0.14330090582370758,
            -0.07982499897480011,
            0.19605602324008942,
            -0.21166996657848358,
            -0.2907383143901825,
            0.20701201260089874,
            0.062014251947402954,
            -0.09506193548440933,
            -0.18181036412715912,
            0.16739316284656525,
            -0.30213919281959534,
            -0.020033450797200203,
            -0.14688155055046082,
            -0.08545312285423279,
            0.1467527151107788,
            -0.2215559482574463,
            0.1174984872341156,
            0.17789886891841888,
            0.14228828251361847
          ],
          [
            -0.17896977066993713,
            0.040017567574977875,
            0.2058933824300766,
            0.04298679158091545,
            -0.057127323001623154,
            0.31900179386138916,
            -0.2060215026140213,
            -0.1311759501695633,
            0.18771131336688995,
            0.1612711399793625,
            0.411823034286499,
            0.061619825661182404,
            0.1713523268699646,
            -0.04011206328868866,
            -0.17774701118469238,
            0.1190556213259697,
            -0.08793441951274872,
            0.34623879194259644,
            -0.18506987392902374,
            0.15411138534545898,
            0.020340390503406525,
            0.2530055344104767,
            0.030740369111299515,
            0.06325812637805939,
            0.2498413473367691,
            -0.1775064319372177,
            0.31646010279655457,
            0.26134201884269714,
            -0.16666992008686066,
            -0.39345240592956543,
            -0.3686738908290863,
            0.24468287825584412,
            0.015022531151771545,
            -0.10398175567388535,
            0.13837017118930817,
            0.22155430912971497,
            0.3811579942703247,
            0.07214388996362686,
            -0.2089623659849167,
            -0.0938212126493454,
            -0.2781834006309509,
            0.08979935944080353,
            0.1585996150970459,
            -0.19862765073776245,
            -0.104575514793396,
            0.1781936138868332,
            0.27684447169303894,
            -0.02109796740114689,
            -0.17746710777282715,
            -0.10795343667268753,
            0.47704482078552246,
            -0.09920147806406021,
            -0.0953047052025795,
            -0.01090824045240879,
            -0.18804024159908295,
            -0.11928943544626236,
            -0.2952643930912018,
            -0.1815798580646515,
            0.09840935468673706,
            -0.19068661332130432,
            -0.05326923727989197,
            0.04717172682285309,
            -0.2930273115634918,
            -0.06792426854372025
          ],
          [
            0.11874210089445114,
            0.14056545495986938,
            0.3044247329235077,
            -0.10684274137020111,
            0.281736820936203,
            0.1800897866487503,
            -0.16325980424880981,
            0.1932709664106369,
            0.07523007690906525,
            -0.2933845818042755,
            -0.048677798360586166,
            -0.2969485819339752,
            -0.0877726599574089,
            -0.18283097445964813,
            0.00896165706217289,
            -0.4117450416088104,
            -0.09458021819591522,
            0.12488049268722534,
            -0.3993820250034332,
            -0.162109375,
            -0.1243152916431427,
            0.20038031041622162,
            -0.08255121111869812,
            0.06776556372642517,
            -0.06972510367631912,
            -0.26579102873802185,
            0.03500921279191971,
            -0.5608693957328796,
            -0.04257511720061302,
            -0.05072282254695892,
            -0.2221142053604126,
            -0.07506976276636124,
            0.20723672211170197,
            0.17948633432388306,
            -0.042400650680065155,
            0.05871574953198433,
            0.16529253125190735,
            -0.06609516590833664,
            -0.16562789678573608,
            -0.001619829679839313,
            -0.03675112500786781,
            0.3175086975097656,
            0.10411809384822845,
            -0.365814745426178,
            -0.2626379728317261,
            0.2424199879169464,
            -0.2786226272583008,
            -0.17761558294296265,
            -0.04050665348768234,
            -0.12354667484760284,
            0.18610060214996338,
            -0.25936198234558105,
            0.010051744990050793,
            -0.0038402099162340164,
            -0.03435429930686951,
            0.10510126501321793,
            -0.07922524958848953,
            0.059744421392679214,
            0.22485488653182983,
            -0.20574098825454712,
            0.02553362026810646,
            0.020783720538020134,
            0.15638628602027893,
            -0.16492056846618652
          ],
          [
            0.18340125679969788,
            -0.3214803636074066,
            -0.10736358910799026,
            0.17972944676876068,
            0.21728120744228363,
            0.050527941435575485,
            0.12862850725650787,
            0.13562174141407013,
            -0.09721002727746964,
            0.09047703444957733,
            -0.2791057527065277,
            0.2301069051027298,
            -0.13430151343345642,
            -0.25857284665107727,
            -0.24890953302383423,
            0.2610844373703003,
            -0.25695985555648804,
            -0.19673188030719757,
            -0.19436171650886536,
            0.13684427738189697,
            0.0970059409737587,
            0.1295948028564453,
            -0.0058725811541080475,
            0.03467082604765892,
            -0.27092546224594116,
            -0.20119714736938477,
            0.09756173193454742,
            -0.14325837790966034,
            -0.27854228019714355,
            -0.290351539850235,
            0.297771155834198,
            -0.30188989639282227,
            -0.27974873781204224,
            -0.046967994421720505,
            0.16080155968666077,
            -0.11653007566928864,
            -0.12984536588191986,
            0.3340601921081543,
            0.07037799060344696,
            0.09851780533790588,
            -0.20777566730976105,
            0.2674030065536499,
            0.09938345849514008,
            -0.071026511490345,
            0.22359471023082733,
            0.44571372866630554,
            -0.16915926337242126,
            0.3167632818222046,
            0.2412344366312027,
            0.3207363784313202,
            -0.288931667804718,
            0.1759147047996521,
            0.045343633741140366,
            -0.016359612345695496,
            0.23647001385688782,
            -0.3221065402030945,
            -0.0028388178907334805,
            0.27990269660949707,
            0.2048407942056656,
            0.21642126142978668,
            0.12960311770439148,
            0.18263137340545654,
            0.09302801638841629,
            -0.06346714496612549
          ],
          [
            0.33116644620895386,
            -0.09223926067352295,
            0.1578836590051651,
            0.30383482575416565,
            0.31681928038597107,
            0.138363778591156,
            0.07554659247398376,
            -0.33176544308662415,
            -0.02799638733267784,
            0.03192717581987381,
            0.18865782022476196,
            0.12627533078193665,
            -0.19717150926589966,
            0.10542578250169754,
            0.0024986197240650654,
            0.22625628113746643,
            0.23344655334949493,
            0.11689295619726181,
            -0.04828561469912529,
            -0.037201616913080215,
            -0.03478621691465378,
            -0.03078729473054409,
            0.11791320145130157,
            0.15788425505161285,
            -0.005075480788946152,
            0.21746641397476196,
            -0.4210822582244873,
            -0.0023470185697078705,
            0.12544260919094086,
            -0.23199699819087982,
            -0.21217668056488037,
            0.3674067258834839,
            0.24955987930297852,
            0.12026374787092209,
            -0.3059927821159363,
            0.0792672336101532,
            -0.04707079008221626,
            0.28219521045684814,
            0.2670721709728241,
            0.35158929228782654,
            -0.08660225570201874,
            0.2272631675004959,
            -0.14263716340065002,
            0.24617761373519897,
            -0.32859566807746887,
            -0.07758849859237671,
            0.12139070779085159,
            0.21081851422786713,
            -0.22961682081222534,
            -0.23953819274902344,
            -0.17247475683689117,
            0.007307047490030527,
            0.06093940511345863,
            -0.13317057490348816,
            0.37297022342681885,
            0.35292765498161316,
            0.19542339444160461,
            0.1137521043419838,
            0.2599110007286072,
            -0.1571006327867508,
            -0.24292127788066864,
            -0.25653257966041565,
            -0.2956145703792572,
            0.3084285855293274
          ],
          [
            -0.10278543829917908,
            0.07261886447668076,
            0.2723667621612549,
            -0.2695170044898987,
            -0.075105682015419,
            -0.09947042167186737,
            -0.2546009123325348,
            0.12000251561403275,
            0.23784837126731873,
            -0.07950747758150101,
            -0.2359956055879593,
            -0.045558299869298935,
            -0.3484445810317993,
            -0.06317654252052307,
            -0.2021365761756897,
            -0.0920582264661789,
            0.055654797703027725,
            -0.03572700917720795,
            -0.008517875336110592,
            0.05644805729389191,
            -0.18256963789463043,
            -0.05151977017521858,
            0.1674819439649582,
            0.2691117525100708,
            -0.04865342006087303,
            0.17551621794700623,
            -0.3940593898296356,
            0.36342740058898926,
            0.06582632660865784,
            0.34176817536354065,
            -0.17519256472587585,
            -0.18112529814243317,
            -0.26540330052375793,
            0.12311060726642609,
            0.15071208775043488,
            0.05889662355184555,
            0.11252452433109283,
            -0.31843531131744385,
            0.182174950838089,
            -0.2814890146255493,
            0.1484435349702835,
            0.07984046638011932,
            -0.05862775817513466,
            -0.20238706469535828,
            0.10436540842056274,
            0.1556372344493866,
            0.011941532604396343,
            0.07759227603673935,
            0.28871577978134155,
            0.13490454852581024,
            -0.18407826125621796,
            -0.005546709522604942,
            0.21270553767681122,
            0.29754185676574707,
            0.03244417905807495,
            -0.06987057626247406,
            -0.0005596966948360205,
            -0.11118622124195099,
            0.0861915796995163,
            0.10656032711267471,
            -0.26651889085769653,
            0.0024807483423501253,
            0.3565123379230499,
            -0.13252322375774384
          ],
          [
            -0.24506010115146637,
            0.21196286380290985,
            0.18492554128170013,
            0.30319643020629883,
            -0.4165166914463043,
            -0.2609807252883911,
            0.14097440242767334,
            0.09860114753246307,
            0.3121218681335449,
            -0.03670278191566467,
            -0.013588509522378445,
            0.26184195280075073,
            -0.14489001035690308,
            -0.28747493028640747,
            0.21187761425971985,
            -0.047405458986759186,
            -0.052349649369716644,
            0.2665638029575348,
            -0.038768280297517776,
            -0.22407248616218567,
            0.18971095979213715,
            0.32345178723335266,
            0.19386577606201172,
            0.04794686660170555,
            0.00837195385247469,
            0.2122504711151123,
            0.11930346488952637,
            0.24599826335906982,
            0.2134982943534851,
            -0.3605690598487854,
            -0.21097329258918762,
            0.13843999803066254,
            -0.30332106351852417,
            -0.2224525660276413,
            -0.31587374210357666,
            -0.1657867729663849,
            -0.1546752005815506,
            0.2540868818759918,
            0.2324886918067932,
            0.4049645662307739,
            0.1792885661125183,
            -0.1881861537694931,
            0.27540314197540283,
            0.18511150777339935,
            -0.09842033684253693,
            -0.20527829229831696,
            -0.09824327379465103,
            0.04001033306121826,
            0.22724899649620056,
            -0.10946459323167801,
            -0.10633483529090881,
            -0.00014924947754479945,
            0.001501847873441875,
            -0.01133753266185522,
            0.36462321877479553,
            0.26233595609664917,
            0.2820153534412384,
            -0.2598486542701721,
            -0.21163339912891388,
            0.02099502831697464,
            0.36668524146080017,
            -0.05095170438289642,
            -0.24989697337150574,
            0.2014825940132141
          ],
          [
            0.13582292199134827,
            0.20727822184562683,
            0.08908536285161972,
            -0.3757815659046173,
            0.11533588916063309,
            0.3435789942741394,
            -0.10765454918146133,
            -0.0880310982465744,
            0.1951543092727661,
            0.032780721783638,
            -0.183999702334404,
            -0.09543665498495102,
            0.1793392449617386,
            0.32772278785705566,
            0.018561862409114838,
            -0.008294284343719482,
            -0.20129767060279846,
            0.13334901630878448,
            -0.09567852318286896,
            0.14287704229354858,
            -0.17323416471481323,
            0.3946845233440399,
            0.2274881899356842,
            -0.2900744378566742,
            -0.317194402217865,
            0.04972813278436661,
            0.22323471307754517,
            -0.1359713077545166,
            -0.15105187892913818,
            -0.3068999648094177,
            0.23546721041202545,
            0.17846600711345673,
            -0.038407254964113235,
            -0.021797191351652145,
            -0.1876562386751175,
            -0.16783276200294495,
            0.33183977007865906,
            -0.46422284841537476,
            0.31610020995140076,
            -0.22798165678977966,
            -0.20502729713916779,
            -0.15260818600654602,
            0.2341066598892212,
            -0.0251338891685009,
            0.12972652912139893,
            -0.29652857780456543,
            0.05766047164797783,
            0.03838101029396057,
            -0.32599112391471863,
            -0.1359379142522812,
            0.12452958524227142,
            0.088828906416893,
            -0.38071784377098083,
            -0.10667279362678528,
            0.20366640388965607,
            -0.06640909612178802,
            -0.1844162940979004,
            0.13989514112472534,
            -0.04318029806017876,
            0.29852616786956787,
            -0.19466350972652435,
            -0.12023806571960449,
            0.08780690282583237,
            0.14721238613128662
          ],
          [
            0.2925138771533966,
            -0.004609599243849516,
            -0.06706523150205612,
            -0.20871740579605103,
            0.1638369858264923,
            -0.10112851858139038,
            -0.20883053541183472,
            -0.20672741532325745,
            -0.1464562565088272,
            0.26219725608825684,
            -0.21114850044250488,
            0.05145943909883499,
            0.04166358336806297,
            0.15753786265850067,
            0.11811687052249908,
            0.028055885806679726,
            -0.3603817820549011,
            0.23368971049785614,
            -0.10267320275306702,
            -0.10641712695360184,
            0.02153429388999939,
            -0.1443801373243332,
            0.09626656025648117,
            -0.055013399571180344,
            -0.3047106862068176,
            -0.4535064101219177,
            0.12024647742509842,
            -0.09241178631782532,
            -0.07585446536540985,
            -0.2568860352039337,
            0.1815086305141449,
            -0.08844707906246185,
            0.05031445249915123,
            0.053436536341905594,
            -0.03160739317536354,
            -0.22182223200798035,
            -0.128968745470047,
            0.34495002031326294,
            0.3088570833206177,
            -0.29812321066856384,
            -0.029822176322340965,
            0.23614147305488586,
            0.25434595346450806,
            0.353819876909256,
            0.167994424700737,
            0.20795610547065735,
            0.3099386990070343,
            0.10452636331319809,
            0.2890219986438751,
            0.053498804569244385,
            -0.23823000490665436,
            -0.24918228387832642,
            0.21299412846565247,
            0.21646630764007568,
            0.07044703513383865,
            0.19812241196632385,
            0.1936335414648056,
            0.03946547955274582,
            0.23886561393737793,
            -0.27431440353393555,
            0.3909796476364136,
            -0.2755199670791626,
            0.18653474748134613,
            0.11729275435209274
          ],
          [
            -0.18018247187137604,
            0.25514569878578186,
            0.06271282583475113,
            0.10479489713907242,
            -0.19327811896800995,
            0.05492519214749336,
            0.2759350836277008,
            0.2738235294818878,
            -0.1884002685546875,
            0.1592586189508438,
            -0.15537387132644653,
            0.06635165214538574,
            -0.20200344920158386,
            0.15856269001960754,
            -0.098614901304245,
            0.20124806463718414,
            -0.11600258946418762,
            0.3537158668041229,
            -0.3142731487751007,
            -0.2629266381263733,
            -0.04022059589624405,
            0.2881268858909607,
            -0.07872362434864044,
            -0.07135508954524994,
            -0.012941564433276653,
            -0.06975653767585754,
            -0.005815812386572361,
            0.009750694036483765,
            -0.04137599095702171,
            -0.04197322949767113,
            -0.149484321475029,
            -0.20769251883029938,
            -0.3363707661628723,
            -0.11742642521858215,
            0.07511480897665024,
            0.25272661447525024,
            0.267432302236557,
            0.2756771743297577,
            0.36037033796310425,
            0.3288162052631378,
            -0.061911821365356445,
            0.1468484252691269,
            -0.10354206711053848,
            -0.12363655120134354,
            0.049562402069568634,
            0.24990059435367584,
            0.018221288919448853,
            0.05774764344096184,
            -0.1740504652261734,
            0.098207987844944,
            -0.08306119590997696,
            0.0979166254401207,
            -0.35227492451667786,
            0.2471592277288437,
            -0.05278919264674187,
            -0.2728693187236786,
            -0.09612296521663666,
            -0.04455909878015518,
            0.2801002562046051,
            -0.08861058205366135,
            -0.4164655804634094,
            -0.2641136646270752,
            0.20666614174842834,
            -0.16571961343288422
          ],
          [
            0.39885470271110535,
            0.4317738115787506,
            0.13245707750320435,
            -0.011484149843454361,
            0.13920733332633972,
            0.3691462278366089,
            0.20340611040592194,
            0.22952686250209808,
            0.03871547803282738,
            0.14578641951084137,
            0.23370085656642914,
            0.09154294431209564,
            0.10072922706604004,
            -0.12178677320480347,
            0.036729950457811356,
            0.3204616904258728,
            0.08495324105024338,
            -0.025249367579817772,
            0.06177634745836258,
            -0.14056497812271118,
            -0.046720847487449646,
            0.2152072936296463,
            -0.1080954298377037,
            -0.01968529261648655,
            -0.32923460006713867,
            -0.008977166377007961,
            0.42898672819137573,
            -0.17123578488826752,
            -0.15056593716144562,
            -0.06137437745928764,
            0.23931430280208588,
            -0.2456340491771698,
            -0.13524329662322998,
            0.23092971742153168,
            0.07391420751810074,
            0.31252521276474,
            0.31346049904823303,
            0.146596759557724,
            -0.18472641706466675,
            0.004358510486781597,
            -0.27027684450149536,
            0.21399186551570892,
            -0.30083975195884705,
            -0.07558895647525787,
            0.26648399233818054,
            -0.333233505487442,
            0.25771364569664,
            0.022754671052098274,
            -0.23025625944137573,
            -0.19312730431556702,
            0.26962465047836304,
            -0.005202039144933224,
            -0.2004426121711731,
            -0.1372855007648468,
            0.01971365697681904,
            -0.32143133878707886,
            -0.23579509556293488,
            0.08446687459945679,
            -0.2667677700519562,
            -0.19507154822349548,
            -0.015638992190361023,
            -0.040336910635232925,
            -0.2652278244495392,
            -0.26021215319633484
          ],
          [
            0.03794870525598526,
            -0.27960875630378723,
            -0.08880600333213806,
            -0.1703205555677414,
            0.16801345348358154,
            -0.1626628190279007,
            0.14033013582229614,
            -0.04287321865558624,
            0.059116628021001816,
            -0.20877067744731903,
            -0.05482082813978195,
            0.08169586211442947,
            -0.4151313602924347,
            0.03249721974134445,
            0.28756460547447205,
            -0.34505248069763184,
            0.14562222361564636,
            -0.33550214767456055,
            -0.147729754447937,
            -0.35505443811416626,
            0.306743323802948,
            0.18616124987602234,
            -0.0853997990489006,
            -0.26521849632263184,
            -0.22097471356391907,
            -0.3879414498806,
            -0.21414875984191895,
            0.10833737999200821,
            0.013967970386147499,
            -0.0029363485518842936,
            0.042203038930892944,
            -0.22583608329296112,
            0.3312852084636688,
            0.09804392606019974,
            0.11075074225664139,
            0.2584201693534851,
            0.14816784858703613,
            -0.09267321228981018,
            0.23295876383781433,
            -0.06584754586219788,
            -0.2781405448913574,
            -0.21556280553340912,
            -0.13362829387187958,
            -0.16839562356472015,
            0.06868674606084824,
            0.0048941574059426785,
            0.12590928375720978,
            0.023877330124378204,
            -0.1865701675415039,
            -0.038186218589544296,
            0.02055884525179863,
            -0.12404309213161469,
            -0.27286210656166077,
            0.09912580996751785,
            0.22783997654914856,
            -0.25490355491638184,
            -0.17249175906181335,
            0.12962503731250763,
            -0.09398911893367767,
            -0.02338664047420025,
            -0.3433203101158142,
            -0.07802475988864899,
            -0.208943709731102,
            0.005789982620626688
          ],
          [
            0.16176502406597137,
            0.08182299882173538,
            -0.13957734405994415,
            -0.27839580178260803,
            0.36226946115493774,
            0.2136291116476059,
            0.13987146317958832,
            0.3503451943397522,
            0.09465291351079941,
            0.1819997876882553,
            0.04497293010354042,
            -0.1492767632007599,
            -0.24050012230873108,
            -0.15716859698295593,
            0.20919004082679749,
            0.00988014880567789,
            -0.18045583367347717,
            0.13803347945213318,
            0.1692298948764801,
            0.3229503035545349,
            -0.039402756839990616,
            0.362790584564209,
            0.10507505387067795,
            -0.2600328326225281,
            0.1359746754169464,
            0.035822026431560516,
            0.10370040684938431,
            0.3010181486606598,
            -0.1062135323882103,
            0.13479401171207428,
            -0.1574506014585495,
            -0.1612493246793747,
            0.08928168565034866,
            0.04105336591601372,
            0.02075531892478466,
            -0.15187454223632812,
            0.11631473153829575,
            0.2471986711025238,
            -0.10524045675992966,
            0.22085852921009064,
            0.2118745595216751,
            0.15387722849845886,
            -0.048282988369464874,
            -0.1491936296224594,
            0.3249753713607788,
            -0.1515997052192688,
            -0.15528665482997894,
            -0.15218815207481384,
            -0.23993486166000366,
            0.04258042573928833,
            0.4907669126987457,
            0.2466646283864975,
            -0.059962064027786255,
            0.1695147454738617,
            0.3103041648864746,
            -0.2748487889766693,
            0.2205410897731781,
            0.10869751870632172,
            -0.39500176906585693,
            0.08010154962539673,
            -0.061811719089746475,
            0.3195285499095917,
            -0.13741697371006012,
            0.15303882956504822
          ],
          [
            -0.3039337694644928,
            0.013955829665064812,
            0.14798834919929504,
            0.2607472836971283,
            0.02934989519417286,
            -0.17522266507148743,
            0.3770066797733307,
            -0.03786075860261917,
            0.06951466202735901,
            -0.04277516528964043,
            0.08449898660182953,
            -0.1288617104291916,
            0.03189224377274513,
            0.24504683911800385,
            0.2949899733066559,
            -0.32540303468704224,
            -0.21114884316921234,
            -0.29904526472091675,
            0.33510822057724,
            0.1868932843208313,
            -0.25773385167121887,
            0.018206557258963585,
            0.032649822533130646,
            0.3641853332519531,
            0.08698104321956635,
            -0.23349635303020477,
            -0.03085481934249401,
            -0.09133625775575638,
            0.18867051601409912,
            0.1260509043931961,
            -0.18098624050617218,
            0.22198259830474854,
            0.26873525977134705,
            -0.19079983234405518,
            -0.22223107516765594,
            -0.3805343806743622,
            -0.10984039306640625,
            -0.2252478301525116,
            0.2874990701675415,
            -0.09206179529428482,
            0.2590712606906891,
            -0.044348012655973434,
            -0.20157422125339508,
            -0.07676564902067184,
            -0.12240850925445557,
            -0.10154052078723907,
            0.010587794706225395,
            0.18812333047389984,
            0.17795316874980927,
            0.09434781223535538,
            -0.03982007876038551,
            -0.0003782190615311265,
            0.21482837200164795,
            0.10769432783126831,
            0.10283292084932327,
            0.043206702917814255,
            -0.39810997247695923,
            -0.0746423676609993,
            0.08680573850870132,
            -0.0951145589351654,
            0.1027132198214531,
            0.20540815591812134,
            -0.12913405895233154,
            0.05785162374377251
          ],
          [
            -0.21438747644424438,
            -0.08312326669692993,
            -0.012979578226804733,
            -0.2950194180011749,
            -0.3032951056957245,
            0.17910592257976532,
            0.08589056879281998,
            -0.34824132919311523,
            -0.2964446544647217,
            0.24249309301376343,
            0.06040501222014427,
            0.23336337506771088,
            0.03800409659743309,
            0.4556159973144531,
            -0.019634107127785683,
            -0.25984987616539,
            0.23352937400341034,
            0.003993129823356867,
            -0.06744789332151413,
            0.02632218226790428,
            -0.17239412665367126,
            -0.166747584939003,
            0.22441084682941437,
            0.3242790699005127,
            -0.263825923204422,
            0.08221077173948288,
            0.3754211664199829,
            -0.21035541594028473,
            0.2679489552974701,
            0.2609848082065582,
            -0.0038904990069568157,
            0.34932419657707214,
            -0.07801700383424759,
            -0.03186706826090813,
            -0.2593819499015808,
            -0.07261286675930023,
            0.20418986678123474,
            -0.11084732413291931,
            0.33106982707977295,
            -0.2957417070865631,
            0.26505252718925476,
            -0.17789404094219208,
            0.21773311495780945,
            0.19074219465255737,
            -0.3259453773498535,
            -0.1087915375828743,
            -0.41468486189842224,
            0.08230099827051163,
            0.047442615032196045,
            0.3448238968849182,
            0.31146949529647827,
            -0.23053814470767975,
            -0.09238363802433014,
            0.1343844085931778,
            -0.23963095247745514,
            -0.23562195897102356,
            0.2983124554157257,
            -0.11040060967206955,
            0.16419607400894165,
            0.06876090168952942,
            -0.01270461454987526,
            -0.34106433391571045,
            -0.2923862338066101,
            -0.19419750571250916
          ],
          [
            -0.10439347475767136,
            -0.018704574555158615,
            -0.04422282800078392,
            0.09752710163593292,
            -0.13463027775287628,
            0.252071350812912,
            -0.27832385897636414,
            0.11180155724287033,
            0.08363299071788788,
            -0.024345656856894493,
            0.11690793931484222,
            0.1768507957458496,
            0.21576456725597382,
            0.05886710435152054,
            0.0062648537568748,
            0.40778329968452454,
            0.20312315225601196,
            0.10470321029424667,
            -0.15737436711788177,
            -0.23454569280147552,
            -0.15606984496116638,
            0.41865864396095276,
            -0.23852688074111938,
            -0.4764469563961029,
            -0.040090497583150864,
            0.18821924924850464,
            -0.17041832208633423,
            -0.13509289920330048,
            0.13006798923015594,
            -0.18678796291351318,
            0.27923136949539185,
            -0.0947001650929451,
            0.3691060245037079,
            0.057866502553224564,
            -0.17931245267391205,
            -0.11584334820508957,
            0.15130124986171722,
            -0.25067582726478577,
            -0.11315540224313736,
            -0.12424682825803757,
            -0.003722191322594881,
            -0.26977235078811646,
            -0.03903299197554588,
            -0.2614242732524872,
            0.04397400841116905,
            0.06263552606105804,
            -0.09576623886823654,
            -0.13102126121520996,
            -0.10770270973443985,
            0.23737390339374542,
            -0.005912393797188997,
            0.3179139494895935,
            -0.04497440159320831,
            -0.2529142200946808,
            0.35920071601867676,
            0.2471860945224762,
            0.1180788055062294,
            0.05268971994519234,
            -0.13624154031276703,
            0.2167387753725052,
            -0.17028328776359558,
            0.02230241149663925,
            -0.23867198824882507,
            0.2770036458969116
          ],
          [
            -0.0717962458729744,
            -0.1580052673816681,
            0.25441643595695496,
            -0.30475345253944397,
            0.13995389640331268,
            0.16867227852344513,
            0.2146044671535492,
            0.2929629385471344,
            0.2920655608177185,
            0.36852389574050903,
            -0.013531905598938465,
            -0.17395077645778656,
            -0.08940065652132034,
            0.2527845799922943,
            0.09821051359176636,
            0.06962753087282181,
            -0.006349602248519659,
            -0.009807310998439789,
            -0.01340315118432045,
            -0.26780760288238525,
            -0.10508550703525543,
            0.02255294844508171,
            -0.004443082492798567,
            0.053101323544979095,
            0.27202001214027405,
            0.25604143738746643,
            -0.36751458048820496,
            -0.30394259095191956,
            0.2636314630508423,
            0.3431735932826996,
            0.2979208528995514,
            -0.13408926129341125,
            0.04235199838876724,
            0.016197407618165016,
            0.10574045032262802,
            0.14500948786735535,
            0.18105332553386688,
            0.1029711663722992,
            0.06916336715221405,
            -0.08966652303934097,
            0.13269983232021332,
            0.36402663588523865,
            -0.31262218952178955,
            0.033383358269929886,
            -0.2466316670179367,
            -0.06864102929830551,
            -0.22399401664733887,
            0.08000262826681137,
            -0.2187040001153946,
            0.10124179720878601,
            -0.4427527189254761,
            -0.12915372848510742,
            -0.31782233715057373,
            -0.35188227891921997,
            -0.025976404547691345,
            0.18854981660842896,
            -0.2579129934310913,
            -0.0455549955368042,
            0.12482750415802002,
            -0.22315017879009247,
            -0.03921039029955864,
            -0.01195804588496685,
            -0.15028060972690582,
            0.037149690091609955
          ],
          [
            0.20545706152915955,
            -0.08431713283061981,
            -0.3064381778240204,
            0.33483201265335083,
            0.044148918241262436,
            0.11484142392873764,
            0.18304884433746338,
            0.07923905551433563,
            -0.16053679585456848,
            -0.33466675877571106,
            -0.139881893992424,
            -0.11760523915290833,
            -0.12735238671302795,
            -0.14070691168308258,
            0.005204970948398113,
            0.039317965507507324,
            -0.2685258686542511,
            0.1684892773628235,
            -0.015657741576433182,
            0.20262615382671356,
            0.19528774917125702,
            -0.09852110594511032,
            -0.11768022924661636,
            0.20448172092437744,
            -0.08548808842897415,
            -0.2598099708557129,
            -0.23987168073654175,
            -0.0668984055519104,
            0.2534366846084595,
            0.12956503033638,
            -0.17307721078395844,
            -0.33121752738952637,
            -0.31520941853523254,
            0.31721019744873047,
            0.14775602519512177,
            -0.3585257828235626,
            -0.3345559239387512,
            -0.20016366243362427,
            0.370148241519928,
            0.013096911832690239,
            -0.1878211945295334,
            0.30430176854133606,
            0.06609554588794708,
            0.018903585150837898,
            -0.25742632150650024,
            -0.24066327512264252,
            0.3796687722206116,
            0.06826816499233246,
            0.09234505146741867,
            -0.3023184537887573,
            -0.12645384669303894,
            -0.29829472303390503,
            -0.10908669233322144,
            -0.213752880692482,
            -0.029852280393242836,
            -0.17171736061573029,
            -0.13336794078350067,
            0.32499292492866516,
            -0.1606704443693161,
            0.07898825407028198,
            -0.04435651749372482,
            -0.2526121437549591,
            -0.04128654673695564,
            0.07944335788488388
          ],
          [
            -0.05590749531984329,
            0.021086392924189568,
            -0.3288491368293762,
            0.28214478492736816,
            -0.33479043841362,
            0.19516238570213318,
            -0.1119619831442833,
            0.04695332050323486,
            0.12064271420240402,
            0.07929662615060806,
            -0.2060345709323883,
            0.1845199167728424,
            -0.06673351675271988,
            -0.07592548429965973,
            0.052965570241212845,
            0.18492767214775085,
            -0.298053503036499,
            -0.29090413451194763,
            -0.31593412160873413,
            -0.06299100816249847,
            0.20042778551578522,
            0.00989685021340847,
            -0.2895750105381012,
            -0.11021682620048523,
            0.10486020892858505,
            -0.3267234265804291,
            -0.22371144592761993,
            0.22651556134223938,
            -0.12394818663597107,
            0.238738015294075,
            -0.21926075220108032,
            -0.16989566385746002,
            0.11889201402664185,
            -0.2521000802516937,
            0.3007720708847046,
            0.11064077913761139,
            -0.3470638394355774,
            -0.12857507169246674,
            -0.2519165873527527,
            0.27379968762397766,
            -0.17661263048648834,
            0.09719109535217285,
            -0.019388549029827118,
            -0.016879836097359657,
            0.14002802968025208,
            0.19432301819324493,
            -0.16647063195705414,
            0.30259275436401367,
            -0.029329024255275726,
            0.18581794202327728,
            0.36321377754211426,
            0.09778980910778046,
            0.1359378546476364,
            0.2580701410770416,
            0.2626052796840668,
            -0.19758906960487366,
            0.27096641063690186,
            0.23825708031654358,
            -0.024025466293096542,
            0.029314594343304634,
            0.00023201032308861613,
            0.1909489929676056,
            0.12122130393981934,
            -0.04411446675658226
          ],
          [
            0.16978195309638977,
            -0.19390778243541718,
            0.11607974022626877,
            -0.12584365904331207,
            -0.21091070771217346,
            -0.20529647171497345,
            0.24053612351417542,
            0.07847573608160019,
            0.11023057252168655,
            -0.2860645353794098,
            -0.18231627345085144,
            0.26827317476272583,
            0.009999151341617107,
            -0.19999592006206512,
            0.07793740928173065,
            0.07735966145992279,
            -0.3964736759662628,
            -0.07031293958425522,
            0.13563530147075653,
            0.3936353027820587,
            0.011174027808010578,
            0.11928437650203705,
            0.2711228132247925,
            0.021515369415283203,
            0.02946123480796814,
            0.14632198214530945,
            -0.19970953464508057,
            -0.0649983286857605,
            0.1330605298280716,
            0.26404938101768494,
            0.034282684326171875,
            0.21187743544578552,
            -0.29434269666671753,
            -0.12863530218601227,
            0.31087079644203186,
            0.32008516788482666,
            -0.4440644383430481,
            0.2929355502128601,
            -0.2594335377216339,
            0.13789786398410797,
            -0.26597896218299866,
            -0.033430907875299454,
            0.3082442283630371,
            -0.04716986417770386,
            -0.3088948726654053,
            0.28068816661834717,
            0.0374094694852829,
            0.1745431125164032,
            0.01568862982094288,
            0.2082788348197937,
            -0.30439603328704834,
            0.17471358180046082,
            0.14857958257198334,
            -0.1802464723587036,
            0.21302059292793274,
            0.10539030283689499,
            0.10422936826944351,
            0.26949790120124817,
            0.2864956259727478,
            0.19461411237716675,
            0.25351712107658386,
            0.17028965055942535,
            -0.21055807173252106,
            -0.15285927057266235
          ],
          [
            0.13372749090194702,
            -0.36631786823272705,
            0.2747419774532318,
            0.09397809207439423,
            -0.19187799096107483,
            -0.02089233510196209,
            -0.24509409070014954,
            0.1632220298051834,
            0.17133675515651703,
            0.22148527204990387,
            -0.29852548241615295,
            0.22690986096858978,
            -0.26106804609298706,
            0.15427912771701813,
            0.09837933629751205,
            -0.19052600860595703,
            0.12496960908174515,
            -0.228678360581398,
            -0.11780930310487747,
            -0.2918160557746887,
            0.05839252844452858,
            0.17364007234573364,
            0.13261809945106506,
            0.22422559559345245,
            0.279266893863678,
            -0.1617039442062378,
            -0.11990617960691452,
            -0.29913702607154846,
            0.06526380777359009,
            0.24644431471824646,
            -0.22346265614032745,
            0.1814914047718048,
            -0.09742073714733124,
            -0.34944674372673035,
            -0.4015355706214905,
            0.17081353068351746,
            0.03030121512711048,
            -0.20473819971084595,
            0.10411690920591354,
            -0.2092505246400833,
            -0.05394012853503227,
            0.22763949632644653,
            0.18418031930923462,
            0.053486309945583344,
            0.038097843527793884,
            -0.42325645685195923,
            -0.057698413729667664,
            -0.05563201755285263,
            -0.40323638916015625,
            -0.32080078125,
            -0.08529388904571533,
            -0.04033267870545387,
            -0.2507475018501282,
            -0.1722850203514099,
            0.20283648371696472,
            -0.27316612005233765,
            0.31662577390670776,
            -0.3732464611530304,
            0.02336512692272663,
            0.07604757696390152,
            0.17144127190113068,
            -0.011107481084764004,
            0.1998322755098343,
            0.09492513537406921
          ],
          [
            -0.41416895389556885,
            -0.2294365018606186,
            0.20976445078849792,
            -0.1028728038072586,
            -0.13763996958732605,
            0.06151116266846657,
            0.06837531924247742,
            0.18547417223453522,
            0.0672018751502037,
            -0.06288313865661621,
            -0.00420380849391222,
            0.16507792472839355,
            -0.06677904725074768,
            0.21434901654720306,
            -0.03008114919066429,
            0.17322352528572083,
            -0.026656577363610268,
            -0.1976485550403595,
            0.06290751695632935,
            -0.23804397881031036,
            0.33598411083221436,
            -0.1527896374464035,
            -0.2734397351741791,
            0.284777969121933,
            -0.02984190732240677,
            0.21528597176074982,
            -0.41450124979019165,
            -0.11759974807500839,
            0.08544883877038956,
            0.17614489793777466,
            0.2599313259124756,
            0.31572550535202026,
            -0.05139249190688133,
            -0.09987332671880722,
            -0.24666103720664978,
            -0.11025345325469971,
            0.17110632359981537,
            -0.19570179283618927,
            -0.2923884987831116,
            0.20942644774913788,
            0.1262209117412567,
            -0.03184210881590843,
            0.3308180868625641,
            -0.17642034590244293,
            0.08120272308588028,
            0.21312129497528076,
            0.21257244050502777,
            -0.3145684599876404,
            -0.15665856003761292,
            0.15480320155620575,
            0.2173452228307724,
            0.3472687900066376,
            -0.3952816426753998,
            0.10706190764904022,
            -0.24373647570610046,
            0.10152390599250793,
            -0.2516157627105713,
            -0.04734988138079643,
            -0.004264669492840767,
            -0.09205520898103714,
            -0.20680399239063263,
            0.05175471305847168,
            -0.16131101548671722,
            -0.3748166263103485
          ],
          [
            0.32368260622024536,
            0.0918358713388443,
            0.11203636974096298,
            -0.17563371360301971,
            0.22714658081531525,
            -0.41088876128196716,
            0.1290770322084427,
            0.2532554864883423,
            -0.09156858921051025,
            0.24652251601219177,
            0.0037249422166496515,
            0.2586113512516022,
            -0.18564344942569733,
            0.24965180456638336,
            -0.02949446067214012,
            -0.020073452964425087,
            -0.36846452951431274,
            0.08529702574014664,
            -0.03655006363987923,
            -0.4136340618133545,
            0.01102039497345686,
            -0.011934136040508747,
            -0.008785003796219826,
            0.37756773829460144,
            -0.37763461470603943,
            0.29076841473579407,
            0.014077825471758842,
            -0.3399676978588104,
            0.2701970040798187,
            0.2696393132209778,
            -0.1564205437898636,
            -0.19060690701007843,
            -0.08989974856376648,
            -0.15651322901248932,
            0.024245020002126694,
            0.008617768064141273,
            -0.2980518341064453,
            -0.1666935831308365,
            -0.11913976073265076,
            -0.13502942025661469,
            0.2526576817035675,
            -0.22445939481258392,
            -0.19567261636257172,
            0.022952979430556297,
            0.10259848088026047,
            0.28096503019332886,
            -0.19250579178333282,
            0.2807709574699402,
            -0.28695181012153625,
            0.054929107427597046,
            0.07771091908216476,
            0.03679483011364937,
            0.007070991210639477,
            -0.3529667556285858,
            -0.28588834404945374,
            0.3374055027961731,
            -0.029609888792037964,
            -0.07073590904474258,
            -0.03788842260837555,
            -0.46455052495002747,
            -0.032478924840688705,
            0.13664640486240387,
            -0.3867579400539398,
            -0.22229933738708496
          ],
          [
            -0.023622892796993256,
            -0.05184004455804825,
            -0.3323349058628082,
            0.22108101844787598,
            0.04542949050664902,
            -0.06340602785348892,
            0.21770156919956207,
            -0.1390368640422821,
            0.10309197008609772,
            -0.06097395718097687,
            -0.2338525950908661,
            -0.02227327600121498,
            -0.042450759559869766,
            0.1317543387413025,
            -0.11422102898359299,
            0.26040780544281006,
            0.24170970916748047,
            -0.2582756280899048,
            0.017174379900097847,
            -0.2636261582374573,
            0.25906115770339966,
            0.05203436687588692,
            -0.1368439942598343,
            -0.0836801528930664,
            -0.30512481927871704,
            -0.3013109862804413,
            -0.03663291782140732,
            0.29058966040611267,
            0.11541680246591568,
            -0.1238550990819931,
            0.048145394772291183,
            -0.013910738751292229,
            0.2966710031032562,
            -0.175479456782341,
            0.30782848596572876,
            0.1557111144065857,
            0.19928742945194244,
            0.20777271687984467,
            0.13500545918941498,
            0.13646164536476135,
            -0.022514209151268005,
            0.10827794671058655,
            0.06156015768647194,
            0.06845374405384064,
            -0.13359837234020233,
            -0.23795993626117706,
            0.11945151537656784,
            -0.13373017311096191,
            0.06015804782509804,
            -0.12986502051353455,
            0.006864291150122881,
            -0.025859426707029343,
            0.20868784189224243,
            0.1061299592256546,
            -0.14842282235622406,
            0.10184568166732788,
            -0.11682059615850449,
            -0.2710587680339813,
            -0.10046617686748505,
            -0.33893948793411255,
            0.10968717932701111,
            -0.22307738661766052,
            -0.14124956727027893,
            -0.12269393354654312
          ],
          [
            -0.08004307001829147,
            -0.2494325190782547,
            0.19899527728557587,
            0.012306399643421173,
            0.010416458360850811,
            -0.2132713347673416,
            0.023277118802070618,
            -0.23591509461402893,
            -0.12989026308059692,
            -0.1477716565132141,
            -0.16719569265842438,
            -0.1261352002620697,
            -0.3136213719844818,
            -0.20038475096225739,
            0.014121356420218945,
            -0.07242408394813538,
            -0.20236657559871674,
            0.2018490433692932,
            -0.15636493265628815,
            0.18996070325374603,
            0.19185392558574677,
            0.28168949484825134,
            0.25767311453819275,
            -0.28099489212036133,
            0.3429073989391327,
            -0.3911024332046509,
            -0.18499156832695007,
            0.1998099386692047,
            0.19832615554332733,
            0.3429001271724701,
            0.12106409668922424,
            0.3019292652606964,
            -0.030848458409309387,
            -0.09841955453157425,
            0.3740764856338501,
            -0.19165128469467163,
            -0.3293554484844208,
            0.06518793851137161,
            0.10203968733549118,
            0.11565849930047989,
            -0.0343933142721653,
            0.15559476613998413,
            -0.1912231743335724,
            0.16180115938186646,
            0.001550117740407586,
            0.33188584446907043,
            0.051784828305244446,
            -0.3139684796333313,
            -0.17384417355060577,
            -0.051467183977365494,
            -0.09478812664747238,
            0.20930467545986176,
            -0.22588254511356354,
            -0.20786160230636597,
            -0.2869040071964264,
            -0.125052809715271,
            -0.1026373952627182,
            -0.14405007660388947,
            0.18371325731277466,
            0.3096047639846802,
            -0.11614508181810379,
            0.30072224140167236,
            0.22461839020252228,
            -0.14425738155841827
          ],
          [
            -0.10653721541166306,
            -0.16813258826732635,
            0.20938770473003387,
            -0.0025748522020876408,
            0.3302420973777771,
            -0.10018748790025711,
            -0.07160110771656036,
            -0.1393689662218094,
            -0.14714813232421875,
            0.011066270060837269,
            -0.04252403602004051,
            -0.047872014343738556,
            -0.031330596655607224,
            -0.17139901220798492,
            -0.31460869312286377,
            -0.13833478093147278,
            -0.30219486355781555,
            -0.04772350192070007,
            -0.199300616979599,
            -0.21669772267341614,
            -0.19854269921779633,
            0.04603741690516472,
            -0.20211662352085114,
            -0.18634407222270966,
            0.30269140005111694,
            0.16962367296218872,
            -0.2363467514514923,
            0.19716843962669373,
            0.2645151615142822,
            -0.11463073641061783,
            0.14034299552440643,
            0.07168135046958923,
            -0.43818724155426025,
            0.19312350451946259,
            -0.007770230993628502,
            -0.17062515020370483,
            0.08776606619358063,
            0.18973451852798462,
            0.24047459661960602,
            -0.08720974624156952,
            0.12173798680305481,
            0.08053600043058395,
            0.14936383068561554,
            -0.181723490357399,
            0.00033052286016754806,
            0.24287831783294678,
            -0.11081333458423615,
            0.13236287236213684,
            0.04456609487533569,
            -0.19373318552970886,
            -0.05591508746147156,
            0.2198324054479599,
            0.3069019615650177,
            0.43516236543655396,
            -0.09405013918876648,
            0.17662031948566437,
            -0.21656189858913422,
            -0.11555177718400955,
            -0.07615979015827179,
            0.07656648755073547,
            0.03571026772260666,
            -0.32937386631965637,
            0.02679825946688652,
            -0.11551472544670105
          ],
          [
            0.20617854595184326,
            0.10400185734033585,
            -0.1983061283826828,
            -0.09044868499040604,
            0.051009319722652435,
            0.23573210835456848,
            -0.3032647669315338,
            0.17605099081993103,
            0.15436458587646484,
            -0.017714256420731544,
            -0.17022106051445007,
            -0.05375230684876442,
            0.31426942348480225,
            -0.09984805434942245,
            -0.18066981434822083,
            -0.13398155570030212,
            -0.21151956915855408,
            -0.2010071724653244,
            0.34316471219062805,
            0.2749517261981964,
            0.11604751646518707,
            -0.15659180283546448,
            0.031629230827093124,
            0.28262466192245483,
            0.04723583534359932,
            0.2124858796596527,
            -0.04947979375720024,
            0.27616408467292786,
            -0.15006664395332336,
            0.01610598713159561,
            -0.13190267980098724,
            -0.4586441218852997,
            -0.22676660120487213,
            0.18482640385627747,
            0.2514967620372772,
            -0.2786194384098053,
            0.04768119007349014,
            0.1785207986831665,
            -0.12047045677900314,
            -0.253618061542511,
            -0.23958124220371246,
            0.13808251917362213,
            -0.27212679386138916,
            -0.16693536937236786,
            0.3132364749908447,
            0.023178081959486008,
            0.20809920132160187,
            -0.25572067499160767,
            0.040650054812431335,
            -0.11437398940324783,
            0.04665500670671463,
            -0.22598201036453247,
            -0.18850365281105042,
            0.08369056135416031,
            0.048191752284765244,
            0.2058604508638382,
            -0.31252938508987427,
            0.2634527385234833,
            -0.14192919433116913,
            -0.2912682890892029,
            -0.35638153553009033,
            0.08574725687503815,
            -0.10821370780467987,
            -0.10679134726524353
          ],
          [
            0.04582613706588745,
            -0.3036641478538513,
            0.21271434426307678,
            -0.16271142661571503,
            0.04121675342321396,
            0.1587725579738617,
            -0.05439106747508049,
            -0.2006482034921646,
            -0.07068219780921936,
            0.10851488262414932,
            -0.12520168721675873,
            -0.03387830778956413,
            -0.09723380953073502,
            0.30571448802948,
            -0.15417450666427612,
            0.2585100829601288,
            0.18820473551750183,
            -0.05729396268725395,
            -0.13640888035297394,
            0.011615654453635216,
            -0.1381833255290985,
            -0.10268731415271759,
            0.23337720334529877,
            -0.061733637005090714,
            -0.010874887928366661,
            -0.292232483625412,
            0.43534916639328003,
            -0.14808307588100433,
            -0.17902426421642303,
            -0.012131181545555592,
            0.09577541798353195,
            -0.256952166557312,
            0.09151548147201538,
            -0.14629387855529785,
            0.3396473228931427,
            0.2754758298397064,
            -0.14289651811122894,
            0.3906702995300293,
            0.1644052118062973,
            -0.04920808970928192,
            0.046332020312547684,
            0.24049855768680573,
            0.3386993706226349,
            0.05665135383605957,
            0.30720236897468567,
            0.24257007241249084,
            0.11546327918767929,
            0.2934124171733856,
            -0.05607546120882034,
            0.10262644290924072,
            -0.42871442437171936,
            0.0018302341923117638,
            0.008129838854074478,
            0.17547503113746643,
            -0.2597009241580963,
            -0.04640522226691246,
            0.3403299152851105,
            0.3117012679576874,
            -0.017679201439023018,
            0.23877209424972534,
            0.112273670732975,
            0.24535459280014038,
            -0.3692290186882019,
            -0.03395970165729523
          ],
          [
            -0.07616287469863892,
            0.23132668435573578,
            0.15927785634994507,
            -0.1115172803401947,
            0.12001583725214005,
            0.16172261536121368,
            0.3195267617702484,
            0.29979169368743896,
            -0.33730262517929077,
            0.25200673937797546,
            0.22123095393180847,
            0.2647554278373718,
            0.18432208895683289,
            -0.32031527161598206,
            -0.18197263777256012,
            0.269149512052536,
            -0.34616202116012573,
            -0.37587377429008484,
            0.1961188167333603,
            0.40303483605384827,
            -0.27545681595802307,
            0.0218681450933218,
            -0.024518707767128944,
            0.09291481226682663,
            0.0949384793639183,
            -0.3050408959388733,
            0.13130800426006317,
            0.21570448577404022,
            0.09587355703115463,
            -0.027894645929336548,
            -0.04389238730072975,
            -0.08252229541540146,
            -0.1022174209356308,
            0.19578199088573456,
            0.15221624076366425,
            0.2239818274974823,
            -0.08743175119161606,
            0.24887137115001678,
            -0.16912515461444855,
            -0.3505156934261322,
            -0.17472568154335022,
            0.155277281999588,
            -0.23061434924602509,
            -0.3717181384563446,
            0.0229906365275383,
            0.17116451263427734,
            -0.3410308361053467,
            0.05860910192131996,
            0.12446432560682297,
            -0.07477974146604538,
            -0.3025354743003845,
            -0.09671765565872192,
            0.29140162467956543,
            -0.3096907138824463,
            -0.08664841949939728,
            0.17836220562458038,
            0.2777542471885681,
            -0.13478201627731323,
            0.1941715031862259,
            -0.358093798160553,
            0.26192134618759155,
            -0.01570349559187889,
            -0.00826509203761816,
            -0.30950579047203064
          ],
          [
            -0.37403038144111633,
            -0.03702288866043091,
            0.10833483189344406,
            0.2726023197174072,
            0.1633632481098175,
            0.07221389561891556,
            -0.12471893429756165,
            -0.32797256112098694,
            -0.024128131568431854,
            -0.09345544874668121,
            0.08963242918252945,
            0.23781679570674896,
            0.0044667585752904415,
            0.030005212873220444,
            -0.18521247804164886,
            -0.15423376858234406,
            -0.12614895403385162,
            -0.279709130525589,
            0.18525086343288422,
            0.23666006326675415,
            0.13105081021785736,
            0.24047349393367767,
            -0.2681610882282257,
            0.12100256234407425,
            -0.36196383833885193,
            0.3942050635814667,
            0.09710453450679779,
            -0.23209989070892334,
            0.0631498470902443,
            -0.17874673008918762,
            -0.22815240919589996,
            0.16294001042842865,
            -0.0036982668098062277,
            -0.063957080245018,
            0.09457169473171234,
            -0.010935874655842781,
            0.2583586275577545,
            0.0703098326921463,
            0.3427218496799469,
