{"mlp": {"layers": [{"weights": [[0.1834515631198883, -0.31775760650634766], [0.2738223075866699, -0.4260137379169464], [0.09342079609632492, 0.45523539185523987], [0.3108326494693756, -0.2942168712615967], [0.23952434957027435, -0.16745352745056152], [-0.21256357431411743, -0.01754174195230007], [0.09358596056699753, 0.4559630751609802], [0.38805684447288513, 0.09480021148920059], [-0.0028983959928154945, -0.3102194666862488], [0.37142214179039, 0.20628084242343903], [0.4045329988002777, -0.3454395532608032], [-0.21587736904621124, 0.3331695795059204], [0.3172548711299896, 0.08429854363203049], [0.20311957597732544, 0.0890144407749176], [0.05042199045419693, -0.08904153108596802], [0.08695964515209198, -0.4235946536064148], [-0.3978112041950226, -0.11195956915616989], [0.05936820060014725, 0.3336822986602783], [0.0666830763220787, -0.18894155323505402], [0.2410142868757248, -0.12514731287956238], [0.11575880646705627, -0.3243454694747925], [-0.39046743512153625, 0.05372373387217522], [0.2252988964319229, -0.025349551811814308], [0.04796261340379715, 0.2297704964876175], [-0.1054532527923584, -0.23832011222839355], [0.44338828325271606, -0.3247089982032776], [0.026102997362613678, 0.4660175144672394], [-0.3143955171108246, 0.2561867833137512], [0.4564398527145386, 0.2569137215614319], [-0.3268251121044159, 0.2394283264875412], [0.3402468264102936, -0.1441768854856491], [0.017062028869986534, -0.05496114492416382]], "biases": [0.3938635289669037, -0.1898810714483261, 0.23345349729061127, 0.7099673748016357, -0.6236716508865356, -0.28249508142471313, 0.6725628972053528, 0.1542174071073532, -0.29102206230163574, -0.22380594909191132, -0.15451812744140625, 0.526246964931488, 0.5483098030090332, -0.04605729505419731, 0.15847711265087128, -0.6907761693000793, 0.3774641752243042, 0.707198441028595, -0.017994582653045654, -0.5440741777420044, -0.670452356338501, 0.09442013502120972, 0.3637506663799286, 0.4454098343849182, -0.34249553084373474, -0.5466565489768982, -0.01936856471002102, 0.0543937049806118, 0.6193470358848572, 0.5072338581085205, -0.08314429968595505, 0.02231885865330696]}, {"weights": [[-0.35577377676963806, 0.1570185273885727, 0.25227591395378113, 0.0999055802822113, -0.42778295278549194, -0.3741133511066437, 0.30996647477149963, -0.10441821068525314, -0.21105168759822845, -0.07683815062046051, 0.30924710631370544, 0.3102412223815918, 0.023394789546728134, -0.06472636759281158, -0.06467054784297943, 0.006665877066552639, -0.2690173089504242, -0.1353713721036911, -0.08330454677343369, -0.3590110242366791, -0.36440303921699524, 0.25549212098121643, 0.0012558012967929244, -0.30375051498413086, -0.11556950211524963, -0.039420004934072495, 0.079437255859375, -0.33927762508392334, 0.17730623483657837, 0.17122410237789154, -0.022607071325182915, -0.2810365855693817], [-0.17807354032993317, 0.07706034183502197, 0.15536369383335114, -0.3181372284889221, 0.12874993681907654, 0.003943150397390127, 0.3225764036178589, 0.256389319896698, -0.20176661014556885, 0.039526425302028656, -0.3440633714199066, 0.22554312646389008, -0.11930140107870102, 0.4117313325405121, 0.06124616786837578, -0.2533992528915405, -0.3852688670158386, 0.18638981878757477, -0.12885382771492004, -0.07141633331775665, -0.09467767924070358, -0.3334386348724365, 0.21207840740680695, -0.34674569964408875, 0.22507116198539734, -0.23313209414482117, -0.1173151358962059, 0.008344795554876328, 0.149922177195549, -0.10948765277862549, 0.06498830765485764, 0.07869347929954529], [-0.045094311237335205, 0.20927196741104126, -0.10560005158185959, 0.07712140679359436, 0.3317079246044159, 0.30770060420036316, 0.23509803414344788, -0.25207456946372986, -0.37092071771621704, 0.28055861592292786, 0.17719666659832, -0.20592525601387024, -0.26224422454833984, -0.2485533356666565, -0.27599912881851196, -0.22486615180969238, -0.21350659430027008, 0.27547937631607056, 0.3313341438770294, -0.14182916283607483, 0.3469308316707611, 0.2960395812988281, -0.060405198484659195, 0.245255246758461, 0.019048379734158516, -0.1360507756471634, -0.38860103487968445, -0.06019364297389984, 0.21324464678764343, -0.17083311080932617, -0.3213614225387573, -0.1947265863418579], [0.1358329802751541, 0.2669721245765686, 0.157537043094635, -0.3439730405807495, 0.08035796880722046, -0.10782812535762787, 0.22868290543556213, -0.06511716544628143, -0.28115805983543396, -0.1294495165348053, -0.13915707170963287, 0.0989358127117157, 0.3288426399230957, 0.3056485950946808, -0.20271053910255432, -0.05850033089518547, 0.008450902998447418, 0.11032514274120331, 0.2959502935409546, 0.3724971115589142, 0.3503768742084503, -0.15474002063274384, 0.4264756441116333, 0.305515855550766, 0.12148477882146835, 0.05748015269637108, -0.17178605496883392, -0.09628208726644516, 0.027855098247528076, 0.011835270561277866, -0.2128797173500061, -0.2423349916934967], [0.4284904897212982, -0.04144836962223053, 0.2669394314289093, -0.1551382690668106, -0.24780935049057007, 0.5177754163742065, -0.2167627066373825, -0.38802093267440796, 0.02023771032691002, -0.20684878528118134, -0.17905837297439575, -0.17095184326171875, -0.15990014374256134, 0.15149708092212677, 0.21124710142612457, 0.13345873355865479, -0.06162731349468231, -0.19094645977020264, -0.08471641689538956, 0.261605441570282, -0.32564347982406616, 0.2514956593513489, -0.0509679801762104, -0.0804927721619606, 0.1586454063653946, -0.27704164385795593, 0.4501963257789612, -0.1711953580379486, 0.03464069217443466, -0.11470675468444824, -0.1382473260164261, 0.05750540271401405], [-0.24143287539482117, -0.0670565739274025, 0.2613409757614136, -0.35507047176361084, -0.01481383852660656, -0.09134574234485626, -0.2957402169704437, 0.03437050059437752, -0.20779968798160553, -0.08052735775709152, -0.31261375546455383, -0.30975818634033203, -0.14932236075401306, -0.2838718295097351, 0.08012083917856216, -0.1698312610387802, 0.11829185485839844, -0.10126690566539764, -0.16356438398361206, 0.17366421222686768, 0.19463391602039337, -0.2558448016643524, -0.0880831778049469, 0.10792012512683868, -0.32535743713378906, 0.21647889912128448, 0.04209392890334129, -0.1372203379869461, 0.2616868317127228, -0.21061432361602783, -0.03342844173312187, 0.15318505465984344], [-0.05660086125135422, 0.3414657413959503, -0.08936352282762527, -0.13423116505146027, -0.32420700788497925, -0.2796633243560791, 0.0710013285279274, -0.005975639913231134, 0.3260452151298523, -0.07085467129945755, -0.012589992955327034, -0.40523561835289, 0.017523398622870445, -0.2702278792858124, 0.23628421127796173, 0.0052727870643138885, -0.33499830961227417, -0.20456744730472565, -0.20905932784080505, -0.25159770250320435, 0.3527749180793762, 0.27954620122909546, -0.020227743312716484, 0.2729869782924652, 0.05200663208961487, -0.2984696924686432, -0.2369372546672821, -0.3683922290802002, 0.06756763160228729, -0.3029995262622833, 0.001263761892914772, 0.18803757429122925], [0.2997659742832184, -0.009532478637993336, 0.00439457455649972, -0.3910973072052002, 0.31601643562316895, 0.09780032187700272, -0.2587223947048187, -0.40588364005088806, -0.010021149180829525, 0.23982642590999603, -0.05177666246891022, -0.14135700464248657, 0.33314791321754456, 0.106382355093956, 0.39331120252609253, -0.01871557906270027, 0.45628678798675537, -0.10369028151035309, -0.17681246995925903, -0.21967361867427826, -0.02536708489060402, 0.21723638474941254, 0.04480035603046417, -0.04908445104956627, -0.26295343041419983, 0.2718494236469269, -0.0020681722089648247, -0.07227887958288193, -0.17485031485557556, -0.31786221265792847, -0.19252346456050873, -0.02823713794350624], [-0.1972651183605194, -0.08181703835725784, -0.189481720328331, -0.3673655390739441, -0.22716017067432404, 0.35551297664642334, 0.08329789340496063, -0.1484297662973404, 0.1231461763381958, 0.3274420499801636, 0.15749229490756989, -0.02737169899046421, -0.3926270604133606, 0.2030753642320633, 0.03139667585492134, 0.10381973534822464, -0.08501309901475906, -0.26822954416275024, -0.13693682849407196, 0.021066509187221527, 0.12076215445995331, -0.08700086921453476, 0.19946545362472534, 0.36444374918937683, 0.2292073369026184, -0.13183709979057312, -0.27815380692481995, 0.06693639606237411, -0.17523880302906036, 0.19767791032791138, -0.3421372175216675, -0.17774870991706848], [-0.21306192874908447, -0.2779090702533722, -0.1449868530035019, -0.11739031225442886, -0.2940858006477356, -0.1331612914800644, -0.0020688315853476524, -0.11306135356426239, 0.09436070173978806, -0.14277373254299164, -0.06622351706027985, -0.0621759295463562, -0.1210331991314888, 0.07053615152835846, 0.34383851289749146, -0.2460515946149826, 0.17915423214435577, -0.3178240656852722, 0.10940030217170715, -0.20398002862930298, -0.12691748142242432, 0.2559424638748169, -0.11440606415271759, 0.3699757754802704, 0.079795703291893, 0.11020518839359283, -0.13088226318359375, -0.404975563287735, 0.0818193182349205, 0.15852947533130646, 0.09681213647127151, 0.30201467871665955], [0.2409641146659851, 0.11867021769285202, 0.2851531505584717, -0.10056980699300766, -0.18547797203063965, 0.31647032499313354, -0.027388175949454308, -0.0016658678650856018, 0.38735491037368774, 0.10042327642440796, 0.1381293386220932, -0.1621655523777008, -0.20681704580783844, 0.08179815858602524, 0.16874909400939941, 0.2982763648033142, -0.3239893317222595, -0.12992601096630096, -0.2352738231420517, -0.19229282438755035, 0.08910683542490005, 0.27703922986984253, -0.2964591383934021, 0.39939138293266296, 0.13965466618537903, -0.231670081615448, 0.0008821416995488107, 0.07139251381158829, 0.2512831687927246, -0.2888331115245819, -0.13256675004959106, 0.13978463411331177], [-0.2745969891548157, 0.34502696990966797, 0.13417713344097137, -0.2941097915172577, 0.0901690125465393, 0.15253105759620667, 0.07282622903585434, -0.3646450340747833, -0.3029402792453766, -0.33720383048057556, 0.1224353238940239, -0.16403163969516754, 0.017331654205918312, 0.3186972439289093, 0.20985840260982513, 0.3418397605419159, -0.013457068242132664, -0.011362764984369278, 0.29914286732673645, 0.014747556298971176, -0.089774951338768, -0.0016243824502453208, 0.2938353419303894, 0.3783976137638092, -0.3647039234638214, 0.2661478817462921, 0.043264877051115036, 0.36005738377571106, 0.11676465719938278, -0.07817626744508743, 0.36300167441368103, -0.10083770751953125], [-0.10378178209066391, 0.26194408535957336, -0.1943056732416153, -0.32095372676849365, 0.33147794008255005, 0.024033525958657265, 0.07975175231695175, -0.28520533442497253, -0.13091544806957245, 0.3801276385784149, -0.18595919013023376, 0.20364518463611603, -0.02231738157570362, 0.30192986130714417, 0.28181183338165283, -0.04976402595639229, 0.35480421781539917, -0.2258358895778656, 0.08127294480800629, 0.1260683536529541, 0.3546415865421295, -0.02973756194114685, -0.13200215995311737, 0.04412328079342842, 0.008928230963647366, -0.07164411246776581, -0.05784023925662041, 0.17249394953250885, 0.04331251233816147, -0.38350942730903625, 0.4176282286643982, 0.1260446459054947], [-0.3906625211238861, 0.28078579902648926, 0.15149585902690887, 0.2026023417711258, 0.07040546089410782, -0.18594330549240112, -0.13797080516815186, -0.016490204259753227, -0.18778757750988007, 0.053506605327129364, 0.0570632703602314, 0.42909303307533264, -0.19484463334083557, -0.15588921308517456, 0.0688563659787178, -0.29260021448135376, 0.2601853609085083, 0.07712437212467194, 0.4170193076133728, 0.38912567496299744, -0.18687286972999573, 0.23419827222824097, -0.03901242837309837, -0.09857504814863205, -0.026362214237451553, -0.17576119303703308, -0.18977339565753937, 0.19740265607833862, 0.07608970999717712, -0.3823656439781189, -0.11317531764507294, 0.14749307930469513], [0.3172614574432373, -0.2923722565174103, -0.09681051224470139, -0.2426789253950119, -0.3462335765361786, 0.23333868384361267, 0.16231782734394073, -0.26280537247657776, 0.2694876492023468, -0.013111270032823086, -0.2058800607919693, 0.09511853754520416, 0.0072292424738407135, -0.3718452751636505, -0.4188849627971649, -0.11563299596309662, 0.31076234579086304, -0.19640566408634186, 0.11104407906532288, 0.2048342227935791, 0.15605683624744415, -0.2547873854637146, 0.09073974192142487, -0.2608928382396698, -0.2722705006599426, 0.025661569088697433, -0.037277571856975555, -0.13713929057121277, 0.17221887409687042, -0.309156209230423, -0.21152818202972412, 0.15393084287643433], [-0.05103997141122818, -0.1680712103843689, 0.19503071904182434, 0.17853622138500214, -0.0672120600938797, -0.2514916956424713, 0.09756411612033844, -0.08178357779979706, -0.044671569019556046, -0.1116194948554039, 0.20838536322116852, 0.3292824625968933, -0.3106249272823334, 0.07195116579532623, 0.02214786410331726, 0.09526599943637848, 0.2926483750343323, 0.07417327910661697, -0.4362258017063141, -0.28452128171920776, -0.20275793969631195, -0.21515677869319916, 0.3885595500469208, 0.25651270151138306, 0.04957539588212967, 0.18646755814552307, -0.17530925571918488, -0.3592680096626282, 0.15844276547431946, 0.25101161003112793, -0.18042147159576416, -0.28136831521987915], [0.05297824740409851, 0.17407260835170746, -0.006658932659775019, -0.15889567136764526, -0.2647691071033478, 0.1930893510580063, -0.25377339124679565, 0.16128544509410858, 0.3197416663169861, 0.2779649496078491, 0.2813786566257477, -0.012299827300012112, 0.01696884259581566, 0.2183748185634613, -0.02308659814298153, -0.01794600300490856, -0.2578512728214264, 0.15486592054367065, -0.004716395866125822, 0.00010506703983992338, 0.2691788375377655, 0.4829287528991699, -0.19093826413154602, 0.2244953066110611, 0.2841377854347229, 0.2652570903301239, 0.11839432269334793, -0.11535146087408066, 0.0647212341427803, -0.2905777394771576, -0.3105608820915222, 0.23753722012043], [0.07627824693918228, -0.24490870535373688, -0.0471828393638134, -0.09759259223937988, -0.36797353625297546, -0.08612922579050064, 0.12436970323324203, -0.2876816391944885, -0.3207116425037384, -0.02310764603316784, 0.35315072536468506, -0.18157906830310822, -0.33978068828582764, -0.32412126660346985, -0.2738058865070343, -0.2895699739456177, 0.3587858974933624, 0.22373290359973907, 0.015735650435090065, 0.04761575534939766, 0.016120674088597298, 0.39737334847450256, 0.07472942769527435, -0.06986011564731598, -0.3992985486984253, 0.02379314973950386, 0.018081245943903923, -0.13574865460395813, -0.08725389093160629, 0.001959459623321891, -0.27269303798675537, -0.06837479025125504], [0.22655439376831055, -0.2853582799434662, 0.019376732409000397, 0.34220024943351746, 0.3000912070274353, 0.13158492743968964, 0.1418866515159607, -0.008121591061353683, 0.06901542097330093, -0.35780078172683716, -0.10409899801015854, -0.4396684169769287, 0.1414114534854889, 0.2820695638656616, -0.3802819550037384, 0.4177849590778351, -0.05866721272468567, -0.1531849354505539, -0.028068289160728455, 0.19409625232219696, 0.1102931797504425, -0.1447180211544037, -0.011102810502052307, -0.03397181257605553, 0.018991028890013695, -0.09773106127977371, -0.03176574036478996, 0.23907659947872162, -0.22275082767009735, -0.21025067567825317, 0.2687552571296692, -0.5200974941253662], [0.23778659105300903, -0.2578493654727936, 0.43072131276130676, 0.11017528176307678, 0.2511926591396332, 0.06678007543087006, -0.2780414819717407, 0.2741128206253052, 0.222086563706398, 0.09576548635959625, 0.17592723667621613, -0.18528227508068085, -0.25313568115234375, 0.3768061101436615, 0.11799489706754684, 0.37422916293144226, -0.13219253718852997, 0.2607871890068054, 0.016876287758350372, 0.22709105908870697, 0.07035505771636963, -0.31227800250053406, 0.14995694160461426, -0.08554363250732422, 0.04518567770719528, -0.18759644031524658, -0.3421083688735962, -0.1199229508638382, -0.32516980171203613, -0.2428303062915802, -0.30166205763816833, -0.10561547428369522], [-0.2797965705394745, -0.011733252555131912, -0.2939624786376953, 0.006705895531922579, -0.01904171146452427, -0.13953137397766113, 0.30564743280410767, 0.20682023465633392, -0.1585443913936615, -0.1353950947523117, -0.17677943408489227, 0.1475764364004135, -0.3396395444869995, 0.17754587531089783, 0.14765559136867523, 0.06593441218137741, -0.04269730672240257, 0.0829789862036705, 0.21377815306186676, 0.18969739973545074, -0.423126757144928, -0.2591361999511719, 0.4422054886817932, 0.3136945366859436, -0.18009695410728455, 0.16465763747692108, 0.1392882913351059, -0.023061523213982582, -0.03201117366552353, -0.2661849558353424, 0.3865094482898712, -0.4360589385032654], [-0.12816600501537323, 0.14325208961963654, 0.024958988651633263, 0.17132027447223663, -0.40765222907066345, -0.4129749536514282, -0.023685907945036888, -0.038515541702508926, 0.3666965365409851, 0.26858779788017273, 0.2706241011619568, 0.2386065423488617, -0.05233937129378319, 0.18831554055213928, -0.1531168818473816, -0.1293925642967224, 0.08588498085737228, -0.14166036248207092, -0.08568872511386871, 0.32164210081100464, 0.2680862247943878, 0.33555659651756287, -0.3734399676322937, 0.055855490267276764, 0.23095187544822693, -0.314502477645874, -0.10897168517112732, 0.051686592400074005, -0.20648524165153503, 0.1798141896724701, 0.10871834307909012, 0.28336426615715027], [-0.2913416922092438, 0.18926949799060822, -0.17019249498844147, 0.22017109394073486, -0.3568529784679413, 0.08370455354452133, 0.36344972252845764, 0.1631709337234497, -0.10540871322154999, 0.07655694335699081, -0.06404128670692444, 0.009408124722540379, -0.22243958711624146, -0.12363637983798981, 0.026169268414378166, -0.06089821457862854, -0.19969633221626282, -0.06262048333883286, -0.40638625621795654, 0.10177583992481232, 0.34478694200515747, -0.07133209705352783, 0.2601286768913269, 0.385165810585022, 0.10294006019830704, -0.0841577798128128, 0.31483888626098633, -0.10202382504940033, 0.10093629360198975, -0.18744932115077972, -0.30034494400024414, -0.21700027585029602], [0.01398835051804781, -0.10018628090620041, 0.09169922769069672, -0.24905329942703247, 0.37925922870635986, 0.19916899502277374, -0.46241340041160583, -0.10420668125152588, -0.2808782458305359, -0.24287056922912598, 0.014511489309370518, -0.32380369305610657, -0.2788088321685791, 0.26943111419677734, -0.05194634199142456, -0.20039139688014984, -0.19053785502910614, -0.32622256875038147, -0.04369565472006798, 0.41054567694664, -0.27902594208717346, 0.26388683915138245, -0.4034067392349243, -0.13771000504493713, 0.09168365597724915, -0.18507933616638184, 0.1129324734210968, 0.011396529152989388, -0.12283915281295776, 0.07832518219947815, 0.1259605586528778, -0.10072839260101318], [-0.16878515481948853, -0.3813755214214325, 0.13082554936408997, 0.02084234170615673, 0.2999972999095917, 0.3456198573112488, -0.007654163986444473, 0.06989328563213348, 0.12905797362327576, 0.025785507634282112, -0.2064114362001419, -0.360490083694458, 0.09779459983110428, -0.09978804737329483, -0.3845774531364441, 0.18492376804351807, -0.1657128483057022, -0.19928467273712158, 0.42420944571495056, -0.08412355184555054, -0.3834063708782196, 0.25476697087287903, -0.4222204089164734, -0.08754298835992813, -0.176508828997612, 0.27950987219810486, 0.3027344048023224, 0.0005141279543749988, 0.21072721481323242, -0.30166223645210266, -0.1660020649433136, -0.028499307110905647], [0.11363612860441208, -0.23375625908374786, 0.0584869310259819, 0.3276815414428711, -0.22223696112632751, -0.09163898974657059, -0.18951313197612762, -0.12344943732023239, 0.16615039110183716, -0.08914466202259064, -0.3081549406051636, 0.2932308614253998, -0.08295821398496628, -0.3540089428424835, -0.1376776099205017, -0.31109172105789185, 0.025412149727344513, -0.3449711501598358, -0.3944258391857147, -0.3701937794685364, 0.3863414227962494, -0.21700116991996765, 0.4137730002403259, 0.3387320339679718, 0.3407745063304901, -0.15290066599845886, 0.18540310859680176, 0.1682709902524948, -0.08097120374441147, 0.344769686460495, 0.027783427387475967, -0.08556489646434784], [0.18173424899578094, 0.13032057881355286, 0.20371413230895996, 0.0754171758890152, -0.2502534091472626, 0.15620486438274384, -0.3114786744117737, 0.20877254009246826, -0.32392141222953796, -0.012355155311524868, 0.06853765994310379, 0.19375649094581604, -0.3843185603618622, 0.11938713490962982, 0.3918474018573761, -0.23439940810203552, 0.39439278841018677, -0.17070350050926208, -0.2780926525592804, -0.14311707019805908, 0.11759106069803238, -0.16695909202098846, -0.31025221943855286, -0.012748036533594131, -0.26987776160240173, -0.33556264638900757, -0.005097190383821726, 0.049842141568660736, 0.13045182824134827, -0.264543741941452, -0.107686847448349, -0.10571098327636719], [0.08399631083011627, -0.20843730866909027, -0.16837084293365479, -0.2907526195049286, -0.2883121967315674, -0.17321063578128815, 0.16963918507099152, 0.22186976671218872, -0.3651101589202881, 0.1773352473974228, 0.35329559445381165, -0.2361108809709549, -0.08261729776859283, 0.24356070160865784, -0.2576565444469452, -0.30445319414138794, 0.14815878868103027, -0.24840132892131805, -0.33344128727912903, 0.16603200137615204, -0.07004035264253616, 0.13079898059368134, 0.1258889138698578, 0.1762821227312088, -0.3909260630607605, -0.2788485884666443, 0.07153300195932388, -0.2420046180486679, -0.2241860330104828, 0.2149306982755661, 0.2998517155647278, -0.043756406754255295], [-0.10298469662666321, 0.2705164849758148, 0.016471125185489655, -0.035734694451093674, -0.05218672752380371, 0.0025825551711022854, -0.24859565496444702, 0.27716150879859924, -0.253145694732666, -0.039582185447216034, 0.26653560996055603, -0.11651543527841568, -0.056048836559057236, 0.336502343416214, -0.07731341570615768, -0.23676560819149017, -0.22442780435085297, -0.41593214869499207, -0.2872025966644287, -0.44652509689331055, 0.5096457004547119, 0.10947253555059433, -0.10039833188056946, -0.2965744137763977, -0.18849854171276093, 0.25090256333351135, 0.006293602753430605, 0.167451873421669, 0.18490107357501984, 0.1159302145242691, -0.12560796737670898, -0.32848572731018066], [0.07298198342323303, 0.10466936975717545, -0.39028069376945496, -0.33720365166664124, 0.44089072942733765, 0.27435997128486633, 0.2566802501678467, -0.1138540580868721, -0.14626465737819672, 0.2933075428009033, 0.0978318378329277, -0.17897118628025055, -0.3754674792289734, -0.28618529438972473, -0.01199844479560852, -0.1964719295501709, -0.30634230375289917, -0.3004966080188751, 0.16713954508304596, -0.013238302432000637, 0.03871714323759079, 0.0809665098786354, 0.14277544617652893, 0.13044865429401398, -0.3815554976463318, -0.25922149419784546, -0.11641477793455124, 0.33374157547950745, 0.10105457156896591, -0.3725926876068115, 0.3498076796531677, -0.3470527231693268], [0.31723225116729736, 0.06171121820807457, 0.26196229457855225, -0.058441486209630966, 0.29977932572364807, -0.2928859293460846, -0.1257087141275406, -0.28001976013183594, -0.24054889380931854, -0.19162125885486603, 0.1367419958114624, -0.30245164036750793, -0.006046467926353216, 0.31843841075897217, 0.38569602370262146, 0.009670019149780273, 0.3664272427558899, -0.20824185013771057, 0.317597359418869, -0.04510201886296272, -0.15747247636318207, 0.22205975651741028, -0.432748943567276, 0.03640223667025566, -0.31553027033805847, -0.33707529306411743, 0.2848457396030426, 0.17736712098121643, -0.04748886823654175, 0.2011309266090393, 0.14074410498142242, -0.1977967470884323], [-0.28945276141166687, -0.301332950592041, 0.1143043264746666, -0.30104076862335205, 0.001965666189789772, 0.041905686259269714, 0.23182475566864014, 0.007148155942559242, -0.0007880364428274333, 0.2077486515045166, 0.24740822613239288, 0.09898757934570312, -0.21929366886615753, -0.20621754229068756, 0.44947710633277893, -0.1299131065607071, -0.14217887818813324, -0.26330089569091797, -0.20541103184223175, 0.4091093838214874, -0.14633651077747345, 0.11358396708965302, -0.015272971242666245, 0.2451823353767395, -0.037288032472133636, -0.07831185311079025, -0.09429275244474411, 0.22672635316848755, -0.016968771815299988, -0.24858295917510986, -0.08438130468130112, -0.4243547022342682]], "biases": [0.017841912806034088, 0.09083183109760284, -0.011738182045519352, 0.14349941909313202, -0.13642852008342743, 0.15987089276313782, 0.08149369060993195, -0.1010369136929512, -0.09490638226270676, 0.08904822170734406, -0.10595081001520157, -0.11706296354532242, 0.0810147076845169, -0.10779176652431488, 0.06587982922792435, 0.04518784582614899, -0.1633632332086563, 0.10625871270895004, 0.13212643563747406, 0.06974228471517563, 0.07867849618196487, -0.20373453199863434, 0.021716143935918808, 0.10732456296682358, -0.01360340230166912, -0.08873744308948517, -0.12390775978565216, 0.1255994439125061, 0.13495264947414398, -0.15538379549980164, -0.12308261543512344, -0.18098455667495728]}, {"weights": [[0.2546556890010834, 0.04575466364622116, 0.004095595795661211, 0.2595832645893097, 0.2081739902496338, 0.12782451510429382, 0.3628964424133301, -0.2987346351146698, -0.0010042766807600856, -0.13201789557933807, -0.351782888174057, -0.21907465159893036, 0.07539412379264832, 0.3139722943305969, 0.1954343020915985, 0.06706711649894714, -0.3990180492401123, -0.2817680239677429, -0.20813515782356262, 0.2524383068084717, 0.22204510867595673, 0.060845185071229935, -0.3845670819282532, 0.3079702854156494, 0.43741050362586975, 0.029973642900586128, -0.15977440774440765, 0.3013591766357422, 0.13167721033096313, 0.1487385779619217, 0.15007449686527252, -0.12822547554969788], [-0.0748884305357933, 0.1832151710987091, 0.07509864121675491, -0.10992655158042908, -0.04434091970324516, 0.1346723884344101, -0.3898094594478607, -0.07044602930545807, -0.23185420036315918, -0.14642128348350525, -0.09711363166570663, 0.23671838641166687, -0.04353532940149307, -0.21697363257408142, -0.3178184926509857, 0.10209117829799652, -0.03598961979150772, -0.26206696033477783, 0.03129523992538452, -0.25995707511901855, -0.33845484256744385, -0.03564394637942314, -0.21853230893611908, 0.36048343777656555, -0.021092580631375313, -0.19975511729717255, -0.1799454689025879, -0.09300060570240021, 0.0005176672711968422, 0.03119189850986004, -0.2381608635187149, 0.2417571097612381], [-0.3599655330181122, 0.1808893233537674, -0.2573629915714264, -0.21811874210834503, 0.39460787177085876, -0.15461556613445282, 0.0361848846077919, -0.14687633514404297, 0.36998143792152405, -0.4691830277442932, 0.10164642333984375, -0.20034688711166382, -0.33618128299713135, 0.215913325548172, -0.2434960901737213, 0.06533138453960419, -0.031910497695207596, 0.13795819878578186, 0.2788480818271637, 0.3595081865787506, 0.21698516607284546, 0.17767658829689026, -0.019610116258263588, -0.08991072326898575, 0.1972188651561737, 0.2524257302284241, -0.2091776579618454, 0.20922954380512238, -0.30402085185050964, -0.2266467660665512, -0.17894448339939117, 0.39917051792144775], [0.31256338953971863, 0.05754027143120766, -0.21646445989608765, -0.0949455052614212, 0.08045993000268936, -0.09501570463180542, -0.1611907184123993, 0.26278212666511536, 0.34506896138191223, -0.1776627153158188, -0.07805459946393967, -0.3280870318412781, -0.0772404670715332, 0.31553229689598083, -0.34697583317756653, -0.3625408709049225, 0.10252376645803452, -0.21592532098293304, 0.20705460011959076, 0.048216916620731354, -0.1568150818347931, -0.3942386507987976, -0.2317696362733841, 0.05780462548136711, 0.15925432741641998, 0.09813063591718674, -0.15767081081867218, 0.3785884380340576, 0.11699289828538895, 0.032987695187330246, -0.2682775557041168, -0.38342708349227905], [-0.22762280702590942, 0.2709644138813019, 0.17917422950267792, 0.13168759644031525, 0.0924992710351944, 0.3571350574493408, -0.268900990486145, 0.4859243333339691, -0.05889173597097397, 0.30289408564567566, 0.2927960753440857, 0.16446542739868164, 0.4314652383327484, -0.25294387340545654, -0.08871853351593018, 0.28640422224998474, 0.12775154411792755, 0.029342684894800186, -0.1783003807067871, -0.10367077589035034, 0.10011006146669388, 0.3285400867462158, -0.12298350036144257, 0.22567453980445862, -0.26485902070999146, 0.24694809317588806, -0.06369403004646301, -0.38895297050476074, 0.39440420269966125, -0.08084080368280411, -0.29362964630126953, 0.28032252192497253], [-0.2619301378726959, 0.22026224434375763, 0.11229702085256577, -0.12528830766677856, 0.09505821764469147, 0.2964116930961609, -0.043984249234199524, 0.21556685864925385, 0.11581461876630783, 0.28299999237060547, 0.2913726270198822, -0.18786108493804932, -0.2774299383163452, -0.0003407527110539377, -0.15244343876838684, 0.2447071522474289, -0.13387644290924072, 0.3470593988895416, 0.4226624369621277, 0.03265999257564545, 0.16039282083511353, -0.18592560291290283, 0.3080526888370514, -0.08066648989915848, -0.15101461112499237, -0.01283212099224329, 0.11124079674482346, -0.20780596137046814, -0.12848225235939026, -0.17183934152126312, 0.37563231587409973, 0.25541600584983826], [0.04888227954506874, -0.2994644343852997, -0.21258847415447235, -0.08069764077663422, 0.44022002816200256, -0.046630870550870895, 0.1876855343580246, -0.26716306805610657, -0.23983211815357208, 0.1360418200492859, -0.28175923228263855, -0.33531126379966736, -0.37940895557403564, -0.2869322597980499, 0.030603580176830292, 0.18302138149738312, -0.118021160364151, -0.082412950694561, 0.20291131734848022, -0.07110516726970673, -0.017689594998955727, 0.3398018777370453, 0.2348223477602005, -0.3404315710067749, -0.2953472435474396, -0.2308937907218933, -0.3194190561771393, 0.2920036315917969, -0.3853902518749237, -0.03363858535885811, -0.15423278510570526, 0.184527188539505], [-0.14628610014915466, -0.3227138817310333, -0.3471490740776062, 0.3274395763874054, -0.299042671918869, -0.2771435081958771, 0.2396654337644577, 0.24013686180114746, 0.38457509875297546, 0.19979675114154816, -0.3513263761997223, -0.04298417270183563, -0.26561933755874634, 0.21553504467010498, -0.29912862181663513, 0.2496507465839386, 0.1752793937921524, -0.17640894651412964, 0.158278688788414, -0.2547672688961029, -0.0783827006816864, 0.3665902018547058, -0.11828888952732086, 0.44736871123313904, 0.27844780683517456, -0.3792303502559662, 0.16812555491924286, -0.23287798464298248, -0.13917742669582367, 0.0063392468728125095, -0.14085623621940613, 0.154141366481781], [-0.11892236769199371, 0.31996506452560425, 0.16701065003871918, -0.35244113206863403, 0.2848128080368042, -0.15771953761577606, 0.042691513895988464, 0.19377639889717102, 0.10973069816827774, -0.014762744307518005, -0.2889360785484314, -0.23616524040699005, -0.38136860728263855, 0.15005213022232056, -0.32702139019966125, -0.03464947268366814, -0.36575886607170105, -0.014588534832000732, 0.1143217384815216, 0.11085662245750427, -0.31697478890419006, 0.3669978082180023, -0.22180819511413574, 0.353373259305954, 0.18161477148532867, -0.13321322202682495, 0.2523421049118042, 0.004544829949736595, 0.27349981665611267, 0.18411405384540558, 0.2611272931098938, -0.010018914937973022], [0.03247679024934769, -0.30592021346092224, -0.3305518627166748, -0.1408754587173462, 0.1493777483701706, 0.04143162816762924, -0.23403295874595642, 0.19322629272937775, 0.062155500054359436, 0.02314179576933384, 0.050869084894657135, -0.2517549395561218, -0.34801363945007324, -0.06593652814626694, -0.30103304982185364, -0.35626354813575745, -0.18573123216629028, -0.3118058145046234, -0.33609917759895325, -0.2860507369041443, -0.3382900655269623, -0.25700873136520386, -0.32443949580192566, -0.1911347508430481, -0.1682007759809494, -0.15386740863323212, 0.06092969328165054, -0.3471831977367401, -0.1411752551794052, 0.3585982024669647, 0.08454889804124832, -0.19635994732379913], [0.2649315595626831, -0.06704740971326828, -0.1730174422264099, 0.15965352952480316, 0.2513805031776428, -0.2268083095550537, 0.11087094992399216, -0.44413793087005615, 0.32326120138168335, 0.18835031986236572, -0.07065542787313461, 0.32676443457603455, -0.12254016846418381, -0.10887116938829422, 0.3055476248264313, -0.04586821794509888, -0.2283710241317749, 0.007609947584569454, 0.21871048212051392, 0.3542805016040802, -0.18955522775650024, -0.03499036654829979, 0.22788819670677185, 0.407524436712265, 0.003561601508408785, -0.07300937920808792, -0.12597161531448364, -0.17773449420928955, 0.2718108594417572, -0.14387524127960205, -0.17035448551177979, -0.1960650086402893], [-0.1154351532459259, -0.3960416615009308, -0.3204658627510071, -0.11746245622634888, 0.23710884153842926, 0.3496333062648773, -0.10684589296579361, -0.12188303470611572, -0.312680184841156, 0.3133881986141205, -0.09205570071935654, -0.05268475040793419, 0.1410110592842102, 0.10854019224643707, -0.42577064037323, 0.021670635789632797, -0.041132278740406036, 0.3845146596431732, -0.39295873045921326, -0.271824449300766, 0.1220017746090889, -0.20811399817466736, -0.33875831961631775, 0.07315639406442642, 0.2899748682975769, 0.4129602313041687, 0.16990983486175537, -0.14922970533370972, -0.2629174292087555, 0.35344573855400085, -0.2759513854980469, -0.025568436831235886], [-0.1877860724925995, 0.06356046348810196, -0.2471461445093155, -0.08928561210632324, 0.37736380100250244, -0.01953696273267269, -0.004688981454819441, 0.1841285675764084, -0.04583244398236275, 0.12133853137493134, 0.18145966529846191, 0.1026279553771019, 0.15186381340026855, 0.15795978903770447, -0.16401204466819763, -0.08523843437433243, -0.05565868318080902, -0.12061554938554764, 0.287830650806427, -0.034341130405664444, 0.03240356594324112, -0.04264175519347191, 0.10209643095731735, 0.0627909004688263, -0.18997742235660553, -0.321846604347229, -0.07655046880245209, -0.21355664730072021, -0.43129855394363403, 0.18090765178203583, -0.049376145005226135, 0.3656764030456543], [-0.17812782526016235, -0.07320673018693924, -0.18955886363983154, -0.35632163286209106, -0.016096530482172966, -0.26680412888526917, -0.24707850813865662, -0.0760999321937561, 0.12448510527610779, -0.3066405653953552, 0.3680416941642761, 0.4226914644241333, 0.04604824632406235, 0.31768515706062317, 0.2949058413505554, -0.26826009154319763, 0.3659447431564331, 0.43992292881011963, 0.1866886168718338, 0.24740010499954224, 0.2797316312789917, 0.3794895112514496, -0.17242401838302612, 0.012604922987520695, -0.24612456560134888, -0.32786548137664795, -0.34823301434516907, -0.02392098680138588, 0.2757154107093811, -0.015988189727067947, 0.36631613969802856, -0.22867506742477417], [-0.19738873839378357, -0.06347805261611938, 0.31584063172340393, 0.3552144169807434, -0.09806887805461884, 0.1882404088973999, -0.019331399351358414, -0.25828030705451965, -0.20459502935409546, 0.00022076774621382356, -0.0867978185415268, -0.06866368651390076, 0.07557328790426254, 0.3371566832065582, -0.18950027227401733, -0.3222815692424774, -0.1879422813653946, 0.36146068572998047, 0.05309721454977989, -0.29672732949256897, -0.08066333830356598, -0.20521968603134155, -0.3518640697002411, -0.2090865671634674, -0.05160924792289734, 0.06664051860570908, -0.043180979788303375, -0.27613627910614014, 0.14420051872730255, 0.23230408132076263, 0.09597824513912201, -0.19365669786930084], [-0.16879364848136902, 0.11298514902591705, 0.2529498040676117, 0.33915308117866516, -0.34229105710983276, 0.4546286463737488, 0.05007569491863251, 0.04927133023738861, 0.3046267628669739, -0.22253574430942535, 0.06162085384130478, 0.08341904729604721, -0.07160243391990662, 0.2732570767402649, 0.1467297077178955, -0.19777512550354004, -0.25087660551071167, 0.33227911591529846, 0.08281084150075912, 0.21130460500717163, 0.19892840087413788, 0.285426527261734, 0.17358602583408356, 0.30351635813713074, -0.3107070326805115, 0.3941504657268524, 0.20726734399795532, -0.3148130178451538, 0.027382656931877136, -0.037218112498521805, -0.45202478766441345, 0.14545555412769318], [-0.2480413019657135, -0.13549719750881195, 0.18681372702121735, -0.31113871932029724, -0.18907497823238373, 0.3380683362483978, -0.21086114645004272, -0.26631736755371094, -0.353005051612854, -0.21022789180278778, -0.04208827763795853, -0.3874073028564453, -0.28141501545906067, 0.09738466888666153, -0.35692739486694336, 0.3917072117328644, 0.0839262306690216, -0.41023844480514526, 0.06334603577852249, 0.00678629707545042, 0.014579124748706818, -0.24940286576747894, -0.052436113357543945, 0.125981867313385, 0.2296491414308548, 0.06215742230415344, 0.11888096481561661, 0.3205137848854065, 0.2875611484050751, 0.2847611606121063, -0.012698469683527946, 0.29923415184020996], [-0.16480284929275513, 0.060851290822029114, -0.09383804351091385, -0.2271977961063385, -0.11588622629642487, -0.4423691928386688, 0.2050582617521286, -0.26093077659606934, -0.14381368458271027, 0.09785594046115875, 0.1394999772310257, -0.2830195724964142, -0.20637768507003784, -0.10762402415275574, -0.11557938158512115, -0.3788006603717804, 0.07846106588840485, -0.182073175907135, -0.127483531832695, -0.1013956293463707, 0.2784207761287689, -0.3483460247516632, 0.4095112681388855, 0.045420121401548386, -0.15335285663604736, -0.13137094676494598, 0.4117894768714905, -0.09328378736972809, -0.4342503845691681, -0.04239742457866669, -0.4449807107448578, 0.07630878686904907], [0.1157364472746849, -0.08769788593053818, 0.07116923481225967, 0.1723034381866455, 0.12352658808231354, -0.4077395796775818, -0.015690362080931664, -0.3760075271129608, 0.21456271409988403, 0.006809122394770384, 0.09006380289793015, -0.03500598669052124, -0.05339100584387779, -0.21298091113567352, -0.34703975915908813, -0.1644449234008789, -0.3713352084159851, 0.12448490411043167, -0.4057435691356659, 0.00960397906601429, 0.00977241713553667, -0.1896732598543167, -0.31735992431640625, -0.127899169921875, -0.026739278808236122, 0.23885519802570343, -0.23503895103931427, -0.3243914842605591, 0.05115390941500664, 0.3596136271953583, 0.15338754653930664, -0.011954167857766151], [0.16442711651325226, 0.20543621480464935, 0.4529014527797699, -0.08423349261283875, 0.02413475513458252, 0.03363442420959473, 0.12499336898326874, 0.19572773575782776, 0.16586834192276, -0.07832545787096024, 0.043263956904411316, 0.22687852382659912, 0.19212132692337036, 0.32709062099456787, 0.14410555362701416, -0.22198574244976044, -0.02635989524424076, 0.02046528272330761, 0.062085770070552826, -0.03769516572356224, 0.006469046697020531, -0.3204694390296936, 0.3766986131668091, -0.2882320284843445, 0.38811835646629333, 0.330375611782074, 0.3228361904621124, 0.27796071767807007, 0.32447686791419983, 0.07574976235628128, 0.13702979683876038, -0.249522402882576], [0.07651723176240921, -0.2883358895778656, -0.27724871039390564, -0.11636008322238922, 0.09021012485027313, -0.36041441559791565, 0.35997650027275085, -0.0010176054202020168, -0.020745841786265373, 0.2980830669403076, 0.02936519682407379, -0.06612147390842438, -0.11641152948141098, 0.08619646728038788, 0.29234185814857483, -0.17471210658550262, -0.031865496188402176, 0.325998455286026, 0.3136674761772156, -0.017317991703748703, -0.37834686040878296, -0.30379512906074524, -0.3586083948612213, -0.32803279161453247, -0.3951328694820404, 0.4392676055431366, -0.24170570075511932, -0.3712399899959564, -0.20972207188606262, -0.20057232677936554, 0.3696223199367523, 0.37380167841911316], [0.28965339064598083, 0.34836825728416443, 0.0031753394287079573, 0.02620527893304825, 0.1202622726559639, -0.2362881302833557, 0.3980425298213959, -0.20530593395233154, 0.34380143880844116, 0.33368825912475586, -0.2113334834575653, -0.05119618400931358, 0.06228868290781975, 0.3519716262817383, -0.03614396974444389, -0.09404567629098892, 0.20108039677143097, -0.2851521968841553, -0.15722747147083282, 0.39613497257232666, 0.20793072879314423, -0.06643863767385483, 0.3335305452346802, -0.3820897042751312, -0.302640438079834, -0.06923651695251465, 0.04974701255559921, 0.07879156619310379, 0.24661701917648315, -0.01793074421584606, -0.15247134864330292, -0.29458415508270264], [-0.1407977193593979, -0.13307830691337585, -0.2785212993621826, 0.147057443857193, -0.3749706745147705, -0.334944486618042, 0.08357899636030197, 0.13844536244869232, -0.3483949899673462, -0.3620738983154297, -0.3420562744140625, 0.3550713360309601, 0.18598932027816772, 0.11549142003059387, 0.01669425331056118, 0.29034358263015747, -0.40399476885795593, 0.19348309934139252, -0.2970297634601593, 0.12143499404191971, -0.21667833626270294, 0.23550327122211456, 0.3365749418735504, -0.08078136295080185, -0.13228170573711395, 0.24959821999073029, 0.392374187707901, 0.12654368579387665, 0.21600210666656494, -0.06124277412891388, -0.1538935899734497, 0.41214999556541443], [0.25439023971557617, 0.20570282638072968, -0.1405196338891983, 0.28516653180122375, 0.04792162775993347, 0.16401390731334686, 0.1862078160047531, 0.10693295300006866, 0.31862008571624756, 0.3974267840385437, 0.42098960280418396, -0.18913932144641876, 0.1255413293838501, 0.30863291025161743, 0.3558817505836487, 0.16139809787273407, 0.09666885435581207, -0.17458252608776093, 0.16152423620224, 0.055273376405239105, -0.011335840448737144, 0.38594067096710205, -0.18930356204509735, -0.3064725399017334, -0.34501755237579346, -0.17049941420555115, -0.24550165235996246, 0.27232834696769714, -0.012941746041178703, -0.2801195979118347, -0.4199625253677368, -0.1532818228006363], [0.05439957603812218, 0.3760145306587219, -0.21053184568881989, -0.3916204869747162, -0.2044934779405594, -0.3014765977859497, 0.1316642463207245, -0.030287714675068855, 0.11721014231443405, 0.3917313516139984, -0.0852375254034996, -0.11031383275985718, 0.26676860451698303, 0.2682243883609772, 0.004310959950089455, -0.24582910537719727, -0.31830859184265137, 0.04317522048950195, -0.029186023399233818, -0.029056666418910027, 0.16514849662780762, 0.37538018822669983, 0.02130764350295067, 0.20937226712703705, -0.19295790791511536, -0.29811739921569824, 0.036076340824365616, -0.4139859974384308, -0.34703290462493896, -0.26792389154434204, 0.1988600641489029, -0.18193894624710083], [-0.09543315321207047, -0.20927183330059052, -0.21092452108860016, -0.19547657668590546, -0.010472390800714493, 0.11042892932891846, -0.17805926501750946, 0.059841398149728775, -0.031217046082019806, -0.10369870066642761, -0.28963539004325867, -0.4089455008506775, 0.022069578990340233, 0.16677820682525635, -0.1673300415277481, -0.04045350104570389, 0.033325158059597015, 0.10044848918914795, 0.12938044965267181, -0.33945751190185547, 0.22578108310699463, -0.1854817420244217, -0.14782732725143433, 0.36436396837234497, -0.18090015649795532, 0.17644262313842773, -0.07245564460754395, -0.1965402066707611, -0.40055397152900696, 0.10207613557577133, 0.14210544526576996, 0.3740995228290558], [-0.13820399343967438, 0.07968078553676605, 0.18781094253063202, 0.014441689476370811, 0.3734891414642334, 0.3114464282989502, -0.23213045299053192, -0.3683966398239136, 0.35082101821899414, -0.23875680565834045, 0.07394500076770782, -0.01932307705283165, 0.06275953352451324, 0.09410152584314346, -0.22793975472450256, 0.2804575264453888, 0.09195825457572937, 0.32651227712631226, -0.07960187643766403, -0.07130473107099533, -0.32867884635925293, -0.37406980991363525, 0.14867885410785675, 0.11524059623479843, -0.3615055978298187, -0.03885803744196892, 0.21720688045024872, 0.2049526423215866, 0.28697332739830017, -0.12710513174533844, -0.16579261422157288, -0.32905691862106323], [0.01052800565958023, 0.17592409253120422, 0.005573525559157133, 0.3324935734272003, -0.1020529642701149, -0.2895142138004303, 0.28207653760910034, -0.24429632723331451, 0.2469114065170288, -0.28997689485549927, 0.22472865879535675, -0.3709891736507416, -0.14443999528884888, -0.4371466040611267, -0.19763167202472687, 0.06703047454357147, 0.21686126291751862, 0.23541437089443207, 0.38211169838905334, -0.06171087920665741, 0.28043651580810547, -0.18068435788154602, -0.20544110238552094, -0.12519189715385437, 0.4415774941444397, 0.4785681962966919, -0.1568305343389511, -0.10123538970947266, -0.2908254861831665, -0.1749475598335266, -0.4203967750072479, 0.012318207882344723], [0.34772583842277527, -0.05929039418697357, 0.3673970699310303, -0.3700275421142578, -0.1665775328874588, 0.2975013256072998, 0.16943107545375824, 0.2888457775115967, -0.20295915007591248, -0.3026331663131714, -0.3426743149757385, -0.09075963497161865, -0.02711876668035984, -0.4112059473991394, -0.06336332857608795, 0.27075374126434326, -0.27341458201408386, -0.29702404141426086, -0.3214617967605591, -0.04390309751033783, 0.09158580750226974, 0.3461499512195587, -0.06769580394029617, 0.10316724330186844, -0.29443588852882385, -0.0037539734039455652, 0.27459517121315, -0.4697887599468231, 0.25851356983184814, -0.029371559619903564, 0.06992041319608688, 0.2247796505689621], [0.13255290687084198, 0.4028536081314087, -0.06522668898105621, -0.35710981488227844, -0.29792892932891846, 0.19436056911945343, 0.22759699821472168, 0.2933482527732849, -0.049604739993810654, 0.248437762260437, 0.06259825080633163, 0.21336539089679718, 0.2711435854434967, 0.3103335499763489, 0.2993384897708893, 0.4365941882133484, -0.2358095645904541, 0.07369282096624374, 0.2340095490217209, -0.1903245747089386, -0.24516139924526215, 0.2571338415145874, -0.3501136600971222, 0.01268569566309452, -0.37489697337150574, -0.19222654402256012, -0.17117905616760254, -0.16074849665164948, 0.17178700864315033, -0.18208211660385132, -0.03528432548046112, -0.4203726053237915], [0.27920636534690857, -0.19047141075134277, 0.019722390919923782, -0.39717966318130493, -0.17597553133964539, 0.013360142707824707, 0.22918462753295898, -0.3615565598011017, -0.07614362984895706, -0.263001948595047, -0.1945158690214157, -0.16984769701957703, -0.40233731269836426, -0.3487206995487213, -0.259653776884079, -0.28074178099632263, 0.06518140435218811, -0.29283028841018677, 0.30723199248313904, 0.08776277303695679, 0.06881418824195862, 0.1929256021976471, -0.29504847526550293, -0.18487219512462616, 0.018171390518546104, 0.1526167094707489, 0.13686613738536835, 0.24206000566482544, 0.14457328617572784, -0.2087317854166031, -0.27996858954429626, 0.29541856050491333], [-0.36219045519828796, 0.013451702892780304, 0.2416219562292099, 0.27190351486206055, 0.3120386302471161, 0.07837062329053879, 0.15013958513736725, -0.24387139081954956, -0.19088827073574066, 0.3440071940422058, 0.3049497902393341, -0.2526744604110718, -0.1883334070444107, 0.25156518816947937, 0.13252869248390198, 0.3538437783718109, -0.28020691871643066, -0.1283208131790161, -0.14168278872966766, -0.3324042856693268, 0.42951396107673645, -0.00903970468789339, 0.012624709866940975, -0.0682053491473198, 0.15564005076885223, 0.3515687584877014, -0.11295916140079498, -0.3386734426021576, -0.06705440580844879, 0.11441820114850998, -0.3552193343639374, -0.4194287657737732]], "biases": [0.1968892514705658, 0.04348907247185707, -0.17471197247505188, 0.0554560162127018, -0.09698134660720825, -0.06410486251115799, 0.11957933753728867, -0.16688236594200134, 0.019906269386410713, -0.09448904544115067, 0.03093024343252182, -0.04852340370416641, -0.1702153980731964, -0.16726775467395782, 0.002360317623242736, 0.14033061265945435, -0.032476190477609634, -0.13698755204677582, -0.17057952284812927, -0.1435791701078415, -0.1336180418729782, -0.033938486129045486, -0.08138613402843475, -0.1981586366891861, 0.06129045784473419, -0.08395985513925552, -0.12587006390094757, -0.0031709165778011084, -0.13858197629451752, -0.12972255051136017, 0.08847135305404663, -0.06711767613887787]}, {"weights": [[-0.27655577659606934, -0.0936117097735405, -0.03682522848248482, -0.3109683394432068, -0.3516227900981903, -0.13257800042629242, -0.08796186000108719, -0.13158319890499115, -0.1005033478140831, -0.37948453426361084, 0.32327911257743835, -0.0758153572678566, -0.3844888210296631, -0.41672998666763306, -0.045743152499198914, 0.3440776765346527, -0.008370058611035347, 0.282970130443573, -0.3489222526550293, -0.37157389521598816, -0.13889530301094055, -0.2165827453136444, 0.0449971966445446, 0.21704956889152527, 0.2494358867406845, -0.16918125748634338, -0.2907679080963135, 0.4146135747432709, 0.27733802795410156, 0.28640440106391907, -0.28200075030326843, -0.24417874217033386], [-0.29931047558784485, 0.3079344630241394, -0.3310980498790741, 0.11590207368135452, 0.26137086749076843, 0.23990710079669952, -0.29637858271598816, -0.08494577556848526, 0.15774667263031006, -0.051563363522291183, 0.27156683802604675, 0.049828749150037766, 0.06448236107826233, 0.2698040008544922, -0.32984036207199097, -0.004470453131943941, -0.2499377429485321, 0.45658501982688904, -0.37152597308158875, -0.10455424338579178, -0.1419999599456787, -0.44593319296836853, -0.327881783246994, -0.143133282661438, -0.21700718998908997, -0.3175193965435028, 0.1770789623260498, 0.08381278067827225, -0.05420204997062683, 0.05250480771064758, 0.2673608362674713, 0.1724429428577423], [-0.33137717843055725, -0.3726085424423218, -0.11541758477687836, 0.2600557208061218, 0.29580411314964294, -0.2822630703449249, -0.24360325932502747, 0.15894225239753723, -0.12730038166046143, -0.2503143548965454, -0.36033228039741516, -0.2583940327167511, 0.1363389492034912, 0.25360921025276184, -0.20767582952976227, -0.4217861592769623, -0.247877836227417, -0.1457381546497345, 0.061653196811676025, -0.03055001236498356, 0.1651674509048462, 0.14750102162361145, -0.4044594168663025, -0.15731240808963776, -0.2627665400505066, 0.23290950059890747, -0.14076176285743713, -0.10188732296228409, 0.4138072431087494, -0.19501082599163055, 0.11788762360811234, -0.24178552627563477], [0.2601488530635834, -0.3108704090118408, -0.07049001753330231, 0.07336477935314178, 0.09027622640132904, 0.25382915139198303, 0.1368410587310791, 0.14927004277706146, 0.39421796798706055, 0.2467612624168396, -0.06383398920297623, -0.13908541202545166, -0.12802255153656006, -0.22925660014152527, 0.2424798160791397, -0.33577919006347656, 0.18540991842746735, 0.14662593603134155, -0.19052466750144958, -0.24894553422927856, 0.34902364015579224, -0.1683255285024643, 0.04452722147107124, -0.08335398882627487, 0.3354782164096832, -0.009718089364469051, -0.41371598839759827, 0.05804072692990303, 0.30866095423698425, -0.10557036846876144, -0.2946845591068268, -0.0010586380958557129], [0.2633326053619385, -0.23568424582481384, 0.3614344894886017, -0.413865864276886, -0.3090963065624237, 0.02189280278980732, -0.2367016077041626, -0.20810839533805847, -0.2462378889322281, 0.04506494104862213, 0.2696780562400818, -0.10605474561452866, -0.2980559170246124, 0.10921660810709, 0.07690523564815521, -0.015623579733073711, -0.14961396157741547, 0.28581205010414124, 0.08874914050102234, -0.37298449873924255, -0.1022384837269783, 0.05713951960206032, -0.37314659357070923, -0.05713481828570366, 0.15083852410316467, -0.11332736164331436, -0.19540414214134216, -0.268523633480072, 0.34820371866226196, -0.2022874802350998, -0.33401918411254883, -0.19327369332313538], [0.1736726462841034, 0.1241573765873909, -0.21952907741069794, 0.4157494604587555, -0.3617000877857208, -0.06430961936712265, -0.22604398429393768, 0.4196380376815796, -0.23995466530323029, -0.2697177231311798, 0.23524440824985504, 0.3872970640659332, -0.4050959050655365, -0.02996062859892845, -0.1731288880109787, 0.20592878758907318, -0.16228164732456207, -0.20668116211891174, 0.30831533670425415, 0.14460407197475433, 0.33624541759490967, -0.10659889131784439, 0.23959238827228546, 0.11541759222745895, 0.28302597999572754, -0.30996716022491455, -0.1880701780319214, -0.23234806954860687, 0.2680034339427948, -0.3264589309692383, 0.1767078936100006, -0.1543910801410675], [-0.20513930916786194, -0.40829020738601685, 0.21377557516098022, -0.28652259707450867, 0.2153591364622116, 0.3917560279369354, -0.17195944488048553, -0.3784838914871216, -0.3419916331768036, 0.25041258335113525, 0.10837230831384659, -0.12220217287540436, 0.0849580466747284, -0.35200533270835876, 0.12141451239585876, 0.26848289370536804, 0.025266900658607483, 0.3412850499153137, 0.332079142332077, -0.3187471032142639, -0.25655487179756165, -0.44910192489624023, 0.4257206320762634, 0.060886677354574203, 0.18265847861766815, 0.06121855601668358, -0.24713166058063507, -0.17490632832050323, -0.39696237444877625, -0.3400951027870178, 0.2303229123353958, -0.39402255415916443], [0.3927420973777771, -0.048542656004428864, -0.08685284852981567, -0.1592862755060196, -0.2825649082660675, -0.3726256191730499, 0.014593579806387424, 0.3536699414253235, -0.3472127914428711, -0.02585529536008835, 0.29605212807655334, -0.30909645557403564, -0.3145855665206909, -0.3267343044281006, -0.31586384773254395, -0.09162749350070953, 0.3125631511211395, -0.17384915053844452, 0.22938741743564606, -0.32670897245407104, -0.31131675839424133, -0.08247004449367523, 0.2944055497646332, 0.0655440092086792, 0.058948833495378494, -0.19197215139865875, 0.26703810691833496, 0.29498112201690674, -0.3676661550998688, -0.2521211802959442, -0.3243035078048706, 0.35484811663627625], [0.020028071478009224, 0.22562827169895172, 0.371393620967865, 0.11380191892385483, -0.4203152060508728, 0.14084374904632568, 0.1290910243988037, 0.014519316144287586, -0.2536482512950897, 0.38494253158569336, 0.09386520832777023, 0.036784399300813675, -0.23171402513980865, 0.20740020275115967, 0.3027959167957306, -0.3950161635875702, -0.3834277093410492, -0.10352077335119247, 0.1923937201499939, -0.2747608721256256, 0.08322402089834213, -0.3782142698764801, 0.13631874322891235, 0.37028443813323975, 0.2614634037017822, 0.10372503846883774, 0.3752046525478363, -0.02974063530564308, 0.3414432406425476, 0.12817642092704773, -0.28516045212745667, 0.0003447705530561507], [-0.28033339977264404, 0.39540737867355347, -0.20186610519886017, -0.17403820157051086, -0.28256756067276, -0.1398802101612091, 0.4968411326408386, -0.13996678590774536, -0.23892919719219208, -0.13979850709438324, 0.12672366201877594, 0.10040760040283203, -0.17475683987140656, 0.11399812996387482, -0.23723408579826355, -0.3354337215423584, -0.20740096271038055, 0.06454802304506302, -0.21434834599494934, 0.1220836490392685, 0.1692061722278595, 0.33808085322380066, 0.1987343281507492, 0.232634037733078, -0.25191760063171387, -0.2324531376361847, 0.3418412208557129, 0.250725656747818, 0.07003358751535416, 0.26316213607788086, -0.3529314696788788, 0.34211674332618713], [-0.4001150131225586, 0.3166729211807251, 0.051024917513132095, 0.08276444673538208, 0.20771899819374084, 0.37133893370628357, -0.22865396738052368, -0.3678165674209595, 0.09236838668584824, 0.11037050932645798, 0.2019701898097992, -0.003814494702965021, 0.3022978901863098, 0.3188440501689911, -0.06807852536439896, 0.06753282994031906, 0.3462182581424713, -0.3227015435695648, 0.16830700635910034, -0.18366733193397522, -0.2077963650226593, 0.3492421507835388, 0.1345689296722412, 0.0930812656879425, -0.022081313654780388, 0.09678060561418533, 0.3018527328968048, 0.16675597429275513, -0.3693190813064575, -0.21542151272296906, -0.07382764667272568, -0.12831571698188782], [-0.31045448780059814, 0.24740292131900787, 0.37691283226013184, 0.26991692185401917, 0.3719194829463959, -0.4091372489929199, -0.10986703634262085, -0.283613383769989, -0.3972012400627136, 0.402631938457489, -0.21491016447544098, -0.42796868085861206, -0.1897362470626831, 0.2389274388551712, 0.07422056049108505, 0.16324763000011444, 0.24438829720020294, 0.5365491509437561, -0.4200230538845062, -0.08305361866950989, 0.4694923460483551, -0.13823029398918152, 0.08344143629074097, -0.15034931898117065, 0.24375639855861664, -0.1174023374915123, -0.0034381572622805834, -0.13352033495903015, 0.32280033826828003, -0.3157339096069336, -0.012194369919598103, -0.06338796019554138], [0.2504643201828003, -0.2046763300895691, -0.35063543915748596, 0.10504714399576187, 0.23197172582149506, -0.17401109635829926, -0.330565482378006, 0.35244596004486084, 0.34626027941703796, 0.02432345785200596, 0.17554454505443573, 0.01250518299639225, -0.004663754720240831, 0.022936740890145302, -0.3163546025753021, -0.24491363763809204, 0.3550942540168762, 0.3018917739391327, 0.10376296192407608, -0.2851612865924835, -0.40004482865333557, 0.2520723342895508, -0.15721924602985382, -0.3337201476097107, -0.3724011480808258, -0.10922960937023163, 0.14398357272148132, 0.37916943430900574, -0.14304371178150177, 0.17394384741783142, 0.055456288158893585, 0.18440616130828857], [-0.4182913899421692, 0.20439092814922333, -0.08836354315280914, -0.17243634164333344, -0.09396304190158844, 0.12570920586585999, -0.16697128117084503, -0.28735408186912537, 0.18440887331962585, 0.0852215439081192, -0.006642644293606281, -0.0694931149482727, 0.2846740186214447, 0.2663724422454834, -0.03653169795870781, -0.0712297335267067, 0.18822772800922394, -0.29824936389923096, 0.0273299477994442, 0.31060799956321716, -0.164787158370018, -0.2114112824201584, 0.3312431275844574, 0.3091672658920288, 0.2511855959892273, -0.24624373018741608, 0.21056348085403442, -0.3769676685333252, -0.23794180154800415, 0.2030155062675476, 0.18731792271137238, 0.1604224592447281], [-0.32499825954437256, -0.28252974152565, -0.04224186763167381, 0.046609822660684586, 0.022631393745541573, -0.13479551672935486, 0.34623727202415466, 0.14164066314697266, -0.03042961098253727, 0.43053102493286133, -0.12922772765159607, 0.0685679018497467, 0.10593615472316742, -0.328622967004776, -0.027406126260757446, 0.10000371932983398, 0.1325012594461441, -0.28485262393951416, 0.3045557141304016, -0.30817681550979614, 0.04320238158106804, -0.16360220313072205, 0.038680240511894226, 0.35809004306793213, 0.16173268854618073, -0.2840365171432495, -0.3033304214477539, -0.02276483178138733, -0.15359096229076385, -0.016537463292479515, -0.28997018933296204, 0.013109404593706131], [0.19575360417366028, 0.22912615537643433, 0.26773762702941895, -0.006505854893475771, 0.3847576677799225, 0.147608682513237, 0.3792818784713745, 0.06908465176820755, 0.15833239257335663, 0.09919373691082001, -0.09431532770395279, 0.008626987226307392, 0.2947506606578827, 0.17227187752723694, 0.03615126386284828, -0.34933048486709595, 0.4269542396068573, 0.05838899686932564, -0.043006863445043564, 0.42393219470977783, -0.1428946703672409, 0.1512235701084137, 0.09414830058813095, -0.29059576988220215, -0.38025718927383423, -0.04550378397107124, -0.09802050143480301, -0.15688151121139526, -0.22192569077014923, 0.3728462755680084, -0.32641881704330444, 0.16555297374725342], [-0.3500330150127411, -0.22501032054424286, -0.26204755902290344, 0.1337481290102005, -0.24904420971870422, -0.2723676860332489, 0.19861799478530884, 0.057319849729537964, -0.10683626681566238, 0.140689879655838, 0.17002172768115997, 0.06971164792776108, 0.015767687931656837, -0.03772076964378357, 0.19626200199127197, 0.4653507173061371, -0.26570525765419006, 0.31501448154449463, -0.06478913873434067, 0.22661270201206207, -0.08196629583835602, -0.039914570748806, -0.117667555809021, 0.2283233106136322, 0.37596556544303894, 0.1555875986814499, -0.20543348789215088, -0.4053984582424164, -0.2663209140300751, -0.21791592240333557, 0.2921719551086426, 0.22191829979419708], [-0.24681338667869568, -0.14449943602085114, 0.08408371359109879, -0.3728775978088379, 0.21049879491329193, -0.0859837457537651, -0.35278257727622986, 0.2474341243505478, 0.3538397550582886, 0.11903002858161926, 0.08296021819114685, 0.3579254448413849, 0.4178313910961151, 0.3281066417694092, -0.21741195023059845, 0.2592294216156006, -0.3413624167442322, -0.39215031266212463, -0.052990078926086426, 0.481487512588501, 0.38534167408943176, 0.39016690850257874, 0.23069334030151367, -0.14360877871513367, 0.24590425193309784, -0.1838218718767166, 0.11623355746269226, -0.09825412184000015, 0.15523378551006317, 0.2465837150812149, 0.08718055486679077, -0.16580116748809814], [-0.2158452570438385, 0.36783504486083984, 0.3208022117614746, -0.2669951915740967, -0.3284226655960083, -0.04838775843381882, 0.4043525755405426, 0.2820163071155548, 0.19280405342578888, 0.11739014834165573, 0.17045272886753082, 0.07264362275600433, -0.009984103962779045, -0.04045967012643814, -0.1495988816022873, 0.3719414472579956, 0.31965920329093933, 0.13663166761398315, 0.040947481989860535, 0.08451974391937256, 0.3801615834236145, -0.37789976596832275, -0.40718457102775574, -0.04614521935582161, 0.22596126794815063, -0.20041459798812866, 0.2598748505115509, -0.32125627994537354, -0.04115552082657814, 0.13635511696338654, -0.1445472091436386, 0.1544858068227768], [-0.0566420815885067, -0.4062575697898865, 0.23465749621391296, -0.14130161702632904, -0.031599078327417374, 0.22540676593780518, 0.25753217935562134, -0.17051967978477478, 0.20892424881458282, 0.28651195764541626, 0.33832550048828125, 0.28229597210884094, -0.3256528973579407, -0.3658374845981598, -0.20041057467460632, -0.2149185985326767, -0.18684671819210052, -0.39973875880241394, 0.1648760586977005, 0.2704305052757263, -0.366917222738266, 0.028055038303136826, 0.3176635205745697, 0.3624782860279083, 0.264091432094574, 0.26994529366493225, -0.333755761384964, -0.22170746326446533, 0.01588582806289196, 0.21421553194522858, 0.48699086904525757, 0.0012883046874776483], [-0.043627891689538956, 0.042665302753448486, -0.35931697487831116, 0.25909140706062317, -0.30284956097602844, 0.18207351863384247, 0.255561500787735, 0.21377351880073547, -0.3378051221370697, -0.4102514386177063, -0.4119415283203125, 0.3161092698574066, -0.3094920217990875, 0.0005653473781421781, -0.0018605685327202082, -0.24794697761535645, -0.34927743673324585, -0.215922549366951, 0.13823512196540833, 0.06307698041200638, -0.2178584188222885, -0.24983817338943481, -0.11950325965881348, 0.16700893640518188, -0.3065072000026703, -0.18801246583461761, -0.07679433375597, -0.31857985258102417, 0.16668406128883362, -0.02330312505364418, -0.07227955758571625, 0.2822538912296295], [0.2691824734210968, 0.33629468083381653, 0.272327721118927, 0.26150357723236084, -0.014245204627513885, 0.4505731761455536, -0.06973299384117126, 0.06765060126781464, -0.36709126830101013, -0.22474506497383118, -0.001679585431702435, 0.08935949206352234, 0.2637712061405182, -0.1725597083568573, -0.34380391240119934, -0.1714063286781311, -0.2524031400680542, -0.3236979842185974, 0.11965584754943848, -0.010819442570209503, -0.06357508897781372, -0.0002607299538794905, 0.20740745961666107, -0.021599577739834785, 0.37623584270477295, 0.1798078864812851, -0.2687774896621704, 0.09140641987323761, 0.15266266465187073, -0.31803134083747864, -0.18898451328277588, 0.24744611978530884], [0.08159289509057999, 0.33723798394203186, 0.05141279473900795, 0.3908797800540924, -0.1943189948797226, -0.33922019600868225, -0.076734259724617, 0.2770756781101227, 0.26659849286079407, 0.2556178569793701, 0.08535504341125488, -0.04578705132007599, 0.07907475531101227, -0.03935646265745163, 0.012928948737680912, 0.07012318819761276, -0.3370855152606964, 0.2098887413740158, -0.07022680342197418, 0.3905462324619293, -0.11843204498291016, 0.3377673327922821, -0.3798465430736542, 0.29784271121025085, 0.3221869170665741, 0.19945335388183594, -0.1422272026538849, -0.06845822185277939, -0.2703739404678345, -0.1675386279821396, 0.4028707444667816, 0.27217426896095276], [-0.042004458606243134, -0.2368486225605011, -0.25367191433906555, 0.2952485680580139, -0.18865184485912323, -0.22852401435375214, -0.19763654470443726, 0.3766205310821533, -0.28369030356407166, -0.2874354124069214, -0.2038145363330841, 0.2518889009952545, -0.20028746128082275, 0.022039083763957024, 0.21650730073451996, 0.30511531233787537, -0.09166055172681808, 0.37744054198265076, 0.1830277442932129, 0.06512727588415146, -0.31055334210395813, -0.29426848888397217, 0.11063390225172043, 0.10225756466388702, -0.32888057827949524, 0.03722454607486725, -0.2312534600496292, -0.21378198266029358, -0.03908577561378479, 0.12456762790679932, 0.2118791788816452, 0.2815110385417938], [0.022875530645251274, 0.29585105180740356, -0.10980280488729477, 0.337445467710495, -0.21245914697647095, 0.2307273894548416, 0.24242323637008667, -0.005073443055152893, 0.3492961525917053, -0.11755199730396271, -0.15763434767723083, 0.27323704957962036, 0.2663108706474304, -0.1731499880552292, -0.3685251474380493, 0.2692849338054657, -0.12777963280677795, 0.30200380086898804, 0.2641974091529846, -0.21771889925003052, 0.22995112836360931, -0.22030772268772125, 0.11054757982492447, 0.12648294866085052, 0.42375415563583374, -0.1994459480047226, -0.3600611090660095, -0.035765040665864944, -0.21291403472423553, -0.22910094261169434, 0.13001857697963715, 0.40940213203430176], [-0.2612442970275879, 0.30005624890327454, -0.07965227216482162, 0.28039970993995667, -0.08176875114440918, 0.06598743051290512, -0.04239700734615326, 0.13209915161132812, -0.18636566400527954, -0.04002442955970764, 0.10352525115013123, -0.3879897892475128, 0.44190043210983276, -0.3639504909515381, 0.37721943855285645, -0.07731609046459198, 0.3990671932697296, 0.3984389007091522, 0.19709406793117523, 0.5071874856948853, 0.1513376533985138, 0.3074364960193634, -0.17355267703533173, -0.35362181067466736, 0.11040053516626358, 0.15286614000797272, -0.10048365592956543, -0.3742485046386719, -0.25459957122802734, 0.23449668288230896, -0.13426236808300018, -0.18445512652397156], [0.3062223494052887, -0.1820405125617981, -0.023563599213957787, -0.023955950513482094, -0.05004673823714256, -0.4266311228275299, 0.046165965497493744, 0.37210825085639954, -0.4283868372440338, 0.16728481650352478, 0.2145880162715912, 0.42024144530296326, 0.42365333437919617, -0.12986095249652863, -0.11214586347341537, -0.1349743902683258, -0.135258287191391, -0.18726158142089844, 0.3219446837902069, 0.2747785449028015, 0.42377933859825134, 0.23988504707813263, -0.03009035624563694, 0.2922702133655548, 0.16706249117851257, -0.3027923107147217, -0.27580949664115906, -0.24834761023521423, 0.06827853620052338, -0.31481778621673584, 0.10388490557670593, -0.21562305092811584], [-0.18885396420955658, 0.264978289604187, 0.3135179579257965, 0.1632305532693863, -0.337710440158844, 0.10665108263492584, 0.14485567808151245, -0.4019377529621124, 0.4076085090637207, -0.42079707980155945, -0.21005132794380188, -0.1422138810157776, -0.2520935535430908, 0.40868255496025085, -0.12487119436264038, 0.06868226826190948, -0.022081781178712845, 0.30869975686073303, 0.08347252756357193, 0.3454948365688324, -0.25230568647384644, -0.19504402577877045, 0.050598450005054474, -0.014564103446900845, 0.3070668578147888, -0.3755044639110565, 0.08132068812847137, -0.388214111328125, 0.3653959631919861, 0.08461320400238037, 0.3289496600627899, 0.25761404633522034], [-0.19636480510234833, -0.04227421432733536, -0.3640598654747009, 0.2315429449081421, 0.2664492726325989, 0.14745725691318512, -0.15744946897029877, -0.12134624272584915, -0.2575269937515259, 0.03760550543665886, -0.3650413751602173, -0.23892663419246674, -0.4481579661369324, -0.09587398171424866, -0.33753442764282227, 0.15142500400543213, 0.22092585265636444, 0.036776889115571976, 0.33576294779777527, -0.2096777707338333, 0.07040591537952423, -0.17786623537540436, 0.021679561585187912, -0.023339159786701202, 0.22248224914073944, -0.41574394702911377, -0.0407182052731514, 0.3799697458744049, -0.3239564299583435, -0.18028657138347626, -0.40320467948913574, 0.22799052298069], [0.006329487077891827, -0.13569235801696777, 0.36010390520095825, 0.07948499917984009, -0.1748664677143097, -0.2075517773628235, 0.18092425167560577, 0.27682480216026306, 0.3462795913219452, -0.12545134127140045, -0.20429113507270813, -0.23754598200321198, -0.26949450373649597, -0.20687802135944366, -0.1489892452955246, 0.42330145835876465, -0.3916434645652771, 0.10554628074169159, -0.31405624747276306, 0.05212420970201492, -0.06925009191036224, -0.07357873022556305, 0.11094257235527039, 0.05687982216477394, -0.1502123922109604, -0.3624646067619324, -0.26336434483528137, 0.09399629384279251, -0.28130167722702026, 0.04838341847062111, -0.34480589628219604, 0.3716299831867218], [0.35015204548835754, -0.21161209046840668, 0.3035523295402527, -0.13252301514148712, 0.12547890841960907, 0.12665821611881256, 0.14990893006324768, 0.02372613549232483, 0.24582137167453766, 0.4502788484096527, 0.16995295882225037, 0.006661640014499426, 0.08634979277849197, 0.28453242778778076, -0.34476175904273987, 0.06142563745379448, 0.14547111093997955, 0.34662926197052, -0.3391262888908386, -0.14315149188041687, 0.25689947605133057, 0.37783631682395935, 0.03263888880610466, -0.3371582627296448, 0.28316789865493774, -0.2746390402317047, -0.17692436277866364, -0.1413395255804062, -0.13712053000926971, 0.13798612356185913, -0.1793922334909439, -0.0640796348452568], [0.12207447737455368, -0.21811553835868835, 0.2100917547941208, -0.3155231177806854, 0.32324010133743286, -0.25696897506713867, 0.15471579134464264, -0.13611215353012085, -0.026336193084716797, 0.0016439341707155108, 0.2400454729795456, 0.27329301834106445, -0.3149842321872711, 0.3329891264438629, 0.11695434898138046, 0.3389015197753906, 0.16066758334636688, 0.0894368439912796, -0.2934000492095947, 0.295844167470932, 0.27206870913505554, -0.3362930715084076, -0.27422282099723816, -0.01674608141183853, 0.3424309492111206, -0.1749490648508072, -0.09650646150112152, -0.07470598071813583, -0.38841867446899414, 0.007261733524501324, -0.21162059903144836, 0.12476103007793427]], "biases": [0.12954455614089966, 0.052988819777965546, -0.18017622828483582, 0.0905178040266037, 0.16796906292438507, -0.0537310354411602, 0.050824858248233795, 0.022197512909770012, 0.02901541255414486, -0.05074835196137428, -0.029603444039821625, -0.0967421606183052, 0.1137547716498375, -0.15479585528373718, 0.11789959669113159, 0.137191504240036, 0.04271434247493744, 0.03838418796658516, -0.07694831490516663, 0.12126094847917557, 0.08560013025999069, -0.08009888976812363, -0.09432108700275421, -0.09753413498401642, 0.09387113898992538, 0.08741205930709839, -0.08862768858671188, -0.1397840976715088, 0.12771299481391907, -0.11001178622245789, -0.15562787652015686, 0.09940993785858154]}, {"weights": [[-0.08141088485717773, -0.2514234185218811, -0.16887663304805756, -0.15322598814964294, 0.07350669056177139, -0.01466680783778429, -0.3107633590698242, -0.3169237971305847, -0.3979186713695526, 0.13701947033405304, -0.21772649884223938, -0.4220837950706482, 0.4260486364364624, -0.3400736153125763, 0.11193639785051346, -0.3463752865791321, -0.35131144523620605, -0.21187958121299744, 0.25649958848953247, -0.03599592670798302, 0.024796875193715096, 0.29526597261428833, 0.1974145621061325, 0.424777626991272, -0.07701408118009567, 0.12774322926998138, 0.1622607707977295, -0.34693315625190735, -0.31663253903388977, 0.0075166733004152775, 0.2785952687263489, -0.27268290519714355], [0.17784181237220764, -0.008638549596071243, -0.13432961702346802, -0.18025922775268555, 0.3302138149738312, -0.32431212067604065, -0.24974772334098816, 0.30688968300819397, 0.035965487360954285, 0.23264993727207184, 0.16441592574119568, 0.08253119885921478, 0.27396395802497864, -0.13299691677093506, -0.23566612601280212, -0.1695866584777832, -0.38751527667045593, -0.11872091144323349, 0.26293301582336426, -0.3989880681037903, 0.2424413561820984, -0.22923505306243896, 0.05791376158595085, -0.2167917788028717, -0.1451353281736374, -0.008066936396062374, 0.3465396761894226, -0.10450027883052826, 0.05680421367287636, 0.020303279161453247, -0.20653602480888367, -0.059550732374191284], [0.046331312507390976, 0.0719124898314476, -0.40410086512565613, 0.3554401397705078, 0.1737736463546753, -0.11336255073547363, 0.35527539253234863, -0.3530626595020294, -0.34793150424957275, 0.2583440840244293, -0.29115018248558044, -0.3652351200580597, 0.2478724867105484, -0.2798756957054138, -0.28510910272598267, -0.12822823226451874, 0.11029639840126038, -0.17162837088108063, -0.16935721039772034, -0.4029017388820648, 0.35594478249549866, -0.03713364154100418, -0.10461610555648804, 0.01274054404348135, -0.0678076297044754, 0.25870734453201294, 0.09101448953151703, 0.3592713177204132, 0.12701044976711273, 0.32630395889282227, 0.1112930029630661, 0.3266031742095947], [-0.268768846988678, -0.003467138623818755, -0.18523293733596802, 0.4495997726917267, 0.4262063503265381, -0.05670184642076492, -0.1710766702890396, 0.36760780215263367, 0.18953682482242584, 0.38479360938072205, -0.29861801862716675, 0.34441548585891724, -0.31300705671310425, -0.3385660946369171, -0.4135887026786804, -0.2156400978565216, 0.2560061514377594, 0.41537371277809143, -0.15659748017787933, -0.18060827255249023, -0.20319825410842896, -0.4289257824420929, -0.23501436412334442, 0.04384875297546387, 0.059958573430776596, -0.03376927599310875, -0.008156190626323223, -0.3472875952720642, 0.17179295420646667, 0.2955143451690674, -0.10749149322509766, 0.1717294603586197], [-0.36373111605644226, 0.23947498202323914, -0.3943031132221222, -0.4244793653488159, 0.08516856282949448, 0.14026911556720734, -0.12483121454715729, -0.09648294746875763, 0.14693260192871094, -0.053992290049791336, -0.1124270111322403, 0.18065981566905975, 0.01299810130149126, -0.03888075053691864, -0.0024379391688853502, 0.03699531778693199, 0.27323678135871887, 0.08669508993625641, -0.30710369348526, -0.21721410751342773, 0.23409290611743927, -0.0612272210419178, -0.17095445096492767, 0.2973826825618744, 0.19059501588344574, -0.2337484210729599, -0.019695932045578957, -0.27078285813331604, -0.08651059865951538, 0.13137733936309814, 0.15065869688987732, 0.02668108604848385], [0.10427211970090866, -0.024793246760964394, 0.1816442906856537, -0.08088674396276474, -0.277384489774704, 0.21896710991859436, -0.31003737449645996, -0.13374169170856476, -0.10610201209783554, -0.12865658104419708, 0.28595438599586487, -0.3778110146522522, -0.24303248524665833, -0.1239592656493187, -0.21249176561832428, -0.19142305850982666, -0.3066190779209137, 0.1094265952706337, 0.18028587102890015, -0.26882708072662354, -0.4282483458518982, -0.2519300580024719, -0.10485706478357315, 0.12114056944847107, -0.32884278893470764, -0.014147026464343071, -0.4300917088985443, 0.07555972784757614, -0.3552934229373932, -0.2784046530723572, -0.1489672213792801, -0.10489276796579361], [0.328878253698349, 0.38818442821502686, 0.30009132623672485, -0.023296602070331573, 0.35626158118247986, 0.2984499931335449, 0.15954959392547607, -0.33925095200538635, -0.03748129680752754, -0.08662047237157822, 0.412370890378952, -0.35295313596725464, 0.18507154285907745, 0.3421856760978699, -0.13142527639865875, 0.4038907587528229, 0.37211892008781433, -0.4685309827327728, -0.04505610838532448, -0.09859749674797058, 0.25190019607543945, 0.11221762746572495, -0.24209679663181305, 0.3723338544368744, 0.21539101004600525, -0.1285526305437088, 0.05033561959862709, 0.19547788798809052, 0.18041352927684784, -0.010605143383145332, -0.2812150716781616, 0.05658962205052376], [-0.27914243936538696, 0.13510358333587646, 0.4073428809642792, -0.1754356175661087, -0.30210843682289124, 0.39077329635620117, -0.05237045884132385, -0.2657088041305542, 0.3094204068183899, 0.028488894924521446, 0.18613174557685852, 0.49232736229896545, 0.10737209022045135, -0.35465213656425476, -0.23337164521217346, 0.31349465250968933, -0.11348723620176315, 0.32225289940834045, 0.214358389377594, -0.1574086844921112, 0.2505176067352295, 0.13278645277023315, 0.15197443962097168, 0.12304968386888504, 0.1402994990348816, -0.30339115858078003, 0.26448148488998413, -0.09845103323459625, -0.12829627096652985, -0.10956552624702454, 0.3354564905166626, -0.3915809988975525], [-0.4031800925731659, 0.08674245327711105, 0.31353703141212463, -0.3030341565608978, 0.14750324189662933, -0.17598876357078552, 0.3666674494743347, -0.032173141837120056, -0.18402975797653198, 0.4490906596183777, -0.2814878523349762, 0.4129374921321869, -0.223581925034523, -0.288190633058548, -0.3231160640716553, 0.16781432926654816, -0.2524110972881317, -0.04191812872886658, 0.2977099120616913, -0.28649285435676575, 0.20425425469875336, 0.26681339740753174, -0.2627929151058197, -0.0767797976732254, 0.2673327922821045, 0.04325471445918083, -0.4058057963848114, -0.3691953122615814, 0.2882925570011139, -0.18346817791461945, -0.23401404917240143, 0.03065948560833931], [0.2830711901187897, 0.3511790335178375, -0.03667769581079483, 0.4058486819267273, 0.005459433421492577, 0.2738144099712372, -0.2160290777683258, -0.32284507155418396, 0.036061350256204605, -0.20545925199985504, 0.1328885555267334, 0.028810808435082436, 0.14603833854198456, -0.1835995316505432, 0.3341546952724457, 0.0328911691904068, -0.3949379324913025, -0.24983179569244385, 0.11460480839014053, -0.015584922395646572, 0.21779680252075195, 0.08438168466091156, 0.09118929505348206, 0.030630625784397125, -0.131404310464859, -0.03325334191322327, -0.22408093512058258, 0.28426313400268555, -0.15333595871925354, 0.42731237411499023, -0.2643890976905823, 0.14137475192546844], [0.3462497889995575, 0.2557351589202881, -0.14326833188533783, 0.19635163247585297, -0.3395373523235321, -0.06280291825532913, -0.39780259132385254, 0.016977522522211075, -0.41083067655563354, 0.16742050647735596, 0.32968613505363464, 0.1335742324590683, 0.3585115671157837, 0.3716270327568054, -0.16489766538143158, 0.2098751962184906, -0.11957748234272003, 0.42799994349479675, 0.0536561980843544, -0.06310054659843445, 0.029301868751645088, -0.22201016545295715, -0.22617855668067932, -0.22052869200706482, -0.1280934065580368, -0.3821868598461151, 0.07511480897665024, 0.2948448061943054, 0.32820579409599304, -0.0841333195567131, 0.06593416631221771, -0.37765103578567505], [-0.4078768789768219, -0.019022691994905472, 0.257192462682724, 0.06556132435798645, 0.39309412240982056, 0.03917624056339264, -0.06407436728477478, -0.10918687283992767, 0.05634109303355217, 0.07034528255462646, 0.08487045764923096, -0.37483203411102295, 0.0935187041759491, -0.33045798540115356, -0.27974677085876465, -0.38283267617225647, -0.26281797885894775, 0.028933534398674965, 0.15356816351413727, -0.34900689125061035, -0.2145829051733017, -0.1052156388759613, -0.27921122312545776, 0.35313037037849426, -0.0571402907371521, 0.10846994817256927, -0.41262346506118774, 0.19034838676452637, 0.22634483873844147, 0.06282061338424683, -0.21831351518630981, 0.32805609703063965], [0.011575393378734589, 0.16458307206630707, -0.07051054388284683, 0.1146451085805893, -0.20479027926921844, 0.053464341908693314, 0.16943281888961792, -0.04892779514193535, -0.07811136543750763, -0.13536633551120758, 0.2792811095714569, -0.20915719866752625, 0.06573804467916489, 0.22858281433582306, 0.01895720697939396, 0.017638683319091797, 0.051173098385334015, 0.11628037691116333, 0.35999250411987305, 0.09226412326097488, 0.27610719203948975, -0.303292840719223, 0.23215344548225403, 0.15594229102134705, -0.27153921127319336, -0.23828954994678497, -0.2596776783466339, 0.3169638216495514, -0.2335277646780014, 0.0123316440731287, -0.1548806130886078, -0.20434938371181488], [-0.31962108612060547, -0.3909759521484375, -0.08026295900344849, 0.19059963524341583, 0.15912486612796783, -0.01216786727309227, 0.10429786145687103, 0.14800918102264404, -0.09466829895973206, -0.3002017140388489, 0.19608256220817566, 0.06803824752569199, -0.048060160130262375, 0.11993332207202911, -0.05673939734697342, -0.15222309529781342, -0.10103601962327957, 0.19072474539279938, 0.3903387784957886, 0.33570995926856995, 0.2921541929244995, -0.4199080467224121, -0.17743034660816193, -0.2916620373725891, 0.3146536946296692, 0.03633056953549385, 0.2592262327671051, -0.4102585017681122, -0.1702250987291336, 0.22040081024169922, 0.0775073915719986, 0.41348862648010254], [-0.20432345569133759, 0.15280432999134064, -0.10830337554216385, 0.17505931854248047, 0.3718303442001343, -0.22873027622699738, 0.30054277181625366, -0.21703583002090454, -0.393356591463089, 0.4600542187690735, 0.2735884189605713, -0.3907419443130493, 0.14107882976531982, -0.2905869483947754, 0.12590844929218292, 0.28408414125442505, 0.3441403806209564, 0.05133414641022682, -0.2852814793586731, -0.43270599842071533, 0.16512739658355713, -0.36520037055015564, 0.02067854255437851, 0.20091353356838226, -0.3080856204032898, 0.3301950693130493, 0.0814400315284729, 0.3666248917579651, 0.39949914813041687, 0.011713489890098572, 0.3518134653568268, -0.2409048229455948], [-0.20919474959373474, -0.22728516161441803, -0.3588671386241913, 0.39117857813835144, -0.3937143385410309, -0.405353307723999, -0.41742798686027527, -0.1808927357196808, -0.25067469477653503, -0.14758513867855072, 0.3906444311141968, -0.19825582206249237, 0.001878916984423995, 0.26366305351257324, 0.3549606502056122, 0.14084123075008392, 0.4568622410297394, -0.13512928783893585, -0.011182797141373158, 0.29598766565322876, -0.28133413195610046, -0.1120247021317482, -0.32658612728118896, -0.2234296053647995, 0.17512787878513336, 0.28329023718833923, 0.11363959312438965, 0.03304422274231911, -0.22724179923534393, -0.20059628784656525, 0.17365632951259613, 0.36457568407058716], [0.27818402647972107, -0.2301935851573944, -0.27128177881240845, 0.0177718847990036, 0.1572050005197525, -0.1550910919904709, 0.20247285068035126, 0.3488325774669647, -0.0065068444237113, -0.16984997689723969, -0.3475000262260437, 0.3269873261451721, -0.26267245411872864, -0.19288599491119385, -0.3247632384300232, 0.36136725544929504, -0.08865019679069519, -0.19384396076202393, -0.0023349844850599766, 0.008875289000570774, -0.22456344962120056, -0.3629588186740875, 0.17992255091667175, 0.13537636399269104, 0.3954782485961914, -0.29336634278297424, -0.19534792006015778, -0.4296932816505432, 0.13995087146759033, -0.15032294392585754, 0.3977474868297577, -0.43161821365356445], [0.18488609790802002, -0.1112692728638649, -0.10532549768686295, -0.17774860560894012, 0.36312493681907654, -0.04714705049991608, 0.5003839135169983, 0.25323888659477234, 0.12278283387422562, -0.06264928728342056, -0.06622706353664398, 0.3764958679676056, -0.36352625489234924, 0.05859951674938202, -0.07384258508682251, 0.036711182445287704, -0.3071069121360779, 0.05128601938486099, 0.4113146662712097, 0.061021529138088226, -0.24648761749267578, -0.38446933031082153, 0.2648167014122009, 0.34024253487586975, 0.20523954927921295, 0.053523000329732895, 0.3555748760700226, 0.08110550791025162, -0.11723577976226807, -0.3343885838985443, -0.06765986979007721, 0.14665964245796204], [0.1802152544260025, 0.31460633873939514, 0.29873260855674744, -0.25707095861434937, 0.16700506210327148, -0.09208071231842041, -0.35780858993530273, 0.1397765725851059, -0.37971800565719604, 0.014570491388440132, -0.26728689670562744, 0.013947301544249058, -0.015758812427520752, -0.013624078594148159, -0.3160396218299866, -0.17384211719036102, -0.20716048777103424, -0.12696264684200287, -0.027887264266610146, -0.297674298286438, 0.20469899475574493, 0.4013785421848297, -0.2550548315048218, -0.3011077642440796, 0.18151918053627014, -0.3285551369190216, -0.03509620577096939, -0.4514710605144501, -0.29374852776527405, -0.16749589145183563, 0.41347506642341614, 0.09094350785017014], [0.10789736360311508, -0.33978524804115295, 0.25765228271484375, -0.08567695319652557, -0.38255375623703003, 0.31250452995300293, 0.39705735445022583, 0.1019732728600502, 0.23241709172725677, 0.06598920375108719, -0.04912041872739792, 0.3200783133506775, -0.35402363538742065, -0.15171854197978973, -0.23839356005191803, -0.4088098406791687, -0.32362329959869385, 0.20927099883556366, 0.2492399960756302, -0.03863261267542839, -0.049646127969026566, -0.09590794146060944, 0.21133241057395935, -0.12988178431987762, -0.4012684226036072, -0.2984309792518616, -0.44938504695892334, -0.27981820702552795, 0.3719072937965393, 0.0184093676507473, 0.3372619152069092, 0.2909650206565857], [-0.05095408856868744, -0.33182990550994873, 0.3533865511417389, -0.36850860714912415, 0.03173510730266571, -0.34183377027511597, 0.1565476655960083, -0.24360592663288116, 0.17853665351867676, 0.24932663142681122, -0.0757487490773201, -0.42817509174346924, -0.11933711916208267, -0.33344823122024536, 0.2326904833316803, -0.15752443671226501, -0.24677076935768127, 0.3997412323951721, 0.06934639066457748, 0.2422797679901123, 0.37827110290527344, 0.19533410668373108, 0.08574620634317398, 0.1598028689622879, 0.10786760598421097, -0.38623762130737305, 0.20464327931404114, 0.20692774653434753, 0.20781129598617554, -0.36050036549568176, 0.19960860908031464, 0.0023266496136784554], [0.1434614360332489, 0.06660369783639908, 0.23307912051677704, 0.3910490870475769, -0.27273330092430115, 0.18604746460914612, -0.33959025144577026, 0.09257925301790237, -0.383563369512558, -0.2396867275238037, 0.4334280490875244, 0.2642015218734741, -0.03257663920521736, -0.10077019780874252, 0.41929060220718384, -0.2172601819038391, 0.3367851972579956, 0.3821164667606354, -0.23584836721420288, 0.3462252616882324, -0.28920021653175354, -0.2995963990688324, -0.17840836942195892, -0.28605639934539795, -0.0413028746843338, 0.15704767405986786, -0.11478395760059357, -0.009917723014950752, -0.09403005242347717, -0.20847190916538239, -0.10709059238433838, -0.4408109784126282], [0.3316536247730255, -0.16825518012046814, -0.23055019974708557, -0.324523001909256, -0.02837757207453251, 0.36820876598358154, -0.2492673397064209, 0.279951274394989, -0.16942055523395538, -0.4144548177719116, -0.2963687479496002, 0.12458178400993347, 0.11603739857673645, 0.3004429340362549, -0.07268144935369492, 0.08777087926864624, -0.09085536748170853, 0.17177985608577728, -0.26717421412467957, 0.06997707486152649, 0.22257672250270844, -0.030954254791140556, -0.30162158608436584, -0.366546094417572, 0.32914718985557556, -0.00547071872279048, 0.2456217259168625, 0.1500481218099594, 0.24009613692760468, 0.21045319736003876, 0.004231603816151619, -0.052539173513650894], [-0.06675250828266144, 0.264779269695282, -0.24680106341838837, -0.21406318247318268, -0.0035051219165325165, -0.0874834880232811, -0.03420987352728844, 0.019101500511169434, -0.1808740347623825, -0.06019015982747078, 0.2349347323179245, 0.2867833971977234, -0.11779569834470749, 0.35362008213996887, 0.11901827901601791, -0.1608365923166275, -0.1969531923532486, -0.26630300283432007, 0.244762122631073, -0.027694549411535263, -0.4540669023990631, -0.37113043665885925, -0.16773280501365662, 0.16942454874515533, 0.23637162148952484, -0.14297908544540405, 0.45824316143989563, -0.16371968388557434, -0.21472035348415375, -0.01412996742874384, 0.3201095163822174, 0.19228620827198029], [0.4368661344051361, -0.16959281265735626, -0.005924904718995094, 0.3747657537460327, -0.14133286476135254, -0.3516552150249481, -0.370667040348053, 0.3304542899131775, 0.4387784004211426, -0.37376320362091064, -0.23877696692943573, 0.0811866968870163, 0.17961959540843964, 0.27829036116600037, -0.30783331394195557, -0.02341233193874359, -0.38483038544654846, 0.23243816196918488, -0.004665909335017204, -0.09588920325040817, -0.17545846104621887, 0.21146009862422943, -0.2903747260570526, 0.08373290300369263, -0.43888193368911743, -0.3916172683238983, 0.04111937806010246, -0.2107974737882614, 0.3266320526599884, -0.04217132180929184, -0.12331448495388031, -0.03897152841091156], [-0.09557867795228958, -0.04297538474202156, -0.18035723268985748, -0.340817928314209, 0.15177008509635925, 0.17019213736057281, 0.07957876473665237, 0.14787277579307556, -0.2709338665008545, -0.40494614839553833, -0.16200153529644012, 0.13103142380714417, 0.046312376856803894, 0.12051846832036972, 0.2553519904613495, -0.2525659203529358, 0.2586989402770996, -0.3922833204269409, -0.28941041231155396, 0.17798618972301483, 0.07270544022321701, 0.15244249999523163, 0.3898085355758667, -0.1708340048789978, -0.2400990128517151, -0.4129343628883362, 0.003983108326792717, 0.17922520637512207, -0.25026771426200867, -0.24161995947360992, -0.15193058550357819, -0.19023092091083527], [-0.1565427929162979, 0.3534546196460724, 0.3437463939189911, 0.17690780758857727, -0.18742859363555908, -0.15073062479496002, 0.22929836809635162, 0.0122189586982131, -0.3615380525588989, 0.2520975172519684, 0.24439501762390137, -0.120065838098526, -0.27115121483802795, -0.2542824149131775, -0.15529820322990417, -0.006562855094671249, -0.2752726972103119, -0.3103296756744385, -0.03165628761053085, 0.07506875693798065, 0.36559849977493286, 0.2335902452468872, 0.16501650214195251, 0.2143864780664444, 0.03908415511250496, 0.19135358929634094, 0.03613356873393059, -0.08748415857553482, 0.30274656414985657, 0.35667848587036133, 0.22473417222499847, -0.007228055968880653], [0.07018817216157913, 0.4489755630493164, -0.33748966455459595, 0.2825715243816376, 0.021749773994088173, -0.020556118339300156, -0.231094628572464, -0.09949968755245209, 0.2558937668800354, 0.123012974858284, -0.1011788547039032, -0.16554149985313416, 0.235001340508461, 0.21161939203739166, 0.14569047093391418, 0.22482721507549286, -0.1192510798573494, -0.3084239661693573, 0.22177362442016602, 0.26552730798721313, 0.031265903264284134, -0.44379881024360657, -0.046452879905700684, 0.18183675408363342, -0.3071306645870209, 0.2371581643819809, -0.1509760618209839, 0.1790638267993927, -0.11581301689147949, 0.10453818738460541, -0.0988381877541542, 0.3900911808013916], [-0.0801282525062561, 0.049503181129693985, -0.3230270743370056, 0.09437099099159241, 0.3895341753959656, -0.019737455993890762, 0.22804439067840576, -0.30812960863113403, -0.2400481104850769, 0.06422112137079239, 0.322532594203949, 0.25088390707969666, 0.3465940058231354, 0.33956652879714966, 0.1799522191286087, 0.12205544859170914, -0.23512864112854004, -0.3877324163913727, 0.3780774474143982, -0.08223830163478851, 0.33042165637016296, -0.2488904744386673, -0.0638318657875061, -0.19918787479400635, -0.08620709925889969, 0.08254414051771164, -0.21462321281433105, 0.19564922153949738, -0.026782561093568802, 0.18909549713134766, 0.11584162712097168, -0.06738559156656265], [0.25904616713523865, -0.28428030014038086, 0.01951456256210804, -0.06925054639577866, 0.2904011607170105, 0.428783655166626, 0.0697258859872818, 0.4102100431919098, -0.1647392064332962, 0.22786185145378113, 0.1449352502822876, 0.08500314503908157, -0.3622494637966156, 0.40072762966156006, -0.3668915629386902, 0.17850470542907715, 0.06218193098902702, -0.3024062514305115, 0.2093529850244522, -0.08912782371044159, 0.36339128017425537, 0.18794351816177368, -0.1699794977903366, -0.2208062708377838, 0.16430534422397614, 0.3218040466308594, 0.40676149725914, -0.17947693169116974, -0.06411875039339066, -0.17567890882492065, 0.26665177941322327, 0.23478592932224274], [-0.12423668801784515, 0.002862543798983097, 0.15054209530353546, -0.08802734315395355, -0.07721159607172012, -0.21428784728050232, -0.24230404198169708, -0.0043337382376194, 0.043241776525974274, 0.3106861114501953, -0.35541000962257385, -0.23373204469680786, -0.3751641511917114, 0.37579113245010376, -0.252403199672699, 0.16648274660110474, 0.16649968922138214, 0.31247076392173767, 0.27431604266166687, 0.18611539900302887, -0.3812920153141022, 0.1099965050816536, 0.3402712345123291, -0.06959028542041779, 0.25942397117614746, -0.41612887382507324, 0.08532153069972992, 0.0860200747847557, 0.1420305222272873, 0.3004567623138428, -0.03357132151722908, -0.057324714958667755], [0.29116955399513245, 0.07654924690723419, -0.4000711143016815, 0.2050759345293045, -0.20144493877887726, 0.09639144688844681, 0.38705572485923767, -0.15929864346981049, -0.318231999874115, 0.06284425407648087, -0.18764561414718628, 0.02790454961359501, 0.1284410059452057, -0.3753589689731598, -0.08343194425106049, -0.12777672708034515, 0.48637181520462036, 0.21830950677394867, 0.2588227391242981, 0.18804390728473663, -0.1514558494091034, 0.3407336473464966, 0.21597479283809662, -0.3053022027015686, -0.35805001854896545, 0.3488364815711975, 0.01674075610935688, -0.08082340657711029, 0.1771002560853958, -0.20977555215358734, 0.3131704032421112, -0.12647338211536407]], "biases": [0.05269553139805794, -0.1471126675605774, -0.1401221603155136, -0.010738871060311794, -0.08580532670021057, -0.07147160172462463, 0.11040753126144409, 0.10264857858419418, -0.036286741495132446, 0.08716762810945511, -0.16311760246753693, 0.04120706021785736, -0.08669579774141312, -0.00947103276848793, 0.11874044686555862, 0.06866344809532166, 0.1834317296743393, -0.0044163973070681095, -0.09105309098958969, 0.03945204243063927, -0.13025407493114471, 0.02484256960451603, 0.040701232850551605, -0.004752685781568289, 0.0036341312807053328, -0.10106693208217621, -0.1279304027557373, 0.12390902638435364, -0.14559394121170044, 0.06568524241447449, 0.03652537986636162, -0.10576658695936203]}, {"weights": [[-0.12922494113445282, 0.16568277776241302, -0.005343393888324499, 0.2689734101295471, -0.26002877950668335, 0.37472790479660034, 0.1547514945268631, -0.20369762182235718, -0.18802261352539062, 0.2632027566432953, -0.08068403601646423, 0.3870581090450287, 0.03014039248228073, -0.1399500072002411, -0.3660086989402771, -0.26908937096595764, -0.1069740355014801, 0.09317992627620697, 0.44085752964019775, -0.314868688583374, 0.40475544333457947, 0.3172183334827423, -0.3409057855606079, -0.1266775280237198, -0.24586084485054016, -0.12401798367500305, -0.3813702464103699, 0.03370958939194679, 0.32193639874458313, -0.3519895672798157, 0.2127464860677719, -0.0796714574098587], [0.34560626745224, 0.08417980372905731, -0.21458196640014648, 0.1987467110157013, -0.052419040352106094, 0.18107357621192932, 0.04217519983649254, 0.3820437490940094, 0.2532094419002533, 0.43924951553344727, -0.22770798206329346, 0.37611281871795654, -0.14345186948776245, -0.3369433581829071, 0.10725559294223785, -0.37145552039146423, -0.25520560145378113, 0.16101422905921936, -0.28907278180122375, 0.19492046535015106, -0.1435481309890747, 0.4145248234272003, -0.0033677935134619474, 0.21903802454471588, 0.2872169017791748, -0.2189173698425293, 0.06050175428390503, 0.16464729607105255, 0.17258435487747192, -0.41882410645484924, 0.40414345264434814, 0.015988431870937347], [-0.05392314866185188, -0.13639329373836517, 0.133930966258049, -0.2558268904685974, -0.207943856716156, -0.3125423192977905, 0.32663673162460327, -0.23646797239780426, -0.12835098803043365, 0.3072717487812042, 0.03743480518460274, 0.20488384366035461, 0.023219935595989227, 0.29508525133132935, -0.1374060958623886, -0.329336553812027, 0.27255234122276306, 0.17972180247306824, 0.059800129383802414, 0.23951169848442078, -0.17199231684207916, 0.22357065975666046, 0.4142962396144867, -0.23205503821372986, -0.08505116403102875, 0.051051583141088486, -0.2873889207839966, 0.13117444515228271, 0.04781121388077736, -0.05568788945674896, -0.3619563579559326, 0.249233677983284], [-0.2585486173629761, -0.003309256164357066, 0.15107952058315277, -0.25321444869041443, 0.07860352843999863, -0.11471237242221832, -0.0735996887087822, 0.30991432070732117, 0.034629255533218384, -0.2619282603263855, 0.5520408153533936, -0.22752846777439117, -0.14472506940364838, -0.32864803075790405, -0.34244316816329956, -0.26841479539871216, -0.35115402936935425, 0.4346654415130615, -0.347594290971756, -0.15848980844020844, 0.33629703521728516, -0.30472177267074585, 0.28096136450767517, -0.20732587575912476, 0.34735560417175293, 0.12524093687534332, -0.2574498653411865, 0.09521537274122238, -0.19069284200668335, -0.16239674389362335, -0.23332594335079193, 0.35624557733535767], [0.15349014103412628, -0.33962124586105347, 0.4025164842605591, -0.30031412839889526, -0.16269975900650024, -0.3012304902076721, -0.10632477700710297, 0.05975104123353958, 0.2346516251564026, 0.27518823742866516, 0.25713539123535156, -0.2701537013053894, 0.19879016280174255, 0.18207459151744843, 0.16781391203403473, 0.2014349400997162, -0.03352535516023636, 0.2937726676464081, -0.19688528776168823, -0.22280170023441315, 0.29068389534950256, -0.1592123955488205, -0.22572961449623108, 0.278565913438797, 0.238202765583992, 0.22986078262329102, -0.30161693692207336, -0.02960161678493023, 0.06659198552370071, 0.1386042684316635, 0.1587325930595398, -0.25468412041664124], [0.3852093517780304, -0.19593732059001923, 0.33691897988319397, -0.4417816996574402, 0.11168286949396133, -0.3740265965461731, -0.18935662508010864, 0.1812443733215332, 0.24270831048488617, -0.030557507649064064, 0.027470165863633156, -0.2648993730545044, 0.006452549714595079, 0.13888667523860931, 0.15255212783813477, 0.08554478734731674, -0.03490780293941498, 0.11907324939966202, 0.35327184200286865, 0.17024844884872437, -0.2750474214553833, 0.33697882294654846, -0.3365662693977356, -0.16608212888240814, 0.13215932250022888, -0.011718658730387688, -0.24156545102596283, 0.29371798038482666, 0.2978397607803345, 0.10005829483270645, 0.12481112033128738, 0.3135988116264343], [-0.17225055396556854, 0.23993802070617676, 0.35005423426628113, -0.22174955904483795, 0.19866742193698883, -0.06835553795099258, 0.07697604596614838, 0.30225804448127747, 0.3034222722053528, -0.07103295624256134, 0.3231285810470581, -0.3520287871360779, 0.3764822781085968, -0.15394167602062225, -0.0586899109184742, 0.2991499900817871, 0.06595030426979065, 0.28951701521873474, -0.36949071288108826, 0.22222557663917542, 0.31577038764953613, -0.2845757007598877, 0.22693128883838654, -0.13991610705852509, -0.13523346185684204, 0.4514004588127136, 0.33298665285110474, -0.11566221714019775, 0.04778505861759186, 0.008384637534618378, 0.11411745846271515, -0.193380668759346], [-0.30926620960235596, 0.3090710937976837, -0.20775195956230164, 0.010598104447126389, 0.07250645756721497, 0.23743703961372375, 0.4424510598182678, -0.23269811272621155, 0.38692963123321533, -0.1799326092004776, -0.13330332934856415, 0.06695039570331573, 0.14702647924423218, 0.24158717691898346, -0.0585910826921463, 0.3154316842556, 0.2233465164899826, 0.29431432485580444, -0.3095812201499939, 0.3764513432979584, 0.10737421363592148, -0.1362280398607254, -0.41667336225509644, 0.07812696695327759, 0.18114861845970154, 0.30636560916900635, 0.3702201843261719, -0.2872982919216156, -0.16808533668518066, -0.05617605522274971, 0.0032161162234842777, 0.07447748631238937], [-0.08794934302568436, 0.0780700221657753, -0.21894747018814087, 0.018977563828229904, 0.2728518545627594, -0.021281225606799126, -0.19984249770641327, 0.2919518053531647, 0.004600477870553732, 0.05487844720482826, 0.3498101830482483, -0.14368300139904022, 0.1274033635854721, -0.2971615195274353, -0.4048878252506256, 0.16530390083789825, -0.11109096556901932, -0.11959999054670334, 0.3075995147228241, -0.3555586636066437, -0.26407161355018616, 0.3464459478855133, 0.0021934870164841413, -0.31703606247901917, -0.1643182784318924, -0.15258105099201202, -0.10846807807683945, 0.26802629232406616, 0.11636272817850113, 0.20441994071006775, -0.09255627542734146, 0.1973726451396942], [0.4001173675060272, -0.3557589650154114, 0.3356935977935791, 0.38247165083885193, 0.23624081909656525, 0.29435011744499207, 0.07076387107372284, 0.3867887258529663, 0.3136375844478607, -0.010027105920016766, 0.42064347863197327, 0.03314972296357155, 0.2891448438167572, 0.2518272399902344, -0.11931460350751877, -0.36921489238739014, -0.3216867446899414, 0.028096631169319153, 0.2580949664115906, 0.28874126076698303, 0.134372740983963, 0.2459218055009842, 0.38329988718032837, 0.025957856327295303, -0.28480783104896545, -0.4286610782146454, 0.08095055818557739, -0.09404152631759644, 0.329328328371048, 0.06401120126247406, -0.08097383379936218, 0.19559644162654877], [0.44979745149612427, 0.14414077997207642, -0.2857915461063385, 0.17586636543273926, 0.5207095146179199, 0.06662880629301071, 0.3194088935852051, -0.17799510061740875, 0.3258558511734009, -0.36392322182655334, -0.1058768481016159, -0.36253616213798523, -0.1856606900691986, 0.00949452817440033, 0.3214605450630188, -0.272184818983078, -0.34405049681663513, 0.00163383805193007, 0.06900160014629364, -0.3340238630771637, -0.044321998953819275, 0.41588616371154785, 0.08694921433925629, -0.29071542620658875, -0.12282594293355942, -0.04660237953066826, 0.11924946308135986, -0.11030246317386627, 0.43777117133140564, 0.15669582784175873, -0.07685116678476334, -0.2860904633998871], [-0.27684134244918823, -0.27881842851638794, -0.2946769595146179, -0.3653523027896881, 0.22196128964424133, 0.34220558404922485, 0.1734144538640976, -0.08571372181177139, -0.12729837000370026, -0.39120739698410034, -0.003192981006577611, 0.4097830057144165, -0.16949117183685303, 0.16855488717556, 0.01717645861208439, -0.3427691161632538, 