{"mlp": {"layers": [{"weights": [[-0.5013216137886047, 0.23626874387264252], [-0.326982706785202, -0.37540823221206665], [0.33164966106414795, 0.2699149549007416], [-0.490004301071167, 0.2553030848503113], [-0.19172146916389465, -0.4813414216041565], [0.22976891696453094, -0.3458426594734192], [-0.43585842847824097, 0.4831691384315491], [-0.04693165421485901, 0.05259554460644722], [0.21857792139053345, -0.10818548500537872], [0.17465926706790924, -0.4626670479774475], [-0.025754688307642937, 0.46948832273483276], [-0.4339157044887543, 0.478381484746933], [0.0877440869808197, -0.13585573434829712], [0.4540647566318512, 0.4714026153087616], [0.16975729167461395, 0.03163552284240723], [0.4870069921016693, 0.07283427566289902], [0.39600592851638794, -0.11114086955785751], [-0.09459305554628372, -0.30531424283981323], [-0.35412898659706116, 0.39520972967147827], [0.24071049690246582, -0.24092911183834076], [-0.40843817591667175, 0.34200647473335266], [-0.4218082129955292, -0.2595377564430237], [0.2230600118637085, 0.480649471282959], [-0.39864519238471985, 0.4055638909339905], [-0.2828754186630249, 0.41963645815849304], [0.19569720327854156, -0.43153056502342224], [0.13547217845916748, 0.10907308012247086], [0.25974997878074646, -0.1545998603105545], [0.015256663784384727, 0.2936810553073883], [0.1963459849357605, 0.41046056151390076], [-0.13687002658843994, 0.2795375883579254], [0.23030135035514832, 0.1509629786014557], [0.4663873314857483, 0.3313896358013153], [0.13293559849262238, -0.44670188426971436], [0.22714315354824066, 0.2535560727119446], [-0.48084282875061035, 0.4482896625995636], [-0.07691341638565063, 0.33419540524482727], [-0.19432131946086884, -0.2318911850452423], [0.4053035378456116, 0.11899850517511368], [-0.4619094431400299, 0.022852810099720955], [-0.05114401504397392, -0.09569229930639267], [0.29468315839767456, 0.35443270206451416], [0.23441271483898163, 0.4895585775375366], [0.43216320872306824, 0.11659552901983261], [-0.23658663034439087, -0.29314517974853516], [-0.2054424285888672, 0.44440311193466187], [-0.21440032124519348, -0.10749973356723785], [-0.1899981051683426, -0.29654884338378906], [0.3945613503456116, -0.0961901918053627], [-0.42470306158065796, -0.328876793384552], [-0.2966320812702179, -0.33009475469589233], [0.1646765172481537, -0.42502933740615845], [0.10579126328229904, 0.006013734266161919], [0.485976904630661, -0.41090458631515503], [-0.44434770941734314, 0.4365456998348236], [0.1015896275639534, -0.3546425998210907], [0.4526852071285248, -0.35826820135116577], [0.3766445219516754, -0.42226001620292664], [-0.4659119248390198, -0.34489718079566956], [0.3214006721973419, -0.4183172285556793], [0.21731291711330414, -0.31435877084732056], [0.18395748734474182, 0.04000909626483917], [-0.32737284898757935, -0.2568027973175049], [-0.004446678329259157, 0.37558215856552124]], "biases": [0.4897526204586029, -0.5075997114181519, -0.17181900143623352, -0.0053080045618116856, -0.06808119267225266, -0.420027494430542, 0.2638384997844696, 0.6093958616256714, -0.39016690850257874, 0.464580237865448, -0.298382431268692, 0.6555621027946472, 0.6242156624794006, 0.24968735873699188, 0.02023850940167904, 0.14052322506904602, -0.16644786298274994, -0.06289365142583847, -0.33338749408721924, -0.051859065890312195, -0.25864970684051514, -0.34249961376190186, -0.5891036987304688, 0.33939677476882935, -0.388584703207016, 0.2849828600883484, -0.5240888595581055, 0.701429545879364, 0.43695852160453796, -0.2131742388010025, -0.4849708378314972, -0.3060067892074585, 0.43968430161476135, 0.0983148142695427, -0.04403853416442871, 0.3122142553329468, -0.547126293182373, -0.11634278297424316, -0.005261098500341177, -0.06841922551393509, 0.3555355668067932, -0.48638716340065, -0.022790659219026566, 0.36172133684158325, -0.33018720149993896, 0.33131885528564453, -0.7006132006645203, -0.19102513790130615, 0.373241662979126, -0.245455801486969, 0.4231477677822113, -0.5200468301773071, 0.5785159468650818, -0.2986213266849518, 0.019623877480626106, -0.602281928062439, -0.1369972974061966, -0.3312241733074188, -0.534270703792572, -0.5528081059455872, -0.45600104331970215, -0.4215196371078491, -0.28179559111595154, -0.26016268134117126]}, {"weights": [[0.06108066067099571, -0.0760045275092125, 0.027839722111821175, -0.1957934945821762, -0.09644697606563568, 0.2649422883987427, -0.10347118973731995, 0.28063109517097473, -0.13443440198898315, 0.23182067275047302, 0.07206209003925323, -0.15203827619552612, -0.27206480503082275, -0.2399633228778839, -0.30268874764442444, -0.18365661799907684, -0.2868782579898834, 0.19818168878555298, -0.05900105461478233, 0.08618186414241791, 0.1836843639612198, -0.13519176840782166, 0.19172179698944092, 0.1317356377840042, 0.24404239654541016, 0.14596134424209595, -0.23335306346416473, -0.08461780846118927, 0.24896353483200073, 0.3200323283672333, -0.04461130499839783, 0.1773449182510376, 0.20745640993118286, -0.032402683049440384, 0.23969613015651703, 0.1839323192834854, 0.09639372676610947, 0.22249196469783783, -0.009093976579606533, -0.29817014932632446, 0.20062805712223053, 0.110676608979702, -0.1341518610715866, -0.10732544958591461, 0.014157356694340706, -0.27222540974617004, 0.1851428896188736, -0.17647352814674377, -0.14677658677101135, 0.2939671576023102, 0.20184990763664246, -0.29922547936439514, 0.17539487779140472, -0.29853346943855286, 0.29014986753463745, 0.0009061107994057238, -0.210159033536911, -0.006213839631527662, -0.28162112832069397, -0.19531983137130737, -0.19126500189304352, 0.22394241392612457, -0.2518141567707062, -0.30582764744758606], [0.24379166960716248, -0.040640875697135925, 0.11643123626708984, 0.18565542995929718, -0.13323107361793518, -0.2020116150379181, -0.28368401527404785, 0.14923794567584991, -0.15121780335903168, 0.2240515798330307, -0.189796581864357, -0.24203242361545563, 0.07465355843305588, -0.003504754276946187, -0.009868723340332508, 0.07925894856452942, -0.013706894591450691, 0.13425315916538239, 0.2584855556488037, -0.23472899198532104, 0.15610922873020172, 0.16588899493217468, 0.13467928767204285, -0.05914139747619629, 0.0165238194167614, 0.10811860114336014, 0.29549655318260193, 0.04226387292146683, -0.24988307058811188, 0.1549692302942276, -0.2454700469970703, 0.2962172031402588, 0.23543362319469452, -0.040664732456207275, 0.15597140789031982, -0.0996759831905365, 0.265529990196228, -0.13865841925144196, 0.13147492706775665, 0.24036188423633575, 0.015112477354705334, -0.04999278113245964, 0.2710438370704651, 0.2728390395641327, 0.23594729602336884, 0.21517881751060486, 0.13726624846458435, -0.045026637613773346, 0.18672975897789001, -0.22216394543647766, 0.16569434106349945, -0.06938011944293976, -0.14952941238880157, 0.07552354782819748, 0.21919198334217072, -0.03285987302660942, -0.20368099212646484, 0.068812794983387, -0.02390998974442482, 0.23297739028930664, 0.03973544016480446, -0.1998373568058014, 0.250620037317276, 0.2688077986240387], [0.08923729509115219, -0.08887311816215515, -0.053332746028900146, -0.2607036232948303, -0.20004262030124664, 0.24777333438396454, -0.18605265021324158, 0.22155146300792694, -0.14713093638420105, 0.07527102530002594, 0.006007714197039604, 0.22477878630161285, -0.2730860412120819, 0.08722440898418427, -0.1932821422815323, 0.1012054979801178, -0.23309549689292908, -0.256643146276474, 0.04297313094139099, -0.2805379331111908, 0.2384333461523056, -0.14008092880249023, 0.03731520473957062, -0.029679179191589355, 0.11467296630144119, -0.19890184700489044, 0.14817681908607483, -0.30219846963882446, 0.14543555676937103, -0.17156298458576202, -0.26248201727867126, 0.19646430015563965, 0.1557234674692154, -0.11714116483926773, 0.14466598629951477, 0.0052510714158415794, 0.2134569138288498, 0.04624320566654205, 0.1631813496351242, 0.13547445833683014, 0.09047365188598633, -0.03215066343545914, -0.17259164154529572, -0.11842590570449829, -0.04547200724482536, -0.16214829683303833, -0.22782506048679352, -0.020007645711302757, 0.10142932832241058, 0.19221198558807373, 0.20488658547401428, 0.03759417310357094, 0.0004275548562873155, -0.13161174952983856, -0.054032035171985626, 0.08368244022130966, 0.11070069670677185, -0.14240577816963196, 0.20085139572620392, -0.12015233933925629, -0.2133825123310089, -0.004530982580035925, -0.11628790944814682, 0.0015834970399737358], [0.07138744741678238, 0.08363702148199081, -0.17547863721847534, 0.20889757573604584, 0.19044917821884155, 0.21381813287734985, 0.30445632338523865, 0.09355969727039337, -0.18836566805839539, -0.2503860592842102, -0.0774899572134018, -0.09480391442775726, 0.19223932921886444, 0.21867232024669647, -0.2420138418674469, -0.27670490741729736, -0.07457499206066132, -0.11579284071922302, -0.06666135042905807, -0.28917500376701355, 0.1735617220401764, -0.14665156602859497, -0.17913414537906647, 0.2555454969406128, -0.15296386182308197, 0.07444055378437042, -0.21793554723262787, 0.17039167881011963, -0.3160581588745117, -0.21038907766342163, 0.23421232402324677, -0.24020303785800934, -0.16974784433841705, -0.30833572149276733, 0.07311173528432846, -0.20687459409236908, 0.2686271369457245, 0.03814253956079483, -0.17336489260196686, -0.12658169865608215, 0.317727655172348, 0.2832135558128357, 0.23538897931575775, 0.1289244443178177, 0.0983506366610527, 0.2941693961620331, 0.17284850776195526, 0.0652102530002594, 0.022753525525331497, 0.13987956941127777, -0.22842395305633545, 0.174037903547287, -0.28628572821617126, -0.02977210097014904, -0.0939849317073822, 0.2650878429412842, 0.21308676898479462, 0.29653534293174744, 0.00843306165188551, 0.2533250153064728, 0.2051687240600586, -0.014595480635762215, 0.23584163188934326, -0.053319185972213745], [0.038404177874326706, -0.24984478950500488, 0.029027298092842102, -0.055359452962875366, 0.0741647258400917, -0.1255744993686676, -0.26769110560417175, 0.1825116127729416, -0.08792505413293839, -0.05252737179398537, -0.1675354242324829, 0.04772953316569328, 0.17813009023666382, 0.13761483132839203, -0.15010587871074677, 0.279022753238678, 0.27217474579811096, -0.3058215081691742, 0.04062073305249214, 0.08510325849056244, -0.011320577003061771, -0.26331230998039246, 0.010514301247894764, 0.27514761686325073, 0.20664480328559875, 0.10299944132566452, 0.06193450465798378, -0.2701199948787689, -0.19795264303684235, 0.23844683170318604, -0.12229373306035995, 0.1089264452457428, 0.2128303200006485, 0.12314469367265701, -0.17305247485637665, -0.025936640799045563, -0.0791981890797615, -0.2899133265018463, -0.2043694704771042, 0.15788772702217102, 0.15243077278137207, -0.1368533968925476, -0.1554962545633316, 0.117991603910923, 0.07993683964014053, 0.04005616158246994, 0.2712186872959137, -0.2312733381986618, 0.01240058708935976, -0.3007797598838806, -0.19859960675239563, -0.23373836278915405, 0.25397616624832153, -0.19672422111034393, -0.20542187988758087, -0.2213374227285385, 0.06150878965854645, 0.2905316948890686, 0.07614220678806305, -0.18241821229457855, 0.13929976522922516, -0.24154555797576904, 0.09512858092784882, 0.27968695759773254], [0.04749174788594246, -0.03964492678642273, -0.2493712604045868, 0.1664181649684906, 0.19562369585037231, 0.1888636350631714, 0.2766701281070709, 0.05092697590589523, -0.15106646716594696, -0.16371814906597137, 0.16141603887081146, -0.016037898138165474, -0.13541807234287262, -0.1841222047805786, -0.12286556512117386, -0.24027717113494873, 0.27399682998657227, 0.2238212525844574, -0.08837266266345978, -0.3171791434288025, -0.035280488431453705, 0.24620072543621063, 0.08906841278076172, -0.20273643732070923, -0.12737293541431427, 0.06083754822611809, -0.040136344730854034, -0.20728224515914917, 0.10305294394493103, 0.07342378795146942, 0.08262914419174194, -0.14942064881324768, 0.14008057117462158, -0.2485743761062622, 0.190623477101326, 0.065963514149189, 0.04307445511221886, 0.2598715126514435, -0.007723730057477951, -0.20055794715881348, 0.0293037798255682, -0.013735192827880383, -0.1671561747789383, 0.12208417803049088, -0.018642939627170563, -0.24308262765407562, -0.11738621443510056, 0.12411095947027206, 0.08913363516330719, -0.1157388687133789, 0.10033475607633591, -0.04741493985056877, -0.00676876213401556, -0.0730106383562088, 0.24190527200698853, -0.29537665843963623, 0.1471344530582428, 0.15909521281719208, 0.23891615867614746, 0.1456737220287323, -0.0177941732108593, 0.11979547142982483, -0.04447893798351288, -0.21294710040092468], [0.21121324598789215, -0.0166383758187294, -0.028727786615490913, -0.17198075354099274, -0.0036552802193909883, -0.19176922738552094, 0.2948385775089264, -0.027100777253508568, -0.15982979536056519, -0.27437642216682434, 0.04168883338570595, -0.09406428039073944, 0.08941788226366043, -0.2203412503004074, -0.2073213905096054, 0.22549043595790863, -0.147400364279747, 0.1928967833518982, -0.24958106875419617, -0.30963075160980225, 0.13317933678627014, 0.24776041507720947, -0.26051852107048035, 0.049585092812776566, -0.19233731925487518, -0.2571728825569153, -0.24755212664604187, 0.2095179408788681, 0.16462081670761108, -0.02897453121840954, -0.1660757213830948, -0.13903582096099854, 0.008741443045437336, -0.18716831505298615, -0.07105422765016556, 0.21494735777378082, -0.1968652755022049, -0.026772083714604378, 0.052253782749176025, -0.25698554515838623, 0.29281187057495117, 0.008901200257241726, -0.0165675338357687, 0.09884895384311676, 0.06896964460611343, 0.03216683119535446, 0.14059829711914062, -0.0656997412443161, -0.2757185697555542, 0.24929165840148926, -0.2066350132226944, -0.2893570065498352, 0.004334643017500639, -0.25426045060157776, -0.2831869125366211, -0.1036672368645668, 0.24414943158626556, -0.1223783865571022, 0.008254936896264553, -0.16159534454345703, 0.03825834393501282, -0.016278821974992752, 0.2686384618282318, -0.2833787202835083], [0.01601996272802353, -0.03340968117117882, -0.0560263991355896, 0.01951807364821434, 0.18610002100467682, -0.1747329980134964, 0.1692967414855957, -0.12075931578874588, 0.18787983059883118, 0.015100947581231594, -0.1538289338350296, -0.06095166876912117, 0.26105859875679016, 0.1272726207971573, 0.14085255563259125, -0.03714517503976822, -0.2632193863391876, -0.14781655371189117, 0.20079468190670013, 0.23270437121391296, 0.03762633726000786, -0.2614714503288269, -0.11360000818967819, -0.038068950176239014, 0.16408126056194305, 0.1803322285413742, -0.2290893942117691, -0.07335378229618073, 0.04883793741464615, 0.03535955026745796, 0.08011738210916519, 0.21872396767139435, 0.16681309044361115, 0.13835087418556213, -0.07739405333995819, -0.21665221452713013, 0.272842139005661, 0.18854564428329468, 0.09884116798639297, 0.07043049484491348, -0.025508221238851547, 0.048157379031181335, -0.06343962997198105, 0.12430883198976517, 0.15697966516017914, -0.1836528331041336, 0.2865445017814636, 0.08106581121683121, 0.1537381410598755, -0.1419139951467514, -0.039294179528951645, 0.2994970679283142, 0.20378056168556213, 0.07683813571929932, -0.004923100583255291, 0.2952841520309448, 0.04301496967673302, -0.18147748708724976, -0.10760092735290527, 0.14350466430187225, -0.238380566239357, -0.2965430021286011, 0.2769433557987213, -0.1874469816684723], [0.26658207178115845, -0.26843371987342834, 0.022325707599520683, -0.2338026911020279, -0.004602563567459583, 0.26546353101730347, -0.09650637209415436, 0.2507287263870239, 0.1159483790397644, -0.26620855927467346, -0.03320316597819328, -0.07283655554056168, -0.19715413451194763, 0.04526909068226814, -0.053362030535936356, -0.23279699683189392, -0.18963854014873505, -0.23088237643241882, -0.13714846968650818, 0.19017624855041504, 0.19976739585399628, -0.023043114691972733, -0.25270456075668335, 0.021586274728178978, 0.08072493225336075, 0.16029448807239532, 0.3078162372112274, 0.146355539560318, 0.056220829486846924, 0.03624477609992027, -0.031444862484931946, -0.28724703192710876, -0.24178723990917206, -0.039494894444942474, 0.2214072346687317, -0.06309269368648529, 0.11031901836395264, 0.22364646196365356, -0.060582686215639114, 0.2846159040927887, 0.16475827991962433, -0.07535846531391144, -0.2121000587940216, 0.09949089586734772, -0.051552724093198776, -0.18752281367778778, 0.14156575500965118, -0.02306153066456318, -0.31666427850723267, -0.29261815547943115, -0.3141725957393646, -0.15625260770320892, -0.28828850388526917, -0.13926111161708832, -0.2338748425245285, -0.19108055531978607, 0.04953150823712349, -0.0022140941582620144, 0.03080660291016102, 0.04447761923074722, 0.06506689637899399, -0.10328580439090729, 0.05594364181160927, -0.09243940562009811], [-0.0074956887401640415, -0.023225001990795135, -0.21446013450622559, -0.30414432287216187, -0.009510161355137825, 0.11351008713245392, 0.1435817927122116, -0.299650639295578, -0.2592492997646332, -0.11681287735700607, -0.30044907331466675, 0.006550616584718227, -0.2465902864933014, -0.18843916058540344, 0.1874656081199646, -0.07911460846662521, 0.01914781704545021, -0.25712811946868896, 0.12474815547466278, 0.10343141853809357, -0.12147946655750275, -0.13892757892608643, 0.08972861617803574, 0.26190176606178284, -0.18798206746578217, 0.18010027706623077, 0.021135110408067703, 0.00823290180414915, -0.16663794219493866, 0.1537085920572281, -0.01935129053890705, 0.10059782862663269, 0.12961694598197937, 0.09575773030519485, -0.020861368626356125, 0.06921221315860748, 0.14200033247470856, 0.23075324296951294, -0.003379078349098563, -0.08588218688964844, 0.14424777030944824, -0.22286057472229004, 0.0705825686454773, 0.18235278129577637, 0.040460679680109024, 0.24192243814468384, 0.1137925460934639, 0.0646258071064949, -0.31210508942604065, 0.16734282672405243, 0.09755481779575348, -0.06155097857117653, -0.14007756114006042, 0.012053510174155235, -0.15577004849910736, -0.13286064565181732, 0.11138633638620377, -0.06898322701454163, -0.005545551888644695, -0.021285781636834145, 0.237030491232872, 0.2985219657421112, -0.05922161787748337, 0.21706192195415497], [-0.2573815882205963, 0.0022626356221735477, 0.25289905071258545, -0.12013619393110275, -0.2564403712749481, 0.2322859764099121, -0.28697559237480164, 0.28177928924560547, -0.15372148156166077, 0.024786492809653282, 0.2266564965248108, -0.2722378075122833, 0.23517155647277832, 0.1853499412536621, 0.2858319878578186, 0.251199871301651, 0.28710469603538513, -0.1572834551334381, -0.2465362548828125, 0.2523450553417206, -0.1569395512342453, -0.05033416673541069, -0.025288183242082596, 0.004370243288576603, -0.11224666982889175, -0.10399843752384186, 0.20505927503108978, -0.15484149754047394, -0.16184990108013153, 0.07027546316385269, -0.05602944269776344, -0.21737056970596313, 0.18988555669784546, 0.10159368067979813, 0.07867515087127686, -0.022909728810191154, 0.20174147188663483, 0.2135414183139801, 0.13822227716445923, -0.010270677506923676, -0.21269573271274567, -0.032083913683891296, -0.18862009048461914, -0.09889452159404755, 0.030043145641684532, -0.1061643660068512, 0.21492363512516022, -0.25626999139785767, 0.07112796604633331, 0.19045990705490112, 0.28683990240097046, 0.006764915306121111, 0.28733351826667786, -0.27063727378845215, 0.15439966320991516, 0.051996082067489624, -0.07030829787254333, 0.22305621206760406, 0.11967844516038895, -0.10107783228158951, -0.0010257685789838433, -0.1631583869457245, 0.07866940647363663, -0.12904007732868195], [0.17151539027690887, -0.11501505225896835, 0.20046846568584442, -0.24458543956279755, -0.19920676946640015, -0.13380837440490723, 0.06359435617923737, -0.1797623485326767, 0.16425640881061554, 0.04062942415475845, -0.10423433035612106, 0.13083148002624512, 0.0021667550317943096, -0.09319078177213669, 0.01748027838766575, 0.2611871361732483, 0.21012531220912933, -0.08896463364362717, 0.1542704850435257, -0.12908437848091125, 0.17426732182502747, -0.0062581617385149, 0.06059514358639717, 0.2685907185077667, 0.10301132500171661, 0.014655272476375103, 0.2485068142414093, 0.057053059339523315, 0.2152453511953354, 0.04501131549477577, -0.05072649195790291, -0.12431133538484573, -0.06899839639663696, -0.254975825548172, -0.2734524607658386, 0.17244292795658112, 0.1098463386297226, -0.17918811738491058, -0.2779792249202728, -0.0697871744632721, -0.264137864112854, 0.10495268553495407, -0.018292877823114395, 0.13936875760555267, 0.013060877099633217, 0.20973525941371918, -0.29684141278266907, -0.07140260189771652, -0.2311294972896576, 0.07242830842733383, 0.13343408703804016, -0.041927434504032135, 0.1904238909482956, -0.06737018376588821, -0.037821799516677856, 0.27474457025527954, 0.18827812373638153, 0.28621622920036316, 0.2505563199520111, 0.026000045239925385, 0.1266074776649475, 0.15181690454483032, 0.16881722211837769, -0.1524888426065445], [-0.07973067462444305, -0.1483207643032074, -0.22871533036231995, 0.10488983988761902, 0.23498332500457764, -0.10344751924276352, -0.2695310413837433, 0.04033734276890755, -0.0733284130692482, 0.25340715050697327, 0.09385886788368225, -0.26579785346984863, 0.22418420016765594, 0.07016437500715256, 0.0824473574757576, -0.017363036051392555, 0.1361977607011795, 0.060330577194690704, -0.16665266454219818, -0.2843991219997406, 0.22412358224391937, -0.0355772040784359, 0.09751257300376892, 0.2967146337032318, 0.015575160272419453, -0.025480233132839203, 0.04141489788889885, -0.12960071861743927, 0.07847542315721512, -0.16084055602550507, 0.2609429955482483, -0.28279638290405273, 0.00032627288601361215, 0.22499680519104004, -0.060997895896434784, -0.01632876507937908, 0.273171991109848, -0.2455158680677414, -0.21848084032535553, -0.193651482462883, 0.03782695159316063, -0.2654108703136444, -0.31144270300865173, -0.2484973967075348, -0.10533591359853745, 0.08853980898857117, 0.0025739751290529966, -6.385972665157169e-05, 0.011119884438812733, -0.21686284244060516, -0.11855264753103256, -0.2126149982213974, 0.26769086718559265, -0.28929734230041504, 0.23675017058849335, -0.02245298959314823, 0.16337597370147705, -0.16212953627109528, -0.014716963283717632, 0.21731238067150116, -0.036288369446992874, 0.20585866272449493, 0.06076236814260483, -0.12511102855205536], [-0.2517482042312622, -0.07455615699291229, 0.04507384076714516, 0.15510199964046478, 0.13392357528209686, 0.25754421949386597, -0.29819321632385254, -0.16815149784088135, 0.16122378408908844, -0.24150662124156952, 0.2648836374282837, -0.029312914237380028, -0.004257755819708109, 0.1857100874185562, 0.045478858053684235, -0.09769362211227417, 0.18316471576690674, 0.006059519946575165, 0.22295232117176056, -0.23642030358314514, 0.08263533562421799, -0.058533038944005966, -0.07834000140428543, -0.0021642011124640703, 0.16401997208595276, -0.17113454639911652, 0.02659321203827858, -0.1663627028465271, -0.06974191218614578, 0.1584310680627823, 0.2782561480998993, 0.004787077195942402, -0.06964968144893646, -0.015173876658082008, -0.16457457840442657, 0.2062612622976303, 0.046339329332113266, -0.19119563698768616, -0.2806817889213562, 0.30101364850997925, 0.02160853147506714, -0.2663639783859253, 0.26246926188468933, 0.07515228539705276, 0.18213631212711334, -0.13944217562675476, 0.07285349071025848, -0.009088248945772648, 0.2793681025505066, -0.27322959899902344, 0.03936158865690231, 0.018468372523784637, 0.23955218493938446, 0.10056503862142563, -0.1733563393354416, 0.26551851630210876, -0.010034993290901184, -0.2171163409948349, 0.061216238886117935, 0.19903269410133362, 0.2762781083583832, 0.08746796101331711, 0.022067364305257797, 0.174214169383049], [0.09122621268033981, -0.00917074829339981, -0.11118531227111816, -0.10115962475538254, 0.18482740223407745, -0.23551511764526367, 0.28601574897766113, -0.12095732241868973, 0.21235531568527222, 0.22420179843902588, -0.04082454741001129, 0.19009852409362793, 0.03765139728784561, 0.06488654017448425, -0.1698121577501297, 0.04533171281218529, -0.0752272680401802, 0.17883780598640442, -0.06747730076313019, 0.1881628930568695, -0.1754758656024933, 0.030053526163101196, 0.1023111641407013, 0.21884311735630035, 0.2726950943470001, 0.2620620131492615, 0.17281346023082733, 0.23687826097011566, -0.2899431586265564, -0.028902528807520866, 0.23573516309261322, 0.07639213651418686, 0.08891382068395615, 0.1980636864900589, -0.22114750742912292, -0.22113274037837982, -0.20082296431064606, -0.15286673605442047, -0.2648417353630066, 0.14587737619876862, 0.28680646419525146, -0.29122117161750793, 0.11543168127536774, -0.05821274220943451, 0.04375743120908737, -0.2394758015871048, 0.04511751979589462, -0.11807117611169815, -0.05317214876413345, -0.1373491734266281, 0.024207718670368195, 0.2023766040802002, -0.09571977704763412, 0.05289887264370918, -0.015826091170310974, -0.2671625316143036, -0.03454490005970001, 0.21648746728897095, -0.03709981590509415, -0.229864701628685, -0.22159402072429657, 0.14994709193706512, 0.27350595593452454, 0.06792423129081726], [0.1915780007839203, -0.030288103967905045, -0.2621280550956726, 0.12390652298927307, -0.3190368115901947, -0.062245775014162064, 0.252236008644104, 0.00535277184098959, 0.04346378520131111, 0.28292155265808105, -0.2411564141511917, 0.10121705383062363, -0.24263738095760345, -0.0836668387055397, -0.08218584954738617, -0.12726908922195435, 0.11612917482852936, 0.1842922568321228, 0.1373274028301239, 0.14304614067077637, 0.1620820313692093, 0.02676328457891941, 0.2741295397281647, 0.20352567732334137, -0.13451412320137024, 0.09052281081676483, 0.06581845879554749, 0.1942935734987259, 0.26614728569984436, -0.2513193190097809, 0.21218615770339966, -0.11879461258649826, -0.13234946131706238, 0.08867038786411285, -0.15981292724609375, 0.164815753698349, -0.18132750689983368, 0.2881679832935333, 0.11049003154039383, 0.08554792404174805, 0.32320958375930786, 0.22285181283950806, 0.022251293063163757, 0.2721123695373535, 0.03418966382741928, -0.15041372179985046, -0.07497596740722656, -0.08688684552907944, -0.007963987998664379, -0.3082384765148163, -0.24588453769683838, -0.17960813641548157, -0.14335061609745026, 0.14403949677944183, 0.2339341938495636, -0.18933390080928802, -0.22426868975162506, 0.09678751230239868, -0.12285307794809341, -0.07096537202596664, 0.24340490996837616, 0.07549858838319778, -0.2137768268585205, -0.20233900845050812], [-0.2232772409915924, 0.18007218837738037, 0.22134694457054138, 0.12506969273090363, -0.2726740539073944, 0.08058448880910873, 0.14890779554843903, -0.03330172225832939, 0.21391768753528595, -0.08928265422582626, 0.060083769261837006, 0.32060346007347107, -0.2511955797672272, 0.018165303394198418, -0.18334786593914032, -0.1736687868833542, -0.10510274767875671, -0.26098543405532837, 0.06642842292785645, 0.05976378172636032, 0.06985720247030258, -0.12430982291698456, -0.19177262485027313, 0.23718906939029694, 0.02672496624290943, 0.12944680452346802, -0.10684462636709213, 0.30302751064300537, 0.047314535826444626, 0.07316874712705612, -0.1465400755405426, -0.22841915488243103, -0.18200626969337463, -0.27091896533966064, 0.09799179434776306, 0.24792107939720154, 0.16685183346271515, -0.032463498413562775, -0.13499006628990173, 0.20673495531082153, 0.10457025468349457, -0.26592302322387695, -0.08689484000205994, 0.0475030317902565, -0.16991350054740906, 0.20787394046783447, 0.1248089149594307, 0.1095428392291069, 0.021768862381577492, 0.07111574709415436, -0.031613539904356, 0.04766608029603958, 0.0850699320435524, -0.27279385924339294, -0.252858430147171, -0.06881463527679443, -0.2408037930727005, 0.25220003724098206, -0.2770013213157654, 0.0984569638967514, 0.2993907034397125, 0.13428328931331635, 0.0022958836052566767, -0.27016299962997437], [-0.1749548614025116, -0.10393228381872177, -0.13746075332164764, 0.09110129624605179, 0.23605147004127502, 0.16773246228694916, -0.2689434289932251, -0.24546875059604645, 0.2064053863286972, -0.154033362865448, -0.24445593357086182, -0.2960740923881531, -0.26143884658813477, -0.150802344083786, 0.052099112421274185, -0.21297809481620789, 0.14066697657108307, 0.286199688911438, 0.10976389795541763, 0.25643807649612427, -0.03936656191945076, -0.07062980532646179, -0.12607523798942566, 0.18831950426101685, 0.26624611020088196, 0.11850716173648834, -0.1277618259191513, -0.09550082683563232, 0.025069667026400566, 0.15877997875213623, -0.15188078582286835, 0.2654601037502289, -0.13724052906036377, -0.11399038881063461, -0.18084995448589325, -0.06752026826143265, 0.017948228865861893, 0.002227243734523654, -0.24704867601394653, -0.027130739763379097, -0.23559345304965973, 0.29672035574913025, 0.08878926932811737, -0.28461626172065735, -0.060898199677467346, 0.2109861522912979, -0.15467464923858643, -0.21329395473003387, -0.2785964608192444, 0.28923293948173523, -0.19699808955192566, -0.003909604158252478, -0.20225588977336884, -0.058989591896533966, 0.2660592496395111, 0.21359577775001526, 0.1649257093667984, 0.20089475810527802, 0.06222908943891525, 0.044410597532987595, 0.2650858461856842, -0.03320224955677986, -0.1455807387828827, -0.21747790277004242], [-0.1277543604373932, 0.02804933860898018, -0.08958613127470016, -0.11203672736883163, -0.2767271399497986, 0.03482330963015556, 0.016447974368929863, -0.20210807025432587, 0.18572911620140076, -0.0865233838558197, -0.043594587594270706, 0.09126845002174377, -0.2903260886669159, 0.17320914566516876, -0.04499800130724907, 0.0160545501857996, 0.1247994676232338, 0.256733238697052, 0.16028615832328796, 0.017564548179507256, -0.006118057761341333, 0.23798930644989014, -0.20292367041110992, 0.08370710164308548, -0.2912740707397461, 0.10692013800144196, 0.03774373605847359, -0.02640303410589695, 0.0524003691971302, 0.03990115597844124, 0.12353324890136719, 0.0345032662153244, -0.08881330490112305, 0.11048505455255508, 0.015817884355783463, 0.21515555679798126, -0.0147700235247612, -0.0622469037771225, 0.19817450642585754, 0.14729519188404083, 0.2113146185874939, -0.0017319547478109598, 0.269352525472641, -0.11008355021476746, 0.02989800088107586, -0.25539013743400574, 0.12383195012807846, -0.16197827458381653, -0.08590067923069, -0.03267323598265648, -0.030437752604484558, -0.043320782482624054, 0.29409652948379517, 0.021847330033779144, 0.21348609030246735, 0.2717982232570648, 0.2038445919752121, 0.22661592066287994, 0.04106473550200462, 0.27281737327575684, -0.032487958669662476, -0.05559919774532318, 0.17502862215042114, 0.14488403499126434], [-0.19173724949359894, -0.27268972992897034, -0.20318584144115448, -0.0077825584448874, 0.006223522592335939, -0.27360302209854126, -0.08106124401092529, 0.14147712290287018, 0.03731796517968178, -0.25427329540252686, 0.1806754767894745, -0.2561863958835602, 0.00793990958482027, 0.06445024162530899, 0.26392215490341187, -0.21846731007099152, -0.22275410592556, -0.2643298804759979, -0.1693885624408722, 0.13748371601104736, 0.1643085926771164, 0.09251584112644196, -0.2621845304965973, 0.23822814226150513, -0.15856361389160156, 0.20552465319633484, 0.08624643832445145, 0.2236744612455368, 0.24741151928901672, 0.20832611620426178, -0.2654992938041687, 0.232217937707901, 0.029936639592051506, 0.1441928893327713, -0.20511126518249512, -0.08162464201450348, -0.08417857438325882, -0.28667744994163513, 0.2587091028690338, 0.04641823098063469, 0.06769279390573502, 0.0030484322924166918, -0.035535778850317, 0.3127196431159973, -0.10029947012662888, -0.20506325364112854, -0.3014519512653351, -0.2038847655057907, 0.20632335543632507, -0.2452460676431656, -0.056207675486803055, 0.1488487422466278, -0.28201690316200256, -0.16298897564411163, 0.2035132795572281, 0.02836041897535324, 0.0885961502790451, -0.2519749104976654, 0.24584805965423584, -0.24609962105751038, -0.2560857832431793, -0.19103525578975677, 0.22225093841552734, 0.18056932091712952], [0.11617762595415115, -0.2499026358127594, -0.2628544569015503, 0.08334431052207947, -0.030510365962982178, -0.11670909821987152, -0.009844159707427025, 0.10547960549592972, -0.12498074769973755, 0.21290405094623566, 0.08568073064088821, 0.10339324176311493, -0.2677672207355499, 0.08279319107532501, 0.18777193129062653, -0.22915256023406982, -0.27627143263816833, 0.25576475262641907, 0.053852565586566925, 0.09774252027273178, 0.028670374304056168, 0.14813508093357086, -0.06862308830022812, -0.19895480573177338, 0.2005903571844101, -0.3085271716117859, 0.31194907426834106, -0.10877883434295654, 0.1737571656703949, 0.18510009348392487, -0.1657634973526001, 0.29616621136665344, 0.09142006933689117, -0.23275452852249146, 0.013491634279489517, 0.12236759811639786, 0.2678922414779663, 0.0377708300948143, 0.2358396053314209, 0.06412124633789062, -0.042724285274744034, 0.18673692643642426, -0.255960077047348, 0.1436900794506073, 0.31846940517425537, 0.03557387739419937, -0.24978676438331604, -0.25085851550102234, 0.05285194143652916, 0.12212059646844864, -0.2552245557308197, 0.03292448818683624, 0.05216478183865547, -0.2526997923851013, 0.18983948230743408, -0.19265945255756378, 0.19084925949573517, -0.03882893547415733, -0.2208145707845688, 0.15649650990962982, -0.045476850122213364, 0.2184656411409378, 0.10378315299749374, 0.1717222034931183], [-0.26576048135757446, 0.0883638858795166, 0.29824113845825195, 0.04776860773563385, -0.07329617440700531, 0.058798570185899734, -0.07778740674257278, 0.1309659779071808, -0.13505446910858154, 0.06495922058820724, -0.13375581800937653, 0.15389230847358704, -0.08908239752054214, -0.27897128462791443, 0.24911528825759888, -0.09856128692626953, -0.09163567423820496, 0.010738203302025795, 0.20508365333080292, 0.19042862951755524, 0.22826693952083588, 0.1588844358921051, -0.2006828486919403, -0.24822957813739777, 0.15330156683921814, 0.1420103907585144, -0.2757469713687897, -0.09522290527820587, -0.13786986470222473, -0.3091128468513489, 0.23964042961597443, -0.16136065125465393, 0.07371455430984497, -0.24569624662399292, 0.18369054794311523, -0.28115710616111755, -0.26791495084762573, -0.2401459962129593, -0.15860489010810852, -0.06326666474342346, 0.24086864292621613, 0.011614012531936169, -0.028333570808172226, -0.09425634145736694, -0.14819088578224182, 0.0557340532541275, -0.12050902843475342, -0.09967520833015442, -0.08918333053588867, -0.019724495708942413, 0.2845028042793274, -0.2212734967470169, 0.06537558138370514, -0.16070164740085602, -0.2809818983078003, 0.27226129174232483, -0.2868509888648987, -0.19078238308429718, -0.249796062707901, 0.10968171805143356, 0.21401946246623993, 0.1915217787027359, 0.2479180246591568, -0.2339872270822525], [-0.11246419697999954, 0.19977542757987976, -0.06377580761909485, 0.0019441996701061726, -0.05242258682847023, 0.26436570286750793, 0.24006183445453644, 0.08386726677417755, -0.15785056352615356, -0.014420167542994022, -0.06984690576791763, -0.15286137163639069, 0.1730780154466629, -0.26759642362594604, 0.31287989020347595, -0.06781221926212311, -0.14462921023368835, -0.2045457810163498, 0.0893094390630722, -0.09105812013149261, -0.21426399052143097, 0.07116734236478806, -0.20935644209384918, 0.10032764822244644, 0.22364789247512817, -0.24792657792568207, 0.06315183639526367, -0.11646348983049393, -0.04867321997880936, 0.19875264167785645, -0.25553885102272034, -0.01733219251036644, 0.07832857221364975, -0.2601777911186218, 0.2092997431755066, -0.0364101380109787, 0.07715851813554764, -0.05691283196210861, 0.011886637657880783, 0.1864548623561859, -0.2507476508617401, -0.05593299865722656, 0.03359833359718323, -0.2646310329437256, -0.17647534608840942, -0.2678806781768799, -0.18830908834934235, -0.03653257340192795, -0.28249526023864746, 0.14947307109832764, -0.08119966089725494, 0.02621224708855152, 0.09214860945940018, 0.02841777540743351, -0.12046884000301361, -0.029459884390234947, -0.3089371621608734, 0.16595934331417084, 0.25762712955474854, -0.12968075275421143, 0.08873670548200607, 0.21531422436237335, -0.1333826184272766, -0.30291420221328735], [-0.08763003349304199, -0.2545318305492401, 0.05862051248550415, 0.12249255925416946, -0.10481737554073334, -0.29970583319664, 0.024099942296743393, -0.20161335170269012, -0.28725042939186096, 0.03647695481777191, -0.07076463103294373, -0.13477148115634918, 0.12235204130411148, -0.0532480925321579, 0.15224602818489075, -0.12631791830062866, -0.03182290866971016, -0.17941074073314667, -0.22532092034816742, 0.13367769122123718, 0.23333218693733215, -0.14776289463043213, 0.26052430272102356, 0.22092977166175842, 0.17160509526729584, -0.2840469777584076, -0.024385731667280197, -0.11060144007205963, -0.10051561146974564, 0.13153983652591705, 0.16901206970214844, 0.07762429863214493, -0.18967163562774658, 0.0029533235356211662, 0.16586150228977203, 0.13273948431015015, 0.1351744383573532, 0.1727808117866516, 0.14167727530002594, 0.15469132363796234, -0.16707220673561096, -0.2246416211128235, -0.12928827106952667, 0.2651819586753845, -0.21121320128440857, -0.09209223836660385, -0.006128963083028793, 0.08160746842622757, -0.21487468481063843, 0.0027364701963961124, 0.20602387189865112, -0.08640976250171661, -0.0334586501121521, -0.23725946247577667, 0.15689468383789062, -0.27669623494148254, -0.018233001232147217, -0.30254730582237244, 0.17527304589748383, -0.31197795271873474, -0.22354760766029358, 0.08891715109348297, 0.022094473242759705, 0.05532603710889816], [-0.2062324583530426, 0.04639790952205658, -0.08652781695127487, 0.0128896813839674, -0.23744401335716248, 0.0353359654545784, 0.07662992179393768, 0.014413336291909218, -0.12666650116443634, -0.2590181827545166, 0.011161318980157375, -0.0033514120150357485, 0.32193148136138916, 0.2764299213886261, -0.07935568690299988, -0.32422468066215515, -0.16717509925365448, -0.2931129038333893, 0.08968474715948105, 0.15585380792617798, 0.17676429450511932, -0.13299834728240967, -0.17098692059516907, -0.027117395773530006, 0.14828580617904663, -0.05813940614461899, -0.06451544910669327, 0.0885256752371788, 0.13709144294261932, -0.07544410228729248, -0.041295770555734634, -0.25905653834342957, 0.040229178965091705, 0.07952465116977692, 0.15174971520900726, -0.15589019656181335, 0.15997189283370972, 0.20180632174015045, 0.00561505788937211, -0.16618800163269043, -0.04969027638435364, -0.043780092149972916, -0.25545626878738403, -0.13549484312534332, 0.1981632113456726, 0.12203080207109451, 0.2349000722169876, 0.17688363790512085, -0.09995103627443314, 0.21759659051895142, -0.17345315217971802, 0.11551957577466965, 0.05744393914937973, 0.08841968327760696, -0.07950937747955322, 0.1160362958908081, 0.006687548477202654, -0.2942712604999542, -0.01877373829483986, 0.2586807608604431, 0.3082398474216461, 0.2929157018661499, -0.03329141065478325, -0.26108014583587646], [-0.2212057113647461, 0.16989435255527496, -0.20385608077049255, 0.21118925511837006, 0.03938763961195946, -0.2752758264541626, -0.11193407326936722, 0.026583049446344376, 0.06844393908977509, -0.12151909619569778, -0.3133266270160675, 0.31787213683128357, 0.258573442697525, -0.1556626856327057, -0.3142470717430115, -0.2891855537891388, -0.15057243406772614, -0.15608319640159607, -0.14718075096607208, -0.035585880279541016, -0.11509720981121063, 0.18760664761066437, -0.18337853252887726, -0.11299208551645279, -0.23324589431285858, -0.18749089539051056, -0.23426289856433868, 0.05939970910549164, -0.1970502883195877, 0.11129042506217957, 0.20125626027584076, 0.1732972115278244, -0.03699570149183273, -0.18326832354068756, -0.118644580245018, -0.20528703927993774, -0.27566519379615784, 0.28975459933280945, 0.14657029509544373, 0.09070540964603424, 0.059681687504053116, -0.028399905189871788, 0.28729623556137085, -0.11562389880418777, -0.05867736414074898, -0.2279292494058609, -0.16497595608234406, 0.24075664579868317, -0.2760397493839264, 0.10667698830366135, 0.010972220450639725, 0.19287735223770142, -0.00821193028241396, -0.28850191831588745, -0.08011986315250397, -0.29859456419944763, 0.23918448388576508, -0.1541677564382553, 0.16811034083366394, 0.1878761500120163, -0.05019410327076912, 0.13451677560806274, 0.271513968706131, 0.2534138560295105], [0.15824508666992188, -0.24806435406208038, -0.08302009850740433, 0.1844688206911087, -0.06241457164287567, 0.1069519892334938, 0.1753275990486145, -0.1508733332157135, 0.12178082764148712, -0.057373374700546265, -0.04245872423052788, -0.2820061445236206, 0.18303553760051727, -0.27713677287101746, 0.27191007137298584, 0.21477247774600983, -0.1971481591463089, -0.18472562730312347, -0.12540754675865173, -0.1766773760318756, -0.061867307871580124, 0.05422323942184448, -0.10419782996177673, -0.09026466310024261, -0.044935230165719986, 0.1856572926044464, 0.29094475507736206, 0.11696791648864746, 0.06765126436948776, -0.11559118330478668, -0.026036474853754044, 0.22778724133968353, 0.10712702572345734, -0.24693956971168518, 0.11015651375055313, 0.22564652562141418, -0.1312156319618225, 0.19614997506141663, 0.061913758516311646, 0.12309695780277252, -0.02205648645758629, -0.01009280327707529, -0.19777444005012512, 0.035322245210409164, 0.2119104117155075, -0.09444032609462738, 0.157232403755188, 0.09036879986524582, -0.0991746336221695, -0.03682483360171318, 0.14101579785346985, -0.1517544388771057, 0.03503800183534622, -0.15980824828147888, 0.1766095608472824, 0.10268130153417587, -0.027585094794631004, -0.005011590197682381, -0.1745828092098236, 0.29911714792251587, -0.1608315110206604, 0.22065865993499756, 0.07686598598957062, -0.1528308391571045], [-0.046177804470062256, -0.18029053509235382, 0.14216424524784088, 0.13512499630451202, -0.21403418481349945, -0.13933730125427246, -0.1382463276386261, 0.13686344027519226, -0.19246217608451843, -0.19511038064956665, -0.2027738392353058, 0.3007999062538147, -0.13607928156852722, -0.013421785086393356, 0.2109519988298416, 0.22162406146526337, 0.284909188747406, 0.03360247239470482, -0.18044155836105347, 0.044263627380132675, 0.08923447132110596, 0.0634717047214508, 0.14517253637313843, 0.1884503960609436, -0.2476411908864975, -0.026339683681726456, -0.2795918583869934, -0.06453721970319748, -0.06852486729621887, 0.042019616812467575, -0.005702145863324404, 0.029749464243650436, 0.26897475123405457, -0.07489912956953049, 0.03733055666089058, 0.004237773362547159, -0.04338431358337402, 0.10166927427053452, 0.19696158170700073, 0.13803043961524963, 0.018403109163045883, -0.31479305028915405, 0.04401523619890213, -0.0011093908688053489, 0.23547488451004028, -0.2781868875026703, -0.1564164161682129, -0.28569480776786804, -0.200715571641922, -0.056995999068021774, -0.19007769227027893, -0.13936251401901245, -0.17250877618789673, 0.2019374668598175, 0.05706700310111046, -0.06439177691936493, -0.041733067482709885, 0.020496845245361328, -0.2693899869918823, -0.24698762595653534, -0.29557961225509644, 0.03533630445599556, 0.24568696320056915, 0.1789202243089676], [0.14260950684547424, -0.17228490114212036, -0.12057129293680191, -0.2290225774049759, 0.21279507875442505, 0.0877508819103241, -0.004698524717241526, 0.15327464044094086, -0.23002630472183228, -0.2571505904197693, 0.03329867497086525, 0.22406156361103058, 0.10259732604026794, 0.1756560504436493, -0.022828489542007446, 0.1258416771888733, 0.28387245535850525, -0.13486361503601074, -0.29365888237953186, -0.13530057668685913, -0.24805405735969543, 0.19676989316940308, -0.17712870240211487, -0.2161225527524948, -0.056611496955156326, -0.05251627415418625, 0.22195057570934296, -0.09200762212276459, -0.27020707726478577, 0.0758613646030426, -0.2294643074274063, -0.1546678990125656, -0.2271534502506256, 0.13281960785388947, -0.21795140206813812, -0.19634412229061127, 0.14908652007579803, 0.09233590215444565, 0.18285073339939117, 0.018201276659965515, -0.11337102204561234, -0.2754287123680115, 0.19108538329601288, 0.13118821382522583, -0.19189390540122986, -0.2865141034126282, -0.025508802384138107, -0.06515617668628693, -0.2728307843208313, 0.06842222809791565, 0.1736358404159546, 0.281971275806427, 0.1466059535741806, -0.04522588104009628, 0.0939808040857315, -0.06151039898395538, -0.21956521272659302, 0.1641341894865036, -0.28252989053726196, -0.004651343449950218, -0.13257667422294617, -0.24539873003959656, 0.07498373091220856, 0.08483227342367172], [0.25455743074417114, 0.1609008014202118, -0.01776396669447422, 0.1308635175228119, 0.23786626756191254, -0.3052999675273895, -0.0009557963348925114, 0.20644469559192657, -0.2912106513977051, 0.19297848641872406, -0.0533352866768837, -0.2677121162414551, 0.1818319410085678, -0.00588477635756135, -0.3241959512233734, 0.13580039143562317, -0.007991327904164791, 0.29484009742736816, -0.006733611226081848, 0.2712000012397766, 0.11006366461515427, 0.06756560504436493, 0.19462300837039948, -0.14717289805412292, -0.18946602940559387, -0.20381276309490204, -0.28654995560646057, 0.21252985298633575, -0.2815876603126526, -0.13652357459068298, 0.05340581387281418, -0.22292447090148926, 0.14009857177734375, -0.1387052834033966, -0.03027513064444065, 0.28618666529655457, 0.21838277578353882, 0.0064231217838823795, 0.20378585159778595, -0.14188195765018463, 0.3072514533996582, 0.15105824172496796, -0.11473175883293152, -0.08497851341962814, -0.12471076101064682, -0.13781191408634186, -0.23104745149612427, 0.2840966284275055, -0.29794931411743164, -0.17436344921588898, 0.3123147189617157, 0.19221684336662292, 0.05956869572401047, -0.21469534933567047, 0.046207208186388016, 0.16988004744052887, 0.061420414596796036, 0.2501088082790375, 0.054547928273677826, 0.09746767580509186, 0.2703941762447357, -0.29113611578941345, 0.23547515273094177, 0.26897937059402466], [-0.1605561226606369, -0.23719945549964905, 0.2577819526195526, -0.1561802625656128, -0.18106083571910858, 0.13667899370193481, -0.12990300357341766, 0.2579445242881775, 0.2032272219657898, 0.2973751127719879, -0.27966734766960144, -0.2260044366121292, -0.12682926654815674, 0.147842139005661, -0.24477225542068481, -0.0974569320678711, 0.2378748655319214, 0.16509327292442322, 0.09178648144006729, 0.055415038019418716, 0.23637309670448303, -0.2612244486808777, -0.043160393834114075, 0.0458381213247776, -0.10444700717926025, 0.026021260768175125, -0.15812882781028748, 0.26041364669799805, -0.08108070492744446, 0.0050556352362036705, -0.11135372519493103, -0.13754557073116302, -0.21855686604976654, 0.28807586431503296, -0.11093620955944061, 0.06118403375148773, 0.15727239847183228, 0.21718859672546387, 0.04502381011843681, 0.09186550974845886, -0.25551244616508484, 0.05112121254205704, -0.2368004471063614, -0.22065536677837372, 0.00030882167629897594, -0.2073514461517334, 0.06784559041261673, -0.27538609504699707, -0.2690979540348053, 0.15954740345478058, 0.18915154039859772, -0.31955409049987793, 0.013590103015303612, -0.23674264550209045, -0.002695258939638734, 0.11437955498695374, 0.13137832283973694, 0.1470506340265274, 0.18756724894046783, -0.08736488223075867, 0.23255440592765808, 0.01204892061650753, -0.03324250504374504, 0.2349998950958252], [-0.25527042150497437, -0.24282196164131165, -0.04546383023262024, 0.2418331801891327, -0.27902939915657043, -0.2310211956501007, 0.2790740132331848, 0.2980586290359497, -0.19174636900424957, -0.110263891518116, 0.026767781004309654, -0.029972711578011513, -0.14312982559204102, 0.011345171369612217, -0.08267442137002945, 0.040982771664857864, 0.19422371685504913, -0.11404135078191757, 0.22819384932518005, 0.2137823849916458, -0.21473070979118347, 0.16236454248428345, -0.14287897944450378, 0.19862528145313263, 0.14993569254875183, -0.23130644857883453, -0.022817853838205338, -0.07519520074129105, -0.12082024663686752, -0.08032602816820145, -0.06963837146759033, -0.2491997927427292, -0.13847079873085022, 0.29926276206970215, -0.0032409692648798227, -0.11190959811210632, -0.08582855761051178, 0.0483083538711071, -0.06603895127773285, -0.0763196051120758, -0.061752159148454666, -0.12643273174762726, -0.233778715133667, -0.05885080248117447, 0.05773592367768288, 0.1029803603887558, 0.1080634817481041, -0.2701748311519623, -0.18224036693572998, 0.28466540575027466, -0.1786511242389679, 0.1564803123474121, 0.30308541655540466, 0.056770507246255875, -0.09194929152727127, 0.0661168098449707, -0.05746985971927643, -0.03218917176127434, -0.2836894094944, -0.09675859659910202, 0.11193947494029999, 0.03141729161143303, 0.055656373500823975, 0.03366153687238693], [0.06583557277917862, 0.1984710842370987, 0.23657344281673431, 0.01397935301065445, 0.0890435129404068, 0.16751280426979065, -0.15571682155132294, -0.3166387975215912, 0.1853487491607666, -0.19539082050323486, -0.13844840228557587, -0.04643075540661812, -0.18557505309581757, 0.010293934494256973, -0.2218887358903885, -0.039920028299093246, -0.2894337475299835, -0.2896580100059509, 0.23723919689655304, -0.0898730680346489, 0.30896469950675964, -0.31756696105003357, -0.2891218066215515, 0.14817233383655548, -0.2869456112384796, -0.27434250712394714, 0.15021809935569763, -0.014456738717854023, 0.18454959988594055, 0.13211922347545624, 0.1332654505968094, -0.2710733115673065, 0.2033291459083557, 0.05088653415441513, -0.1520209163427353, 0.2887934148311615, 0.17497816681861877, 0.21579581499099731, 0.22127455472946167, -0.15990139544010162, 0.10214526951313019, 0.12509801983833313, -0.18324388563632965, -0.14787620306015015, 0.28418657183647156, -0.15704141557216644, 0.30612629652023315, -0.273324579000473, 0.15934978425502777, -0.0745338425040245, -0.15362514555454254, 0.17287348210811615, -0.021741066128015518, -0.16298674046993256, 0.09530507773160934, -0.005236043129116297, -0.17156125605106354, -0.11934541910886765, -0.147638738155365, 0.05928532034158707, -0.03945857658982277, -0.25870034098625183, -0.1916598230600357, -0.10391870141029358], [0.3198159635066986, 0.21326129138469696, -0.09122290462255478, 0.27064335346221924, 0.25913190841674805, 0.24346604943275452, 0.0441349633038044, -0.21946103870868683, 0.021798724308609962, -0.1154170036315918, -0.1355305314064026, -0.3267227113246918, 0.3023926019668579, -0.15066832304000854, 0.017732424661517143, 0.17621713876724243, -0.13775408267974854, 0.2116130143404007, 0.035573218017816544, 0.2034880369901657, -0.12766550481319427, 0.02349213883280754, -0.3187260329723358, -0.04685387760400772, 0.26474618911743164, -0.009185325354337692, 0.05805287882685661, -0.16960136592388153, -0.11737016588449478, -0.2793712913990021, -0.04899558052420616, -0.16542896628379822, 0.07637272030115128, -0.19765737652778625, -0.1293656975030899, 0.2297034114599228, 0.2487150877714157, 0.29847952723503113, 0.03312868997454643, -0.05323394760489464, -0.0955723226070404, 0.2781389653682709, 0.129403218626976, 0.26609230041503906, 0.10495277494192123, 0.09251980483531952, 0.0030725859105587006, -0.08214318752288818, -0.09996750950813293, 0.27905455231666565, 0.20177415013313293, -0.023921431973576546, 0.27903443574905396, 0.11265328526496887, 0.061565693467855453, 0.22427932918071747, -0.19135282933712006, -0.16158990561962128, 0.01490881945937872, -0.04918380826711655, 0.14787524938583374, 0.11106660217046738, 0.20203332602977753, -0.21102984249591827], [0.01351109892129898, -0.01720886491239071, -0.04375876858830452, 0.0343458466231823, -0.023395413532853127, 0.20161543786525726, -0.07471615076065063, 0.05051922798156738, -0.28960493206977844, 0.15826719999313354, -0.028390735387802124, -0.14692403376102448, -0.32678771018981934, 0.17916905879974365, 0.2620132565498352, -0.03490782529115677, -0.12665344774723053, -0.2510210871696472, 0.016151603311300278, -0.10468243807554245, -0.13291922211647034, -0.19973014295101166, -0.22644829750061035, 0.2580054998397827, 0.21097636222839355, 0.05202070623636246, -0.009323462843894958, -0.03246913105249405, 0.0008041970431804657, -0.14343222975730896, -0.25377315282821655, 0.29240208864212036, 0.15928465127944946, 0.1137290894985199, -0.053858790546655655, -0.16211968660354614, -0.04833328351378441, -0.15620668232440948, -0.23323504626750946, -0.23453618586063385, 0.16486802697181702, 0.07104109972715378, -0.30858752131462097, -0.08090808242559433, 0.31709378957748413, -0.09225298464298248, -0.09468111395835876, -0.21323330700397491, 0.040632717311382294, -0.03307074308395386, -0.1422261744737625, 0.12115717679262161, -0.26205286383628845, 0.026889845728874207, -0.23546066880226135, -0.050947681069374084, 0.100814089179039, 0.2939755320549011, -0.1788836419582367, 0.27779239416122437, 0.08003196120262146, 0.06042362004518509, 0.15163467824459076, 0.14228427410125732], [0.0514557883143425, -0.1947154402732849, 0.0016156751662492752, 0.14139962196350098, -0.28864941000938416, 0.049276504665613174, 0.30261075496673584, 0.14518697559833527, 0.16811543703079224, -0.21508604288101196, 0.01590830273926258, -0.15732945501804352, -0.1107964962720871, -0.016126254573464394, -0.2421775609254837, 0.07081330567598343, -0.1986759603023529, -0.2657855451107025, -0.2706294357776642, 0.043306346982717514, 0.13956373929977417, -0.22121255099773407, -0.12039545178413391, -0.15393926203250885, 0.10185671597719193, -0.13088993728160858, 0.03604678437113762, 0.002612312790006399, 0.15168198943138123, -0.17573338747024536, -0.28808093070983887, -0.11217769980430603, -0.04529564827680588, -0.03925284743309021, -0.10912913829088211, -0.05244317650794983, -0.023247400298714638, -0.0264312494546175, -0.11709915846586227, 0.047443173825740814, 0.18540506064891815, -0.0988391563296318, -0.20253780484199524, 0.0491405688226223, 0.2665005326271057, 0.1726866215467453, -0.3052141070365906, -0.2735932767391205, 0.13301019370555878, -0.2728903889656067, -0.24439170956611633, -0.3089579939842224, 0.029718460515141487, 0.19678452610969543, 0.03427298739552498, 0.29744791984558105, 0.22286081314086914, 0.016601229086518288, 0.11392122507095337, 0.10512746870517731, -0.07791021466255188, 0.0034518318716436625, 0.23341000080108643, 0.07858450710773468], [-0.011544554494321346, -0.101790651679039, 0.23603281378746033, -0.020760200917720795, 0.15148048102855682, 0.07165573537349701, 0.19324807822704315, 0.23983004689216614, 0.17172518372535706, -0.02379504218697548, 0.12048737704753876, 0.13554446399211884, -0.2760482430458069, -0.021816927939653397, 0.2482367604970932, 0.0635756328701973, 0.26891541481018066, -0.2788859009742737, 0.08639996498823166, 0.19002395868301392, -0.3008368909358978, 0.16990847885608673, 0.18496201932430267, 0.23724353313446045, -0.2842680513858795, 0.07495320588350296, -0.04518038406968117, 0.13895165920257568, 0.25011852383613586, 0.23716695606708527, -0.11439532041549683, 0.21196249127388, 0.250074177980423, -0.2114279866218567, -0.016924861818552017, 0.06247592717409134, 0.10996992886066437, -0.1643926501274109, -0.19687598943710327, -0.22876200079917908, 0.09725678712129593, -0.24043288826942444, -0.05961715430021286, 0.03729876130819321, 0.19173702597618103, -0.30822107195854187, -0.014257599599659443, -0.24242697656154633, -0.26992353796958923, 0.13652022182941437, 0.2549341022968292, -0.08631175011396408, 0.27791017293930054, 0.01698530651628971, -0.0913449227809906, -0.2627607583999634, 0.25084641575813293, -0.1290709674358368, 0.031033404171466827, 0.2387329638004303, -0.2940097749233246, -0.18603844940662384, -0.27307841181755066, 0.2022816389799118], [-0.23789085447788239, 0.2526358962059021, -0.15002261102199554, -0.2731436491012573, 0.2259618192911148, 0.2839730381965637, 0.18365827202796936, 0.04972563683986664, 0.21007037162780762, -0.16760987043380737, -0.12811686098575592, -0.025944946333765984, -0.21034669876098633, -0.07494889944791794, -0.2489643096923828, 0.12996748089790344, 0.15313087403774261, -0.2255987823009491, 0.15837767720222473, -0.1236867755651474, -0.13173186779022217, 0.2861950099468231, 0.24143482744693756, 0.2114788293838501, 0.19251950085163116, 0.04725482687354088, 0.30502650141716003, -0.21058590710163116, 0.05643763765692711, 0.11077738553285599, -0.1351500004529953, -0.20842811465263367, 0.046333760023117065, 0.16100500524044037, -0.14478419721126556, -0.07467155158519745, 0.14055390655994415, 0.1014847606420517, 0.17421701550483704, 0.2899594008922577, 0.15655015408992767, -0.2566029727458954, 0.10228479653596878, 0.29237255454063416, -0.15330103039741516, 0.13810375332832336, -0.07846013456583023, -0.20224632322788239, -0.2270178496837616, -0.029790306463837624, 0.12255339324474335, 0.0789741575717926, 0.12259921431541443, -0.11245265603065491, 0.06955935060977936, -0.16116173565387726, -0.12405088543891907, 0.3140109181404114, 0.14824174344539642, -0.2531757056713104, -0.0742865800857544, -0.14784617722034454, -0.29784470796585083, 0.24855293333530426], [-0.0967387780547142, 0.04339351877570152, 0.08373673260211945, -0.17644551396369934, 0.1450716257095337, 0.269094318151474, 0.1687900424003601, 0.05038360506296158, -0.2636346220970154, 0.08096906542778015, -0.14716102182865143, -0.1103789359331131, -0.2800717055797577, -0.04708292335271835, 0.2602154016494751, 0.12654419243335724, -0.11649587005376816, 0.004070401191711426, 0.17296460270881653, -0.2932508885860443, 0.2749694883823395, 0.14069437980651855, -0.23390606045722961, -0.32657644152641296, -0.18321314454078674, 0.2515098750591278, -0.04604416340589523, 0.01295505091547966, 0.11952999979257584, 0.17883168160915375, 0.1304258406162262, 0.09940925240516663, 0.05103745311498642, 0.08900552988052368, -0.2169358879327774, 0.05868111550807953, -0.04149450361728668, -0.22855974733829498, -0.19599439203739166, -0.06685338169336319, -0.31315556168556213, 0.23566490411758423, -0.11633170396089554, -0.05787208303809166, -0.1966717541217804, 0.23977181315422058, 0.1754395216703415, 0.0366794653236866, -0.12314612418413162, 0.18349169194698334, 0.1393584907054901, -0.21393291652202606, -0.2502742409706116, 0.24150773882865906, 0.032887671142816544, -0.14750812947750092, -0.26818883419036865, -0.10488240420818329, 0.06718556582927704, 0.08936719596385956, -0.053421903401613235, -0.1515587866306305, -0.10750576108694077, 0.09129048883914948], [-0.047804124653339386, -0.12433484941720963, 0.2854982316493988, 0.18635039031505585, 0.0016428208909928799, 0.014467405155301094, 0.2592664659023285, -0.14369486272335052, -0.05935457721352577, 0.20213428139686584, -0.07409937679767609, -0.10444843769073486, -0.2442038655281067, -0.25831446051597595, -0.2713182866573334, -0.13192835450172424, 0.16803337633609772, -0.30860862135887146, 0.03726328909397125, -0.09153322875499725, -0.24426968395709991, 0.16921398043632507, 0.2471659630537033, -0.12859120965003967, 0.09872821718454361, 0.079721599817276, -0.15554235875606537, -0.07458533346652985, -0.11991728097200394, -0.2766415774822235, 0.30132076144218445, -0.3016384243965149, -0.2607428729534149, -0.2987339496612549, -0.14499591290950775, -0.28294190764427185, 0.26164308190345764, -0.04659576341509819, 0.15122957527637482, -0.010633307509124279, 0.010756401345133781, 0.290558397769928, 0.025185469537973404, 0.046110786497592926, 0.210604727268219, -0.25129348039627075, 0.08087536692619324, 0.12742879986763, 0.18462598323822021, 0.22965212166309357, -0.08815020322799683, -0.1827777475118637, -0.2356768399477005, -0.026796327903866768, 0.2615674138069153, 0.28845444321632385, 0.28236842155456543, -0.23234494030475616, -0.1077042818069458, 0.061277952045202255, -0.2509647607803345, -0.20276103913784027, -0.07810866832733154, -0.2661929428577423], [0.08396468311548233, -0.047900643199682236, 0.24432361125946045, 0.0011257564183324575, -0.14385643601417542, -0.18817205727100372, -0.22507750988006592, -0.285988986492157, -0.2758590579032898, 0.26871633529663086, 0.2075929343700409, 0.31693583726882935, 0.16981691122055054, -0.22004537284374237, -0.17060963809490204, 0.1102631539106369, 0.1738218516111374, -0.2215644121170044, -0.028649063780903816, 0.13641846179962158, -0.2738160789012909, 0.02738369256258011, -0.12904366850852966, -0.1966731697320938, 0.13035006821155548, -0.2749796509742737, 0.04622610658407211, 0.2688974142074585, -0.17514978349208832, 0.24958819150924683, 0.031464677304029465, 0.1858082264661789, 0.09428273141384125, 0.09203755110502243, 0.24266958236694336, 0.0018288892460986972, 0.12094540148973465, 0.12089276313781738, -0.20074857771396637, 0.21057230234146118, 0.11778879910707474, 0.07330696284770966, 0.08023776859045029, 0.14306768774986267, 0.08077775686979294, 0.043129246681928635, -0.14412929117679596, 0.14211240410804749, 0.24627207219600677, 0.048442378640174866, -0.19521023333072662, -0.13526996970176697, -0.23755404353141785, -0.002307691378518939, -0.14854352176189423, 0.27247926592826843, 0.2060176432132721, 0.16240108013153076, 0.15696264803409576, 0.17018947005271912, -0.06304773688316345, 0.14570337533950806, -0.07063382863998413, -0.30462127923965454], [0.18882516026496887, 0.15293152630329132, 0.11984933912754059, -0.2675327956676483, -0.15836460888385773, 0.021400926634669304, 0.06502246856689453, 0.02062992937862873, 0.14021959900856018, -0.026928909122943878, 0.06776068359613419, -0.09417994320392609, 0.14232634007930756, 0.26851895451545715, 0.27354755997657776, 0.010729747824370861, 0.28351330757141113, 0.061486463993787766, 0.021327389404177666, 0.10846487432718277, 0.2060127556324005, -0.0681564062833786, -0.050448350608348846, -0.26440221071243286, -0.14914178848266602, 0.2154352366924286, 0.058868471533060074, 0.009907039813697338, -0.16635794937610626, 0.04402271285653114, 0.06059311330318451, -0.032839301973581314, 0.20968520641326904, -0.1222786009311676, 0.05384986102581024, -0.17938563227653503, 0.20616240799427032, -0.14967289566993713, -0.25892066955566406, -0.1448574960231781, 0.14404839277267456, 0.27593982219696045, 0.2693314254283905, -0.23246505856513977, 0.052413299679756165, -0.14123857021331787, 0.16053065657615662, 0.14501948654651642, 0.16611015796661377, 0.16963332891464233, 0.27443546056747437, 0.3130086064338684, -0.17791594564914703, -0.260869562625885, -0.07825175672769547, -0.18191048502922058, -0.27972355484962463, 0.0647788941860199, 0.02935521863400936, 0.238872230052948, -0.2515716850757599, -0.07449779659509659, 0.25620314478874207, -0.15702080726623535], [-0.1426154524087906, -0.10091931372880936, -0.12372416257858276, -0.17251484096050262, -0.07879604399204254, -0.018853021785616875, -0.20144039392471313, 0.29294171929359436, 0.03667690232396126, -0.23340262472629547, 0.09626191109418869, -0.2728024125099182, -0.18704569339752197, 0.29781901836395264, -0.31130847334861755, 0.0171352569013834, -0.22025704383850098, 0.20039673149585724, -0.10447685420513153, 0.020050156861543655, 0.1087256446480751, 0.04406338185071945, 0.2786124050617218, 0.22274981439113617, -0.24078257381916046, -0.27801400423049927, -0.09878168255090714, 0.005918574519455433, 0.2845520079135895, 0.3132058084011078, 0.07483381778001785, -0.07726477086544037, -0.06326862424612045, 0.10693787038326263, 0.26389753818511963, 0.035359181463718414, -0.04429832473397255, 0.21373093128204346, -0.010492047294974327, 0.10428737103939056, -0.19733953475952148, 0.13947051763534546, -0.20605456829071045, 0.1428942233324051, -0.11528944969177246, 0.024670319631695747, 0.19886648654937744, 0.019359439611434937, 0.14884895086288452, -0.22959718108177185, -0.028924589976668358, -0.040630605071783066, -0.23906563222408295, 0.07728708535432816, -0.0239825751632452, -0.15989364683628082, -0.25532016158103943, -0.2408728003501892, 0.051929984241724014, -0.2277139127254486, -0.29157766699790955, 0.047130338847637177, 0.3033471405506134, -0.14201076328754425], [-0.23784226179122925, 0.1930515170097351, -0.24021510779857635, 0.002158432500436902, 0.06125509738922119, -0.026178600266575813, 0.3117228150367737, 0.2931740880012512, 0.19955040514469147, -0.125740185379982, 0.2033279687166214, 0.032013826072216034, -0.06492353975772858, -0.09191256761550903, -0.13099487125873566, -0.15474925935268402, 0.19133873283863068, 0.2350628823041916, 0.16476914286613464, 0.1311904639005661, -0.21476943790912628, -0.09562486410140991, 0.023636749014258385, 0.052561476826667786, 0.2672049403190613, -0.12206694483757019, -0.07447510212659836, -0.10677497833967209, -0.00637928768992424, -0.2508617639541626, 0.2481185793876648, 0.34542179107666016, -0.21267403662204742, -0.005405714735388756, 0.0418403260409832, 0.25223052501678467, 0.005814998876303434, -0.06954634934663773, 0.2495943009853363, 0.07321204990148544, 0.0040713120251894, 0.12636877596378326, -0.16606730222702026, 0.13570958375930786, 0.08370345085859299, -0.1696404665708542, 0.21885830163955688, -0.26293349266052246, -0.04455146938562393, 0.17819741368293762, 0.18189749121665955, -0.1599770337343216, -0.020083457231521606, 0.25247839093208313, -0.11475827544927597, 0.24954617023468018, -0.05489734560251236, -0.2342754751443863, 0.22123870253562927, -0.06960935890674591, 0.2550213634967804, -0.10061468183994293, 0.0898326113820076, 0.2827776074409485], [-0.13559897243976593, 0.2836912274360657, -0.2415637969970703, 0.2503315210342407, 0.19030903279781342, -0.25313058495521545, -0.15122315287590027, 0.2844597399234772, -0.23257870972156525, 0.020793277770280838, 0.23978982865810394, -0.19444619119167328, 0.14294447004795074, -0.2898775637149811, -0.05362076684832573, 0.20182952284812927, 0.07064753025770187, -0.2421923130750656, -0.07456821948289871, 0.18154770135879517, -0.048737455159425735, -0.18973414599895477, -0.0020899546798318624, 0.17210546135902405, 0.23637047410011292, 0.24841637909412384, 0.268154501914978, 0.13800041377544403, -0.25887566804885864, 0.01583862490952015, 0.038753949105739594, 0.06912530213594437, 0.24471139907836914, 0.07215827703475952, 0.038137514144182205, -0.05137656256556511, 0.2687776982784271, -0.177586168050766, -0.1388910561800003, -0.028973620384931564, 0.3158908784389496, -0.1583695113658905, -0.21038232743740082, -0.06889565289020538, -0.17640747129917145, 0.17819461226463318, -0.10276127606630325, 0.0192998256534338, -0.0893053486943245, 0.24988506734371185, -0.10401901602745056, 0.06282559037208557, -0.1123034879565239, -0.04865022376179695, 0.050274159759283066, -0.18654155731201172, -0.15485231578350067, -0.06583303958177567, 0.22265933454036713, 0.1930088847875595, 0.02682168036699295, -0.03884506970643997, -0.08010218292474747, -0.08264478296041489], [-0.30955445766448975, 0.092714823782444, 0.08080191910266876, -0.04648365452885628, 0.15888611972332, 0.07955919206142426, -0.051072247326374054, 0.27437928318977356, 0.22703105211257935, -0.03492104262113571, -0.2544747591018677, -0.184027299284935, 0.2592339813709259, -0.13799768686294556, -0.19896721839904785, -0.0024382409173995256, 0.17479003965854645, 0.1345478594303131, -0.25661802291870117, 0.010866918601095676, 0.21122348308563232, 0.17830653488636017, 0.1910402923822403, 0.04876783490180969, -0.22079041600227356, -0.30057671666145325, -0.24218498170375824, 0.10137172788381577, -0.09102323651313782, 0.1616845726966858, -0.0015871756477281451, -0.17221751809120178, 0.24723263084888458, -0.19614990055561066, -0.1725744605064392, -0.23982161283493042, -0.017613720148801804, -0.19763264060020447, -0.03087177686393261, 0.04340463504195213, 0.11937971413135529, -0.05491574481129646, 0.1804579198360443, 0.03457235172390938, 0.2271241545677185, -0.27492743730545044, 0.11640724539756775, -0.041888557374477386, -0.2470298409461975, 0.22306330502033234, 0.2613748610019684, -0.12106897681951523, -0.23196570575237274, -0.1009659543633461, -0.14382600784301758, 0.30938664078712463, -0.015011806041002274, -0.004429086111485958, 0.16193832457065582, 0.07716221362352371, -0.1996464729309082, -0.2796136736869812, -0.11391965299844742, 0.21337969601154327], [0.1920200139284134, 0.031260013580322266, 0.20000913739204407, 0.0868576392531395, -0.18153166770935059, 0.12475103884935379, 0.15201057493686676, -0.05244346708059311, 0.20480459928512573, 0.06459388881921768, -0.22636865079402924, -0.013413319364190102, 0.1827908307313919, 0.03416338190436363, -0.13517118990421295, 0.26078128814697266, 0.270620197057724, -0.12902748584747314, -0.20057402551174164, -0.12259243428707123, 0.12586210668087006, 0.049636393785476685, 0.006397622171789408, -0.19532126188278198, -0.26984068751335144, -0.125472292304039, 0.005619044415652752, 0.2817642092704773, -0.05525798723101616, -0.1826234608888626, -0.18572568893432617, -0.2525968551635742, 0.175322026014328, -0.1594252735376358, 0.23885275423526764, 0.18961746990680695, -0.19647946953773499, -0.1715281456708908, 0.3225387632846832, 0.09150107204914093, -0.04893534630537033, 0.21192844212055206, 0.1993180364370346, 0.00637758057564497, -0.0431479811668396, 0.01067770179361105, 0.2756795585155487, -0.2783244252204895, -0.2098800241947174, 0.29334867000579834, 0.02943350002169609, 0.16698171198368073, -0.26875928044319153, 0.09657524526119232, 0.10465916246175766, -0.3063540458679199, 0.22919927537441254, 0.0725863128900528, 0.00024200974439736456, -0.25890201330184937, 0.15000195801258087, 0.1966344714164734, 0.017121559008955956, -0.03996525704860687], [-0.13222837448120117, 0.050410445779561996, 0.14324748516082764, 0.14275650680065155, -0.18021726608276367, 0.259235680103302, 0.16402508318424225, 0.048637062311172485, 0.2983317971229553, -0.10333709418773651, -0.09542365372180939, 0.28364667296409607, -0.11539173126220703, -0.26941603422164917, 0.12460269778966904, 0.07517562061548233, 0.28316730260849, 0.18841907382011414, 0.005714235827326775, 0.07741418480873108, 0.1654071807861328, 0.27132582664489746, 0.1802353858947754, 0.20861771702766418, -0.05045587942004204, -0.283327579498291, -0.2320377230644226, -0.2607087790966034, -0.06151009723544121, -0.21944250166416168, -0.06885341554880142, -0.13525739312171936, 0.2700786590576172, 0.1761856973171234, -0.08875466883182526, 0.03678436949849129, 0.15553610026836395, -0.2006700038909912, -0.20787635445594788, -0.15057238936424255, -0.1276579052209854, 0.10477584600448608, 0.28447601199150085, 0.04285673424601555, 0.016323890537023544, 0.13716252148151398, 0.22163188457489014, 0.09819576889276505, -0.11764071136713028, 0.23523905873298645, 0.1342403143644333, -0.15623033046722412, 0.12842470407485962, -0.31136128306388855, 0.2784571051597595, -0.03839325159788132, -0.08117756992578506, 0.14927446842193604, 0.19310683012008667, -0.18093135952949524, -0.25532856583595276, -0.059427596628665924, -0.12864655256271362, 0.26913705468177795], [-0.24030901491641998, -0.15285828709602356, 0.12230610102415085, 0.30004653334617615, -0.07399768382310867, 0.11164862662553787, -0.11021316796541214, 0.029884032905101776, -0.19217616319656372, -0.02466236799955368, 0.13279198110103607, -0.12193391472101212, 0.2741270959377289, -0.20106595754623413, 0.2524690330028534, 0.24183966219425201, -0.27925291657447815, 0.15349601209163666, -0.27002274990081787, 0.16717344522476196, -0.15235953032970428, 0.0022269687615334988, 0.0019606866408139467, 0.1685849130153656, -0.21212629973888397, -0.07502187788486481, -0.06990940868854523, -0.08319802582263947, 0.2379516214132309, -0.010519957169890404, -0.0033000274561345577, 0.07542017102241516, -0.2106381356716156, 0.008960970677435398, 0.08142771571874619, -0.22884388267993927, -0.1396423578262329, 0.06560765206813812, 0.0537777841091156, -0.29123732447624207, 0.24700967967510223, -0.08567721396684647, 0.19274704158306122, -0.2798401117324829, 0.2551041841506958, -0.24706512689590454, -0.04916445165872574, -0.23318660259246826, -0.14854301512241364, -0.15961571037769318, 0.07693468779325485, 0.26053181290626526, 0.32299569249153137, -0.0034484814386814833, 0.11825200915336609, 0.04718383401632309, 0.1437733769416809, -0.12899594008922577, 0.18015813827514648, -0.15222027897834778, 0.25709816813468933, 0.30547165870666504, -0.022440779954195023, 0.007001558318734169], [0.3233323395252228, -0.006062209140509367, 0.30842405557632446, 0.01948089525103569, 0.27571916580200195, -0.05565943568944931, 0.25269412994384766, -0.018940091133117676, 0.2435445636510849, -0.0364408865571022, 0.03371068090200424, -0.1730387806892395, -0.28373509645462036, 0.06393783539533615, -0.08298543840646744, 0.23708145320415497, 0.2315180003643036, -0.08062121272087097, -0.06346160173416138, 0.018628714606165886, 0.16410881280899048, -0.13417963683605194, -0.2567096948623657, 0.13954417407512665, -0.15240323543548584, -0.16206364333629608, 0.11111529916524887, 0.1598302721977234, -0.20926055312156677, 0.014612758532166481, 0.09958923608064651, -0.20293687283992767, -0.0960833877325058, -0.0239515732973814, 0.21174554526805878, -0.19280661642551422, -0.16723330318927765, 0.21679693460464478, -0.2569502294063568, -0.09978072345256805, 0.007255241274833679, 0.10489458590745926, 0.17423699796199799, -0.043681416660547256, -0.2550046443939209, 0.009918096475303173, -0.012677950784564018, -0.1776425689458847, 0.22552409768104553, 0.24378114938735962, 0.07119181752204895, -0.08097246289253235, 0.11613070219755173, 0.18881651759147644, -0.15502497553825378, -0.05390801280736923, 0.21687136590480804, 0.16942524909973145, 0.30504924058914185, 0.02270810306072235, 0.19909286499023438, -0.19150444865226746, -0.05864928290247917, 0.031699880957603455], [-0.2056838423013687, 0.020744508132338524, -0.28641563653945923, -0.28210577368736267, -0.15242516994476318, 0.1588325947523117, -0.2719928026199341, 0.2575185298919678, -0.03607623651623726, -0.12478622794151306, 0.26653584837913513, 0.06455350667238235, 0.03502535820007324, 0.04149963706731796, -0.25557053089141846, 0.295057475566864, 0.2574135959148407, 0.21002192795276642, 0.10690949112176895, 0.09785709530115128, -0.048968978226184845, 0.043416447937488556, 0.12986893951892853, 0.05772991105914116, 0.09527627378702164, -0.13050222396850586, -0.054055824875831604, 0.276155024766922, -0.1721108853816986, -0.011167792603373528, -0.2294127643108368, -0.24583616852760315, -0.12483642995357513, 0.011364111676812172, 0.06759931147098541, 0.2551301419734955, 0.04647701978683472, 0.12967979907989502, -0.2673901915550232, -0.1699453592300415, 0.16234639286994934, -0.20358258485794067, 0.06320659816265106, 0.01933104731142521, 0.2594662010669708, -0.10309498012065887, 0.12904827296733856, -0.2113666534423828, -0.17682969570159912, -0.2707531750202179, 0.056677304208278656, -0.10455219447612762, -0.286485493183136, 0.07340025901794434, -0.11338119953870773, 0.16511589288711548, -0.2134927660226822, -0.21159636974334717, 0.18336139619350433, 0.23374344408512115, -0.3069239854812622, -0.05437833443284035, -0.10411175340414047, 0.234123095870018], [-0.22135502099990845, -0.17741920053958893, -0.173516646027565, 0.12503795325756073, 0.26954832673072815, 0.1423414647579193, 0.21586868166923523, -0.2166902869939804, 0.11183296889066696, 0.11088570207357407, -0.2514527440071106, 0.03744322806596756, -0.2820422351360321, -0.005509302020072937, 0.10728660970926285, -0.19981980323791504, -0.19606779515743256, -0.2034025490283966, 0.22045452892780304, -0.17148457467556, 0.2466052919626236, -0.1965385377407074, -0.10803470760583878, 0.23047217726707458, -0.28672006726264954, 0.1257845163345337, 0.023790612816810608, 0.33228352665901184, 0.28343334794044495, -0.050578854978084564, 0.1582154631614685, -0.15702001750469208, 0.04417536407709122, -0.02747330814599991, 0.14328953623771667, 0.06740197539329529, 0.16330108046531677, -0.1905566155910492, -0.2838231325149536, -0.2735291123390198, -0.09527874737977982, 0.03840484470129013, 0.14164221286773682, -0.1734243631362915, -0.07552148401737213, -0.09849528223276138, -0.1158943697810173, 0.23217171430587769, -0.09636860340833664, -0.11068354547023773, 0.17923305928707123, 0.33498090505599976, -0.3026583194732666, 0.14481297135353088, 0.05082334578037262, 0.22711066901683807, 0.2643192708492279, -0.17918293178081512, 0.20941603183746338, -0.19851379096508026, -0.3024309277534485, -0.11056176573038101, 0.018299221992492676, 0.009751560166478157], [-0.04126444458961487, 0.030931487679481506, -0.08492706716060638, 0.20255765318870544, 0.24696022272109985, 0.0518592894077301, 0.2708651125431061, -0.023375431075692177, 0.03287164866924286, -0.17314983904361725, -0.011534906923770905, -0.14147038757801056, -0.20187102258205414, 0.22860398888587952, -0.22323967516422272, 0.014576105400919914, 0.14748689532279968, 0.25369149446487427, -0.14749778807163239, 0.10209351032972336, 0.22172167897224426, 0.030231378972530365, 0.1576215624809265, 0.0026575203519314528, 0.0017508408054709435, 0.05908398702740669, 0.11389265209436417, -0.1595669686794281, 0.019753724336624146, 0.27389851212501526, 0.10374701023101807, 0.1789548099040985, -0.046300534158945084, -0.039452336728572845, 0.2776850461959839, 0.2972315549850464, 0.29617753624916077, 0.12005776911973953, 0.17192736268043518, 0.12793183326721191, -0.16518087685108185, -0.211191788315773, 0.1756705939769745, 0.07271900027990341, -0.04111676663160324, 0.2471037358045578, 0.2731386423110962, 0.3094806969165802, -0.0172224510461092, -0.13075384497642517, 0.19989493489265442, 0.009823033586144447, 0.2553159296512604, 0.13820688426494598, -0.13005247712135315, -0.19382360577583313, -0.11545196175575256, 0.31273412704467773, -0.22072160243988037, 0.28462740778923035, 0.25247722864151, 0.20171205699443817, -0.11295028030872345, 0.20637328922748566], [-0.06958355754613876, 0.06998957693576813, -0.13179749250411987, 0.009021724574267864, -0.039450615644454956, -0.24810504913330078, 0.16222386062145233, 0.08526191860437393, 0.023414669558405876, -0.21195407211780548, -0.14114300906658173, -0.24060021340847015, -0.2676541209220886, -0.08835218101739883, 0.06614704430103302, -0.2097737193107605, 0.025316301733255386, 0.023091407492756844, -0.16309213638305664, 0.029063256457448006, -0.27279478311538696, -0.15481632947921753, -0.22348926961421967, -0.12108921259641647, 0.04682724550366402, -0.019474908709526062, -0.056893277913331985, -0.3031349778175354, -0.27660152316093445, 0.20532658696174622, 0.1560942530632019, -0.14358602464199066, -0.28555452823638916, 0.10521304607391357, 0.2940143942832947, -0.05093393474817276, -0.04209547117352486, 0.07495677471160889, -0.2822585105895996, -0.035919781774282455, -0.055327288806438446, -0.27515730261802673, 0.17428480088710785, 0.09321603924036026, -0.08169122785329819, -0.20346546173095703, -0.2809598445892334, 0.08153662085533142, -0.19176988303661346, 0.14478623867034912, -0.05727843940258026, 0.0310518778860569, 0.2681463956832886, -0.06650929898023605, -0.029326070100069046, 0.12456466257572174, -0.15211841464042664, 0.037077080458402634, -0.0015386238228529692, -0.18257224559783936, 0.15854232013225555, 0.08588486164808273, -0.28726932406425476, -0.20820178091526031], [0.27997326850891113, -0.1902846395969391, 0.1677377074956894, -0.004133645445108414, -0.014981244690716267, 0.2109433114528656, -0.2799052298069, 0.2318592518568039, -0.1416255235671997, -0.18524448573589325, 0.09670067578554153, 0.016498222947120667, -0.06559859961271286, 0.2722248136997223, -0.3157673180103302, 0.312128484249115, -0.08608769625425339, -0.06746891140937805, 0.0068741957657039165, -0.10812228173017502, 0.0754244476556778, -0.038640283048152924, 0.14160344004631042, 0.20523720979690552, -0.10308123379945755, 0.031655024737119675, -0.08241008967161179, -0.0592791885137558, -0.2107284963130951, -0.014994348399341106, -0.004213903099298477, 0.040423717349767685, -0.06788221746683121, -0.011751273646950722, -0.02236935682594776, 0.14152571558952332, 0.2652491629123688, -0.2753258943557739, -0.08018048107624054, 0.11234161257743835, 0.05203389376401901, -0.026331953704357147, -0.1308828741312027, 0.14055395126342773, -0.11260348558425903, 0.2850194573402405, -0.19457945227622986, -0.21259228885173798, -0.12656812369823456, -0.08126192539930344, 0.21964994072914124, -0.27774494886398315, 0.1270485371351242, -0.21356800198554993, -0.29770222306251526, 0.16280129551887512, -0.09554636478424072, -0.05681098252534866, -0.2036963552236557, -0.24471962451934814, 0.06876012682914734, -0.2871010899543762, -0.2705399692058563, -0.09005443751811981], [0.15683084726333618, 0.17694570124149323, 0.19916591048240662, 0.21319767832756042, -0.08952558040618896, 0.12400493770837784, -0.11271122097969055, 0.17824290692806244, 0.2944583594799042, -0.03092423640191555, -0.03906967490911484, 0.021109413355588913, 0.006117158569395542, -0.06527872383594513, 0.18038327991962433, -0.1368962526321411, -0.16471810638904572, 0.0006484453333541751, 0.17655298113822937, -0.2482711672782898, -0.2774040400981903, -0.17984026670455933, -0.22060269117355347, -0.28791484236717224, 0.24468126893043518, -0.2141122817993164, 0.012141309678554535, 0.19652220606803894, 0.23681825399398804, -0.208589106798172, 0.2148025780916214, -0.19852124154567719, -0.1277090460062027, 0.09968618303537369, 0.02178736962378025, -0.17490002512931824, -0.3020426332950592, 0.24340057373046875, 0.24378931522369385, -0.08945321291685104, -0.3230239748954773, 0.26209938526153564, -0.2453530877828598, 0.09455419331789017, 0.2950737476348877, 0.008429748937487602, 0.06430985033512115, 0.14053094387054443, -0.1082034632563591, 0.1411999762058258, 0.23025478422641754, -0.26658734679222107, -0.10981030762195587, 0.21735641360282898, 0.2923378646373749, -0.07665277272462845, -0.29910990595817566, -0.23610813915729523, 0.11804578453302383, -0.02484065294265747, 0.2407372146844864, -0.10550258308649063, -0.261835515499115, -0.09269451349973679], [-0.17921043932437897, -0.14799636602401733, -0.1669357866048813, 0.2968518137931824, 0.1412825882434845, 0.18776288628578186, -0.11647230386734009, -0.03634738177061081, -0.2603057026863098, -0.14304563403129578, -0.12784840166568756, 0.17494376003742218, 0.09714404493570328, -0.04583729803562164, 0.10612387955188751, 0.1909879446029663, -0.22166204452514648, 0.07502226531505585, 0.01491587609052658, -0.18887044489383698, -0.141274556517601, -0.13583214581012726, 0.27998918294906616, 0.1906178593635559, 0.29695382714271545, -0.24933667480945587, -0.1537611037492752, -0.17961043119430542, -0.19526715576648712, -0.21861843764781952, 0.17832468450069427, -0.13401977717876434, 0.07018110156059265, 0.28805387020111084, -0.1724414974451065, 0.2690565288066864, -0.18229040503501892, -0.0747217983007431, -0.2568642497062683, 0.14733515679836273, 0.1560695767402649, -0.2373659908771515, -0.09454426914453506, -0.1344345659017563, -0.17201794683933258, 0.01260387897491455, 0.22913166880607605, 0.06262119859457016, 0.2700955867767334, -0.3024355173110962, -0.1923380345106125, -0.18605567514896393, -0.261910080909729, -0.19212031364440918, -0.11239387094974518, -0.12501215934753418, 0.28730377554893494, 0.16278758645057678, 0.13862410187721252, -0.2646046578884125, 0.27178215980529785, -0.009534647688269615, -0.21367014944553375, 0.14089247584342957], [-0.2702011466026306, 0.04625822976231575, -0.03258848562836647, 0.15333028137683868, 0.16052301228046417, -0.3190789520740509, 0.17922969162464142, 0.15711989998817444, -0.05509677156805992, -0.14547930657863617, -0.06581545621156693, 0.02249888889491558, 0.0920281782746315, -0.07152187079191208, -0.03965092450380325, 0.2464887648820877, 0.08174830675125122, 0.17045266926288605, 0.025164857506752014, -0.22915147244930267, -0.268649160861969, 0.044845398515462875, 0.24902096390724182, -0.23878240585327148, 0.24144597351551056, -0.0783565491437912, -0.07773631066083908, 0.07546312361955643, 0.1404876410961151, -0.043861690908670425, 0.1754136085510254, -0.2769129276275635, -0.2990940809249878, 0.23272201418876648, -0.32252076268196106, -0.037947311997413635, -0.12201385945081711, -0.07935476303100586, -0.15838995575904846, 0.080220527946949, 0.0071547445841133595, 0.10501277446746826, -0.08564133197069168, -0.23137664794921875, -0.014384374022483826, 0.06760846078395844, 0.06436749547719955, 0.10579489171504974, 0.043029844760894775, 0.19720275700092316, 0.18497636914253235, 0.3015396296977997, 0.04083665832877159, -0.028274159878492355, 0.217953160405159, 0.04463658481836319, -0.06463082134723663, -0.18299488723278046, 0.3008140027523041, 0.06469584256410599, -0.19161587953567505, -0.06067252159118652, 0.21188022196292877, 0.038197021931409836], [-0.2342742681503296, -0.1988464891910553, 0.2652655839920044, -0.050603173673152924, -0.0051425425335764885, 0.28947535157203674, 0.22236070036888123, 0.10669012367725372, -0.2778487503528595, -0.29368147253990173, -0.2710810899734497, -0.22659358382225037, -0.050752878189086914, 0.27573060989379883, 0.013384644873440266, 0.2003374844789505, 0.30736175179481506, -0.22580967843532562, -0.2495797574520111, 0.1429547667503357, 0.1386236846446991, 0.03800421953201294, 0.26206257939338684, -0.08305156975984573, -0.244719460606575, 0.2774215638637543, 0.0824306383728981, 0.253917396068573, 0.17886318266391754, 0.2199743390083313, -0.12041542679071426, -0.20499901473522186, 0.27535200119018555, -0.1597585380077362, -0.18519459664821625, -0.2702118158340454, -0.02572023682296276, 0.07980072498321533, 0.15366700291633606, 0.17457230389118195, 0.17764130234718323, -0.26308682560920715, -0.1997159719467163, -0.16636431217193604, -0.16424866020679474, -0.16459599137306213, 0.2075127512216568, 0.11995992064476013, -0.06553641706705093, -0.2367355227470398, -0.00012954110570717603, 0.31460410356521606, -0.2684761583805084, 0.219695046544075, 0.14367611706256866, 0.1594018042087555, -0.2622096538543701, 0.1464766412973404, -0.15744294226169586, 0.1411796659231186, -0.20100520551204681, -0.06208450347185135, 0.10022106766700745, -0.13756071031093597], [-0.08702325820922852, -0.15742020308971405, -0.024871164932847023, -0.23619355261325836, 0.12390012294054031, -0.24757620692253113, -0.09122132509946823, -0.1551351249217987, 0.24110132455825806, -0.15418994426727295, -0.10943769663572311, 0.21971626579761505, 0.22523599863052368, -0.053142499178647995, 0.023992301896214485, -0.19770289957523346, 0.017161184921860695, -0.26253587007522583, 0.1790217012166977, -0.21718934178352356, -0.030981652438640594, 0.051865022629499435, -0.01785186305642128, -0.19322563707828522, 0.15140166878700256, -0.2679268717765808, -0.27431511878967285, -0.2849936783313751, 0.05533931031823158, 0.22074128687381744, -0.028867242857813835, 0.13564439117908478, 0.17913828790187836, 0.31119757890701294, -0.09398646652698517, -0.1596117466688156, -0.15638089179992676, -0.0726831927895546, -0.11316637694835663, -0.04430656135082245, 0.02291521057486534, 0.1005258858203888, -0.11487947404384613, -0.22560876607894897, -0.2594138979911804, 0.08564812690019608, -0.1263638734817505, -0.08998316526412964, -0.2515440285205841, -0.15493571758270264, -0.19743570685386658, -0.007086044177412987, -0.019972482696175575, -0.2857503592967987, 0.27240440249443054, -0.09932223707437515, 0.0466727688908577, 0.21324661374092102, -0.14842106401920319, 0.24121171236038208, -0.0689108744263649, -0.2540293037891388, -0.08514904230833054, -0.07119305431842804], [-0.23899751901626587, 0.005914432927966118, 0.21701213717460632, 0.27028441429138184, 0.23616677522659302, 0.2634804844856262, -0.21605880558490753, 0.10453449934720993, 0.07738339155912399, -0.11520392447710037, 0.020799271762371063, -0.02778707630932331, -0.050236981362104416, -0.24043305218219757, -0.1970207691192627, 0.2755262553691864, 0.299336314201355, -0.24468551576137543, -0.2611127197742462, -0.04215844348073006, -0.23830601572990417, -0.2870873212814331, -0.14785964787006378, 0.23196659982204437, -0.10972762852907181, -0.1776183843612671, -0.06990568339824677, 0.16391082108020782, -0.30190619826316833, -0.05571230873465538, 0.2493077665567398, -0.2873062491416931, -0.09947439283132553, 0.06336701661348343, 0.16293387115001678, 0.24384388327598572, 0.16295073926448822, -0.15188126266002655, 0.09602198749780655, -0.10857931524515152, 0.09328697621822357, -0.12541119754314423, -0.15253371000289917, -0.05897646024823189, 0.10099099576473236, 0.0800766721367836, -0.2271030694246292, -0.09036921709775925, -0.09055786579847336, -0.1574152112007141, 0.23241685330867767, -0.29100266098976135, -0.2184198647737503, -0.2460079789161682, 0.1085643619298935, -0.2278509885072708, 0.28468796610832214, 0.026389501988887787, -0.13682372868061066, -0.16719567775726318, -0.11166170239448547, 0.06738485395908356, 0.059160374104976654, 0.20395119488239288], [-0.04386720061302185, 0.2701832354068756, 0.1705397218465805, 0.2288367599248886, -0.2862683832645416, -0.1819065660238266, -0.2418660670518875, 0.2799023389816284, -0.21301068365573883, -0.24597059190273285, -0.2391919046640396, -0.30517640709877014, 0.2675319015979767, -0.004308569245040417, 0.22517868876457214, -0.1509707272052765, 0.25481870770454407, 0.10736911743879318, -0.25673583149909973, 0.26586809754371643, -0.24747535586357117, 0.2563501000404358, -0.2762768268585205, -0.019443530589342117, 0.05354567617177963, 0.019922621548175812, -0.259025901556015, 0.06554670631885529, -0.11683007329702377, 0.07972342520952225, 0.005116616375744343, 0.295044481754303, -0.02095276489853859, -0.20225679874420166, 0.04816661775112152, 0.17291893064975739, 0.10672541707754135, 0.10334301739931107, -0.1961405724287033, -0.1623016595840454, 0.02439330704510212, -0.11663307994604111, -0.0387004055082798, -0.1918998807668686, 0.2506162226200104, -0.04681947082281113, 0.01881423033773899, 0.21175207197666168, 0.10005275160074234, -0.11489731073379517, 0.2593431770801544, 0.19895149767398834, 0.13939893245697021, 0.1128448024392128, -0.15359877049922943, 0.06824194639921188, 0.2067054808139801, 0.08608657866716385, 0.03692048415541649, -0.1315128058195114, -0.13243551552295685, 0.05540907755494118, 0.07701050490140915, -0.1724596917629242], [0.09738532453775406, -0.08385145664215088, 0.11691542714834213, 0.019227588549256325, 0.28985875844955444, -0.20459362864494324, -0.028396034613251686, -0.10497772693634033, 0.26626428961753845, -0.05703583359718323, -0.1448282152414322, 0.07658252865076065, 0.30333536863327026, -0.15385764837265015, -0.11768136918544769, -0.13467703759670258, 0.1473291516304016, 0.009961370378732681, -0.11076169461011887, 0.2183852195739746, -0.15788482129573822, 0.030666548758745193, 0.11026278138160706, -0.26171982288360596, -0.07790283113718033, 0.08065388351678848, 0.22732242941856384, -0.17330506443977356, 0.21363651752471924, -0.1386108249425888, -0.26069867610931396, 0.18907730281352997, -0.12027859687805176, -0.1769588440656662, 0.0955120250582695, -0.17982667684555054, -0.14581896364688873, 0.24350343644618988, -0.1504586637020111, -0.10617896169424057, -0.11230266094207764, 0.25135692954063416, -0.25744205713272095, 0.23050929605960846, 0.1362697035074234, 0.29436782002449036, -0.2683940529823303, -0.12863263487815857, -0.10713997483253479, -0.2229352742433548, 0.030891943722963333, 0.07948002964258194, -0.015153754502534866, -0.26729997992515564, -0.10934837907552719, 0.07739270478487015, 0.12099986523389816, -0.3073476552963257, 0.09639547020196915, -0.24079962074756622, 0.1437409222126007, -0.1480402946472168, -0.1672874093055725, 0.1760765165090561], [-0.219146266579628, 0.24324701726436615, 0.018110057339072227, 0.14638623595237732, 0.06294447183609009, 0.12897135317325592, -0.15600015223026276, -0.19458161294460297, -0.06541462987661362, 0.19909681379795074, -0.18280625343322754, 0.26033180952072144, 0.0495026670396328, 0.02009221352636814, -0.006975426338613033, -0.06458493322134018, 0.05482548102736473, -0.009402798488736153, -0.004323894158005714, 0.19707146286964417, 0.05706891044974327, 0.0010308660566806793, 0.27415305376052856, -0.26860111951828003, 0.14454038441181183, -0.3044259548187256, 0.05982234701514244, -0.2786801755428314, 0.20198528468608856, -0.04908205568790436, 0.1438867598772049, 0.04859231039881706, -0.20376181602478027, -0.013587524183094501, -0.26407113671302795, -0.043852128088474274, 0.17604009807109833, -0.18836435675621033, 0.022828787565231323, -0.055443305522203445, -0.25906902551651, 0.04955914244055748, -0.05892425402998924, -0.1156393438577652, -0.208951935172081, -0.035062141716480255, 0.1432412564754486, -0.12585319578647614, 0.24047131836414337, 0.13742682337760925, -0.17048011720180511, 0.018358241766691208, -0.04332447052001953, -0.27767062187194824, 0.2496909499168396, -0.019449643790721893, -0.008930564858019352, -0.28002676367759705, 0.2286505401134491, 0.27274635434150696, 0.1309077888727188, -0.06648381799459457, 0.2545245289802551, 0.16833367943763733]], "biases": [0.10919999331235886, -0.0037741437554359436, -0.09216992557048798, 0.12391844391822815, 0.039684027433395386, -0.07039390504360199, 0.038026511669158936, -0.0521526075899601, 0.040707726031541824, -0.04433445259928703, -0.04117762669920921, -0.008679170161485672, -0.015350722707808018, 0.08598461002111435, 0.0002783009549602866, 0.0024854918010532856, 0.09641013294458389, -0.12646794319152832, -0.08382482826709747, -0.01685336045920849, 0.08943577110767365, 0.05066831037402153, -0.09840767085552216, 0.08981110900640488, 0.023241791874170303, 0.04357771575450897, 0.062266912311315536, 0.0863509476184845, 0.04178466647863388, 0.09439487010240555, -0.07358340919017792, -0.011050298810005188, -0.027602262794971466, 0.0019451038679108024, -0.09757894277572632, -0.020696308463811874, -0.005640908610075712, 0.05827959254384041, 0.09287448227405548, 0.11895879358053207, 0.05635148659348488, 0.03857468441128731, 0.03653400018811226, 0.08956442028284073, -0.014153827913105488, -0.06825066357851028, 0.03400295972824097, 0.02189573273062706, 0.016483506187796593, 0.06974994391202927, -0.07209858298301697, 0.07267794013023376, 0.02766270935535431, -0.05526454746723175, 0.016434278339147568, 0.099056676030159, -0.0038243825547397137, 0.015490184538066387, 0.11751895397901535, 0.10372418910264969, -0.06481316685676575, -0.05165678262710571, 0.02538706175982952, 0.031003683805465698]}, {"weights": [[0.05812166631221771, -0.149523064494133, 0.02998485043644905, 0.0025088051334023476, -0.24691630899906158, -0.023764532059431076, 0.0611046738922596, -0.19060426950454712, -0.12296494096517563, 0.0734480544924736, -0.08264639228582382, -0.28824448585510254, 0.042570799589157104, 0.28420576453208923, 0.16979369521141052, 0.1991972178220749, 0.11039678007364273, -0.0012319989036768675, 0.10768944770097733, -0.0019219513051211834, 0.2104664444923401, 0.24120722711086273, 0.12947753071784973, 0.06472066044807434, 0.1148885041475296, 0.16925710439682007, -0.021070390939712524, 0.07166171073913574, 0.23173530399799347, -0.03947843983769417, 0.2616141140460968, -0.019719278439879417, -0.2455008327960968, -0.12771490216255188, 0.18428252637386322, 0.29961422085762024, 0.005143944174051285, 0.2578824460506439, -0.09779949486255646, 0.2914738655090332, 0.2645004987716675, -0.025695091113448143, -0.2405601590871811, 0.07910200953483582, 0.23957790434360504, 0.026139244437217712, -0.1846020668745041, -0.06950876116752625, 0.15262743830680847, 0.22728416323661804, -0.11838474124670029, -0.24460430443286896, 0.2767033278942108, -0.25380656123161316, 0.28054770827293396, -0.03270664066076279, -0.050223272293806076, 0.22604161500930786, -0.06366061419248581, 0.20144149661064148, -0.2904437482357025, 0.02624961920082569, 0.17316317558288574, 0.21194800734519958], [-0.0701659768819809, 0.09238576143980026, 0.0865911990404129, -0.12670424580574036, -0.25126519799232483, 0.30434650182724, -0.16791866719722748, 0.16273777186870575, 0.01577865332365036, -0.22958435118198395, -0.01972336694598198, -0.07444903254508972, 0.019839491695165634, -0.01832978054881096, -0.20312756299972534, -0.0652085617184639, 0.24634341895580292, -0.003044494893401861, 0.2061145156621933, -0.1144038587808609, -0.12329325824975967, -0.28471285104751587, 0.2597050666809082, -0.23080214858055115, 0.10689149051904678, -0.07340824604034424, 0.12819671630859375, 0.11716917157173157, 0.11478602886199951, -0.04714301601052284, -0.01336581725627184, 0.03032809868454933, -0.014949430711567402, -0.0037986584939062595, 0.17724545300006866, -0.17951396107673645, -0.2585887908935547, -0.0786767229437828, -0.138127863407135, 0.11044245958328247, 0.3012331426143646, 0.1909099817276001, -0.1674465537071228, -0.14836399257183075, 0.08950380980968475, 0.3173350393772125, 0.10450439900159836, 0.09459809958934784, 0.22145584225654602, 0.18433044850826263, 0.022757336497306824, -0.2628163993358612, -0.1515388935804367, 0.06823734194040298, 0.158390074968338, -0.2448154091835022, -0.28433433175086975, 0.12702128291130066, -0.24676360189914703, -0.16677160561084747, -0.03315300494432449, -0.2502900958061218, 0.06395373493432999, 0.25522902607917786], [0.12158302217721939, 0.14047908782958984, -0.11473069339990616, -0.27722832560539246, -0.031354766339063644, -0.017259757965803146, 0.2975967526435852, 0.04683786258101463, -0.23334872722625732, -0.1441187709569931, -0.09594323486089706, -0.14353807270526886, 0.2258591204881668, -0.08030655235052109, 0.17933876812458038, 0.13953866064548492, -0.05923931673169136, 0.09578326344490051, -0.2508010268211365, 0.20658844709396362, -0.20416057109832764, -0.2038315087556839, 0.04564770311117172, 0.07888486236333847, -0.26872310042381287, -0.1539509892463684, 0.06255006790161133, -0.2479647696018219, -0.08839817345142365, -0.18994121253490448, 0.06161750108003616, -0.001048363628797233, 0.0008290527039207518, -0.009918554686009884, -0.06186651811003685, -0.23698194324970245, 0.07514951378107071, -0.288859486579895, 0.18250566720962524, 0.00290071708150208, 0.24870195984840393, 0.16577424108982086, 0.23981447517871857, 0.26847654581069946, 0.13038690388202667, -0.02270415611565113, -0.11717750877141953, -0.16148242354393005, 0.2791613042354584, 0.1046295091509819, -0.153689906001091, 0.03331758454442024, 0.19552969932556152, 0.26680293679237366, 0.2705688178539276, -0.2236419916152954, -0.2924172580242157, -0.28885936737060547, 0.17466166615486145, -0.06654692441225052, 0.24144035577774048, 0.1617559939622879, -0.025743477046489716, -0.29851579666137695], [0.15464095771312714, -0.15910691022872925, 0.271283358335495, -0.09508894383907318, -0.1226295456290245, -0.2460383176803589, 0.23764902353286743, -0.07834194600582123, -0.11527970433235168, 0.10046688467264175, 0.17874358594417572, 0.018366830423474312, -0.28583022952079773, 0.00013024105282966048, -0.24166451394557953, -0.28266361355781555, -0.07547627389431, -0.2707829475402832, 0.29791685938835144, -0.10580114275217056, -0.03382786363363266, 0.1649249941110611, 0.09341008961200714, 0.14357323944568634, -0.1459241360425949, 0.02600688487291336, -0.2811485230922699, -0.22595055401325226, 0.14090457558631897, -9.874926035990939e-05, 0.29967865347862244, 0.2413683533668518, 0.2236327826976776, 0.08018254488706589, 0.009194211103022099, -0.2530805468559265, -0.22245359420776367, 0.08872709423303604, 0.12156762182712555, -0.21616332232952118, -0.04349534958600998, -0.24939624965190887, -0.167418971657753, -0.09567700326442719, 0.23266495764255524, 0.15661391615867615, -0.23721221089363098, 0.05473463982343674, -0.15290459990501404, 0.14128023386001587, -0.028265725821256638, -0.08605770766735077, 0.21870848536491394, 0.03880695626139641, -0.1577734500169754, -0.25867947936058044, 0.14141306281089783, 0.2532108426094055, 0.1265859156847, -0.08213240653276443, -0.11462338268756866, 0.1167534589767456, 0.2902064919471741, 0.0394328311085701], [-0.04321989417076111, -0.2132289558649063, 0.026895921677350998, -0.16018615663051605, -0.017525004222989082, -0.042500436305999756, 0.2917180061340332, 0.0910470262169838, -0.17018204927444458, 0.09066630899906158, 0.037086956202983856, -0.15876437723636627, -0.16726472973823547, -0.06494126468896866, -0.1137022152543068, 0.15542913973331451, 0.19847677648067474, -0.12488825619220734, -0.23651185631752014, 0.15949535369873047, 0.26990190148353577, 0.08010060340166092, -0.2182767540216446, 0.10364869236946106, 0.08789375424385071, 0.06526874005794525, -0.22260670363903046, 0.24628521502017975, -0.033629316836595535, -0.08599425107240677, 0.20551221072673798, -0.25755420327186584, 0.18206787109375, -0.05122585967183113, 0.29514452815055847, 0.22876687347888947, 0.28718000650405884, -0.07288771122694016, -0.1499611884355545, -0.21856141090393066, -0.021594874560832977, -0.23793897032737732, 0.10581602156162262, -0.049730755388736725, 0.0843876525759697, -0.07382665574550629, -0.23930610716342926, -0.11303898692131042, 0.20226497948169708, -0.26379117369651794, 0.13289190828800201, -0.12873625755310059, 0.13829080760478973, -0.08304766565561295, -0.16508451104164124, -0.09220363944768906, 0.11665114015340805, -0.07581771165132523, -0.1309916377067566, -0.08254179358482361, 0.17106497287750244, 