[{"weight": [[0.2579649090766907, 0.19404283165931702], [-0.2304503619670868, 0.1582261174917221], [0.39333394169807434, -0.31585538387298584], [-0.043221499770879745, 0.45431187748908997], [0.1404852718114853, 0.2780793309211731], [0.4701851010322571, -0.14155584573745728], [-0.25851717591285706, -0.2509295344352722], [0.17912223935127258, 0.19601064920425415], [0.4463502764701843, 0.47186413407325745], [-0.12111522257328033, -0.029296593740582466], [0.4212581217288971, 0.10535972565412521], [0.2338293492794037, -0.03260297328233719], [0.22348375618457794, 0.03420111536979675], [-0.395993709564209, 0.17602528631687164], [0.004781235009431839, 0.4680187404155731], [0.1480320543050766, -0.1569034457206726], [-0.1455298662185669, -0.2473762035369873], [0.14867517352104187, -0.4619312286376953], [0.36041921377182007, 0.32524994015693665], [-0.11772359907627106, -0.06901989132165909], [-0.20512740314006805, 0.041927214711904526], [0.028021087870001793, 0.28669700026512146], [-0.2268304079771042, 0.13457566499710083], [-0.40173593163490295, -0.3002956807613373], [-0.226978600025177, 0.40541940927505493], [-0.4630829095840454, 0.15918511152267456], [-0.4687143564224243, 0.49805790185928345], [0.11037614196538925, -0.020304976031184196], [0.16690748929977417, -0.39659810066223145], [0.0962643101811409, -0.4579313099384308], [-0.1082257628440857, 0.30304378271102905], [0.3739827871322632, -0.34592878818511963], [0.20499178767204285, 0.45587611198425293], [-0.20617881417274475, -0.48764824867248535], [0.4561235010623932, 0.2670857012271881], [-0.2709253430366516, -0.31470566987991333], [-0.130499005317688, 0.16676774621009827], [-0.0019566703122109175, -0.18740181624889374], [0.04663894698023796, -0.4102601110935211], [0.10818282514810562, -0.12683215737342834], [0.314054399728775, 0.12930592894554138], [0.1325337439775467, -0.2298087328672409], [0.4070045053958893, -0.15152953565120697], [-0.06223348528146744, -0.4386073052883148], [-0.15479929745197296, 0.34021687507629395], [-0.25662750005722046, -0.45872291922569275], [0.4107339680194855, 0.18829123675823212], [0.24540720880031586, 0.39048394560813904], [-0.49272865056991577, -0.0037852120585739613], [0.1473722904920578, 0.2593202292919159], [0.09549742937088013, -0.29844096302986145], [0.24987414479255676, 0.19956055283546448], [0.4069662094116211, -0.2576163709163666], [0.2632618248462677, 0.06425298005342484], [-0.17703229188919067, 0.012393830344080925], [-0.489637553691864, -0.1634095162153244], [0.3591052293777466, -0.06987466663122177], [0.4350552558898926, 0.07221536338329315], [0.4772416949272156, 0.11613941192626953], [0.20836959779262543, 0.23818601667881012], [0.178968608379364, 0.267911434173584], [0.227976456284523, 0.11643940210342407], [-0.37093210220336914, -0.43111148476600647], [0.2604483366012573, 0.364717036485672], [0.2144649773836136, -0.23180560767650604], [-0.2674008905887604, 0.2757863700389862], [0.23152993619441986, 0.20983916521072388], [-0.3082605004310608, 0.4577634930610657], [0.47149553894996643, -0.1996045857667923], [0.19840632379055023, -0.504742443561554], [-0.23216472566127777, -0.23411214351654053], [-0.48845425248146057, 0.06177213042974472], [-0.2517842650413513, 0.03802400454878807], [0.35684046149253845, 0.48967382311820984], [-0.03249921649694443, 0.1272389441728592], [0.07443742454051971, 0.2745153307914734], [-0.3876483738422394, 0.2571179270744324], [-0.1472955346107483, 0.055939432233572006], [-0.35714033246040344, -0.36909979581832886], [-0.23887473344802856, 0.2503666579723358], [0.027135003358125687, -0.1921609342098236], [-0.27928784489631653, 0.32519808411598206], [-0.1812112182378769, 0.30780068039894104], [-0.06090160831809044, 0.24723467230796814], [0.45567601919174194, -0.26791155338287354], [-0.4255393445491791, -0.19238054752349854], [-0.0695333331823349, -0.0030079144053161144], [-0.28058144450187683, 0.2147766500711441], [-0.22903607785701752, -0.38210126757621765], [0.2542984187602997, 0.22788026928901672], [-0.012518704868853092, -0.00866535771638155], [-0.12977652251720428, 0.11491876095533371], [0.30724579095840454, 0.32361477613449097], [0.3838750123977661, -0.03740246966481209], [0.28371745347976685, 0.5111677050590515], [0.09180821478366852, 0.1726110726594925], [0.26372280716896057, 0.07567804306745529], [0.47163060307502747, -0.29774603247642517], [-0.32085850834846497, -0.47670987248420715], [-0.31601616740226746, 0.056825585663318634], [-0.2800831198692322, -0.40146535634994507], [-0.46647194027900696, 0.4870297610759735], [-0.12413618713617325, 0.22451062500476837], [0.09946850687265396, 0.04164011403918266], [0.38705316185951233, -0.02580215223133564], [0.4246808886528015, 0.44842761754989624], [-0.3301089107990265, 0.1058177724480629], [0.04438917338848114, 0.20610682666301727], [0.46642255783081055, 0.3684186041355133], [0.4598942697048187, -0.0989152193069458], [0.3098553419113159, -0.06027490273118019], [-0.07291202247142792, 0.19007077813148499], [-0.2115190625190735, 0.01359152514487505], [0.2121214121580124, 0.26387858390808105], [0.49068954586982727, -0.1841394156217575], [0.17694036662578583, 0.13602891564369202], [0.19499266147613525, -0.1812552809715271], [0.20159707963466644, 0.27685874700546265], [-0.4996780753135681, 0.1779637336730957], [0.4125509560108185, 0.39089322090148926], [0.41990926861763, 0.3077147901058197], [-0.07886906713247299, 0.3819921612739563], [-0.39045530557632446, 0.3458642363548279], [-0.0870630294084549, -0.4022141695022583], [-0.0945173129439354, 0.3486834466457367], [-0.09155918657779694, 0.10851847380399704], [0.42917025089263916, 0.26351040601730347], [0.01502007246017456, 0.10151922702789307]], "bias": [-0.2872598171234131, -0.2534916400909424, 0.34973761439323425, 0.08057650923728943, -0.6487269997596741, -0.15245680510997772, 0.5144701600074768, 0.4826567471027374, -0.6039083003997803, 0.5143340826034546, 0.6926842927932739, 0.2274458110332489, 0.46573781967163086, 0.3935187757015228, -0.4488743841648102, 0.46554988622665405, -0.5336087346076965, 0.5552263259887695, -0.6885509490966797, 0.6266957521438599, 0.39100587368011475, 0.5977522134780884, -0.5356905460357666, -0.5036231279373169, 0.017138250172138214, -0.4356514513492584, 0.3156055510044098, -0.1044156551361084, 0.025642873719334602, -0.1860230416059494, 0.4278500974178314, 0.30908024311065674, 0.15929150581359863, 0.5524661540985107, -0.6737754940986633, -0.07072464376688004, 0.617832601070404, -0.5994436144828796, 0.41762953996658325, 0.42992544174194336, 0.5634817481040955, -0.5244791507720947, -0.32015663385391235, -0.19685928523540497, -0.26983964443206787, -0.04454052075743675, 0.2347029596567154, 0.25209617614746094, 0.5838862657546997, 0.40278899669647217, 0.2912924885749817, 0.7005229592323303, 0.10833416134119034, -0.2739732265472412, -0.3540206253528595, -0.5193223357200623, -0.3384493291378021, -0.6056849956512451, -0.21522340178489685, -0.2816982567310333, -0.007661965675652027, -0.6205434799194336, 0.2834146022796631, 0.6100896596908569, -0.342578649520874, 0.17751507461071014, -0.6808373332023621, -0.24665860831737518, -0.2919803261756897, -0.6101131439208984, 0.28046852350234985, -0.18878675997257233, -0.18713615834712982, 0.14598001539707184, -0.6775938868522644, 0.3009566366672516, 0.47324177622795105, -0.12731443345546722, 0.3801756203174591, 0.5007261037826538, -0.5164663195610046, 0.5217863917350769, -0.2290797233581543, 0.5455784797668457, 0.4264720678329468, -0.30654236674308777, -0.017493681982159615, -0.2536948323249817, 0.1453641653060913, -0.6173141002655029, 0.40304335951805115, 0.43603405356407166, 0.7002099752426147, -0.39349690079689026, -0.3099527657032013, -0.6075652837753296, -0.6793999075889587, 0.4013809859752655, -0.690549910068512, -0.5625748634338379, 0.012635061517357826, -0.5130813121795654, 0.45761585235595703, -0.3832923471927643, -0.5326874256134033, -0.5253803133964539, -0.2390863448381424, 0.20107771456241608, 0.33251702785491943, -0.6950229406356812, 0.5575551390647888, -0.5728496313095093, -0.57370525598526, -0.5307443737983704, -0.2843456268310547, -0.008173715323209763, -0.6789895296096802, 0.5663425326347351, -0.6513408422470093, 0.6030985713005066, 0.5726087093353271, 0.49908724427223206, -0.6320306062698364, 0.34268301725387573, -0.5310301780700684, 0.21498480439186096, 0.06684750318527222, 0.34048280119895935]}, {"weight": [[0.02307414636015892, 0.0015191909624263644, -0.005206860601902008, -0.009006012231111526, -0.007591949310153723, -0.006287433207035065, -0.010127558372914791, 0.016279971227049828, -0.004140872973948717, 0.003821825608611107, 0.006155109032988548, 0.0039014641661196947, -0.00938901025801897, 0.003999665845185518, 0.01224584225565195, -0.01206196378916502, 0.003005524631589651, 0.006701271515339613, 0.00028942414792254567, 0.0003361077979207039, 0.024231620132923126, -0.012795659713447094, 0.0027851734776049852, 0.002849629381671548, 0.016125673428177834, -0.01236349530518055, -0.009862023405730724, 0.01786169968545437, -0.022370699793100357, -0.009823797270655632, -0.01391533575952053, 0.014549261890351772, 0.02823534421622753, -0.01786457933485508, 0.004521068651229143, -0.011817638762295246, -0.007854974828660488, 0.01645883359014988, -0.021329091861844063, 0.010789904743432999, 0.017843123525381088, 0.02080625854432583, 0.01765941083431244, -0.013896427117288113, -0.008263442665338516, 0.01654508151113987, 0.005395796149969101, 0.018015075474977493, 0.0035454845055937767, 0.009530242532491684, -0.010334692895412445, 0.006767904851585627, -0.011836961843073368, 0.009822315536439419, -0.009444634430110455, 0.01641855016350746, -0.018981296569108963, 0.003677640575915575, -0.01471384521573782, 0.010582217946648598, -0.01913425885140896, 0.015555698424577713, -0.019181691110134125, -0.028925787657499313, -0.013376137241721153, 0.022997841238975525, -0.009195687249302864, 0.01698051206767559, -0.002522148657590151, -0.030491406098008156, -0.009489175863564014, 0.010443477891385555, 0.0005354087334126234, -0.0054012867622077465, 0.01354573480784893, 0.001262240344658494, -0.011561652645468712, -0.017841365188360214, -0.01376398466527462, -0.022646188735961914, 0.0212412066757679, -0.00890200212597847, -0.027043914422392845, -0.0007143261027522385, -0.009332426823675632, -0.006709185894578695, 0.009016974829137325, 0.0028136149048805237, 0.025074390694499016, -0.02356623113155365, 0.0017837717896327376, 0.004876072518527508, 0.014377707615494728, 0.01598772406578064, -0.015971753746271133, -0.004647317808121443, -0.017041385173797607, 0.0191339161247015, 0.007233001291751862, -0.015112858265638351, 0.020155804231762886, -0.018837451934814453, 0.005431294906884432, -0.02261519990861416, 0.006401914171874523, 0.009121091105043888, 0.009936787188053131, 0.006127872038632631, 0.011645607650279999, -0.029339611530303955, -0.006797789130359888, 0.0002134916139766574, -0.006617708131670952, 0.013602832332253456, 0.025888999924063683, 0.004646046087145805, 0.0204218327999115, -0.00739936251193285, -0.015932302922010422, -0.010936669073998928, 0.010565248318016529, 0.015000972896814346, -0.00762953469529748, 0.0053050583228468895, 0.022688206285238266, -0.005580349825322628, -0.017565717920660973, -0.006511051207780838], [0.025219324976205826, -0.018649306148290634, 0.01657751016318798, -0.005130251869559288, -0.011436635628342628, 0.011658117175102234, -0.012090697884559631, -0.022218024358153343, 0.004096100572496653, -0.01616562344133854, 0.009674676693975925, -0.01958492584526539, -0.008324969559907913, 0.010804706253111362, 0.023279983550310135, -0.008641468361020088, 0.011798945255577564, -0.00411927979439497, -0.018958227708935738, 0.007923868484795094, -0.02027510106563568, 0.01412978582084179, -0.014382320456206799, 0.028379686176776886, 0.0007139621302485466, 0.005446558818221092, -0.01600489392876625, -0.015354705043137074, 0.008865932002663612, -0.0022681194823235273, 0.014432406984269619, 0.006760945077985525, -0.01926363632082939, -0.01801247149705887, -0.01963534578680992, 0.0010888222604990005, 0.015115446411073208, 0.005805145017802715, -0.004820872098207474, 0.0018257088959217072, -0.021480754017829895, 0.005653012078255415, 0.0008514601504430175, -0.007051377557218075, -0.00791477132588625, 0.00895734690129757, -0.0027901444118469954, -0.005538538563996553, -0.009835030883550644, -0.014359294436872005, -0.0017157230759039521, -0.011922731064260006, 0.01818135380744934, -0.017620425671339035, -0.015694841742515564, 0.022331032902002335, 0.0011299244360998273, -0.016520874574780464, 0.020271921530365944, -0.0003247775312047452, -0.016313519328832626, -0.011304091662168503, 0.002411918481811881, -0.01221758034080267, 0.017894644290208817, -0.00295375962741673, -0.006005854811519384, -0.009631161577999592, 0.0026596852112561464, -0.010379300452768803, -0.013816933147609234, 0.01276729442179203, 0.009583963081240654, -0.017535574734210968, -0.013090870343148708, 0.019554942846298218, -0.016659418120980263, 0.017677031457424164, 0.01572990044951439, -0.00110564602073282, 0.004666643682867289, 0.015452680177986622, -0.0046242293901741505, 0.016618141904473305, 0.014970842748880386, -0.017912274226546288, 0.02280871570110321, 0.012424767948687077, 0.014397555962204933, -0.007697827648371458, -0.012604903429746628, -0.005567106418311596, 0.01644201949238777, -0.004982883110642433, -0.010088603012263775, 0.005838318727910519, 0.002194731030613184, 0.01846482791006565, -0.005979539826512337, 0.022405676543712616, 0.007313197012990713, -0.005573291331529617, 0.010992882773280144, -0.01613435335457325, -0.01677166484296322, -0.023003876209259033, -0.016491441056132317, -0.013642863370478153, 0.009435680694878101, 0.014358185231685638, 0.005997179076075554, -0.01735329069197178, 0.022243887186050415, 0.00951925665140152, -0.015186406672000885, -0.015161301009356976, -0.0232915747910738, -0.005472000688314438, -0.009045896120369434, 0.009549309499561787, -0.007089793682098389, -0.0001557000941829756, 0.020056741312146187, -0.010507013648748398, 0.010357310064136982, -0.010887067764997482, -0.016203587874770164, -0.002836328698322177], [0.0031323072034865618, -0.006265420466661453, 0.027533063665032387, 0.013695966452360153, -0.02798350527882576, 0.010537172667682171, -0.0030553238466382027, -0.015524975955486298, 0.014529353007674217, -0.014452099800109863, -0.009524871595203876, -0.012612766586244106, 0.0017858927603811026, -0.001929564867168665, 0.031092993915081024, -0.008664506487548351, 0.02564973011612892, -0.025467034429311752, 0.01092290598899126, -0.009048608131706715, 0.015804938971996307, -0.014040698297321796, -0.01505778543651104, 0.01494388934224844, 0.01889519765973091, 0.009671059437096119, -0.017836079001426697, -0.001396631938405335, -0.00874247308820486, -0.020122110843658447, 0.002786824479699135, 0.02140999399125576, -0.019476503133773804, -0.012078595347702503, 0.013996630907058716, 0.025312965735793114, -0.0011058867676183581, -0.016461020335555077, -0.02511155605316162, 0.009052981622517109, 0.023696793243288994, 0.010935276746749878, -0.012774844653904438, -0.015879029408097267, -0.01848544552922249, -0.01767055131494999, -0.022897856310009956, -0.017827633768320084, 0.005028934683650732, -0.01241583563387394, -0.010982869192957878, -0.004953424446284771, -0.00873334426432848, -0.016931593418121338, -0.010219469666481018, -0.013777600601315498, -0.009971044957637787, -0.007219790015369654, 0.0033333466853946447, 0.014384846203029156, 0.003851901274174452, -0.001104341703467071, -0.006299848202615976, -0.021969225257635117, 0.022983696311712265, -0.007687634788453579, 0.011877581477165222, 0.005340807139873505, 0.0029236297123134136, -0.02294122241437435, 0.008351488970220089, -0.0003245630068704486, 0.0010161077370867133, 0.017106913030147552, -0.017815323546528816, -0.0003659952199086547, -0.014061554335057735, -0.014372037723660469, -0.00011415421613492072, -0.014899990521371365, 0.019932495430111885, 0.012571915984153748, -0.0011697810841724277, -0.007987404242157936, -0.016654202714562416, 0.004980457480996847, -0.0035971819888800383, 0.01243619341403246, -0.005872602108865976, -0.02205531857907772, 0.014679371379315853, 0.005814654286950827, -0.012200823985040188, -0.018450472503900528, 0.016771309077739716, 0.0016569485887885094, -0.0022972363512963057, 0.018301792442798615, 0.016990045085549355, -0.011197729967534542, 0.01302683912217617, 0.01445420365780592, -0.019627265632152557, 0.023246970027685165, -0.00747862970456481, 0.017321623861789703, -0.022297991439700127, 0.008943840861320496, 0.01743868924677372, 0.005509744863957167, -0.018889648839831352, 0.016012631356716156, 0.01206921972334385, -0.004561969079077244, 0.010521281510591507, 0.006805946584790945, -0.02758045494556427, 0.014876298606395721, -0.02335485629737377, -0.009252230636775494, -0.005753668025135994, -0.018146060407161713, 0.01674051024019718, 0.00663681561127305, 0.000607276102527976, 0.0063851666636765, -0.021303417161107063, -0.010318100452423096], [0.007772692944854498, -0.00961743388324976, 0.009628316387534142, 0.015551017597317696, 0.020657064393162727, -0.0010026589734479785, -0.006653659511357546, -0.019801462069153786, -0.009401354007422924, 0.00083407002966851, -0.00856349803507328, 0.008361021056771278, 0.016156408935785294, 0.016721976920962334, -0.004350058734416962, -0.0025985841639339924, -0.014663904905319214, 0.012439984828233719, 0.0007950989529490471, 0.011069787666201591, -0.007836823351681232, -0.011958415620028973, -0.003444576170295477, 0.023686831817030907, -0.0168567206710577, -0.025770198553800583, -0.001312277396209538, -0.023544365540146828, -0.007367209065705538, -0.024385634809732437, -0.0322297029197216, 0.014127819798886776, -0.003886762773618102, -0.0009701679809950292, -0.007336525712162256, -0.026218419894576073, 0.01653961092233658, 0.0074173640459775925, -0.004959504585713148, -0.013617453165352345, -0.0025750373024493456, -0.011842429637908936, 0.016024405136704445, 0.01594989374279976, -0.011699370108544827, -0.006194104440510273, 0.023087553679943085, -0.007825912907719612, 0.032542016357183456, -9.683333337306976e-05, 0.015972349792718887, -0.0012199173215776682, 0.006768383085727692, 0.01733556017279625, -0.016403958201408386, -0.013678762130439281, 0.017554299905896187, -0.008559520356357098, 0.01336179580539465, -0.015416133217513561, 0.001671187812462449, -0.0024569686502218246, 0.013838190585374832, 0.02001084014773369, -0.010560876689851284, 3.701479727169499e-05, 0.0022353841923177242, -0.00785871408879757, 0.019583510234951973, -0.004646352957934141, 0.02716769278049469, 0.014367304742336273, -0.01873667724430561, 0.009444952942430973, 0.01573983207345009, -0.016753092408180237, -0.016932891681790352, 0.0026963066775351763, -0.008393517695367336, -0.011215298436582088, -0.00808797962963581, -0.009354834444820881, -0.025758087635040283, 0.008541470393538475, -0.00725122494623065, 0.006580959539860487, -0.0008877732907421887, -0.029860468581318855, -0.009628793224692345, 0.02489212155342102, -0.012043160386383533, 0.003694904502481222, 0.028276054188609123, 0.026609664782881737, 0.018314534798264503, 0.00817707646638155, -0.0192368496209383, 0.021631373092532158, -0.01925017312169075, 0.018853621557354927, -0.00870873499661684, 0.0303321685642004, 0.016883190721273422, 0.024583734571933746, -0.01914173923432827, 0.025825027376413345, 0.0055930595844984055, -0.0016029750695452094, -0.004788173828274012, -0.006521561183035374, -0.02196420729160309, 0.019750433042645454, 0.008531342260539532, 0.005409610457718372, 0.009662896394729614, -0.0015411259373649955, -0.00509759783744812, 0.004998492076992989, 0.012801890261471272, 0.030392849817872047, -0.005687361117452383, 0.01547507755458355, 0.017008619382977486, 0.002173822373151779, 0.025754794478416443, -0.00617137411609292, -0.005972312297672033, -0.024016981944441795], [-0.0018683874513953924, -0.007910730317234993, 0.02356758527457714, 0.023975513875484467, 0.028588861227035522, 0.0062128761783242226, -0.013197478838264942, 0.011005405336618423, 0.021563155576586723, 0.01878218725323677, 0.015231741592288017, -0.031468167901039124, 0.01933211088180542, -0.011304774321615696, 0.0018274387111887336, 0.014712069183588028, -0.012896144762635231, -0.015263870358467102, -0.010059491731226444, -0.005446266382932663, 0.0288210641592741, 0.006518696900457144, -0.01872706040740013, 0.011718603782355785, 0.018668698146939278, -0.016788136214017868, 0.0013626350555568933, 0.007120185531675816, 0.0027175694704055786, -0.0010419057216495275, -0.021549934521317482, -0.012957417406141758, -0.025295861065387726, 0.0025498380418866873, 0.009679771959781647, 0.012581177055835724, 0.020586417987942696, 0.008601916953921318, -0.0016206428408622742, 0.0028084309305995703, 0.023444654420018196, 0.005367915611714125, -0.021614914759993553, 0.012643520720303059, -0.007869232445955276, -0.01057650800794363, -0.003945418167859316, 0.015222721733152866, 0.007947128266096115, 0.0066634961403906345, 0.0032324050553143024, 0.028807654976844788, -0.026217235252261162, -0.0014448771253228188, -0.0005151742952875793, 0.01367892324924469, -0.018780864775180817, 0.020931020379066467, 0.011711587198078632, -0.021657323464751244, 0.003948976751416922, 0.0025429842062294483, 0.00364910950884223, -0.007608482614159584, 0.004605456721037626, -0.006090387236326933, 0.023284785449504852, -0.03676814213395119, -0.01303098164498806, -0.010905008763074875, -0.007378736510872841, -0.010955831967294216, -0.007839921861886978, -0.010362094268202782, 0.02099030837416649, 0.007187485694885254, 0.016769057139754295, -0.01546551939100027, -0.011576496064662933, -0.002554679987952113, -0.01970525272190571, -0.0123141473159194, -0.011491969227790833, 0.015440353192389011, 0.019538166001439095, -0.017489546909928322, -0.01939072273671627, 0.0010575813939794898, -0.018465707078576088, 0.010304312221705914, -0.01059954334050417, -0.010605016723275185, 0.021334681659936905, 0.004139850847423077, 0.009771836921572685, -0.005923055578023195, -0.00748235359787941, 0.015323291532695293, 0.02607683464884758, -0.017204366624355316, -0.009670906700193882, -0.023371361196041107, 0.014864579774439335, -0.01825643517076969, 0.017904214560985565, 0.011353748850524426, -0.003858949989080429, -0.01933015137910843, 0.00015831801283638924, -0.006058624014258385, 2.537752516218461e-05, 0.02599503844976425, 0.005851651541888714, 0.010685131885111332, 0.013814219273626804, 0.03215853497385979, -0.015041477046906948, -0.002911068731918931, -0.012349007651209831, -0.018345842137932777, 0.007508672773838043, -0.007764190435409546, 0.020627668127417564, -0.014676102437078953, 0.03363213688135147, 0.0011488773161545396, -0.015788618475198746, -0.02237529866397381], [-0.017843132838606834, 0.0009222382795996964, -0.01758798398077488, -0.01545349694788456, -0.006074560806155205, 0.020750846713781357, 0.017136916518211365, -0.0009106431971304119, 0.007522513624280691, 0.02153959311544895, -0.014040113426744938, -0.01815684325993061, -0.004394877701997757, 0.021490152925252914, -0.0047664400190114975, 0.02118711546063423, -0.010591057129204273, -0.0058776517398655415, -0.009319537319242954, 0.006799968425184488, -0.007013785652816296, 0.018814198672771454, 0.002990218810737133, 0.02316337451338768, -0.01616336964070797, -0.01701376400887966, -0.010526246391236782, 0.014532926492393017, 0.0003995064180344343, -0.007307273801416159, -0.009767930954694748, 0.014442337676882744, -0.009933317080140114, -0.015486636199057102, 0.0068893758580088615, -0.01710912212729454, -0.01305421907454729, -0.01632254384458065, -0.006777834612876177, -0.013294330798089504, -0.0073066758923232555, -0.007054839748889208, 0.021314682438969612, -0.016028136014938354, 0.002204273361712694, -0.0054288990795612335, 0.007121701259166002, -0.00046622121590189636, -0.0051625450141727924, 0.017853669822216034, -0.012083654291927814, -0.011293789371848106, 0.00288113160058856, -0.017788764089345932, 0.011129968799650669, -0.002387848449870944, 0.010236465372145176, 0.016350040212273598, -0.0017935923533514142, 0.0071141477674245834, -0.01490211021155119, -0.01697227917611599, 0.010875447653234005, 0.01939334347844124, 0.009503556415438652, 0.004962638020515442, 0.018528878688812256, -0.0055220481008291245, -0.02166019007563591, 0.029674680903553963, 0.0026783167850226164, 0.0089840954169631, 0.005770881660282612, -0.01645587757229805, -0.006298228166997433, -0.01860673911869526, 0.008936924859881401, 0.010600507259368896, -0.017110807821154594, -0.008739588782191277, -0.024712132290005684, 0.013114861212670803, -0.01585177518427372, 0.024337461218237877, 0.0071371314115822315, 0.0197621937841177, 0.012126094661653042, 0.0040185838006436825, 0.00925554521381855, -0.009069482795894146, -0.003619807306677103, -0.02026074007153511, -0.0006347243906930089, -0.020685845986008644, 0.022833332419395447, 0.018086811527609825, 0.008403952233493328, 0.011612585745751858, -0.010669137351214886, -0.007642293814569712, 0.01336213480681181, 0.02873179502785206, -0.007972179912030697, -0.004837349522858858, 0.002398039447143674, 0.014493359252810478, -0.01910308748483658, 0.01112513430416584, -0.0184500589966774, 0.008465293794870377, 0.01907823607325554, 0.0046230521984398365, 0.02244606986641884, -0.018533902242779732, 0.010283314622938633, 0.005536963697522879, -0.026324840262532234, 0.006486245896667242, 0.00898952316492796, 0.012312502600252628, -0.005459570325911045, 0.012532501481473446, -0.01518638338893652, 0.00019413237168919295, 0.010738898068666458, -0.01694319024682045, 0.011156044900417328, 0.00614405469968915], [0.014384843409061432, 0.0062414538115262985, 0.027017051354050636, 0.027704589068889618, -0.00579599617049098, 0.016010893508791924, -0.009253648109734058, -0.01741812564432621, -0.027249330654740334, 0.0031991535797715187, 0.021576810628175735, -0.02185165137052536, 0.021869687363505363, 0.018750406801700592, 0.023487189784646034, -0.00987150613218546, 0.004450873006135225, -0.008784027770161629, 0.011745905503630638, -0.018318556249141693, 0.02112245373427868, 0.01649635098874569, -0.018904320895671844, 0.007818051613867283, 0.010708421468734741, -0.02248130366206169, 0.012242770753800869, -0.00027139094891026616, -0.00826470647007227, 0.012745033949613571, 0.008815748617053032, 0.008508699014782906, 0.0076462398283183575, 0.005771705415099859, 0.010717922821640968, -0.004659596830606461, -0.016706198453903198, -0.01597674936056137, -0.02285524271428585, 0.01471604686230421, -0.0008265194483101368, -0.0004607898590620607, 0.02135365642607212, -0.026100503280758858, -0.016397124156355858, 0.010055222548544407, -0.012523924931883812, -0.001167927635833621, -0.01156506035476923, 0.011401294730603695, -0.005783191416412592, 0.018728241324424744, -0.011725875549018383, 0.01884547621011734, 0.012225812301039696, 0.00418068515136838, 0.005708922632038593, -0.016940144822001457, 0.01594475656747818, -0.006263474468141794, -0.003317291848361492, -0.0071622999384999275, 0.009551962837576866, -0.01050703413784504, 0.005570155568420887, 0.007895602844655514, -0.006429208442568779, 0.00403448473662138, 0.002461952855810523, -0.015964217483997345, 0.01615804433822632, 0.010883754119277, 0.013553333468735218, -0.025117209181189537, 0.023296242579817772, -0.014489267952740192, 0.01163380965590477, -0.0076013533398509026, 0.006750727538019419, -0.008113326504826546, 0.014276482164859772, 0.014773385599255562, -0.01848924346268177, -0.001188162830658257, -0.005130203906446695, -0.006330797914415598, -0.0020516247022897005, 0.014522917568683624, 0.009201119653880596, 0.012206668965518475, 0.0094052879139781, 0.022767530754208565, 0.006317173130810261, -0.0032695597037672997, -0.0043439678847789764, -0.014668045565485954, -0.0025348563212901354, -0.011307932436466217, -0.008340354077517986, 0.004700342193245888, 0.023632820695638657, 0.015005071647465229, -0.020241007208824158, 0.018880419433116913, -0.011339543387293816, -0.016468845307826996, -0.01664130948483944, 0.021433880552649498, -0.011781352572143078, -0.011727242730557919, -0.017280256375670433, -0.010476496070623398, -0.0020597244147211313, 0.02254527620971203, -0.015952078625559807, -0.016071775928139687, -0.004216058645397425, 0.011907958425581455, -0.003037877846509218, 0.01639765128493309, 0.002149765845388174, -0.005019912961870432, -0.0009966696379706264, 0.004017908591777086, 0.016112536191940308, -0.013563592918217182, 0.01692858524620533, -0.012851832434535027], [-0.01691589504480362, -0.004621224943548441, -0.01797734573483467, -0.020789682865142822, -0.005830892361700535, -0.006881496403366327, -0.021163439378142357, -0.01145987119525671, -0.012782013975083828, 0.0065650418400764465, -0.006565826013684273, 0.019702794030308723, -0.022821901366114616, 0.015162946656346321, 0.015828201547265053, -0.013384644873440266, -0.020076284185051918, -0.00605724286288023, 0.007422967813909054, 0.011385592631995678, -0.021863479167222977, 0.00562524376437068, -0.009880241006612778, 0.013548491522669792, 0.0041398475877940655, -4.5572414819616824e-05, 0.021017691120505333, 0.009481199085712433, 0.019112128764390945, 0.01088232547044754, 0.005544903222471476, 0.0037669469602406025, -0.01907084323465824, 0.022412151098251343, 0.005583661142736673, 0.0016556342598050833, -0.005616771522909403, -0.01552906259894371, -3.760912659345195e-05, -0.021158695220947266, -0.002683378988876939, -0.014950412325561047, -0.0034380999859422445, 0.02074565552175045, 0.0004870122065767646, -0.010751044377684593, -0.01303855050355196, -0.018884941935539246, -0.01773506961762905, -0.021259592846035957, -0.013602811843156815, 0.01660802587866783, 0.01352305244654417, -0.011848977766931057, -0.019587526097893715, 0.00982990674674511, -0.011926022358238697, -0.01823831908404827, 0.005625881254673004, -0.005563074257224798, -0.016502514481544495, 0.018509071320295334, -0.004718493670225143, -0.0031755550298839808, 0.01488498691469431, 0.018598787486553192, -0.014007805846631527, -0.013893725350499153, 0.000658281147480011, 0.027310296893119812, 0.013996157795190811, 0.012589732185006142, 0.0010185197461396456, -0.019382331520318985, -0.0002724252990446985, 0.00020710579701699317, 0.007649997249245644, -0.0031023581977933645, 0.01184297539293766, 0.005751209799200296, 0.015480892732739449, -0.007429985795170069, 0.014615794643759727, -0.019063279032707214, 0.01785040646791458, -0.006051394157111645, 0.019524341449141502, 0.01853642798960209, 0.0006421669386327267, -0.004617148544639349, -0.01740325056016445, -0.011257871054112911, 0.022905053570866585, -0.020731452852487564, -0.01753908023238182, 0.0194880161434412, 0.009055886417627335, 0.017673388123512268, 0.0017389549175277352, 0.018116693943738937, 0.0008541682036593556, 0.010911829769611359, 0.003674348583444953, 0.020389901474118233, 0.006745256017893553, 0.0035222340375185013, -0.004140778444707394, 0.017729630693793297, -0.0030895681120455265, 0.0010549036087468266, 0.003446604823693633, 0.014486276544630527, 0.01991070620715618, -0.0029276779387146235, 0.00505863968282938, 0.00368528813123703, 0.008945316076278687, 0.003251782851293683, 0.022230129688978195, 0.020698465406894684, 0.011250794865190983, 0.0013482095673680305, 0.018385857343673706, 0.020471997559070587, -0.0004923555534332991, -0.004373155999928713, 0.021060505881905556, 0.008444671519100666], [0.002979150041937828, 0.007377844303846359, -0.017256274819374084, 0.018573418259620667, 0.005647920537739992, -0.0031693424098193645, 0.005062377080321312, 0.00245030433870852, 0.02039749175310135, 0.006454228423535824, -0.011054073460400105, -0.00570861529558897, -0.0028090495616197586, -0.01790793612599373, 0.019497856497764587, -0.020838651806116104, 0.019346144050359726, -0.005649850238114595, 0.006337674334645271, -0.013043799437582493, -0.007214853074401617, -0.003784840926527977, 0.008401282131671906, -0.014590111561119556, 0.017922764644026756, 0.01889522187411785, -0.014249797910451889, 0.014505519531667233, -0.0032021189108490944, -0.016255833208560944, 0.006861492991447449, 0.01584646850824356, -0.004145612940192223, 0.0015733755426481366, -0.019721323624253273, 0.006046109367161989, 0.00844251736998558, 0.006809515412896872, -0.014216944575309753, 0.014153849333524704, -0.012812986969947815, -0.006853112019598484, -0.015738992020487785, -0.007564929313957691, -0.015518237836658955, 0.014327440410852432, -0.007812288589775562, 0.01713230460882187, 0.020436735823750496, -0.0002908309979829937, 0.006944223772734404, -0.007983352057635784, -0.009212395176291466, 0.00728041585534811, 0.027926696464419365, 0.02365359663963318, -0.008819005452096462, 0.010639849118888378, -0.0017473904881626368, 0.0003599002375267446, -0.0013340407749637961, -0.0008099974365904927, 0.013460078276693821, -0.022954391315579414, -0.00690062390640378, 0.014004634693264961, -0.011599894613027573, -0.023277411237359047, -0.017971929162740707, -0.016176864504814148, -0.014915136620402336, 0.0025554895401000977, -0.011727568693459034, 0.010953121818602085, -0.02184094488620758, -0.009436296299099922, -0.01744196005165577, 0.013435425236821175, -0.018248384818434715, -0.0023926631547510624, -0.004343788605183363, -0.008188185282051563, 0.004152103792876005, 0.0003517609729897231, -0.005776555277407169, -0.01281396858394146, -0.004295601509511471, -0.017937863245606422, -0.004431866109371185, -0.01867477037012577, -0.017657671123743057, 0.0028224473353475332, -0.024732211604714394, -0.014889808371663094, 0.029619906097650528, 0.0034260188695043325, -0.02196982502937317, 0.01796148158609867, 0.022942038252949715, -0.00129824155010283, 0.007145138457417488, 0.012428399175405502, -0.022285668179392815, 0.008842586539685726, 0.006760286167263985, -0.009622138924896717, -0.012409682385623455, 0.01350478082895279, 0.006105079781264067, 0.009518926031887531, -0.006659599952399731, -0.01076563261449337, 0.008257352747023106, -0.016058485954999924, -0.015377609990537167, 0.016429513692855835, 0.01373704057186842, -0.02323494292795658, 0.002878484083339572, -0.0022742135915905237, 0.007271068170666695, -0.01922961138188839, -0.018668029457330704, -0.022200265899300575, 0.006935946177691221, 0.014373722486197948, -0.005430181045085192, -0.002689101966097951], [0.019139906391501427, 0.019535940140485764, 0.006087061017751694, -0.012161764316260815, 0.011427863501012325, -0.012063940055668354, 0.014514514245092869, -0.018131863325834274, 0.0035135908983647823, 0.02579432539641857, -0.005985705181956291, 0.014544988982379436, 0.010794330388307571, 0.010530438274145126, -0.013853213749825954, -0.0054401918314397335, -0.019765863195061684, -0.013536802493035793, -0.020398542284965515, -0.00994860753417015, -0.004830448422580957, 0.005787802394479513, -0.005946482066065073, -0.004448292776942253, -0.007046292535960674, 0.027961764484643936, 0.02423090860247612, 0.012113162316381931, 0.0027073754463344812, -0.007143495604395866, -0.0002519305853638798, -0.02007535845041275, 0.00650628749281168, 0.017789088189601898, 0.007509037386626005, 0.012096527963876724, -0.01372840441763401, 0.009581547230482101, -0.014224771410226822, 0.01503359992057085, -0.0010539384093135595, -0.005132472608238459, 0.01721286028623581, -0.009496140293776989, -0.01098584197461605, -0.006320370826870203, -0.01585678569972515, -0.002468361984938383, -0.017472540959715843, 0.000709987070877105, -0.015293181873857975, 0.01718243397772312, -0.0037767242174595594, 0.008797426708042622, -0.022227559238672256, 0.024006228893995285, -0.01654132269322872, 0.02292303740978241, -0.021723095327615738, -0.007335043046623468, -0.011754642240703106, 0.00882802065461874, 0.0025494126603007317, -0.009926334023475647, -0.011834518983960152, -0.010846316814422607, -0.007006925996392965, -0.00863982830196619, -0.00275401514954865, -0.01616145670413971, -0.026637110859155655, -0.003085857257246971, 0.015159029513597488, -0.004395917523652315, 0.011318406090140343, 0.009304158389568329, 0.006067912094295025, 0.0017139248084276915, -0.02369774505496025, 0.005891160108149052, -0.0236296858638525, -0.018377842381596565, -0.00963253527879715, 0.0021090032532811165, 0.0038102236576378345, 0.02417398802936077, 0.019090663641691208, 0.01842869631946087, -0.013332048431038857, -0.021364502608776093, -0.003458744380623102, 0.023106778040528297, -0.013120157644152641, 0.0056853159330785275, 0.006956333294510841, 0.002452523447573185, -0.006227273494005203, -0.018836667761206627, 0.018586328253149986, -0.01047512423247099, 0.019189385697245598, -0.024222437292337418, 0.00587827991694212, -0.003270739922299981, -0.00025904839276336133, -0.01153487153351307, -9.862161095952615e-05, 0.013545817695558071, 0.018478848040103912, 0.0008510365732945502, -0.008421513251960278, 0.00545042660087347, 0.020245026797056198, -0.010062524117529392, 0.0007445185328833759, 0.0018117688596248627, -0.018531978130340576, -0.014055991545319557, -0.01637537032365799, -0.004416726995259523, -0.0012900411384180188, -0.010004493407905102, -0.0036792804021388292, -0.020431088283658028, 0.019119681790471077, 0.0034961740020662546, 0.005132661666721106, 0.023055261000990868], [-0.017505573108792305, -0.016903802752494812, 0.01947956532239914, -0.01763002574443817, 0.0036256315652281046, 0.021545222029089928, -0.021769065409898758, -0.00640144245699048, -0.004117585252970457, 0.024765754118561745, 0.008647643029689789, -0.026751836761832237, 0.029016153886914253, -0.00666907150298357, -0.0019817787688225508, 0.007244174834340811, 0.004014481324702501, -0.010631777346134186, -0.017599718645215034, 0.006703178398311138, -0.013259128667414188, -0.006753955036401749, 0.0013001114130020142, 0.022766534239053726, -0.008799704723060131, 0.010030684992671013, 0.00017966287850867957, -0.00366790359839797, 0.005472942255437374, 0.017632944509387016, -0.004497104324400425, 0.012737510725855827, -0.01909708045423031, 0.016608184203505516, -0.015084372833371162, -0.024723494425415993, 0.0033904267475008965, 0.007619207259267569, 0.007873442955315113, 0.007356895599514246, -0.019048212096095085, -0.009727362543344498, 0.013888251967728138, -0.016731373965740204, -0.0032399611081928015, -0.007500926498323679, 0.024011874571442604, 0.017663193866610527, -0.015329099260270596, 0.006032994948327541, 0.007040973752737045, -0.008380675688385963, 0.015575251542031765, -0.00905856303870678, 0.013532732613384724, 0.0272645466029644, 0.0015513241523876786, -0.0013110795989632607, -0.02568635903298855, -0.014902625232934952, -0.007748371455818415, -0.011458274908363819, 0.01048464048653841, 0.021813204512000084, -0.005810178350657225, -0.0013265388552099466, -0.011176038533449173, -0.025493361055850983, -0.015639280900359154, 0.02374972216784954, 0.017228063195943832, -0.017570815980434418, 0.022749416530132294, -0.02289307489991188, 0.019284013658761978, -0.00542084826156497, -0.0014234994305297732, 0.01322951726615429, -0.019909733906388283, -0.004883247893303633, -0.025110814720392227, -0.019162291660904884, -0.0253550224006176, 0.022883279249072075, -0.0051771304570138454, -0.006884132977575064, -0.011134030297398567, 0.0180861447006464, -0.015516893938183784, -0.015268353745341301, 0.010545439086854458, -0.01781337521970272, 0.01947733573615551, -0.003622810821980238, -0.0065523977391421795, -0.015274977311491966, 0.008391710929572582, 0.014057285152375698, 0.0035959770902991295, -0.0005496426019817591, 0.016829881817102432, -0.0020981153938919306, -0.015119793824851513, -0.008318345062434673, -0.009257650934159756, -0.015844551846385002, 0.02446550317108631, -0.010914232581853867, -0.015204216353595257, 0.004238682799041271, 0.01395831722766161, 0.017711728811264038, -0.015434916131198406, -0.006291364785283804, -0.0029133192729204893, 0.0005473519559018314, 0.02061484195291996, 0.0028894294518977404, -0.015406052581965923, 0.0031654848717153072, -0.027132665738463402, -0.012063445523381233, 0.007536738179624081, -0.022736072540283203, 0.019147217273712158, -0.005463899578899145, 0.02379879169166088, 0.01499843318015337], [0.009857868775725365, -0.03111882321536541, -0.015199928544461727, -0.0061500901356339455, -0.015116340480744839, -0.011565212160348892, 0.018803058192133904, 0.006965430919080973, 0.013342577032744884, -0.014313296414911747, -0.010464208200573921, 0.006042825523763895, 0.020918438211083412, 0.006703307386487722, -0.013625145889818668, -0.021687310189008713, -0.007974512875080109, 0.016392860561609268, -0.002806678880006075, 0.014644443057477474, -0.026246095076203346, -0.025652708485722542, 0.004822260234504938, 0.01594376750290394, -0.002118375850841403, -0.004704338498413563, 0.02038624696433544, -0.015779247507452965, 0.03093843162059784, 0.018278539180755615, -0.020541373640298843, 0.013354313559830189, -0.026351645588874817, -0.0202044565230608, 0.009543444961309433, -0.016144217923283577, 0.014315137639641762, 0.021344434469938278, -0.0064806281588971615, 0.01221882551908493, 0.00596245750784874, 0.025929173454642296, 0.022795848548412323, 0.005323593970388174, 0.018277034163475037, -0.019474338740110397, 0.010784048587083817, -0.029893729835748672, 0.011828889138996601, -0.0023259827867150307, -0.0270560123026371, -0.0031963081564754248, -0.007643835619091988, 0.013667729683220387, 0.004491584841161966, 0.009861822240054607, 0.007855475880205631, 0.002273614052683115, 0.00624824920669198, -0.011528465896844864, 0.011918525211513042, -0.02049093134701252, -0.0033217996824532747, 0.014240967109799385, -0.009360435418784618, 0.0074985940009355545, 0.012000328861176968, 0.011650100350379944, 0.024166712537407875, 0.006762836128473282, -0.016353949904441833, 0.0012819423573091626, -0.025278795510530472, 0.003664907533675432, 0.005442572757601738, -0.00983056053519249, 0.012461029924452305, -0.007007692474871874, -0.004400137811899185, 0.0027746916748583317, -0.0018138060113415122, -0.012100022286176682, 0.014569741673767567, -0.029175251722335815, 0.007712574675679207, -0.015100706368684769, -0.008630720898509026, -0.011689022183418274, 0.008267180994153023, 0.005849836859852076, 0.011869656853377819, -0.02140575274825096, 0.0009061323362402618, 0.02859884686768055, -0.014044996351003647, -0.00017118864343501627, -0.01929524540901184, -0.018967565149068832, 0.0008582378504797816, 0.012012963183224201, 0.0021589379757642746, -0.0059091378934681416, -0.008280853740870953, 0.004754811525344849, 0.011910032480955124, 0.013230561278760433, -0.024745821952819824, 0.01484578289091587, -0.005350896622985601, 0.014514472335577011, 0.0015908516943454742, 0.012397127225995064, -0.00030483267619274557, 0.009066296741366386, -0.007929976098239422, 0.015656787902116776, -0.013372187502682209, 0.02259352058172226, 0.022692371159791946, -0.01548846997320652, 0.011267486028373241, -0.01730874367058277, -0.010456268675625324, 0.01089631486684084, -0.0025630577001720667, 0.013645414263010025, 0.016600867733359337, 0.01455011498183012], [-0.006271945778280497, 0.001898668590001762, 0.0025267465971410275, -0.0030601287726312876, -0.010568708181381226, -0.0191506277769804, 0.007082614582031965, -0.01737244613468647, -0.017121905460953712, -0.00772643368691206, -0.0077845086343586445, -0.004220391158014536, 0.0264985803514719, 0.006642088294029236, 0.02342194877564907, 0.013582187704741955, -0.019687369465827942, -0.016816766932606697, -0.015063507482409477, -0.011976148933172226, 0.0036923878360539675, 0.0010573702165856957, 0.00675491988658905, 0.025115065276622772, 0.012766159139573574, 0.005871593952178955, 0.011815255507826805, 0.023591075092554092, 0.01360473781824112, -0.019037364050745964, 0.013842318207025528, 0.005590465851128101, 0.002144224476069212, 0.0071679274551570415, 0.005237645469605923, -0.005616124253720045, 0.005038500763475895, 0.015371517278254032, -0.019303739070892334, -0.01698237843811512, -0.00512608140707016, 0.008025235496461391, 0.014758630655705929, -0.008074692450463772, -0.014522918500006199, -0.009266729466617107, 0.011848724447190762, 0.0030300875660032034, 0.008650424890220165, 0.010799279436469078, -0.01700587011873722, 0.004543745890259743, 0.016410911455750465, 0.008434559218585491, 0.007815830409526825, -0.010516044683754444, 0.018020683899521828, -0.005688195116817951, -0.02162454091012478, -0.003098932094871998, -0.005540754646062851, 0.006290425080806017, 0.019302882254123688, 0.019027289003133774, -0.011873668991029263, -0.005409853998571634, 0.015315067954361439, 0.013138367794454098, 0.002427357016131282, 0.003100402420386672, -0.001139175146818161, 0.024720363318920135, 0.02090783417224884, 0.013229315169155598, -0.008506587706506252, 0.010628972202539444, 0.006358478683978319, 0.020059308037161827, 0.011321171186864376, -0.009988666512072086, -0.02110864780843258, 0.020285913720726967, 0.014661591500043869, 0.01825822703540325, -0.011357173323631287, -0.0009296868229284883, 0.005822930485010147, 0.008930535987019539, 0.012963468208909035, -0.004339260049164295, 0.017576972022652626, -0.010191498324275017, 0.015344168990850449, 0.012460595928132534, 0.006914135534316301, -0.01576661318540573, -0.006008659023791552, 0.011583673767745495, 0.0074105942621827126, 0.012857663445174694, -0.013598773628473282, -0.023889485746622086, 0.01747935079038143, -0.007796197663992643, 0.0074170432053506374, 0.023613600060343742, 0.01196976751089096, 0.004361049272119999, 0.007972052320837975, 0.012606306001543999, -0.01185273565351963, -0.01642400212585926, -0.009655771777033806, -0.007284943945705891, 0.001770729897543788, 0.015927176922559738, 0.019938530400395393, -0.018293116241693497, 0.007784916553646326, 0.002153505338355899, -0.016626261174678802, 0.011291570030152798, -0.012587173841893673, -0.014593655243515968, -0.019802602007985115, 0.004771311301738024, 0.020840341225266457, -0.00553532037883997], [-0.0035480090882629156, 0.027771566063165665, 0.022192910313606262, -0.013824738562107086, -0.009330983273684978, 0.011624403297901154, -0.021105775609612465, -0.0018367251614108682, 0.002883806824684143, 0.017619038000702858, 0.029297033324837685, 0.009265081025660038, -0.004414975177496672, -0.009966245852410793, -4.537133645499125e-05, 0.008731776848435402, 0.0072860452346503735, -0.008237355388700962, 0.007084276527166367, -0.017761019989848137, 0.018839022144675255, 0.0074972291477024555, -0.003031285712495446, 0.026156233623623848, -0.0061871204525232315, -0.009302533231675625, -0.023876197636127472, -0.007312923204153776, -0.005003943108022213, -0.005239392630755901, 0.023148881271481514, 0.0056444257497787476, -0.015255537815392017, 0.006836057640612125, -0.004858123138546944, -0.0008810971048660576, 0.00810934603214264, -0.008194811642169952, 0.007318759802728891, 0.025601305067539215, 0.0019205632852390409, 0.013167197816073895, -0.011968673206865788, -0.0006872136727906764, 0.012260166928172112, -0.012025524862110615, 0.017797676846385002, 0.018880555406212807, 0.007526037748903036, 0.008044465444982052, -0.009793607518076897, 0.003925617318600416, 0.006991718430072069, -0.02290179394185543, -0.019448507577180862, -0.008828793652355671, -0.0034224889241158962, 0.02718585729598999, -0.02659420110285282, -0.0015902905724942684, -0.008979314006865025, 0.021418044343590736, -0.015504520386457443, 0.016813887283205986, 0.0182467233389616, -0.007402497809380293, 0.020932529121637344, 0.009653039276599884, -0.026757454499602318, -0.0067200628109276295, 0.02017616294324398, -0.006109112873673439, 0.024512900039553642, -0.008707170374691486, 0.016828253865242004, -0.00463856291025877, -0.007758655119687319, 0.0101395845413208, -0.023290595039725304, 0.02505994588136673, -0.0200461745262146, 0.0007227197056636214, 0.024377573281526566, 0.0007170136668719351, 0.01248069666326046, -0.005120802205055952, 0.012707473710179329, -0.0032660316210240126, 0.0051401942037045956, -0.005007765721529722, 0.007920507341623306, -0.010987227782607079, 0.0164978988468647, -0.0089876102283597, -0.009849664755165577, -0.009459911845624447, 0.008203262463212013, 0.022921837866306305, 0.02386516146361828, 0.0005462603876367211, -0.0174543596804142, 0.02317071333527565, -0.015084301121532917, -0.007860476151108742, 0.026524266228079796, 0.0008862331742420793, 0.021314114332199097, -0.011691734194755554, -0.001998294610530138, 0.02417849376797676, 0.005061817355453968, 0.024617092683911324, -0.019536733627319336, 0.02002638950943947, -0.026649298146367073, -0.009529373608529568, 0.017218630760908127, -0.0007152340258471668, 0.00915730930864811, 0.0014490577159449458, 0.007202004082500935, 0.014941793866455555, 0.01854308508336544, -0.0014995677629485726, -0.018633322790265083, 0.002525521209463477, 0.01638699322938919, 0.008817389607429504], [-0.018209999427199364, 0.029364246875047684, -0.017737817019224167, -0.008405781351029873, 0.008052390068769455, -0.014664309099316597, -0.01162018533796072, -0.009623521938920021, -0.0011362099321559072, 0.014195512048900127, -0.017288818955421448, 0.008551904000341892, 0.027513451874256134, 0.027285244315862656, 0.00726337032392621, -0.00499151973053813, 0.012443039566278458, -0.012794331647455692, -0.02327757142484188, -0.012366046197712421, 0.025588499382138252, -0.0008128521731123328, -0.014914702624082565, 0.016907313838601112, -0.01520452182739973, 0.018846726045012474, -0.01230540219694376, 0.021146439015865326, -0.004414559341967106, -0.011212038807570934, 0.01320785190910101, -0.015667183324694633, 0.009845511056482792, -0.004938844591379166, -0.010476847179234028, -0.0032489944715052843, -0.01182366069406271, -0.02434057742357254, -0.015974681824445724, 0.007764788810163736, 0.006467157509177923, -0.01794150471687317, 0.0029468622524291277, -0.0036800734233111143, 0.00032683517201803625, -0.007356727030128241, 0.012160494923591614, 0.010280796326696873, 0.010055805556476116, -0.003192343981936574, -0.014203082770109177, 0.02119564637541771, -0.013361302204430103, -0.00037930242251604795, 0.015200261026620865, 0.00024897188995964825, 0.01150218490511179, 0.015284691005945206, 0.003811232978478074, -0.0029921778477728367, -0.011271820403635502, 0.00404004193842411, -0.011500331573188305, 0.0038470483850687742, -0.0190413985401392, 0.007931271567940712, -0.006189875770360231, -0.025675658136606216, -0.00030111739761196077, -0.0018358196830376983, -0.0017760629998520017, -0.0014775409363210201, 0.015197739005088806, 0.006056583486497402, 0.012847764417529106, 0.0015626264503225684, -0.004710652865469456, 0.000809521006885916, 0.007879715412855148, 0.012565471231937408, -0.022417303174734116, -0.018578452989459038, -0.02075067162513733, -0.004169375170022249, -0.007394041400402784, -0.01612553931772709, -0.015675503760576248, -0.007966937497258186, -0.011423417367041111, -0.01934053562581539, 0.013710014522075653, 0.010623769834637642, 0.011543736793100834, -0.025839267298579216, 0.013325845822691917, -0.014881707727909088, 0.011220399290323257, -0.012484224513173103, -0.007092808838933706, -0.020461859181523323, -0.012762845493853092, -0.006748870946466923, -0.0037513836286962032, -0.020408913493156433, 0.015479808673262596, -0.000986490398645401, 0.008211806416511536, -0.00682141212746501, 0.023445039987564087, 0.023096982389688492, -0.008683319203555584, 0.006724606733769178, -0.01379034761339426, -0.0026115982327610254, -0.01800936460494995, 0.003205582033842802, 0.022504353895783424, -0.0025393483228981495, 0.015439501963555813, -0.005297565832734108, 4.4846554374089465e-05, 0.01790546625852585, 0.007007633335888386, -0.014476701617240906, -0.0015677443007007241, 0.009807609021663666, -0.01815078966319561, 0.00752749340608716], [-0.010969205759465694, 0.007855020463466644, 0.006994388531893492, 0.008358510211110115, -0.011342769488692284, 0.002473458182066679, 0.013946604914963245, -0.0032612045761197805, 0.009029795415699482, -0.026172148063778877, -0.010491087101399899, -0.006654055789113045, -0.003212206531316042, 0.012186533771455288, 0.002841886365786195, 0.006566080264747143, -0.009200045838952065, -0.00035932791070081294, -0.0015513761900365353, 0.004447581712156534, 0.022090282291173935, -0.001911741797812283, -0.014448913745582104, 0.009933451190590858, 0.00906895101070404, 0.018293119966983795, 0.014427159912884235, -0.0038209741469472647, -0.007593661081045866, 0.011679915711283684, -0.002510154852643609, 0.0131251011043787, -0.011113234795629978, -0.004687796346843243, -0.0165103692561388, 0.02204122021794319, -0.00966116227209568, 0.013684508390724659, -0.006256881635636091, -0.01892033964395523, -0.02717672474682331, -0.004448220133781433, -0.008894848637282848, -0.0018081096932291985, 0.007298273034393787, 0.025612501427531242, 0.007353085558861494, -0.0016110519645735621, 0.021163607016205788, 0.0014804474776610732, 0.00040056329453364015, -0.01193256862461567, 0.00980791263282299, -0.01291530579328537, 0.013518184423446655, -0.0035072185564786196, -0.019995611160993576, 0.0020972625352442265, -0.012308674864470959, -0.01191378477960825, 0.01227881945669651, 0.0059675597585737705, -0.0012834924273192883, -0.025624122470617294, 0.01349699404090643, -0.02001061849296093, 0.0066688889637589455, -0.011460385285317898, 0.011681162752211094, -0.014646843075752258, -0.01300733257085085, 0.013175958767533302, 0.0019304067827761173, 0.0022536050528287888, 0.0070308600552380085, -0.012600629590451717, -0.012853418476879597, -0.0007342057069763541, -0.014476196840405464, -0.017491471022367477, 0.006186128593981266, -7.22886179573834e-05, 0.00870521366596222, -0.011111018247902393, -0.018307143822312355, 0.013222482055425644, -0.004425118211656809, -0.01615511067211628, 0.021482357755303383, -0.023357709869742393, 0.014526383951306343, -0.009082620963454247, 0.008115732111036777, 0.015305601060390472, 0.02151450701057911, 0.016262395307421684, 0.004610314965248108, 0.004892558325082064, -0.012137503363192081, 0.0009085259516723454, 0.009073207154870033, 0.010694083757698536, -0.0033406547736376524, -0.00578613206744194, -0.0016179984668269753, -0.005280605051666498, -0.019380420446395874, 0.005616870708763599, 0.011846034787595272, -0.00417745066806674, 0.0010139949154108763, -0.019429810345172882, 0.0025851905811578035, -0.00815342552959919, -0.011448688805103302, 0.00882961880415678, -0.01222232822328806, -0.004075652454048395, 0.020114840939641, 0.006583881564438343, 0.008830035105347633, -0.010495631024241447, 0.008947006426751614, -0.014024629257619381, -0.0001992337201954797, 0.004187142476439476, -0.02760079875588417, 0.004710460547357798], [-0.011178825050592422, 0.004167566541582346, 0.010515237227082253, -0.017123127356171608, 0.0008171454537659883, -0.01862654648721218, 0.002044644672423601, -0.002867307048290968, -0.004300902131944895, 0.01385279931128025, 0.009652459993958473, 0.0022597522474825382, -0.010221686214208603, 0.013410565443336964, -0.028530355542898178, 0.013223874382674694, 0.00510663166642189, 0.00017436670896131545, 0.011191087774932384, -0.01326519250869751, -0.0022616914939135313, 0.019199242815375328, 0.018133407458662987, 0.009995921514928341, -0.004931292962282896, -0.015025921165943146, -0.014940247870981693, -0.01722571812570095, 0.014344713650643826, 0.004888421390205622, 0.0027363495901226997, -0.002189550781622529, -0.007960178889334202, 0.0010840788017958403, 0.007287049666047096, -0.017976436764001846, -0.0003163723449688405, 0.016270674765110016, 0.014929987490177155, 0.020373933017253876, -0.014281881973147392, -0.0017541291890665889, -0.018280738964676857, 0.007296091411262751, -0.0028594983741641045, -0.007520836312323809, -0.014183970168232918, 0.009855767711997032, 0.012038607150316238, -0.0065628113225102425, 0.020999310538172722, 0.005136276129633188, -0.0019639923702925444, 0.005152171477675438, -0.0012191355926916003, 0.01096277218312025, -0.00317295896820724, 0.015677686780691147, 0.01205842662602663, 0.008224484510719776, 0.006928860675543547, -0.003436627332121134, 0.016992419958114624, -0.009302969090640545, -0.01203895453363657, 0.01684967428445816, -0.009040973149240017, 0.006191408261656761, -0.012870118021965027, -0.011779404245316982, -0.010737063363194466, 0.004754574038088322, -0.00030682276701554656, -0.0011935459915548563, 0.019231338053941727, -0.023979708552360535, -0.019608186557888985, 0.007360992953181267, -0.0013169052544981241, 0.024199657142162323, 0.01181902177631855, -0.01204327866435051, 0.020188041031360626, 0.009120786562561989, -0.004382744897156954, -0.012641184963285923, 0.0003966835793107748, 0.008210702799260616, -0.025509063154459, 0.006062083877623081, 0.005973188206553459, -0.009215719066560268, 0.023228544741868973, -0.022237131372094154, 0.004122875165194273, -0.01024905126541853, 0.005779396276921034, 0.00606690626591444, -0.010506817139685154, 0.020347194746136665, -0.004589841701090336, 0.011864149942994118, 0.0256184134632349, -0.015039045363664627, 0.0020733720157295465, 0.022093163803219795, -0.015199569053947926, -0.022805416956543922, -0.0143325449898839, 0.02139192819595337, -0.00616156030446291, -0.006380678620189428, 0.013219717890024185, 0.021004218608140945, -0.0011060605756938457, 0.01614392176270485, 0.017179369926452637, 0.022997723892331123, -0.00682985270395875, 0.004016536753624678, -0.002188103273510933, 0.014279309660196304, 0.012827371247112751, -0.011308505199849606, -0.028627939522266388, -0.01713315024971962, -0.0016241095727309585, 0.01457023061811924], [0.012369721196591854, -0.014824319630861282, 0.004375441465526819, 0.016021888703107834, -0.019446099177002907, 0.0021364421118050814, -0.014574874192476273, 0.01616268791258335, -0.014780999161303043, -0.0024485744070261717, -0.015915298834443092, 0.017132289707660675, 0.01827513612806797, -0.022836264222860336, 0.014017955400049686, -0.005694070365279913, -0.0223553404211998, 0.021089456975460052, -0.002537858672440052, 0.0015520461602136493, 0.016142141073942184, -0.013895750045776367, -0.013575012795627117, 0.01750834845006466, -0.004979336634278297, 0.006355411373078823, 0.00020126324670854956, 0.010248794220387936, 0.0016249946784228086, -0.003955102525651455, -0.013024303130805492, -0.008573136292397976, 0.02011772058904171, -0.00475368183106184, 0.009682245552539825, -0.0113129997625947, 0.00904923491179943, -0.015498953871428967, 0.024598844349384308, 0.016913803294301033, 0.026869529858231544, 0.012075084261596203, 0.008743335492908955, -0.006911952048540115, -0.015397792682051659, -0.002279004780575633, -0.024597298353910446, -0.007709323428571224, -0.017022209241986275, -0.011147183366119862, -0.004250955767929554, -0.018346888944506645, -0.005619221832603216, 0.003243708750233054, 0.010363655164837837, 0.015698332339525223, 0.01001637801527977, -0.012232961133122444, -0.0242091603577137, -0.005705548450350761, 0.018448732793331146, -0.016171272844076157, -0.010439440608024597, 0.01651787757873535, 0.00822457019239664, -0.013882669620215893, -0.008121205493807793, 0.021119598299264908, 0.021785149350762367, -0.017007311806082726, -0.018013017252087593, 0.00985333975404501, -0.0038478097412735224, -0.0012848175829276443, -0.008541673421859741, 0.02014871872961521, -0.015941640362143517, -0.012106765992939472, -0.003474239492788911, -0.01324373111128807, 0.02107115462422371, 0.0025296660605818033, 0.0159553661942482, 0.0038588878232985735, 0.008405366912484169, 0.02495502308011055, -0.00129302020650357, 0.007181819062680006, 0.01840049959719181, -0.009502649307250977, -0.005962030030786991, -0.01023208349943161, -0.018448829650878906, -0.022249840199947357, -0.004194249864667654, -0.019949255511164665, -0.008498262614011765, 0.01706494204699993, -0.0011546206660568714, -0.000433923676609993, 0.012017832137644291, -0.006223862059414387, -0.005112663842737675, -0.018603965640068054, 0.00875022355467081, -0.011258273385465145, -0.02129465341567993, -0.0010123879183083773, -0.006966146174818277, 0.011334957554936409, -0.008797300048172474, 0.0015265918336808681, 0.00564628466963768, -0.024671997874975204, -0.014485177583992481, -0.0026106489822268486, 0.0069463737308979034, 0.02290448360145092, -0.005341561045497656, 0.015780890360474586, 0.01953028328716755, 0.01781177707016468, -0.003666822798550129, 0.0223933607339859, 0.011030024848878384, -0.01728036068379879, -0.01033941749483347, 0.02416437864303589], [-0.020849669352173805, -0.014513636939227581, -0.0018941235030069947, 0.005261642392724752, 0.008081993088126183, 0.012503230944275856, -0.010721310041844845, 0.007251217495650053, -0.015102319419384003, 0.0009652102598920465, -0.011158154346048832, 0.010252503678202629, -0.009276366792619228, -0.0032045955304056406, -0.028405407443642616, -0.01351755391806364, -0.028275271877646446, 0.006632314529269934, -0.011753128841519356, 0.004082557279616594, -0.008837972767651081, 0.002522779628634453, 0.011692282743752003, 0.00813506729900837, -0.01900465041399002, -0.025776557624340057, 0.02450377680361271, -0.020954901352524757, -0.00747163500636816, 0.002145233564078808, 0.011868827044963837, 0.007214049808681011, 0.005379217676818371, -0.018774043768644333, -0.011889934539794922, -0.009199212305247784, 0.006398271769285202, 0.012272789143025875, -0.0007870044209994376, 0.0015167391393333673, 0.00878896750509739, 0.01127680018544197, -0.0032079026568681, 0.013164440169930458, 0.0004532171005848795, -0.022610394284129143, -0.015425542369484901, -0.019345780834555626, 0.004216855391860008, -0.018351469188928604, 0.012672477401793003, 0.008892801590263844, -0.005889729596674442, 0.010559892281889915, 0.014811713248491287, 0.005295854527503252, -0.016766376793384552, 0.016872243955731392, -0.02160550281405449, 0.009994801133871078, 0.008894541300833225, -0.003350194077938795, 0.015844836831092834, 0.004327418748289347, -0.018925972282886505, 0.007090832106769085, 0.02224159426987171, 0.003752630203962326, 0.0198650062084198, -0.009890388697385788, -9.747271542437375e-05, 0.015708299353718758, -0.014291835017502308, 0.0011064503341913223, 0.005926600191742182, 0.018169114366173744, -0.02255800925195217, -0.004712552297860384, -0.012568099424242973, -0.02127068117260933, 0.02329218201339245, -0.004071999806910753, 0.021781159564852715, 0.020697571337223053, 0.012329998426139355, 0.01279713399708271, 0.009792683646082878, 0.014375307597219944, -0.004845358431339264, -0.011777394451200962, 0.003691804362460971, -0.014278765767812729, 0.010488208383321762, 0.0014741854975000024, -0.02170632965862751, 0.0028950192499905825, 0.02099577710032463, 0.016012080013751984, 0.014652291312813759, -0.002976859686896205, 0.0020542710553854704, 0.024831485003232956, 0.012420064769685268, 0.009429561905562878, 0.0026718995068222284, 0.00011871458264067769, -0.006681535858660936, -0.0172722265124321, 0.025859011337161064, -0.006257533095777035, -0.017269687727093697, -0.008214667439460754, 0.017233164981007576, -0.0018052799860015512, 0.012168140150606632, -0.01758703961968422, -0.026611099019646645, -0.011012066155672073, -0.0042070685885846615, -0.021111533045768738, -0.0209374837577343, -0.0018012506188824773, -0.0004755647969432175, 0.01952303759753704, -0.02510015480220318, 0.02815193124115467, -0.000744056305848062, -0.0007038117037154734], [-0.023043781518936157, 0.02332177571952343, -0.01530915405601263, -0.015493529848754406, -0.013282079249620438, 0.00994641613215208, -0.01872142404317856, -0.005573218688368797, -0.019095206633210182, 0.016107700765132904, 0.02256748639047146, -0.012113727629184723, 0.0037066403310745955, 0.0046243816614151, -0.01823040097951889, -0.0039400625973939896, 0.013210915960371494, 0.012058374471962452, -0.0036195730790495872, 0.0038898021448403597, 0.00036415859358385205, -0.0018646176904439926, -0.012261856347322464, 0.008587563410401344, 0.013029043562710285, -0.016592685133218765, 0.002789024030789733, -0.0238718930631876, -0.022033464163541794, -0.0024182365741580725, 0.008928204886615276, -0.0035533613990992308, 0.0035507366992533207, -0.028729738667607307, -0.0020199960563331842, 0.013057255186140537, 0.006088088732212782, -0.0009166452218778431, -0.017565656453371048, -0.009754559956490993, -0.005770825780928135, -0.010252628475427628, -0.01810983568429947, 0.0032774333376437426, -0.006010657176375389, -0.0007506696274504066, -0.01108666229993105, -0.011896815150976181, -0.019884785637259483, 0.0036053757648915052, 0.0007800619350746274, -0.01482792291790247, -0.025080809369683266, 0.012862935662269592, 0.0075095039792358875, -0.018000908195972443, -0.018510878086090088, 0.01312913466244936, -0.027903158217668533, 0.017395304515957832, 0.003764169989153743, -0.00647282088175416, -0.007553731556981802, 0.015119998715817928, -0.016084831207990646, -0.0024819110985845327, 0.009215973317623138, -0.016149131581187248, 0.006528065539896488, -0.0011084760772064328, 0.010803296230733395, -0.007226618006825447, 0.01431636605411768, 0.0018461651634424925, -0.01856815628707409, 0.016337746754288673, -0.015465453267097473, 0.008149350993335247, 0.013880589045584202, 0.008466629311442375, 0.022146429866552353, 0.005261679645627737, 0.002946343505755067, 0.014861607924103737, 0.006962063256651163, 0.01842121221125126, 0.014799542725086212, 0.021707331761717796, 0.0055738226510584354, 0.0205902848392725, -0.008903839625418186, 0.0045556966215372086, 0.02658807672560215, -0.023233503103256226, -0.007602534722536802, 0.009886146523058414, -0.0006698465440422297, 0.0038718264549970627, 0.008770618587732315, 0.0020254384726285934, -0.022145036607980728, 0.016016805544495583, 0.00474711274728179, 0.006607391405850649, -0.01775483228266239, -0.010972581803798676, 0.0006922915345057845, 0.015022051520645618, -0.00622868537902832, -0.006900136824697256, 0.008606216870248318, -0.01841975376009941, 0.011692274361848831, -0.004046657122671604, 0.002802066272124648, 0.004054994788020849, 0.011667578481137753, 0.012780859135091305, -0.00857517309486866, 0.00858506839722395, -0.012844058685004711, 0.001906420337036252, 0.0160786472260952, 0.016886204481124878, 0.011835556477308273, 0.0010178888915106654, 0.02167626842856407, 0.018042439594864845], [-0.0012841591378673911, 0.008529581129550934, 0.0012515331618487835, 0.012036883272230625, -0.028461646288633347, -0.020427215844392776, 0.007761239539831877, -0.003960766829550266, 0.022982461377978325, -0.008314844220876694, 0.0059534888714551926, 0.010090799070894718, 0.01679825410246849, 0.010562942363321781, 0.027699489146471024, 0.007404973730444908, 0.012349506840109825, -0.015368947759270668, 0.01687154360115528, 0.01325316820293665, 0.00822810735553503, -0.007486117538064718, -0.016985414549708366, -0.009763108566403389, -0.005855544004589319, -0.014368572272360325, -0.004465979523956776, 0.002423806581646204, 0.003371322061866522, 0.00047648343024775386, -0.018950652331113815, 0.013250044547021389, -0.0011998924892395735, -0.004885661415755749, 0.00673737283796072, 0.014248274266719818, -0.003806539811193943, -0.006773751229047775, -0.019402069970965385, -0.010601736605167389, 0.02524983324110508, -0.010413073934614658, -0.00953590963035822, -0.03406768664717674, -0.009402032941579819, 0.020542729645967484, -0.01391766406595707, 0.01307886652648449, -0.008924657478928566, -0.012862157076597214, 0.0066955783404409885, -0.015364577993750572, 0.01200224831700325, -0.009283808059990406, 0.009650276042521, 0.002130649285390973, 0.0036081233993172646, -0.0008318147156387568, -0.003527641762048006, 0.014618339948356152, -0.011976130306720734, 0.022431736811995506, 0.009036595933139324, -0.027178999036550522, -0.019862975925207138, 0.023755308240652084, -0.01701156422495842, -0.01441212184727192, -0.003475459758192301, -0.021138017997145653, -0.0195388775318861, -0.008623235858976841, -0.00903498288244009, 0.00322330673225224, -0.01055099256336689, 0.027869107201695442, -0.019045669585466385, -0.014126371592283249, -0.004082975909113884, -0.020145248621702194, 0.02194039151072502, -0.018697464838624, -0.011208065785467625, 0.01181043777614832, -0.010093842633068562, 0.015645863488316536, -0.005695350468158722, 0.01162651926279068, -0.011529471725225449, 0.01667119935154915, -0.013514668680727482, 0.002455253852531314, 0.010655312798917294, -0.004516971297562122, 0.007608518470078707, -0.005548377055674791, -0.00011644988262560219, -0.006222788244485855, 0.025476178154349327, 0.0012158858589828014, -0.00720582390204072, -0.012688098475337029, 0.006319969892501831, 0.005043704528361559, 0.02723836526274681, 0.014327098615467548, 0.003151338081806898, 0.010381572879850864, -0.031101224943995476, -0.014962692745029926, 0.006212765816599131, 0.009986193850636482, -0.001038484973832965, 0.0017043481348082423, -0.0015240450156852603, -0.017938129603862762, -0.013664210215210915, -0.01598442532122135, -0.01600065641105175, -0.005289124324917793, -0.00193939043674618, -0.028437580913305283, 0.020915837958455086, -0.01809602789580822, -0.002646019449457526, 0.022431328892707825, -0.006786525249481201, -0.006006868090480566], [0.005519388243556023, 0.005692744627594948, 0.008311117067933083, 0.01733359694480896, -0.01634695753455162, 0.0023902282118797302, 0.02324613928794861, -0.011737342923879623, 0.023091642186045647, -0.009006626904010773, -0.021668683737516403, 0.004558003041893244, -0.011993920430541039, -0.01650782860815525, 0.01867571286857128, -0.01831093616783619, -0.01238896232098341, 0.009529950097203255, -0.011081426404416561, 0.006726500578224659, 0.0039025635924190283, -0.01443528849631548, -0.013255653902888298, -0.011387876234948635, -0.0016643929993733764, -0.02739386446774006, -0.014484657905995846, 0.019099367782473564, 0.012469875626266003, -0.016028711572289467, -0.009046360850334167, 0.022583354264497757, 0.016107577830553055, 0.012066242285072803, 0.0010203185956925154, 0.025011243298649788, -0.02274712175130844, 0.018189292401075363, -0.01432745810598135, 0.0011201045708730817, 0.007833062671124935, -0.008731033653020859, -0.01374608464539051, -0.007701707538217306, -0.013059141114354134, -0.006259310059249401, -0.023090261965990067, -0.002439867239445448, 0.0063444762490689754, 0.01360068004578352, 0.011573459021747112, -0.025255903601646423, 0.0001583378470968455, 0.0069344667717814445, 0.018318481743335724, 0.01703478768467903, 0.015314679592847824, -0.024769889190793037, 0.02626718394458294, -0.01142870169132948, -0.019038159400224686, 0.0015947808278724551, 0.021397147327661514, 0.0034115524031221867, 0.011235244572162628, -0.009384369477629662, 0.0020712914410978556, -0.025229496881365776, -0.010333173908293247, 0.020121952518820763, -0.016687467694282532, 0.000600419647525996, 0.005333918146789074, -0.012203986756503582, 0.014191819354891777, -0.011912773363292217, 0.01788053661584854, -0.007418240420520306, -0.003996699582785368, -0.02058376744389534, 0.02107320912182331, -0.011364570818841457, 0.000810233352240175, 0.001442694803699851, 0.015746761113405228, 0.010126014240086079, 0.019205916672945023, -0.0014025518903508782, -0.006692040245980024, -0.018082397058606148, 0.01581096090376377, 0.013013485819101334, -0.0180071908980608, -0.018534250557422638, 0.010889792814850807, 0.013832449913024902, 0.01694321073591709, 0.002585181500762701, -0.008938928134739399, -0.009516960009932518, 0.018146809190511703, 0.0027060476131737232, 0.004856237675994635, 0.01740429177880287, 0.005348075181245804, -0.014633904211223125, 0.0031187108252197504, 0.010456054471433163, 0.014532815665006638, -0.0036111739464104176, 0.0030234670266509056, -0.00669361324980855, 0.01599709689617157, -0.007542680017650127, 0.021916978061199188, 0.007918826304376125, 0.015745675191283226, 0.008325038477778435, -0.014294400811195374, -0.015336010605096817, -0.009589803405106068, -0.01167795155197382, 0.009404265321791172, -0.019276481121778488, -0.01238088496029377, -0.006601923145353794, 0.0031418472062796354, 0.01764889433979988], [-0.011014219373464584, -0.016023799777030945, -0.004744919016957283, -0.005581692326813936, 0.0024643545038998127, -0.0035221013240516186, 0.010300046764314175, 0.012139396741986275, -0.005381947848945856, 0.018167711794376373, -0.0010922896908596158, -0.001146148657426238, 0.005091029219329357, 0.024275673553347588, 0.016716526821255684, -0.0032392910216003656, 0.009934595786035061, -0.010365703143179417, 0.015577798709273338, -0.025832347571849823, -0.0028837560676038265, 0.02414931356906891, -0.00208015413954854, -0.015009230934083462, -0.004310170188546181, -0.006293270271271467, -0.021075410768389702, 0.008552111685276031, -0.011119195260107517, -0.020787440240383148, -0.025183910503983498, -0.008806513622403145, -0.020146043971180916, 0.007637768518179655, 0.0001411608827766031, -0.01187833771109581, 0.012251242995262146, -0.000166606274433434, 0.0030821391846984625, 0.018196633085608482, 0.015338174067437649, -0.020944923162460327, -0.005061777774244547, -0.01455461885780096, -0.02424471452832222, -0.01765054650604725, 0.012408701702952385, 0.020285043865442276, -0.013451787643134594, -0.013846222311258316, 0.02652730979025364, -0.013672353699803352, -0.005834994371980429, -0.02057804726064205, 0.023632219061255455, 0.0011472862679511309, 0.010106680914759636, -0.016021382063627243, -0.022682195529341698, -0.021986685693264008, 0.003126036375761032, 0.021665897220373154, -0.014578436501324177, 0.020733261480927467, 0.021071340888738632, -0.00010611649486236274, -0.0033033574000000954, -0.019228532910346985, 0.002074174117296934, 0.020356331020593643, -0.009479164145886898, 0.014912414364516735, -0.0066304076462984085, -0.010164099745452404, -0.009767298586666584, 0.00026952632470056415, -0.006575590465217829, -0.015166345052421093, -0.00567477336153388, 0.020749222487211227, 4.079773498233408e-05, -0.005075628869235516, 0.013548753224313259, 0.0016369882505387068, 0.025892820209264755, 0.0015192590653896332, -0.021839730441570282, 0.005298024043440819, -0.0006562579656019807, 0.023100845515727997, 0.009254428558051586, 0.014776063151657581, -0.0006359528051689267, 0.016352450475096703, 0.017696021124720573, 0.017545608803629875, 0.0003885883488692343, 0.017359474673867226, -0.000288368173642084, 0.001968743745237589, 0.014697383157908916, 0.022332003340125084, -0.009926943108439445, -0.006453862413764, -0.00844316091388464, 0.018509484827518463, 0.0015059153083711863, -0.004381230100989342, -0.002460397081449628, 0.0010358012514188886, -0.004417691845446825, 0.013810452073812485, 0.005683978088200092, 0.004029036965221167, -0.003036781679838896, 0.00800974853336811, -0.007233636453747749, -0.0018378612585365772, 0.006072848103940487, 0.009708169847726822, -0.017370978370308876, -0.007273825816810131, 0.004197509028017521, 0.01846427470445633, 0.022151291370391846, -0.008362306281924248, 0.022343244403600693, -0.010540738701820374], [0.011565333232283592, 0.018466610461473465, 0.002341137733310461, 0.01767488196492195, 0.004398826044052839, -0.01617012359201908, -0.029828470200300217, -0.02601991780102253, -0.013470028527081013, -0.015070860274136066, 0.010105284862220287, -0.023250797763466835, -0.0006496426067315042, 0.006234357599169016, 0.02132565900683403, -0.01393082831054926, 0.007174801081418991, 0.012849980965256691, 0.0029493835754692554, -0.023919079452753067, 0.022202515974640846, -0.017996245995163918, -0.0016592941246926785, 0.018741736188530922, -0.009852971881628036, 0.011988958343863487, -0.016904497519135475, 0.01341947726905346, 0.00668850215151906, 0.017637016251683235, 0.004205317236483097, 0.0040829600766301155, 0.012717756442725658, 0.006395774893462658, -0.009239058941602707, -0.0044953469187021255, 0.008600805886089802, -0.02005181275308132, -0.010385295376181602, 0.021900516003370285, 0.003054677275940776, 0.007243477739393711, 0.0017880115192383528, -0.02043815515935421, -0.016007203608751297, 0.011746515519917011, 0.0012710075825452805, -0.012516635470092297, -0.011628920212388039, 0.006296371575444937, 0.0006216575857251883, 0.0236247219145298, -0.01764834299683571, 0.004089497961103916, 0.01012988481670618, 0.008294813334941864, -0.011018399149179459, -0.013627342879772186, -0.010883004404604435, 0.009038973599672318, 0.00965176708996296, -0.0032365263905376196, -0.0023261902388185263, 0.016919903457164764, -0.010134944692254066, 0.011111271567642689, 0.017611144110560417, -0.012949506752192974, 0.003926688339561224, -0.0012838116381317377, 0.0068424660712480545, 0.0028157082851976156, 0.002243863418698311, 0.014075187034904957, 0.023262636736035347, -0.010972012765705585, 0.02491198666393757, 0.02434402145445347, 0.0008322368375957012, -0.006738258060067892, 0.0053681544959545135, -0.009715779684484005, -0.012795824557542801, 0.004431676585227251, 0.014022907242178917, -0.011208644136786461, -0.01078271958976984, 0.01003968995064497, 0.0030658605974167585, 0.01733115129172802, 0.0021320583764463663, 0.009968726895749569, -0.008042733184993267, 0.020544927567243576, -0.002730162115767598, 0.0005256495205685496, -0.0023063940461724997, 0.010303474962711334, -0.002067129360511899, -0.012970462441444397, -0.010916364379227161, 0.01872076652944088, -0.003016988281160593, -0.0007289235363714397, 0.01509895734488964, -0.012352555058896542, -0.01150493137538433, -0.015430276282131672, -0.0015999756287783384, 0.025266975164413452, -0.0035649598576128483, -0.01268435176461935, -0.010584831237792969, 0.014066638424992561, -0.010516870766878128, -0.01774720475077629, 0.01768430508673191, 0.004058804828673601, 0.0045972648076713085, 0.014166017062962055, -0.02072153612971306, -0.013769426383078098, 0.016156408935785294, 0.0016147156711667776, -0.006726070307195187, 0.011118044145405293, 0.010356158018112183, -0.022378822788596153], [-0.02220981754362583, 0.0037045609205961227, 0.004646166227757931, 0.004301108885556459, 0.01503712497651577, -0.002340683015063405, -0.012747133150696754, 0.022161532193422318, -0.0035060944501310587, -0.009316002950072289, 0.008017657324671745, -0.02137110009789467, 0.01949956826865673, -0.0025239160750061274, 0.018843134865164757, -0.01651768572628498, 0.014069411903619766, -0.023277292028069496, -0.001120806555263698, -0.012141687795519829, 0.0071024647913873196, -0.002471775747835636, 0.0007713036029599607, 0.013262187130749226, 0.0037421886809170246, -0.025365598499774933, -0.025259220972657204, -0.004946201574057341, -0.0004605232097674161, -0.021564673632383347, 0.016302092000842094, -0.004042689222842455, 0.025772476568818092, -0.019518455490469933, 0.012842659838497639, 0.0020836591720581055, 0.014419769868254662, 0.006457124836742878, -0.010581450536847115, 0.02250863052904606, 0.02206290140748024, -0.014631923288106918, 0.0006274143815971911, -0.008444440551102161, 0.010210195556282997, 0.0033679616171866655, -0.028357742354273796, -0.017101308330893517, -0.018539078533649445, -0.005834748037159443, 0.005565645173192024, 0.01658529043197632, -0.0019932263530790806, 0.014524619095027447, -0.0043465858325362206, 0.012192290276288986, -0.028555477038025856, 0.02627198025584221, 0.0005121438880451024, -0.014928772114217281, -0.012954909354448318, -0.012558509595692158, -0.01855163462460041, 0.0008965033921413124, 0.019676942378282547, 0.01438667718321085, -0.005922331009060144, -0.014116653241217136, 0.006092661991715431, 0.017678627744317055, -0.020791424438357353, 0.004922078922390938, 0.01965278945863247, 0.01593059115111828, -0.009931189008057117, 0.021292218938469887, -0.015084565617144108, 0.0037059898022562265, -0.010948020964860916, -0.0033870877232402563, -0.008838915266096592, -0.023588158190250397, -0.018642449751496315, 0.008603648282587528, 0.009581691585481167, -0.008901224471628666, 0.007437868509441614, -0.006516905967146158, 0.008314224891364574, 0.011133391410112381, 0.001717151957564056, 0.013058358803391457, -0.014210963621735573, -0.011472002603113651, 0.003785907058045268, 0.00477278558537364, 0.014578351750969887, 0.00028985406970605254, -0.021482188254594803, -0.008078346960246563, 0.013601776212453842, 0.019816868007183075, 0.005996938329190016, -0.017978809773921967, -0.003551626345142722, -0.005105123855173588, 0.026583701372146606, -0.013051457703113556, 0.02161027491092682, 0.0035736397840082645, 0.0013996667694300413, 0.01792757771909237, -0.024672338739037514, -0.006670408882200718, 0.011571456678211689, 0.011366032063961029, -0.007741859648376703, -0.00934846792370081, -0.008698251098394394, 0.008019226603209972, -0.011303821578621864, 0.0078082154504954815, 0.019727328792214394, 0.010822759009897709, 0.004387086257338524, -0.0035253583919256926, -0.008148212917149067, -0.01776975393295288], [0.020588155835866928, 0.014407430775463581, -0.022574225440621376, 0.01066064927726984, 0.008334544487297535, -0.0006124974461272359, 0.01625131256878376, -0.015546615235507488, 0.005963850300759077, 0.018396753817796707, -0.01922547072172165, -0.0014375520404428244, -0.002455654786899686, 0.005465869326144457, 0.007744935806840658, -0.003954005427658558, 0.001581584452651441, -0.01865524984896183, 0.017872193828225136, 0.0017847827402874827, -0.017835373058915138, -0.022932643070816994, -0.00258426065556705, -0.027652200311422348, 0.020733477547764778, -0.01332387700676918, 0.025575915351510048, 0.02163126692175865, 0.01913759484887123, -0.015918122604489326, -0.02026931755244732, -0.015683816745877266, -0.0077499873004853725, 0.015302917920053005, 0.023029983043670654, 0.017774254083633423, 0.001753677730448544, -0.0023282459005713463, -0.007103598210960627, 0.007664983626455069, 0.016974683851003647, -0.0008256777073256671, -0.013331730850040913, 0.012459825724363327, -0.019482020288705826, -0.0012403170112520456, 0.019168270751833916, 0.011044304817914963, -0.0117028234526515, 0.023853039368987083, 0.017003556713461876, -0.01797034777700901, 0.027976764366030693, -0.01026835199445486, 0.013440554961562157, 0.013822224922478199, 0.0019040884217247367, -0.02440936490893364, 0.028799789026379585, 0.02491866983473301, -0.02433275803923607, 0.006847622338682413, 0.016734737902879715, -0.009464286267757416, -0.009889821521937847, 0.009540879167616367, 0.005766057875007391, 0.016823716461658478, -0.007050379179418087, 0.0022716564126312733, -0.02370092272758484, 0.009927407838404179, -0.01667582429945469, -0.021209264174103737, -0.015438752248883247, 0.008033710531890392, -0.020621774718165398, 0.012375926598906517, 0.0019598007202148438, 0.013723773881793022, -0.013256561011075974, 0.003020260948687792, -0.004553873557597399, -0.012049965560436249, 0.010567487217485905, -0.0022134350147098303, -0.011609257198870182, 0.0014795743627473712, -0.012584012001752853, -0.010740646161139011, -0.009384742937982082, -0.00564211281016469, 0.0024495874531567097, -0.008208825252950191, 0.013265097513794899, 0.0159163661301136, -0.009631014429032803, -0.014026451855897903, 0.010194751434028149, -0.012917394749820232, 0.023344583809375763, 0.0023647546768188477, 0.014784333296120167, 0.008520188741385937, 0.0031935712322592735, -0.01851475238800049, 0.011574625968933105, -0.0016295845853164792, 0.008521239273250103, -0.009120073169469833, -0.00781736895442009, 0.015765082091093063, -0.0075149391777813435, 0.012173889204859734, -0.014588816091418266, 0.015873249620199203, -0.011278437450528145, -0.02216503582894802, 0.006486912723630667, -0.01924646459519863, -0.009506280533969402, -0.006023835390806198, -0.012946595437824726, 0.0013810094678774476, -0.014269167557358742, -0.010117893107235432, -0.023459237068891525, 0.020678553730249405], [-0.02021988108754158, 0.013656143099069595, 0.016185492277145386, 0.0053441207855939865, -0.008916844613850117, 0.011828377842903137, -6.842333823442459e-05, 0.01813962496817112, -0.009724496863782406, 0.01901942305266857, 0.02549678087234497, -0.003375689033418894, 0.02431868016719818, 0.015433162450790405, -0.0036442189011722803, 0.006750654894858599, 0.0017693013651296496, 0.016129588708281517, 0.005141538567841053, -0.006051735952496529, 0.015072831884026527, 0.013750361278653145, -0.0006131137488409877, -0.002518439432606101, -0.01386686135083437, -0.013643670827150345, 0.01719306781888008, 0.011160701513290405, 0.022308191284537315, -0.004614412318915129, -0.014165938831865788, -0.010358779691159725, -0.016397245228290558, -0.01507339347153902, 0.007059610448777676, 0.00186262431088835, -0.020624365657567978, -0.014215386472642422, 0.014563019387423992, -0.022434411570429802, 0.016158200800418854, 0.014646010473370552, 0.019510598853230476, 0.021953929215669632, -0.0021792531479150057, -0.012376650236546993, 0.009514419361948967, 0.015069231390953064, -0.02333073690533638, 0.023732565343379974, -0.009096279740333557, -0.016629088670015335, -0.005059870891273022, -0.017196830362081528, 0.013294621370732784, 0.01764368638396263, -0.004037388600409031, 0.018731841817498207, -0.002348467940464616, 0.004025413654744625, 0.022187402471899986, 0.02099093608558178, 0.012456103228032589, 0.011056453920900822, -0.015378679148852825, 0.02041866071522236, 0.011090454645454884, -0.005450821481645107, 0.004640769213438034, -0.009593992494046688, 0.01832546666264534, -0.0017366878455504775, -0.02041001245379448, 0.010837987996637821, 0.004424188751727343, 0.017800116911530495, -0.014743639156222343, -0.00036278864718042314, -0.019836565479636192, -0.023620370775461197, 0.011396031826734543, -0.005550894420593977, 0.014567522332072258, 0.006651599891483784, 0.011252442374825478, -0.0033992594107985497, 0.0216455589979887, -0.0029339948669075966, -0.0019593252800405025, -0.0008090114570222795, 0.017961539328098297, -0.010102268308401108, -0.0025571356527507305, -0.0031366338953375816, -0.013457570225000381, -0.0029220350552350283, -0.005616553593426943, -0.01471938006579876, -0.017776329070329666, 0.01913256011903286, 0.011499078944325447, 0.018185364082455635, -0.004683118779212236, -0.003352978266775608, 0.004671163856983185, 0.0050126612186431885, 0.01846466027200222, 0.015109272673726082, 0.01950811594724655, 0.011933053843677044, -0.013705153949558735, -0.023708775639533997, 0.009068084880709648, 0.007759754545986652, -0.018505798652768135, 0.010642141103744507, 0.008905543014407158, 0.006961187347769737, -0.004667897243052721, -0.014131723903119564, -0.007737899199128151, -0.021366605535149574, -0.005684386473149061, -0.017824964597821236, -0.011309855617582798, 0.016803482547402382, -0.008337452076375484, 0.025890471413731575], [-0.01824238710105419, 0.010807853192090988, -0.0026782278437167406, -0.010039432905614376, -0.01328352838754654, -0.011450011283159256, 0.01525467075407505, -0.01094924844801426, -0.012165860272943974, -0.0006972484989091754, 0.016270773485302925, 0.003454691031947732, 0.01457338035106659, -0.016195284202694893, -0.009813454002141953, 0.007900119759142399, -0.002662551822140813, 0.006106162443757057, 0.0018367714947089553, 0.015276644378900528, -0.0029319641180336475, 0.012832445092499256, 0.004599319770932198, 0.015414601191878319, 0.009445027448236942, -0.009600234217941761, -0.014639337547123432, -0.006475543137639761, 0.015843072906136513, -0.01564590074121952, 0.016882432624697685, -0.0063246493227779865, 0.005735065322369337, -0.0009877129923552275, 0.011585884727537632, 0.016671771183609962, 0.0186708215624094, 0.0063469139859080315, 0.0010885174851864576, -0.021178387105464935, -0.015954984351992607, 0.0032468412537127733, 0.021480271592736244, -0.0030847559683024883, 0.01178477518260479, -0.0058756074868142605, 0.0019899792969226837, 0.011642401106655598, 0.013553589582443237, 0.0036839961539953947, -0.007294186856597662, -0.0078022475354373455, -0.01278842706233263, -0.023589199408888817, 0.02021544799208641, -0.003953683190047741, 0.0002798475616145879, 0.01656544953584671, 0.003088137600570917, 0.011024661362171173, -0.01810145564377308, 0.017811330035328865, -0.011390378698706627, 0.00107644556555897, -0.004974751267582178, -0.013943939469754696, 0.015012272633612156, -0.009214221499860287, -0.014214970171451569, 0.016453731805086136, 0.018950005993247032, 0.01674077846109867, 0.014962656423449516, 0.009780974127352238, -0.01650109887123108, -9.976896399166435e-05, -0.0023314068093895912, 0.006020159926265478, 0.01665954850614071, 0.021185560151934624, -0.011284657754004002, 0.0029616898391395807, 0.017726393416523933, 0.014102494344115257, -0.001968622673302889, 0.01309041865170002, 0.003771079471334815, -0.01676042377948761, 0.015806812793016434, -0.018180184066295624, 0.022619444876909256, 0.014451369643211365, 0.006432070396840572, -0.01562846079468727, -0.017545286566019058, 0.016631050035357475, -0.005318577867001295, 0.0172987412661314, -0.004268134944140911, 0.01747840642929077, -0.0029957585502415895, -0.016088087111711502, 0.00018724358233157545, 0.001358911395072937, 0.0007382768671959639, 0.018552202731370926, 0.0026703071780502796, -0.007343326695263386, 0.017206665128469467, -0.01805056259036064, 0.01894989237189293, 0.0058937352150678635, -0.014186150394380093, -0.0023550856858491898, 0.0036451658234000206, 0.012879272922873497, 0.015508152544498444, 0.014165411703288555, -0.004319082014262676, 0.018375061452388763, 0.022073907777667046, -0.0034859664738178253, 0.009756040759384632, -0.00044707005145028234, -0.0220844317227602, -0.0036408547312021255, 0.0028880874160677195, -0.0033374493941664696], [-0.016836095601320267, 0.0036798620130866766, 0.005747333634644747, -0.005005472339689732, -0.021113887429237366, -0.003232532413676381, -0.01754608564078808, -0.012875733897089958, -0.00019466776575427502, -0.016131894662976265, 0.014134286902844906, 0.0007889778353273869, 0.0035985473077744246, -0.001712558907456696, -0.022128373384475708, -0.012365318834781647, 0.008536783047020435, 0.01983749493956566, 0.011969495564699173, 0.007944394834339619, 0.002635375363752246, -0.024484936147928238, -0.015811627730727196, -0.016408953815698624, -0.004768128506839275, -0.008870014920830727, 0.0036598644219338894, 0.016925305128097534, 0.0027389342430979013, -0.019099855795502663, -0.0059926072135567665, 0.011639971286058426, -0.02175876870751381, -0.005735894665122032, -0.009001970291137695, 0.014588178135454655, 0.005263673607259989, -0.007956384681165218, -0.007265493273735046, -0.024110008031129837, -0.007315566763281822, 0.007226715795695782, 0.001626317505724728, 0.010583191178739071, -0.005404599942266941, 0.003582138568162918, 0.000911305658519268, 0.005359224043786526, 0.017398009076714516, -0.014624638482928276, 0.00015940482262521982, -0.0180563535541296, 0.014687890186905861, 0.001372384955175221, -0.016429277136921883, -0.0029488150030374527, 0.002495583612471819, 0.0035664397291839123, 0.009272720664739609, 0.009960625320672989, 0.001785876345820725, -0.023865090683102608, 0.025854801759123802, 0.024944406002759933, -0.0017249317606911063, -0.008363823406398296, -0.00878763198852539, -0.0067347753793001175, -0.006685344967991114, 0.013568058609962463, -0.008875749073922634, 0.004666091874241829, -0.0062423027120530605, 0.00804633554071188, -0.024474769830703735, 0.02107250690460205, 0.01762351579964161, 0.01392825972288847, -0.00812253076583147, 0.002762011718004942, 0.014737037941813469, -0.005333275068551302, -0.004510591737926006, 0.006181797944009304, -0.0006061875028535724, 0.011706417426466942, -0.005603335332125425, 0.006825362332165241, -0.012861906550824642, 0.01570679061114788, 0.00020332229905761778, -0.01336163654923439, -0.010248249396681786, -0.020346907898783684, -0.024430887773633003, -0.02485419623553753, 0.008198452182114124, 0.011356662027537823, -0.021389389410614967, -0.005868597887456417, -0.018684322014451027, -0.002688526175916195, 0.009755457751452923, 0.022154591977596283, 0.002617224119603634, -0.013725245371460915, -0.0072243851609528065, 0.02182263508439064, -0.02192269265651703, -0.019736189395189285, 0.0031785175669938326, 0.007198501843959093, 0.021602826192975044, 0.012807863764464855, -0.0016404574271291494, 6.664975808234885e-05, 0.011616306379437447, 2.8394888431648724e-05, -0.010787210427224636, 0.022859036922454834, -0.012895356863737106, -0.00935574434697628, 0.004917856305837631, 0.006585653405636549, -0.002475194400176406, -0.016412828117609024, 0.003724176436662674, -0.014107920229434967], [-0.00253618648275733, -0.03193118795752525, -0.0036423143465071917, 0.0006554807187058032, 0.002822441514581442, 0.0064157163724303246, -0.004357216414064169, 0.008409292437136173, 0.03046226128935814, -0.0160586666315794, 0.016789458692073822, -0.009985428303480148, 0.018055740743875504, -0.0005638763541355729, 0.010996546596288681, -0.01932363584637642, -0.023614026606082916, 0.007101577240973711, -0.014160554856061935, -0.00971423089504242, -0.008874427527189255, 0.0024712320882827044, -0.006500696763396263, -0.017937064170837402, 0.012006695382297039, -0.01771310716867447, -0.015821341425180435, -0.018247535452246666, 0.030500132590532303, -0.014377419836819172, 0.019441789016127586, -0.005141114350408316, -0.021621055901050568, 0.0053860186599195, 0.0012149226386100054, 0.007027836050838232, 0.014999187551438808, 0.01607716828584671, 0.01929420977830887, -5.1678336603799835e-05, -0.0031444646883755922, 0.005398290231823921, 0.016125164926052094, 0.0185717660933733, 0.02457478828728199, 0.011549919843673706, -0.002518064109608531, -0.024595966562628746, -0.015653114765882492, 0.01949124038219452, 0.0033718636259436607, -0.023942939937114716, -0.02190619893372059, 0.023513788357377052, 0.007406379096210003, 0.003678265493363142, -0.011455317959189415, -0.016405193135142326, 0.02067962847650051, -0.00010842962365131825, 0.0026453803293406963, -0.0211792029440403, 0.005457425024360418, -0.009841506369411945, 0.026303578168153763, 0.00025683300918899477, 0.012870710343122482, -0.018468545749783516, 0.02165312133729458, -0.009601384401321411, 0.013233968988060951, 0.013465738855302334, -0.012982441112399101, 0.0049072615802288055, -0.018953470513224602, 0.0076538207940757275, 0.005857238080352545, 0.011316129006445408, 0.010942289605736732, -0.007756258826702833, 0.0015437635593116283, -0.0056564961560070515, -0.02136453054845333, -0.001148969866335392, 0.019490404054522514, -0.014003489166498184, 0.03044458106160164, -0.02285054698586464, -0.0017217524582520127, -0.017956623807549477, -0.009890259243547916, -0.02581099048256874, 0.025188222527503967, 0.02010517194867134, -0.019861215725541115, -0.010800582356750965, 0.011135750450193882, 0.018800150603055954, -0.002784162759780884, 0.02063015103340149, 0.005614813882857561, 0.021024079993367195, -0.01677546091377735, -0.007984601892530918, -0.0034757975954562426, 0.003601216711103916, -0.018442964181303978, 0.014456096105277538, -0.005154891405254602, 0.011299175210297108, -0.015187603421509266, 0.003035648027434945, 0.02432166039943695, -0.017247198149561882, 0.009562626481056213, -0.0006311525357887149, -0.016467884182929993, 0.01129471231251955, 0.013101674616336823, -0.01694287359714508, -0.0024806316941976547, 0.017424963414669037, 0.01974116452038288, 0.004563395399600267, -0.0243955347687006, -0.004332545213401318, 0.010225160978734493, 0.020123008638620377], [-0.018111329525709152, -0.012121130712330341, 0.009210668504238129, -0.01943810097873211, -0.020023265853524208, -0.006188204046338797, 0.016004258766770363, 0.006681455299258232, -0.0012554613640531898, 0.001463501830585301, -0.0012537731090560555, 0.002290240256115794, 0.007999452762305737, -0.012735731899738312, 0.016645081341266632, 0.006046690512448549, -0.01070007961243391, 0.001971833873540163, -0.013448982499539852, 0.00959843210875988, 0.025272008031606674, -0.008876127190887928, -0.024540511891245842, -0.013757964596152306, 0.0044164229184389114, 0.00834877323359251, 0.015394819900393486, 0.009941701777279377, 0.014292951673269272, 0.009238297119736671, -0.013247018679976463, 0.012653307989239693, 0.021665802225470543, 0.008022054098546505, 0.0006891337689012289, -0.010105028748512268, -0.0033894625958055258, -0.011817497201263905, 0.0021408931352198124, -0.01303947065025568, 0.015373962931334972, -0.0005610448424704373, -0.008493253961205482, -0.013985521160066128, -0.017336493358016014, 0.015161119401454926, 0.011292402632534504, 0.003412541002035141, -0.01571524143218994, 0.005726533476263285, -0.01429037470370531, 0.013710075058043003, -0.00844019278883934, -0.03014903888106346, -0.011851629242300987, 0.013631957583129406, -0.026884103193879128, -0.005742134992033243, -0.022103488445281982, 0.013637621887028217, 0.0019275564700365067, 0.0140297906473279, -0.006376227829605341, 0.0031059773173183203, -0.0011381115764379501, 0.0024411899503320456, 7.69848411437124e-05, -0.002234793035313487, 0.0076993010006845, -0.01673325151205063, -0.021098993718624115, 0.020787786692380905, 0.00292652053758502, -0.0014341841451823711, -0.011197896674275398, 0.015388295985758305, -0.0010978392092511058, 0.002951950067654252, -0.01531817764043808, -0.011813901364803314, -0.0060376496985554695, 0.00558139244094491, -0.0072195506654679775, 0.014759216457605362, 0.0017769035184755921, -0.014617481268942356, -0.021018149331212044, 0.0023089812602847815, -0.005333777982741594, 0.020699096843600273, 0.016302309930324554, -0.008308446034789085, -0.016331307590007782, -0.008206518366932869, -0.014611059799790382, -0.010281451977789402, -0.010830429382622242, 0.010077336803078651, -0.00024222821230068803, -0.009607450105249882, -0.006781304720789194, -0.016836976632475853, -0.0017303829081356525, -0.0138835608959198, -0.008381237275898457, -0.010746467858552933, -0.005097144283354282, -0.01977759785950184, 0.01093367114663124, 0.019358618184924126, 0.017721885815262794, 0.009611067362129688, -0.014832472428679466, 0.003083321265876293, -0.022821208462119102, 0.0043657515197992325, 0.019865455105900764, -0.00813323725014925, 0.017349690198898315, 0.012981785461306572, -0.005184714682400227, -0.00461496040225029, 0.023799438029527664, 0.01900441013276577, 0.016919909045100212, 0.01725856401026249, -0.00032311544055119157, -0.0078119379468262196], [-0.014051008969545364, -0.0009665713296271861, -0.03199844807386398, 0.004920980893075466, 0.006403475534170866, -0.02704564481973648, -0.0004086820699740201, -0.004028725437819958, -0.002592893550172448, 0.00017655019473750144, -0.014442295767366886, -0.014367617666721344, -0.018893592059612274, -0.017359532415866852, -0.010400814935564995, -0.002847139025107026, -0.017684321850538254, -0.00020830660650972277, -0.018693657591938972, 0.0033198916353285313, 0.011356206610798836, -0.012921824119985104, 0.003230143804103136, -0.0011917926603928208, -0.025261536240577698, 0.006428534630686045, 0.020030802115797997, -0.01265050657093525, -0.0044930861331522465, 0.0242143627256155, 0.02447417750954628, -0.008480820804834366, -0.008684220723807812, 0.003602590411901474, -0.006974592339247465, 0.00712587172165513, -0.02097221277654171, 0.002342936350032687, -0.011417715810239315, 0.0034021595492959023, -0.0087458910420537, 0.02264263667166233, 0.010872339829802513, 0.02937203273177147, 0.026097606867551804, 0.009707922115921974, 0.011165332049131393, 0.012216444127261639, 0.012555798515677452, 0.013487537391483784, -0.005031710024923086, -0.0035528463777154684, 0.005715684499591589, -0.013030527159571648, -0.016561638563871384, -0.013216720893979073, 0.005040906369686127, 0.006147031672298908, 0.00554716307669878, 0.01703188195824623, 0.012029818259179592, 0.004592483397573233, -0.00888526439666748, 0.0024338820949196815, -0.02455155737698078, 0.0022003808990120888, -0.03154337406158447, 0.005348768550902605, -0.027634616941213608, -0.006988510489463806, 0.0031461690086871386, 0.001975760329514742, 0.001029939390718937, -0.009104423224925995, 0.0022863929625600576, -0.005216242745518684, -0.011499586515128613, 0.00864481646567583, 0.011162964627146721, -0.016043340787291527, -0.012099173851311207, -0.017558628693223, 0.0029758429154753685, -0.011560828424990177, -0.023365071043372154, -0.02003336325287819, -0.01734652929008007, 0.016120638698339462, 0.015507901087403297, -0.009019947610795498, 0.006486356724053621, 0.015044805593788624, 0.005953871179372072, 0.004737294744700193, -0.013346396386623383, 0.011548900045454502, -0.0236886627972126, -0.017576606944203377, 0.02380635403096676, -0.014060178771615028, -0.010490821674466133, 0.02312406338751316, -0.009986278600990772, 0.013180563226342201, -0.010273437015712261, 0.001570286462083459, 0.004478747025132179, -0.01799405738711357, -0.003340677823871374, 0.001044758828356862, 0.012428936548531055, -0.015964437276124954, 