[{"weight": [[0.2846105694770813, 0.2152356505393982], [-0.1250229924917221, 0.19538940489292145], [0.24686011672019958, 0.4971226751804352], [-0.4746682643890381, -0.13126961886882782], [0.42640256881713867, 0.11096983402967453], [-0.36564379930496216, 0.1872829794883728], [0.4301972985267639, 0.24867331981658936], [0.048280324786901474, -0.09580892324447632], [0.3900015652179718, 0.32837003469467163], [0.21900230646133423, -0.005464187357574701], [0.3160150349140167, 0.08806200325489044], [-0.05800125375390053, -0.27858299016952515], [-0.14541970193386078, 0.03389379754662514], [-0.2507661283016205, -0.491967111825943], [0.12210351973772049, -0.3028828501701355], [0.15845462679862976, 0.4432254135608673], [0.22962938249111176, 0.44666725397109985], [-0.4597763419151306, 0.2559816539287567], [0.08042304217815399, -0.31879064440727234], [0.04097378998994827, 0.04149705171585083], [-0.484822541475296, 0.006355192977935076], [-0.3959079682826996, 0.425875186920166], [-0.4900232255458832, 0.47950485348701477], [0.1742824763059616, -0.4716271162033081], [-0.33845511078834534, 0.10371638834476471], [-0.20020635426044464, -0.28349238634109497], [-0.2936376631259918, 0.17308172583580017], [0.43793660402297974, 0.3295409679412842], [-0.2049281746149063, -0.06080074608325958], [-0.016142070293426514, -0.16807720065116882], [-0.25844961404800415, 0.48196306824684143], [-0.42473238706588745, 0.071689672768116], [0.4090656042098999, -0.21188858151435852], [0.19832152128219604, -0.1497410535812378], [0.37059304118156433, 0.21895164251327515], [-0.1662638932466507, -0.26838722825050354], [-0.0530906617641449, -0.006484359968453646], [-0.5206760764122009, 0.00442630797624588], [0.46486011147499084, -0.029734322801232338], [-0.017049729824066162, -0.2153245210647583], [0.29640325903892517, -0.34084340929985046], [0.09784218668937683, -0.22750957310199738], [0.07126467674970627, 0.3777904510498047], [-0.2976287007331848, 0.43036529421806335], [0.4013853371143341, 0.05221023038029671], [0.23866580426692963, -0.015174196101725101], [-0.09908878803253174, -0.09755407273769379], [0.035847071558237076, -0.07844825088977814], [0.3602817952632904, 0.004825646057724953], [0.229115292429924, 0.2900666892528534], [0.4982909858226776, -0.3620375394821167], [0.2171986699104309, 0.21018844842910767], [-0.17148293554782867, 0.23156392574310303], [-0.1471177339553833, -0.32982391119003296], [-0.03715534508228302, -0.3470853269100189], [-0.1308484822511673, 0.5058150887489319], [-0.2877994179725647, -0.31486034393310547], [0.3344423174858093, 0.2969770133495331], [0.07462351769208908, 0.1602804809808731], [-0.31011658906936646, 0.05009947717189789], [-0.07613169401884079, 0.4257880747318268], [-0.3467928171157837, 0.49131014943122864], [-0.24906186759471893, -0.46039727330207825], [0.34326621890068054, 0.07458078116178513]], "bias": [0.4081777334213257, 0.38463079929351807, -0.2576431334018707, 0.4233440160751343, 0.3824586272239685, -0.3437514305114746, 0.6657604575157166, 0.31200313568115234, -0.33492207527160645, -0.002172210020944476, -0.15610209107398987, 0.042226843535900116, -0.3017337918281555, -0.4182855486869812, 0.4278748333454132, 0.5672067403793335, -0.6820814609527588, -0.5196923613548279, 0.2818678915500641, -0.38334280252456665, -0.005678581073880196, -0.6161391139030457, 0.2794501483440399, 0.40787556767463684, -0.4496096670627594, 0.6961055397987366, -0.013269433751702309, -0.595664918422699, 0.5065154433250427, -0.44008907675743103, 0.4069519639015198, 0.3172353208065033, 0.20652319490909576, 0.7017583847045898, 0.30527424812316895, 0.43899235129356384, 0.31649425625801086, -0.278388112783432, 0.6887079477310181, -0.42245692014694214, -0.3207302391529083, 0.1493510901927948, -0.1768060028553009, 0.5463823676109314, -0.6540907025337219, -0.368525892496109, 0.32342779636383057, 0.3143060505390167, 0.5222204327583313, 0.30370083451271057, -0.364700049161911, 0.4982415437698364, 0.25909921526908875, 0.5898740887641907, -0.0021494340617209673, 0.30632510781288147, -0.40757128596305847, -0.390506774187088, 0.6447028517723083, -0.3183676302433014, 0.27247869968414307, 0.48524290323257446, 0.4343845546245575, -0.3797827363014221]}, {"weight": [[-0.10198676586151123, 0.33197739720344543, -0.13034291565418243, 0.1298753023147583, -0.04494207352399826, -0.2729426324367523, -0.2225753217935562, 0.12135622650384903, 0.37018799781799316, -0.11588595062494278, -0.18483030796051025, 0.27329668402671814, 0.2241010218858719, 0.28696340322494507, 0.013292849995195866, -0.08965140581130981, -0.2740961015224457, -0.06189305707812309, 0.21376563608646393, 0.05778036266565323, -0.14482718706130981, -0.25625503063201904, -0.2500631809234619, 0.21529534459114075, 0.04365335777401924, 0.18902160227298737, -0.11560104042291641, 0.2638516426086426, -0.09607335925102234, -0.09823832660913467, 0.3612020015716553, -0.13839973509311676, 0.05584757402539253, -0.07678351551294327, -0.17929649353027344, 0.059409257024526596, -0.17705154418945312, 0.15297947824001312, 0.08374853432178497, -0.05206283926963806, 0.24712412059307098, 0.16711685061454773, -0.29362985491752625, -0.10344186425209045, 0.09264533221721649, -0.09624205529689789, 0.13321448862552643, 0.011399397626519203, -0.1295986920595169, -0.11505201458930969, 0.0772666409611702, -0.1536601483821869, -0.07887258380651474, 0.16329097747802734, -0.3071972727775574, 0.15658970177173615, -0.06270302832126617, -0.03475463017821312, 0.322969913482666, 0.11950420588254929, -0.08818818628787994, 0.4419396221637726, 0.08555470407009125, -0.051180291920900345], [-0.05107354372739792, -0.29769423604011536, -0.3685092329978943, -0.0008801009971648455, -0.2524113953113556, -0.046321574598550797, -0.3134985864162445, -0.18269549310207367, -0.19495277106761932, 0.18673212826251984, -0.32216697931289673, 0.07931490987539291, -0.3841851055622101, 0.1275521069765091, 0.14302349090576172, 0.06096623092889786, 0.01752869039773941, 0.05980807542800903, -0.18793299794197083, 0.02895619533956051, -0.04784718155860901, 0.14676183462142944, 0.12352875620126724, -0.24809932708740234, -0.12796010076999664, 0.061274200677871704, -0.29487019777297974, -0.2480756938457489, -0.24390876293182373, 0.08256334066390991, 0.018333135172724724, -0.1590985655784607, 0.2638859748840332, -0.18451334536075592, 0.17148925364017487, -0.4464873671531677, -0.024152847006917, -0.0897531732916832, 0.3010833263397217, -0.23330187797546387, 0.23762264847755432, -0.13210290670394897, -0.2677965462207794, -0.22303850948810577, -0.07319878786802292, -0.1611514836549759, 0.0917954370379448, 0.192445769906044, 0.050018150359392166, 0.42973101139068604, -0.35150593519210815, 0.34601518511772156, -0.3067935109138489, -0.3171037435531616, -0.06109084561467171, -0.07835415750741959, 0.1461067795753479, 0.11804259568452835, -0.009290403686463833, -0.04223710671067238, -0.13447774946689606, -0.09483009576797485, -0.3690129220485687, -0.08255324512720108], [-0.2509355843067169, 0.11562566459178925, -0.221010223031044, 0.05188249424099922, 0.021010974422097206, 0.19956353306770325, -0.02746783196926117, 0.008573907427489758, -0.28243303298950195, -0.15223687887191772, 0.2827290892601013, -0.33657869696617126, 0.24222742021083832, 0.2573123574256897, 0.23551808297634125, -0.28604206442832947, -0.3691759705543518, -0.23963911831378937, 0.1756340116262436, -0.25129127502441406, 0.1446152776479721, -0.008427437394857407, -0.2981513738632202, 0.329454243183136, -0.20164534449577332, -0.06527071446180344, -0.2686053514480591, -0.13176706433296204, 0.17070035636425018, -0.26891183853149414, -0.16638585925102234, 0.07523155957460403, -0.21459998190402985, -0.27515217661857605, 0.014158004894852638, 0.17776605486869812, -0.3246998190879822, 0.11090901494026184, -0.2589173913002014, -0.13867267966270447, 0.28965476155281067, -0.36920320987701416, 0.20263585448265076, 0.12199066579341888, -0.10769627243280411, -0.07132427394390106, -0.2376856505870819, 0.04161019250750542, 0.21687869727611542, -0.2476292848587036, 0.2183624655008316, -0.27129101753234863, -0.05190142244100571, -0.07648415863513947, 0.1671447902917862, -0.06727385520935059, -0.03274517133831978, -0.07646038383245468, -0.010771545581519604, -0.14882154762744904, 0.0414137989282608, -0.15872132778167725, -0.058535385876894, 0.2992289960384369], [-0.10977256298065186, -0.0029746806249022484, -0.055748842656612396, 0.05815814435482025, -0.08984728157520294, 0.13970381021499634, -0.3385365903377533, 0.037812285125255585, -0.0009823456639423966, 0.19437623023986816, -0.19260084629058838, -0.28527024388313293, 0.07435261458158493, 0.17021693289279938, -0.3268343210220337, -0.2583872377872467, -0.23331235349178314, -0.1727897822856903, 0.015537913888692856, -0.3232576251029968, 0.3621128797531128, -0.07791546732187271, 0.039650216698646545, 0.06356165558099747, 0.042096998542547226, -0.18838876485824585, -0.06273533403873444, 0.3763064444065094, -0.16067971289157867, 0.03794877603650093, 0.08633644133806229, -0.11431217938661575, -0.12151943892240524, -0.18711638450622559, -0.16097241640090942, 0.4107106029987335, -0.32630130648612976, -0.32255539298057556, 0.09976264089345932, -0.14100715517997742, 0.20761272311210632, 0.19344429671764374, -0.10626403242349625, 0.21886804699897766, 0.28315484523773193, -0.25761011242866516, 0.1462171971797943, 0.17569459974765778, 0.04039599373936653, 0.015810798853635788, -0.1270298957824707, -0.17778483033180237, -0.18260419368743896, -0.029400911182165146, -0.15359731018543243, 3.030393236258533e-05, -0.0009345699800178409, -0.1476946920156479, -0.17481829226016998, -0.2541692852973938, -0.05691151320934296, -0.2768852710723877, 0.26527640223503113, -0.013160516507923603], [-0.041872430592775345, 0.12692572176456451, 0.060174841433763504, -0.0733514130115509, 0.23279283940792084, 0.3056618273258209, 0.35932549834251404, 0.2962821424007416, -0.05154525488615036, -0.09293711930513382, 0.06547857075929642, -0.15833315253257751, 0.12289326637983322, -0.3275832235813141, -0.0993315652012825, -0.17215102910995483, 0.29010331630706787, 0.10905780643224716, -0.28206661343574524, -0.06884868443012238, -0.12903819978237152, -0.20382055640220642, -0.08156218379735947, -0.13130870461463928, 0.22146841883659363, 0.12510541081428528, -0.2138589769601822, -0.12048620730638504, 0.13764332234859467, -0.2776089310646057, 0.17844615876674652, 0.0939675122499466, 0.048114113509655, 0.32491037249565125, -0.24044767022132874, 0.4184102714061737, -0.16053839027881622, -0.08892932534217834, 0.17981256544589996, -0.28965237736701965, -0.2951074242591858, 0.31718945503234863, -0.0648694559931755, -0.22017382085323334, 0.28178441524505615, -0.2097814679145813, -0.1556021273136139, -0.15165360271930695, -0.13129258155822754, -0.05194433033466339, -0.2114686518907547, 0.04834897443652153, 0.2924763262271881, 0.2652357220649719, -0.01635364443063736, -0.08911867439746857, -0.3554050326347351, 0.013714798726141453, 0.27336186170578003, -0.04287489131093025, 0.3360305726528168, 0.11108896881341934, -0.11961036920547485, 0.13577139377593994], [0.308024525642395, -0.25593340396881104, -0.018971504643559456, -0.24860168993473053, 0.13246925175189972, -0.09319545328617096, -0.14287292957305908, 0.22404621541500092, 0.36922594904899597, 0.15050671994686127, -0.20650604367256165, -0.19893620908260345, -0.18545502424240112, 0.13370436429977417, 0.146250382065773, -0.06310808658599854, -0.08953318744897842, -0.22128160297870636, -0.11379393935203552, -0.2002464383840561, -0.10165435075759888, -0.0816081091761589, -0.2364904135465622, -0.114316426217556, -0.06793355941772461, -0.21622993052005768, 0.25857847929000854, 0.10041041672229767, -0.17690490186214447, -0.11094172298908234, 0.2104036659002304, 0.1035485714673996, 0.3333219587802887, 0.32667839527130127, 0.0859706774353981, 0.029928069561719894, -0.15685723721981049, 0.07760534435510635, -0.10342675447463989, 0.031622957438230515, 0.31993556022644043, -0.16948330402374268, 0.1786937564611435, 0.28747203946113586, -0.027681229636073112, 0.22626008093357086, -0.024066243320703506, 0.3319089114665985, 0.1972699612379074, -0.19323939085006714, 0.297076553106308, -0.2490643709897995, 0.1918802410364151, 0.1037353128194809, 0.0476200170814991, 0.09870116412639618, 0.19079501926898956, 0.1455676555633545, -0.26992306113243103, -0.17489317059516907, -0.026704685762524605, -0.31342992186546326, -0.19332364201545715, -0.014347037300467491], [0.0341636948287487, -0.31727051734924316, 0.29341650009155273, -0.07222413271665573, 0.0427134707570076, -0.3398802876472473, -0.23319919407367706, 0.04109467938542366, -0.34399381279945374, 0.2225220650434494, 0.23395086824893951, -0.24167200922966003, 0.2493264228105545, 0.08538216352462769, -0.023806476965546608, 0.05107762664556503, 0.04334476590156555, 0.22014181315898895, -0.11154968291521072, 0.2171112447977066, 0.18166382610797882, 0.13012969493865967, 0.19444197416305542, 0.15738381445407867, 0.07551103085279465, -0.26414844393730164, 0.1067890152335167, 0.2579171359539032, 0.2766246497631073, 0.08348398655653, 0.1720447838306427, 0.015919318422675133, -0.14148294925689697, 0.29666438698768616, 0.260357528924942, 0.07152162492275238, 0.10879752784967422, 0.1395561248064041, -0.08150362968444824, -0.33697912096977234, -0.26639053225517273, -0.17501017451286316, 0.28848883509635925, -0.23882950842380524, 0.18383336067199707, -0.23065972328186035, 0.09491274505853653, -0.20346815884113312, -0.07280722260475159, -0.30800050497055054, 0.20271757245063782, 0.16874675452709198, -0.3200315237045288, -0.19306686520576477, -0.05580148473381996, -0.01661045290529728, -0.19407948851585388, -0.19465278089046478, -0.3107970356941223, 0.3334712088108063, 0.29422953724861145, 0.37822481989860535, -0.047857385128736496, 0.3184640407562256], [0.16628535091876984, -0.3638538420200348, -0.07296834886074066, 0.3786451518535614, 0.07937401533126831, 0.1006939485669136, -0.19311992824077606, 0.07021207362413406, 0.2730187177658081, 0.37111154198646545, 0.10683729499578476, -0.2007509469985962, 0.10003605484962463, -0.15024635195732117, -0.2235235720872879, -0.032121263444423676, -0.16675429046154022, -0.16826464235782623, -0.23703224956989288, 0.09113019704818726, -0.23933856189250946, -0.2850060760974884, 0.10432698577642441, -0.11159158498048782, -0.2889142632484436, -0.1351848542690277, -0.14833565056324005, 0.0891067385673523, 0.2818809747695923, 0.16205812990665436, 0.22473560273647308, 0.2821517288684845, 0.06596332788467407, -0.008388054557144642, -0.120255246758461, 0.20850242674350739, 0.20251168310642242, 0.03181811422109604, 0.36795955896377563, 0.11234965175390244, -0.17067667841911316, -0.18108008801937103, -0.25570225715637207, -0.3682152032852173, -0.26238158345222473, -0.09764593094587326, 0.17180585861206055, -0.19188722968101501, -0.21622739732265472, 0.1572975069284439, 0.033295888453722, -0.23369908332824707, 0.13462074100971222, -0.20356333255767822, 0.17335927486419678, -0.2548282742500305, 0.18380527198314667, 0.08137859404087067, 0.14565595984458923, -0.15650568902492523, 0.17779949307441711, 0.04525609314441681, 0.18054743111133575, 0.19771188497543335], [0.15206556022167206, -0.06049482896924019, -0.36597931385040283, 0.08841049671173096, -0.2247934192419052, 0.03252309933304787, 0.036971427500247955, -0.24132469296455383, -0.11152330040931702, 0.05622050166130066, 0.04407989978790283, -0.11252828687429428, -0.22912617027759552, -0.22551628947257996, -0.10341764241456985, 0.08173386007547379, 0.1469312310218811, -0.20007427036762238, 0.0901142880320549, 0.11721067130565643, -0.018245480954647064, 0.044353049248456955, 0.2787442207336426, 0.349597692489624, 0.08127305656671524, -0.2514224648475647, 0.22362880408763885, 0.1022658571600914, -0.019788527861237526, 0.26707106828689575, 0.1968483179807663, -0.07806374877691269, -0.0745098814368248, 0.07602953910827637, -0.21220725774765015, 0.1947057545185089, -0.09430580586194992, 0.03947999328374863, 0.29755404591560364, 0.21135357022285461, -0.16226604580879211, 0.2445266991853714, -0.1888880431652069, -0.25829067826271057, 0.2548026740550995, 0.08482158929109573, -0.24546721577644348, 0.11545775830745697, 0.046406567096710205, 0.0528520792722702, 0.07805018872022629, -0.012686719186604023, -0.2588493227958679, -0.08545824140310287, 0.09577100723981857, -0.16726888716220856, 0.2943546772003174, -0.23288269340991974, -0.25841981172561646, -0.25880300998687744, 0.14885003864765167, -0.04206974804401398, -0.22629185020923615, 0.30889853835105896], [-0.060997944325208664, 0.34235090017318726, 0.2944704592227936, -0.3726944327354431, 0.2023972123861313, -0.007655446417629719, -0.43952038884162903, 0.1285342574119568, -0.03255302086472511, 0.4135948121547699, 0.2679615616798401, -0.21811823546886444, 0.23855386674404144, 0.2554074823856354, -0.25092613697052, -0.20174069702625275, 0.14691613614559174, 0.02452150173485279, 0.0009580705082044005, -0.20070572197437286, 0.4381868541240692, -0.20807480812072754, -0.2507033348083496, 0.19693350791931152, 0.04684774577617645, -0.1225515753030777, 0.1374480128288269, 0.08763258159160614, 0.09068048000335693, 0.10161826759576797, 0.2504439949989319, -0.34719571471214294, -0.14599984884262085, -0.21861009299755096, -0.0633319616317749, -0.11481325328350067, 0.2514141798019409, 0.13552851974964142, 0.005882273428142071, -0.10955799371004105, 0.13173718750476837, 0.25545451045036316, -0.05234207957983017, 0.16800394654273987, -0.06901587545871735, -0.18314673006534576, -0.07687443494796753, -0.22275054454803467, 0.11796103417873383, -0.1310359686613083, -0.2446148842573166, -0.3137686848640442, -0.24209760129451752, 0.20292483270168304, 0.08482854813337326, 0.1578100621700287, -0.05880901217460632, -0.45878866314888, 0.14251336455345154, 0.10759857296943665, -0.2526710629463196, 0.15073631703853607, 0.13539578020572662, -0.09227532893419266], [-0.05125947669148445, -0.1489269733428955, -0.41525498032569885, 0.022499386221170425, 0.1294599175453186, 0.05887994170188904, 0.09039213508367538, -0.42119261622428894, 0.19310589134693146, 0.13595570623874664, -0.19146890938282013, -0.15619273483753204, 0.12361080199480057, -0.39236658811569214, -0.034352682530879974, -0.2732323408126831, -0.14474670588970184, 0.22150962054729462, 0.009767438285052776, 0.1863996535539627, 0.17927969992160797, -0.0732993558049202, 0.15612325072288513, 0.37217390537261963, 0.17911693453788757, 0.04647325724363327, -0.23706722259521484, 0.15519239008426666, -0.04218420386314392, 0.2984655797481537, 0.4437929391860962, 0.144407257437706, 0.10239441692829132, 0.048692647367715836, 0.17535124719142914, 0.28112614154815674, -0.16563156247138977, -0.20247429609298706, 0.13494136929512024, -0.16235847771167755, -0.13710887730121613, -0.15581673383712769, 0.32717153429985046, 0.18484388291835785, -0.1437903791666031, -0.11707614362239838, -0.194978266954422, 0.09171637147665024, 0.0021998502779752016, 0.1587425321340561, -0.1469809114933014, 0.2243683785200119, -0.25281932950019836, 0.4186544120311737, -0.01827581413090229, -0.3051721751689911, 0.2294507920742035, 0.16848374903202057, 0.20311638712882996, 0.13346615433692932, 0.230376735329628, 0.238182932138443, -0.41953539848327637, -0.09998492151498795], [-0.26556989550590515, -0.11353249102830887, -0.3089592158794403, 0.15252138674259186, -0.0851617231965065, -0.3547297418117523, -0.05356395244598389, -0.3153228163719177, -0.1614028960466385, -0.014417910948395729, -0.04497974365949631, 0.0841275155544281, -0.02033611759543419, 0.1214129626750946, 0.44429799914360046, -0.022551923990249634, -0.04285042732954025, -0.0877947136759758, -0.13154464960098267, -0.1480015516281128, -0.030109131708741188, 0.33966246247291565, 0.037820491939783096, 0.17872749269008636, -0.21976707875728607, -0.34315502643585205, -0.10371003299951553, -0.13649991154670715, 0.2796753942966461, 0.18947568535804749, 0.12424289435148239, 0.060493361204862595, -0.26302334666252136, 0.325076162815094, 0.02760586142539978, 0.05505009740591049, 0.2150302678346634, -0.2503553032875061, 0.03401250019669533, -0.21534299850463867, 0.05633225664496422, 0.17928415536880493, 0.19017396867275238, -0.2547883689403534, -0.013877506367862225, -0.23081257939338684, 0.05281519144773483, -0.3763638734817505, -0.11305456608533859, 0.01968977227807045, 0.17540320754051208, -0.0397326685488224, 0.1678989827632904, -0.20678211748600006, 0.13241270184516907, 0.2817882299423218, 0.05007965490221977, -0.19165246188640594, 0.02721482887864113, -0.052688512951135635, -0.09215289354324341, 0.2474190890789032, 0.2627275586128235, 0.12772557139396667], [-0.005485475063323975, 0.1654633730649948, -0.15701889991760254, -0.1172141507267952, 0.046919457614421844, -0.022100428119301796, -0.024159828200936317, 0.14676165580749512, 0.045148469507694244, 0.23142988979816437, 0.13487796485424042, -0.25806769728660583, 0.05414968729019165, -0.3096286356449127, 0.10023743659257889, -0.2849492132663727, -0.17361733317375183, 0.04954678192734718, 0.013270664028823376, -0.04436051845550537, -0.11102604866027832, -0.10118505358695984, 0.0464523509144783, -0.19799938797950745, -0.09291137009859085, -0.062093913555145264, -0.15496963262557983, -0.11788558959960938, -0.004177310038357973, 0.22338466346263885, -0.008889599703252316, -0.22909878194332123, 0.14119002223014832, -0.26229211688041687, -0.09349773079156876, 0.05936327204108238, -0.15497705340385437, -0.16530683636665344, -0.3120744824409485, -0.19798240065574646, 0.283286452293396, 0.42557936906814575, 0.44966796040534973, 0.11517640203237534, -0.0997089296579361, -0.22508108615875244, -0.30623379349708557, -0.11164262890815735, 0.16204296052455902, -0.07012736797332764, -0.06367149204015732, 0.10136482119560242, -0.18838286399841309, 0.22549746930599213, -0.11735278367996216, -0.14539378881454468, 0.2130604088306427, -0.206325963139534, 0.23238880932331085, -0.004720949102193117, 0.14176613092422485, 0.051222626119852066, -0.022413671016693115, -0.11614029854536057], [0.08137814700603485, -0.10377185046672821, -0.14602212607860565, -0.1462564319372177, 0.3478892743587494, -0.03636585921049118, -0.214360773563385, -0.1171848252415657, 0.2612479031085968, 0.1550942361354828, 0.2185959815979004, -0.06104033812880516, 0.011828151531517506, 0.3576224446296692, -0.17243611812591553, 0.02007194049656391, 0.004072077106684446, -0.24583125114440918, -0.30152666568756104, 0.240986168384552, 0.16997931897640228, 0.16922523081302643, 0.17985989153385162, 0.16196990013122559, 0.10506750643253326, -0.33181124925613403, -0.15021124482154846, 0.2787468731403351, 0.3488837480545044, -0.03952376917004585, 0.2072950154542923, 0.07277560979127884, 0.35171133279800415, 0.19651588797569275, 0.0999557301402092, 0.2358895093202591, 0.17237503826618195, -0.24893300235271454, -0.04128104820847511, 0.1988765001296997, -0.35813313722610474, -0.0527249276638031, 0.0692952498793602, -0.23259997367858887, 0.15595874190330505, -0.24196867644786835, 0.18586048483848572, 0.17253395915031433, -0.06512925028800964, 0.06791544705629349, -0.07871823012828827, -0.25158998370170593, 0.08295731246471405, -0.04717313498258591, -0.15507055819034576, -0.2984854578971863, 0.10064307600259781, 0.17554894089698792, -0.17370042204856873, 0.009534641169011593, -0.18690168857574463, 0.42086002230644226, -0.2412981241941452, -0.20028911530971527], [0.05986281856894493, -0.38103756308555603, 0.08690644055604935, 0.1510479748249054, 0.20611821115016937, 0.1100488007068634, -0.25693443417549133, 0.37444281578063965, -0.10514296591281891, 0.06012895330786705, -0.15339592099189758, -0.4080200791358948, 0.2813514173030853, -0.05284005030989647, 0.005586124490946531, 0.2902661859989166, -0.1526736617088318, -0.12378151714801788, 0.20942968130111694, 0.18847036361694336, -0.041990574449300766, 0.14475977420806885, 0.04778033122420311, -0.26913726329803467, -0.19544214010238647, 0.0010258298134431243, -0.30029863119125366, -0.17546774446964264, 0.18748623132705688, 0.10262754559516907, -0.25208330154418945, -0.07978984713554382, -0.06392925977706909, 0.05149512365460396, -0.19752098619937897, 0.018963340669870377, 0.15016192197799683, 0.10533566027879715, -0.06972399353981018, -0.05371255427598953, 0.24491746723651886, -0.11801579594612122, 0.09505254030227661, 0.014949413947761059, -0.15090471506118774, 0.07840023934841156, -0.15171700716018677, 0.18549908697605133, -0.2659546434879303, -0.029157031327486038, 0.2244761735200882, 0.23009149730205536, 0.03028407134115696, 0.14992767572402954, 0.008734948001801968, 0.047760009765625, 0.16671116650104523, 0.2926127016544342, -0.189875066280365, -0.053890205919742584, -0.21937601268291473, 0.17150884866714478, 0.1739143431186676, 0.2896003723144531], [-0.2158464640378952, -0.24989080429077148, -0.2997939884662628, -0.23233620822429657, 0.21974889934062958, 0.30981090664863586, 0.26389968395233154, 5.891321416129358e-05, 0.191848486661911, -0.0018545701168477535, -0.10837768763303757, -0.220272958278656, 0.24776993691921234, 0.046188559383153915, 0.12758314609527588, -0.2372703105211258, 0.20104879140853882, -0.20925427973270416, 0.1692432314157486, -0.24581384658813477, -0.2200528383255005, -0.4008246958255768, -0.32374250888824463, 0.057162970304489136, 0.45503172278404236, 0.40839505195617676, 0.007950802333652973, -0.3491055369377136, -0.18687312304973602, 0.30725613236427307, 0.07368047535419464, -0.03977970778942108, 0.3027728796005249, 0.346524715423584, 0.27436840534210205, -0.1323450803756714, -0.05320287495851517, -0.23099325597286224, 0.17514467239379883, 0.18418700993061066, 0.206930011510849, -0.11129965633153915, -0.36095383763313293, -0.10902226716279984, 0.16929861903190613, 0.008326428011059761, 0.044891707599163055, -0.24978654086589813, 0.005311334505677223, 0.1516774743795395, -0.3068464696407318, 0.3684271275997162, 0.36231252551078796, 0.254682332277298, 0.035540852695703506, 0.10674431920051575, 0.08617273718118668, -0.16414642333984375, -0.02241997979581356, -0.17128384113311768, 0.15175962448120117, -0.07777626067399979, -0.1722792237997055, -0.1988266259431839], [0.26705336570739746, 0.18347829580307007, 0.2570634186267853, -0.18713723123073578, 0.11191457509994507, -0.25777190923690796, -0.05755577236413956, -0.16333910822868347, -0.2054736465215683, -0.28202077746391296, -0.029518134891986847, 0.15433362126350403, -0.25263240933418274, -0.11334092915058136, -0.272455632686615, 0.008246419951319695, -0.09592963755130768, 0.0784534215927124, -0.2868964374065399, 0.024766016751527786, 0.26274731755256653, -0.31750020384788513, 0.26749828457832336, 0.21302233636379242, 0.3169066607952118, 0.23332911729812622, -0.052237339317798615, 0.12405570596456528, -0.141753152012825, -0.2600056827068329, 0.3851315677165985, -0.30963999032974243, -0.24999494850635529, 0.12211411446332932, -0.06740748882293701, 0.3744431436061859, 0.21530435979366302, 0.021621158346533775, -0.176303431391716, 0.4694651663303375, 0.16221092641353607, -0.13565891981124878, 0.02344401553273201, -0.09580358117818832, 0.2522068917751312, -0.15281811356544495, 0.21768055856227875, 0.27336958050727844, -0.058451928198337555, 0.16840019822120667, 0.14716625213623047, 0.12870179116725922, -0.18728940188884735, 0.19670967757701874, -0.24084748327732086, 0.2682802975177765, -0.14920459687709808, 0.020370451733469963, -0.15115106105804443, -0.3080803155899048, -0.2053733617067337, 0.07112164050340652, -0.23083488643169403, -0.13182316720485687], [0.14069388806819916, -0.11683408170938492, 0.0814506933093071, 0.07636629790067673, 0.13719065487384796, -0.019717233255505562, -0.19491082429885864, 0.06895621120929718, -0.07534095644950867, -0.13029740750789642, 0.18360242247581482, -0.14720313251018524, 0.27151593565940857, 0.07164058089256287, 0.20387037098407745, 0.11118881404399872, 0.27569159865379333, 0.12314005196094513, -0.18507078289985657, 0.11022473871707916, -0.18174488842487335, 0.1330500692129135, -0.1676221787929535, -0.3249306380748749, -0.01978236436843872, 0.23782773315906525, -0.21378202736377716, 0.3168734610080719, -0.26896753907203674, -0.18867583572864532, -0.03348570317029953, -0.010912350378930569, 0.08920791000127792, 0.01500999927520752, 0.240926593542099, -0.004113593604415655, -0.23743708431720734, -0.28027334809303284, -0.32492560148239136, -0.018612004816532135, 0.03919198364019394, -0.21060839295387268, 0.12615610659122467, -0.17253734171390533, -0.07341669499874115, 0.1540343165397644, 0.23474061489105225, -0.17902810871601105, 0.2266676276922226, 0.21933603286743164, 0.1109478622674942, 0.21776920557022095, 0.23476798832416534, 0.4425487816333771, -0.2020341157913208, -0.14914676547050476, -0.06739170849323273, -0.039258360862731934, 0.035939183086156845, 0.34740516543388367, -0.26647037267684937, -0.08744397759437561, -0.2926740050315857, -0.2503795921802521], [-0.2910178005695343, 0.3487899899482727, -0.18013867735862732, -0.08359525352716446, -0.3091632127761841, 0.20070546865463257, -0.16496878862380981, 0.28501275181770325, 0.12782880663871765, -0.15976814925670624, 0.014594297856092453, -0.028587177395820618, -0.1152115985751152, 0.04720231145620346, -0.2347283661365509, -0.14995382726192474, -0.09684129804372787, -0.3109853267669678, 0.2813766300678253, 0.2113838493824005, 0.03639879450201988, -0.22924572229385376, -0.21921128034591675, -0.18722957372665405, 0.35269486904144287, 0.07319103181362152, 0.05892837420105934, -0.03459703177213669, -0.04657885804772377, 0.2662418484687805, -0.2610999345779419, -0.28471288084983826, 0.04729922488331795, -0.24449922144412994, -0.2625523507595062, 0.35819491744041443, -0.08355429768562317, 0.2309768944978714, -0.05001605302095413, 0.05128831788897514, -0.011271287687122822, 0.2953559160232544, -0.015553804114460945, -0.2597395181655884, 0.06812775135040283, 0.0261823832988739, -0.23323941230773926, -0.029084617272019386, 0.21388283371925354, 0.3893634080886841, 0.28433677554130554, -0.14865538477897644, -0.21055868268013, 0.27884212136268616, -0.21699176728725433, -0.05449625104665756, -0.03729472681879997, -0.28774702548980713, -0.03132425621151924, 0.09925100207328796, -0.060897257179021835, 0.1688619703054428, -0.0774741917848587, -0.29854410886764526], [-0.18675585091114044, -0.001851403620094061, 0.15784882009029388, -0.07323787361383438, -0.1517396718263626, -0.18549153208732605, -0.076475128531456, 0.16876135766506195, 0.1790967434644699, -0.2340019792318344, 0.13523049652576447, -0.3302565813064575, 0.23206327855587006, -0.17353402078151703, 0.04173249378800392, -0.16248592734336853, -0.024976614862680435, 0.22500847280025482, 0.30427300930023193, -0.20742389559745789, 0.15663361549377441, -0.20154507458209991, 0.2977138161659241, 0.04507775604724884, -0.004156829789280891, -0.2330455631017685, 0.16880425810813904, 0.08753008395433426, 0.25257936120033264, 0.09378258138895035, -0.3312114179134369, 0.010211742483079433, 0.27842485904693604, 0.25025367736816406, -0.24655622243881226, 0.3186797499656677, -0.050497088581323624, 0.1963438093662262, -0.024723021313548088, 0.07463820278644562, -0.07866894453763962, -0.05585210770368576, -0.0468725860118866, 0.13235536217689514, 0.2714155912399292, -0.06235027313232422, 0.1511704921722412, -0.19489894807338715, 0.23230566084384918, 0.2027290016412735, 0.08120973408222198, 0.11604280769824982, -0.031490396708250046, 0.23746757209300995, -0.0038027826230973005, 0.3588091731071472, 0.15538236498832703, -0.005744693335145712, -0.30759426951408386, 0.3168867230415344, 0.027940882369875908, -0.16040582954883575, 0.2874651551246643, -0.06518639624118805], [-0.09702619910240173, -0.20024807751178741, -0.11193918436765671, 0.34266340732574463, -0.08879154175519943, 0.26024696230888367, -0.005896997172385454, -0.014039835892617702, 0.24281960725784302, -0.016749920323491096, 0.08844788372516632, 0.105430006980896, -0.06638708710670471, -0.1110142320394516, -0.049675192683935165, 0.328856885433197, -0.29089733958244324, -0.02032763510942459, 0.2596403956413269, -0.2581292986869812, -0.13206690549850464, 0.07890810072422028, -0.3734841048717499, -0.13690149784088135, 0.17973685264587402, 0.048583488911390305, 0.275156170129776, 0.1302245557308197, 0.09410007297992706, 0.05956515669822693, 0.15347447991371155, 0.13210521638393402, 0.10451188683509827, -0.06378680467605591, -0.18119387328624725, -0.3028918206691742, -0.0786408931016922, -0.1205817312002182, -0.07438413798809052, -0.24127139151096344, -0.11756386607885361, 0.16855667531490326, 0.06463728100061417, 0.07410942763090134, 0.1806829869747162, 0.021045086905360222, -0.1660207360982895, -0.14150744676589966, 0.28383392095565796, -0.14623449742794037, -0.2604822516441345, -0.059318799525499344, -0.4315057396888733, 0.10593409836292267, -0.08146995306015015, -0.31621527671813965, 0.020454416051506996, 0.010089889168739319, 0.20507530868053436, 0.08446705341339111, 0.010284977965056896, 0.295317143201828, -0.0876161977648735, 0.08616835623979568], [0.3621072471141815, 0.19753430783748627, 0.26313233375549316, -0.04249877855181694, -0.05834836885333061, -0.2256254404783249, -0.14626188576221466, -0.23827597498893738, 0.12877880036830902, -0.05886467173695564, 0.1712150275707245, -0.2540971338748932, 0.1269502192735672, 0.12670594453811646, -0.10500071197748184, 0.16605831682682037, 0.2235669493675232, -0.10196901112794876, 0.12013044953346252, 0.31736430525779724, 0.04552694037556648, 0.16918708384037018, -0.00043206679401919246, -0.10910649597644806, 0.21056322753429413, 0.13519075512886047, -0.05151554197072983, 0.20058567821979523, -0.17203760147094727, -0.20327694714069366, 0.21009515225887299, -0.23336279392242432, 0.022743994370102882, 0.27277588844299316, 0.27526605129241943, -0.03489568457007408, -0.2000623345375061, -0.09271681308746338, -0.20587393641471863, -0.07089997082948685, -0.33421266078948975, 0.2707313001155853, 0.11685401946306229, 0.1479703038930893, -0.026245800778269768, 0.000691981113050133, 0.2896670997142792, 0.09513551741838455, 0.34052395820617676, 0.11906122416257858, -0.07218845933675766, 0.20996053516864777, 0.38063672184944153, -0.3151818513870239, -0.13032004237174988, -0.10329989343881607, 0.1962524950504303, -0.08402428030967712, 0.17055962979793549, -0.25117507576942444, 0.16741354763507843, 0.007253861520439386, -0.09806813299655914, 0.19621846079826355], [0.008889040909707546, -0.05135345086455345, -0.11147250235080719, 0.0998021736741066, -0.10444948822259903, 0.15207235515117645, -0.14556853473186493, 0.13738632202148438, -0.07398632168769836, -0.10792768001556396, 0.09013228118419647, -0.029787898063659668, -0.20864109694957733, -0.05164846405386925, -0.23605239391326904, 0.04888315871357918, 0.3475446403026581, -0.10917209088802338, -0.23866523802280426, -0.23206564784049988, 0.11951734870672226, 0.32177305221557617, 0.1813209503889084, -0.06334152817726135, -0.17407146096229553, -0.24513809382915497, -0.02832348458468914, -0.31567052006721497, 0.1865675002336502, -0.06635460257530212, 0.014600027352571487, 0.19701263308525085, -0.20063567161560059, -0.056732431054115295, 0.19481150805950165, -0.050394900143146515, -0.014263789169490337, -0.15713971853256226, -0.06366974860429764, -0.0629182681441307, 0.16517862677574158, -0.06736444681882858, -0.0617436058819294, 0.3788933753967285, 0.17410652339458466, -0.2777337431907654, 0.25902074575424194, -0.293255090713501, -0.12330726534128189, 0.12545163929462433, -0.07559927552938461, -0.13471734523773193, 0.06272325664758682, 0.1074448674917221, -0.12278277426958084, 0.21818917989730835, 0.053498540073633194, 0.0023284924682229757, 0.27099713683128357, 0.24264895915985107, -0.11611308157444, -0.03647890314459801, -0.1777266263961792, 0.31422799825668335], [0.18236514925956726, -0.19173425436019897, 0.3614591360092163, 0.025845758616924286, -0.06420242041349411, 0.10368138551712036, 0.26523756980895996, 0.19663654267787933, 0.1546298712491989, 0.06821642071008682, 0.10392684489488602, 0.2792436182498932, -0.1779703050851822, -0.1453317254781723, -0.12758997082710266, -0.0026020684745162725, -0.03611559793353081, -0.03899017721414566, -0.17099229991436005, 0.003466304624453187, 0.08767812699079514, -0.23215162754058838, 0.1721443235874176, -0.18203607201576233, -0.15082405507564545, 0.19324974715709686, -0.10514049977064133, -0.21737034618854523, 0.11618205159902573, -0.20934085547924042, -0.16262231767177582, -0.11971880495548248, -0.16612738370895386, -0.28606200218200684, -0.29369425773620605, 0.172223761677742, 0.08916845917701721, -0.14731895923614502, -0.018536819145083427, -0.16226625442504883, 0.04082367196679115, -0.0010400860337540507, 0.11635541170835495, 0.17874903976917267, -0.111820749938488, 0.06033949553966522, -0.15019644796848297, -0.10804570466279984, -0.09420990198850632, 0.022017372772097588, -0.15357965230941772, -0.03196319565176964, -0.16059528291225433, 0.3423211872577667, -0.07394688576459885, 0.30469924211502075, -0.1393946409225464, -0.24250343441963196, -0.2251998335123062, -0.20777484774589539, -0.11470922082662582, 0.1699146181344986, 0.3214937746524811, -0.17607752978801727], [0.295291006565094, -0.2748431861400604, 0.18184782564640045, -0.20588922500610352, 0.2847493588924408, -0.37685203552246094, -0.07705195248126984, -0.0486614964902401, 0.12473099678754807, 0.1124025359749794, -0.03985479846596718, 0.15914303064346313, -0.22400805354118347, -0.031542256474494934, -0.23800444602966309, 0.07999146729707718, 0.2718159556388855, -0.2660524249076843, -0.2535211443901062, -0.2457505762577057, 0.2765720784664154, -0.026336222887039185, -0.14122377336025238, 0.25981855392456055, 0.039428867399692535, -0.045967910438776016, 0.029439926147460938, 0.18557317554950714, 0.10687663406133652, 0.15335991978645325, -0.24456317722797394, 0.050817567855119705, -0.28963330388069153, -0.08155040442943573, -0.04185525327920914, 0.2595559060573578, -0.09103957563638687, -0.1858597695827484, 0.1988212615251541, -0.18399423360824585, -0.17793269455432892, 0.14786799252033234, -0.11815023422241211, 0.21202009916305542, 0.09833983331918716, 0.019005656242370605, 0.39305105805397034, 0.06655661761760712, -0.19828493893146515, -0.32289230823516846, 0.10262671858072281, -0.04533515125513077, 0.24356427788734436, -0.09825657308101654, -0.29760515689849854, 0.0022380517330020666, 0.13223563134670258, 0.4199106991291046, 0.15117190778255463, -0.12226203829050064, -0.30217844247817993, -0.05582323297858238, 0.2257096916437149, 0.2961566746234894], [0.09572254121303558, 0.19074325263500214, -0.026812473312020302, 0.03366309776902199, -0.29072320461273193, 0.14768297970294952, -0.3924172818660736, -0.16505752503871918, -0.09694577753543854, -0.11969681829214096, 0.027330437675118446, 0.24916043877601624, -0.02568855509161949, -0.37184938788414, 0.14529573917388916, -0.08508436381816864, -0.10852369666099548, 0.05479473993182182, -0.16485650837421417, 0.10135315358638763, 0.27967196702957153, 0.04577479511499405, 0.09569253772497177, 0.20882084965705872, 0.02173810638487339, -0.21018193662166595, 0.03492830693721771, 0.2566099762916565, -0.08038366585969925, 0.326162189245224, 0.06782533973455429, 0.2564399242401123, -0.147836834192276, 0.2456723004579544, 0.027264270931482315, 0.31288349628448486, 0.0025418715085834265, 0.10589464008808136, -0.28204694390296936, 0.06805747747421265, -0.1470411866903305, 0.06728362292051315, 0.14747247099876404, 0.3185565173625946, -0.03548237681388855, 0.0006553537677973509, -0.19918783009052277, 0.22382119297981262, 0.034222111105918884, -0.3686203062534332, -0.28468552231788635, 0.09332120418548584, 0.2630648910999298, 0.2279067188501358, 0.1736140251159668, -0.14378370344638824, 0.3741389214992523, 0.26304250955581665, -0.44095689058303833, 0.17033115029335022, -0.3531050682067871, 0.265830397605896, -0.34391188621520996, 0.2026374340057373], [0.11746620386838913, 0.0020223127212375402, -0.2339617758989334, 0.2210688591003418, -0.26207590103149414, -0.02859913930296898, -0.3219749629497528, -0.04702542722225189, -0.20120467245578766, -0.17153072357177734, 0.04398160055279732, 0.056101925671100616, 0.1006503701210022, 0.18153947591781616, 0.20425300300121307, 0.3038758933544159, 0.15561001002788544, 0.041120897978544235, -0.12378238886594772, 0.2116408497095108, -0.011916106566786766, -0.04561047628521919, -0.11685400456190109, -0.31235936284065247, -0.39684799313545227, -0.14168301224708557, 0.05059365555644035, -0.2714892029762268, 0.296951025724411, 0.05728747695684433, -0.3893321454524994, -0.1441746950149536, -0.2471577674150467, -0.07269638776779175, 0.31634896993637085, -0.1192598044872284, 0.22681578993797302, 0.23436938226222992, 0.06645691394805908, -0.23581011593341827, 0.10470806807279587, -0.20313908159732819, 0.1244039237499237, 0.0416097454726696, 0.03426376357674599, -0.32315078377723694, 0.26652488112449646, -0.11490993946790695, -0.030837910249829292, 0.15118977427482605, 0.05242359638214111, -0.23459778726100922, -0.11380686610937119, -0.040136951953172684, 0.3353000283241272, -0.23082296550273895, 0.07202322781085968, 0.09031558036804199, 0.09546267241239548, -0.05632658675312996, 0.01063471008092165, 0.17909087240695953, -0.31802797317504883, 0.1234402284026146], [-0.1340261697769165, 0.2981712520122528, 0.17769011855125427, 0.020889872685074806, -0.05618557333946228, -0.07153516262769699, 0.11339595913887024, 0.22003956139087677, 0.2952727973461151, 0.29120326042175293, -0.09738238155841827, -0.28792691230773926, 0.025135312229394913, -0.24474699795246124, 0.11225465685129166, 0.06065326929092407, -0.03154060244560242, -0.3834387958049774, 0.036632146686315536, 0.23194068670272827, 0.06554540246725082, -0.10973263531923294, 0.058097850531339645, 0.19202564656734467, 0.19180083274841309, -0.09356015175580978, 0.27414119243621826, 0.06296559423208237, -0.2448796182870865, -0.09225548058748245, 0.04810131713747978, 0.21799851953983307, 0.052588675171136856, 0.1886838674545288, 0.047588691115379333, 0.39241766929626465, 0.009629563428461552, 0.16245104372501373, -0.2848770320415497, -0.29375067353248596, -0.3612619638442993, -0.09089471399784088, 0.028188280761241913, 0.03859717398881912, -0.23444007337093353, -0.3014529049396515, -0.20979993045330048, 0.0639924705028534, -0.33535754680633545, -0.2333080917596817, 0.06838427484035492, -0.19217941164970398, -0.16704261302947998, 0.15967315435409546, -0.05836315080523491, 0.2802128195762634, 0.23519964516162872, -0.014578506350517273, 0.004771912470459938, 0.17757123708724976, -0.29481378197669983, 0.23865729570388794, -0.23216184973716736, -0.2532670795917511], [-0.15676264464855194, -0.12038340419530869, 0.049389973282814026, -0.03453505039215088, -0.10505101084709167, -0.17438927292823792, 0.04966682195663452, -0.08281079679727554, 0.23050551116466522, -0.021607842296361923, -0.021794000640511513, -0.11816214770078659, -0.02949790097773075, 0.25425219535827637, -0.21273022890090942, -0.023848745971918106, 0.1748337298631668, 0.08920295536518097, 0.06961451470851898, 0.013419289141893387, 0.008058805018663406, 0.1656196266412735, -0.2808522582054138, 0.009136157110333443, -0.04280057176947594, -0.26427707076072693, -0.03569060564041138, -0.14725655317306519, 0.14788506925106049, -0.04613278806209564, -0.003475584089756012, 0.0029968307353556156, -0.10664447396993637, 0.06487960368394852, -0.11404236406087875, 0.07730282098054886, 0.3722914755344391, 0.002384056570008397, 0.18470118939876556, -0.30689048767089844, -0.017623020336031914, -0.06091775745153427, 0.24896076321601868, -0.28794658184051514, -0.07026862353086472, 0.127470925450325, 0.2160329967737198, 0.27083060145378113, 0.17114409804344177, -0.1934640258550644, 0.12271468341350555, -0.03868914768099785, -0.26620975136756897, 0.022454392164945602, 0.18055535852909088, -0.11384609341621399, 0.125238299369812, -0.2893253564834595, -0.2859603464603424, -0.0979752242565155, -0.2736106812953949, -0.06680712103843689, -0.02099037915468216, 0.2395288050174713], [0.2937319278717041, -0.24737082421779633, -0.10581190139055252, 0.10072010010480881, -0.1144346371293068, 0.26321619749069214, 0.04720437526702881, -0.17565535008907318, -0.26979318261146545, 0.30809125304222107, -0.06034082546830177, 0.3357597589492798, -0.14680929481983185, 0.10233589261770248, 0.1997879147529602, 0.016124820336699486, 0.29428863525390625, 0.2998657524585724, 0.11671856045722961, 0.22588026523590088, 0.18391355872154236, 0.08347626775503159, 0.17780019342899323, 0.07137207686901093, 0.021433133631944656, -0.24276554584503174, 0.30222073197364807, -0.004166905302554369, 0.18917874991893768, 0.3494769334793091, 0.11093707382678986, 0.16315534710884094, -0.30048590898513794, -0.2275763899087906, -0.24962002038955688, -0.2730279564857483, -0.10884452611207962, 0.024452289566397667, 0.006032826844602823, -0.0721900463104248, -0.1379268616437912, 0.07049228996038437, -0.32526716589927673, 0.094988614320755, 0.3702144920825958, 0.2508932948112488, -0.37312766909599304, 0.06370265781879425, -0.2376069575548172, 0.3484993278980255, -0.38608697056770325, -0.21837083995342255, -0.2266198992729187, -0.3037395775318146, 0.03787357360124588, 0.1643315851688385, 0.2050560861825943, -0.08989976346492767, -0.01695730909705162, -0.34877777099609375, -0.1042526364326477, 0.09054871648550034, -0.1942363977432251, 0.1043485477566719], [-0.027179192751646042, 0.10824358463287354, -0.0709647685289383, 0.2399538904428482, 0.2955355942249298, 0.2261929214000702, -0.21020276844501495, -0.06183629110455513, -0.14633651077747345, 0.3904265761375427, -0.3530608117580414, -0.05867115780711174, 0.06902724504470825, -0.1860911250114441, -0.02728833444416523, -0.06776830554008484, -0.08149170130491257, 0.11262929439544678, -0.09097201377153397, -0.2441922277212143, -0.24519610404968262, -0.20699149370193481, 0.18915195763111115, 0.26894286274909973, -0.08107763528823853, -0.07105007767677307, 0.33839040994644165, 0.2479393482208252, -0.08834303170442581, -0.22286462783813477, -0.047352712601423264, -0.31378236413002014, 0.24811212718486786, 0.1238696351647377, 0.18978698551654816, -0.2362881749868393, -0.07596142590045929, 0.17071203887462616, 0.12923195958137512, -0.12711606919765472, 0.11924607306718826, -0.11313589662313461, -0.09157319366931915, 0.14973315596580505, -0.2762291431427002, -0.2365899533033371, -0.09042930603027344, 0.15637117624282837, -0.19202862679958344, 0.1394679993391037, -0.15638095140457153, 0.09635984897613525, 0.29263171553611755, -0.32703089714050293, 0.22395837306976318, -0.22057396173477173, -0.10037931054830551, 0.40861740708351135, -0.13150744140148163, 0.06748279929161072, -0.07852621376514435, -0.0003828215703833848, -0.15030933916568756, -0.1562168002128601], [-0.17103245854377747, -0.022776424884796143, 0.32009878754615784, -0.09049669653177261, -0.18390187621116638, -0.1850254237651825, 0.16548727452754974, 0.218587264418602, -0.18113180994987488, -0.05122560262680054, 0.10243041068315506, 0.012889046221971512, -0.16406626999378204, -0.08508218824863434, 0.19538214802742004, 0.04127658158540726, 0.19112272560596466, -0.27243003249168396, 0.22835849225521088, -0.042614031583070755, -0.1668192446231842, -0.3106856048107147, -0.22915174067020416, 0.13732746243476868, 0.05629964545369148, 0.12852758169174194, 0.265848845243454, -0.03433365747332573, -0.006282431073486805, 0.0023283956106752157, -0.09113135933876038, -0.23151855170726776, 0.03884829953312874, -0.27302229404449463, 0.10547105967998505, 0.23267574608325958, -0.37054216861724854, 0.340880423784256, 0.2939731180667877, 0.07412446290254593, -0.105683833360672, -0.14109240472316742, 0.16523295640945435, -0.030864376574754715, 0.25076642632484436, -0.19798719882965088, 0.19177782535552979, -0.2312069684267044, -0.22988158464431763, 0.10330961644649506, -0.015245945192873478, 0.13351498544216156, -0.22784766554832458, -0.28665775060653687, -0.21163013577461243, 0.35285133123397827, -0.12346037477254868, 0.07651524245738983, 0.07289700210094452, 0.17437316477298737, 0.019641388207674026, -0.32903149724006653, 0.10286533832550049, -0.019124718382954597], [0.09167925268411636, 0.07605607807636261, 0.07030913978815079, 0.11570499837398529, -0.032828439027071, -0.0926765650510788, -0.26291659474372864, -0.18989872932434082, -0.11091050505638123, 0.037965789437294006, 0.19039148092269897, 0.22119107842445374, 0.062472861260175705, 0.17901013791561127, -0.14458173513412476, -0.2889198958873749, -0.43035590648651123, 0.2921222746372223, 0.26554176211357117, 0.1728649139404297, 0.31393593549728394, 0.09342903643846512, 0.19533230364322662, 0.009049340151250362, -0.013858462683856487, 0.10236921906471252, 0.1304764598608017, -0.1262904554605484, 0.10619985312223434, 0.07754281908273697, 0.32507240772247314, -0.026329880580306053, -0.20892901718616486, -0.08460773527622223, -0.12512585520744324, -0.15374219417572021, -0.21328356862068176, -0.3084307909011841, -0.03645147755742073, 0.33033451437950134, -0.14494186639785767, 0.15860725939273834, -0.2681874632835388, 0.21653161942958832, -0.14461307227611542, -0.30338120460510254, 0.2153814285993576, 0.12662875652313232, 0.03465708717703819, -0.055496297776699066, 0.06194474920630455, 0.2885057032108307, 0.09902941435575485, 0.2553253471851349, -0.1582668274641037, -0.3015919625759125, 0.07421443611383438, -0.31785693764686584, -0.25172045826911926, -0.17788821458816528, -0.39637961983680725, -0.046998005360364914, -0.13062900304794312, 0.03182261437177658], [0.2618647515773773, 0.06962032616138458, 0.25767648220062256, 0.006891393102705479, -0.15663860738277435, -0.266288161277771, 0.2733948528766632, 0.33802923560142517, -0.4090687930583954, -0.2164434939622879, -0.06505617499351501, 0.23196826875209808, 0.11627001315355301, 0.0680648535490036, -0.13521148264408112, -0.21250903606414795, 0.004089151043444872, 0.22229768335819244, -0.14217111468315125, -0.1759374439716339, 0.2191324234008789, 0.004466003272682428, 0.044486045837402344, 0.053285274654626846, 0.20484033226966858, 0.2297966629266739, 0.020050816237926483, 0.08950188010931015, -0.14109638333320618, 0.2557964026927948, -0.32250627875328064, 0.17752298712730408, -0.18027380108833313, -0.024975692853331566, 0.160984069108963, 0.02063867822289467, -0.2739037871360779, 0.2775265574455261, -0.0777491107583046, -0.25005003809928894, 0.13358910381793976, 0.06237222999334335, -0.08551017194986343, 0.3410532474517822, 0.2561090588569641, 0.01794719509780407, -0.13874225318431854, 0.31394970417022705, 0.1418832242488861, 0.1958332061767578, 0.3018605709075928, 0.0314982533454895, 0.19396011531352997, -0.29249638319015503, -0.002996845170855522, -0.040514301508665085, 0.2055720090866089, 0.14901049435138702, 0.0900968685746193, -0.09559210389852524, -0.29082462191581726, 0.08176473528146744, 0.3976002633571625, -0.14509093761444092], [0.27621719241142273, -0.1535416543483734, 0.08763336390256882, -0.01184940803796053, 0.006887989118695259, 0.30659738183021545, -0.16449081897735596, -0.21204425394535065, -0.08734022825956345, 0.2020222693681717, 0.27482104301452637, -0.2573448717594147, -0.08105947077274323, 0.11661053448915482, -0.15635448694229126, 0.15760919451713562, -0.05866135656833649, 0.07334371656179428, 0.22036996483802795, -0.295570433139801, 0.25576937198638916, -0.2610298991203308, -0.2402254194021225, -0.12864215672016144, -0.055798329412937164, -0.21220946311950684, 0.08384194225072861, 0.20918671786785126, 0.2159828394651413, 0.4149584174156189, 0.4687204957008362, 0.22258125245571136, 0.21562691032886505, -0.08183076232671738, -0.044892437756061554, -0.25594982504844666, 0.13896487653255463, 0.09790799021720886, 0.2973925769329071, -0.0871809795498848, -0.2950805723667145, -0.06124027818441391, -0.014254238456487656, 0.2227049469947815, -0.02525319904088974, -0.2756459712982178, -0.4332091212272644, 0.19459006190299988, 0.2673335373401642, 0.07701471447944641, 0.05963616445660591, -0.017185742035508156, 0.039473868906497955, -0.16461707651615143, 0.1514669507741928, -0.2945186197757721, -0.017908655107021332, 0.12402205169200897, -0.25113874673843384, 0.03899258375167847, -0.4472229778766632, -0.028028953820466995, -0.26077979803085327, 0.25291678309440613], [-0.1372586190700531, -0.3115624189376831, -0.10710408538579941, 0.11145306378602982, 0.14153139293193817, -0.2985144257545471, 0.24041250348091125, -0.03295231983065605, 0.023943224921822548, 0.3350581228733063, 0.20034077763557434, 0.26940736174583435, -0.239447683095932, -0.2487805187702179, 0.003729343181475997, 0.11327194422483444, 0.33295413851737976, 0.055397599935531616, 0.4298507273197174, -0.16801248490810394, -0.27108368277549744, -0.2470683455467224, 0.06695567071437836, 0.027864554896950722, 0.026273047551512718, -0.14055359363555908, 0.1594899743795395, -0.23702512681484222, -0.21787279844284058, -0.20642058551311493, -0.15899287164211273, 0.1459590345621109, -0.2375493198633194, -0.05803108587861061, -0.05136298015713692, -0.11140123754739761, 0.1355736404657364, -0.14875434339046478, -0.2498016208410263, 0.08305569738149643, -0.12726932764053345, -0.12000440806150436, 0.06007176265120506, 0.16658705472946167, 0.08133839070796967, 0.045352645218372345, -0.47151777148246765, -0.10205989331007004, -0.1771286278963089, -0.17204558849334717, 0.039245884865522385, 0.2860032320022583, -0.04126153886318207, 0.08594250679016113, 0.19583427906036377, 0.07828462868928909, 0.19183562695980072, 0.051600441336631775, 0.4212041199207306, -0.15887507796287537, 0.3282383978366852, -0.32134369015693665, 0.01834777742624283, 0.10252126306295395], [0.16338740289211273, -0.08441809564828873, 0.17323027551174164, 0.06986739486455917, -0.21675416827201843, -0.05319293960928917, -0.26537612080574036, -0.25264447927474976, 0.12754559516906738, -0.11512762308120728, -0.0551125667989254, 0.01340394001454115, -0.31226909160614014, 0.28879380226135254, -0.13600346446037292, -0.04724067822098732, 0.03804941102862358, 0.3630165755748749, 0.4163459241390228, -0.10521358996629715, 0.2688126266002655, 0.19435608386993408, -0.28232449293136597, -0.019271844998002052, -0.2605651319026947, 0.11941463500261307, -0.33275848627090454, -0.041245199739933014, -0.03449225798249245, -0.08970332890748978, 0.17435620725154877, 0.17309321463108063, -0.13275539875030518, -0.17997382581233978, 0.12251061201095581, 0.14531353116035461, -0.05126309394836426, -0.06246759369969368, 0.067447729408741, -0.2142384797334671, -0.1049620509147644, 0.07579565048217773, -0.06924580037593842, -0.3500974178314209, -0.06376709043979645, 0.295654833316803, -0.15780138969421387, -0.1914830505847931, 0.2451723963022232, -0.27555525302886963, 0.002203353215008974, 0.06186044588685036, 0.040621962398290634, -0.04720967635512352, 0.13988231122493744, 0.24137727916240692, 0.15405376255512238, -0.23999734222888947, -0.2356630265712738, -0.11812426894903183, -0.2541239559650421, 0.12498071789741516, 0.28042280673980713, 0.12199985235929489], [-0.23568226397037506, 0.36468425393104553, -0.10600179433822632, -0.18003274500370026, 0.06613282114267349, -0.24710704386234283, 0.15249867737293243, -0.24446143209934235, -0.040511004626750946, 0.10851512104272842, 0.028849001973867416, -0.3015177249908447, 0.2461216151714325, 0.24152863025665283, -0.128449484705925, 0.26971086859703064, 0.23212216794490814, -0.10594619065523148, -0.14416472613811493, 0.09318374842405319, -0.07953397929668427, 0.15910983085632324, -0.4706495404243469, -0.1461556851863861, -0.12348442524671555, -0.36048874258995056, -0.16777129471302032, -0.11035583913326263, -0.05995079502463341, 0.1740216463804245, -0.2407427430152893, 0.22158578038215637, 0.36105403304100037, -0.32815325260162354, 0.28966784477233887, -0.18216527998447418, 0.27368438243865967, -0.20013515651226044, -0.1372700333595276, 0.28668445348739624, -0.1633344292640686, 0.23610197007656097, 0.1780620515346527, -0.035731736570596695, -0.12257862836122513, 0.11808665841817856, -0.19143235683441162, -0.2795175611972809, 0.17491662502288818, -0.2672926187515259, -0.04783148318529129, -0.3233877420425415, -0.04093310609459877, 0.02407745271921158, 0.2613748610019684, 0.1773366928100586, -0.38584956526756287, -0.2933776378631592, 0.17958970367908478, -0.22541183233261108, 0.19687578082084656, 0.14649789035320282, -0.06398262828588486, 0.21620292961597443], [-0.19546981155872345, -0.1447286754846573, 0.22307172417640686, -0.12117819488048553, -0.13242283463478088, 0.28747209906578064, -0.20074127614498138, -0.1287248283624649, 0.07016994804143906, -0.08764233440160751, -0.2698153853416443, -0.0315510630607605, 0.11433691531419754, 0.1999557465314865, 0.12757882475852966, -0.0026302686892449856, -0.25987571477890015, 0.17990168929100037, 0.23733344674110413, 0.18190507590770721, -0.07385729998350143, 0.17704539000988007, -0.11022617667913437, 0.13350872695446014, 0.04404093697667122, -0.10382124036550522, 0.16133970022201538, 0.15414918959140778, 0.27137574553489685, -0.2614711821079254, -0.19443069398403168, -0.12286140769720078, 0.05858122557401657, 0.32347598671913147, 0.07274270057678223, -0.2911053001880646, 0.2300335317850113, -0.005216873716562986, -0.06977540999650955, 0.23884227871894836, -0.03744041547179222, 0.057202186435461044, -0.2783547639846802, -0.0182790569961071, -0.16501159965991974, 0.044500820338726044, 0.060213688760995865, 0.18443480134010315, -0.15814059972763062, 0.0679207518696785, -0.08313074707984924, 0.07141590863466263, -0.33914709091186523, 0.416293203830719, 0.16823142766952515, 0.2633104920387268, 0.20779092609882355, 0.05297145992517471, 0.2500983476638794, -0.01737329550087452, -0.07372114062309265, -0.2869698107242584, 0.10013697296380997, -0.22825931012630463], [0.030597781762480736, -0.12098071724176407, 0.08425877243280411, 0.16333764791488647, -0.017268924042582512, -0.2123861163854599, 0.18519176542758942, 0.19809982180595398, 0.18968018889427185, -0.1842348426580429, -0.09805699437856674, 0.1271534413099289, -0.21705909073352814, -0.28053319454193115, 0.25385019183158875, 0.25539538264274597, -0.12599913775920868, -0.033489588648080826, 0.2654774785041809, 0.24180291593074799, -0.25301915407180786, 0.1872229129076004, 0.16168397665023804, -0.15580834448337555, -0.18091514706611633, 0.1280178278684616, 0.355584055185318, -0.17409253120422363, -0.36138007044792175, 0.30098676681518555, -0.15438340604305267, 0.2271733582019806, -0.2331031709909439, 0.2298642247915268, 0.07363933324813843, -0.04761136323213577, 0.02507963590323925, 0.14844152331352234, -0.11473901569843292, 0.22059664130210876, -0.22300229966640472, -0.3535771369934082, 0.03420388326048851, -0.24431614577770233, -0.06119062751531601, -0.046544719487428665, 0.026899220421910286, -0.0680459514260292, 0.12390867620706558, -0.17755645513534546, -0.3773042559623718, 0.24661944806575775, 0.10960590839385986, 0.1153365820646286, -0.2748684287071228, -0.10233587771654129, -0.22037170827388763, 0.28817492723464966, 0.09977595508098602, -0.1687278002500534, -0.13876715302467346, 0.08782241493463516, 0.3218045234680176, -0.12234383821487427], [0.10753171145915985, -0.32388341426849365, -0.1412045955657959, -0.17862586677074432, -0.11076095700263977, -0.10340914130210876, -0.01599849760532379, -0.402824342250824, -0.048941515386104584, -0.11124659329652786, -0.1864316463470459, -0.23782260715961456, -0.34151691198349, 0.17782512307167053, 0.24316085875034332, -0.1337866187095642, 0.14598022401332855, 0.21416224539279938, 0.010454024188220501, -0.06137331947684288, -0.058878205716609955, -0.28271979093551636, -0.1331542730331421, -0.1970096081495285, 0.027858540415763855, 0.12423577904701233, -0.3188058137893677, 0.16977658867835999, -0.09075825661420822, 0.19059433043003082, -0.1321706622838974, -0.1340273916721344, -0.26816362142562866, -0.010499677620828152, 0.08150279521942139, -0.13674470782279968, 0.321149080991745, -0.12376713752746582, -0.14100590348243713, -0.02840672992169857, 0.09781070053577423, 0.14736469089984894, -0.2954222559928894, 0.057663023471832275, -0.1547776609659195, -0.24180547893047333, -0.21766427159309387, -0.08435820043087006, 0.051420144736766815, 0.18686383962631226, -0.18992820382118225, 0.11312706768512726, 0.22990348935127258, -0.09791458398103714, -0.060935426503419876, 0.0772409662604332, -0.2586737275123596, -0.0570458322763443, -0.1462026834487915, -0.2801002860069275, 0.1368197351694107, -0.11309286206960678, 0.2517414391040802, -0.16719041764736176], [0.1222488060593605, -0.062350835651159286, 0.242069274187088, 0.05352824553847313, 0.32398921251296997, 0.29394635558128357, 0.23117467761039734, 0.07170060276985168, -0.3888474106788635, 0.2440796196460724, 0.13111752271652222, 0.264798641204834, -0.17150306701660156, 0.055723801255226135, 0.021993709728121758, -0.1917400360107422, -0.13986019790172577, 0.03804963082075119, -0.036207858473062515, -0.31180649995803833, -0.06445148587226868, 0.42346543073654175, 0.1406785100698471, 0.058856766670942307, -0.08149754256010056, -0.06320826709270477, 0.13864253461360931, 0.2666277587413788, -0.23793862760066986, 0.1724926382303238, 0.08251086622476578, 0.055135153234004974, 0.11899150907993317, 0.14083142578601837, 0.13315722346305847, 0.03425266221165657, 0.1392679512500763, 0.048210982233285904, -0.2958829998970032, -0.20321980118751526, -0.10930163413286209, -0.17265234887599945, -0.04715558513998985, -0.39014557003974915, 0.3128078579902649, 0.2849407494068146, 0.13511890172958374, -0.18968290090560913, 0.09830617904663086, -0.05743677541613579, -0.1078946515917778, 0.13044826686382294, -0.1934293955564499, 0.2122540920972824, -0.08986834436655045, -0.38795027136802673, 0.22756505012512207, -0.31186679005622864, -0.09517236799001694, 0.09737583994865417, 0.28407102823257446, 0.14364781975746155, 0.2804846167564392, 0.142642080783844], [0.08412115275859833, 0.14453722536563873, 0.29552170634269714, -0.26945021748542786, -0.2162541002035141, 0.31421688199043274, -0.4545708894729614, 0.07463494688272476, -0.17651960253715515, 0.13865016400814056, 0.1682814508676529, -0.07147038727998734, 0.2611217200756073, 0.2406446486711502, -0.1455252468585968, 0.2220122367143631, -0.05881453678011894, -0.21691124141216278, 0.0883014053106308, 0.14072038233280182, -0.32622236013412476, 0.017676105722784996, -0.31591230630874634, 0.174444317817688, -0.15516503155231476, 0.1956479400396347, -0.16429542005062103, -0.002006515162065625, -0.20929934084415436, -0.38785359263420105, 0.08443808555603027, -0.22131234407424927, 0.2674894630908966, 0.2347320169210434, 0.11934832483530045, -0.13876281678676605, -0.22339768707752228, -0.1654975712299347, 0.07130389660596848, -0.34749555587768555, 0.0033797547221183777, 0.21122850477695465, 0.20459172129631042, -0.07612200826406479, -0.12675847113132477, -0.12004731595516205, 0.12595634162425995, -0.09417743235826492, 0.31787747144699097, -0.2025514841079712, 0.06752009689807892, 0.06838333606719971, -0.20472151041030884, -0.23909014463424683, -0.17424048483371735, 0.21874172985553741, -0.18608056008815765, 0.2204919457435608, -0.21075274050235748, 0.11255403608083725, -0.04343489557504654, -0.066756971180439, 0.27481359243392944, 0.24691009521484375], [0.025759315118193626, 0.2363308072090149, -0.14188329875469208, -0.10078956186771393, -0.18761928379535675, 0.04052504897117615, 0.2746964395046234, 0.21242113411426544, 0.10774748027324677, 0.0780707374215126, 0.19513444602489471, 0.24621069431304932, 0.2901732623577118, 0.0075924997217953205, 0.014517056755721569, -0.2576882243156433, 0.01012791134417057, 0.33349013328552246, 0.09417624026536942, 0.0719330683350563, 0.17331558465957642, 0.11828270554542542, -0.0932670533657074, 0.3222249746322632, -0.44253280758857727, 0.1362079232931137, -0.19005651772022247, -0.11641611903905869, 0.1813727468252182, 0.18875011801719666, -0.024191146716475487, 0.17339377105236053, -0.20173421502113342, -0.17348945140838623, 0.24803823232650757, 0.20896078646183014, -0.08849064260721207, 0.1585340052843094, 0.2767496705055237, 0.04392903670668602, 0.16720382869243622, -0.08143769204616547, -0.18523557484149933, -0.1657315045595169, -0.1599377989768982, 0.311463862657547, -0.12432124465703964, 0.2955947518348694, 0.021267803385853767, -0.05132732540369034, -0.12214673310518265, -0.03916214406490326, 0.1583089530467987, -0.09584689140319824, -0.15630659461021423, -0.17772029340267181, 0.07786793261766434, 0.29269587993621826, -0.08585720509290695, -0.42883506417274475, -0.15834876894950867, 0.29080334305763245, 0.09118138998746872, -0.18813154101371765], [-0.4116590917110443, -0.046878308057785034, 0.293067991733551, -0.0016095410101115704, 0.06181231141090393, 0.0052515543065965176, 0.12889806926250458, -0.24202601611614227, -0.09249981492757797, -0.17159104347229004, 0.004336659796535969, -0.09738095849752426, 0.24043570458889008, -0.031154107302427292, 0.23536759614944458, -0.08455801010131836, -0.17025113105773926, -0.0636180192232132, -0.2376089245080948, -0.19147874414920807, 0.0606166310608387, -0.00738109927624464, 0.15798752009868622, -0.2746758460998535, 0.00889056921005249, 0.4306648075580597, -0.3878520727157593, -0.2140490561723709, 0.18273085355758667, 0.17076203227043152, 0.17969845235347748, 0.1871989667415619, -0.23743587732315063, -0.20325957238674164, 0.07623392343521118, -0.09814384579658508, 0.26066622138023376, -0.1324729472398758, -0.19674068689346313, 0.0936487466096878, -0.08783438801765442, 0.40757665038108826, -0.07711687684059143, 0.29141050577163696, -0.008288645185530186, 0.23417767882347107, 0.19834676384925842, -0.33213570713996887, 0.11252701282501221, -0.26843130588531494, 0.17505379021167755, 0.20440930128097534, -0.21303799748420715, 0.24446935951709747, -0.08245163410902023, 0.34746983647346497, 0.028088942170143127, -0.0318998247385025, -0.050809577107429504, 0.1092299371957779, -0.2390618771314621, 0.2334223985671997, 0.041487932205200195, -0.29559409618377686], [0.010451127775013447, -0.014655510894954205, 0.20011745393276215, 0.08847585320472717, -0.22295983135700226, -0.22454464435577393, 0.1522037535905838, 0.15109537541866302, -0.07230862975120544, 0.2558886408805847, 0.040985722094774246, -0.030811792239546776, 0.09623786062002182, -0.15648306906223297, -0.22565394639968872, 0.13160932064056396, -0.05112844333052635, -0.22925810515880585, 0.3279970586299896, -0.3023371696472168, -0.15544019639492035, 0.034563347697257996, -0.1960521936416626, 0.29563435912132263, -0.1405191570520401, -0.19563549757003784, 0.1391356736421585, 0.023775335401296616, -0.26681652665138245, -0.23143914341926575, -0.31076762080192566, -0.3183899521827698, -0.19859972596168518, -0.0026154627557843924, 0.18712618947029114, -0.2997112572193146, -0.2336561381816864, 0.11695538461208344, 0.02345648780465126, -0.09194250404834747, -0.012056202627718449, -0.22952596843242645, -0.07084078341722488, -0.22451503574848175, 0.07711731642484665, 0.1766132414340973, 0.26620492339134216, -0.020729532465338707, -0.2779289186000824, -0.3961467742919922, 0.16918806731700897, 0.23518258333206177, -0.32388317584991455, -0.11928752064704895, -0.2963894307613373, 0.46870654821395874, -0.07727722823619843, -0.0329383946955204, -0.12165498733520508, 0.07375773042440414, 0.30772075057029724, 0.06449158489704132, -0.19795536994934082, 0.3438398241996765], [-0.047568004578351974, 0.06413465738296509, -0.20725883543491364, -0.16381751000881195, 0.2578275501728058, 0.12992680072784424, -0.14162969589233398, 0.07295346260070801, -0.028992174193263054, 0.04318320378661156, 0.14290139079093933, 0.18143180012702942, 0.2728031873703003, 0.20612357556819916, 0.2875042259693146, -0.2630433738231659, -0.29799824953079224, 0.002416982315480709, -0.2971060276031494, 0.12026806175708771, -0.4114879071712494, 0.055293336510658264, 0.01570052281022072, -0.0129436906427145, -0.12510128319263458, -0.18613965809345245, -0.10622308403253555, -0.30654633045196533, 0.2142319232225418, -0.01919812150299549, -0.055579159408807755, 0.10577928274869919, 0.07516921311616898, 0.054471079260110855, 0.15870016813278198, 0.2208811491727829, 0.06694217026233673, 0.18820689618587494, 0.1490587592124939, 0.009920569136738777, -0.26234641671180725, -0.3625198006629944, -0.14888066053390503, 0.29320836067199707, 0.15689443051815033, 0.19293008744716644, -0.1504870057106018, 0.17262573540210724, 0.037135008722543716, -0.3894582986831665, -0.3378565311431885, 0.14205904304981232, 0.06527853012084961, -0.13386555016040802, 0.20129458606243134, 0.06911610811948776, 0.02058381587266922, -0.08396819978952408, -0.3144057095050812, -0.11966626346111298, -0.0054991962388157845, -0.07647247612476349, 0.04634963348507881, 0.11473436653614044], [-0.33738604187965393, -0.3258358836174011, -0.24831578135490417, -0.09279212355613708, -0.06683202087879181, 0.311009019613266, 0.12497588992118835, 0.08129538595676422, -0.13649411499500275, 0.12611040472984314, 0.21922703087329865, 0.3085004985332489, 0.26749521493911743, -0.1029144674539566, 0.09400171041488647, -0.07855876535177231, -0.16678060591220856, -0.11325275897979736, -0.20085781812667847, 0.02118559740483761, -0.20361904799938202, 0.124154232442379, -0.24052786827087402, 0.12022396922111511, 0.15993724763393402, 0.22378091514110565, 0.16343948245048523, -0.05509009212255478, 0.26354044675827026, 0.1508619785308838, 0.07047772407531738, -0.27679958939552307, 0.224622905254364, -0.04618607833981514, 0.23952412605285645, 0.008657070808112621, 0.24335122108459473, 0.24278481304645538, -0.19400185346603394, -0.27702954411506653, -0.0664963498711586, -0.11163104325532913, -0.23776774108409882, 0.26262032985687256, -0.17344091832637787, 0.31312185525894165, -0.33872365951538086, 0.05617725849151611, 0.3443264365196228, 0.08091913908720016, 0.240653857588768, 0.0016594474436715245, -0.2426450550556183, -0.1628054827451706, -0.19012320041656494, 0.2675395607948303, -0.3894211947917938, -0.3649021089076996, 0.27586475014686584, 0.20990687608718872, -0.3839402198791504, -0.11949534714221954, -0.0585448332130909, 0.07538613677024841], [-0.15230371057987213, 0.22370536625385284, -0.02221560850739479, 0.07877836376428604, 0.23594631254673004, 0.2809731662273407, -0.0027828833553940058, 0.29080453515052795, -0.09797196090221405, 0.12051880359649658, -0.07649999856948853, -0.22953416407108307, 0.23417063057422638, 0.06158389896154404, 0.1714605838060379, -0.25707465410232544, 0.11789487302303314, -0.011570003814995289, -0.34568777680397034, -0.1695750653743744, -0.059540338814258575, 0.04010125249624252, -0.2518695890903473, -0.3601716458797455, 0.1681729406118393, -0.019024673849344254, 0.2300945371389389, -0.08348269760608673, -0.1265375167131424, -0.24161995947360992, 0.32201045751571655, 0.25499361753463745, 0.26717841625213623, 0.17643728852272034, 0.34611019492149353, 0.10821032524108887, 0.26308414340019226, -0.15353043377399445, -0.09492836892604828, 0.20304884016513824, 0.013965955004096031, -0.11916350573301315, 0.3257727026939392, -0.21311478316783905, -0.03705612197518349, 0.24776116013526917, -0.3519112169742584, 0.03941217064857483, 0.13635292649269104, 0.02629176899790764, 0.04663842171430588, -0.37504202127456665, -0.07510463893413544, -0.08267870545387268, 0.14827483892440796, 0.3241322338581085, 0.12624268233776093, 0.15527203679084778, -0.2956487536430359, 0.2141820788383484, -0.08242852985858917, -0.1694432944059372, 0.004626798443496227, -0.16626621782779694], [0.07946405559778214, -0.24077096581459045, 0.2423134744167328, -0.11851415038108826, -0.20378684997558594, -0.07568224519491196, -0.18679367005825043, 0.11276943981647491, -0.24939604103565216, 0.2410450577735901, -0.10365787148475647, -0.06369254738092422, 0.18002766370773315, -0.18325594067573547, -0.18946433067321777, 0.2722751796245575, 0.09705740213394165, -0.26475557684898376, 0.15923315286636353, -0.11567138880491257, 0.026579853147268295, -0.1927235871553421, -0.4041498601436615, -0.12490474432706833, 0.11350841820240021, 0.17405502498149872, 0.1586817502975464, 0.023074371740221977, -0.007043232209980488, -0.20614469051361084, 0.029913974925875664, -0.10999487340450287, 0.35133063793182373, 0.20195278525352478, -0.29313039779663086, 0.27177196741104126, -0.2577914297580719, -0.07618042081594467, -0.13906212151050568, 0.2777063846588135, 0.1851063072681427, 0.01125333085656166, -0.14343978464603424, -0.4147336184978485, -0.26685652136802673, 0.16794145107269287, -0.09383152425289154, 0.2417556494474411, -0.03618566319346428, 0.015512239187955856, -0.030097320675849915, 0.31916508078575134, -0.06683705002069473, -0.2669651508331299, 0.2912721633911133, -0.04087410494685173, 0.14338801801204681, 0.246041938662529, -0.14688308537006378, -0.2017904818058014, -0.022135430946946144, 0.16254140436649323, 0.06739706546068192, -0.2839462459087372], [-0.06065549701452255, -0.0687134861946106, -0.2387644648551941, -0.2701646685600281, 0.09471037238836288, 0.24219372868537903, 0.23798368871212006, -0.23432597517967224, -0.05977099761366844, 0.20080222189426422, -0.02916218712925911, 0.027388637885451317, -0.2761443853378296, 0.02622952125966549, 0.1771499067544937, 0.35674309730529785, -0.11073289066553116, -0.08546897023916245, 0.05622582882642746, 0.2763015031814575, -0.152931347489357, -0.03910777345299721, -0.03862845152616501, -0.03203527256846428, -0.19003987312316895, 0.2977803647518158, -0.12299934029579163, 0.04741005226969719, 0.050279807299375534, 0.15944677591323853, -0.179046168923378, 0.26849982142448425, 0.0395803265273571, 0.030218804255127907, -0.1767614185810089, -0.29968515038490295, 0.19629111886024475, 0.0931454598903656, 0.21569515764713287, 0.10493557900190353, -0.2688254714012146, -0.3095257580280304, 0.16667482256889343, 0.0032967773731797934, 0.030291924253106117, 0.040592409670352936, -0.37155190110206604, -0.027586571872234344, 0.15166456997394562, -0.2748206853866577, -0.14909285306930542, 0.16999337077140808, 0.039582759141922, 0.09322122484445572, 0.18036113679409027, -0.19084742665290833, -0.2786654233932495, 0.2168067991733551, 0.06596650928258896, 0.32541462779045105, -0.2574926018714905, -0.2628394663333893, -0.2485605925321579, 0.16564154624938965], [-0.02754015289247036, 0.2499491572380066, -0.2724267542362213, 0.1656821072101593, -0.13898232579231262, -0.17682206630706787, -0.2915361821651459, -0.0032959834206849337, -0.24890072643756866, -0.11191242933273315, 0.3103063702583313, 0.04927205666899681, 0.09480778872966766, 0.29347890615463257, -0.3143971264362335, 0.024946771562099457, -0.250434011220932, 0.21049167215824127, -0.1346113234758377, -0.28058934211730957, -0.01593640260398388, -0.14288443326950073, 0.027416422963142395, 0.30018529295921326, -0.2679232060909271, -0.3769979476928711, -0.1533791869878769, 0.2977127730846405, -0.262679785490036, -0.042786888778209686, 0.24831189215183258, -0.2600019872188568, -0.025271283462643623, -0.22040683031082153, -0.12520943582057953, -0.059692736715078354, -0.04920352250337601, -0.23681148886680603, 0.08829161524772644, -0.22957926988601685, -0.11533450335264206, -0.22164897620677948, -0.3026098310947418, 0.10770781338214874, 0.11307089030742645, -0.1321922093629837, 0.050978485494852066, -0.028861302882432938, -0.132926806807518, -0.10288780927658081, -0.18257509171962738, -0.0021406905725598335, 0.08953054994344711, -0.2139788717031479, -0.1809253990650177, 0.1731305569410324, 0.07781998813152313, 0.26683956384658813, 0.1440364569425583, 0.1230003610253334, -0.08424966782331467, 0.07722846418619156, -0.18005156517028809, 0.02220243774354458], [0.20067980885505676, -0.1845938116312027, 0.0834651067852974, -0.0645507276058197, 0.06219096481800079, -0.08277101814746857, -0.11775229126214981, -0.017017127946019173, 0.020887242630124092, -0.07910681515932083, -0.14666712284088135, -0.2674596309661865, -0.3347598612308502, -0.012783916667103767, -0.07336898148059845, -0.19935287535190582, -0.16949592530727386, 0.2237999439239502, -0.32619592547416687, 0.182540163397789, 0.27218592166900635, -0.0354340523481369, -0.16848841309547424, -0.1530245840549469, 0.11520962417125702, -0.09213975816965103, -0.004005837719887495, 0.2795167863368988, -0.326717734336853, 0.07299195975065231, 0.2845936119556427, -0.2203899323940277, -0.20688655972480774, 0.14486250281333923, 0.07289467751979828, -0.10546217113733292, 0.20527589321136475, 0.16384416818618774, 0.21581336855888367, -0.22734570503234863, -0.2936502695083618, -0.2896784842014313, 0.015613127499818802, -0.2665775418281555, -0.3662906885147095, -0.19866392016410828, 0.38185930252075195, 0.15583370625972748, 0.23596595227718353, -0.21821340918540955, -0.21408841013908386, -0.06715045124292374, 0.16452667117118835, -0.29485878348350525, -0.09920615702867508, 0.24249997735023499, 0.2339494377374649, 0.23076069355010986, 0.22197353839874268, 0.24152015149593353, -0.14924155175685883, 0.3450251519680023, -0.10373613983392715, 0.015778882429003716], [0.12454833835363388, -0.2700812518596649, 0.26388272643089294, -0.06572934985160828, -0.13041634857654572, -0.2839511036872864, 0.0508173443377018, 0.07626863569021225, 0.19274909794330597, 0.15020982921123505, -0.13805875182151794, -0.2944406270980835, 0.06783168017864227, -0.2602124810218811, -0.05404946208000183, 0.3872547745704651, 0.3207472860813141, -0.19552165269851685, 0.37206408381462097, -0.18311230838298798, -0.3098166584968567, -0.020013265311717987, 0.2714170217514038, 0.12992772459983826, -0.17888101935386658, 0.3244338035583496, -0.23705287277698517, -0.24693496525287628, 0.18224382400512695, 0.2037247121334076, 0.04110846668481827, 0.11120741069316864, -0.23544377088546753, -0.29620182514190674, -0.2740597426891327, 0.27617818117141724, 0.08487628400325775, -0.12965820729732513, -0.14704620838165283, 0.2012159675359726, 0.04674039036035538, 0.06626244634389877, -0.16093593835830688, -0.17597666382789612, -0.17110495269298553, 0.14149907231330872, -0.05204463377594948, 0.2647341191768646, -0.14316292107105255, -0.2988850176334381, 0.022721797227859497, 0.17109209299087524, -0.223883256316185, -0.26863881945610046, -0.3478256165981293, -0.38471636176109314, -0.1687934696674347, -0.18211859464645386, -0.011111434549093246, 0.12380144000053406, -0.041837070137262344, 0.4046711027622223, 0.4127696752548218, -0.3338375985622406], [-0.31894129514694214, -0.19626842439174652, 0.30002492666244507, 0.0409887358546257, -0.029875745996832848, -0.20081709325313568, 0.06906434148550034, 0.24818089604377747, -0.1654377281665802, -0.156450554728508, 0.19209298491477966, -0.33129432797431946, 0.26278918981552124, -0.03435686603188515, 0.21154828369617462, -0.16516225039958954, -0.08339366316795349, 0.06248314678668976, 0.07104181498289108, 0.0894026979804039, -0.18179404735565186, 0.3169645667076111, -0.07791931927204132, -0.20151467621326447, 0.01671612448990345, 0.0710749700665474, -0.08177468925714493, 0.1935964673757553, 0.22777007520198822, 0.08755112439393997, 0.020743373781442642, 0.15416431427001953, -0.13410639762878418, 0.06280127912759781, 0.23232333362102509, -0.13132813572883606, -0.13141342997550964, 0.1845996081829071, -0.050943661481142044, 0.4086208641529083, 0.0837959423661232, -0.1587129682302475, -0.32385170459747314, -0.07573136687278748, -0.05052466318011284, 0.27794507145881653, 0.09368064254522324, -0.21741123497486115, -0.07811941206455231, -0.4043287932872772, 0.307455837726593, 0.26307329535484314, -0.18805943429470062, -0.02925953082740307, -0.33135345578193665, 0.1467166244983673, 0.030706627294421196, 0.23528195917606354, -0.2710458040237427, -0.12080010771751404, 0.04281368851661682, -0.29030320048332214, 0.2211926281452179, 0.14002244174480438], [-0.2172616869211197, 0.03383375331759453, -0.09248337894678116, -0.022205520421266556, 0.21559758484363556, -0.31598153710365295, 0.2556939721107483, 0.18696323037147522, -0.22401629388332367, 0.09798996150493622, -0.0945330411195755, 0.27233773469924927, 0.24126553535461426, 0.29196956753730774, 0.20021913945674896, 0.10761363804340363, 0.3007400631904602, -0.2957706153392792, -0.3022010624408722, -0.19769741594791412, 0.0819559320807457, -0.1278189718723297, -0.02543339692056179, 0.0245719812810421, 0.008992007933557034, 0.096392922103405, -0.29455429315567017, -0.2928309142589569, 0.046227775514125824, -0.20594288408756256, 0.31407204270362854, 0.12918446958065033, 0.05606156960129738, -0.06855659186840057, 0.1482733190059662, -0.1788778454065323, 0.13368605077266693, -0.15050795674324036, 0.06915111094713211, -0.16320744156837463, 0.17135857045650482, 0.22496168315410614, -0.14966881275177002, 0.14538787305355072, -0.176840677857399, -0.14142026007175446, -0.16404293477535248, 0.20143069326877594, -0.16172964870929718, -0.22073979675769806, 0.23030617833137512, 0.35422396659851074, 0.3291706144809723, -0.15078940987586975, 0.23264750838279724, 0.2042159140110016, -0.28821006417274475, 0.15575668215751648, 0.023400915786623955, 0.05437062680721283, -0.11628426611423492, 0.050757817924022675, -0.16489210724830627, -0.15615656971931458], [-0.14658382534980774, 0.22843380272388458, 0.21468210220336914, -0.11200812458992004, 0.34314820170402527, 0.17780062556266785, 0.004176535177975893, -0.0019829825032502413, 0.11740482598543167, -0.2774277627468109, 0.14172685146331787, -0.25333961844444275, 0.13594746589660645, 0.15166324377059937, -0.017616331577301025, 0.2102922946214676, -0.10887769609689713, 0.014515374787151814, -0.012235957197844982, 0.1507864147424698, -0.08508855104446411, -0.1527153104543686, -0.2485242486000061, -0.18135575950145721, -0.05884769186377525, -0.30829381942749023, 0.26833444833755493, 0.1391954869031906, -0.08406061679124832, 0.41354748606681824, -0.016124144196510315, -0.06772670894861221, -0.2412249743938446, 0.27432185411453247, -0.19712196290493011, 0.05582904443144798, 0.006539986003190279, 0.12620395421981812, 0.29390811920166016, 0.26089316606521606, 0.052625514566898346, -0.042397283017635345, -0.17099355161190033, -0.10326002538204193, 0.01260724663734436, -0.15045081079006195, 0.18124598264694214, -0.2642999589443207, 0.26409417390823364, 0.2667887806892395, -0.011692751199007034, 0.13978278636932373, 0.08790506422519684, -0.13596844673156738, -0.3085232079029083, -0.17368921637535095, -0.2669195234775543, -0.22763359546661377, -0.21096913516521454, 0.01724882423877716, -0.0928923711180687, 0.2054726630449295, 0.05353596433997154, -0.07837287336587906], [0.28489071130752563, 0.035655029118061066, 0.08871777355670929, 0.1161995679140091, -0.18052110075950623, 0.26704034209251404, -0.22439084947109222, -0.22341479361057281, 0.07238941639661789, 0.10736106336116791, 0.24302606284618378, -0.004769316408783197, 0.3255303204059601, -0.014851388521492481, 0.37447765469551086, -0.4144245982170105, -0.30674004554748535, 0.153044193983078, -0.054582517594099045, 0.08553394675254822, 0.1929846704006195, 0.10450918972492218, 0.19116076827049255, 0.027379130944609642, -0.08276647329330444, -0.18396209180355072, 0.02496771700680256, 0.14290954172611237, 0.008221296593546867, 0.06848185509443283, 0.06846072524785995, 0.27251914143562317, 0.3631482422351837, -0.10663064569234848, -0.4214881956577301, 0.04017938673496246, 0.06988894194364548, -0.10685617476701736, -0.27999383211135864, 0.06490224599838257, 0.3056182861328125, -0.27841824293136597, -0.12636111676692963, 0.018985353410243988, -0.21746641397476196, -0.0009561736951582134, -0.0723436251282692, -0.157161146402359, 0.009123287163674831, 0.11539983004331589, 0.06851273775100708, -0.33615046739578247, 0.2727840542793274, -0.18997441232204437, -0.08002056181430817, 0.20735344290733337, 0.19903287291526794, 0.21096357703208923, -0.19462823867797852, 0.16678962111473083, 0.2903844118118286, -0.22311213612556458, 0.20543359220027924, 0.08830267190933228], [-0.0008051163167692721, -0.3627547025680542, -0.12599675357341766, 0.08189279586076736, 0.20176361501216888, -0.24915365874767303, -0.2128017395734787, 0.24309982359409332, -0.24044935405254364, 0.04457376152276993, 0.023732421919703484, 0.023122798651456833, 0.2576269507408142, -0.30410096049308777, -0.09423473477363586, 0.04824125021696091, 0.25005200505256653, -0.0340658500790596, 0.08345381170511246, 0.04600774869322777, -0.20477977395057678, 0.04970026761293411, -0.22714193165302277, -0.05311213806271553, 0.1577991098165512, -0.17090089619159698, 0.11006779968738556, -0.315370112657547, -0.04165985435247421, 0.3201334774494171, 0.0016240940894931555, 0.08427264541387558, 0.26967793703079224, -0.3207454979419708, 0.1872643083333969, 0.27844974398612976, 0.009497310034930706, 0.20490169525146484, -0.14064911007881165, -0.06123358756303787, -0.1633698046207428, -0.25357747077941895, -0.260351300239563, -0.2057207077741623, -0.19064894318580627, -0.08393702656030655, 0.16230536997318268, 0.13708551228046417, 0.12502284348011017, 0.265724241733551, -0.06242694705724716, 0.09718338400125504, -0.12653978168964386, -0.09682876616716385, -0.0675116702914238, 0.010043780319392681, -0.2704203724861145, 0.3250390291213989, -0.008280348032712936, -0.2706562578678131, 0.13058333098888397, -0.05668511241674423, -0.113613061606884, 0.15324001014232635], [-0.04793050140142441, 0.18624211847782135, -0.04169255122542381, 0.029150912538170815, 0.1641092151403427, -0.164497509598732, -0.06879477947950363, 0.013287982903420925, 0.10542558133602142, 0.25626814365386963, 0.07296935468912125, -0.3203517198562622, 0.19025057554244995, -0.3561253547668457, 0.25590014457702637, -0.3707595467567444, 0.19294996559619904, -0.009478322230279446, 0.0396491102874279, 0.10034248232841492, 0.18952471017837524, 0.044466931372880936, -0.24086816608905792, 0.40007975697517395, -0.0384722463786602, 0.24306492507457733, 0.10916635394096375, 0.18217140436172485, 0.03774164244532585, 0.08720999211072922, 0.19669753313064575, -0.22661952674388885, 0.1961848884820938, -0.15665240585803986, 0.009836401790380478, 0.33431991934776306, -0.008927258662879467, 0.05827537924051285, 0.20554763078689575, -0.2673035264015198, -0.14988699555397034, -0.21227125823497772, 0.08454373478889465, 0.25158414244651794, -0.21216779947280884, 0.16672253608703613, 0.24648761749267578, 0.07533285766839981, -0.27507853507995605, 0.10466743260622025, 0.17734524607658386, 0.3286035656929016, 0.003053233027458191, 0.07729633152484894, 0.251851886510849, -0.2768159508705139, 0.381645143032074, 0.04939114302396774, -0.022835655137896538, -0.23974111676216125, -0.04429955407977104, -0.2012062817811966, -0.23027417063713074, 0.1647336632013321], [-0.09415119886398315, -0.14885739982128143, -0.05854322388768196, -0.01770804263651371, 0.15866310894489288, 0.26466789841651917, -0.030813852325081825, 0.19845382869243622, -0.03565889969468117, 0.24869497120380402, 0.4010341763496399, 0.0034575217869132757, -0.22683265805244446, 0.37365758419036865, 0.01965293474495411, 0.272934228181839, -0.3551512658596039, -0.3266447186470032, 0.21509648859500885, 0.2814256250858307, 0.23075909912586212, -0.21391615271568298, -0.03936978802084923, -0.36912861466407776, -0.19298423826694489, 0.0474272184073925, -0.20361004769802094, -0.07167604565620422, 0.33924609422683716, 0.1711382418870926, -0.017679261043667793, -0.3436530828475952, 0.3007851839065552, 0.15994925796985626, -0.21884773671627045, 0.18347232043743134, -0.013156240805983543, -0.07451758533716202, 0.10929771512746811, -0.11261796951293945, 0.13363802433013916, -0.03475723788142204, -0.2171809822320938, -0.04180743545293808, -0.09114670008420944, -0.34215065836906433, -0.25670987367630005, -0.2134273201227188, 0.14921370148658752, 0.3371557593345642, 0.07368112355470657, 0.3230942189693451, -0.2152296006679535, -0.37302130460739136, 0.009222629480063915, -0.2177545130252838, 0.07266855984926224, -0.013770041987299919, 0.08954036235809326, 0.03829959034919739, -0.057559702545404434, 0.02747451141476631, 0.16468027234077454, 0.04551118239760399], [-0.09768956154584885, 0.11769992113113403, -0.17620286345481873, 0.1637020856142044, 0.2729167640209198, -0.3147202134132385, 0.4797832667827606, 0.13547122478485107, -0.31990718841552734, -0.24893547594547272, -0.025406356900930405, -0.06169591099023819, 0.12947572767734528, -0.18678048253059387, -0.1140844002366066, -0.018089137971401215, 0.21769115328788757, -0.11420200020074844, 0.12902463972568512, -0.06355240195989609, -0.19771678745746613, 0.31519967317581177, -0.024348625913262367, -0.1298096925020218, 0.1885470151901245, -0.13636277616024017, -0.176969975233078, 0.2605477571487427, -0.10446537286043167, -0.08755224943161011, 0.05522792413830757, -0.18728622794151306, -0.3170810341835022, 0.21191264688968658, -0.14703917503356934, -0.18263281881809235, 0.2783169448375702, 0.15190434455871582, -0.24272273480892181, -0.028325503692030907, 0.24226118624210358, -0.2824743092060089, 0.3560402989387512, -0.18108691275119781, -0.3009927272796631, 0.006187408231198788, -0.35156601667404175, -0.2859784960746765, -0.18508513271808624, 0.3016924262046814, -0.29688799381256104, 0.22708286345005035, -0.15082032978534698, -0.028771480545401573, -0.3507506549358368, 0.1198294460773468, -0.3258691132068634, 0.10691811889410019, 0.3263839781284332, -0.0548863559961319, 0.3714032769203186, -0.41111037135124207, -0.1968025118112564, -0.32562729716300964], [0.3086841106414795, -0.21922646462917328, -0.05411159619688988, -0.3358583152294159, 0.29702267050743103, -0.29749611020088196, -0.40249940752983093, -0.23882867395877838, 0.011925186030566692, -0.06607992947101593, -0.12055795639753342, 0.1646588295698166, 0.14428748190402985, -0.23732975125312805, -0.016015321016311646, 0.3389202356338501, 0.24043849110603333, -0.15279586613178253, 0.14717164635658264, 0.36531776189804077, -0.08469229191541672, -0.14413608610630035, -0.04674458131194115, 0.15625539422035217, -0.09000936895608902, 0.15762093663215637, 0.2962910234928131, 0.026982959359884262, 0.1067594587802887, 0.0253980103880167, 0.152908056974411, 0.3179250657558441, 0.23156966269016266, 0.24649393558502197, 0.17884056270122528, -0.17603474855422974, 0.14388157427310944, 0.1878422498703003, 0.02221451699733734, -0.324581503868103, -0.2897714674472809, -0.2398769110441208, -0.3981090188026428, 0.3166140019893646, -0.23674209415912628, -0.2424532026052475, 0.06412578374147415, -0.07734043151140213, -0.2277204692363739, 0.24063749611377716, 0.01815108023583889, 0.07473304122686386, -0.3897159993648529, -0.07688890397548676, 0.21092922985553741, 0.0928443968296051, -0.3763444125652313, 0.22140495479106903, 0.23765552043914795, -0.200712189078331, -0.03192881867289543, -0.16941986978054047, 0.3420805037021637, 0.16950011253356934], [0.06569501757621765, -0.12839330732822418, -0.02016298845410347, -0.3256102502346039, -0.05768284574151039, -0.015133467502892017, -0.20263856649398804, -0.0507642962038517, -0.038806330412626266, 0.2525405287742615, -0.1219092383980751, 0.40153902769088745, 0.0708271786570549, 0.2650027871131897, -0.229961097240448, -0.12743805348873138, 0.1412239968776703, 0.14557763934135437, -0.26100775599479675, 0.00037452683318406343, -0.2091955691576004, -0.18503595888614655, -0.1335654854774475, -0.22594903409481049, 0.2490626722574234, 0.01359773799777031, -0.24157774448394775, -0.07999726384878159, -0.06640660017728806, -0.05960956960916519, 0.04013246297836304, -0.37246084213256836, -0.14712046086788177, -0.15232720971107483, -0.11264854669570923, 0.24079321324825287, -0.15701168775558472, 0.2134338617324829, -0.11272206157445908, 0.07221649587154388, -0.037139393389225006, 0.41499048471450806, -0.18751780688762665, 0.19348372519016266, 0.14031264185905457, -0.12215835601091385, -0.09480035305023193, 0.08539363741874695, 0.0643535628914833, -0.10618951171636581, -0.43585896492004395, -0.07079720497131348, 0.23056957125663757, 0.21029621362686157, -0.40295377373695374, -0.1444256454706192, -0.0670912116765976, -0.3088950216770172, -0.3558650016784668, -0.04918963834643364, -0.19625191390514374, -0.22353412210941315, -0.2990560233592987, 0.09750890731811523]], "bias": [0.11715459078550339, 0.07593169063329697, 0.041399385780096054, 0.0861961841583252, 0.0029412296134978533, 0.011747683398425579, -0.07365699857473373, 0.05139755457639694, -0.12992948293685913, -0.10678353160619736, -0.10642796754837036, 0.10751975327730179, 0.17187415063381195, 0.06350734829902649, 0.1257995367050171, -0.05583656206727028, 0.03399563580751419, -0.05094897374510765, -0.09643986821174622, 0.012399883940815926, -0.06785455346107483, -0.14902977645397186, 0.12602271139621735, -0.022204725071787834, 0.14611776173114777, -0.06966818124055862, 0.12692542374134064, -0.11983024328947067, -0.12818831205368042, -0.05554010719060898, 0.08561030775308609, 0.030385971069335938, 0.06187407299876213, 0.005162371788173914, 0.03254076838493347, 0.12402904033660889, -0.00968238152563572, 0.03474462777376175, 0.10021668672561646, -0.09664873778820038, -0.00047338297008536756, 0.11866366863250732, 0.08493225276470184, 0.07091735303401947, -0.004204996861517429, -0.123255155980587, 0.07010632008314133, -0.07218173891305923, -0.049797747284173965, -0.006047874689102173, 0.16086478531360626, -0.08831113576889038, 0.06626522541046143, 0.0002144992904504761, 0.0329347662627697, -0.009516682475805283, 0.04157664254307747, 0.03635241836309433, 0.10204631090164185, 0.04545733332633972, -0.05547918751835823, 0.014735043980181217, -0.1526668816804886, 0.05849073454737663]}, {"weight": [[-0.03743792697787285, 0.13315589725971222, 0.31298211216926575, -0.0002741998468991369, 0.01592167653143406, 0.26295527815818787, 0.15009507536888123, -0.030971452593803406, 0.25186970829963684, 0.030331019312143326, 0.21968138217926025, 0.33099228143692017, 0.14248105883598328, 0.21639838814735413, 0.4512481689453125, 0.1042463555932045, 0.21724660694599152, 0.21732555329799652, -0.15061838924884796, 0.47119224071502686, 0.022988369688391685, -0.22112642228603363, -0.21344614028930664, -0.25351205468177795, -0.22697795927524567, -0.22027215361595154, 0.180214524269104, 0.04580314829945564, -0.14707061648368835, 0.26915982365608215, -0.32602211833000183, -0.11034971475601196, 0.25365567207336426, 0.02465321496129036, -0.013956265524029732, 0.15066885948181152, 0.20104309916496277, -0.30955177545547485, 0.3431302011013031, 0.24883481860160828, 0.037100452929735184, -0.14956079423427582, 0.2251412570476532, 0.056934524327516556, -0.16250859200954437, -0.21270038187503815, 0.19622217118740082, -0.10090702027082443, -0.04987834766507149, -0.1654488444328308, 0.12402933090925217, 0.004916770849376917, -0.3429848849773407, -0.10000140964984894, 0.05415424704551697, -0.37727129459381104, 0.05418502166867256, 0.2759537696838379, -0.2963685095310211, 0.25133171677589417, -0.3926134705543518, -0.4078241288661957, -0.22435541450977325, 0.15860490500926971], [0.33629339933395386, 0.046238869428634644, -0.27168360352516174, -0.30167967081069946, 0.3578493297100067, -0.21053026616573334, 0.2937331795692444, -0.3879750072956085, -0.19784896075725555, 0.029581736773252487, 0.33447563648223877, 0.00025281403213739395, -0.23266030848026276, 0.10039254277944565, 0.2625977694988251, 0.21195662021636963, -0.2521093189716339, -0.20761552453041077, -0.008935990743339062, -0.06780838966369629, -0.17984582483768463, -0.04973065108060837, 0.24671374261379242, 0.2092030793428421, -0.021291501820087433, -0.18050362169742584, 0.1918252855539322, 0.2731199264526367, 0.3239782750606537, -0.03871768340468407, -0.20308777689933777, 0.1443217694759369, -0.12067189812660217, -0.1279141902923584, -0.28820401430130005, -0.18112272024154663, 0.11199339479207993, -0.3024894893169403, -0.05588068440556526, -0.293369859457016, -0.22749000787734985, 0.21889996528625488, -0.19047361612319946, -0.2597113251686096, 0.14696264266967773, 0.32843005657196045, -0.1573561728000641, 0.19016216695308685, -0.1986258327960968, 0.04091290757060051, -0.16231556236743927, 0.09592217206954956, 0.042507197707891464, -0.09171298891305923, -0.19167934358119965, 0.20985442399978638, -0.033433977514505386, -0.23294124007225037, 0.30713748931884766, 0.09863211959600449, -0.07836529612541199, -0.08775994926691055, -0.06516792625188828, -0.1926671415567398], [-0.1283140331506729, -0.25457853078842163, -0.08727534115314484, -0.033019598573446274, 0.004915272351354361, 0.29280465841293335, 0.1392146199941635, 0.16225862503051758, 0.19229359924793243, 0.12213052809238434, -0.1611921489238739, -0.19493164122104645, -0.17267075181007385, 0.2843897342681885, 0.18395908176898956, 0.035797491669654846, 0.2394091784954071, 0.14120279252529144, -0.16311974823474884, -0.2232617437839508, -0.020165041089057922, -0.33970898389816284, 0.4694860875606537, 0.08650459349155426, 0.2368621528148651, -0.045187242329120636, 0.20225182175636292, -0.13722264766693115, -0.2491634637117386, 0.20675595104694366, 0.09123558551073074, -0.2430008053779602, 0.17070995271205902, -0.0060367523692548275, 0.07116057723760605, -0.18801023066043854, -0.0006735583301633596, -0.20813137292861938, 0.18020980060100555, -0.3808797597885132, -0.20080138742923737, -0.18559491634368896, 0.018103376030921936, -0.008136085234582424, -0.021298814564943314, 0.08252155035734177, 0.29378190636634827, 0.322360098361969, -0.33186018466949463, 0.09870406240224838, -0.1799662560224533, 0.17694686353206635, 0.36295753717422485, 0.005093781277537346, -0.48153236508369446, 0.2565615773200989, 0.25819531083106995, 0.005775964818894863, 0.25288528203964233, -0.1611063927412033, 0.360588014125824, 0.06757311522960663, 0.4742293357849121, -0.20073720812797546], [0.17439858615398407, 0.1076185554265976, 0.10579705983400345, 0.2787034213542938, -0.040618896484375, 0.44300368428230286, 0.2606129050254822, -0.061463192105293274, 0.16370616853237152, 0.32036712765693665, 0.0697677880525589, 0.031027264893054962, -0.24111859500408173, -0.3085740804672241, -0.030494019389152527, 0.13723866641521454, -0.21355535089969635, 0.16631026566028595, 0.22601784765720367, -0.2389216423034668, -0.14895160496234894, 0.056518085300922394, -0.28697535395622253, -0.1122901439666748, 0.24055227637290955, -0.21595585346221924, -0.3045605421066284, -0.0558893159031868, -0.1993779093027115, 0.19102202355861664, -0.13200363516807556, -0.0292991753667593, -0.20082157850265503, 0.26791828870773315, -0.07414256036281586, -0.03920253738760948, 0.0722413882613182, -0.11160507053136826, 0.2925727367401123, 0.03403763473033905, -0.1921919584274292, -0.2353404313325882, 0.012149039655923843, 0.3417115807533264, 0.13339638710021973, -0.3662622272968292, -0.3851901888847351, -0.20133918523788452, -0.11073250323534012, 0.11950510740280151, -0.08998524397611618, -0.1745714396238327, -0.10005857050418854, 0.3117322027683258, -0.027077456936240196, -0.03307385370135307, -0.09626765549182892, 0.05765170603990555, -0.2254456728696823, -0.15539366006851196, -0.07535547018051147, -0.022412167862057686, 0.0941261425614357, -0.002431583357974887], [0.2674541175365448, -0.14306820929050446, -0.2187701016664505, -0.05526530742645264, -0.2730181813240051, 0.21898244321346283, -0.18517714738845825, -0.13923044502735138, -0.27254706621170044, -0.08341897279024124, 0.28983280062675476, 0.0475994348526001, 0.1643040031194687, 0.1789274513721466, -0.09972621500492096, -0.19100156426429749, 0.06511030346155167, -0.320987343788147, 0.0005942803691141307, 0.1896585077047348, -0.36362937092781067, 0.21388961374759674, 0.25317540764808655, -0.1830742508172989, 0.21542835235595703, -0.3450922667980194, -0.2160494029521942, -0.2996816039085388, -0.005328624043613672, 0.09243430942296982, -0.20815712213516235, -0.17196165025234222, -0.19999954104423523, 0.047269996255636215, 0.1535501927137375, 0.10849873721599579, 0.10868756473064423, 0.29645946621894836, 0.085470050573349, -0.04601002484560013, -0.1237487941980362, -0.283002644777298, -0.33344608545303345, 0.10252498835325241, -0.1658380776643753, 0.24265767633914948, 0.2828950583934784, -0.00954248383641243, 0.09840720891952515, 0.0038839734625071287, -0.2355567067861557, -0.09870979934930801, -0.05562836676836014, -0.024785147979855537, -0.0445132702589035, 0.11331270635128021, 0.13782015442848206, -0.10408519953489304, 0.23197944462299347, -0.26972344517707825, -0.007887138053774834, 0.1824774593114853, 0.1563781350851059, -0.35086801648139954], [-0.07747168838977814, -0.25506341457366943, 