{"mlp": {"layers": [{"weights": [[-0.015295741148293018, -0.11557889729738235, 0.014031968079507351, 0.026502935215830803, -0.004657919052988291, -0.04114373400807381, 0.023330824449658394, 0.07879309356212616, 0.028789501637220383, 0.013745510950684547, -0.03413033112883568, -0.0004770120431203395, 0.022047895938158035, -0.000245313422055915, 0.015067845582962036, 0.04453884810209274, -0.06953579187393188, -0.009893945418298244, 0.014470838941633701, 0.008161378093063831, -0.01977113075554371, -0.04985690116882324, -0.004508800804615021, 0.021777942776679993, 0.005561088677495718, 0.04162278771400452, 0.04330022633075714, 0.0041702380403876305, 0.046662960201501846, -0.08676334470510483, 0.020830802619457245, -0.03577820211648941, 0.13586518168449402, 0.1444293111562729, 0.018399754539132118, 0.022258300334215164, -0.008433470502495766, -0.02245466597378254, 0.007908441126346588, -0.0025004746858030558, -0.06608124077320099, 0.063851498067379, -0.014674024656414986, -0.015659121796488762, -0.019167039543390274, -0.02046063356101513, -0.045063842087984085, 0.001705644652247429, 0.0020398858468979597, 0.022264419123530388, 0.051785990595817566, 0.0244530588388443, 0.038022518157958984, -0.0405779704451561, 0.039990559220314026, 0.007895500399172306, -0.01888938993215561, 0.019199227914214134, -0.003622649936005473, 0.038478463888168335, 0.05964571610093117, 0.000473740539746359, 0.015103310346603394, -0.03159526363015175, 0.029475389048457146, 0.009953089989721775, -0.04255739226937294, 0.02918458729982376, -0.027242984622716904, 0.042848940938711166, 0.040627915412187576, -0.020743869245052338, -0.011114273220300674, 0.012689167633652687, -0.006660821847617626, 0.005408376920968294, -0.001023557037115097, -0.029163552448153496, -0.029811333864927292, -0.009748158976435661, -0.016140231862664223, -0.013451802544295788, 0.020263265818357468, 0.023286988958716393, -0.01953977905213833, 0.019749511033296585, 0.03395126014947891, 0.02308506704866886, 0.00021332400501705706, -0.02126348949968815, 0.038022637367248535, 0.04704137146472931, 0.011203470639884472, 0.06948184967041016, -0.08236421644687653, -0.016083989292383194, -0.02087508700788021, 0.0001299977011512965, 0.04940824210643768, 0.003949395846575499, 0.027219664305448532, -0.010947463102638721, 0.06123540550470352, 0.012407052330672741, 0.0004960250807926059, 0.022771131247282028, -0.10351898521184921, 0.035630617290735245, 0.028461270034313202, 0.008122709579765797, -0.006968571338802576, -0.016990892589092255, -0.047476403415203094, 0.0022101951763033867, -0.07818080484867096, -0.06837105005979538, -0.040105435997247696, -0.02116219699382782, 0.07809237390756607, 0.015545114874839783, -0.019518915563821793, 0.017717814072966576, -0.08362624049186707, -0.01134644728153944, -0.04034837707877159, -0.0114476028829813, 0.024672450497746468, -0.01659967750310898, 0.00362107390537858, 0.08492876589298248, 0.09282413125038147, -0.028146134689450264, 0.010890282690525055, 0.01063871756196022, 0.0420464426279068, 0.015289729461073875, 0.03796704486012459, 0.061243560165166855, -0.014776071533560753, -0.03218560293316841, -0.03310403600335121, -0.007507204543799162, -0.057005953043699265, -0.04151689633727074, 0.0862872451543808, -0.03598150238394737, -0.038550540804862976, 0.01655411906540394, -0.03275372087955475, 0.06960993260145187, -0.02981160581111908, 0.025411970913410187, -0.014697098173201084, 0.1512385606765747, -0.0404311940073967, 0.05314985662698746, 0.019637275487184525, -0.016143497079610825, -0.051660943776369095, -0.005175514612346888, 0.04036559537053108, 0.006996639538556337, 0.034299418330192566, 0.03831920772790909, 0.011279251426458359, -0.027752244845032692, -0.008262701332569122, -0.030464867129921913, 0.09683842211961746, -0.006737363059073687, -0.037878550589084625, 0.009133675135672092, -0.0171331949532032, -0.028334807604551315, 0.00825582817196846, 0.013157923705875874, -0.08212640881538391, 0.012985705398023129, -0.09304900467395782, -0.02777673304080963, -0.04588776081800461, 0.005431417375802994, 0.04452470690011978, 0.017230335623025894, 0.002623411361128092, 0.05716220661997795, 0.0736713856458664, 0.1050870418548584, -0.042339496314525604, -0.0030927632469683886, -0.021895552054047585, -0.0125460559502244, 0.002664858940988779, -0.0013628208544105291, 0.013953257352113724, -0.045858271420001984, -0.004019995220005512, -0.027501724660396576, -0.03767135739326477, 0.03366045653820038, 0.01883680187165737, 0.0037208469584584236, 0.01683817058801651, -0.015606597065925598, 0.0008571386570110917, 0.0274392981082201, -0.02044401317834854, -0.04311828687787056, -0.04447539150714874, -0.03523034229874611, 0.013558920472860336, 0.04176320508122444, -0.024293825030326843, -0.008507462218403816, -0.005942803807556629, -0.0266683641821146, -0.037385277450084686, 0.010587567463517189, 0.03131715580821037, 0.02065354399383068, -0.033968836069107056, -0.05902353674173355, 0.1326572149991989, -0.003010235959663987, -0.06446187943220139, 0.015364935621619225, 0.11372337490320206, -0.023410003632307053, -0.031956326216459274, -0.011696715839207172, 0.03637336567044258, -0.047439467161893845, -0.025445064529776573, 0.013429820537567139, 0.014405149966478348, 0.00929081067442894, -0.06164480745792389, -0.033954862505197525, -0.02455395646393299, 0.0606791153550148, -0.01831994391977787, -0.00880179088562727, -0.1369829624891281, 0.01594674587249756, -0.058939602226018906, -0.00989685021340847, -0.014518159441649914, 0.03939151391386986, 0.015155536122620106, -0.0326547808945179, -0.10134444385766983, 0.051224224269390106, -0.1649860143661499, 0.011722922325134277, 0.045363448560237885, 0.08278890699148178, 0.035902239382267, -0.02340780384838581, 0.06475018709897995, -0.06308652460575104, 0.002587629482150078, 0.0014003803953528404, 0.040031418204307556, -0.004952398128807545, -0.03272738680243492, -0.03788278251886368, 0.01057276502251625, -0.05719875544309616, 0.007406738121062517, 0.0001604819408385083, -0.0150792570784688, -0.015000760555267334, -0.042939625680446625, 0.018557779490947723, 0.013158299960196018, 0.031884025782346725, -0.009143720380961895, 0.005664324387907982, -0.006796894129365683, -0.018175793811678886, -0.04258456453680992, -0.002701869234442711, 0.006881149020045996, 0.05949283018708229, -0.0014328226679936051, -0.0401349738240242, 0.004144458100199699, -0.015736237168312073, -0.10733536630868912, 0.00019023088680114597, -0.007894150912761688, -0.1360936313867569, -0.007027984131127596, 0.046125154942274094, -0.013288993388414383, 0.03655969351530075, 0.014953901059925556, 0.0006652182783000171, -0.003578711999580264, -0.03231709077954292, -0.009142613969743252, 0.015337072312831879, -0.03467971086502075, 0.022626357153058052, 0.006925071123987436, -0.024515973404049873, 0.025863729417324066, -0.04295380786061287, 0.002506410935893655, -0.0015733983600512147, -0.012865586206316948, 0.035385970026254654, -0.020973412320017815, -0.035385459661483765, -0.003926021046936512, 0.00882426742464304, 0.0583675242960453, 0.019483394920825958, -0.007312109228223562, 0.011790608987212181, -0.02858896367251873, -0.04686332494020462, -0.08619233965873718, 0.04122523218393326, 0.0157037191092968, 0.021241389214992523, -0.006777280941605568, -0.011386480182409286, 0.02185921184718609, 0.0048287902027368546, 0.03412477672100067, 0.02620731107890606, -0.02785932645201683, -0.032995980232954025, -0.005537501070648432, -0.02578049525618553, -0.05604580417275429, -0.005936840083450079, 0.008242331445217133, 0.02784360572695732, 0.0321572907269001, 0.07341080158948898, 0.08786650002002716, 0.020072046667337418, 0.035630080848932266, -0.035463087260723114, 0.10712511092424393, 0.047703590244054794, -0.0019668941386044025, -0.020676063373684883, 0.05323334410786629, -0.0014468292938545346, 0.042144183069467545, -0.007900722324848175, 0.018182745203375816, 0.033958498388528824, 0.02427830547094345, -0.009003511629998684, -0.008726431988179684, 0.0030703728552907705, -0.0168804619461298, 0.01054950337857008, 0.02863897942006588, 0.018839500844478607, 0.06862911581993103, 0.01988060213625431, -0.021708263084292412, -0.0003198650374542922, -0.026825325563549995, -0.033877015113830566, 0.05939459055662155, 0.006384655367583036, 0.023445183411240578, 0.0075362082570791245, 0.018679266795516014, 0.015310614369809628, 0.004892556928098202, -0.00947581510990858, -0.06559572368860245, -0.0268333051353693, 0.008183076977729797, -0.10895907878875732, -0.05315303057432175, -0.015571177005767822, -0.01592298224568367, 0.14445821940898895, 0.09333986788988113, 0.05203020200133324, -0.019543858245015144, -0.03225864842534065, -0.008244415745139122, -0.006055433768779039, -0.0912780836224556, -0.06663291901350021, -0.06554237008094788, -0.013092177920043468, 0.05390387773513794, -0.007368362043052912, 0.013247697614133358, -0.0154689596965909, 0.011357835493981838, -0.05735371634364128, 0.03761542961001396, 0.006536100525408983, -0.01011329609900713, -0.0428226962685585, 0.03191431239247322, -0.04883521795272827, -0.02131604216992855, -0.10090988129377365, 0.04778214171528816, -0.008735313080251217, 0.02403269149363041, -0.021640576422214508, 0.01019402127712965, 0.032021310180425644, -0.02431516908109188, 0.02346005290746689, 0.07711058109998703, 0.007830925285816193, -0.011687330901622772, 0.01907428540289402, -0.016264816746115685, 0.025152167305350304, 0.024157973006367683, 0.004791680257767439, 0.05312180519104004, -0.012096447870135307, 0.039705246686935425, -0.021244019269943237, 0.02343863807618618, 0.059120532125234604, -0.05010244622826576, -0.027852855622768402, 0.0985434427857399, -0.0013946628896519542, 0.0027012357022613287, 0.007181622553616762, 0.0550396665930748, -0.03518104925751686, -0.016460280865430832, -0.03703462332487106, 0.008382324129343033, 0.012288104742765427, 0.02513972669839859, 0.010498324409127235, 0.008759753778576851, -0.10401193052530289, -0.007116206921637058, 0.0028787259943783283, -0.03407827019691467, 0.0781860500574112, 0.02847307175397873, 0.018801726400852203, -0.013426877558231354, -0.03183365613222122, 0.04177118092775345, -0.0018031864892691374, -0.004307882860302925, 0.05112483724951744, 0.005834574811160564, -0.017033908516168594, -0.016499441117048264, 0.041624993085861206, -0.07316049933433533, -0.018296966329216957, -0.007932045497000217, -0.047283437103033066, 0.025093305855989456, -0.010197502560913563, -0.012267077341675758, 0.013085804879665375, -0.055916622281074524, -0.018270524218678474, -0.022439340129494667, -0.010733487084507942, -0.0004019036132376641, 0.024289552122354507, -0.08054471015930176, -0.06891943514347076, -0.04631132259964943, -0.01759912632405758, 0.06037098169326782, 0.005853638052940369, -0.012722929008305073, -0.03781704977154732, -0.1270408034324646, -0.00983334705233574, 0.023387696593999863, 0.011778190732002258, 0.01331422384828329, -0.030230367556214333, -0.07383234798908234, -0.02638542838394642, -0.014555768109858036, -0.03635915368795395, 0.02723555453121662, -0.025017399340867996, -0.1161108985543251, -0.008654284290969372, -0.047522664070129395, -0.06158733740448952, -0.0706934928894043, -0.00918235071003437, 0.017248859629034996, 0.0013017224846407771, 0.08704366534948349, -0.05192670226097107, -0.08940903097391129, 0.002735372632741928, -0.012233823537826538, 0.005568177904933691], [0.0029566269367933273, 0.11590174585580826, -0.06764309853315353, 0.05585815757513046, 0.03047725185751915, 0.0450366735458374, -0.10298154503107071, -0.007866636849939823, -0.07342934608459473, -0.03855890408158302, -0.05748400837182999, 0.012865958735346794, 0.08686860650777817, -0.12760284543037415, 0.007564285304397345, 0.11573322862386703, 0.038998350501060486, 0.05739946290850639, -0.0018127207877114415, -0.012465816922485828, -0.07840970158576965, 0.08226165920495987, 0.07751378417015076, -0.025841854512691498, -0.05986449867486954, -0.09267452359199524, 0.004228369798511267, 0.028100870549678802, 0.058396074920892715, -0.09592688083648682, -0.0715140774846077, -0.10529498755931854, -0.04085926339030266, 0.13113068044185638, 0.003057213732972741, -0.017171788960695267, 0.002796364249661565, 0.03304702788591385, 0.016632283106446266, 0.01865951158106327, 0.004908342845737934, -0.007401579990983009, 0.005144709721207619, 0.023581957444548607, -0.016201026737689972, 0.0021930637303739786, 0.009793104603886604, -0.029390431940555573, 0.019059618934988976, 0.00978865660727024, 0.00560428062453866, 0.009290779009461403, 0.05066041275858879, 0.015790073201060295, 0.026666872203350067, 0.025716397911310196, 0.066557876765728, 0.06032105162739754, 0.01497762929648161, 0.03990945965051651, -0.01176122110337019, -0.07032054662704468, 0.020631279796361923, 0.04209694266319275, 0.07970070838928223, -0.008342929184436798, -0.029314877465367317, 0.003495856886729598, 0.025594180449843407, -0.02364368923008442, 0.015499929897487164, 0.0817384347319603, -0.025767676532268524, 0.015346611849963665, 0.012218909338116646, -0.01562529429793358, -0.01849745213985443, -0.02784523367881775, 0.0264147762209177, 0.029306255280971527, -0.039147213101387024, 0.008710372261703014, 0.008920869790017605, 0.034744229167699814, -0.05291258171200752, -0.055499445647001266, 0.16183868050575256, -0.006260404363274574, -0.025338340550661087, 0.02868063375353813, 0.05126743018627167, 0.03297320380806923, 0.08711973577737808, -0.06773458421230316, 0.018542319536209106, 0.05229002237319946, 0.08839724957942963, -0.010880346409976482, 0.002548286924138665, -0.011571270413696766, -0.014486510306596756, 0.018193203955888748, -0.012940819375216961, 0.018319925293326378, 0.020041270181536674, -0.01432314608246088, 0.045721158385276794, 0.014413277618587017, -0.10743918269872665, -0.04819699376821518, -0.004013258498162031, -0.03445414453744888, -0.06187757849693298, 0.02702808566391468, -0.003718568943440914, 0.02944163978099823, -0.05104963108897209, -0.012905020266771317, 0.117815300822258, -0.04807927832007408, -0.05263379588723183, -0.01537276990711689, 0.05463385954499245, -0.08806449174880981, -0.06465324014425278, -0.0036657704040408134, 0.0566980205476284, -0.011053708381950855, 0.031820252537727356, -0.14075800776481628, 0.10326431691646576, -0.026488540694117546, 0.06670551747083664, -0.011277033016085625, 0.01632951945066452, 0.017829667776823044, -0.12700726091861725, 0.044560756534338, 0.1136985644698143, -0.011584379710257053, 0.008617868646979332, -0.04095108434557915, 0.007094510830938816, -0.027016377076506615, 0.06419534236192703, -0.08327481895685196, -0.006156302988529205, 0.024221699684858322, -0.010434694588184357, 0.04070226848125458, 0.0165043156594038, 0.019478382542729378, 0.015665283426642418, -0.11113903671503067, 0.026447951793670654, -0.08821511268615723, -0.02371229976415634, 0.008455801755189896, -0.024682125076651573, 0.0340416394174099, 0.022524327039718628, 0.027317918837070465, -0.01741960644721985, -0.06542032212018967, -0.004392888396978378, -0.021600782871246338, -0.06332233548164368, -0.0072549618780612946, -0.005821644328534603, 0.06830056011676788, -0.12155025452375412, 0.027479860931634903, -0.019319793209433556, -0.06798039376735687, -0.024976177141070366, 0.024520009756088257, 0.11686746776103973, -0.0720033049583435, -0.1323366016149521, -0.01893581822514534, -0.06347078830003738, 0.015889732167124748, -0.0009244347456842661, -0.08898591250181198, 0.020376700907945633, -0.043511927127838135, -0.016234328970313072, -0.046332959085702896, 0.051668014377355576, -0.0030335932970046997, -0.04017076641321182, -0.02120678871870041, 0.025018449872732162, 0.03985363617539406, -0.04320063441991806, 0.09332117438316345, 0.033146679401397705, 0.007262226194143295, 0.05639217048883438, -0.02196122333407402, 0.05493715777993202, 0.005973437335342169, -0.01841932162642479, -0.034161269664764404, -0.017138320952653885, -0.027401495724916458, 0.026905018836259842, 0.0327831469476223, -0.04292726889252663, -0.02270488627254963, -0.014782656915485859, 0.031739987432956696, 0.01905844546854496, 0.0032317531295120716, 0.011284878477454185, 0.007119080051779747, -0.053665656596422195, -0.0217491053044796, -0.0008184346370398998, -9.925058839144185e-05, -0.04649413749575615, -0.07576692849397659, -0.0882301852107048, -0.005614846013486385, -0.06600415706634521, -0.041215527802705765, -0.12466958910226822, 0.030936019495129585, -0.01254710927605629, 0.029034191742539406, -0.0214520413428545, 0.006253541447222233, -0.028569625690579414, -0.009006268344819546, -0.03742194175720215, 0.030461052432656288, 0.03003784641623497, 0.02115296572446823, 0.06795816123485565, -0.0633888766169548, -0.21694712340831757, -0.047541484236717224, -0.028756311163306236, -0.04912593215703964, -0.032440878450870514, 0.034864380955696106, 0.01696372590959072, -0.13274924457073212, 0.028598802164196968, 0.030517717823386192, -0.17993316054344177, -0.023164691403508186, -0.0964602530002594, 0.030894458293914795, 0.060065336525440216, -0.08335187286138535, 0.0018248240230605006, -0.04342126101255417, -0.07039964199066162, 0.003518658457323909, 0.0026587103493511677, -0.0347881056368351, -0.008451631292700768, 0.0474848672747612, -0.06789661198854446, 0.045245859771966934, -0.008856788277626038, -0.061381708830595016, -0.006109858397394419, -0.004589784424751997, 0.024259053170681, -0.13715246319770813, 0.06407133489847183, -0.007310913875699043, 0.14776141941547394, -0.05480809509754181, -0.02830490656197071, -0.005539124831557274, 0.04309771582484245, -0.018923882395029068, -0.0199949461966753, -0.014007211662828922, 0.012748713605105877, 0.05135860666632652, 0.03287813067436218, -0.11033520847558975, 0.023978812620043755, -0.12688356637954712, 0.11873114109039307, -0.1137247160077095, 0.007772175595164299, 0.1774134486913681, -0.003925842698663473, -0.08245845884084702, 0.044845543801784515, 0.030041897669434547, 0.01583928056061268, -0.09727957844734192, -2.0403564121806994e-05, -0.01712278090417385, 0.020018214359879494, -0.05054916813969612, -0.002529580844566226, 0.022215748205780983, -0.03629127889871597, -0.021470582112669945, -0.0013542199740186334, -0.03094697743654251, -0.019193511456251144, -0.043590862303972244, -0.0005066888988949358, -0.00983370654284954, 0.03500734642148018, 0.006151045206934214, 0.012349107302725315, 0.07873854041099548, -0.04108257219195366, 0.003939339891076088, 0.01150817982852459, -0.013918435201048851, 0.013459739275276661, -0.0009499294683337212, -0.0756746381521225, 0.02780504897236824, 0.07706907391548157, -0.003945645410567522, -0.06393201649188995, -0.08650119602680206, 0.05071265250444412, 0.038160666823387146, 0.0004342131142038852, -0.01035816129297018, -0.0013300521532073617, -0.00508999265730381, -0.054938748478889465, 0.010943341068923473, 0.01746351458132267, 0.016751913353800774, 0.027816882357001305, 0.03937947750091553, 0.03737317770719528, 0.038483262062072754, 0.09760729223489761, 0.0010248292237520218, 0.0015563195338472724, 0.005727037321776152, -0.0964600145816803, -0.055555958300828934, 0.016268303617835045, -0.10423718392848969, 0.04544580727815628, 0.03646787628531456, 0.008833815343677998, -0.0070216720923781395, -0.06321435421705246, -0.021582212299108505, -0.020940398797392845, 0.01684056967496872, 0.028084544464945793, 0.01183941587805748, 0.022651078179478645, -0.01719910278916359, -0.016699038445949554, 0.028708161786198616, -0.14992040395736694, -0.028145579621195793, 0.02219836413860321, -0.0010952689917758107, 0.01109403744339943, 0.004572161938995123, 0.02799549512565136, 0.04368504136800766, -0.02716829441487789, 0.05483226850628853, -0.024962207302451134, 0.008132897317409515, -0.05854211002588272, 0.009014940820634365, 0.1361377090215683, -0.06916230171918869, 0.010455221869051456, -0.011224841699004173, -0.0015678595518693328, 0.004797494504600763, -0.024126574397087097, -0.20612040162086487, -0.05234989523887634, 0.045565515756607056, -0.02604629285633564, -0.04943200200796127, 0.04453808069229126, -0.0036211793776601553, -0.03585897758603096, -0.09926707297563553, -0.009884361177682877, 0.05912679433822632, -0.0064081535674631596, -0.021402642130851746, -0.0009026193292811513, -0.03882468119263649, 0.024295713752508163, 0.02969004213809967, 0.04628275707364082, 0.06025677174329758, -0.007453016936779022, 0.04166083410382271, 0.007535797543823719, -0.018001744523644447, -0.010829712264239788, 0.12413749098777771, -0.0031217350624501705, 0.026422129943966866, -0.0063507212325930595, 0.02506091818213463, -0.07525443285703659, 0.017319831997156143, 0.005825613159686327, -0.09351281821727753, -0.03689521178603172, -0.1183440089225769, 0.02231745980679989, -0.0958886370062828, -0.005847705062478781, 0.05288911238312721, 0.07523506134748459, -0.04035738483071327, -0.1034892350435257, -0.026859397068619728, -0.0031844708137214184, -0.011092711240053177, -0.03508366271853447, -0.004927126690745354, 0.03923793509602547, -0.003938432317227125, -0.06460437178611755, -0.00931063573807478, 0.04394308477640152, -0.012105253525078297, 0.022699881345033646, -0.018622472882270813, 0.007535219192504883, 0.023745141923427582, -0.012898646295070648, -0.033381376415491104, -0.02373359352350235, -0.007196138147264719, -0.003970456775277853, 0.07649518549442291, 0.034132588654756546, 0.005312648136168718, -0.010734188370406628, 0.010693018324673176, -0.05940042436122894, -0.12802399694919586, -0.02530544437468052, 0.0008899776730686426, 0.002387836342677474, 0.034758102148771286, -0.07201454788446426, 0.00016012685955502093, -0.02023611031472683, 0.029505399987101555, 0.038841135799884796, -0.03360740467905998, 0.08784589916467667, 0.03003048710525036, -0.012560823000967503, 0.011214475147426128, 0.01642649620771408, 0.03437249734997749, 0.01051639299839735, 0.02874600514769554, -0.0433783121407032, -0.013904992491006851, -0.028030263260006905, -0.007757897488772869, -0.047593146562576294, -0.09399019181728363, 0.02664901688694954, -0.031093519181013107, 0.14114171266555786, 0.031716033816337585, -0.06892833113670349, -0.0019731156062334776, -0.007364494260400534, -0.04170556366443634, 0.09236086159944534, -0.010106353089213371, 0.005895652808248997, 0.022722283378243446, -0.03764998912811279, 0.009958180598914623, -0.0002938744146376848, 0.012037371285259724, -0.05005326494574547, -0.031380217522382736, 0.04323433339595795, -0.007920087315142155, 0.07925097644329071, -0.06609581410884857, -0.015503838658332825, 0.10080823302268982, -0.045804645866155624, 0.07444997131824493, 0.04408428817987442, -0.02780512534081936, 0.05249034985899925, 0.05093786120414734, -0.046076640486717224, -0.009946348145604134, -0.10276670753955841, 0.013255229219794273], [0.012924324721097946, 0.10518841445446014, -0.010913552716374397, 0.01795804500579834, -0.01632119156420231, 0.003863799851387739, 0.018633197993040085, 0.05036602541804314, 0.034546323120594025, -0.0030604565981775522, -0.034130632877349854, 0.01712254248559475, -0.1028578132390976, 0.015724865719676018, 0.007112984079867601, 0.039319589734077454, -0.02433246746659279, -0.06092052534222603, 0.04268307238817215, 0.02661382220685482, -0.04427974671125412, 0.005329407285898924, 0.0035055566113442183, -0.027296528220176697, 0.01110650971531868, 0.013162771239876747, 0.06067155301570892, 0.06789092719554901, 0.03683881834149361, -0.06551680713891983, -0.043164074420928955, -0.009821871295571327, 0.04798223450779915, -0.05782132223248482, 0.029699033126235008, 0.08351884037256241, 0.019451813772320747, 0.026572847738862038, -0.0738411620259285, -0.050456274300813675, 0.002355384873226285, 0.026491478085517883, 0.022506894543766975, -0.015753714367747307, -0.004621375817805529, -0.04061855748295784, -0.015429086051881313, 0.09438495337963104, -0.01069421786814928, 0.001455799676477909, -0.02850162982940674, 0.050738025456666946, -0.05023645609617233, 0.0005918840761296451, -0.002527363132685423, -0.06004403159022331, -0.013281382620334625, -0.009694783017039299, 0.01642962545156479, 0.046785805374383926, -0.0014553857035934925, 0.014324708841741085, -0.06080617383122444, 0.007082045543938875, 0.055184245109558105, -0.009711258113384247, -0.03135655075311661, 0.003268718020990491, -0.002155413618311286, 0.028020689263939857, 0.06821808218955994, 0.045317329466342926, 0.010225620120763779, -0.026507362723350525, -0.010831440798938274, 0.011313460767269135, 0.017179040238261223, -0.037912774831056595, -0.014857301488518715, -0.014495440758764744, -0.029605576768517494, 0.005752253346145153, -0.0016634537605568767, 0.001627126825042069, 0.023500842973589897, 0.006968561559915543, 0.07438576221466064, 0.1161903664469719, -0.0193781815469265, -0.042621977627277374, -0.0378267802298069, -0.04895178601145744, 0.027791660279035568, 0.04029027372598648, 0.05830930918455124, -0.013077974319458008, 0.017023425549268723, -0.00668774638324976, -0.05601724237203598, 0.011345849372446537, -0.017881659790873528, 0.015046078711748123, 0.03928345814347267, -0.016421254724264145, 7.797713624313474e-05, 0.0004102971579413861, 0.03484726324677467, -0.00454248022288084, -0.059963736683130264, 0.0024304755497723818, 0.023565106093883514, -0.03061746619641781, -0.053068630397319794, 0.00982710812240839, 0.014347048476338387, -0.007955358363687992, 0.013773316517472267, -0.0009772098856046796, 0.015933534130454063, -0.08903951942920685, 0.006832987070083618, -0.015320228412747383, 0.04377583786845207, -0.0034197289496660233, 0.005847910884767771, 0.04611605778336525, -0.04506092146039009, -0.007490137126296759, -0.00551578588783741, -0.014497478492558002, 0.03241795301437378, -0.01523752324283123, -0.037506625056266785, -0.01968640275299549, -0.011549172922968864, 0.00015794880164321512, -0.013797346502542496, -0.029750915244221687, 0.026410529389977455, 0.02676089107990265, 0.09147637337446213, -0.02787884883582592, -0.035095181316137314, -0.025010831654071808, 0.06662313640117645, -0.026959804818034172, 0.07674062997102737, 0.06767766177654266, 0.018278593197464943, -0.03737584501504898, -0.009310735389590263, 0.03915137052536011, -0.010088802315294743, -0.13480320572853088, -0.053558122366666794, 0.0218648724257946, 0.01677684299647808, 0.001274566282518208, -0.03634079918265343, -0.012113259173929691, -0.007981592789292336, -0.0628540888428688, 0.03865839168429375, -0.05100288242101669, -0.014829247258603573, -0.05660431459546089, 0.006859362591058016, 0.08643811196088791, 0.03863710165023804, -0.06326767802238464, 0.05525531992316246, 0.016294630244374275, -0.07053756713867188, 0.1229814738035202, -0.01788557879626751, 0.06185285001993179, -0.019734786823391914, 0.025995124131441116, 0.040479425340890884, -0.024766549468040466, -0.023993104696273804, 0.017531145364046097, 0.005629621911793947, 0.048503994941711426, 0.02845866046845913, 0.011854608543217182, 0.028490863740444183, -0.03179800510406494, 0.06936673074960709, 0.0004953717580065131, -0.018606454133987427, -0.07286857068538666, 0.039590757340192795, 0.010213686153292656, 0.029739495366811752, 0.02286570891737938, -0.065068818628788, -0.03182484582066536, -0.04966496676206589, 0.000748593476600945, -0.052696578204631805, -0.006249789148569107, 0.0014794396702200174, -0.01908852346241474, -0.056589525192976, -0.039337944239377975, -0.02686406672000885, 0.03689195215702057, -0.0003566963132470846, -0.026384858414530754, -0.02931477501988411, 0.022825468331575394, -0.0003067841171287, 0.026599833741784096, 0.026742950081825256, 0.029330406337976456, -0.04957403615117073, 0.04302029311656952, -0.009039588272571564, 0.019168002530932426, -0.012065083719789982, 0.003759796032682061, -0.02224692329764366, 0.08486514538526535, 0.07551822066307068, 0.03159897029399872, -0.12321018427610397, 0.021822478622198105, 0.03381173312664032, -0.010756433941423893, -0.10487709194421768, 0.012993833050131798, -0.0056114825420081615, -0.008093539625406265, 0.011590693145990372, 0.028339900076389313, 0.08314242213964462, -0.010229792445898056, -0.021237358450889587, -0.007353571709245443, -0.08466281741857529, 0.04256994649767876, 0.07166314870119095, -0.03422101214528084, 0.0670594796538353, 0.024156035855412483, 0.05502483248710632, -0.07611782848834991, -0.016580570489168167, 0.026912661269307137, -0.09641680121421814, -0.03214627131819725, -0.07136331498622894, 0.02412782981991768, 0.027677448466420174, 0.025255337357521057, -0.026469636708498, -0.10697568953037262, -0.02018514648079872, -0.04050542041659355, 0.005635736044496298, 0.02239907719194889, 0.04947536066174507, 0.03977232053875923, 0.005614902824163437, 0.0021372672636061907, 0.02251206897199154, 0.00936614815145731, 0.002157957060262561, 0.055182915180921555, 0.01125248707830906, 0.061526793986558914, 0.006711646914482117, 0.025893190875649452, 0.033785443753004074, -0.01540222018957138, 0.007373959291726351, 0.027700021862983704, -0.042966246604919434, -0.0106106111779809, 0.06185101717710495, 0.018692128360271454, -0.024717459455132484, -0.03688323125243187, -0.048884015530347824, 0.10073183476924896, -0.037175655364990234, 0.02596288174390793, 0.07428370416164398, -0.12071401625871658, 0.004484393168240786, -0.10223013907670975, 0.014155481941998005, 0.01160506997257471, -0.0970919132232666, -0.028024008497595787, 0.08583898097276688, -0.060332588851451874, -0.016430392861366272, -0.020358841866254807, -0.0008503549615852535, -0.006505925673991442, -0.012871169485151768, 0.08529923111200333, -0.0028463315684348345, 0.031194956973195076, -0.07294347137212753, 0.008243410848081112, -0.011123842559754848, -0.01434263214468956, -0.029755963012576103, -0.010470193810760975, -0.011729776859283447, 0.012637757696211338, -0.024798955768346786, -0.027021758258342743, -0.10983970761299133, 3.069133754252107e-06, -0.002994057722389698, -0.04583636298775673, 0.05386405065655708, -0.042081620544195175, -0.009557005017995834, -0.03681725636124611, 0.04263364523649216, -0.010947675444185734, 0.012222705408930779, -0.006844179704785347, -0.019941436126828194, 0.021942026913166046, -0.028916573151946068, 0.0308168213814497, -0.024343149736523628, 0.0888451635837555, -0.029379241168498993, 0.01237083226442337, 0.00578089477494359, -0.006880973931401968, -0.002466114703565836, -0.005246016662567854, 0.046425625681877136, 0.06474334001541138, 0.00800948403775692, -0.07738149166107178, -0.032624054700136185, -0.0333452969789505, 0.01929696463048458, 0.0006221538642421365, 0.038539785891771317, -0.09890761226415634, 0.05387970805168152, -0.03491898998618126, 0.0499732680618763, 0.03275582194328308, 0.0005826627020724118, -0.011952179484069347, 0.040235720574855804, -0.012409396469593048, -0.01118488609790802, 0.032029714435338974, 0.020651495084166527, 0.040482185781002045, 0.01967320591211319, -0.03994011506438255, -0.10098464041948318, 0.03413032740354538, 0.010387036018073559, 0.02837974578142166, -0.023670420050621033, 0.03320712968707085, 0.03970995172858238, 0.015322909690439701, -0.0070062801241874695, -0.021844398230314255, -0.08362135291099548, -0.030155913904309273, -0.04199463874101639, 0.003328403690829873, -0.07136213034391403, 0.028177250176668167, -0.03714272007346153, 0.00861542858183384, 0.010043800808489323, -0.0029181153513491154, 0.017956150695681572, -0.1449393928050995, -0.03521890938282013, -0.05458488687872887, 0.02034798450767994, -0.005182594992220402, 0.014164509251713753, 0.028014274314045906, 0.0190410353243351, -0.062401510775089264, -0.047865450382232666, -0.03668743744492531, 0.0624178908765316, 0.033118974417448044, -0.003392914542928338, 0.04322757199406624, -0.014102424494922161, 0.07777508348226547, -0.07317163050174713, -0.0024685452226549387, 0.004710009321570396, -0.030822182074189186, -0.0046453410759568214, 0.012216689065098763, 0.03510516509413719, -0.08418790996074677, 0.008029009215533733, 0.015145399607717991, 0.028078492730855942, -0.058905016630887985, 0.047394927591085434, 0.012191680260002613, 0.04324863851070404, 0.054957158863544464, 0.0481603667140007, -0.10068216174840927, -0.027264581993222237, -0.06516894698143005, -0.0331215001642704, 0.022120481356978416, 0.0339960940182209, 0.07272220402956009, -0.10812921822071075, 0.005997002590447664, -0.038125406950712204, -0.01918797753751278, 0.012522378005087376, 0.04969148337841034, -0.06437773257493973, 0.06831593066453934, -0.05627826601266861, 0.0019010991090908647, 0.04466593638062477, 0.006071296986192465, -0.013016626238822937, -0.03470272570848465, -0.05025854334235191, 0.05401639640331268, -0.05222715064883232, -0.0003805902670137584, 0.043648187071084976, -0.044603507965803146, 0.002615654142573476, 0.026012998074293137, -0.014982701279222965, 0.005548715591430664, 0.005218950565904379, 0.03031618893146515, -0.03572704643011093, -0.022640980780124664, -0.0015690557193011045, 0.013881249353289604, -0.01608816534280777, -0.015129780396819115, -0.004858820233494043, -0.010579435154795647, 0.003491020994260907, -0.06343617290258408, 0.04311210662126541, 0.06613150238990784, -0.022827453911304474, -0.03592044115066528, -0.0037402459420263767, -0.04439466446638107, 0.021429747343063354, 0.01029263250529766, -0.02214665524661541, -0.004841609392315149, -0.03907928988337517, -0.02822227217257023, -0.055735088884830475, 0.007020656950771809, -0.010897143743932247, 0.0007662822026759386, 0.009443487040698528, -0.02908964268863201, -0.008438222110271454, 0.025427011772990227, -0.0503329336643219, 0.010099323466420174, 0.004175281152129173, -0.005624734330922365, 0.012945706024765968, -0.009362401440739632, 0.009123723953962326, -0.02564048208296299, -0.02939777448773384, -0.004125806037336588, -0.023259898647665977, 0.015449009835720062, 0.007621722295880318, -0.019333787262439728, -0.05206744745373726, 0.028807545080780983, 0.026967443525791168, -0.017187654972076416, 0.004368952941149473, 0.0067968363873660564, -0.013884716667234898, 0.024562422186136246, -0.035343047231435776, 0.02037983573973179, -0.1395556777715683, -0.029125776141881943, 0.048124078661203384, -0.005426887422800064, 0.05036931857466698, -0.017528517171740532], [0.012845316901803017, 0.16974157094955444, 0.06514769047498703, 0.0047607216984033585, -0.01648649573326111, -0.08191844820976257, 0.02390386536717415, -0.05469045415520668, 0.09354472905397415, -0.03872961550951004, 0.016488729044795036, -0.014782717451453209, 0.043930068612098694, 0.12845195829868317, -0.01567697897553444, 0.050995003432035446, 0.05032945051789284, 0.0033853009808808565, 0.05123674497008324, 0.0055117798037827015, -0.06252101063728333, 0.03742215037345886, -0.0033968319185078144, -0.018227674067020416, 0.04892207682132721, -0.007060803007334471, 0.024514706805348396, -0.028939247131347656, 0.051334790885448456, 0.0418846495449543, 0.00766413751989603, 0.03445132449269295, -0.008515764959156513, 0.03391608968377113, -0.020580671727657318, 0.0017055411590263247, 0.023693552240729332, -0.030997823923826218, 0.005519680678844452, -0.02441408857703209, -0.029355177655816078, -0.07827362418174744, -0.012372521683573723, 0.010760891251266003, 0.01927829720079899, 0.08069311082363129, -0.03202962502837181, -0.03473281115293503, 0.03805088996887207, 0.024685252457857132, -0.01002573873847723, 0.02214714139699936, 0.009050138294696808, -0.00764335785061121, -0.024425005540251732, -0.013913417235016823, -0.017938440665602684, 0.039231184870004654, 0.05682354047894478, 0.007241590414196253, 0.09669177234172821, 0.005522456020116806, 0.048177365213632584, -0.014074493199586868, -0.06265673041343689, 0.09621430188417435, 0.015578563325107098, -0.026584448292851448, -0.01643391139805317, -0.005912566091865301, 0.02821112424135208, 0.09888898581266403, 0.04416866600513458, -0.04289595037698746, -0.030262894928455353, 0.06948088854551315, -0.003818889381363988, 0.03496009111404419, -0.08920319378376007, 0.01549285463988781, 0.034860700368881226, 0.022626124322414398, -0.049892861396074295, -0.027193497866392136, -0.05218036472797394, -0.005298011004924774, 0.0810336247086525, -0.026439014822244644, -0.0392921157181263, -0.046963419765233994, -0.04907374083995819, -0.04892931133508682, -0.013285341672599316, 0.09554383158683777, -0.04028787836432457, -0.03184870257973671, -0.016142789274454117, 0.0501679927110672, 0.015363319776952267, -0.05113197863101959, -0.0217744167894125, -0.02043323963880539, 0.004436867777258158, -0.00035147988819517195, -0.034819673746824265, -0.02592880092561245, 0.05202160030603409, -0.07158027589321136, -0.029897823929786682, -0.060747526586055756, -0.01982824318110943, 0.004427730105817318, 0.031187351793050766, -0.013297387398779392, 0.018131673336029053, 0.05968272313475609, -0.0666687935590744, -0.016881316900253296, -0.009687130339443684, 0.055458080023527145, 0.03804521635174751, -0.02740076184272766, 0.03812443092465401, -0.005161466542631388, 0.0460854172706604, -0.01827463135123253, 0.028405476361513138, -0.0018283426761627197, -0.026001153513789177, -0.026086345314979553, -0.00769773218780756, 0.03176504746079445, 0.04415826126933098, 0.0005957501125521958, -0.015465372242033482, 0.02042333222925663, 0.10386672616004944, -0.03215847536921501, 0.011761327274143696, 0.027106815949082375, -0.051136408001184464, -0.02517560124397278, -0.013405196368694305, 0.0031510668341070414, -0.06039643660187721, 0.041124243289232254, 0.011355383321642876, -0.052416495978832245, 0.009707646444439888, 0.03700405731797218, 0.021781429648399353, -0.1281546950340271, -0.03832613676786423, 0.002095009433105588, -0.038637276738882065, 0.08109506964683533, 0.0021023880690336227, -0.040736205875873566, 0.008326029404997826, -0.012453518807888031, 0.07088876515626907, 0.07523573189973831, 0.1041984036564827, -0.18497197329998016, -0.0332026407122612, 0.1524938941001892, 0.04532233998179436, -0.037812892347574234, -0.002637184225022793, -0.06940954178571701, -0.011309228837490082, -0.013772889971733093, 0.0036669482942670584, 0.03643888607621193, -0.04365599527955055, 0.058325935155153275, 0.018149500712752342, -0.004756351932883263, 0.01274441834539175, 0.009806870482861996, 0.08803556114435196, 0.03915928304195404, 0.03340896964073181, 0.029743539169430733, -0.06746307760477066, -0.049384940415620804, -0.08446479588747025, 0.04910655692219734, 0.05859334021806717, -0.06464788317680359, 0.026390695944428444, 0.08523644506931305, 0.03624126687645912, -0.03790919855237007, 0.02125651389360428, 0.13641902804374695, -0.06291566044092178, 0.0030248407274484634, 0.009115942753851414, -0.035256270319223404, 0.006710704881697893, 0.01401336956769228, 0.0038496674969792366, 0.029867932200431824, 0.028072042390704155, 0.0055522313341498375, -0.0007656104862689972, 0.039625752717256546, -0.01763259992003441, 0.009729171171784401, 0.03909279778599739, -0.03601405397057533, 0.022995900362730026, -0.037141572684049606, 0.011733101680874825, 0.012886693701148033, -0.00010884647053899243, 0.025884471833705902, 0.024712825194001198, -0.028202973306179047, 0.05216404050588608, -0.026399532333016396, 0.02510497346520424, -0.060478173196315765, -0.02770155481994152, 0.04330654814839363, 0.10279188305139542, 0.007200390566140413, -0.009686168283224106, -0.0033847594168037176, -0.04387202858924866, -0.015533280558884144, -0.00033968157367780805, 0.049708135426044464, -0.008465399965643883, 0.03822530433535576, 0.06708447635173798, 0.005966730881482363, -0.002530941739678383, 0.06895758211612701, -0.09037709981203079, 0.01025854330509901, 0.08380571007728577, -0.04605623334646225, -0.08277745544910431, -0.0729050487279892, 0.023718370124697685, 0.038511231541633606, 0.0304357148706913, -0.03144308924674988, 0.04262527450919151, -0.0016501809004694223, -0.01612432859838009, -0.025167787447571754, -0.06582203507423401, -0.02163751982152462, -0.02033168449997902, -0.04911276698112488, -0.06572175025939941, -0.03546004369854927, -0.020158493891358376, -0.049320999532938004, -0.016291646286845207, -0.048716794699430466, 0.03659027814865112, 0.004403379280120134, -0.04159056767821312, -0.00031860536546446383, 0.028727393597364426, -0.09321928769350052, -0.0037150292191654444, 0.04036282002925873, 0.06203790009021759, 0.13454517722129822, -0.016688941046595573, 0.025686457753181458, -0.02948298491537571, -0.0007538715144619346, -0.015586056746542454, 0.023923251777887344, -0.049851104617118835, -0.017682936042547226, 0.04197566583752632, -0.06415733695030212, -0.05227428302168846, 0.0027524838224053383, -0.040811680257320404, -0.019325105473399162, -0.08995439112186432, 0.07019265741109848, -0.013138992711901665, 0.06546168774366379, 0.0566142238676548, -0.02666524052619934, 0.010743712075054646, 0.00860683899372816, 0.033787332475185394, 0.06415528804063797, 0.015082350000739098, 0.020463379099965096, 0.007373993285000324, -0.02501794323325157, 0.08689521253108978, -0.05026394873857498, -0.057493943721055984, -0.008048676885664463, -0.032631468027830124, 0.06744752824306488, -0.014481795020401478, -0.016261639073491096, 0.006539369001984596, 0.04701759293675423, 0.012390297837555408, -0.05593855679035187, 0.010001306422054768, 0.025134507566690445, 0.01780683547258377, 0.027201035991311073, 0.04939410835504532, 0.09154047816991806, 0.00687063904479146, 0.014971639961004257, -0.07085670530796051, -0.04878649860620499, 0.05588430166244507, -0.027068445459008217, 0.07643786072731018, -0.009880631230771542, 0.032953787595033646, -0.00964068342000246, 0.04454211890697479, 0.01547857467085123, 0.06153886392712593, 0.09580893069505692, -0.09053180366754532, -0.03132547065615654, -0.00044985522981733084, 0.034815073013305664, 0.1088852509856224, 0.02760530449450016, -0.05713500827550888, -0.047969065606594086, -0.05238336697220802, 0.01362211536616087, -0.04727572947740555, -0.05961780250072479, -0.05582048371434212, 0.029477428644895554, -0.024330904707312584, -0.03668780252337456, -0.043573688715696335, -0.001663920353166759, 0.02548503875732422, -0.023808805271983147, -0.08394017070531845, -0.027271097525954247, 0.009261460974812508, 0.06873711198568344, 0.05901114270091057, 0.016082633286714554, -0.0038780071772634983, 0.025457723066210747, -0.01926860213279724, 0.03288178890943527, 0.05688990652561188, -0.017420532181859016, -0.014170986600220203, 0.04306343197822571, -0.004521638620644808, -0.014665395021438599, -0.05498218908905983, -0.04219559580087662, -0.01099485345184803, 0.030856477096676826, -0.07117097079753876, -0.009287834167480469, -0.11711141467094421, -0.004749947693198919, -0.04671735689043999, 0.059955060482025146, -0.0020174062810838223, -0.017056742683053017, 0.027157438918948174, -0.004929621238261461, 0.013794995844364166, 0.1804339587688446, -0.01819012314081192, -0.010314648039638996, 0.08461207896471024, -0.02236046828329563, 0.07437331229448318, 0.010715625248849392, 0.0010429649846628308, -0.08809801936149597, -0.02797885425388813, -0.06118680164217949, 0.027408961206674576, 0.012963752262294292, 0.06448567658662796, 0.03514387831091881, 0.03864184021949768, -0.03024274855852127, -0.07003333419561386, 0.03229038789868355, 0.025420168414711952, -0.027412043884396553, -0.043801672756671906, 0.07924249023199081, -0.0038667151238769293, 0.17266422510147095, 0.03019646368920803, -0.04343437775969505, 0.008878219872713089, 0.019825035706162453, -0.002693951828405261, 0.0040119001641869545, -0.012315807864069939, -0.004592154175043106, -0.0025373916141688824, -0.01487171184271574, -0.062298502773046494, -0.021777180954813957, -0.03349797800183296, 0.024257488548755646, 0.03010149672627449, 0.06260364502668381, 0.07221351563930511, -0.011102324351668358, -0.04341891035437584, 0.03186672180891037, -0.015903718769550323, 0.04998577758669853, -0.011221153661608696, -0.008267202414572239, -0.0816476047039032, -0.019648632034659386, 0.029506323859095573, 0.026766622439026833, -0.0033399565145373344, -0.004913576412945986, 0.026110636070370674, -0.04662558436393738, 0.040579214692115784, 0.019779521971940994, 0.01554420217871666, 0.007299490738660097, 0.0054249088279902935, -0.01737634278833866, -0.033439043909311295, -0.019522152841091156, -0.02055191807448864, 0.03253854066133499, 0.11619804054498672, 0.05314253643155098, 0.03906676173210144, 0.017305759713053703, -0.008564564399421215, -0.03234279155731201, -0.018247494474053383, -0.04271126165986061, 0.028917107731103897, -0.015430760569870472, 0.04671166092157364, -0.008581946603953838, -0.0032802168279886246, 0.014033873565495014, -0.03029940277338028, -0.0247274748980999, -0.03718797117471695, 0.009904259815812111, 0.031202107667922974, 0.02821943536400795, -0.05103718116879463, -0.03629766404628754, 0.04790501669049263, 0.07745066285133362, -0.01936209388077259, -0.03217056766152382, 0.0619402639567852, 0.005328577011823654, 0.006269671022891998, 0.006754023488610983, 0.03650323674082756, -0.0988679826259613, -0.00288622104562819, 0.05450166389346123, -0.035084567964076996, -0.020037183538079262, -0.04689708352088928, 0.008228466846048832, 0.03656328096985817, -0.0575232096016407, 0.014867105521261692, -0.015896489843726158, -0.042959898710250854, -0.022387946024537086, -0.03783704712986946, -0.0030931676737964153, 0.019886944442987442, -0.05104853957891464, 0.054857730865478516, 0.03119947575032711, -0.0780404731631279, -0.07836917787790298, -0.0066617680713534355, -0.030050979927182198, -0.1053706631064415, -0.042922474443912506, -0.06396161764860153, -0.0009622814250178635, 0.035885926336050034, 0.028565075248479843], [0.022927282378077507, -0.14425522089004517, -0.054962459951639175, -0.02681889943778515, -0.024115506559610367, -0.01966453716158867, 0.0668422132730484, 0.07233981043100357, -0.05101015418767929, 0.030759336426854134, -0.026882806792855263, 0.031240181997418404, -0.025263873860239983, -0.03492143377661705, 0.00046950243995524943, 0.05659414455294609, -0.04326586425304413, 0.02563500590622425, -0.09321755915880203, 0.009708080440759659, 0.035549357533454895, 0.02624238282442093, 0.022620394825935364, 0.04715203866362572, 0.03502773866057396, -0.006548762321472168, -0.06623680144548416, 0.04742718115448952, -0.016734769567847252, -0.1711072027683258, -0.005526878871023655, 0.07688537985086441, -0.05537266656756401, -0.08763381093740463, -0.053881313651800156, -0.16650360822677612, -0.04944274201989174, 0.004001252353191376, 0.0022188725415617228, -0.039110105484724045, -0.005923741962760687, 0.000658632256090641, -0.011280415579676628, -0.061580054461956024, -0.015410581603646278, 0.024006228893995285, -0.034707486629486084, 0.10247791558504105, 0.021460410207509995, -0.003784152679145336, 0.03600475192070007, 0.04916343465447426, 0.005608579143881798, 0.02213186025619507, -0.055322784930467606, -0.0016071194550022483, 0.03791043534874916, -0.06771399080753326, -0.017200054600834846, -0.04266340658068657, -0.10452204942703247, -0.011056493036448956, -0.00985418725758791, 0.01898578181862831, 0.06175483763217926, -0.019870473071932793, 0.08210018277168274, 0.011491660960018635, -0.023987872526049614, 0.011880763806402683, 0.05515388026833534, 0.02897159941494465, -0.01118532381951809, -0.05330090597271919, -0.043590109795331955, -0.014127754606306553, 0.0036339161451905966, 0.021653663367033005, 0.06140929460525513, -0.10108970105648041, 0.05652547627687454, -0.008329950273036957, 0.02853248454630375, 0.00012533071276266128, 0.08251913636922836, -0.010784625075757504, -0.038544803857803345, 0.04175706207752228, -0.03926124423742294, -0.05961105599999428, 0.08742200583219528, -0.01808617077767849, -0.02933930978178978, -0.09865760058164597, 0.04761555418372154, 0.008472254499793053, -0.055111903697252274, 0.018357262015342712, -0.04077344760298729, -0.010511476546525955, 0.023337306454777718, 0.034400634467601776, 0.019334735348820686, -0.04944498464465141, 0.005714540835469961, -0.002138386480510235, -0.05746733397245407, 0.010442620143294334, 0.04832221195101738, -0.022190764546394348, -0.05283306911587715, 0.026730556041002274, 0.04904467612504959, 0.019899284467101097, -0.027225784957408905, 0.058085255324840546, 0.0021188599057495594, -0.006586147006601095, 0.028652910143136978, -0.009405432268977165, 0.0258318018168211, 0.006980681326240301, -0.050735440105199814, -0.10295997560024261, 0.04882253706455231, 0.07222119718790054, 0.010690460912883282, 0.05692380666732788, -0.02960578165948391, -0.12360986322164536, -0.08958929777145386, -0.03281247988343239, -0.053542573004961014, -0.03716622665524483, 0.03268994018435478, 0.004642148967832327, -0.042911097407341, -0.033256903290748596, -0.045542944222688675, 0.07043885439634323, -0.055326830595731735, 0.0639929249882698, -0.004798860754817724, -0.039300303906202316, -0.02379578910768032, -0.0738169401884079, -0.07679582387208939, -0.025120945647358894, 0.040594492107629776, -0.007741922978311777, -0.010151820257306099, -0.02060706354677677, 0.027849184349179268, 0.11409948766231537, 0.05573660135269165, 0.051601342856884, -0.004316147416830063, -0.003379599889740348, -0.04042349383234978, 0.009737420827150345, -0.01351180486381054, 0.020141154527664185, -0.07172783464193344, 0.06089525297284126, -0.014473449438810349, -0.1165168359875679, 0.0686655342578888, 0.007355669513344765, -0.01503725815564394, -0.022956326603889465, -0.020457781851291656, 0.010470278561115265, -0.01806160993874073, -0.016698023304343224, 0.03994562104344368, -0.04494504630565643, 0.009533710777759552, 0.014790446497499943, -0.060593049973249435, 0.014761868864297867, -0.07494620233774185, 0.05203086882829666, -0.03125970810651779, 0.027518076822161674, -0.012663626112043858, 0.029057934880256653, -0.026577230542898178, 0.007951506413519382, -0.04079147055745125, 0.031058767810463905, 0.04860987514257431, 0.1301768273115158, 0.05764561519026756, 0.028319723904132843, -0.0430537685751915, -0.02797035314142704, -0.05136426165699959, 0.029005849733948708, 0.003166765905916691, -0.007764528971165419, 0.015012109652161598, 0.023939110338687897, 0.021490542218089104, 0.04336024448275566, -0.029572242870926857, -0.021711908280849457, -0.041849300265312195, 0.0341087281703949, -0.051332347095012665, 0.035550184547901154, -0.02659263089299202, -0.05646827816963196, -0.04761846736073494, -0.015216500498354435, 0.02509641833603382, -0.0023003045935183764, 0.0008560309070162475, -0.01866890676319599, -0.055947668850421906, 0.0418209508061409, -0.0346987284719944, -0.011231695301830769, -0.08968061208724976, 0.005260309670120478, 0.026503508910536766, 0.023150209337472916, 0.11316882818937302, -0.0783889889717102, 0.042283304035663605, 0.0006034841062501073, -0.10218440741300583, -0.026070572435855865, 0.03353976085782051, 0.008063413202762604, -0.03670113533735275, 0.034741517156362534, 0.058404210954904556, -0.00037890367093496025, 0.03802004083991051, -0.0593549869954586, 0.1306535303592682, 0.01040140725672245, -0.061884574592113495, 0.05155627056956291, 0.09711308777332306, -0.026072055101394653, -0.016828391700983047, -0.07366672903299332, -0.019580217078328133, -0.016220450401306152, -0.06683732569217682, -0.01537582091987133, -0.1670714020729065, -0.044384028762578964, 0.03680533915758133, 0.09660302102565765, 0.013450685888528824, -0.05305385962128639, 0.00634506531059742, -0.06665632873773575, 0.05320680886507034, 0.08451984822750092, 0.05850975215435028, 0.07830819487571716, 0.08814400434494019, 0.006415395066142082, 0.04234176501631737, -0.0016706240130588412, -0.051420509815216064, 0.03374800086021423, 0.01785445213317871, 0.012387910857796669, -0.07209804654121399, -0.003984541166573763, 0.06823787093162537, -0.017660165205597878, -0.0004233356739860028, -0.0006109836394898593, -0.055561333894729614, -0.0003576624148990959, 0.0056893653236329556, -0.008027680218219757, -0.0003480798623058945, 0.041685983538627625, 0.032327741384506226, -0.010960797779262066, 0.072549968957901, -0.06987301260232925, -0.1711394488811493, -0.0016188938170671463, 0.013682780787348747, -0.0732109472155571, -0.029620904475450516, -0.002348582725971937, 0.02636626362800598, 0.0254142414778471, -0.014993163757026196, -0.08741890639066696, 0.010376985184848309, -0.011348612606525421, 0.0028862084727734327, 0.03755120560526848, -0.09391272813081741, 0.03892558813095093, 0.022138791158795357, 0.009187017567455769, 0.021590737625956535, 0.001559818279929459, -0.020191092044115067, -0.011360788717865944, -0.024893878027796745, 0.02495596744120121, -0.10823004692792892, 0.04031308367848396, 0.015788666903972626, -0.024145983159542084, -0.08936042338609695, 0.00929274782538414, -0.036680061370134354, -0.1265624314546585, 0.06546260416507721, -0.00998610444366932, -0.04991930350661278, -0.01732165366411209, 0.021670592948794365, 0.0492558628320694, 0.08341948688030243, -0.024530725553631783, -0.03919275850057602, -0.013976577669382095, 0.035863135010004044, -0.05167292803525925, -0.05880233272910118, 0.00846455805003643, 0.043004680424928665, 0.00810996163636446, 0.006635814905166626, -0.02957078441977501, 0.02231164090335369, 0.0531986802816391, -0.0615227147936821, -0.0006081723258830607, -0.08205123245716095, -0.022191697731614113, -0.025942284613847733, 0.01789798215031624, 0.02163087949156761, -0.0760323703289032, -0.04379810020327568, -0.07248590141534805, -0.019228821620345116, -0.0052368734031915665, 0.04222589358687401, -0.01729150488972664, 0.043139487504959106, 0.01896347664296627, 0.0019397346768528223, -0.03455791249871254, -0.07950112968683243, 0.021273480728268623, -0.06509145349264145, 0.010280092246830463, -0.022588077932596207, -0.06292375177145004, -0.11701353639364243, -0.03001130372285843, -0.03609219193458557, 0.015010672621428967, 0.006552315317094326, 0.06814835965633392, 0.020954379811882973, -0.11949805170297623, -0.005539959762245417, -0.0209683608263731, 0.006528923287987709, -0.00015246352995745838, -0.0427279993891716, 0.03140872344374657, 0.0379854291677475, -0.0077539365738630295, 0.04565513879060745, 0.028193434700369835, 0.017791708931326866, 0.008172565139830112, 0.01765989139676094, 0.02466345764696598, -0.02294217422604561, 0.00030144868651404977, 0.0624658428132534, -0.019600123167037964, -0.0006246889824979007, -0.025707874447107315, -0.0005670928512699902, -0.10576500743627548, -0.058142244815826416, 0.08654071390628815, 0.007651146966964006, -0.02186557836830616, -0.04813176766037941, 0.006300898734480143, 0.08018182963132858, 0.07690124958753586, 0.014781651087105274, -0.047632649540901184, -0.07365065813064575, -0.021723544225096703, 0.047034550458192825, 0.0013564924011006951, 0.022103402763605118, 0.0749342143535614, 0.022862276062369347, -0.1006808876991272, 0.058132220059633255, -0.0020802998915314674, 0.013339667581021786, 0.03952392563223839, 0.07225840538740158, -0.030317699536681175, -0.0314735509455204, -0.17126424610614777, 0.02358553558588028, -0.042285576462745667, -0.0034057190641760826, -0.012882948853075504, 0.038691986352205276, 0.09889334440231323, 0.12188475579023361, -0.01945645734667778, 0.02738744206726551, 0.028762347996234894, 0.013025474734604359, -0.034967850893735886, -0.019583193585276604, -0.024333734065294266, 0.006036435719579458, -0.022598164156079292, -0.007011466193944216, -0.0244845449924469, -0.0004288342606741935, 0.05451959744095802, -0.023550281301140785, -0.005879933945834637, -0.08506307750940323, -0.05647724121809006, 0.009976491332054138, 0.017867764458060265, -0.04289793223142624, -0.06301073729991913, 0.04978177323937416, 0.00804327055811882, 0.003707324154675007, 0.012101376429200172, -0.02669152431190014, -0.06584016978740692, -0.040041666477918625, -0.006210771854966879, -0.013904818333685398, 0.008160733617842197, 0.012060720473527908, 0.032035455107688904, 0.02962489239871502, 0.11296933889389038, 0.02473425678908825, 0.015766816213726997, 0.07796235382556915, -0.04872077703475952, 0.004433424677699804, 0.016503797844052315, -0.03394416719675064, 0.03917741775512695, 0.023069238290190697, 0.04834824427962303, -0.025400564074516296, -0.02475806511938572, 0.0297663863748312, -0.05802485719323158, -0.003441711887717247, -0.05401085317134857, -0.07183042168617249, -0.0025053750723600388, -0.02478468231856823, 0.05249316990375519, 0.10895057767629623, -0.017657114192843437, -0.030523931607604027, -0.026704048737883568, 0.020966773852705956, -0.03759339079260826, 0.015930267050862312, -0.012311956845223904, -0.03205489367246628, 0.008213856257498264, -0.09917844086885452, -0.029213711619377136, 0.03848733380436897, -0.09964147210121155, 0.027420127764344215, 0.011728879995644093, 0.1200082078576088, 0.004638727754354477, -0.09177299588918686, -0.03479582443833351, 0.008625089190900326, -0.08214858174324036, 0.023596907034516335, -0.04910498857498169, 0.07029362767934799, -0.035986755043268204, 0.15571513772010803, 0.03010530397295952, -0.008784310892224312, -0.045300837606191635], [0.00010004643991123885, -0.006888177245855331, 0.07562808692455292, 0.03114471770823002, 0.030414436012506485, -0.02122713439166546, 0.04920673742890358, 0.014627531170845032, -0.07067788392305374, 0.0183524489402771, -0.026643823832273483, 0.006283541675657034, -0.033009011298418045, 0.08176180720329285, 0.009660092182457447, -0.016131455078721046, 0.010564032010734081, 0.05970247834920883, 0.02271343022584915, -0.0038850305136293173, 0.04204728081822395, 0.04387234151363373, -0.003861610312014818, -0.02587372064590454, 0.032389335334300995, -0.02861003577709198, 0.012964626774191856, 0.003986741881817579, 0.05318515747785568, -0.08770428597927094, -0.030125152319669724, -0.04215162247419357, -0.07893115282058716, -0.0908568874001503, -0.0351000614464283, 0.08494099974632263, -0.09128480404615402, -0.019481034949421883, 0.006550818681716919, -0.04227925464510918, 0.027417464181780815, -0.024268988519906998, -0.01037786528468132, 0.030438164249062538, -0.013000749982893467, 0.003947746008634567, -0.03346778452396393, -0.0312621034681797, -0.009924190118908882, 0.024913055822253227, 0.03673906251788139, -0.003627583384513855, 0.01208224706351757, -0.009804831817746162, -0.03536492958664894, 0.04251600801944733, 0.06035909429192543, 0.04444438964128494, 0.02986874245107174, -0.0039221434853971004, 0.07066360116004944, -0.020870821550488472, -0.04668400064110756, 0.062221281230449677, 0.03156289830803871, -0.029079418629407883, 0.09232281893491745, -0.035120148211717606, 0.0021411834750324488, 0.00036472093779593706, -0.030558861792087555, 0.07195226103067398, 0.016474338248372078, -0.01741921342909336, 0.0026806716341525316, -0.018192915245890617, -0.003891667816787958, 0.030713293701410294, 0.05585409328341484, 0.017977550625801086, 0.03146250173449516, -0.008401916362345219, 0.02515355497598648, 0.00317054009065032, -0.02134787105023861, -0.01244703121483326, 0.06215860694646835, 0.08217420428991318, 0.04203662648797035, -0.043183039873838425, 0.0638963058590889, 0.08489535003900528, -0.05576517805457115, 0.11147022992372513, 0.05633263289928436, 0.0063292537815868855, -0.03415023908019066, -0.010419940575957298, -0.10644421726465225, 0.007655133958905935, -0.0017790760612115264, 0.00567940529435873, -0.025994451716542244, 0.04009198397397995, 0.022008592262864113, 0.006278619635850191, -0.07425075769424438, 0.06186487525701523, 0.11848033964633942, 0.005051085725426674, -0.008780216798186302, 0.00472232373431325, 0.029816312715411186, -0.06531820446252823, -0.03397183120250702, 0.014205343089997768, 0.004591498989611864, -0.017488691955804825, 0.07142381370067596, -0.0008491968037560582, -0.07588719576597214, -0.00570616964250803, -0.050104524940252304, 0.0945499986410141, -0.02320779673755169, -0.034142930060625076, 0.0035915030166506767, -0.021461429074406624, -0.007824325934052467, 0.04962785542011261, -0.09697877615690231, -0.04495938867330551, -0.030588259920477867, -0.016336755827069283, 0.018674548715353012, 0.05467794090509415, 0.040115177631378174, -0.05742204561829567, 0.012761999852955341, 0.019131658598780632, -0.05304715409874916, -0.0066186413168907166, 0.0071753207594156265, 0.033876948058605194, -0.02062346041202545, 0.06701893359422684, 0.06695853173732758, 0.007771569304168224, 0.062185656279325485, -0.0119087602943182, 0.0313616618514061, 0.014423980377614498, 0.005572452675551176, -0.1320764720439911, 0.012068172916769981, 0.02285594865679741, 0.028580166399478912, -0.009773435071110725, 0.02295895479619503, 0.007012868300080299, -0.01991007663309574, 0.04409661889076233, 0.0209608543664217, 0.018194066360592842, -0.01646730676293373, -0.09903479367494583, 0.037521734833717346, 0.03043544851243496, 0.06828980892896652, -0.0009823284344747663, 0.015294264070689678, 0.026090554893016815, -0.002164413221180439, -0.037538815289735794, -0.022779611870646477, 0.0004287785559426993, -0.05398646742105484, 0.032397154718637466, 0.016383882611989975, -0.013135965913534164, 0.0004435295413713902, -0.06256333738565445, 0.005051221698522568, 0.03961934521794319, 0.02124560810625553, -0.04267824813723564, -0.03953015059232712, 0.018220290541648865, -0.0020885467529296875, -0.029771318659186363, -0.01903492771089077, 0.10168346762657166, 0.017259083688259125, -0.03135820850729942, 0.008809269405901432, 0.06319216638803482, -0.06813150644302368, 0.02127024345099926, -0.02758661098778248, 0.02555069327354431, -0.0455404557287693, -0.006143127102404833, 0.02354712411761284, 0.00911485031247139, 0.06516938656568527, -0.006937758531421423, -0.05038512498140335, 0.018501413986086845, -0.007304009981453419, -0.010090943425893784, 0.00560414744541049, 0.0655079036951065, 0.02857285551726818, 0.024574676528573036, -0.020805316045880318, 0.02195071615278721, -0.07770700752735138, -0.03113560378551483, -0.026108182966709137, -0.06866712868213654, 0.007322837598621845, 0.07607481628656387, 0.05226036533713341, -0.09765509516000748, 0.019758766517043114, -0.009334765374660492, 0.0696927085518837, -0.024151910096406937, 0.019573776051402092, 0.0009852253133431077, 0.013450026512145996, -0.06475219875574112, 0.017466465011239052, 0.001117040286771953, 0.029961898922920227, 0.025485901162028313, 0.032628826797008514, 0.020026598125696182, 0.04320751503109932, 0.01544400304555893, 0.0772445946931839, 0.03941657021641731, -0.004961286671459675, 0.004871052224189043, -0.026423709467053413, 0.011496071703732014, -0.038847845047712326, 0.04467182978987694, 0.011305327527225018, -0.022105509415268898, -0.010989243164658546, 0.03183503821492195, -0.0723307654261589, 0.044785138219594955, 0.03458023816347122, -0.004977065604180098, -0.021237101405858994, -0.027777595445513725, 0.041234519332647324, 0.034685585647821426, 0.011949574574828148, 0.017758704721927643, -0.025995474308729172, 0.01353335753083229, 0.0921991616487503, 0.006032141391187906, 0.05425908789038658, 0.023306891322135925, -0.010845797136425972, 0.0066151609644293785, -0.014298934489488602, -0.05218871682882309, -0.04568145051598549, -0.024031177163124084, 0.042933329939842224, 0.030388981103897095, -0.027348756790161133, 0.02860669046640396, -0.013065543957054615, 0.009436159394681454, 0.013936481438577175, 0.0325891375541687, -0.03663754090666771, -0.10567312687635422, 0.04303080961108208, 0.028487447649240494, -0.005845269653946161, -0.05967620387673378, -0.022395584732294083, -0.028880076482892036, -0.030099080875515938, 0.10771368443965912, -0.01220995094627142, -0.0002609286457300186, -0.0009376234957017004, 0.0060102567076683044, -0.0012206166284158826, 0.07747837901115417, -0.024060094729065895, 0.017912911251187325, -0.0012669097632169724, 0.02885877713561058, -0.033035118132829666, -0.12944455444812775, 0.04053354635834694, -0.027938032522797585, -0.04293808341026306, 0.04890839383006096, -0.04027495160698891, -0.00045389923616312444, 0.04554973542690277, 0.024165645241737366, -0.06595120579004288, -0.051816053688526154, -0.03143952414393425, 0.008391163311898708, -0.0527598038315773, -0.04574352130293846, -0.002359466627240181, -0.09868934005498886, -0.008297227323055267, 0.028044667094945908, -0.029340142384171486, -0.047735486179590225, 0.024615218862891197, -0.011061625555157661, -0.005588876083493233, -0.009177797473967075, 0.04017997160553932, -0.03630783036351204, -0.052659519016742706, -0.0169695895165205, 0.0522780567407608, 0.00985092855989933, -0.044017333537340164, 0.03751566261053085, 0.019516481086611748, -0.010651891119778156, -0.05251578986644745, -0.04922695457935333, -0.06876438856124878, 0.027960631996393204, -0.1523296982049942, -0.011205912567675114, -0.07473383098840714, -0.022825829684734344, 0.03979428485035896, -0.008268178440630436, 0.07341815531253815, -0.11916612833738327, -0.03973209857940674, -0.010899086482822895, -0.05264763906598091, -0.013049658387899399, -0.03995543345808983, -0.00041763318586163223, 0.018336065113544464, 0.0024705769028514624, 0.004679051693528891, -0.0036616947036236525, -0.01572277583181858, -0.04099169746041298, -0.05750652402639389, 0.004075245000422001, 0.10700954496860504, 0.0145823759958148, -0.028425700962543488, -0.02145436592400074, 0.004601487889885902, 0.022251702845096588, -0.029714135453104973, 0.011261464096605778, 0.014104853384196758, -0.030466275289654732, -0.05344576761126518, -0.01896730437874794, 0.07111365348100662, 0.01893419772386551, 0.026315174996852875, 0.05460589379072189, -0.039561912417411804, 0.08044237643480301, -0.06007131189107895, -0.01582009717822075, 0.029221659526228905, 0.07266034930944443, -0.021882666274905205, 0.057971321046352386, -0.018468424677848816, 0.013479551300406456, -0.00596120348200202, 0.04299178719520569, -0.02620222419500351, 0.06337056308984756, 0.005763063207268715, 0.04079941660165787, -0.08448482304811478, -0.013658159412443638, -0.02171987295150757, 0.00018851427012123168, 0.004909316077828407, -0.02137318067252636, 0.06980835646390915, 0.0448739193379879, -0.01988162286579609, -0.04448822885751724, -0.0016293609514832497, 0.07447464019060135, -0.027304615825414658, 0.023399457335472107, -0.02695056051015854, 0.08154211193323135, 0.03061307594180107, -0.006388362031430006, 0.09287849068641663, 0.018503859639167786, 0.016950344666838646, 0.04457147791981697, 0.11215337365865707, -0.05515206605195999, 0.02036292850971222, -0.03359046205878258, 0.025428924709558487, 0.0009359211544506252, -0.01892741024494171, 0.03037388063967228, 0.05149772763252258, 0.024736763909459114, 0.01590161956846714, -0.018879340961575508, 0.02602134644985199, 0.11834301054477692, 0.0514407716691494, 0.03813379257917404, -0.03652504086494446, -0.019446508958935738, -0.003921150229871273, -0.030576195567846298, 0.1055469810962677, 0.06797483563423157, 0.014509371481835842, 0.0059286439791321754, 0.008146489039063454, 0.07379189133644104, 0.022686664015054703, 0.0074975634925067425, 0.008147350512444973, 0.10281091183423996, 0.037217624485492706, 0.015888245776295662, 0.014518983662128448, -0.042049333453178406, -0.012171889655292034, -0.05741911754012108, -0.011374698020517826, -0.008508636616170406, 0.02007194608449936, -0.010706744156777859, -0.05755341053009033, 0.025885455310344696, 0.0008142277365550399, -0.034016869962215424, 0.02739962562918663, 0.006439464632421732, 0.008211132138967514, -0.03845708444714546, 0.007594893220812082, -0.012990493327379227, 0.001849852385930717, -0.004541040398180485, 0.029915805906057358, -0.0101055558770895, 0.038372356444597244, -0.02812563255429268, 0.057352010160684586, 0.008081489242613316, 0.021424751728773117, -0.05814065784215927, -0.01104720588773489, 0.09985043853521347, 0.04265119880437851, -0.014149542897939682, 0.06578855216503143, -0.0024937517009675503, -0.0607743114233017, -0.015301724895834923, 0.035986799746751785, -0.0022096973843872547, 0.004301474429666996, -0.0063288272358477116, -0.021639758720993996, 0.020511504262685776, -0.05114739388227463, -0.02069872058928013, -0.013759426772594452, -0.038236696273088455, 0.11864300072193146, -0.030539436265826225, -0.11846166849136353, 0.04387251287698746, 0.06147857755422592, 0.025193406268954277, -0.027832970023155212, -0.03873242065310478, 0.016634110361337662, 0.06513804197311401, -0.12466230243444443, -0.0014158401172608137, 0.05356316268444061, 0.002596647944301367, -0.04062732681632042, 0.002912545343860984], [-0.06818137317895889, 0.08813934773206711, -0.008456174284219742, -0.005455845035612583, -0.036844078451395035, 0.04601932317018509, -0.031344152987003326, -0.03589000180363655, -0.01473231241106987, 0.0013796845450997353, 0.0198636706918478, -0.05790211260318756, 0.004575441591441631, 0.0020438998471945524, -0.04776529595255852, 0.02283775433897972, -0.03466228023171425, 0.010775101371109486, -0.0371512807905674, -0.01879577711224556, -0.04154496639966965, -0.021715722978115082, -0.047285135835409164, 0.05529620125889778, -0.004765582736581564, -0.02839997038245201, 0.033189136534929276, -0.10416901856660843, 0.0953567698597908, 0.009963694028556347, 0.021035028621554375, 0.08198690414428711, -0.11121731251478195, 0.0511925108730793, -0.02644841931760311, 0.05715306103229523, 0.0981706827878952, -0.025870928540825844, -0.013519716449081898, 0.04362412542104721, 0.009862561710178852, -0.07517489045858383, -0.012033773586153984, -0.035489875823259354, 0.01489227544516325, 0.024792352691292763, -0.0011524552246555686, -0.02886801026761532, -0.008209501393139362, -0.020262697711586952, -0.00665660435333848, -0.009498762898147106, 0.009839996695518494, 0.0245367418974638, 0.04280363395810127, 0.0030832625925540924, -0.02298075519502163, -0.00033357206848450005, 0.0032457225024700165, -0.047394927591085434, 0.07468269765377045, -0.019593222066760063, 0.0014135295059531927, 0.08849804103374481, 0.10243913531303406, 0.031067335978150368, 0.0023796246387064457, -0.050650760531425476, -0.005893814843147993, 0.002382911741733551, 0.030184857547283173, 0.025117328390479088, -0.025391550734639168, -0.0016112944576889277, -0.018033789470791817, 0.02632676623761654, 0.03483228012919426, 0.0858459547162056, 0.008740201592445374, -0.056792326271533966, -0.004628594033420086, 0.006562225520610809, -0.013487475924193859, 0.028822701424360275, -0.0981251671910286, 0.0634084939956665, 0.06295080482959747, -0.022556016221642494, -0.002541945083066821, -0.008523904718458652, -0.0480201281607151, 0.07085054367780685, 0.032728832215070724, 0.134071484208107, 0.05778760835528374, -0.0495220310986042, 0.01349655818194151, 0.03045949898660183, 0.037889182567596436, -0.013943124562501907, -0.005224896594882011, -0.0002236852451460436, 0.03977029025554657, -0.023372581228613853, 0.009801778942346573, 0.009025242179632187, 0.11040494590997696, -0.04733003303408623, 0.06810706108808517, -0.04089284688234329, 0.0057387384586036205, -0.014194028452038765, -0.0643741637468338, 0.0022766697220504284, 0.055854473263025284, 0.03542671725153923, 0.01837257295846939, -0.044092655181884766, 0.056387778371572495, 0.010265260934829712, 0.05773267149925232, -0.015934409573674202, 0.007512059062719345, -0.05162619426846504, 0.03911036252975464, -0.05896760895848274, -0.05681988224387169, 0.02562057226896286, -0.018528882414102554, 0.15492583811283112, -0.035026781260967255, 0.0624980591237545, -0.007163349073380232, -0.015918683260679245, -0.04237659275531769, 0.03856862708926201, -0.022429056465625763, -0.08110645413398743, -0.03124360740184784, 0.01627633348107338, -0.010801216587424278, -0.031104644760489464, -0.06816143542528152, -0.04476926475763321, -0.0577731654047966, 0.10457183420658112, -0.05113928020000458, -0.011610105633735657, -0.01417818758636713, 0.0864235982298851, 0.056529272347688675, 0.029087521135807037, 0.029669882729649544, 0.04037882760167122, 0.011176900938153267, 0.0007498691556975245, 0.007795743644237518, 0.0011387582635506988, -0.020260002464056015, -0.03111177310347557, -0.05815332755446434, 0.0647897943854332, -0.0013298379490152001, 0.025255849584937096, -0.0032550201285630465, -0.1632891148328781, 0.01969486102461815, -0.0727204754948616, -0.07530388981103897, -0.0020129370968788862, 0.046396609395742416, 0.08276155591011047, 0.061181604862213135, -0.08583708852529526, 0.01582210883498192, 0.07822218537330627, 0.04154736548662186, -0.0284969974309206, 0.06725885719060898, -0.00109935796353966, 0.03551292419433594, 0.04763749614357948, 0.03591972589492798, 0.015908893197774887, -0.06671439111232758, -0.025124307721853256, 0.006631094496697187, -0.033392973244190216, -0.02491256222128868, 0.07456561923027039, 0.009912235662341118, 0.05895956978201866, -0.010082615539431572, -0.026665540412068367, 0.009591825306415558, 0.010103316977620125, 0.04195818677544594, -0.017295269295573235, 0.08165936172008514, -0.012614638544619083, 0.008102651685476303, 0.018237855285406113, 0.0272691510617733, -0.011802543886005878, -0.02579391561448574, 0.0032599344849586487, 0.01663972996175289, -0.021127106621861458, -0.06822444498538971, 0.0002435679198242724, 0.0032926977146416903, 0.0050755636766552925, -0.0432676300406456, -0.032047804445028305, 0.0076524303294718266, -0.04431867599487305, 0.0540274940431118, -0.009878227487206459, 0.028483232483267784, 0.01697993464767933, 0.09192413836717606, -0.02665448747575283, -0.04929406940937042, -0.03319651633501053, -0.11351045966148376, -0.0328744612634182, 0.03423016145825386, -0.02904319576919079, 0.0075075579807162285, 0.008007054217159748, 0.09782637655735016, 0.023316089063882828, -0.011690178886055946, -0.016719335690140724, 0.012569144368171692, 0.04650331661105156, 0.031206324696540833, -0.028717728331685066, -0.00825368333607912, -0.06502723693847656, -0.07314484566450119, 0.025886263698339462, -0.10250510275363922, -0.04550955817103386, -0.04987236112356186, -0.06089914217591286, -0.04200723394751549, 0.016675371676683426, -0.04607725515961647, -0.025751745328307152, 0.16522754728794098, -0.03600608929991722, -0.07778225094079971, 0.03331739082932472, 0.04110593721270561, 0.014923444017767906, 0.003254886483773589, 0.08124764263629913, -0.13096417486667633, 0.023571236059069633, -0.024323318153619766, -0.009697307832539082, 0.014291520230472088, 0.016416985541582108, -0.017157183960080147, -0.036377035081386566, -0.07664091140031815, -0.050181616097688675, -0.033869121223688126, 0.029567399993538857, 0.02927582524716854, 0.05632167309522629, 0.007883229292929173, -0.04540582373738289, 0.04426734149456024, -0.0052573345601558685, -0.0035445475950837135, 0.0017747259698808193, 0.02564539760351181, -0.015780942514538765, -0.003169838571920991, -0.05853593721985817, 0.026279758661985397, -0.05761503055691719, 0.07118112593889236, 0.05199243873357773, -0.004144114907830954, -0.09285378456115723, 0.004845962394028902, -0.05719062685966492, 0.026964236050844193, -0.1220160648226738, -0.011196817271411419, -0.006545140873640776, 0.01686384528875351, 0.003630884690210223, 0.013925637118518353, 0.039051324129104614, 0.03554587811231613, -0.04308251291513443, 0.017157120630145073, 0.015723776072263718, -0.045972082763910294, -0.14600376784801483, 0.011532326228916645, 0.08531143516302109, -0.048633161932229996, -0.04995935037732124, -0.0055086021311581135, -0.04283016547560692, -0.0727398619055748, 0.008423992432653904, 0.009057010523974895, -0.006888289470225573, -0.04585118964314461, -0.001440669409930706, 0.09112508594989777, -0.00946796778589487, -0.02813161537051201, -0.021400898694992065, -0.05063444748520851, 0.020612359046936035, -0.004616079851984978, -0.05055445432662964, -0.029405565932393074, 0.009708866477012634, -0.026818808168172836, 0.006241422146558762, -0.04359055310487747, -0.025268564000725746, -0.008053950034081936, -0.03483802080154419, 0.05903385207056999, 0.013559656217694283, 0.008364565670490265, 0.012071962468326092, 0.012452849186956882, 0.032944828271865845, 0.04140815511345863, -0.027834376320242882, 0.06199584901332855, -0.07466200739145279, -0.1287008821964264, -0.048075854778289795, 0.03891961649060249, -0.022872604429721832, -0.08434167504310608, -0.013763820752501488, 0.007375733461230993, 0.023110495880246162, -0.029332488775253296, 0.04988635331392288, -0.05497395619750023, 0.01733378693461418, -0.018474817276000977, -0.015225442126393318, -0.0026597492396831512, -0.06228427216410637, -0.008884095586836338, 0.005964359734207392, -0.01345936767756939, 0.033306583762168884, 0.016112955287098885, 0.008758177980780602, -0.027604104951024055, -0.03436995670199394, 0.007911920547485352, -0.05933581292629242, 0.036007337272167206, -0.052748408168554306, -0.007336936891078949, -0.015397709794342518, -0.02870939113199711, -0.016681397333741188, 0.0099500622600317, 0.061450324952602386, 0.009588957764208317, -0.035022325813770294, 0.043673936277627945, 0.004531582351773977, 0.029494361951947212, -0.09909123182296753, 0.0705854520201683, 0.021920187398791313, -0.0016942288493737578, 0.0022182646207511425, -0.04830726981163025, -0.007473065052181482, -0.01484702154994011, 0.024195596575737, 0.029643338173627853, -0.059269979596138, -0.02856193669140339, -0.032708484679460526, -0.0013700367417186499, 0.02159985713660717, -0.04461141303181648, 0.05003376677632332, -0.014976904727518559, 0.019818449392914772, 0.03278204798698425, -0.04186539351940155, -0.1139780804514885, 0.04736217111349106, 0.06200016662478447, 0.041167665272951126, 0.05760078877210617, -0.05325804650783539, -0.017456570640206337, -0.16211140155792236, 0.0033153146505355835, 0.023440809920430183, 0.06094701960682869, -0.06949493288993835, 0.052179813385009766, -0.011026756837964058, 0.016457514837384224, -0.04136421158909798, -0.03444010019302368, -0.06541698426008224, -0.00028855542768724263, 0.00929991714656353, -0.016679473221302032, -0.017762040719389915, 0.04079544544219971, -0.05741453170776367, -0.12801599502563477, 0.051337577402591705, 0.0020134439691901207, 0.024754468351602554, 0.01841513067483902, 0.055230554193258286, 0.03214273601770401, -0.02145499363541603, 0.11529797315597534, -0.002266633789986372, -0.016426708549261093, 0.046439278870821, -0.006454150192439556, -0.002732302062213421, -0.0027476416435092688, -0.07537005841732025, 0.05134513974189758, 0.02047031931579113, 0.018939996138215065, 0.014691841788589954, -0.019821885973215103, 0.15027521550655365, -0.024802779778838158, 0.01910354383289814, 0.04690743610262871, -0.059940073639154434, -0.06821421533823013, -0.03469602391123772, 0.0434151217341423, -0.009671319276094437, -0.04102764651179314, 0.00738681061193347, -0.01338557805866003, -0.030186040326952934, -0.004078282508999109, -0.02460186555981636, 0.004583149217069149, 0.018098995089530945, 0.03718134015798569, -0.0389242060482502, 0.005331379361450672, -0.014959894120693207, -0.00868197064846754, -0.03114199824631214, 0.016690414398908615, -0.020120076835155487, -0.05079993978142738, 0.04754866287112236, -0.08692169934511185, -0.0009546707151457667, -0.003321730764582753, -0.0666043683886528, -0.023974888026714325, 0.060840193182229996, 0.007822326384484768, -0.0035201876889914274, -0.10774048417806625, 0.00222535477951169, -0.004901660140603781, 0.03542892634868622, 0.0012816268717870116, -0.04721026122570038, -0.007825017906725407, -0.02987862564623356, -0.002840125933289528, -0.029861625283956528, 0.1401885598897934, -0.0024657316971570253, -0.002498458605259657, -0.03354286029934883, 0.0011779306223616004, -0.041251856833696365, 0.1024954542517662, 0.022505180910229683, 0.0840960294008255, -0.0315687358379364, -0.026377996429800987, -0.06308305263519287, 0.007826017215847969, -0.0016749614151194692, -0.10926929116249084, -0.05842609703540802, 0.07258351892232895, 0.008069969713687897, 0.07387623935937881, 0.06286653876304626], [-0.044309183955192566, -0.10267610102891922, 0.0453278049826622, 0.06930673867464066, 0.0038559013046324253, -0.02766404300928116, -0.01955585367977619, -0.017484216019511223, -0.034724004566669464, 0.0012969900853931904, -0.030541446059942245, 0.11424712836742401, -0.05415758118033409, -0.05233437940478325, 0.04820997640490532, -0.023048782721161842, -0.012394667603075504, 0.04425594583153725, 0.07911118865013123, 0.012356274761259556, 0.022151172161102295, 0.09012968093156815, -0.008913528174161911, -0.008356224745512009, -0.008945262059569359, -0.02644369564950466, 0.05530499666929245, -0.037390511482954025, -0.011300529353320599, 0.054879698902368546, 0.017009461298584938, -0.03258553147315979, 0.14550334215164185, 0.1339188814163208, -0.002715629991143942, -0.06644667685031891, -0.03830121457576752, -0.008066771551966667, 0.029684310778975487, -0.07977807521820068, -0.03679628670215607, -0.07203929126262665, -0.004785692319273949, 0.04567861557006836, 0.0030727796256542206, 0.03423642739653587, 0.07286182045936584, 0.05953369289636612, 0.032149769365787506, 0.01125065702944994, -0.04535427317023277, 0.02708389051258564, -0.05505523830652237, 0.007491197437047958, -0.02520742453634739, 0.023180339485406876, 0.0034979095216840506, -0.09539274871349335, 0.025794630870223045, 0.05388390272855759, -0.02362830378115177, -0.010983520187437534, -0.0054346174001693726, -0.09416072815656662, 0.018797948956489563, -0.04142989218235016, -0.05000738799571991, 0.01126911211758852, -0.07444078475236893, 0.02550547383725643, -0.041452936828136444, 0.009904323145747185, -0.01596159115433693, 0.005717433523386717, -0.04625201225280762, -0.012294544838368893, 0.014060219749808311, -0.011771592311561108, -0.08084135502576828, -0.0854634940624237, 0.005196892656385899, 0.022595668211579323, -0.00035170299815945327, -0.07120243459939957, -0.09028001129627228, -0.057954926043748856, -0.012961381115019321, -0.09803597629070282, -0.017605863511562347, 0.04730362072587013, 0.08014965057373047, -0.030119000002741814, 0.03610134497284889, -0.048588283360004425, -0.006485131103545427, -0.024296097457408905, -0.010377037338912487, 0.019814247265458107, -0.05025740712881088, 0.038015373051166534, 0.020354505628347397, -0.005665672942996025, -0.030375007539987564, 0.010693538002669811, -0.030662573873996735, 0.005678536836057901, -0.02288218028843403, -0.006101413629949093, -0.11440080404281616, -0.06094568595290184, 0.011952696368098259, -0.033544715493917465, -0.008208021521568298, -0.011205472983419895, -0.0325668640434742, -0.06926712393760681, 0.10337194800376892, -0.003066886216402054, -0.017033066600561142, -0.0018909556092694402, 0.09857472777366638, 0.002978807780891657, 0.012157568708062172, -0.015361123718321323, -0.008945007808506489, 0.032480284571647644, 0.04507836699485779, 0.04199143871665001, 0.02404979057610035, -0.02420746721327305, -0.08461414277553558, 0.08956676721572876, -0.008897969499230385, -0.015285841189324856, 0.027790522202849388, -0.04617994651198387, 0.01457291841506958, 0.029743388295173645, 0.04790773615241051, -0.0527513287961483, 0.004499214701354504, -0.009617027826607227, 0.029636748135089874, -0.01056591048836708, -0.010205804370343685, 0.034303322434425354, 0.05166901648044586, 0.01434626616537571, -0.008114923723042011, 0.06831369549036026, 0.03287143632769585, -0.010286252945661545, 0.018795130774378777, 0.02254808135330677, -0.02897973172366619, 0.06790757179260254, 0.014800150878727436, 0.0342547670006752, -0.01744305156171322, -0.030777687206864357, -0.04006711393594742, 0.015767252072691917, -0.0020833269227296114, 0.16260430216789246, -0.007496933452785015, -0.05618191137909889, 0.04578397050499916, 0.010404548607766628, 0.0864105373620987, -0.05523378401994705, 0.019409580156207085, 0.009169535711407661, -0.011848538182675838, -0.01083471067249775, 0.038640134036540985, 0.010501498356461525, 0.07066890597343445, 0.01651003770530224, -0.03887176513671875, 0.006647072266787291, 0.05748501420021057, 0.009887555614113808, 0.14332358539104462, -0.09081200510263443, -0.04127044603228569, 0.02826853282749653, 0.021834498271346092, 0.08693436533212662, -0.016722820699214935, -0.04205634817481041, -0.029359396547079086, -0.11955244839191437, -0.022897986695170403, 0.014043843373656273, -0.02261015959084034, -0.005089011508971453, -0.0662580281496048, 0.05359167233109474, -0.040463000535964966, -0.03376961871981621, 0.026583196595311165, 0.03689102828502655, -0.026673046872019768, -0.05531470105051994, 0.0223680566996336, -0.0022277298849076033, -0.025770295411348343, -0.02784072794020176, 0.05387738719582558, -0.10290700197219849, 0.0009312469628639519, 0.021102862432599068, -0.010836541652679443, 0.0029852031730115414, 0.08516690135002136, -0.0020710520911961794, 0.01333264634013176, 0.04152343049645424, -0.014239424839615822, -0.013996269553899765, 0.017167354002594948, -0.06880615651607513, -0.04752405732870102, 0.0287792831659317, 0.010448848828673363, -0.028483640402555466, 0.01329728588461876, -0.011982043273746967, -0.05741533264517784, -0.0005883316043764353, -0.11345416307449341, 0.015110553242266178, -0.00429208017885685, -0.028387755155563354, 0.029670048505067825, 0.01056557148694992, -0.019628776237368584, -0.03588777035474777, 0.019600510597229004, 0.04418298229575157, 0.08453548699617386, -0.062099333852529526, 0.05699312686920166, -0.009670008905231953, -0.04670276120305061, 0.035857781767845154, 0.006115825846791267, -0.03100448288023472, 0.034940119832754135, 0.04275208339095116, -0.06799518316984177, -0.00528277363628149, 0.038442887365818024, 0.009767688810825348, 0.06676117330789566, -0.02682941034436226, 0.017519624903798103, -0.06104063615202904, -0.11296301335096359, -0.048501428216695786, 0.07342150807380676, -0.012247689068317413, 0.04200638458132744, -0.018399372696876526, -0.0380258783698082, 0.014940512366592884, -0.11216103285551071, 0.04117831960320473, 0.027115939185023308, -0.07830704003572464, 0.013866884633898735, -0.05285331979393959, 0.023282082751393318, 0.011803600937128067, 0.02042391337454319, -0.04390651360154152, 0.004728897009044886, -0.0474596843123436, -0.026214633136987686, -0.03778017312288284, 0.05290939286351204, 0.0043571810238063335, 0.027207132428884506, 0.05024605244398117, -0.06499961018562317, -0.11002553999423981, 0.00416205357760191, -0.004723912104964256, 0.01360032893717289, -0.07961709052324295, -0.003253827104344964, 0.03706515207886696, -0.026760689914226532, -0.029942266643047333, 0.06165323406457901, -0.009902381338179111, 0.01907806098461151, 0.06751655787229538, -0.010311412625014782, -0.008529257029294968, 0.0006689103902317584, -0.005645295139402151, 0.027299104258418083, 0.011684063822031021, 0.05394478887319565, -0.04926348477602005, 0.029264185577630997, -0.011777468025684357, -0.015298083424568176, 0.06431224197149277, -0.042205166071653366, -0.01303575374186039, 0.020925257354974747, -0.008243265561759472, -0.04975227639079094, -0.005872929468750954, -0.013241088949143887, -0.0012434117961674929, -0.018573174253106117, -0.07111141830682755, -0.018639449030160904, 0.01267041452229023, -0.09365355968475342, 0.04319845139980316, 0.05272319167852402, -0.012260671705007553, 0.04726205766201019, -0.015331887640058994, 0.00019193239859305322, -0.04198512062430382, 0.03203963860869408, -0.05561746284365654, -0.07597697526216507, -0.022470073774456978, 0.047585781663656235, -0.02919129841029644, 0.02994474396109581, 0.05164451152086258, 0.0010841814801096916, -0.07614462077617645, 0.022663328796625137, -0.04228995367884636, 0.10247214883565903, 0.013644504360854626, -0.04757452383637428, -0.03304816409945488, 0.0032401441130787134, -0.03373033553361893, -0.026569603011012077, -0.017794685438275337, -0.018252093344926834, -0.03552180528640747, -0.028649788349866867, -0.009063877165317535, 0.0009637720650061965, -0.0009513501427136362, 0.03907519578933716, 0.044752053916454315, 0.01346072368323803, 0.046734120696783066, 0.019312141463160515, -0.03790649399161339, 0.04287494346499443, 0.025725269690155983, 0.012327536940574646, -0.029484890401363373, 0.05713699012994766, 0.012107224203646183, 0.06397398561239243, -0.009231210686266422, 0.014334535226225853, -0.005473486613482237, 0.0551028847694397, -0.02671625092625618, -0.008313573896884918, -0.008817624300718307, -0.007673859130591154, 0.013252812437713146, -0.021860692650079727, 0.009222175925970078, -0.061557136476039886, -0.0027811205945909023, -0.012352457270026207, -0.025794140994548798, 0.034760527312755585, 0.1134633794426918, 0.01139306090772152, 0.010176637209951878, -0.03850922733545303, -0.037167128175497055, -0.0036337682977318764, -0.04199301451444626, 0.026207521557807922, 0.12506131827831268, -0.09001833945512772, 0.014643333852291107, 0.05933932960033417, 0.015015059150755405, -0.07693297415971756, 0.009950139559805393, -0.025386573746800423, 0.0015209607081487775, -0.04835853353142738, -0.017328033223748207, 0.08861126750707626, 0.04396865889430046, -0.024334365501999855, -0.023707613348960876, 0.05010320246219635, 0.14118768274784088, -0.03448275849223137, -0.02289242297410965, 0.01982981339097023, -0.015475471504032612, -0.000994734582491219, 0.024543043226003647, 0.03234472498297691, -0.03638356924057007, -0.022194327786564827, 0.0930318757891655, -0.011268623173236847, 0.11803410947322845, 0.03472866863012314, -0.004834724124521017, 0.010954906232655048, 0.0012712879106402397, -0.09023037552833557, 0.026140451431274414, 0.006127411499619484, -0.015380377881228924, -0.015943221747875214, -0.06981135904788971, -0.04935600236058235, -0.049996551126241684, 0.07003657519817352, 0.0025823931209743023, 0.029802527278661728, -0.004831724334508181, -0.05083630979061127, 0.08687957376241684, -0.014706418849527836, 0.019954903051257133, -0.03422611951828003, -0.0479704812169075, 0.0007333024987019598, 0.0071347360499203205, 0.007019007578492165, -0.11036220192909241, 0.03406546637415886, -0.026694539934396744, 0.028056859970092773, 0.09161723405122757, -0.027082478627562523, 0.0012781987898051739, 0.02535892277956009, -0.013362813740968704, -0.1005019098520279, 0.00417080195620656, 0.019067224115133286, 0.02288842760026455, -0.0036999222356826067, 0.042192768305540085, 0.002110350178554654, -0.02464188262820244, -0.08396174013614655, 0.01696690171957016, -0.014846201986074448, -0.06159413605928421, -0.04950685054063797, 0.0047263288870453835, 0.003351249499246478, 0.02725493721663952, 0.03997568413615227, 0.05319317802786827, -0.0060130818746984005, 0.05246654152870178, -0.01835973933339119, 0.06274852156639099, 0.011180751956999302, -0.11959538608789444, -0.1463906317949295, -0.06926623731851578, -0.06105869263410568, -0.021510230377316475, -0.031359657645225525, 0.05053532496094704, 0.024672694504261017, -0.012876608408987522, 0.019645778462290764, -0.056465860456228256, -0.05465856194496155, 0.05825458839535713, 0.039979543536901474, 0.00831283163279295, -0.011550520546734333, -0.072329081594944, -0.05836264044046402, 0.04434284195303917, 0.0344955213367939, 0.11839892715215683, -0.011463369242846966, -0.009671363979578018, -0.0060204328037798405, 0.058599039912223816, 0.03888969495892525, -0.0393797867000103, 0.11724170297384262, -0.0028484368231147528, -0.06728509068489075, 0.0038276822306215763, -0.06083770468831062, 0.008386167697608471], [-0.02175511233508587, -0.13405373692512512, -0.01530044712126255, -0.0811844989657402, -0.025125928223133087, 0.029666457325220108, 0.016376541927456856, 0.08031429350376129, 0.13144506514072418, 0.013805494643747807, 0.06703022867441177, -0.0491521880030632, 0.014101956970989704, 0.03367014601826668, 0.007078299764543772, -0.002167939441278577, -0.05700274556875229, 0.004216879140585661, -0.023166721686720848, 0.02455216459929943, 0.0840228945016861, 0.009460875764489174, -0.0014946234878152609, -0.023432886227965355, 0.012590104714035988, 0.010223479941487312, 0.12400843948125839, -0.11571364104747772, 0.035998839884996414, 0.0048308405093848705, 0.02740154042840004, 0.026069127023220062, -0.12846243381500244, 0.05797210708260536, -0.01337585411965847, 0.03476669266819954, -0.08093257993459702, 0.0489269495010376, -0.026870759204030037, 0.00436429725959897, -0.06004922837018967, -0.08586303889751434, 0.020801329985260963, 0.019769534468650818, -0.002123565413057804, 0.027463626116514206, -0.015412481501698494, 0.006206693593412638, 0.009310070425271988, -0.015466655604541302, -0.0111267464235425, -0.006380164995789528, 0.056576624512672424, -0.049861468374729156, 0.026419250294566154, -0.050392456352710724, 0.028765074908733368, -0.007797903381288052, -0.019861938431859016, -0.01269875094294548, -0.042390841990709305, 0.014540261588990688, -0.029996229335665703, -0.05839856341481209, -0.019137011840939522, 0.056396495550870895, -0.005938366521149874, -0.05962712690234184, 0.052409056574106216, -0.0739329382777214, 0.0032753292471170425, 0.0327356792986393, 0.01963655650615692, -0.019723623991012573, 0.029258664697408676, -0.018895484507083893, -0.03356399014592171, 0.07874874025583267, -0.014590495266020298, -0.09958917647600174, 0.09758230298757553, -0.012496396899223328, 0.00410220492631197, -0.011421076953411102, -0.049793075770139694, -0.05291919782757759, -0.2500753700733185, 0.021423228085041046, 0.05166710913181305, -0.08384641259908676, -0.08689798414707184, 0.03499573469161987, -0.0008842710522003472, 0.014853065833449364, 0.03200656920671463, -0.029644213616847992, -0.05257995054125786, -0.007311385124921799, -0.01433569099754095, 0.02132735401391983, 0.013680040836334229, 0.012850466184318066, -0.01596580632030964, 0.03380053862929344, 0.019072676077485085, -0.013684414327144623, -0.07954006642103195, 0.029219985008239746, -0.032535161823034286, 0.027121035382151604, 0.050508543848991394, 0.021817447617650032, 0.0031011474784463644, 0.007168097887188196, -0.03586747124791145, -0.05044447258114815, 0.026283560320734978, -0.009763588197529316, 0.029023561626672745, 0.04011699929833412, -0.006677946541458368, 0.030198900029063225, 0.055268365889787674, -0.05124286934733391, 0.05084499344229698, 0.020149385556578636, 0.0034925895743072033, -0.03760773688554764, 0.009558495134115219, -0.025025738403201103, -0.1119513288140297, 0.03525043651461601, 0.015358606353402138, -0.01386374980211258, 0.03789806365966797, -0.049706123769283295, 0.05827629566192627, -0.056807346642017365, -0.02670102007687092, 0.1400449126958847, 0.11349142342805862, 0.0013530815485864878, -0.013693166896700859, 0.050461672246456146, 0.07438196986913681, 0.05562322214245796, 0.012861235998570919, -0.0912315770983696, 0.0661311000585556, -0.06506934762001038, 0.019577927887439728, -0.09131471067667007, -0.09812018275260925, -0.16947084665298462, 0.039147209376096725, -0.047484900802373886, 0.04804898053407669, -0.01924733817577362, 0.046495966613292694, 0.028492091223597527, 0.061571042984724045, 0.11403758078813553, 0.051562707871198654, 0.029547080397605896, 0.021731194108724594, -0.07859724014997482, 0.07846871763467789, 0.05517863109707832, 0.03618021681904793, 0.005360771436244249, -0.1685754358768463, -0.0629461407661438, 0.038726553320884705, -0.0953621119260788, -0.04062467813491821, 0.09182825684547424, -0.009768654592335224, -0.0543854683637619, 0.10553789883852005, -0.018489427864551544, -0.020904043689370155, -0.016519663855433464, 0.02522130310535431, -0.03199493885040283, 0.024982281029224396, 0.003341526258736849, -0.028948809951543808, -0.01946348138153553, -0.027527911588549614, -0.01583109237253666, -0.026007356122136116, 0.1600939929485321, -0.019289446994662285, 0.0023701072204858065, -0.03602273389697075, -0.15024256706237793, 0.05340438336133957, -0.04227008670568466, -0.0313747264444828, 0.06969904899597168, -0.00207158294506371, 0.00991752091795206, 0.02750443108379841, -0.034435659646987915, -0.016670044511556625, 0.02426972985267639, 0.0021686505060642958, -0.02614331804215908, -0.07884539663791656, -0.06296540051698685, 0.041699353605508804, 0.08477980643510818, 0.026959870010614395, -0.04457896947860718, -0.041758738458156586, 0.04018108546733856, -0.041070226579904556, -0.00677878875285387, -0.116325244307518, 0.010302236303687096, -0.04280020669102669, 0.039779771119356155, -0.0896371454000473, -0.13940179347991943, -0.007043651770800352, 0.024162979796528816, -0.11081165075302124, -0.04104399308562279, 0.011866963468492031, 0.02950034849345684, -0.007871927693486214, -0.011327859945595264, 0.0035697021521627903, 0.004609164781868458, 0.04875830188393593, -0.02432827651500702, -0.01002214103937149, -0.0062608057633042336, 0.01293247938156128, -0.05929470434784889, 0.015512417070567608, -0.03353385627269745, -0.03365934267640114, 0.04600834473967552, -0.03073396533727646, 0.033028218895196915, -0.02754066325724125, 0.02400468848645687, 0.013407592661678791, 0.07039278000593185, 0.14067983627319336, 0.027993015944957733, -0.10482694953680038, -0.006687699817121029, -0.017691904678940773, -0.05074383318424225, 0.032168831676244736, 0.10543255507946014, 0.022035084664821625, 0.03286333754658699, 0.017583457753062248, 0.06721986085176468, 0.019423963502049446, -0.028972148895263672, -0.030258137732744217, -0.0210676621645689, 0.031207911670207977, -0.05176534131169319, -0.013541472144424915, -0.059702351689338684, -0.009224177338182926, 0.09379886835813522, -0.12587133049964905, -0.051637206226587296, 0.0056142378598451614, 0.066039077937603, -0.004633235279470682, 0.01845506764948368, -0.06754816323518753, -0.012773382477462292, -0.008980708196759224, 0.032300256192684174, -0.03099314123392105, -0.015460921451449394, 0.14057402312755585, -0.10598480701446533, -0.007893956266343594, -0.010701427236199379, -0.10565629601478577, 0.10680984705686569, 0.03125524893403053, -0.012902847491204739, -0.02390856295824051, -0.010353480465710163, 0.0234499741345644, 0.021419327706098557, -0.004123758990317583, 0.05933241546154022, 0.01112411543726921, -0.03659059479832649, -0.0380997508764267, -0.014796626754105091, -0.05236615613102913, -0.03156934306025505, -0.0067022875882685184, -0.044140301644802094, 0.1601666361093521, 0.017489923164248466, -0.044487759470939636, -0.01514254417270422, -0.006929198745638132, 0.08011800050735474, 0.02074875496327877, -0.1025189757347107, -0.02295364998281002, -0.08990180492401123, -0.11254636198282242, 0.013829556293785572, 0.008002539165318012, -0.011884279549121857, 0.005365088116377592, -0.003978983499109745, -0.009702340699732304, 0.019808320328593254, -0.011124348267912865, -0.01639796420931816, 0.0005505277076736093, -0.04509083554148674, 0.01834223046898842, -0.03425616770982742, -0.01783165894448757, 0.01797657646238804, -0.04161804914474487, -0.03942433372139931, -0.03688707947731018, -0.04308493807911873, -0.06646841019392014, -0.004157195333391428, 0.04481988772749901, -0.08909387141466141, 0.009661688469350338, 0.007005598861724138, -0.017419124022126198, -0.014860079623758793, -0.07109880447387695, -0.013673613779246807, 0.028200821951031685, 0.05001633241772652, 0.02727629989385605, -0.06577730923891068, 0.02104305475950241, -0.0059353928081691265, 0.06771888583898544, 0.03987077251076698, -0.12022130936384201, -0.03662661090493202, 0.039712630212306976, 0.021722231060266495, -0.011891455389559269, -0.017628425732254982, -0.036910247057676315, 0.01917322352528572, 0.02927454374730587, -0.004629779141396284, -0.05422079935669899, 0.01994662918150425, -0.017324160784482956, 0.03676880896091461, -0.007962523959577084, -0.011064237914979458, -0.016846459358930588, -0.00415423046797514, -0.052572719752788544, -0.03327440842986107, 0.02226727455854416, -0.021066104993224144, 0.0633574053645134, 0.01288191881030798, 0.020712213590741158, 0.008837593719363213, -0.10018971562385559, -0.06322930753231049, -0.012777205556631088, -0.0005518611869774759, 0.0196846891194582, -0.11657371371984482, 0.003786528715863824, -0.056893348693847656, -0.025063367560505867, 0.0015138147864490747, 0.02675612084567547, 0.018942764028906822, -0.03074505738914013, 0.08917102217674255, 0.03761908784508705, -0.02451770193874836, -0.0035769841633737087, -0.04411470517516136, 0.014448034577071667, -0.02479088492691517, 0.0397440567612648, -0.0012252990854904056, -0.044952474534511566, 0.07444369047880173, 0.03492831811308861, 0.052099041640758514, 0.06359079480171204, -0.02918073534965515, 0.029525073245167732, -0.010328610427677631, -0.016194073483347893, 0.026925720274448395, -0.008792114444077015, -0.047144245356321335, -0.028292089700698853, 0.01332373358309269, 0.07300698012113571, -0.03411566838622093, -0.06271007657051086, 0.02751046046614647, 0.0480150543153286, 0.058544281870126724, 0.03869932144880295, -0.03332269936800003, 0.11665720492601395, 0.0012945565395057201, -0.17512638866901398, -0.0176951065659523, -0.0010847838129848242, -0.009314272552728653, -0.016229704022407532, 0.04831119254231453, -0.03833939507603645, 0.008435682393610477, 0.14016802608966827, 0.05474194139242172, 0.027191152796149254, -0.05774089694023132, -0.09421685338020325, 