{"mlp": {"layers": [{"weights": [[0.4177000820636749, -0.325690895318985], [-0.21148769557476044, -0.4240613877773285], [-0.16227750480175018, 0.3554418385028839], [-0.305135041475296, 0.07420231401920319], [0.20142489671707153, -0.13570860028266907], [0.21639719605445862, 0.23169216513633728], [-0.020889239385724068, -0.129457026720047], [-0.034304019063711166, -0.2989179193973541], [0.4831257164478302, -0.3078603446483612], [-0.4036652743816376, 0.14861974120140076], [0.04540758579969406, 0.023493099957704544], [0.2510248124599457, 0.2246311753988266], [-0.4117465913295746, 0.42270368337631226], [0.11626705527305603, -0.3206738233566284], [-0.029364250600337982, 0.1808808147907257], [0.16748619079589844, 0.48825323581695557], [-0.36509594321250916, -0.2863588333129883], [0.4399974048137665, 0.060130562633275986], [-0.27500227093696594, -0.06577065587043762], [-0.26382166147232056, -0.07604362070560455], [0.051954906433820724, 0.08573625981807709], [-0.3916601538658142, -0.27067285776138306], [-0.25697287917137146, 0.2695167362689972], [-0.08729419857263565, 0.4448437988758087], [-0.12202692031860352, 0.011631869710981846], [-0.04086914286017418, 0.1304333359003067], [-0.3606499433517456, -0.19423739612102509], [-0.4513602554798126, 0.2519147992134094], [0.24335423111915588, 0.4138301610946655], [-0.43922850489616394, -0.14049778878688812], [-0.2694496512413025, 0.31676554679870605], [0.03433169052004814, 0.084442637860775], [-0.1342083215713501, -0.10933787375688553], [0.2530890703201294, -0.36176812648773193], [0.40233445167541504, 0.2736610472202301], [-0.09133654087781906, 0.13234256207942963], [0.39301687479019165, -0.2648625671863556], [-0.15913783013820648, 0.09261228889226913], [-0.07087983936071396, -0.38441553711891174], [-0.47924962639808655, 0.042354658246040344], [-0.47338101267814636, 0.25430548191070557], [0.21117264032363892, -0.2929287552833557], [-0.4204554259777069, 0.28988826274871826], [-0.41497936844825745, 0.36293908953666687], [0.1863987296819687, -0.35134413838386536], [-0.06695843487977982, -0.33866816759109497], [-0.34158262610435486, 0.036247339099645615], [0.21730399131774902, -0.03193695470690727], [-0.27371370792388916, 0.3818710744380951], [-0.3192182779312134, -0.397996187210083], [-0.018571259453892708, 0.3966456353664398], [0.10512347519397736, -0.2383553385734558], [0.3488280475139618, -0.0947078987956047], [-0.21964040398597717, 0.0699186697602272], [0.4166432321071625, -0.49437767267227173], [-0.3061599135398865, -0.16962720453739166], [0.08079808950424194, -0.27604445815086365], [0.12335570156574249, -0.36471161246299744], [-0.03516680374741554, 0.06078285351395607], [-0.34900033473968506, 0.3424852788448334], [0.24881106615066528, -0.24682669341564178], [0.2940978407859802, 0.21304090321063995], [-0.42982378602027893, 0.47456157207489014], [0.43011340498924255, 0.47443655133247375]], "biases": [0.045910824090242386, 0.42042165994644165, 0.2801511883735657, -0.5918831825256348, 0.6438832879066467, 0.5103721022605896, -0.7162641286849976, -0.49835139513015747, -0.6877182126045227, -0.5012571215629578, -0.417188435792923, 0.37276652455329895, 0.6537774801254272, 0.20052753388881683, -0.10066285729408264, -0.3646908104419708, 0.25323212146759033, -0.35234320163726807, 0.3797716498374939, 0.07257478684186935, -0.568612813949585, 0.5699227452278137, -0.6604303121566772, 0.04564087092876434, 0.5688497424125671, 0.6712904572486877, -0.2877108156681061, 0.5966569781303406, -0.25811856985092163, 0.04772384837269783, -0.6245304942131042, -0.679622232913971, -0.5060011148452759, -0.09948836266994476, 0.5863047242164612, -0.4156084656715393, -0.05102973431348801, -0.34218576550483704, 0.43411707878112793, 0.6368612051010132, 0.5724138021469116, 0.5444727540016174, -0.26717865467071533, 0.3753499686717987, -0.38464540243148804, -0.7211574912071228, -0.3012740910053253, -0.030063623562455177, -0.2668094038963318, 0.13873136043548584, 0.7217252254486084, -0.059058237820863724, -0.4040302336215973, -0.4921913146972656, 0.23778429627418518, 0.49674656987190247, -0.11412855237722397, -0.04205770418047905, 0.30971118807792664, 0.044127270579338074, 0.45090657472610474, 0.28881165385246277, 0.5582550168037415, -0.39625459909439087]}, {"weights": [[0.23124705255031586, 0.26261743903160095, 0.10090138018131256, 0.03994393348693848, -0.21525980532169342, 0.2449052929878235, 0.21256373822689056, 0.01579040288925171, -0.2623465657234192, 0.19659903645515442, 0.15435802936553955, -0.23096401989459991, 0.09022701531648636, -0.2354099601507187, 0.13294196128845215, -0.19808201491832733, 0.11083494871854782, 0.011752478778362274, 0.16147804260253906, 0.2533460855484009, 0.09795400500297546, 0.14776480197906494, -0.15517887473106384, -0.1296011060476303, 0.25400790572166443, -0.33232468366622925, 0.1617535948753357, 0.07567767053842545, 0.050677306950092316, 0.12838652729988098, 0.21878893673419952, -0.22656770050525665, 0.016725821420550346, -0.0637223944067955, -0.11978958547115326, 0.21363547444343567, 0.12671078741550446, -0.10772545635700226, -0.020657187327742577, -0.26680076122283936, 0.026668015867471695, -0.09662112593650818, 0.29743078351020813, 0.09890821576118469, 0.1579151153564453, -0.1911938637495041, -0.15104436874389648, -0.10035639256238937, -0.11559601128101349, -0.11459675431251526, 0.15807142853736877, -0.10189259797334671, -0.2496303766965866, 0.21453425288200378, -0.246414914727211, -0.028051042929291725, -0.2118948996067047, -0.05340222641825676, 0.30650874972343445, 0.045785047113895416, -0.16427136957645416, -0.23622478544712067, 0.2322143316268921, 0.15092682838439941], [0.15213653445243835, -0.21893465518951416, -0.18605326116085052, -0.2768145799636841, -0.1126021146774292, -0.16018635034561157, -0.04399361088871956, -0.11866641044616699, 0.09743905812501907, -0.2859111726284027, 0.1431669145822525, -0.15414825081825256, 0.15857820212841034, 9.841221617534757e-05, 0.04529254510998726, -0.05637657269835472, -0.25540614128112793, -0.23222433030605316, -0.16580873727798462, -0.187250554561615, -0.2700854539871216, 0.3079540729522705, 0.2820357382297516, -0.1989758461713791, 0.1884458214044571, 0.2224167436361313, 0.2405148446559906, -0.30411437153816223, -0.041909195482730865, -0.11693202704191208, -0.06969242542982101, -0.13610337674617767, 0.2741253674030304, -0.01102021336555481, 0.02245570346713066, 0.31157946586608887, 0.1778346300125122, -0.26185983419418335, 0.289978563785553, -0.21909651160240173, -0.060757074505090714, -0.16579373180866241, 0.2408864051103592, 0.11031929403543472, -0.11307894438505173, 0.04650954529643059, -0.09864460676908493, -0.1969708502292633, -0.23346412181854248, -0.2390734851360321, -0.16865308582782745, -0.0439436100423336, 0.006464070174843073, 0.32174956798553467, 0.23167183995246887, 0.1995057910680771, -0.2138214409351349, -0.18757164478302002, 0.2427743375301361, -0.02960146777331829, 0.1850946694612503, 0.18344873189926147, 0.19188682734966278, -0.08713489770889282], [-0.009171972051262856, 0.24884051084518433, -0.05907519906759262, 0.02837948128581047, 0.1883668601512909, -0.16041496396064758, -0.06465300172567368, -0.005462839268147945, -0.2430090606212616, -0.08317866176366806, -0.2761092185974121, 0.14393605291843414, -0.18071278929710388, 0.017547069117426872, -0.3175715208053589, 0.12232472002506256, 0.3087928891181946, -0.29962339997291565, 0.1696106642484665, -0.15197987854480743, 0.197688490152359, 0.19333814084529877, 0.16387897729873657, 0.022500887513160706, -0.20133309066295624, 0.10227411985397339, -0.0711488276720047, -0.21972864866256714, 0.009633124805986881, -0.22178049385547638, -0.15508033335208893, 0.21746474504470825, -0.2735339403152466, 0.3290784955024719, -0.21704155206680298, 0.16918286681175232, -0.1291152685880661, -0.04322701692581177, -0.23053711652755737, -0.12823136150836945, 0.30564311146736145, 0.09937727451324463, -0.09629557281732559, 0.19308419525623322, -0.04135601222515106, 0.14243434369564056, 0.0026529727037996054, 0.008339891210198402, -0.008819110691547394, -0.06154618784785271, -0.2801281213760376, -0.07460667937994003, 0.17869745194911957, 0.12314681708812714, -0.1819080263376236, -0.2162172794342041, 0.2951508164405823, -0.3076590597629547, -0.09349485486745834, 0.25146499276161194, -0.2807207405567169, -0.1536874920129776, 0.04627867788076401, -0.01420685090124607], [0.07514525204896927, 0.11637064814567566, -0.2910919487476349, 0.02650713175535202, 0.22494912147521973, -0.19984424114227295, -0.00013421523908618838, -0.08433157205581665, -0.23724298179149628, 0.2399539351463318, 0.16694822907447815, -0.20747654139995575, 0.19571559131145477, 0.025834234431385994, -0.20286060869693756, -0.0771394819021225, 0.31511226296424866, 0.21799154579639435, -0.14595000445842743, -0.22135679423809052, 0.2650301158428192, 0.11732663959264755, 0.11565784364938736, 0.16097843647003174, 0.10450118780136108, -0.0036968975327908993, -0.2886664569377899, -0.058426108211278915, 0.21564078330993652, 0.15129318833351135, -0.25011950731277466, -0.23050729930400848, 0.32276397943496704, 0.2702503204345703, 0.224883034825325, 0.20607808232307434, -0.2223217636346817, 0.018322834745049477, 0.035899385809898376, -0.15203921496868134, 0.15408730506896973, -0.18348996341228485, -0.1762876808643341, 0.14164867997169495, 0.0949268490076065, 0.1248847246170044, 0.1764860302209854, 0.025387011468410492, 0.09191073477268219, -0.3173663318157196, -0.2880967855453491, -0.1785229742527008, 0.24174271523952484, 0.16353574395179749, -0.2215256243944168, 0.012082609347999096, -0.2531152367591858, 0.18479686975479126, -0.21926617622375488, -0.26286581158638, -0.06462529301643372, -0.2856290638446808, 0.27867594361305237, -0.04432426393032074], [-0.08513902872800827, -0.27157971262931824, 0.06229951232671738, 0.13564205169677734, -0.004663578234612942, -0.15097354352474213, 0.221242293715477, -0.04400008171796799, 0.052471715956926346, 0.2058810442686081, 0.19591718912124634, -0.06336026638746262, -0.14554427564144135, -0.2139253318309784, -0.06816932559013367, 0.15784430503845215, -0.03739835321903229, 0.11385771632194519, -0.20573922991752625, 0.1307159662246704, 0.17876678705215454, -0.17287801206111908, -0.003066429402679205, 0.24075590074062347, 0.013414198532700539, 0.04672885313630104, 0.26667580008506775, -0.12141837924718857, -0.10279414057731628, 0.11304572969675064, 0.25888654589653015, 0.1992306262254715, -0.14734061062335968, 0.2505611181259155, -0.27024510502815247, 0.30668526887893677, -0.09773976355791092, 0.24144892394542694, -0.06586840003728867, 0.0503198616206646, -0.137291818857193, 0.19285009801387787, -0.2038060426712036, -0.12771086394786835, 0.2233559936285019, -0.15198247134685516, 0.08533760905265808, 0.2497280091047287, -0.12415008246898651, 0.0038411591667681932, -0.278896301984787, -0.25765460729599, -0.2589676082134247, 0.12788884341716766, -0.2086731642484665, 0.24391943216323853, 0.1128062978386879, -0.2724953293800354, 0.028469890356063843, -0.10525166243314743, -0.1871366798877716, -0.3056405186653137, 0.11130252480506897, 0.13549205660820007], [-0.21972140669822693, -0.19179651141166687, -0.010848015546798706, -0.2881547808647156, 0.08778801560401917, 0.07294895499944687, 0.1978745460510254, 0.02489878423511982, 0.09567240625619888, -0.017963949590921402, -0.20540137588977814, 0.15646256506443024, -0.18450330197811127, -0.17214393615722656, 0.23896481096744537, 0.28185713291168213, 0.24623440206050873, -0.237193301320076, -0.23868879675865173, -0.31761634349823, 0.02368486486375332, 0.16485801339149475, -0.27842023968696594, -0.11185251921415329, 1.2200714081700426e-05, 0.23449736833572388, 0.31888020038604736, 0.13930490612983704, -0.16261757910251617, 0.056272245943546295, -0.15758831799030304, 0.2529492676258087, -0.21062617003917694, 0.02777020074427128, 0.035144656896591187, 0.22898098826408386, -0.045568931847810745, 0.058971621096134186, 0.04586232081055641, -0.24691462516784668, -0.01839234121143818, -0.06055445224046707, 0.022668618708848953, 0.09182190895080566, 0.1363852322101593, 0.12007587403059006, 0.16265903413295746, -0.21929049491882324, 0.09653476625680923, -0.1102401539683342, -0.10007630288600922, -0.2929213345050812, -0.09354206919670105, 0.18203754723072052, 0.3083815276622772, -0.041580915451049805, -0.2267460972070694, 0.19195663928985596, 0.15399320423603058, 0.01557126920670271, 0.12077111005783081, 0.03475116565823555, 0.03801683336496353, -0.29352185130119324], [-0.23837429285049438, -0.17921027541160583, -0.013314871117472649, -0.10029840469360352, -0.29765188694000244, 0.1067543551325798, 0.15287260711193085, 0.2720284163951874, -0.16022366285324097, 0.0965781956911087, -0.014172766357660294, -0.13768069446086884, 0.2354317605495453, 0.06803491711616516, -0.17189200222492218, -0.0036828976590186357, 0.2965770661830902, 0.026875652372837067, -0.06969952583312988, 0.16624760627746582, 0.24933017790317535, -0.2679333984851837, 0.1632353663444519, 0.15723441541194916, -0.28741708397865295, -0.10515318810939789, -0.06183824688196182, -0.057256363332271576, 0.17024889588356018, 0.3114131689071655, -0.267456591129303, -0.0022258784156292677, 0.007043980527669191, 0.26737719774246216, -0.26857203245162964, -0.12839645147323608, 0.054860640317201614, 0.1657252311706543, -0.09030475467443466, 0.2749347388744354, 0.1772647351026535, 0.1506350189447403, -0.01678466796875, -0.07484185695648193, 0.15952348709106445, 0.009222329594194889, -0.2480781227350235, -0.2522311210632324, 0.28667742013931274, -0.1616872400045395, 0.05243431776762009, 0.04153873771429062, -0.005635753273963928, 0.08585064113140106, 0.21800822019577026, 0.1234375536441803, 0.0045294505544006824, 0.03480477258563042, -0.3231261074542999, 0.0055907974019646645, 0.1229916661977768, 0.08922018110752106, 0.10707131028175354, 0.14694219827651978], [-0.2382710874080658, 0.07213595509529114, -0.11561362445354462, 0.19370536506175995, -0.08550585806369781, 0.21315066516399384, 0.2612546682357788, -0.2938533127307892, -0.19010069966316223, 0.019013190641999245, -0.11090701073408127, -0.10733788460493088, 0.11844757944345474, -0.19591373205184937, 0.049658358097076416, 0.20136399567127228, -0.22677001357078552, -0.035068582743406296, 0.030707895755767822, 0.18698954582214355, -0.07836195826530457, 0.1525074541568756, 0.16006596386432648, 0.2937086820602417, -0.06772646307945251, 0.24942882359027863, 0.23002642393112183, 0.19719752669334412, 0.22792711853981018, -0.13553515076637268, 0.011212196201086044, 0.1502896398305893, -0.05776042491197586, 0.1852577030658722, -0.15554547309875488, 0.2799769341945648, -0.06482239812612534, -0.11634992063045502, 0.12554362416267395, 0.04210134968161583, -0.14284972846508026, 0.29223835468292236, 0.24302460253238678, 0.07795640081167221, 0.12159107625484467, 0.24979035556316376, 0.2566835880279541, 0.14472876489162445, 0.24010363221168518, -0.08378056436777115, 0.2349189668893814, 0.22391453385353088, 0.16670584678649902, 0.059193916618824005, -0.2239014208316803, 0.2126106172800064, 0.05056479573249817, -0.0717325359582901, 0.24033446609973907, -0.15742716193199158, 0.13175180554389954, 0.2423894703388214, -0.09918492287397385, 0.08848004043102264], [-0.12983338534832, -0.13623878359794617, 0.2513592839241028, 0.12240578234195709, -0.012663787230849266, 0.23329167068004608, -0.23905514180660248, 0.1997879445552826, 0.16409458220005035, 0.28827616572380066, 0.2723676860332489, -0.04067613184452057, -0.26154351234436035, -0.12458941340446472, -0.026425115764141083, -0.29491978883743286, -0.02272859402000904, 0.19207005202770233, 0.0128624914214015, -0.10145998001098633, -0.21863816678524017, -0.102702297270298, 0.025263333693146706, -0.14161710441112518, 0.12304726243019104, -0.3058089017868042, -0.24030689895153046, 0.03183886036276817, -0.24707145988941193, -0.0846596509218216, -0.008216838352382183, 0.05854587256908417, 0.06738352030515671, -0.0012047315249219537, 0.07152017205953598, 0.03927129507064819, -0.2587772607803345, 0.15059590339660645, -0.1421758234500885, -0.16282439231872559, 0.28138160705566406, -0.0698309987783432, 0.11693955212831497, 0.05025218054652214, 0.05297887697815895, -0.07381124049425125, 0.045189473778009415, -0.2026255875825882, -0.11218863725662231, 0.23884087800979614, 0.28039172291755676, -0.09402246028184891, 0.276915967464447, -0.27265459299087524, -0.0034174087923020124, 0.10457129776477814, 0.025740688666701317, 0.02286117896437645, 0.11035250872373581, -0.21382659673690796, 0.3042406737804413, 0.2268683761358261, -0.042730070650577545, 0.02351934090256691], [0.0015558392042294145, 0.1115257516503334, 0.12235642224550247, 0.10586850345134735, 0.11485309898853302, -0.0007158108637668192, -0.11464856564998627, 0.23102116584777832, -0.06565166264772415, 0.07484959065914154, 0.2858840227127075, -0.07477860152721405, -0.023369016125798225, 0.14660044014453888, 0.1455511599779129, -0.10792268812656403, -0.10860786586999893, -0.21871493756771088, 0.030062997713685036, -0.006921484600752592, -0.14419929683208466, 0.015012947842478752, 0.13936039805412292, 0.10736387968063354, 0.0008949069888330996, -0.017112834379076958, 0.11219136416912079, -0.04644026234745979, 0.10848961770534515, -0.23691603541374207, 0.16833257675170898, 0.0037127386312931776, -0.10637909919023514, -0.16357523202896118, -0.11955713480710983, -0.028773540630936623, 0.2704612612724304, 0.27653077244758606, -0.19794563949108124, -0.04544568434357643, -0.1491062045097351, 0.016915682703256607, -0.01354119461029768, 0.16841799020767212, -0.00887470692396164, 0.15119020640850067, 0.17178915441036224, 0.24337056279182434, -0.022713014855980873, 0.3096652328968048, 0.13488157093524933, -0.21918714046478271, -0.18462598323822021, -0.14470236003398895, 0.17731410264968872, -0.07018373161554337, 0.1952829509973526, -0.17591388523578644, -0.1902351826429367, 0.21573935449123383, -0.26806479692459106, 0.26445329189300537, 0.28515109419822693, -0.06624853610992432], [0.0763922780752182, 0.31110531091690063, -0.13040032982826233, -0.2723708152770996, -0.16908244788646698, -0.2266211360692978, -0.014797975309193134, 0.18834556639194489, 0.0972352921962738, -0.06239757686853409, -0.17279763519763947, 0.1498384028673172, 0.34008026123046875, -0.12789136171340942, 0.16466130316257477, 0.2818411886692047, 0.17479917407035828, 0.09365416318178177, -0.2941109240055084, -0.08138959854841232, 0.2934613823890686, -0.20937952399253845, 0.13623039424419403, 0.11061248928308487, -0.20816265046596527, -0.1696833372116089, 0.18067213892936707, -0.19119732081890106, -0.25555503368377686, -0.18322594463825226, 0.05810282751917839, -0.07752977311611176, 0.0022837810683995485, -0.21811826527118683, -0.12663620710372925, 0.3382679522037506, 0.2893832325935364, 0.0687016025185585, 0.16519156098365784, 0.008759154006838799, -0.11975318938493729, 0.05930757895112038, 0.10782412439584732, -0.2789892256259918, 0.08652463555335999, -0.24336479604244232, -0.07867439836263657, 0.05381467938423157, -0.1313578337430954, -0.06956382840871811, -0.12161295861005783, -0.01704809069633484, -0.06571774929761887, -0.17479462921619415, 0.07308559864759445, -0.2450886070728302, 0.26520904898643494, 0.06495401263237, -0.11452381312847137, -0.1098661944270134, 0.1659974902868271, -0.04710717499256134, 0.01951446570456028, 0.24668645858764648], [-0.006983992177993059, 0.13730202615261078, -0.0798969492316246, -0.17862477898597717, -0.17118728160858154, -0.057540472596883774, -0.01716500148177147, 0.044828079640865326, -0.12232299149036407, 0.2545472979545593, -0.1532466858625412, -0.03312377631664276, -0.021104685962200165, 0.040612343698740005, 0.18291281163692474, 0.19220766425132751, 0.173965722322464, -0.12503677606582642, 0.21679016947746277, -0.15421095490455627, 0.028147272765636444, 0.11570797115564346, -0.09910348802804947, -0.27808552980422974, 0.007298148237168789, 0.03834037855267525, -0.1956554651260376, -0.021725455299019814, -0.05766599252820015, 0.00816406775265932, -0.15910537540912628, -0.25410568714141846, -0.15305174887180328, 0.26762959361076355, -0.01666397415101528, 0.15810716152191162, 0.07184010744094849, -0.14848817884922028, -0.17175406217575073, 0.1434324085712433, 0.1976744681596756, 0.13313795626163483, -0.0207428727298975, 0.18477743864059448, -0.03381194919347763, 0.13526631891727448, -0.0688660740852356, -0.18286427855491638, 0.22119960188865662, -0.05442778021097183, -0.21049360930919647, -0.12417389452457428, -0.24173229932785034, -0.1384820193052292, 0.20767346024513245, -0.17985258996486664, -0.21941229701042175, 0.25383347272872925, -0.00948044192045927, 0.10245169699192047, -0.16436317563056946, 0.36196988821029663, 0.06080786883831024, 0.19287244975566864], [-0.047822222113609314, -0.06717199087142944, 0.112660251557827, 0.04353770986199379, -0.004015476908534765, -0.26010289788246155, -0.09408892691135406, -0.3083173632621765, -0.11093021929264069, 0.060883779078722, 0.0009616984752938151, 0.27833953499794006, 0.24410715699195862, -0.19681255519390106, -0.015658490359783173, 0.22639411687850952, 0.3032781779766083, -0.07694291323423386, -0.1342429369688034, -0.24879097938537598, -0.19841992855072021, -0.149448961019516, -0.13769902288913727, -0.1370520442724228, 0.09680637717247009, 0.31544992327690125, -0.20298732817173004, -0.057497672736644745, 0.2750374376773834, -0.23454804718494415, 0.25381770730018616, 0.2622210383415222, 0.19499006867408752, -0.05025508627295494, 0.1642073541879654, 0.1776788979768753, -0.0511871762573719, 0.07462096214294434, -0.16509486734867096, -0.15964670479297638, 0.052171338349580765, -0.16167692840099335, 0.269549161195755, -0.22326436638832092, 0.1446007639169693, -0.11245071142911911, 0.22988659143447876, -0.23691605031490326, -0.06208792328834534, 0.23253105580806732, 0.1631385236978531, -0.08888348191976547, 0.012900447472929955, 0.21406811475753784, -0.008050321601331234, -0.2006331980228424, 0.13683511316776276, 0.27997392416000366, 0.09172939509153366, 0.040887556970119476, 0.030982937663793564, 0.07833533734083176, -0.09004601091146469, -0.2205265611410141], [-0.234615296125412, -0.00412564305588603, 0.1547578126192093, 0.20767509937286377, -0.055442698299884796, -0.265750527381897, -0.10312163829803467, -0.026256149634718895, -0.0008906769216991961, -0.1407766491174698, 0.22513751685619354, 0.0018613978754729033, 0.1802300214767456, 0.024132139980793, 0.046723444014787674, 0.2457655519247055, 0.17984211444854736, 0.12173555791378021, 0.22240842878818512, 0.12889859080314636, 0.18826010823249817, -0.1878865659236908, 0.14170147478580475, -0.13213570415973663, -0.22790716588497162, -0.13522619009017944, 0.04343334957957268, -0.21240518987178802, -0.05686088278889656, 0.0358240008354187, -0.24205593764781952, 0.16185517609119415, 0.05263332650065422, -0.3223744332790375, 0.014282925985753536, 0.042800188064575195, 0.033541999757289886, -0.20428438484668732, 0.20201295614242554, -0.0004699875717051327, 0.24541106820106506, 0.1634036749601364, 0.09701041132211685, -0.1546536684036255, 0.22189117968082428, 0.09248902648687363, 0.1355469673871994, -0.03215714916586876, 0.14830496907234192, -0.0396333672106266, 0.2507108151912689, -0.1061735525727272, 0.11180048435926437, 0.21200808882713318, -0.019710209220647812, -0.2392207235097885, 0.19898657500743866, -0.05723924934864044, 0.22881191968917847, 0.19911731779575348, 0.2124462127685547, 0.1302957683801651, -0.24804353713989258, 0.03250116482377052], [-0.059012770652770996, 0.12313401699066162, 0.23836982250213623, 0.2341940999031067, -0.0729529932141304, -0.15239211916923523, 0.2119559943675995, -0.13839669525623322, -0.06085930019617081, 0.24512235820293427, -0.02131596952676773, 0.08382435888051987, 0.14634208381175995, -0.3056522011756897, 0.18195562064647675, 0.06697801500558853, -0.14018890261650085, 0.10671155899763107, -0.2583063542842865, -0.13986331224441528, 0.17117047309875488, 0.2625405490398407, 0.06900997459888458, -0.257912814617157, -0.005785793997347355, -0.07643327862024307, 0.06397145241498947, 0.17868681252002716, 0.05008195340633392, -0.37203654646873474, -0.17019078135490417, -0.12473473697900772, -0.2743983566761017, -0.13797123730182648, 0.1237511858344078, -0.20576654374599457, -0.22623425722122192, 0.1066979244351387, -0.28598394989967346, -0.0027702273800969124, -0.29590412974357605, -0.14222630858421326, -0.03505728766322136, 0.23853425681591034, 0.023007052019238472, -0.049065884202718735, 0.1673550307750702, 0.1240905374288559, -0.02229626476764679, 0.06214543431997299, 0.0720193088054657, -0.208598330616951, 0.2007523626089096, -0.17656441032886505, -0.24512599408626556, 0.285800576210022, -0.030565306544303894, -0.03582065925002098, 0.001270183944143355, -0.2582187354564667, -0.18993139266967773, 0.1955140084028244, -0.010461056604981422, -0.07788730412721634], [-0.1897958517074585, 0.000812206300906837, 0.04919758439064026, -0.07040131837129593, -0.2072066068649292, -0.041741132736206055, 0.09789138287305832, 0.22406572103500366, 0.06850115209817886, -0.146770641207695, -0.07844811677932739, -0.12230859696865082, 0.028145652264356613, -0.07793830335140228, -0.05863509699702263, -0.024163706228137016, 0.2963797152042389, 0.13290993869304657, 0.10992557555437088, 0.2328532636165619, -0.24900071322917938, 0.0157491285353899, -0.039800290018320084, -0.005099734291434288, 0.25461989641189575, -0.24604690074920654, 0.22453109920024872, 0.207300066947937, -0.020509757101535797, 0.182328000664711, -0.2082958221435547, -0.2146344631910324, 0.15143994987010956, -0.21098051965236664, 0.06794801354408264, 0.29775601625442505, 0.1257307529449463, -0.31400614976882935, -0.15967673063278198, -0.3177257776260376, -0.2521665692329407, 0.16930550336837769, 0.0370686873793602, 0.006747308652848005, -0.1290331929922104, 0.09690430760383606, 0.25787967443466187, -0.16117282211780548, -0.0626782551407814, 0.2545623779296875, -0.08988165855407715, -0.08265916258096695, 0.1735237091779709, -0.2658228576183319, -0.02132352627813816, -0.14446613192558289, 0.27015793323516846, 0.24553053081035614, 0.18402612209320068, 0.27313148975372314, -0.06211750954389572, 0.059611815959215164, -0.25810137391090393, 0.07637226581573486], [-0.21826760470867157, 0.16563117504119873, 0.13160961866378784, -0.2234126627445221, 0.08892206847667694, -0.138766348361969, -0.12754857540130615, 0.057783275842666626, -0.21878361701965332, 0.10551387071609497, -0.22150100767612457, 0.12824715673923492, 0.14871443808078766, 0.061212584376335144, 0.3006289005279541, -0.05940208584070206, -0.23704589903354645, 0.17180106043815613, 0.0014911292819306254, 0.27300113439559937, -0.2626873850822449, -0.26479771733283997, -0.0067600226029753685, -0.3126460909843445, 0.05514354258775711, -0.1541592925786972, 0.024657603353261948, 0.06438982486724854, 0.21333293616771698, -0.22509105503559113, -0.11161763966083527, -0.05811970680952072, 0.24357591569423676, 0.019124774262309074, 0.03538652881979942, 0.20543953776359558, -0.33057883381843567, 0.04509451985359192, 0.2564631402492523, 0.04829694703221321, 0.27993178367614746, 0.13765135407447815, 0.022486485540866852, -0.1374490112066269, -0.15008442103862762, -0.07571020722389221, -0.253456711769104, -0.2816869616508484, -0.1838439255952835, 0.1428185999393463, 0.0022205798886716366, 0.28690305352211, -0.1261167824268341, 0.1780000925064087, 0.05527482181787491, -0.05052834004163742, 0.24693803489208221, -0.06808315962553024, -0.2877742350101471, -0.017486808821558952, 0.14619694650173187, 0.07219724357128143, 2.313040204171557e-05, 0.0038994192145764828], [0.24576345086097717, 0.2557688355445862, 0.10249248147010803, -0.23864910006523132, -0.13632002472877502, -0.19878940284252167, 0.19029934704303741, -0.06800880283117294, 0.1942177265882492, 0.028669489547610283, 0.2246614545583725, 0.24106718599796295, -0.1186961680650711, 0.18200719356536865, -0.2917364239692688, -0.030849797651171684, 0.1543056070804596, 0.10569292306900024, -0.18115314841270447, -0.022228576242923737, -0.21738839149475098, 0.11493372917175293, -0.28511789441108704, -0.2641422152519226, -0.06928423792123795, 0.11998040229082108, 0.2311852127313614, -0.26005852222442627, -0.29213348031044006, 0.09811200946569443, 0.0507282055914402, -0.19433216750621796, 0.27593809366226196, -0.2660191059112549, -0.08627491444349289, -0.23768475651741028, 0.308343768119812, -0.1714334934949875, -0.2427920252084732, 0.22215737402439117, 0.17776690423488617, 0.17491748929023743, -0.2550573945045471, 0.3406660258769989, 0.13156205415725708, -0.06762456148862839, 0.15902888774871826, -0.05492463707923889, -0.2727009356021881, 0.0986919105052948, 0.011528229340910912, -0.1360735148191452, 0.12590937316417694, 0.1721956431865692, -0.2371547669172287, -0.2328563928604126, -0.21052268147468567, 0.011717340908944607, 0.2836346924304962, 0.18990090489387512, 0.014520150609314442, 0.11366946995258331, -0.08319126814603806, -0.02073741890490055], [0.0929274931550026, -0.3275606632232666, -0.11152560263872147, 0.2236652672290802, 0.03816286101937294, -0.15167495608329773, 0.010864323936402798, 0.11745152622461319, 0.01257280819118023, -0.16400842368602753, -0.10639308393001556, -0.1263488084077835, -0.24283260107040405, -0.005956082604825497, -0.07551205158233643, 0.02445545233786106, -0.038750872015953064, 0.15379901230335236, 0.06617970764636993, 0.0964304581284523, -0.04520731791853905, 0.27308207750320435, -0.14733640849590302, 0.2612721621990204, -0.20348790287971497, 0.13523125648498535, -0.10536733269691467, -0.07810023427009583, 0.028587020933628082, -0.07902830839157104, -0.34723877906799316, 0.2523502707481384, -0.11280573159456253, -0.24413083493709564, -0.2095068246126175, -0.08384988456964493, 0.29298636317253113, -0.0006816633394919336, 0.1041942909359932, 0.289836049079895, 0.17248673737049103, 0.19165551662445068, -0.28212130069732666, 0.06496954709291458, -0.07380171865224838, 0.04804778844118118, -0.019708601757884026, -0.268610417842865, -0.0020922361873090267, 0.1737302988767624, 0.18374653160572052, 0.24014058709144592, 0.3280984163284302, 0.21967382729053497, 0.03049412928521633, 0.2760246694087982, -0.08503493666648865, 0.12956921756267548, 0.23663337528705597, -0.00810137577354908, -0.15803346037864685, 0.19474036991596222, 0.23247134685516357, 0.16315054893493652], [-0.29387927055358887, -0.042159438133239746, 0.12146346271038055, -0.2069164663553238, 0.07478800415992737, -0.12705613672733307, 0.17106595635414124, 0.13249407708644867, 0.21307523548603058, -0.05054594576358795, 0.1306074857711792, -0.07188567519187927, -0.04487406834959984, -0.2695332467556, -0.10338623076677322, -0.29158535599708557, -0.07644285261631012, -0.1228845864534378, 0.19571945071220398, -0.19426390528678894, -0.12139526754617691, 0.12062560766935349, -0.12463898211717606, 0.2132376730442047, 0.17666766047477722, 0.1750125139951706, -0.09476421028375626, -0.12324801087379456, 0.30727970600128174, -0.17558249831199646, -0.155596062541008, -0.23378564417362213, -0.047035932540893555, 0.12152275443077087, -0.15838183462619781, 0.014695930294692516, 0.26105034351348877, -0.2822021543979645, -0.03139079734683037, -0.12510547041893005, 0.2240859419107437, -0.0878855288028717, -0.057478126138448715, -0.10415477305650711, 0.15956167876720428, -0.0892653688788414, -0.1141953319311142, 0.2433214634656906, -0.15028871595859528, -0.17816464602947235, 0.1152227520942688, 0.19771386682987213, 0.030993685126304626, 0.1133081465959549, 0.2235276997089386, 0.0782490074634552, 0.0882406085729599, -0.06157906726002693, -0.15116730332374573, 0.1875363141298294, 0.18528743088245392, 0.005256211385130882, 0.2534777820110321, -0.18082000315189362], [0.17420387268066406, -0.0978696197271347, 0.29016172885894775, 0.18651579320430756, -0.2747722864151001, 0.08143974095582962, 0.20414277911186218, 0.11673097312450409, -0.040289636701345444, -0.06074400618672371, -0.19551242887973785, 0.03365623205900192, -0.1273694485425949, 0.3075714707374573, -0.19397465884685516, 0.29048609733581543, -0.24141213297843933, 0.13772884011268616, -0.011383077129721642, 0.16402587294578552, 0.2068060040473938, -0.11011496186256409, -0.17818720638751984, 0.05821295827627182, -0.3076331615447998, 0.2459859997034073, 0.2691722810268402, -0.27250418066978455, 0.28683891892433167, 0.18219463527202606, 0.2379610389471054, -0.022672023624181747, 0.1312168687582016, -0.1646377295255661, 0.026089251041412354, -0.24592529237270355, 0.09553059190511703, -0.08410067856311798, 0.048063915222883224, 0.1194225326180458, 0.2243557870388031, -0.0984824150800705, 0.1669570356607437, 0.018275758251547813, -0.07683668285608292, 0.006521058268845081, 0.1839970201253891, -0.23174268007278442, -0.12367983162403107, -0.13026297092437744, -0.22945094108581543, 0.08446189016103745, -0.32572877407073975, -0.0028564243111759424, -0.08776714652776718, -0.27315470576286316, 0.23953495919704437, 0.2441958338022232, -0.20383216440677643, -0.13835223019123077, 0.19743883609771729, -0.01088047120720148, -0.26425307989120483, -0.08354585617780685], [0.2569711208343506, 0.21091702580451965, 0.2117193192243576, -0.13556763529777527, -0.10103584080934525, 0.08499936759471893, 0.14115400612354279, 0.036458052694797516, -0.2651437222957611, -0.2999710142612457, -0.09961888194084167, -0.059751592576503754, -0.1934349089860916, -0.2394576370716095, -0.1554359644651413, -0.1232023611664772, -0.07561785727739334, 0.15255455672740936, 0.09895457327365875, 0.04879174008965492, -0.0786067321896553, 0.26378610730171204, -0.2934018075466156, -0.11987189948558807, 0.09894843399524689, 0.2002435326576233, -0.24097882211208344, 0.10898998379707336, 0.22853629291057587, 0.049888722598552704, -0.01983996294438839, 0.011672052554786205, 0.13838821649551392, 0.2527879476547241, 0.07956625521183014, -0.03702802583575249, 0.06667354702949524, 0.18364454805850983, -0.03223828226327896, 0.0911383181810379, -0.1105710044503212, 0.12075629085302353, 0.3005303144454956, 0.16314853727817535, -0.16172225773334503, -0.11102721095085144, 0.09441028535366058, -0.12217377871274948, 0.038848377764225006, -0.047396302223205566, -0.15296481549739838, 0.2552047669887543, -0.24462275207042694, 0.21060484647750854, -0.2062831073999405, 0.125651016831398, 0.2629006505012512, 0.24042026698589325, 0.2637396454811096, -0.24278369545936584, -0.0660739541053772, 0.10317499190568924, 0.2513173520565033, 0.22201460599899292], [-0.1937488168478012, 0.1091400608420372, -0.05307192727923393, -0.24536529183387756, 0.17584002017974854, -0.3073618412017822, -0.06705787777900696, -0.11358854174613953, 0.006453495007008314, -0.022859927266836166, 0.04008715972304344, 0.31577304005622864, 0.2089216709136963, 0.277408242225647, -0.19541965425014496, -0.0977095365524292, -0.05776604637503624, -0.1210547685623169, 0.2447485476732254, -0.135254368185997, 0.04535679146647453, -0.012170225381851196, 0.13641610741615295, 0.06791477650403976, 0.06750275194644928, -0.13254334032535553, 0.03414986655116081, 0.029561011120676994, 0.043712202459573746, -0.042917780578136444, 0.1716291308403015, -0.07488256692886353, 0.1688200980424881, 0.1107533797621727, -0.2895335853099823, 0.25935012102127075, 0.017619503661990166, -0.24541984498500824, 0.19973644614219666, -0.15086692571640015, -0.04302821308374405, 0.15289375185966492, -0.2706734240055084, -0.11727546900510788, -0.00011818674101959914, -0.18493187427520752, -0.05417708680033684, -0.33005204796791077, -0.11880555003881454, 0.10289883613586426, 0.221640482544899, -0.2880156934261322, -0.19330304861068726, -0.040518853813409805, -0.2143290936946869, 0.23211078345775604, -0.24247534573078156, 0.26323726773262024, -0.29419413208961487, 0.12794238328933716, 0.16947662830352783, 0.11614573746919632, 0.2160663902759552, 0.2581711709499359], [0.09542902559041977, -0.02188318409025669, -0.21568723022937775, -0.22652430832386017, 0.07012654095888138, 0.031278323382139206, -0.16489535570144653, 0.09763488173484802, -0.13184189796447754, 0.11587642878293991, 0.13908188045024872, -0.00022273008653428406, 0.19006310403347015, -0.00936079304665327, -0.22240982949733734, 0.05294899642467499, -0.04506037384271622, -0.005482204258441925, 0.1419084072113037, 0.013230650685727596, -0.060493867844343185, 0.017735041677951813, 0.08010343462228775, -0.034169185906648636, -0.16430962085723877, 0.2660435736179352, -0.048138875514268875, 0.30208420753479004, -0.2553999722003937, -0.30643707513809204, 0.22021938860416412, 0.14930538833141327, -0.03732423484325409, 0.01684069260954857, 0.1675495058298111, -0.17938759922981262, -0.17947721481323242, 0.021246111020445824, -0.05264628306031227, -0.0335778072476387, 0.02458885684609413, 0.2365659475326538, -0.2906603217124939, 0.10242298990488052, 0.26368677616119385, 0.12652641534805298, 0.3118175268173218, 0.06210257112979889, 0.14835955202579498, 0.15171653032302856, -0.05109596252441406, 0.21440580487251282, 0.12234058976173401, -0.22257749736309052, 0.09398532658815384, 0.03868452459573746, -0.2203107327222824, -0.13573689758777618, 0.022077444940805435, 0.12932436168193817, 0.28347447514533997, 0.05417753383517265, -0.05564142391085625, -0.18697156012058258], [-0.168742373585701, 0.12463965266942978, -0.24260637164115906, -0.0866534411907196, 0.2430054247379303, 0.16739487648010254, -0.03425318002700806, -0.1771257370710373, -0.10974923521280289, -0.21683353185653687, 0.18301759660243988, 0.2190409153699875, 0.18366271257400513, -0.29612070322036743, 0.008075603283941746, -0.09134229272603989, -0.0511784553527832, -0.08414462953805923, -0.2515054941177368, -0.13207238912582397, -0.26179879903793335, -0.04062097147107124, -0.2709716260433197, 0.11769337952136993, -0.13069041073322296, -0.1286967396736145, 0.26557978987693787, 0.034977953881025314, -0.13433323800563812, 0.12694932520389557, -0.07804273813962936, -0.09492236375808716, -0.0784609392285347, -0.29541489481925964, -0.037736013531684875, 0.16717198491096497, -0.05620031803846359, -0.14366351068019867, 0.3212968707084656, 0.018396440893411636, 0.19660185277462006, 0.25004521012306213, -0.2524392008781433, -0.17747260630130768, 0.21054378151893616, -0.12758323550224304, 0.19349747896194458, -0.06671027094125748, 0.26685717701911926, 0.16133016347885132, 0.12651917338371277, 0.18138699233531952, 0.11621429026126862, 0.16237489879131317, 0.20260967314243317, -0.10581628233194351, 0.060651812702417374, -0.2376757264137268, 0.2698509693145752, -0.2954789102077484, -0.14318767189979553, -0.27742838859558105, 0.13126474618911743, -0.21635669469833374], [0.1340096890926361, -0.04514757916331291, 0.11147388070821762, 0.2611508369445801, 0.01004982739686966, 0.04693849757313728, -0.26132094860076904, -0.009732714854180813, -0.12170173227787018, 0.054973386228084564, 0.13204433023929596, 0.2092103809118271, -0.26906201243400574, -0.29750120639801025, 0.1822909712791443, -0.12556299567222595, -0.2408020943403244, 0.1129903793334961, 0.014655889011919498, -0.0970153883099556, 0.024301275610923767, -0.24841921031475067, 0.2478073090314865, -0.043690115213394165, 0.3005322217941284, -0.16496112942695618, -0.24713021516799927, -0.11671827733516693, -0.11338936537504196, 0.240327849984169, -0.03818788006901741, 0.13931293785572052, -0.06464702636003494, -0.2803589403629303, 0.1403287947177887, 0.17786598205566406, -0.12326294928789139, 0.08935113251209259, -0.26774370670318604, -0.015286404639482498, 0.15234199166297913, 0.02552359737455845, 0.24349185824394226, -0.22290165722370148, 0.24938148260116577, -0.05447637289762497, 0.026621336117386818, -0.22416935861110687, 0.2040535807609558, 0.23658746480941772, -0.175234854221344, -0.21122026443481445, -0.0032408484257757664, -0.23879972100257874, 0.2211700975894928, 0.16187679767608643, -0.021283991634845734, 0.19520270824432373, -0.21434053778648376, -0.17242582142353058, 0.10996241122484207, 0.0017616288969293237, 0.18922561407089233, 0.25375398993492126], [0.206782266497612, 0.01868501305580139, -0.1049344390630722, -0.067106693983078, 0.2518281042575836, -0.014045292511582375, 0.003042635042220354, -0.24634982645511627, -0.12626385688781738, -0.18029434978961945, -0.20709162950515747, 0.09792466461658478, 0.27349939942359924, 0.0605853833258152, -0.13038575649261475, 0.16410042345523834, -0.2531034052371979, 0.11017842590808868, 0.09592173248529434, -0.17142057418823242, -0.12471421808004379, 0.1711437851190567, -0.16723854839801788, 0.09738664329051971, -0.12493172287940979, 0.18896090984344482, -0.07392609119415283, 0.004639294929802418, 0.22939416766166687, 0.1301260143518448, 0.025355331599712372, 0.32861626148223877, 0.18501794338226318, -0.010559145361185074, -0.15934962034225464, -0.04614240676164627, 0.08021232485771179, -0.16785050928592682, -0.009642091579735279, -0.13097317516803741, -0.11839359998703003, -0.1066155731678009, -0.1673090010881424, 0.29824820160865784, 0.18700411915779114, -0.15954068303108215, -0.07578471302986145, -0.09890898317098618, 0.03729047626256943, -0.2238890826702118, 0.25383150577545166, -0.14842365682125092, -0.12935779988765717, -0.19954949617385864, -0.24627503752708435, -0.24168117344379425, 0.13771314918994904, 0.29276764392852783, 0.13258987665176392, -0.088078074157238, -0.2898370921611786, -0.1344471126794815, -0.09372252225875854, -0.23815731704235077], [0.12786352634429932, -0.27287915349006653, 0.12173246592283249, -0.26880592107772827, -0.09022834151983261, -0.11061584204435349, 0.11329250782728195, -0.20660246908664703, 0.0106528140604496, 0.1567932665348053, 0.24974676966667175, -0.05872552841901779, 0.1246832013130188, 0.01263398490846157, -0.021531423553824425, 0.267482191324234, -0.20105969905853271, -0.1041332334280014, 0.07751505076885223, 0.1573306918144226, -0.20137538015842438, -0.2016940414905548, -0.0560966432094574, -0.2017574906349182, 0.2363874316215515, 0.01156070176512003, -0.08595915138721466, -0.07770601660013199, 0.2738032937049866, 0.2603731155395508, 0.1586807817220688, 0.19667451083660126, -0.11252560466527939, -0.1303795576095581, 0.039721496403217316, 0.18302680552005768, -0.24812087416648865, -0.03792743384838104, -0.2755822539329529, -0.05848371982574463, -0.0962090864777565, -0.015039634890854359, -0.06161189824342728, 0.12292830646038055, -0.08274510502815247, -0.23476791381835938, -0.19181504845619202, 0.19204147160053253, -0.24119913578033447, 0.21174179017543793, 0.24333639442920685, 0.24175597727298737, -0.007824678905308247, -0.07623796910047531, -0.168478325009346, -0.03599315509200096, -0.1249249279499054, 0.05470334365963936, 0.2733207046985626, 0.1760987937450409, -0.284162700176239, 0.18897300958633423, 0.11507716774940491, 0.3165101110935211], [0.2953079640865326, -0.05112432315945625, -0.24635279178619385, -0.13283462822437286, 0.2515544891357422, -0.12648539245128632, 0.22980307042598724, -0.10315781086683273, -0.06089325249195099, -0.12034313380718231, 0.31585055589675903, 0.028009207919239998, -0.2486109733581543, -0.1422368288040161, 0.018862634897232056, 0.10107823461294174, -0.04160117357969284, 0.25484582781791687, 0.18998321890830994, 0.2703995108604431, -0.23310285806655884, 0.2585771977901459, 0.18558469414710999, 0.15761330723762512, -0.22994820773601532, -0.06719373166561127, 0.0774974599480629, 0.24279792606830597, 0.15632332861423492, -0.23897740244865417, -0.11308623850345612, -0.2716723084449768, -0.26082080602645874, 0.10400459915399551, 0.0006872329395264387, -0.060631655156612396, 0.25795304775238037, 0.03258652985095978, -0.06788372993469238, 0.044098734855651855, -0.14605778455734253, -0.14295467734336853, -0.09243931621313095, 0.26518410444259644, -0.1716996282339096, 0.15106916427612305, 0.12388688325881958, 0.1864624172449112, -0.15572305023670197, 0.20957495272159576, -0.27725955843925476, -0.28287217020988464, 0.04516604542732239, -0.019445860758423805, -0.22447320818901062, -0.16835415363311768, -0.11641336977481842, -0.15446487069129944, 0.016032690182328224, -0.20176993310451508, 0.20163418352603912, -0.241043359041214, -0.07293146103620529, 0.019578587263822556], [0.2541539669036865, -0.03681381791830063, 0.06021731719374657, 0.14364874362945557, 0.08822324872016907, -0.24250371754169464, 0.255025178194046, 0.27472347021102905, 0.24352286756038666, 0.16683036088943481, 0.13531795144081116, 0.1699794977903366, 0.058559589087963104, 0.22247105836868286, -0.19757987558841705, 0.16685961186885834, 0.15759405493736267, 0.29350951313972473, 0.008814980275928974, -0.1161559671163559, -0.08049719780683517, -0.1392488330602646, 0.12143372744321823, 0.058387838304042816, 0.3008200526237488, -0.1854817271232605, -0.07259620726108551, -0.08053970336914062, 0.2511996030807495, 0.20150582492351532, 0.14372673630714417, -0.09571321308612823, -0.12697753310203552, 0.29259851574897766, 0.16040535271167755, -0.2705007791519165, -0.03217300400137901, 0.04179980978369713, 0.1445099413394928, -0.016693763434886932, -0.2581845819950104, -0.08531763404607773, 0.2769645154476166, -0.15985658764839172, -0.0768575444817543, 0.004288161639124155, 0.0721689984202385, 0.13521288335323334, -0.2040187567472458, -0.2594529986381531, 0.06509845703840256, 0.20034821331501007, 0.1185537651181221, 0.05438315495848656, -0.10155924409627914, 0.10566852986812592, -0.002757570706307888, 0.21315144002437592, 0.07836481183767319, 0.21114805340766907, 0.10596802085638046, 0.1370829939842224, 0.2790796160697937, 0.16578584909439087], [0.10193374007940292, 0.055104371160268784, -0.05064843222498894, 0.24392373859882355, -0.16692329943180084, -0.022930169478058815, -0.1529536247253418, -0.2640560567378998, 0.026319030672311783, 0.2145630121231079, -0.2530083954334259, -0.03114893101155758, -0.1052677109837532, 0.1299213320016861, 0.16829988360404968, 0.08638358116149902, -0.045657262206077576, 0.022954586893320084, 0.22887755930423737, -0.27163979411125183, -0.16275855898857117, 0.2004549354314804, -0.11944705247879028, 0.13850665092468262, -0.20869730412960052, -0.31256142258644104, 0.02994425594806671, 0.26073530316352844, 0.07214269042015076, -0.18409714102745056, 0.2576674818992615, 0.23048600554466248, 0.00993031170219183, 0.11661221832036972, -0.009098442271351814, 0.15945297479629517, 0.17390979826450348, 0.22300460934638977, -0.013675789348781109, -0.15040001273155212, -0.19861933588981628, -0.20402735471725464, 0.2371121048927307, 0.1943657547235489, 0.2664338946342468, -0.10870916396379471, -0.23067417740821838, 0.32997754216194153, 0.26516082882881165, 0.09893663972616196, 0.1646546572446823, -0.12400265783071518, -0.16977913677692413, 0.31499049067497253, 0.13320763409137726, 0.16823694109916687, 0.05381415784358978, 0.18799848854541779, 0.26521965861320496, 0.03349662199616432, 0.16078631579875946, 0.0842287614941597, -0.05165499448776245, -0.16364365816116333], [-0.050925593823194504, 0.10022502392530441, 0.011713610962033272, 0.08167387545108795, -0.031525619328022, -0.2936152517795563, 0.2608049809932709, 0.17457212507724762, 0.10878065973520279, 0.114731065928936, -0.14323124289512634, 0.2245059311389923, 0.1637105941772461, -0.08342486619949341, 0.10532627254724503, 0.02325807698071003, -0.13397352397441864, -0.0030022342689335346, -0.3220914304256439, -0.01509038731455803, 0.2801676094532013, 0.11693354696035385, 0.06451685726642609, -0.18672433495521545, -0.28748682141304016, -0.019970206543803215, -0.05028023570775986, -0.14928558468818665, 0.027099214494228363, 0.04365694150328636, -0.32313254475593567, -0.1666942834854126, -0.08387452363967896, -0.0009793003555387259, 0.06429760903120041, 0.16582122445106506, 0.15546827018260956, -0.3231034576892853, 0.1282036453485489, 0.022911854088306427, -0.11063528060913086, -0.19410952925682068, 0.24838055670261383, -0.3030097484588623, -0.04230783134698868, -0.024137407541275024, 0.04815070703625679, -0.23562461137771606, 0.11456149071455002, 0.03973430395126343, -0.020589789375662804, -0.12873518466949463, 0.06338170915842056, 0.27916741371154785, -0.17205427587032318, 0.1399172991514206, 0.11860953271389008, -0.1941654235124588, -0.28262996673583984, -0.18598240613937378, -0.12556195259094238, 0.3127911686897278, 0.24356390535831451, -0.13795411586761475], [-0.17417478561401367, -0.1465570628643036, 0.1441810131072998, 0.1684785783290863, 0.2612117528915405, 0.15329691767692566, 0.17480991780757904, -0.02246234565973282, -0.0763634443283081, 0.20181770622730255, 0.09900087118148804, 0.12538675963878632, -0.18598969280719757, -0.21037541329860687, 0.10118487477302551, 0.30608442425727844, -0.2893403470516205, 0.03480023518204689, 0.1258503794670105, -0.2043069303035736, -0.1703980565071106, 0.1045161560177803, 0.13261748850345612, 0.17476136982440948, -0.0019763526506721973, 0.19226068258285522, 0.2187328040599823, 0.03910540044307709, -0.18383051455020905, -0.10870311409235, -0.23534756898880005, 0.1922203153371811, 0.17679880559444427, -0.24662873148918152, -0.2671376168727875, -0.18457186222076416, 0.1365305483341217, -0.0610150471329689, -0.030815279111266136, -0.0946231260895729, 0.12433040887117386, 0.11113348603248596, -0.20008499920368195, -0.2610081732273102, -0.3375363051891327, -0.11197767406702042, -0.04045861214399338, 0.0407336987555027, -0.33935627341270447, -0.22167949378490448, -0.19659000635147095, -0.24791742861270905, -0.02788984216749668, 0.12078725546598434, -0.12339018285274506, -0.20769350230693817, -0.2876354157924652, 0.3102237582206726, 0.21667584776878357, -0.05287835747003555, 0.0180223248898983, 0.20142264664173126, -0.09642549604177475, -0.26504385471343994], [0.1760154515504837, -0.21327577531337738, 0.025295909494161606, 0.03926665708422661, 0.2373032420873642, -0.23133955895900726, 0.2878296971321106, -0.14328239858150482, -0.058681245893239975, -0.14426152408123016, 0.22699423134326935, -0.11124218255281448, -0.1048055961728096, 0.009940747171640396, 0.08360125124454498, 0.2010570764541626, -0.15046426653862, -0.04644261673092842, 0.1809161752462387, -0.19031931459903717, -0.03627903386950493, -0.012508311308920383, -0.09953208267688751, -0.264787495136261, 0.07753516733646393, -0.004577863495796919, 0.32367777824401855, 0.07045325636863708, -0.1311137080192566, 0.016542019322514534, 0.1399572342634201, -0.059218067675828934, -0.11256630718708038, -0.24701927602291107, -0.24507063627243042, 0.013889539986848831, -0.06505414843559265, -0.18058128654956818, -0.05960690975189209, 0.06031578406691551, 0.16928330063819885, 0.1279546469449997, 0.11382672935724258, 0.19405366480350494, -0.22338220477104187, 0.23639698326587677, -0.21396657824516296, -0.13133718073368073, -0.007968452759087086, -0.12729385495185852, -0.06589630991220474, 0.2735190987586975, 0.12385274469852448, -0.21021941304206848, 0.2150653898715973, 0.08470428735017776, 0.22859396040439606, -0.03945326432585716, -0.2994048595428467, -0.04693254083395004, -0.13007928431034088, 0.23001888394355774, -0.07240894436836243, -0.034406594932079315], [-0.0950494334101677, -0.031337883323431015, -0.09264452755451202, 0.2574772238731384, -0.30112224817276, -0.0877903625369072, -0.2878948748111725, 0.04321283847093582, 0.10981947183609009, 0.09129049628973007, 0.3270564377307892, 0.1937207132577896, -0.18450413644313812, 0.13914644718170166, 0.016984058544039726, -0.03091713972389698, -0.17497502267360687, 0.10121625661849976, 0.04337725043296814, 0.17336371541023254, -0.0013041686033830047, -0.1411324143409729, -0.096175916492939, -0.09348776936531067, 0.23299257457256317, 0.11996825784444809, -0.26957690715789795, 0.043629083782434464, -0.24319276213645935, 0.08311969041824341, -0.16875039041042328, 0.1607542634010315, 0.008998238481581211, 0.2641761302947998, 0.023210201412439346, 0.14997251331806183, -0.20569124817848206, -0.08302322030067444, -0.19422608613967896, 0.1504465937614441, -0.18484053015708923, -0.11250545084476471, 0.1674472838640213, -0.21931686997413635, 0.14895860850811005, -0.13774603605270386, -0.19477064907550812, -0.15389682352542877, -0.21776945888996124, 0.1760834902524948, -0.1297566294670105, -0.18935854732990265, 0.15900050103664398, -0.06848027557134628, 0.25445666909217834, 0.2324654757976532, -0.03305016830563545, 0.03899383544921875, 0.0930374413728714, 0.09334327280521393, -0.15239930152893066, 0.1716974675655365, 0.14144042134284973, -0.005404408555477858], [0.16690634191036224, -0.15776653587818146, -0.22835028171539307, -0.06818538159132004, 0.2998690605163574, 0.08762997388839722, 0.01485581137239933, -0.09854868054389954, 0.20945659279823303, -0.20944897830486298, 0.24757635593414307, 0.10705327242612839, 0.27892419695854187, 0.15069051086902618, 0.2595967650413513, -0.04575418680906296, 0.25185829401016235, 0.06741989403963089, 0.13768288493156433, 0.1239510029554367, -0.21337541937828064, -0.04291001334786415, -0.3051900565624237, 0.2243964523077011, 0.2110542207956314, -0.051084037870168686, -0.12129693478345871, -0.2611910104751587, 0.1227819174528122, 0.013978715054690838, 0.14408190548419952, -0.16239017248153687, -0.08371616899967194, 0.12773320078849792, 0.0766204223036766, -0.27042314410209656, 0.02567770518362522, -0.2969871759414673, 0.2579629421234131, 0.09028888493776321, 0.22135083377361298, -0.2602696418762207, -0.2767673432826996, -0.11820057779550552, -0.28986144065856934, 0.008840393275022507, 0.01627006195485592, 0.06212784722447395, -0.30451786518096924, -0.3208969831466675, 0.04994714632630348, -0.10103603452444077, -0.20745019614696503, 0.10063351690769196, -0.03980700671672821, -0.0872073844075203, 0.2695448100566864, 0.07593460381031036, 0.23035350441932678, -0.14257767796516418, 0.032676275819540024, 0.2932452857494354, 0.10155755281448364, -0.0015319091035053134], [0.13752831518650055, 0.30301234126091003, 0.017710741609334946, 0.19120292365550995, 0.3258449137210846, 0.15771044790744781, 0.2573603093624115, 0.24825333058834076, 0.0014711545081809163, 0.26049524545669556, 0.13229022920131683, -0.2115291804075241, -0.10384093970060349, -0.05775649845600128, -0.32296493649482727, -0.03243923559784889, -0.13962788879871368, -0.2268727570772171, -0.15844130516052246, 0.27903369069099426, -0.17104187607765198, 0.2997872531414032, -0.11138731241226196, -0.141875222325325, -0.23355571925640106, -0.07930255681276321, -0.14541620016098022, 0.24437904357910156, 0.253264456987381, 0.31838664412498474, 0.1575964391231537, -0.22356951236724854, 0.3085920214653015, 0.06055223569273949, 0.11673182249069214, 0.0365382581949234, -0.12470687925815582, -0.14744190871715546, 0.21677768230438232, 0.06244539096951485, 0.13152599334716797, -0.027293555438518524, 0.04842492938041687, 0.11482413113117218, -0.1670132428407669, 0.09834399074316025, 0.07770562916994095, -0.09901538491249084, 0.13482770323753357, 0.04440705478191376, -0.1609954982995987, -0.05864788219332695, -0.08394119143486023, 0.11838550120592117, 0.18704454600811005, 0.12944191694259644, 0.1297324150800705, -0.14257919788360596, 0.13898955285549164, -0.06595420092344284, 0.05536782741546631, -0.15205906331539154, 0.21948044002056122, 0.15020643174648285], [0.08892112970352173, -0.1599758267402649, -0.07569610327482224, -0.07646974176168442, -0.19275565445423126, -0.16984309256076813, 0.14765428006649017, -0.148421049118042, -0.21756431460380554, 0.10864803940057755, -0.09577900916337967, 0.0607394278049469, 0.17965058982372284, -0.12085452675819397, 0.17585983872413635, -0.004289147909730673, -0.2498500645160675, -0.09511574357748032, -0.15396371483802795, 0.001833689515478909, 0.19903796911239624, 0.1660670042037964, -0.033062439411878586, -0.1969897449016571, -0.2477210909128189, -0.2519793212413788, -0.23591718077659607, 0.09399070590734482, 0.2272893190383911, 0.10527733713388443, 0.18655972182750702, 0.17207498848438263, 0.11244851350784302, 0.131748229265213, -0.11476153135299683, -0.2783500552177429, 0.1662362962961197, 0.08658072352409363, -0.28948473930358887, 0.03457837179303169, 0.24048711359500885, -0.07439187169075012, 0.058109503239393234, -0.07604871690273285, 0.10882116854190826, 0.2798544764518738, -0.09367191046476364, 0.018835630267858505, 0.23825883865356445, 0.0642385482788086, 0.08314261585474014, -0.0017368444241583347, -0.10691429674625397, 0.02544235996901989, 0.21917033195495605, -0.06668517738580704, -0.29432791471481323, 0.16666659712791443, 0.06919439882040024, 0.06916925311088562, -0.07539773732423782, 0.09984466433525085, 0.2632579803466797, 0.0513981431722641], [0.03915661573410034, -0.06448309868574142, 0.2432677447795868, -0.28175246715545654, 0.16860443353652954, -0.05013224482536316, 0.12035251408815384, 0.14351972937583923, -0.19725672900676727, -0.2657456398010254, -0.13174426555633545, 0.08400703221559525, -0.23740427196025848, 0.22420723736286163, -0.29141151905059814, -0.1877351999282837, -0.008460627868771553, -0.12335627526044846, 0.03474496677517891, -0.2908952832221985, 0.24809353053569794, 0.05645722150802612, 0.20090490579605103, -0.0711469054222107, -0.2631652355194092, -0.26192060112953186, -0.1402144730091095, 0.06918169558048248, 0.26891863346099854, -0.05639154091477394, -0.2226882427930832, -0.032048601657152176, -0.25950878858566284, 0.13075841963291168, -0.34157872200012207, 0.24711516499519348, -0.2665879726409912, -0.14014272391796112, -0.038163766264915466, -0.05332735925912857, -0.17654743790626526, -0.005246925167739391, -0.15138541162014008, 0.1732809692621231, 0.22207070887088776, 0.16319400072097778, -0.2965778112411499, 0.15421390533447266, -0.025135494768619537, 0.07728727906942368, -0.04916158318519592, -0.11677844077348709, 0.21824713051319122, 0.024748440831899643, 0.12185510247945786, -0.021770650520920753, -0.2707027494907379, 0.12105435132980347, 0.21129384636878967, 0.15321947634220123, -0.153266042470932, -0.24819707870483398, 0.2422512173652649, -0.19691631197929382], [-0.018853185698390007, -0.2341347187757492, -0.11868288367986679, 0.07958465069532394, 0.13639618456363678, -0.23979903757572174, 0.33426323533058167, -0.2858504056930542, 0.05597524717450142, 0.2624748647212982, -0.1329347789287567, 0.20793397724628448, 0.032672684639692307, 0.20930171012878418, 0.023829545825719833, -0.31027859449386597, 0.20509089529514313, 0.2594031095504761, -0.0028325042221695185, -0.23048458993434906, 0.3078978955745697, -0.02275577373802662, 0.004688016604632139, -0.13390576839447021, 0.20050987601280212, 0.004547975026071072, -0.2861356735229492, -0.27160775661468506, 0.1927276849746704, -0.26606911420822144, 0.004221021197736263, 0.11938680708408356, -0.2759121060371399, 0.2371150553226471, 0.20211441814899445, 0.0767081007361412, -0.05159660801291466, 0.04047232121229172, -0.2334766536951065, -0.06427805870771408, -0.024464337155222893, 0.09747305512428284, -0.16788633167743683, -0.2870734632015228, 0.1460229605436325, 0.02207063138484955, 0.11545123159885406, -0.2552940547466278, 0.32502397894859314, -0.0280884001404047, -0.22553299367427826, -0.0052715083584189415, 0.16276679933071136, 0.24253305792808533, 0.26863646507263184, -0.11017779260873795, 0.12286775559186935, -0.2071492224931717, 0.026378395035862923, -0.034533530473709106, 0.3091862201690674, -0.21856002509593964, 0.19732408225536346, 0.2896178066730499], [-0.14599363505840302, -0.2331783026456833, 0.13324704766273499, -0.09572740644216537, 0.2564588487148285, -0.028970984742045403, 0.21533077955245972, 0.09210377186536789, -0.2161417007446289, -0.2965938150882721, 0.168473482131958, 0.13514061272144318, 0.09202033281326294, -0.0018904788885265589, -0.0973692536354065, -0.11616172641515732, 0.17571228742599487, 0.05511121451854706, 0.1570206731557846, -0.13866738975048065, 0.048231229186058044, 0.07324877381324768, 0.2509409785270691, -0.21149948239326477, -0.25876614451408386, -0.1516905277967453, 0.020224185660481453, 0.11319275200366974, 0.10247749090194702, -0.1641721874475479, -0.2706187069416046, 0.1381523758172989, 0.1637321561574936, -0.303830087184906, 0.01629037596285343, 0.05031256377696991, -0.2930689752101898, 0.21379858255386353, 0.038144808262586594, -0.27213597297668457, 0.21030963957309723, 0.11866311728954315, 0.13703766465187073, -0.25558826327323914, -0.2542058825492859, 0.16175808012485504, 0.018670471385121346, 0.2740269601345062, -0.0331663116812706, -0.09369070082902908, 0.09445618093013763, -0.25384533405303955, 0.2211463451385498, 0.10870876908302307, -0.12347552180290222, -0.23131690919399261, 0.24181430041790009, 0.2964901030063629, -0.21306464076042175, -0.1936141848564148, 0.22129490971565247, 0.17832469940185547, -0.22961613535881042, -0.2896108031272888], [-0.2745451033115387, -0.04061935469508171, -0.08738651126623154, 0.016428614035248756, 0.11476394534111023, 0.07085447013378143, -0.14685091376304626, 0.2201198935508728, 0.04983138293027878, -0.12388259172439575, 0.23381751775741577, 0.1682180017232895, 0.18445973098278046, -0.24611444771289825, -0.25228914618492126, -0.30344802141189575, 0.18586036562919617, 0.01287134736776352, -0.0796007513999939, -0.19672632217407227, 0.04448513686656952, -0.26734253764152527, -0.11873828619718552, 0.13028183579444885, 0.14109209179878235, -0.14532364904880524, 0.2139415591955185, -0.1161075234413147, -0.07660437375307083, -0.1552247405052185, -0.2194197177886963, 0.06607842445373535, -0.16118808090686798, -0.0209730863571167, 0.01241131592541933, -0.28746655583381653, -0.2522163689136505, 0.011588131077587605, -0.09686419367790222, -0.14647243916988373, 0.028239553794264793, 0.25000494718551636, 0.2620479166507721, 0.11211603134870529, -0.03386511281132698, -0.039491165429353714, -0.1798098236322403, 0.11764336377382278, 0.0815398246049881, -0.006562182679772377, -0.19447824358940125, 0.04074471816420555, 0.24241383373737335, -0.32105621695518494, -0.27590423822402954, -0.02980712428689003, 0.09427100419998169, 0.15445064008235931, -0.2386680394411087, -0.1319287270307541, 0.20414339005947113, 0.2501539885997772, 0.0965859517455101, -0.1939036101102829], [0.018185069784522057, 0.15749502182006836, -0.0699959322810173, 0.23239769041538239, -0.19260725378990173, -0.11660739034414291, 0.0007313521928153932, 0.20545202493667603, -0.26942577958106995, -0.11271935701370239, 0.18890227377414703, -0.2016366571187973, 0.1934177577495575, -0.08190255612134933, -0.2838251292705536, 0.24741357564926147, -0.1470188945531845, 0.23119568824768066, 0.19386012852191925, 0.09425494819879532, 0.08608584851026535, 0.11788506805896759, -0.1159651130437851, 0.01833457313477993, 0.1640509068965912, -0.2459772676229477, -0.15070927143096924, -0.2695396840572357, -0.2690478265285492, -0.17628420889377594, 0.30968621373176575, 0.1916852444410324, -0.19860446453094482, 0.15499337017536163, 0.08517086505889893, 0.15225271880626678, -0.2085726410150528, -0.033762376755476, 0.17804640531539917, -0.04436255991458893, -0.17833665013313293, 0.17021870613098145, -0.04298217222094536, 0.10070324689149857, -0.14424414932727814, -0.029976356774568558, -0.20869645476341248, 0.09561297297477722, 0.0016157265054062009, -0.09622181951999664, -0.15386778116226196, 0.26001036167144775, 0.3153664469718933, -0.09585694968700409, -0.14465385675430298, 0.09688408672809601, -0.12322080135345459, 0.2558760344982147, 0.2317737340927124, -0.27393102645874023, -0.12368893623352051, -0.17668753862380981, -0.20928914844989777, -0.15807965397834778], [0.20088942348957062, -0.26168307662010193, 0.18800951540470123, -0.042244601994752884, 0.2479407787322998, 0.23088590800762177, 0.2794651985168457, -0.2116418331861496, 0.2549431025981903, -0.30084744095802307, 0.2000526487827301, 0.01697184145450592, 0.1822437196969986, -0.026842381805181503, 0.042163997888565063, -0.1326657384634018, 0.1230834424495697, -0.02167150005698204, -0.10142423212528229, 0.01063244417309761, -0.009805156849324703, 0.22811131179332733, 0.09192858636379242, -0.03789179399609566, 0.16770029067993164, 0.10133853554725647, -0.2899429202079773, -0.2506149709224701, -0.10051684826612473, -0.02837817370891571, 0.265175461769104, -0.22363132238388062, -0.23956888914108276, -0.20065069198608398, -0.04034392163157463, 0.2345510870218277, -0.16065819561481476, 0.20128081738948822, 0.20033158361911774, 0.052738990634679794, 0.020794279873371124, -0.26271143555641174, -0.006107018329203129, 0.2135048657655716, -0.269031286239624, 0.21385781466960907, 0.32538703083992004, 0.3033982515335083, -0.15846660733222961, -0.07211093604564667, -0.19315789639949799, -0.11214567720890045, -0.08278966695070267, 0.22285206615924835, 0.19269636273384094, -0.05493732541799545, 0.17330360412597656, -0.012059991247951984, -0.15861783921718597, 0.15404608845710754, -0.17731748521327972, 0.1315470039844513, -0.10834480822086334, 0.06644266843795776], [-0.09489355981349945, -0.014497986994683743, 0.11239318549633026, 0.17402096092700958, 0.1725250780582428, -0.10710714012384415, 0.07119836658239365, -0.004291292279958725, -0.08279160410165787, -0.24022379517555237, 0.1409461945295334, 0.25494682788848877, 0.23197554051876068, 0.00179870065767318, 0.0821317583322525, 0.027946388348937035, 0.05365373566746712, 0.09530006349086761, -0.17549017071723938, -0.2797687351703644, 0.16367098689079285, -0.15182626247406006, 0.2306130975484848, 0.19105102121829987, 0.12650735676288605, 0.1670689731836319, 0.10466444492340088, -0.21807867288589478, 0.09700757265090942, -0.2228996902704239, -0.18503350019454956, 0.19108757376670837, -0.00031434939592145383, 0.07150370627641678, -0.10428508371114731, -0.17488862574100494, -0.18531595170497894, 0.20325662195682526, 0.18195891380310059, 0.07581589370965958, 0.26670682430267334, -0.27447155117988586, 0.23625712096691132, -0.2064083218574524, -0.06824339926242828, -0.00948348082602024, -0.21464349329471588, 0.30967068672180176, 0.011501798406243324, 0.1952936202287674, 0.2599014341831207, 0.13257110118865967, 0.1942981481552124, 0.25703778862953186, -0.07608450204133987, 0.2720973789691925, -0.10903573036193848, -0.0683489739894867, -0.16823795437812805, -0.08213072270154953, 0.23050984740257263, 0.2680865228176117, 0.14551447331905365, -0.20467247068881989], [-0.01832045242190361, 0.18526527285575867, -0.21972599625587463, 0.05841267108917236, -0.1605682373046875, 0.11373282968997955, -0.29906004667282104, 0.09396424144506454, 0.09626401215791702, -0.14010968804359436, -0.26331737637519836, 0.20079518854618073, -0.06738267838954926, 0.2374771237373352, -0.2563084661960602, -0.13616463541984558, 0.1339346021413803, 0.2532288730144501, -0.21733227372169495, 0.29482758045196533, 0.15948617458343506, -0.19375324249267578, 0.16547000408172607, -0.2416037619113922, 0.05746874213218689, 0.258288711309433, 0.07044500857591629, 0.3055770695209503, -0.14888176321983337, -0.14854168891906738, 0.07246477901935577, -0.26168176531791687, -0.11169594526290894, 0.1772017627954483, -0.11056295037269592, -0.04780171811580658, 0.18253108859062195, -0.08124201744794846, 0.04149889573454857, 0.1258832812309265, -0.23840022087097168, 0.09774847328662872, 0.10597405582666397, -0.11499820649623871, 0.016849549487233162, -0.20079483091831207, -0.07967939227819443, 0.12132113426923752, 0.10333094000816345, 0.20398199558258057, -0.08791553974151611, -0.3156237304210663, -0.26638272404670715, -0.13200408220291138, 0.1239703819155693, 0.11521076411008835, 0.09543963521718979, 0.018970822915434837, 0.22281117737293243, -0.07098116725683212, -0.29379987716674805, 0.24084168672561646, -0.11275125294923782, -0.2889496088027954], [0.07132279127836227, 0.1720239222049713, -0.2793404757976532, -0.02162356860935688, 0.009856817312538624, 0.2257315218448639, 0.2765740156173706, 0.2601235806941986, -0.16946391761302948, -0.21025978028774261, -0.17040874063968658, 0.2513172924518585, -0.140926793217659, 0.3273327648639679, 0.08583784848451614, 0.31820982694625854, 0.127272367477417, 0.1403747797012329, 0.014349808916449547, -0.050614409148693085, 0.21105334162712097, 0.06250804662704468, -0.037093497812747955, -0.18616828322410583, 0.0009229209390468895, 0.2889329493045807, -0.2395055741071701, 0.040116336196660995, 0.027634376659989357, -0.003809295129030943, -0.2022809386253357, 0.23046725988388062, 0.007293699774891138, 0.032501474022865295, 0.1824115514755249, 0.24749146401882172, 0.13537932932376862, -0.1340852975845337, -0.032974280416965485, -0.0761328861117363, 0.16757768392562866, 0.3104299008846283, -0.1532152146100998, 0.15805895626544952, 0.08461251109838486, 0.12933088839054108, -0.2556103765964508, -0.07108096778392792, 0.18943078815937042, -0.09973403066396713, -0.12866200506687164, -0.29754307866096497, 0.12190748006105423, 0.18936043977737427, 0.016041360795497894, -0.18950457870960236, -0.2399335354566574, -0.2038952112197876, -0.12618637084960938, 0.19919167459011078, 0.04795297980308533, -0.22454220056533813, -0.257649689912796, -0.28469979763031006], [-0.11466964334249496, 0.1759936511516571, 0.15719887614250183, -0.17044827342033386, 0.10625815391540527, -0.1441172957420349, 0.10859047621488571, 0.2879933714866638, -0.15881206095218658, -0.0067341867834329605, 0.1429690420627594, -0.2039782553911209, -0.19560253620147705, 0.2197866141796112, 0.346508651971817, 0.26616835594177246, -0.04534894973039627, 0.18427442014217377, 0.2991703152656555, 0.22263705730438232, -0.01913694106042385, 0.12739555537700653, -0.23479458689689636, -0.2684064507484436, 0.2726929783821106, -0.3232167363166809, 0.046324409544467926, -0.27233654260635376, -0.11698153614997864, 0.10229992866516113, -0.21478921175003052, 0.12922918796539307, 0.2700350880622864, 0.15579570829868317, -0.322119802236557, -0.3116351366043091, 0.08702804148197174, -0.14068853855133057, -0.12176148593425751, 0.290939062833786, -0.27234598994255066, 0.2946940064430237, 0.041643060743808746, -0.2293480485677719, -0.29460880160331726, 0.2351633757352829, 0.03617730364203453, 0.0416671484708786, -0.20826058089733124, -0.10320182144641876, -0.28279322385787964, -0.001057509332895279, 0.18433193862438202, 0.06198786199092865, -0.21686631441116333, -0.07616588473320007, 0.23087649047374725, -0.24077849090099335, -0.16339990496635437, 0.02645414136350155, -0.06244666129350662, -0.22813163697719574, -0.2824166417121887, -0.10538512468338013], [0.13208861649036407, -0.09691926836967468, 0.2967952787876129, 0.11910370737314224, -0.09097733348608017, -0.10608535259962082, 0.10748729854822159, -0.2471017986536026, -0.13782133162021637, 0.0982767716050148, 0.2657906711101532, 0.05021735653281212, 0.2742832899093628, 0.001900663715787232, 0.06468886137008667, 0.0703381597995758, -0.07769792526960373, 0.259446918964386, -0.1278846710920334, 0.14075325429439545, -0.20785251259803772, 0.21887221932411194, 0.2503100037574768, 0.24188998341560364, -0.18434801697731018, 0.04795697331428528, 0.26993390917778015, -0.23077914118766785, -0.12231428176164627, 0.27214354276657104, -0.22727391123771667, 0.19038943946361542, -0.16330593824386597, 0.07792879641056061, -0.00861704908311367, 0.0710861012339592, 0.08766449987888336, 0.18185563385486603, 0.28054484724998474, -0.3324342668056488, 0.0503055676817894, 0.3052229881286621, -0.13073380291461945, 0.1909438818693161, 0.12027761340141296, 0.07057002931833267, 0.22315126657485962, -0.08594433218240738, -0.29622966051101685, -0.1620742529630661, 0.29505106806755066, 0.08090351521968842, -0.19786866009235382, 0.018000133335590363, -0.0759945958852768, 0.23777884244918823, 0.18420353531837463, -0.2659870982170105, -0.2443360984325409, 0.15865971148014069, 0.126176655292511, -0.15711042284965515, 0.15845365822315216, 0.05533760040998459], [0.12440675497055054, -0.06779671460390091, -0.056561216711997986, -0.23651786148548126, -0.10606977343559265, 0.2918536961078644, -0.23607690632343292, 0.1768444925546646, 0.27050232887268066, 0.1220037192106247, 0.09605476260185242, 0.0591108500957489, 0.31494489312171936, 0.19090494513511658, 0.3201913833618164, -0.02910393290221691, -0.136811301112175, -0.22213222086429596, -0.19420143961906433, -0.07083385437726974, -0.0017996436217799783, 0.15960775315761566, -0.11089364439249039, 0.16126208007335663, 0.1904398500919342, 0.11677809804677963, 0.18816204369068146, -0.23484563827514648, 0.037120599299669266, 0.15093471109867096, -0.0916246771812439, 0.20658761262893677, 0.25064992904663086, 0.11454357951879501, -0.2352956235408783, 0.1720597743988037, 0.1507815271615982, -0.252567857503891, -0.21399147808551788, 0.10739248991012573, -0.20119094848632812, -0.2563992440700531, 0.09319183975458145, -0.13737215101718903, -0.3246307373046875, -0.0639115422964096, -0.20062977075576782, 0.1193666160106659, 0.21887707710266113, -0.05410343036055565, 0.18401898443698883, -0.24538865685462952, 0.30954620242118835, 0.17775237560272217, 0.12429328262805939, -0.28940925002098083, -0.2594286799430847, 0.1290479600429535, 0.18213462829589844, -0.11139964312314987, -0.16570216417312622, 0.23117615282535553, -0.012043179012835026, -0.08407086879014969], [-0.06978549808263779, -0.22982172667980194, -0.2120002657175064, 0.05357973650097847, -0.2479175180196762, 0.05490124598145485, 0.044731415808200836, -0.14446398615837097, 0.10102438926696777, -0.009662318974733353, 0.2125207930803299, 0.05226774886250496, 0.12349987030029297, 0.07860977202653885, -0.037528734654188156, -0.25529295206069946, -0.27007389068603516, 0.10756068676710129, -0.19747821986675262, -0.2598330080509186, 0.09691810607910156, 0.02778966724872589, -0.27498748898506165, -0.1502942144870758, 0.1481168568134308, 0.17327295243740082, -0.05319084972143173, 0.2950231432914734, 0.035692766308784485, -0.24504055082798004, -0.03581061214208603, 0.21078503131866455, -0.12573519349098206, 0.006822730880230665, 0.086028091609478, 0.17693841457366943, 0.1884249448776245, -0.27448374032974243, 0.06775520741939545, -0.2736564874649048, 0.2576230764389038, 0.14539556205272675, -0.0650799572467804, 0.049115605652332306, -0.051423389464616776, -0.3006468117237091, 0.04012367129325867, 0.1825304627418518, 0.1143520250916481, 0.0794704332947731, -0.24664485454559326, -0.05305459722876549, 0.18240883946418762, -0.016727320849895477, -0.25746840238571167, -0.08716307580471039, 0.3001932203769684, -0.2239106297492981, -0.1606217324733734, -0.01526102889329195, -0.018093343824148178, -0.07778558135032654, -0.28924164175987244, 0.07168500125408173], [-0.09800146520137787, -0.06710773706436157, 0.19321036338806152, 0.28414756059646606, -0.10556623339653015, 0.13196049630641937, -0.21074827015399933, -0.1239992305636406, -0.21934153139591217, -0.12019656598567963, 0.248336523771286, 0.19102609157562256, -0.2511884570121765, 0.07512373477220535, -0.08689090609550476, 0.20258665084838867, -0.007836652919650078, -0.1278284639120102, 0.23778752982616425, 0.1358649879693985, -0.15971769392490387, 0.26100048422813416, 0.28500282764434814, -0.049001194536685944, 0.18082945048809052, 0.18457525968551636, 0.12216964364051819, 0.2600712478160858, -0.16703610122203827, -0.004537331871688366, 0.18433503806591034, -0.2269606739282608, 0.274224191904068, 0.14665129780769348, -0.29145100712776184, 0.220428928732872, 0.2319416105747223, -0.10993447154760361, -0.14382123947143555, 0.10979221761226654, 0.2977526783943176, 0.23139148950576782, -0.1645357459783554, -0.06116228550672531, 0.12987977266311646, -0.036450907588005066, 0.16128146648406982, 0.2298942655324936, 0.17605768144130707, 0.2783180773258209, -0.12771308422088623, 0.16580304503440857, -0.1354532539844513, -0.007293831091374159, 0.21136662364006042, -0.12097422033548355, 0.1678287386894226, -0.020640263333916664, -0.08291243761777878, -0.028938407078385353, 0.21304726600646973, -0.029538635164499283, 0.10792244225740433, 0.09501010179519653], [-0.01566983573138714, 0.041990768164396286, 0.16299422085285187, -0.2824423015117645, 0.21492412686347961, 0.30201199650764465, -0.07942995429039001, 0.279999315738678, 0.2955119013786316, -0.10059864819049835, -0.1737421452999115, -0.14185433089733124, -0.13979485630989075, 0.09441177546977997, 0.1379258632659912, -0.317014217376709, 0.20162180066108704, -0.2486780881881714, -0.037685804069042206, -0.2413863241672516, 0.030884023755788803, -0.10881634801626205, -0.2871673107147217, -0.10143788158893585, 0.17440466582775116, 0.013986170291900635, 0.20907196402549744, -0.11755966395139694, 0.10232704132795334, 0.23729388415813446, -0.29705730080604553, 0.18737269937992096, 0.3192857801914215, 0.2361682504415512, 0.09798403829336166, 0.08570387214422226, 0.027878062799572945, 0.00959830079227686, -0.13235881924629211, -0.2448437660932541, -0.16303333640098572, 0.07417836040258408, -0.23465020954608917, 0.3056856393814087, 0.14310385286808014, 0.08288778364658356, -0.14887064695358276, 0.2498081475496292, -0.22874532639980316, -0.04700734093785286, 0.31493741273880005, -0.14970368146896362, -0.22425256669521332, 0.30695417523384094, 0.011787278577685356, -0.3255179822444916, -0.12202438712120056, -0.12761612236499786, 0.20347115397453308, -0.035467348992824554, 0.2414977103471756, 0.18018575012683868, -0.0670175850391388, 0.2565068304538727], [0.19819384813308716, -0.05964274704456329, 0.19846419990062714, -0.16957540810108185, -0.037365417927503586, 0.2049771547317505, 0.26799511909484863, -0.05541136488318443, -0.05908864736557007, -0.25068309903144836, -0.11118888854980469, -0.3107110857963562, 0.1864665001630783, -0.2582530677318573, 0.10377679020166397, -0.30533286929130554, -0.2707335948944092, 0.01703028567135334, -0.26786741614341736, 0.2613718509674072, 0.17470809817314148, -0.21875935792922974, -0.11151295155286789, 0.2693101763725281, -0.08201032876968384, 0.3175256848335266, 0.030864980071783066, 0.13929656147956848, -0.26145145297050476, 0.2442028671503067, -0.2017701268196106, 0.18597407639026642, -0.025395430624485016, 0.0668536126613617, -0.1885152906179428, 0.29744449257850647, 0.11483387649059296, 0.02908206731081009, -0.07250239700078964, -0.14961577951908112, -0.07131723314523697, 0.08274885267019272, -0.21970626711845398, -0.2738492786884308, -0.26864784955978394, 0.04999212175607681, -0.10037176311016083, -0.14708049595355988, 0.215192973613739, 0.012834607623517513, 0.05546270310878754, 0.28984174132347107, -0.10195353627204895, 0.10426352918148041, -0.1860779970884323, -0.23318153619766235, -0.015001962892711163, 0.22533556818962097, 0.17075300216674805, -0.2749650776386261, 0.20331275463104248, 0.12906603515148163, -0.21366442739963531, 0.05514371767640114], [0.015964731574058533, 0.233006551861763, -0.17673884332180023, -0.06510994583368301, 0.07133186608552933, 0.0866851657629013, 0.16857239603996277, -0.2030787318944931, 0.10397801548242569, 0.10622153431177139, 0.16185469925403595, -0.2703706920146942, 0.16093508899211884, 0.08521894365549088, -0.045857734978199005, 0.13428355753421783, 0.17626866698265076, -0.13777124881744385, 0.15099012851715088, -0.09313613176345825, 0.09008819609880447, 0.07752801477909088, -0.2284812331199646, -0.21812796592712402, -0.22969259321689606, 0.03418527543544769, -0.08173999935388565, 0.06800572574138641, -0.11448094248771667, -0.2395256757736206, 0.07677104324102402, 0.10144764184951782, 0.03841002658009529, -0.19790193438529968, -0.05217856541275978, 0.11052148044109344, 0.2202472686767578, 0.0602504201233387, 0.27915775775909424, -0.2772601246833801, 0.21539318561553955, -0.23066115379333496, 0.24823325872421265, -0.2543734908103943, -0.19251714646816254, -0.2654637396335602, 0.24766512215137482, -0.18150493502616882, 0.05049542337656021, 0.160368412733078, -0.16109389066696167, 0.20430123805999756, -0.10376960039138794, 0.18914204835891724, -0.09204611927270889, -0.22859293222427368, -0.16775840520858765, 0.16966387629508972, 0.14099591970443726, 0.15279804170131683, -0.21744756400585175, 0.22880086302757263, -0.23249508440494537, -0.22677293419837952], [-0.10909060388803482, 0.1575162261724472, 0.2948129177093506, -0.28457340598106384, -0.22312229871749878, 0.03914840519428253, 0.24913884699344635, -0.2636062800884247, 0.27362722158432007, 0.08223950117826462, 0.16805191338062286, 0.040397465229034424, -0.21439607441425323, 0.03900124505162239, -0.3262575566768646, -0.25405678153038025, 0.23405124247074127, -0.058378737419843674, -0.2864726185798645, -0.05698230117559433, 0.06725721806287766, 0.046237483620643616, 0.18718329071998596, 0.34283459186553955, 0.25296807289123535, 0.08882594108581543, 0.2566821873188019, 0.016811540350317955, 0.0752873495221138, 0.3921653926372528, 0.10065073519945145, 0.18296600878238678, -0.30869507789611816, -0.00506320595741272, -0.06307926028966904, 0.22544074058532715, -0.17161348462104797, -0.04521535336971283, -0.225111722946167, 0.15085448324680328, -0.012380235828459263, -0.16156141459941864, 0.03601035475730896, 0.26748979091644287, -0.18364779651165009, -0.09386652708053589, 0.1717877984046936, 0.05655452236533165, -0.18526779115200043, 0.23191094398498535, -0.24633504450321198, 0.16710296273231506, 0.2190096527338028, 0.1693013459444046, 0.13346219062805176, 0.3037324845790863, 0.12476543337106705, -0.157938152551651, -0.07264526933431625, 0.030495133250951767, -0.06316105276346207, 0.2999322712421417, -0.044570233672857285, -0.12396147102117538], [-0.2183714359998703, -0.11924772709608078, -0.012137215584516525, 0.06644733250141144, -0.10211139172315598, 0.07075002789497375, -0.17039503157138824, -0.2280469685792923, 0.13449059426784515, 0.26082947850227356, 0.06420063972473145, -0.0478045791387558, 0.32568085193634033, 0.20815829932689667, -0.10780782997608185, -0.11916281282901764, -0.14488005638122559, -0.09158546477556229, -0.034739334136247635, -0.18808288872241974, -0.10392699390649796, 0.049478184431791306, -0.11098331958055496, 0.2913922965526581, 0.22340458631515503, -0.20879405736923218, 0.16557100415229797, 0.03202638402581215, -0.07173844426870346, 0.2867544889450073, 0.1913553923368454, 0.007462307810783386, -0.2648930251598358, -0.12824201583862305, -0.004926384426653385, 0.17723099887371063, 0.024844367057085037, 0.1840178370475769, 0.18789902329444885, 0.2623215913772583, 0.1950148344039917, 0.12529893219470978, -0.2530994713306427, 0.24144788086414337, -0.28446441888809204, -0.12878911197185516, 0.05391579866409302, 0.060532938688993454, 0.12406890094280243, -0.09550897777080536, -0.15425853431224823, -0.1265716850757599, -0.05501774325966835, 0.13283690810203552, 0.17706716060638428, 0.08922994881868362, -0.16670021414756775, -0.020060202106833458, -0.1845518946647644, 0.2608705163002014, 0.16678684949874878, 0.21558617055416107, 0.21244122087955475, -0.09079889208078384], [-0.0690593495965004, 0.21482881903648376, -0.250529021024704, -0.029702920466661453, 0.03348744660615921, 0.151201993227005, 0.2795127332210541, 0.18480204045772552, 0.03169897943735123, 0.23592489957809448, 0.17502862215042114, -0.3191554546356201, -0.28079408407211304, -0.04649503901600838, -0.16081707179546356, -0.30253273248672485, 0.01214519888162613, -0.08060797303915024, 0.23086218535900116, 0.20890124142169952, 0.11415404826402664, -0.28274840116500854, -0.054020509123802185, -0.08966425061225891, 0.2305077165365219, 0.03275436535477638, 0.19195610284805298, -0.03195212036371231, 0.166324183344841, -0.10595326870679855, 0.27423059940338135, -0.23834621906280518, 0.301835298538208, -0.08467955142259598, 0.16700132191181183, 0.05856728181242943, -0.07797488570213318, 0.30952349305152893, 0.2788289189338684, -0.14842703938484192, 0.14693906903266907, -0.2837872803211212, -0.026111075654625893, 0.07222527265548706, 0.14467795193195343, 0.26349887251853943, -0.1814899891614914, -0.04149341583251953, -0.1974370926618576, -0.2929252088069916, 0.2088920772075653, 0.28619444370269775, -0.042609844356775284, -0.19316603243350983, 0.16679441928863525, -0.03750569373369217, 0.0032434759195894003, -0.05469011515378952, 0.19863805174827576, -0.2850298285484314, -0.2832019031047821, -0.0017129750922322273, 0.21495486795902252, -0.17868751287460327], [-0.2657371461391449, -0.03814656287431717, -0.2589794993400574, 0.030517589300870895, 0.0005941151757724583, 0.07879845052957535, 0.29727664589881897, 0.07397614419460297, -0.05452077463269234, -0.2540980279445648, 0.27252715826034546, -0.04549959674477577, 0.2828967571258545, 0.06368928402662277, 0.2279217392206192, 0.1380549669265747, 0.13180336356163025, 0.09823514521121979, -0.08786290138959885, 0.2360466569662094, -0.256914883852005, 0.19304309785366058, -0.03213375061750412, -0.035683345049619675, 0.039299268275499344, 0.24595259130001068, 0.2765759229660034, -0.17443056404590607, -0.30165502429008484, 0.2878856360912323, -0.1409396529197693, 0.21151253581047058, -0.09026623517274857, 0.002453175140544772, -0.02721273899078369, 0.04573981836438179, -0.14394772052764893, -0.1463644802570343, 0.23214754462242126, -0.028650235384702682, -0.05892571806907654, 0.1686152070760727, 0.1971530020236969, 0.21354717016220093, -0.062417805194854736, 0.26276153326034546, 0.0812370553612709, -0.29343387484550476, -0.1648826003074646, -0.1762285828590393, -0.07331100106239319, -0.018549779430031776, 0.041432302445173264, -0.11007585376501083, -0.24079442024230957, 0.23606158792972565, 0.05171109735965729, -0.17615024745464325, 0.12493351101875305, -0.23182585835456848, -0.04348281770944595, 0.15519802272319794, 0.2103474736213684, 0.23644617199897766], [0.008686653338372707, 0.23922927677631378, -0.29295614361763, 0.15318875014781952, 0.09065359085798264, 0.029294494539499283, 0.2219919115304947, 0.1257477104663849, -0.15854623913764954, -0.12909936904907227, -0.045686159282922745, 0.05304291099309921, -0.03535417839884758, -0.1575782299041748, -0.06069329380989075, 0.04866993799805641, 0.0739162415266037, 0.14414234459400177, -0.03340417519211769, 0.20726294815540314, 0.25636428594589233, -0.0683198869228363, -0.061174169182777405, -0.19305996596813202, -0.1536620557308197, -0.13250888884067535, 0.025354541838169098, -0.050009556114673615, -0.27787721157073975, -0.1777176856994629, -0.28532710671424866, -0.1757080852985382, -0.09932497888803482, -0.1307542473077774, 0.27597105503082275, 0.05812286213040352, -0.2347617745399475, -0.16032852232456207, 0.27922168374061584, -0.1687404215335846, 0.2511383891105652, 0.07934383302927017, 0.2166154980659485, 0.21687011420726776, -0.018618067726492882, 0.27616265416145325, -0.0702533945441246, -0.2713567316532135, -0.054153554141521454, -0.12597516179084778, 0.09543421119451523, 0.18577274680137634, 0.26637667417526245, 0.11322014778852463, 0.3076156675815582, 0.011230472475290298, -0.27136263251304626, -0.19961991906166077, 0.2104794979095459, -0.07042144238948822, 0.03222493454813957, 0.20586809515953064, 0.2196323275566101, 0.0740026906132698], [0.06714893132448196, 0.065748430788517, -0.08867058157920837, -0.022005125880241394, 0.2746727466583252, -0.23118828237056732, -0.2798561453819275, 0.1777881234884262, -0.22132407128810883, 0.08333627134561539, -0.15157602727413177, 0.2669481635093689, -0.05395960807800293, -0.08997725695371628, -0.15202279388904572, 0.10362868010997772, 0.1470194011926651, -0.15868055820465088, -0.12192972749471664, -0.20369304716587067, -0.19778402149677277, 0.2785700857639313, -0.122390016913414, 0.22522230446338654, 0.1947600394487381, 0.022682053968310356, -0.09032367914915085, 0.2767098546028137, -0.30465734004974365, -0.05050055310130119, -0.10635112971067429, 0.25239455699920654, -0.20355623960494995, 0.23509840667247772, -0.0819389820098877, 0.12929905951023102, 0.18314412236213684, 0.006886062677949667, -0.040122196078300476, 0.2518090605735779, -0.019733037799596786, 0.03243640065193176, 0.21250103414058685, 0.32514244318008423, -0.2695075571537018, -0.08703071624040604, 0.25840863585472107, 0.22228720784187317, -0.16942326724529266, 0.0851084291934967, -0.21326844394207, -0.2108948826789856, -0.25592806935310364, 0.24613164365291595, -0.029589420184493065, 0.19102464616298676, -0.10884659737348557, -0.2707785367965698, -0.17914333939552307, 0.07456351816654205, -0.203745037317276, -0.19710691273212433, -0.01564740389585495, -0.2628065347671509], [-0.1296379417181015, -0.2803768813610077, 0.2635282874107361, -0.19610431790351868, 0.10309813916683197, 0.17183159291744232, -0.04585041478276253, -0.05240137502551079, 0.17793124914169312, -0.05081872269511223, 0.2124973088502884, -0.21025227010250092, 0.2792356610298157, -0.01912592351436615, -0.05628581717610359, 0.012633904814720154, 0.06158023327589035, 0.0580892413854599, -0.019638197496533394, -0.10551122575998306, 0.18743328750133514, -0.19696365296840668, 0.226580411195755, -0.03443169966340065, 0.2656989097595215, 0.0799371749162674, -0.0749572217464447, -0.07670261710882187, -0.28461122512817383, 0.26903900504112244, 0.0643564984202385, -0.1099686324596405, 0.26011598110198975, -0.16050538420677185, 0.2799910604953766, 0.2522285282611847, -0.03480107709765434, -0.061152465641498566, -0.0023957332596182823, -0.16943153738975525, -0.11363539099693298, 0.062207095324993134, 0.15890328586101532, -0.06449791043996811, -0.07814489305019379, -0.20488086342811584, -0.09378039836883545, 0.23308493196964264, 0.19009390473365784, 0.2762499451637268, -0.22151987254619598, 0.07398181408643723, 0.07244061678647995, 0.05597763508558273, 0.056807924062013626, -0.1622391641139984, 0.06821262836456299, -0.23199479281902313, 0.2502688467502594, 0.07523437589406967, 0.28627926111221313, 0.03438662365078926, -0.10892035067081451, 0.2535403072834015], [-0.21881400048732758, 0.11505069583654404, -0.01854710653424263, -0.18673430383205414, 0.16214248538017273, 0.2036065012216568, 0.2116164118051529, 0.26285848021507263, 0.1313638687133789, -0.19157668948173523, 0.0387171134352684, -0.24721744656562805, 0.014648606069386005, 0.2677414119243622, 0.2628563344478607, 0.19534932076931, 0.26226606965065, 0.0035787750966846943, -0.06040109321475029, 0.18364499509334564, 0.007344002369791269, 0.14765281975269318, 0.00817917101085186, -0.07091695070266724, -0.24329745769500732, -0.08921413868665695, 0.2737561762332916, -0.09204050153493881, -0.04327789694070816, 0.15248039364814758, 0.15087240934371948, -0.2227303385734558, -0.15189921855926514, -0.2892334759235382, -0.13501405715942383, -0.20597170293331146, 0.06208823621273041, 0.15560917556285858, -0.02082359604537487, -0.06654300540685654, -0.07703746110200882, 0.21109986305236816, 0.11937418580055237, 0.19263078272342682, -0.011058473959565163, 0.19549310207366943, 0.2475549280643463, 0.07225275784730911, -0.17577558755874634, -0.30100855231285095, 0.23549126088619232, 0.11576592922210693, 0.28983020782470703, 0.1456800401210785, -0.13925006985664368, 0.12424343824386597, 0.07845410704612732, -0.0663987472653389, -0.2901298999786377, 0.22325412929058075, 0.030093826353549957, -0.08512724190950394, 0.016606224700808525, -0.18428508937358856], [-0.25648775696754456, 0.20165416598320007, -0.1140456348657608, -0.09302791208028793, -0.2791399657726288, 0.34383049607276917, -0.18257027864456177, -0.3096943497657776, -0.085346519947052, 0.27714771032333374, -0.18894025683403015, 0.19349324703216553, 0.15965226292610168, -0.0867830365896225, 0.2837204933166504, 0.12723079323768616, 0.026147788390517235, 0.15856704115867615, 0.11020644754171371, -0.2150365561246872, -0.27684739232063293, 0.15323616564273834, 0.209430530667305, -0.23303571343421936, 0.27266284823417664, -0.2213771641254425, -0.261290967464447, 0.2627883553504944, 0.10217031836509705, 0.22044637799263, -0.24008366465568542, 0.1408938318490982, -0.21572445333003998, 0.08973187953233719, 0.11237340420484543, 0.22735898196697235, -0.09353118389844894, -0.10727901011705399, -0.19058020412921906, -0.08456884324550629, 0.17745797336101532, 0.2717655599117279, -0.03228846937417984, -0.19051209092140198, 0.14068832993507385, 0.06988081336021423, 0.17143018543720245, -0.0055112456902861595, 0.1115584447979927, 0.1142321527004242, 0.07579118013381958, 0.15444040298461914, 0.0018733672332018614, -0.18580175936222076, 0.11965248733758926, 0.3245004117488861, 0.1674286425113678, 0.23778997361660004, 0.1538972407579422, 0.11218752712011337, -0.23185378313064575, -0.13839870691299438, 0.029062235727906227, -0.28225642442703247]], "biases": [-0.10475830733776093, -0.02881673537194729, 0.024324044585227966, 0.12877172231674194, -0.012545596808195114, -0.08524977415800095, -0.10186849534511566, 0.07442522048950195, 0.01802520453929901, 0.04362420365214348, -0.016990046948194504, 0.11021490395069122, -0.07372251898050308, 0.026504939422011375, -0.01955953612923622, -0.04066739231348038, 0.020568598061800003, -0.004811946768313646, 0.10378467291593552, 0.003959253896027803, -0.03824546933174133, -0.0511498749256134, 0.10754331946372986, -0.008871332742273808, -0.07077832520008087, 0.013910394161939621, -0.09348740428686142, -0.04508993402123451, -0.018630223348736763, -0.12949225306510925, -0.08579187095165253, -0.12826496362686157, -0.043185263872146606, 0.06732754409313202, -0.12614279985427856, 0.024717263877391815, 0.10830222070217133, 0.13692833483219147, 0.026323316618800163, -0.04063893109560013, -0.10189548134803772, 0.06485939770936966, 0.05570617690682411, 0.007719614077359438, -0.04022122547030449, 0.0928373783826828, 0.12276139855384827, -0.13538436591625214, 0.10383409261703491, 0.09147053956985474, 0.07075615227222443, 0.10597854107618332, -0.07745055109262466, -0.0393727608025074, -0.06867699325084686, 0.0057758367620408535, -0.13329771161079407, 0.06768272072076797, -0.13339491188526154, 0.018926270306110382, -0.03574538975954056, 0.11641491949558258, -0.0954056978225708, 0.13343851268291473]}, {"weights": [[0.09187410026788712, 0.17672841250896454, 0.24067682027816772, -0.32062846422195435, 0.0825982391834259, -0.2082291543483734, -0.2498251348733902, -0.25914621353149414, -0.19159768521785736, -0.1794240027666092, 0.1162995994091034, 0.03527088090777397, 0.25638067722320557, 0.12420795112848282, 0.08199719339609146, -0.20829419791698456, -0.06244119256734848, -0.022793810814619064, -0.21732476353645325, -0.05509030446410179, 0.07022719830274582, 0.10389047861099243, -0.2639729082584381, 0.09330173581838608, -0.09792517870664597, -0.07876008749008179, -0.126288041472435, 0.017601223662495613, -0.1758069396018982, -0.2127818614244461, -0.2562516927719116, -0.08626598119735718, 0.1609792709350586, -0.23362527787685394, 0.17493708431720734, 0.31882622838020325, -0.22993312776088715, 0.13335300981998444, 0.2601358890533447, 0.06549928337335587, -0.11293045431375504, 0.060663457959890366, 0.053555235266685486, -0.1015860065817833, -0.05562836676836014, 0.257142573595047, 0.2905634939670563, 0.21172738075256348, 0.17767931520938873, -0.1550135612487793, 0.18686890602111816, -0.30230191349983215, 0.08808711171150208, 0.10249578952789307, -0.0019843296613544226, -0.2734895646572113, 0.06822642683982849, 0.25846007466316223, 0.033918846398591995, 0.1178698018193245, 0.2549949288368225, 0.00948996003717184, 0.209710955619812, 0.04362821951508522], [-0.24000972509384155, -0.15579551458358765, 0.07541672885417938, 0.004358056932687759, -0.0175041314214468, -0.12024876475334167, 0.19042836129665375, 0.020571831613779068, -0.10237708687782288, -0.013357398100197315, -0.05689312890172005, 0.0019910577684640884, -0.2229282408952713, 0.1563795804977417, -0.15045537054538727, -0.2810772657394409, 0.16393059492111206, -0.06184326112270355, 0.04112495854496956, 0.23273257911205292, 0.2768841087818146, -0.18409690260887146, -0.07782486081123352, -0.25097689032554626, 0.3005615472793579, -0.25171464681625366, -0.039082929491996765, -0.22963301837444305, 0.023683294653892517, -0.031232329085469246, 0.16193048655986786, 0.21944676339626312, -0.19408725202083588, -0.10803905129432678, -0.02842823602259159, 0.3063356876373291, -0.21801559627056122, -0.17716404795646667, 0.13327307999134064, 0.18841670453548431, 0.08235398679971695, -0.19693994522094727, -0.011632654815912247, -0.062012042850255966, 0.2579701840877533, -0.1519348919391632, 0.17245204746723175, -0.1487867534160614, 0.07965108752250671, 0.01345536857843399, 0.31559446454048157, -0.05449492484331131, 0.19475653767585754, -0.23349088430404663, -0.09268437325954437, 0.07478029280900955, -0.3266562521457672, 0.05598989501595497, -0.17308363318443298, -0.009445805102586746, -0.0444275364279747, 0.03447475656867027, -0.26171743869781494, -0.28760555386543274], [0.08481662720441818, -0.021527577191591263, 0.011363545432686806, 0.15577785670757294, 0.1969453990459442, -0.22370116412639618, -0.0746409147977829, -0.2681920528411865, 0.11858128011226654, 0.2951452136039734, 0.1581234335899353, -0.10015954077243805, -0.3111167848110199, -0.17871661484241486, 0.16717533767223358, -0.06725696474313736, -0.0791320651769638, 0.16757270693778992, 0.12729734182357788, -0.12651948630809784, 0.11951034516096115, 0.13855569064617157, -0.08431694656610489, 0.07938922196626663, 0.10515788197517395, -0.19091765582561493, 0.10799114406108856, 0.06422724574804306, -0.2547500431537628, 0.17113719880580902, -0.27248862385749817, -0.25781679153442383, -0.20441597700119019, -0.19224555790424347, -0.25594040751457214, -0.036094408482313156, -0.01929493434727192, -0.2520865797996521, 0.12637104094028473, -0.20969608426094055, -0.19579577445983887, 0.059854015707969666, -0.23994742333889008, -0.09193774312734604, 0.12204904854297638, -0.0104708606377244, -0.1998470276594162, 0.0396745540201664, 0.04231725633144379, -0.021813660860061646, -0.23310205340385437, -0.3154926002025604, -0.055531468242406845, 0.2751762866973877, 0.1736554205417633, 0.2990463376045227, -0.036934204399585724, 0.04514758288860321, 0.2980860769748688, 0.24014912545681, -0.17569701373577118, -0.043664924800395966, 0.18421797454357147, 0.14015047252178192], [0.13935458660125732, -0.04257704317569733, -0.13744235038757324, 0.12844854593276978, 0.14476171135902405, -0.2370937317609787, -0.23336055874824524, 0.26538416743278503, -0.13472336530685425, -0.29449790716171265, -0.006111480295658112, -0.13953897356987, -0.040601663291454315, -0.2294301986694336, 0.153636172413826, -0.15665572881698608, -0.020018303766846657, 0.040092844516038895, 0.004617702681571245, -0.16741085052490234, 0.19696228206157684, 0.11150957643985748, 0.0670008510351181, -0.1151619628071785, 0.151256263256073, 0.20995157957077026, -0.015953943133354187, -0.1845298856496811, -0.2912387549877167, -0.006651968229562044, -0.03374383971095085, -0.18938742578029633, 0.2962716519832611, -0.008869914337992668, -0.16387127339839935, 0.23381642997264862, 0.11513818055391312, -0.12977738678455353, 0.28002089262008667, 0.17171511054039001, -0.1576819270849228, 0.18026961386203766, -0.11326717585325241, -0.25107404589653015, 0.06376980990171432, 0.18216809630393982, -0.11700834333896637, 0.11617864668369293, -0.19470980763435364, 0.03678851202130318, -0.1894063502550125, 0.1704424023628235, 0.06370420753955841, -0.06798105686903, -0.08514304459095001, -0.04703458026051521, 0.07298743724822998, -0.1400691270828247, 0.16710877418518066, 0.21459326148033142, 0.22538377344608307, 0.29257291555404663, 0.15677744150161743, 0.02478327415883541], [-0.0674009919166565, -0.005744574591517448, 0.1710929274559021, -0.2808842957019806, -0.06909432262182236, 0.21506743133068085, 0.2628728151321411, -0.2830658257007599, 0.12919114530086517, 0.0939132571220398, 0.12689387798309326, 0.19601202011108398, -0.13513454794883728, -0.09594570100307465, 0.2453652322292328, -0.11399736255407333, -0.1869511902332306, -0.09575218707323074, 0.24222920835018158, 0.009106738492846489, -0.10062123090028763, 0.13128642737865448, -0.047600314021110535, -0.09478725492954254, 0.24879106879234314, -0.011627589352428913, -0.2590847313404083, 0.08807709813117981, 0.13948632776737213, 0.21859242022037506, 0.22838643193244934, -0.212213933467865, -0.14559490978717804, 0.06691738963127136, -0.15136688947677612, -0.20771418511867523, -0.04582473635673523, -0.23590902984142303, 0.10763826966285706, 0.2275661677122116, 0.1846684366464615, 0.2408728450536728, -0.18258430063724518, -0.06898793578147888, -0.10426636040210724, 0.2720410227775574, -0.2805175185203552, 0.20361125469207764, 0.2950321435928345, -0.03659968450665474, -0.06093619763851166, -0.016932228580117226, -0.07921906560659409, -0.0352572537958622, 0.013884739950299263, 0.13043951988220215, -0.1382785588502884, -0.1583980768918991, -0.21367964148521423, 0.13353662192821503, -0.06131948530673981, -0.1425359845161438, 0.16384257376194, -0.06643428653478622], [-0.29117992520332336, -0.17857930064201355, -0.2738431692123413, 